Matrix_1
-0.570336			0.037479			0.454399			-0.193287			0.745287			-0.412334			-0.399543			0.665351			-0.228608			0.610768			0.45862			0.0410517			0.181481			-0.188479			0.486489			-0.902942			0.0880116			0.818187			0.73482			0.184806			0.27768			0.289785			-0.730529			0.258099			0.167625			0.909399			-0.325999			0.209802			0.14014			0.486938			-0.191974			0.306951			0.728469			-0.754029			-0.470237			0.412235			0.668592			-0.580633			-0.263484			-0.350999			0.717797			0.13572			-0.461283			-0.0684185			-0.35518			-0.879714			-0.36194			0.379953			0.184904			0.0607021			-0.0379517			0.865081			0.560157			-0.0894645			-0.297334			-0.158124			0.355674			-0.104769			-0.520171			-0.146753			0.105123			-0.429647			-0.330925			0.546517			0.351566			-0.683565			-0.297828			-0.0179948			0.6222			0.320262			0.476193			-0.348446			0.918431			-0.0312153			0.52845			0.899133			-0.0572182			-0.517934			0.262989			-0.547389			-0.414245			0.193715			0.64479			0.0688133			0.00329941			-0.153724			-0.175769			0.240121			-0.786395			-0.0579999			0.225976			0.536393			-0.584648			-0.394666			-0.600305			-0.294932			0.435336			-0.0476943			0.544025			-0.226071			
-0.177504			0.531507			-0.199213			0.0473824			0.520487			0.102262			0.424026			0.430459			-0.0307707			0.766155			-0.65628			0.657536			0.0559186			0.236458			0.714075			0.0956287			-0.490222			-0.225782			0.116335			0.702587			-0.320668			-0.110936			-0.5557			-0.29798			0.10098			0.271594			-0.359808			-0.585141			0.187758			0.146197			0.536785			-0.0327098			-0.1891			-0.0814074			-0.587344			0.448179			0.323812			0.133879			-0.78437			-0.272393			-0.284298			-0.150347			-0.0606356			0.0900593			0.897449			0.23141			-0.297278			0.580363			0.3509			0.349054			-0.618888			-0.292635			0.182436			-0.157138			0.361444			0.275676			-0.640299			0.443854			-0.268231			0.197475			-0.695291			0.609898			-0.0642255			0.354263			0.266465			0.801735			-0.0943213			-0.342027			-0.368071			0.123066			-0.156972			-0.349343			0.0802196			0.297894			-0.249681			-0.776136			0.716752			-0.579363			0.32207			0.215346			-0.131905			0.258033			0.40042			-0.294911			0.00715668			-0.459065			0.299881			0.226315			-0.0915601			0.0951104			0.732798			0.0223445			0.325248			-0.244966			0.394809			-0.0507306			-0.0950385			0.376202			-0.184519			0.459707			
-0.0599262			0.123211			-0.396999			-0.457353			-0.956823			-0.437308			0.143155			0.24713			-0.246472			-0.693669			0.671803			0.40335			0.577616			0.0089183			0.00783603			-0.111925			0.494258			-0.0551539			0.0405452			-0.120478			-0.0829049			0.970891			0.40316			0.829075			-0.194799			-0.122669			-0.565593			0.0852673			0.182594			0.813939			-0.386118			-0.390962			-0.303628			0.240698			-0.438768			0.0342068			0.158377			0.609905			0.0917532			0.49875			-0.375746			0.0725866			0.42866			0.932662			-0.039094			0.100434			0.0505605			-0.840403			0.936465			0.950673			-0.18917			-0.0889989			0.243155			0.562653			-0.168015			-0.529077			-0.623437			-0.203524			0.919219			0.227729			-0.102405			0.235399			-0.0577204			-0.574594			0.862339			0.792779			-0.274465			0.0371773			-0.382097			0.308625			-0.568946			-0.299456			0.670613			-0.697929			0.315833			-0.722881			0.563187			0.867035			0.70805			-0.8785			-0.36159			-0.390179			-0.0107016			-0.282632			-0.895927			-0.245661			-0.313693			0.416613			-0.701321			0.398566			0.0175276			-0.636873			0.636574			0.00522186			0.238979			0.313591			-0.266785			-0.171555			-0.0260402			0.304765			
0.320451			0.00936234			-0.698888			0.0642495			0.397887			0.595196			0.17062			-0.0727564			-0.3963			0.266439			-0.297926			0.295284			-0.399332			0.313619			-0.166237			0.0474448			-0.198071			-0.532077			-0.176822			-0.520657			-0.307308			0.0819345			0.248199			-0.842379			0.102997			0.189513			-0.043575			0.433241			0.195604			-0.323371			-0.0873509			-0.20743			0.823835			0.0570236			-0.30551			-0.412682			0.638567			0.519603			-0.374354			-0.916044			-0.468588			-0.222228			0.125008			0.0316033			0.241286			0.0431572			-0.312972			-0.250916			0.937298			-0.239823			-0.120467			0.915905			-0.757647			-0.316701			-0.0729894			-0.531859			0.546135			0.459291			0.248869			0.0380167			0.369236			-0.0325112			-0.685064			-0.454167			-0.182857			0.424555			-0.649221			-0.156484			0.168389			-0.0337007			-0.273405			0.45684			-0.384803			-0.297998			0.235906			-0.192429			0.0328345			0.0659612			-0.248343			-0.0317354			-0.631926			0.465138			0.850393			0.662436			0.68847			-0.450633			-0.181681			-0.76723			0.565825			-0.0119155			-0.577527			0.863648			-0.12881			0.700457			0.0253287			-0.473421			-0.233981			-0.57951			-0.0790105			0.514811			
0.656198			0.0818176			0.270359			0.29749			-0.454085			-0.909311			-0.704906			0.585651			0.665164			0.74386			-0.236033			0.649716			-0.0905308			-0.512989			-0.322502			0.113603			-0.64605			-0.526679			-0.339961			-0.367628			0.406111			-0.575126			0.492692			0.0471659			0.0912656			-0.227343			-0.479987			0.0123832			0.349635			-0.137416			0.413816			-0.294667			-0.456614			-0.116828			-0.184166			-0.640998			-0.56018			0.625081			0.648816			0.304883			-0.0706489			0.141817			0.621951			-0.370809			-0.620248			-0.0144797			0.930028			0.718488			-0.384611			-0.125923			-0.932958			-0.783306			0.982064			0.288348			-0.0104679			-0.123855			0.734095			0.327227			-0.19535			-0.172827			-0.120789			0.239136			-0.144293			0.287579			-0.09778			0.468171			-0.111638			-0.375726			-0.351539			-0.455355			0.217962			-0.643334			-0.0177907			0.0615276			0.123357			-0.807707			0.0884093			0.62808			0.0794788			-0.00993912			0.76114			0.339131			0.801762			-0.271629			-0.563495			0.663286			-0.220863			-0.0967712			-0.149585			0.728127			0.119372			0.482699			0.46247			0.611881			-0.0161723			0.559005			0.132514			-0.924758			-0.184629			0.0644649			
0.498381			0.326088			-0.705211			-0.545674			0.3999			0.237006			0.49568			-0.0965498			0.632625			-0.474992			0.760284			0.0826996			-0.153307			-0.892448			-0.298601			-0.0840443			-0.865169			0.512307			0.345076			0.229874			-0.457515			0.0957512			0.67793			-0.634782			-0.195147			0.27842			0.510405			-0.736326			-0.558297			0.839983			0.189432			-0.163435			-0.0542518			-0.233591			-0.0161403			-0.78617			0.326445			0.142045			-0.160317			-0.187041			0.882307			-0.87659			0.0986179			0.588944			-0.56204			-0.485529			-0.158471			0.00615008			-0.971126			0.0749855			0.218167			0.157158			-0.00268146			-0.8674			0.6422			0.360454			-0.489919			0.26061			0.924103			-0.19126			-0.379338			0.0148493			0.379191			-0.103718			-0.589119			-0.431287			-0.110889			-0.247815			0.312393			0.0830069			0.0825535			0.65336			0.485784			-0.440779			0.405202			-0.0768262			0.121695			-0.0446309			-0.924181			-0.668778			0.00672699			-0.587278			0.488755			-0.0995456			0.271719			0.489005			-0.311769			0.0545299			-0.770637			0.832826			-0.575964			0.61625			0.594151			0.157226			-0.337952			-0.28333			-0.781498			-0.163509			-0.309229			-0.177481			
-0.405901			0.636785			-0.0194566			-0.620629			0.123084			0.655017			0.560792			-0.368835			0.652358			0.34564			-0.0841246			-0.0597291			0.780838			-0.549728			0.100524			-0.419747			-0.13643			0.844003			-0.0188876			-0.284603			0.283049			-0.157714			-0.362668			-0.421276			-0.27068			0.63681			0.331304			-0.222444			0.232261			-0.353945			-0.26669			-0.523724			-0.0640944			0.390233			0.200862			-0.128658			0.502253			-0.140643			-0.161957			0.0592471			0.548481			-0.361495			0.563764			-0.52004			0.153508			-0.475059			-0.377773			0.555685			-0.309557			0.433114			-0.262729			-0.461245			-0.36956			-0.776417			0.0457002			0.0145138			-0.797652			0.261546			-0.460869			-0.264791			-0.194964			-0.194722			0.33722			0.174679			-0.492871			0.132324			0.405701			0.126502			0.556428			0.384091			0.0275114			0.527505			-0.259012			-0.288854			-0.730219			0.251269			0.656866			-0.119959			0.339618			0.0798762			-0.413179			-0.18993			0.145551			0.499927			0.0634593			0.488193			0.314123			-0.765774			-0.47246			-0.53497			-0.221021			0.0833514			-0.251497			0.180804			0.109477			-0.19059			0.428181			-0.918519			0.486097			0.324955			
0.600365			-0.31699			-0.142159			-0.0303019			0.567253			-0.0775818			-0.131423			0.684723			0.47915			-0.179325			0.545553			0.62101			-0.273199			-0.00830293			0.211139			0.516486			0.249965			-0.449313			0.321206			-0.157555			0.764816			-0.0286247			-0.145152			-0.0200589			-0.222642			-0.46279			0.164666			-0.915418			0.146281			0.360932			0.402186			0.350405			-0.620518			0.316855			0.31575			-0.717634			-0.0335528			-0.118734			0.595666			-0.766964			0.852285			0.460923			0.320934			-0.369834			-0.270661			-0.815798			-0.883692			-0.969175			-0.0941062			-0.178738			-0.15666			-0.765699			0.152026			0.287431			-0.0954005			-0.416548			-0.316512			0.37502			-0.0349403			0.352215			0.310683			-0.27604			-0.013816			-0.608198			0.482385			0.152675			-0.334039			0.752606			-0.0988148			0.137382			-0.205256			0.929305			-0.0739515			0.1668			0.00325686			-0.370935			0.544607			-0.626449			-0.360741			0.308631			0.10247			0.0110675			0.44977			0.0314248			0.231279			-0.176796			0.264202			0.305222			0.0482621			0.509944			0.205815			0.589003			-0.0241644			0.825965			0.262785			-0.0086124			-0.729109			-0.155708			-0.134521			0.384546			
-0.050797			0.279414			0.330794			-0.30097			-0.636179			0.247071			0.480416			-0.188735			0.433432			0.240496			0.0246254			-0.255924			0.161471			-0.221602			0.707173			-0.609355			-0.314243			-0.53507			-0.133679			-0.0838002			0.602499			0.641031			-0.22779			-0.371716			0.00617385			0.425221			0.117245			-0.146753			0.427526			-0.39102			-0.0299051			0.176748			0.569704			-0.513231			-0.464765			-0.443219			0.34493			0.263494			-0.402056			0.407889			0.189715			-0.95317			-0.251055			-0.569757			0.0345292			-0.169023			0.95362			-0.756684			0.421193			-0.783591			-0.0950397			0.669792			0.286719			0.980458			-0.0767555			-0.530863			0.128953			0.530163			-0.182401			0.239011			-0.149975			-0.188054			0.374697			-0.187681			-0.307966			-0.261638			0.36976			0.282492			0.661924			0.0434349			0.0617513			0.965798			0.00421929			-0.0872997			0.408078			-0.41262			-0.500346			0.207143			-0.609297			-0.401881			-0.105792			-0.110743			0.0175546			0.393743			0.00520083			-0.359799			-0.683873			-0.139424			-0.224637			0.192918			-0.426407			-0.0674756			0.346737			-0.684375			0.248197			-0.666707			-0.210354			-0.323014			-0.134178			-0.595341			
-0.574696			-0.334059			-0.269715			-0.672718			-0.0303085			-0.119904			0.146074			0.499454			0.0572525			0.272616			0.0734979			0.409581			-0.239306			0.0302768			0.553815			-0.361554			-0.200317			-0.401651			0.806688			-0.17042			-0.280673			-0.314515			-0.586735			0.413366			0.761425			0.769759			-0.56845			-0.238581			-0.500302			0.194982			0.085153			-0.278439			-0.0340946			-0.122741			0.0310821			-0.0127332			-0.906189			0.191151			-0.469261			0.377777			-0.115771			-0.485288			0.890647			0.582717			-0.5662			-0.049397			0.342694			0.0118948			0.165849			0.151215			0.448972			0.974247			-0.184809			0.216285			0.552597			0.754016			-0.482036			0.673627			0.0464298			0.419659			-0.579824			0.823396			0.391657			0.172165			0.660623			0.608557			0.192902			-0.692341			0.178701			0.651913			-0.643745			-0.865143			0.11894			0.285612			-0.278916			-0.426422			0.735739			0.783331			-0.151234			-0.0213082			-0.852513			-0.24913			0.0221457			-0.417148			0.389081			-0.425115			-0.111041			0.862173			-0.183745			0.186412			0.643014			0.434229			-0.572941			-0.0628496			0.262233			-0.283808			0.58261			-0.96702			-0.424858			-0.847805			
-0.104921			0.716258			-0.681324			0.84328			0.0386883			0.548497			0.55185			0.459497			0.237285			-0.0807621			-0.666758			-0.352707			-0.72095			0.477692			0.204052			0.0148872			0.369821			-0.718724			-0.528125			-0.409138			0.344189			0.644651			0.743638			0.397109			-0.0768299			0.380901			0.343369			-0.495929			0.447059			-0.343387			-0.0158258			0.0766985			0.378635			-0.0114103			-0.163097			0.325165			-0.439119			-0.924158			-0.413924			0.336118			-0.300905			0.842829			-0.72243			0.0975062			0.0970442			0.780533			0.544801			-0.240675			0.373142			-0.46002			0.147734			0.229988			-0.408941			-0.39306			-0.162898			0.312809			0.0845578			-0.26251			-0.145196			0.443338			-0.821467			0.347168			-0.251675			-0.297464			0.612998			0.00697105			-0.216212			-0.0489525			-0.0796345			-0.696855			-0.0185179			-0.319376			-0.247924			-0.650336			0.145115			0.0176792			-0.373693			0.156431			0.454654			0.146081			0.128763			0.164164			-0.133978			0.914051			0.756102			-0.295663			-0.323571			-0.899902			0.649648			-0.631664			-0.392858			-0.207936			0.386331			-0.93308			0.454447			-0.295529			0.0930149			-0.0761136			0.230553			0.774357			
-0.348657			-0.50977			0.0791971			-0.104007			-0.398978			0.140332			-0.248149			-0.579921			0.641797			-0.262393			0.472302			-0.679221			-0.253277			0.127884			-0.384728			0.0507547			0.203952			-0.248182			0.33424			0.537379			0.668612			-0.331528			-0.582492			-0.239138			0.0632362			0.499393			0.495756			-0.992749			-0.431124			0.94585			-0.481551			-0.844917			-0.354351			0.585584			0.762338			0.190438			-0.170926			0.637978			-0.560184			-0.380071			0.385861			0.135205			0.381676			0.891796			-0.626048			-0.172054			-0.293101			0.347016			0.127559			-0.758433			-0.618818			0.441882			-0.349096			-0.183665			0.282565			0.838966			0.251771			0.217381			0.411845			0.462983			0.555018			0.228349			-0.274997			-0.199415			-0.119931			-0.174108			0.249861			-0.685875			0.367845			0.922278			-0.342692			-0.233951			-0.140606			-0.425873			-0.70513			0.196728			0.248555			-0.22792			0.530275			-0.444555			-0.0339552			0.242557			0.297517			0.118529			-0.424282			0.0589044			-0.654356			0.258257			0.64028			-0.837388			-0.970681			0.647039			0.653366			0.738622			-0.663473			0.753033			0.0584309			0.102735			-0.547024			-0.133107			
-0.294569			0.913167			0.665608			0.131444			0.342463			-0.742541			-0.267263			-0.0596914			0.289299			-0.126185			-0.624316			0.18114			0.0899932			0.051121			-0.309777			0.690709			0.23144			-0.465851			0.167309			-0.223215			-0.517189			-0.533609			0.3706			0.759184			-0.14832			0.371427			0.248068			0.0749681			0.129398			-0.305804			0.45747			-0.795753			0.20345			0.432568			0.343165			0.432705			0.202322			-0.143268			0.238759			-0.41518			-0.213198			0.10553			-0.338286			-0.538001			0.711158			-0.249361			0.440721			0.624039			-0.0450119			-0.108015			0.103933			-0.795209			0.895431			0.129864			0.529489			0.354305			0.758249			-0.192936			-0.809318			-0.620265			-0.798381			0.165223			-0.398411			-0.751525			0.379986			0.295221			0.296537			0.553408			-0.425004			0.195052			0.643331			0.663307			-0.766741			-0.308574			0.483649			-0.0705197			0.474761			-0.248419			0.0537851			0.539457			0.215973			-0.37573			-0.00055907			-0.110299			-0.304856			-0.946314			0.329292			0.320431			-0.678634			-0.850768			-0.251004			-0.281693			-0.0290627			-0.284816			-0.157614			0.33169			0.384822			-0.734424			-0.0978184			0.148588			
0.65499			0.27176			0.710059			0.412807			-0.0366317			0.745293			-0.798141			-0.107958			0.108587			0.180373			0.401261			-0.369741			0.459398			-0.356603			0.0875643			-0.66366			-0.0810387			-0.206869			0.776906			-0.100845			0.759772			0.131598			-0.551798			-0.220741			0.51459			0.49465			0.106969			-0.739441			-0.135849			-0.147287			0.701674			0.498044			0.243587			-0.82276			-0.443757			-0.00185108			-0.4021			-0.149299			0.178969			-0.10791			0.0677681			-0.0594579			0.603666			-0.33113			0.170348			0.155193			-0.601353			0.631809			0.222593			-0.297498			-0.0541298			-0.0994128			-0.197985			-0.332826			0.110079			0.170635			0.541611			0.162325			0.0651205			-0.103443			0.658616			0.510151			-0.37992			0.356585			-0.223037			-0.148881			0.229649			0.077802			0.63879			-0.44646			-0.16201			-0.0466557			-0.327562			0.770281			0.559255			-0.542491			-0.260575			0.336085			-0.811149			0.10512			0.465259			0.470298			-0.603674			0.193515			-0.0957077			0.392755			-0.162119			-0.102646			-0.329855			0.0133922			-0.706846			0.76394			-0.52503			-0.135702			-0.354608			0.212594			0.82467			0.0157437			-0.303824			0.711072			
-0.982761			0.146704			-0.688033			0.163257			-0.140089			-0.371066			-0.707445			0.429843			0.103687			-0.0846101			-0.134713			-0.569009			-0.823708			0.0521145			0.000264225			0.027944			-0.759142			-0.635754			0.19351			-0.0879997			-0.41119			-0.477628			-0.113702			-0.603719			0.465227			-0.659656			0.0631377			0.133592			0.171693			0.662312			0.704977			-0.518859			-0.954815			-0.77117			-0.306453			0.394256			0.236764			0.110907			-0.301922			0.738122			-0.475569			0.557834			-0.165676			-0.488186			0.364648			0.289588			0.03885			0.0333494			-0.818432			0.574423			-0.56868			-0.828564			-0.478968			0.665813			-0.286573			0.229608			-0.688399			-0.217488			-0.623499			0.133433			0.45693			0.352056			0.493946			0.549621			0.102216			0.071187			0.176309			-0.459112			-0.131353			-0.289885			-0.486406			-0.627389			0.262291			-0.548707			0.38681			0.589004			-0.038474			-0.315262			0.714418			0.497034			0.423572			0.245004			0.187053			0.833136			0.367342			0.202009			0.435712			0.349648			-0.140777			-0.203087			-0.0321261			-0.294159			0.201924			-0.34282			0.810349			-0.0387355			0.116106			0.0990603			0.482804			0.234325			
0.0216746			-0.136479			-0.0914341			-0.0215949			0.784512			0.0468671			-0.0364123			0.321054			0.0556777			0.355474			0.701624			-0.779144			0.0700944			0.293435			-0.802653			-0.135317			-0.160308			-0.148127			-0.510562			-0.268828			0.354752			-0.558799			0.715224			-0.034231			0.0803145			0.890979			-0.348158			0.335085			-0.172146			0.158849			-0.384967			0.233854			-0.110906			0.136699			0.0958403			0.0834051			-0.0628482			-0.040278			-0.512938			-0.422626			0.0433555			-0.151986			0.265271			0.036931			0.0209555			-0.0912874			-0.278496			-0.293838			0.239022			0.665152			-0.39065			0.166351			0.442162			0.408862			0.135546			0.0471224			0.449055			-0.327427			-0.316109			0.127989			0.0605952			-0.780568			-0.733893			-0.175916			0.551149			-0.295247			-0.556008			-0.524386			0.568524			0.312668			0.3619			-0.170015			-0.185062			-0.527373			-0.103138			0.13432			-0.902277			0.273171			0.000829172			-0.504567			-0.46197			-0.646802			-0.210003			0.350163			0.0456753			0.142535			0.559071			-0.282573			-0.310819			-0.411573			-0.490129			-0.0933334			0.634053			0.2932			0.50825			0.309867			-0.241094			0.0822254			0.136912			-0.845184			
-0.519935			0.116662			0.38057			0.645657			-0.508342			0.142747			0.543673			0.0489572			0.791815			-0.844038			-0.562751			0.336488			0.350662			0.188004			-0.00716719			-0.230895			-0.74117			0.274244			0.577895			0.18733			-0.0367754			0.163679			0.626014			0.165293			0.224488			-0.168682			0.595854			0.125653			-0.1508			-0.320468			0.915949			0.956007			0.0619372			-0.388031			-0.0868141			0.19729			0.676091			0.297421			0.597743			0.511404			-0.676812			0.226919			0.0322226			0.185369			0.674005			0.825215			0.296731			0.0439789			-0.233171			0.451411			0.135061			-0.120188			-0.593513			0.276635			0.31117			0.362893			-0.466191			-0.494492			0.0766716			0.166624			-0.0374829			0.337441			0.100613			0.00624187			-0.0226147			-0.597944			-0.39177			-0.457444			0.0750382			-0.147606			0.238693			-0.706211			-0.560068			0.23016			0.54482			-0.476899			0.200729			0.440384			-0.509045			-0.333972			0.33167			-0.871594			0.677341			0.484686			-0.195129			0.169408			-0.0926782			0.662401			-0.283848			0.431688			0.210208			-0.203909			0.52914			-0.811616			0.503347			-0.17504			0.139481			-0.111028			0.548014			0.844478			
0.157628			-0.555897			0.311643			-0.169081			-0.112033			0.246549			-0.303655			-0.385081			0.618322			-0.120153			0.794185			0.215327			-0.455169			0.745121			0.0298883			-0.690552			0.10427			0.736015			0.424998			0.284258			0.0128036			-0.503051			0.226624			0.137937			-0.430499			-0.123745			-0.327535			0.138298			0.210849			-0.263246			-0.0772955			0.452331			0.10097			-0.374787			-0.332573			0.413528			0.289968			-0.103714			-0.0702311			0.159482			0.0890605			-0.191963			0.00798461			-0.648272			-0.432582			-0.743636			0.581303			0.32213			-0.678696			-0.204355			-0.596633			-0.932061			0.629024			-0.374011			0.0898753			0.140056			0.359329			-0.157431			0.435194			-0.506817			-0.0796938			0.821038			-0.0391687			0.258111			0.63932			-0.400968			-0.335128			-0.451028			0.0123677			0.48321			-0.691233			0.654112			-0.0428196			-0.0588046			0.487129			0.342191			-0.399094			-0.0242326			-0.367761			-0.00096221			-0.0684475			-0.258185			0.685859			-0.660338			-0.297274			0.39041			0.442653			-0.376213			-0.465923			-0.0156021			-0.848269			0.637671			-0.192686			-0.0494933			0.226385			0.363349			-0.667453			0.792079			-0.454164			-0.00154085			
0.184905			-0.367031			0.637967			-0.671927			0.632141			0.860444			-0.0173754			0.741986			0.546537			-0.458841			-0.386634			-0.275542			0.77209			0.0604729			-0.112137			-0.383307			0.245603			-0.321511			-0.659798			0.0817976			-0.0615115			0.188824			0.263382			0.0730171			0.0980601			0.342414			0.340055			-0.439042			-0.0446184			-0.601573			-0.653053			-0.373571			0.389612			0.750899			-0.458928			-0.857499			0.118491			0.252022			0.0265113			-0.309193			-0.731993			-0.0887539			0.346481			0.414093			0.504706			-0.875735			0.625588			-0.430838			-0.450258			0.44228			-0.0389201			0.724842			-0.199963			-0.321972			0.354741			0.340295			0.378864			0.444557			0.566364			0.399356			0.747547			0.397712			-0.566077			-0.651369			-0.767343			-0.436915			0.831908			-0.492461			-0.0827803			-0.326146			-0.0651304			0.0984102			0.0957492			-0.712023			-0.0669119			-0.0859582			0.705553			-0.00252397			0.578093			-0.539377			-0.186977			-0.150139			0.032264			0.264793			-0.437651			0.916161			0.917334			0.146064			0.16566			-0.324378			0.128918			-0.19935			-0.619368			-0.566619			-0.80413			0.725309			-0.224237			-0.764905			-0.351731			0.740588			
-0.395275			0.875287			0.159984			-0.194862			-0.340042			-0.124415			0.396598			0.183714			-0.405551			-0.553569			0.379056			-0.354282			0.0231311			-0.290805			-0.650115			0.648146			0.255153			0.124932			-0.0717432			-0.372532			0.17805			-0.75118			-0.467539			-0.220475			0.251161			0.00622909			-0.701078			-0.258385			0.0794511			0.465317			0.205213			0.276591			0.63428			-0.895986			0.564851			0.124032			-0.236491			-0.422838			0.108723			-0.0728053			0.843914			-0.222653			-0.43658			-0.697341			0.516472			0.181465			0.254428			-0.459166			-0.10651			0.209464			0.82195			-0.0629828			0.0771065			-0.492856			0.412594			-0.64772			0.328656			-0.987775			-0.0934977			-0.837718			-0.0826029			-0.881708			0.375457			0.37077			-0.294868			-0.547817			0.318272			0.318511			0.182518			0.737974			0.0201363			0.302691			0.487518			-0.274691			-0.476414			0.00290976			-0.509124			0.115675			-0.0387846			0.461323			-0.83096			-0.329756			0.59706			0.754844			0.555714			0.417815			-0.206701			-0.31884			-0.468617			-0.063394			0.382543			-0.0851014			0.385335			0.0439037			-0.115369			-0.410981			0.216067			-0.677515			-0.709199			-0.229888			
-0.355164			0.453179			0.199925			-0.186288			-0.112894			0.164769			0.357359			-0.00153292			0.37434			-0.220815			0.207442			0.728465			-0.25052			-0.540069			0.800715			-0.148847			0.634335			0.449466			-0.976297			0.92138			-0.127408			0.0726716			0.611618			0.181972			-0.0140474			0.51614			0.108658			-0.092009			0.609536			-0.0611212			-0.249472			0.427953			0.633744			0.540262			-0.188401			-0.455409			-0.118175			0.365777			-0.440683			-0.0815672			-0.457818			0.731252			0.0876802			0.539148			-0.159495			-0.149813			-0.355417			0.289809			-0.458108			-0.289865			0.193886			0.352152			0.595863			-0.921328			-0.973653			0.0802885			0.419823			-0.831817			0.242689			0.479852			0.597757			-0.373078			-0.397311			-0.69255			0.0939541			0.0526422			-0.108584			-0.65834			-0.295367			0.157469			-0.908521			-0.613931			0.0389463			0.476721			-0.554998			-0.473022			-0.695691			0.166848			-0.0752542			-0.719734			-0.734842			-0.769208			0.0133209			0.479258			0.357479			-0.104847			0.181116			-0.722739			-0.20148			0.197441			0.574184			-0.710687			-0.122785			0.457656			-0.616855			0.390699			-0.226943			-0.102838			0.21996			0.158068			
-0.289838			0.13252			-0.00854451			0.062862			-0.232887			0.478676			0.49618			-0.0242264			0.0985591			-0.204274			0.180823			0.568004			0.771885			0.659341			0.142557			0.337032			-0.187812			-0.47864			-0.1742			-0.509464			0.155512			-0.640427			0.0256568			0.182112			0.26995			-0.338256			-0.884814			0.844972			-0.216788			0.741843			0.284093			-0.301796			0.527062			-0.190837			-0.15505			-0.233454			-0.219718			0.414147			0.172178			0.788955			-0.0298242			0.349138			-0.795033			0.0625335			0.0674423			0.0607446			0.051319			-0.369395			0.453335			0.262612			-0.119636			0.432612			-0.98892			-0.0836277			0.125603			-0.269321			0.362571			-0.274911			0.621263			0.338843			0.158062			-0.0823616			0.256114			-0.454729			0.952611			-0.644147			0.0624556			0.68708			0.40236			0.24445			0.30432			0.293085			0.269744			-0.782413			-0.438928			0.321141			0.545637			-0.251308			-0.981608			0.0665076			0.217037			0.343005			-0.690775			-0.773879			-0.0387603			-0.8381			-0.216063			-0.118346			-0.0182684			-0.268343			0.49433			0.0460466			-0.261334			0.391374			-0.489823			0.800751			-0.672628			0.318218			-0.00248029			-0.424917			
0.537357			-0.465126			-0.143977			-0.0622042			-0.404487			0.444965			0.229811			-0.0333384			-0.163663			0.309361			-0.321061			0.525713			-0.164367			-0.189769			-0.0553782			0.343169			-0.898676			-0.128762			-0.395408			0.207353			-0.504024			-0.409893			-0.755332			0.677546			-0.194878			-0.042785			-0.618907			0.391841			0.304547			0.105694			-0.214156			0.797527			0.652001			-0.721842			-0.120027			-0.0767834			0.605853			-0.320002			0.0218049			-0.15834			0.238268			0.317716			-0.0440667			0.453598			0.194969			0.293323			-0.000244968			0.716874			0.0302848			-0.61631			-0.2341			0.573016			0.185095			-0.0361078			-0.602431			0.35269			0.287168			0.649521			-0.215028			-0.561505			0.963501			-0.51284			0.829439			-0.919715			0.0803872			0.262309			0.688665			-0.203772			-0.0173764			-0.307709			0.819481			-0.0703302			-0.569716			0.0268758			-0.035526			-0.650154			-0.802165			0.427001			0.570964			-0.619789			-0.343188			-0.0129037			-0.174543			-0.15481			-0.40263			-0.338071			0.0905482			0.510054			0.534213			0.263393			-0.43593			0.772848			-0.688539			0.0491343			0.943126			0.315422			0.0548078			0.149264			0.693843			-0.180567			
0.306515			-0.550595			0.775002			0.879791			0.868965			-0.630653			-0.384318			0.655552			-0.342289			0.267855			0.182294			-0.446389			-0.728844			-0.366561			-0.0525034			0.012513			0.27702			0.623781			0.413541			-0.721529			0.173234			0.709915			0.0996271			0.380836			-0.333928			-0.495068			-0.0583804			0.827299			-0.174076			-0.638019			0.41017			0.246488			0.34911			-0.457458			-0.115742			-0.82645			-0.185771			0.154191			-0.698059			-0.563752			0.0593719			-0.527841			-0.534175			0.418508			0.936757			0.486982			-0.469232			-0.0207856			0.536828			0.507442			-0.104459			-0.714174			-0.615998			0.0497473			-0.0115443			-0.00558588			0.544306			0.209025			0.0723594			0.30689			0.0289864			0.443359			-0.188538			0.864021			0.640302			0.378821			0.337628			0.942869			0.595405			0.382481			-0.492601			-0.477323			0.0998565			-0.442394			-0.0787212			0.477137			-0.286037			0.583599			-0.180341			-0.599848			0.163926			0.497904			0.729507			0.530681			0.42973			0.530436			0.522538			-0.373189			0.0663659			-0.0962264			-0.577955			0.523101			-0.151853			0.798188			0.513264			-0.258898			0.233896			0.669792			-0.102973			-0.454226			
-0.173052			-0.047272			0.120575			0.149621			0.0707566			0.129092			0.33251			-0.571444			0.433289			0.315444			0.924509			-0.111064			-1.20042e-05			0.849536			0.164813			0.155065			-0.386843			0.975941			0.527297			-0.0749784			0.436056			-0.21178			-0.293889			-0.68911			-0.0247678			-0.0247222			-0.478675			-0.189072			0.262289			-0.00606356			0.316698			0.629369			0.400346			-0.0687039			0.0407903			0.883464			0.29245			-0.00912768			-0.840049			-0.223583			0.282545			0.342688			-0.183982			0.579686			-0.745019			0.309241			0.406962			0.0743838			0.651961			-0.134443			-0.114561			0.336576			-0.430235			0.191977			-0.0823667			-0.00228721			-0.151055			0.686435			0.0949523			0.224281			-0.507483			0.749244			0.374264			0.426994			0.68736			0.834167			0.546975			-0.869681			-0.394952			0.185216			-0.107922			-0.169394			-0.497452			0.543218			-0.34228			0.2854			0.45092			-0.431878			0.410464			0.167158			0.252991			-0.0896203			0.28437			-0.21508			0.0912439			0.568065			0.519812			-0.0639941			-0.389405			0.353908			-0.425572			0.910127			0.58387			-0.894839			-0.53247			0.49254			0.0912719			-0.0392057			0.0033639			-0.657073			
0.71329			0.518673			0.261323			-0.43209			0.483019			-0.635469			0.0710194			0.645322			-0.472982			-0.168682			-0.0879737			-0.271088			-0.0375607			0.240177			-0.468679			-0.270194			0.081349			-0.143648			0.227866			0.920057			0.474331			0.745091			-0.275743			-0.611962			-0.181206			-0.249889			0.569506			0.512502			0.00900067			-0.193951			0.257847			0.276285			0.381922			0.504851			0.172211			-0.152118			-0.301717			0.19822			0.0237372			-0.399001			0.277968			0.417513			0.353754			0.639409			0.0440709			-0.567377			-0.122711			0.676853			0.117583			0.0414456			0.65266			0.763048			-0.256165			0.252733			-0.270718			-0.52668			-0.440986			-0.392986			0.140196			-0.303529			-0.214556			0.140891			0.257337			-0.105278			-0.062096			0.49431			0.0903882			0.535589			0.455128			0.772998			-0.35156			-0.513705			0.0645222			0.25505			0.00598218			0.77292			0.33286			-0.00314796			-0.669651			-0.270778			0.325811			-0.00192085			0.397282			-0.106792			-0.221881			-0.355673			0.449713			0.780002			-0.799077			-0.362249			0.27856			-0.427151			0.167063			-0.0639275			0.297907			0.3561			0.676864			-0.00558453			-0.322594			-0.380522			
-0.098425			-0.882339			-0.567337			-0.427165			-0.198457			-0.420013			-0.246557			0.432033			0.437191			0.3572			0.268562			-0.0679542			-0.616138			0.233598			0.806819			-0.258225			-0.0437369			0.522957			0.507183			-0.124727			-0.239096			0.243702			-0.104591			0.0875628			0.739779			0.481704			-0.248883			0.261757			-0.386863			-0.120067			-0.79166			-0.157143			0.332643			0.142057			-0.369285			0.111372			-0.0738311			-0.515225			0.550035			-0.389411			0.0863847			0.256629			-0.489454			0.351839			-0.371139			-0.219286			0.39663			-0.100424			0.310469			0.0436727			-0.00323607			0.107326			-0.146392			0.538295			0.833646			0.109243			0.418584			-0.357849			0.168118			0.306878			-0.368305			-0.710743			0.301006			-0.904054			0.388061			0.27179			0.0576532			0.685699			-0.26263			0.129365			-0.00201798			0.871387			-0.436798			0.847704			0.844918			-0.401796			0.827124			-0.461458			0.309838			0.112683			0.244209			-0.54865			0.0695384			0.189557			0.591175			0.170239			-0.591669			-0.0720695			-0.391532			0.184622			0.0378325			0.478952			-0.0886326			-0.477745			-0.652666			0.0284921			0.209264			0.934631			-0.780159			-0.152907			
0.376017			0.263835			0.575335			0.101284			-0.535811			0.513346			0.0332567			0.140546			-0.10957			-0.125082			-0.159729			0.939793			0.448695			0.280238			-0.00729363			-0.464342			0.130964			-0.476752			-0.653497			-0.185825			0.296837			-0.580565			-0.124883			-0.589684			-0.226882			0.215887			-0.368629			-0.304285			-0.133201			0.24573			-0.290894			0.0841762			-0.850975			-0.302319			-0.774241			0.414481			-0.239361			0.819128			0.0890694			0.296701			-0.118197			0.0801963			0.181839			-0.302272			-0.373862			0.0598984			-0.483413			0.12665			0.230218			0.0298247			-0.621556			-0.29149			0.4097			-0.842788			-0.426295			-0.378736			0.586846			-0.368921			-0.169124			0.437226			0.386074			0.254978			0.552998			0.940671			0.0626618			-0.441403			-0.0886882			0.351453			0.191233			-0.192746			0.064726			0.204465			0.103187			0.080069			0.306406			-0.3289			0.317551			0.499523			-0.781171			-0.831567			-0.0751062			0.223668			0.310233			-0.587547			0.504182			0.290387			-0.751662			0.684069			0.388779			0.245388			0.292983			0.200841			0.852098			0.477922			0.485628			0.437954			-0.379796			-0.00305867			0.070497			0.654163			
-0.181233			0.669316			-0.0873285			-0.146316			-0.329284			-0.109769			0.245004			0.608942			-0.0587002			0.810399			-0.470953			-0.727535			-0.117001			0.427035			0.288344			-0.636317			0.337831			0.143688			-0.0107724			-0.464353			0.27683			-0.0226946			-0.383599			0.318805			-0.44639			0.0176771			-0.195195			-0.515993			0.656031			-0.663949			0.569516			0.070412			0.38894			0.362471			-0.586417			-0.0388904			0.715791			0.182378			0.549727			-0.800062			-0.607405			-0.0544952			-0.255465			-0.237031			0.110397			0.285943			0.265929			0.436654			0.499236			-0.261557			0.196483			0.00161476			-0.777427			0.356451			0.00598869			-0.421296			0.260789			-0.43201			-0.0164309			0.112251			0.108285			0.309434			-0.3767			-0.316691			0.232207			0.193499			0.313313			-0.220073			-0.457648			-0.0255926			-0.423635			-0.594242			0.308704			-0.0296069			0.265342			0.469174			-0.166184			-0.245571			-0.364456			0.296661			0.0293685			-0.289289			-0.0356786			0.226318			0.297263			-0.207086			0.787773			0.130515			0.575286			-0.0654683			0.212172			-0.101557			-0.66619			0.745536			-0.552969			0.486157			-0.384677			-0.379138			-0.257397			0.0263418			
0.0168997			-0.0127531			-0.309011			-0.616205			0.131818			0.073458			0.0628394			0.563789			-0.470119			0.580048			0.434365			0.24294			0.726505			-0.853751			-0.0716268			-0.491169			-0.205105			0.138781			0.506335			0.289328			0.173849			0.140532			-0.171467			0.301811			0.77124			-0.80466			-0.0377122			0.204957			0.445654			0.376296			0.161593			0.709138			0.720722			-0.244604			-0.770242			0.0791669			-0.122033			0.234053			-0.281273			-0.0833056			0.0691877			0.515175			-0.556574			0.870088			-0.167588			-0.0901441			-0.241592			0.402369			0.265485			-0.228535			0.165495			-0.354237			0.408536			-0.447383			0.321027			-0.988601			0.056742			-0.696927			-0.19836			-0.502505			-0.65465			0.393226			-0.72737			-0.17367			0.315493			0.727115			-0.54835			-0.0526404			0.150533			0.0505614			0.616467			-0.0553926			0.0306105			-0.134852			-0.776409			-0.398098			0.253157			-0.444276			-0.78444			-0.154442			-0.56496			-0.457199			0.98456			0.426034			0.105859			-0.000717426			0.0905223			0.217359			0.571967			-0.120021			-0.365052			-0.179021			-0.901853			0.0345321			0.336215			-0.278286			0.255186			0.0973212			0.47535			-0.290054			
-0.475358			-0.704376			0.11225			0.36881			0.392134			0.208657			0.760904			0.437983			-0.263318			-0.388911			-0.570083			0.207208			0.465971			0.522885			-0.296068			-0.229114			-0.668513			-0.174656			-0.0162043			-0.409454			0.637062			0.160166			-0.224761			0.455947			-0.452955			0.0667746			-0.853152			-0.134865			0.244372			0.543389			-0.101704			0.7229			-0.326192			-0.284696			0.107067			0.727479			0.190574			0.881723			-0.0542227			-0.0723381			-0.141408			0.105987			-0.365209			0.259844			0.675721			0.208021			0.107508			0.197732			-0.197262			-0.235039			-0.136588			0.278384			0.429287			0.605591			-0.103362			-0.449795			-0.604477			0.23431			-0.665814			-0.509053			-0.674655			-0.10589			0.557449			0.751152			-0.702863			-0.151455			0.939058			0.415583			-0.337347			0.635937			0.593175			-0.0358276			-0.0543381			-0.0663757			-0.301663			-0.355896			-0.672556			0.166811			0.5017			-0.724926			0.196132			0.817432			0.600409			0.629956			-0.812218			-0.148051			-0.275217			0.752495			0.139419			-0.139537			0.428475			-0.519499			-0.127527			0.138682			0.461433			0.173696			0.0265279			0.910045			-0.701742			-0.153291			
0.200282			-0.335007			-0.0113122			-0.084085			0.0106242			-0.391326			-0.23549			-0.903403			0.356445			-0.464753			0.172142			0.56934			0.93165			0.333484			0.620057			0.509754			-0.0221941			0.162644			-0.464524			0.00682631			0.120729			-0.348217			0.0171534			0.450374			-0.276048			-0.15671			0.684978			0.168932			-0.0206963			0.343545			0.774509			-0.596764			0.553106			0.235144			-0.538414			0.395064			-0.606409			0.690837			0.339051			0.0869741			0.158633			-0.609822			0.128698			0.808149			0.0127524			0.159794			-0.905455			0.465728			0.545197			0.469002			-0.452686			-0.0283192			-0.593038			0.0272967			-0.399695			-0.346388			-0.438956			-0.403657			-0.220171			0.663317			-0.0189717			0.553995			-0.458408			0.385546			0.242509			0.265897			0.500925			-0.0213693			0.0753507			0.638431			-0.421218			0.150945			0.165959			-0.190714			-0.387953			0.904059			0.106815			-0.322001			-0.58915			0.519177			-0.4549			0.373416			-0.774329			-0.0826032			0.779198			0.114372			0.0665184			-0.0725859			-0.0466779			-0.0201474			0.0275379			0.52837			-0.282286			-0.207868			-0.432056			0.0844766			0.534793			-0.370732			-0.331404			-0.00477444			
0.305556			0.353444			-0.157966			-0.144015			-0.388111			0.347675			-0.639557			0.540911			0.272756			0.163287			0.18266			-0.0395869			-0.316351			0.717789			-0.0835174			0.382526			-0.367488			0.331203			-0.1893			-0.223211			-0.275836			0.233077			0.251188			-0.76172			-0.939173			-0.220947			0.54843			-0.0797728			-0.670626			-0.688256			-0.58819			-0.138597			-0.845584			-0.102798			0.0785822			-0.344094			0.191279			0.237447			-0.114874			0.125643			-0.282357			-0.147592			0.126034			-0.0372454			0.215782			-0.118799			-0.359066			0.246648			0.0955139			0.355362			0.091642			-0.488889			0.214268			0.0990283			0.0731647			0.492038			0.0323707			0.12847			-0.0165386			0.0273175			0.307601			-0.607323			0.290973			0.0917496			-0.0331625			0.329478			-0.63218			-0.476444			-0.389356			0.653354			0.451782			-0.908095			-0.0373896			0.229477			-0.348473			-0.212793			-0.265987			0.0664689			0.0929665			-0.141291			-0.276563			0.266366			0.0538939			0.55347			-0.614706			0.965547			-0.304133			-0.535221			0.251281			-0.303414			0.388778			0.0368928			-0.26485			-0.0259246			0.141464			-0.626755			-0.1351			0.460276			-0.0334251			-0.639761			
-0.730787			0.790634			0.200813			-0.0396522			-0.0180785			-0.41345			0.533425			0.569335			-0.174078			0.901355			0.222313			0.11664			0.859738			0.39785			-0.55166			0.532402			0.42331			-0.474829			-0.0120706			0.242004			0.0393965			0.378009			0.00592324			0.193078			-0.744525			-0.425573			-0.550412			-0.0455339			0.427941			0.375129			0.369113			-0.281977			-0.855594			-0.193417			-0.101058			-0.0861276			-0.0134267			0.0337595			-0.310691			-0.203852			-0.188381			0.625271			0.137534			0.301285			-0.469642			-0.139404			-0.236239			0.0528713			-0.244356			0.829743			0.520433			0.0511476			-0.0116438			0.110461			0.579751			0.739439			-0.309465			0.510342			0.172296			-0.986771			0.151967			-0.311108			0.708005			-0.138273			-0.232325			0.918207			-0.0859417			-0.143619			0.309208			-0.729222			-0.783518			0.0232604			0.306143			0.646549			-0.404064			0.159994			0.510309			0.0831971			0.367441			0.0400301			0.0987357			-0.396697			-0.427623			0.412596			0.0226863			-0.822839			0.402966			-0.303236			0.81545			0.309844			0.408636			0.234321			0.894062			0.288142			-0.233178			0.472775			0.629683			0.970742			-0.220301			0.38463			
-0.399802			0.00163437			-0.221032			-0.241045			-0.17205			-0.562591			-0.455973			-0.716019			0.215513			0.134495			0.0188102			0.661987			-0.298287			-0.255189			-0.231774			-0.117686			0.131444			0.558314			-0.0969845			0.163177			-0.163765			-0.467072			-0.366619			0.340983			0.867931			0.0511916			0.0402781			0.403996			0.0374244			-0.328623			0.0795339			-0.213533			0.515373			-0.0139635			-0.0671906			-0.0312381			-0.205292			-0.357522			-0.805495			-0.154979			-0.549055			-0.749856			-0.205249			-0.0471579			0.383387			-0.198545			0.687083			0.546588			0.0547168			-0.0907869			0.197456			-0.130529			0.143514			-0.908274			0.181274			-0.182142			-0.493897			-0.372173			0.443404			-0.882149			0.278961			-0.145037			0.220788			0.492951			-0.534714			-0.623415			0.296979			0.116791			0.38664			0.26983			0.494684			-0.70101			-0.209755			0.0237298			0.200235			-0.0639598			0.248692			0.788653			0.130647			-0.566269			0.425633			-0.135305			-0.56612			0.0265834			-0.463057			-0.60218			-0.254942			0.701172			-0.052608			0.359171			0.243612			0.510109			0.725654			0.491715			-0.249275			0.313054			0.651405			-0.599631			-0.477265			0.352455			
0.0752302			0.00278088			-0.0528713			0.281345			0.369979			0.405692			0.28458			-0.174069			0.611727			0.11706			0.0112582			0.616323			-0.408053			-0.480152			0.85158			-0.946064			-0.750179			-0.345594			0.151375			-0.0219313			-0.558234			0.541735			0.228855			0.71153			0.542523			-0.306459			-0.113276			0.506803			-0.173192			-0.552812			0.472762			-0.218846			-0.263655			0.273081			0.0644765			0.481687			-0.251089			-0.58818			-0.221664			0.451008			0.271421			0.177959			0.123162			-0.041096			-0.872436			0.0739159			-0.695216			0.179101			-0.128144			-0.172675			0.315531			0.545858			-0.207456			-0.489645			0.14298			-0.149624			-0.285046			0.465833			-0.34306			0.51356			0.276451			-0.0360413			-0.234942			0.0895318			0.154699			-0.0625709			0.164532			-0.526682			0.465449			-0.650701			-0.390524			0.444122			-0.409375			0.0457891			0.260953			-0.245101			0.140319			0.0183509			0.203334			-0.471051			-0.354942			0.4454			0.373815			-0.400333			-0.109765			-0.259993			0.446565			-0.114902			-0.342727			0.406943			0.485368			-0.0486567			-0.143446			-0.232578			-0.188254			0.689233			0.614011			-0.345791			-0.345341			0.623014			
0.18706			-0.423667			-0.189533			0.0112031			-0.374589			-0.685373			-0.0288428			0.739422			0.0526601			-0.252665			-0.264318			0.384364			0.0316139			-0.24002			-0.219549			-0.177966			0.26438			0.47958			0.141042			0.441702			-0.00726864			-0.384083			0.355007			0.281452			0.639645			-0.445435			-0.290266			0.520361			-0.852522			0.00436398			-0.339181			-0.00314064			0.50351			0.21546			-0.121954			0.543206			-0.012948			-0.677745			0.00796023			-0.304613			0.834392			-0.230552			-0.493028			0.013718			-0.391435			0.108614			0.0532321			0.200623			-0.233676			0.0506255			-0.0926098			0.0971182			-0.503394			-0.198978			0.482578			0.811496			0.236669			-0.694221			-0.544997			-0.0886372			0.519314			-0.119063			-0.0114555			0.25297			0.312823			-0.544621			-0.165074			-0.839886			0.328491			0.332177			0.290705			-0.589605			0.338124			-0.12098			0.0941706			0.0477961			-0.4973			-0.540852			-0.166901			-0.0199548			0.05135			-0.332635			0.403371			0.560314			-0.320503			0.899333			-0.0527565			-0.166478			-0.12984			-0.663993			-0.650312			-0.0926234			-0.0238065			0.454321			0.592522			-0.283134			-0.566946			0.228871			0.372545			-0.814507			
-0.530646			0.146822			0.775234			0.102443			-0.316045			-0.00687641			0.175501			0.705314			0.703618			-0.0346881			-0.118611			-0.0055521			-0.477656			-0.180201			0.0950723			0.34969			-0.534347			0.834339			0.00328368			-0.101754			-0.373529			-0.622101			0.0810367			0.223634			0.408002			-0.988523			-0.262351			-0.0338249			-0.143624			0.157432			0.0818543			-0.447885			0.193797			0.0912539			0.292491			-0.453598			0.0623868			0.218609			-0.971064			-0.54696			0.0275812			0.517078			-0.272434			-0.51907			0.0835453			0.546175			0.39171			0.457739			0.235815			0.28885			0.217695			0.508584			0.467343			0.00566824			0.576765			-0.127041			-0.370144			-0.488492			0.264401			-0.664022			0.838874			0.349042			-0.178636			0.620997			0.0789269			-0.220503			0.785067			0.470656			0.228263			0.0321921			0.112534			0.0534924			0.594519			-0.249511			0.137608			0.761677			-0.0338566			0.295487			-0.132084			0.149494			-0.20822			0.0593597			-0.374466			-0.146447			-0.112478			-0.683639			-0.781719			0.329872			-0.117568			0.150559			0.706599			0.0400729			0.322782			-0.343402			0.0810578			-0.29238			0.330829			-0.547145			0.326757			-0.333675			
0.127151			0.0347468			0.152284			-0.281163			0.267713			-0.368519			0.0721726			0.286425			-0.0220004			0.0660708			-0.0920715			0.275591			0.501408			0.199674			-0.130573			-0.538093			-0.339243			-0.311608			-0.309925			0.473721			-0.419498			0.399101			-0.4097			-0.130671			0.438578			-0.0694568			-0.787094			-0.363074			-0.701189			-0.966622			0.141182			-0.13826			-0.224698			-0.513842			-0.190373			0.385829			0.398324			0.356234			0.121227			-0.41867			0.478696			-0.0439123			0.527604			-0.351182			0.29233			0.951489			0.454289			-0.535832			0.31629			-0.0717736			0.38335			-0.559302			-0.813158			-0.323995			-0.2982			-0.124586			-0.136719			0.0539603			0.633366			0.0193454			0.00455879			-0.732492			-0.969273			0.155475			0.60729			0.208475			0.527534			-0.0530155			0.566861			-0.491164			-0.547667			0.0451533			0.195351			-0.688269			-0.389111			0.783162			-0.212501			0.1004			-0.433866			-0.732551			-0.466241			-0.0737966			-0.845498			-0.591802			-0.0809088			0.092199			-0.106448			-0.195585			0.956935			-0.481319			0.291438			0.315454			-0.288038			-0.27495			0.24921			0.278355			-0.186949			-0.0440876			0.223582			-0.886107			
-0.192814			0.114662			0.792315			0.84433			0.595297			0.293246			0.244482			0.256706			-0.411916			0.175041			0.50481			-0.318217			0.557163			0.204172			0.290443			-0.272748			-0.240816			-0.0523126			-0.53653			-0.67493			0.53436			0.311782			0.377293			0.271309			0.831561			0.064884			0.454351			0.391838			-0.0224324			0.0517129			0.200234			-0.0524236			-0.929928			0.662568			0.459823			0.15434			0.0324645			-0.205689			-0.33784			-0.126617			0.119009			-0.379531			0.515426			-0.525749			0.307166			0.354437			0.162338			-0.738437			0.478871			-0.179829			-0.112483			-0.129315			-0.322735			-0.0287958			0.195681			-0.102139			0.577059			-0.140603			0.439781			-0.079819			-0.130933			0.711289			0.270983			0.249392			-0.123189			0.168248			0.346055			0.740066			0.116376			-0.104583			0.667883			-0.0718242			0.0821588			-0.252207			0.68955			-0.561538			0.0924737			-0.0580534			0.640694			-0.261441			-0.098843			-0.492736			0.927864			0.246853			-0.18475			0.0189254			0.553136			-0.625903			-0.228142			-0.0710528			-0.466299			-0.631641			-0.95797			-0.398458			0.493149			0.216743			-0.59335			-0.238122			0.765978			-0.28306			
-0.815845			0.372814			0.596845			0.488522			0.773936			0.248931			-0.206999			-0.24809			-0.395644			-0.603214			-0.373601			0.521737			-0.186175			0.646828			-0.978913			-0.727367			-0.19069			-0.139439			0.39			-0.488256			0.352995			-0.365331			0.931975			0.199187			-0.203814			-0.527973			0.351217			-0.738587			0.430256			0.698603			-0.103314			0.711174			-0.268492			-0.628654			-0.213303			-0.473534			-0.297078			0.195908			0.66671			-0.32236			-0.599629			0.997742			0.261045			-0.700641			0.779946			0.661099			-0.46119			-0.412167			-0.669428			0.0187843			0.576452			-0.853699			-0.0271389			-0.479604			0.0919183			0.442748			0.103751			0.497258			-0.378041			0.228007			0.39977			-0.0326356			0.136081			0.217282			-0.282136			0.471686			-0.771581			-0.558127			0.252557			-0.214078			-0.107825			0.369328			-0.104731			0.182734			0.123094			0.2146			-0.740602			-0.214942			0.667249			0.220147			0.303137			0.0591953			0.333526			-0.395885			0.309676			-0.964393			0.402799			-0.0919489			-0.382463			-0.328812			-0.171611			-0.110396			-0.591397			-0.109159			0.264355			-0.386672			-0.466015			0.107327			-0.605995			-0.192301			
0.729291			-0.130585			-0.169105			0.297238			0.434378			0.281275			0.414205			-0.164292			-0.100143			0.578381			0.204091			-0.241845			-0.224134			0.450047			-0.0784259			0.68936			-0.334568			-0.507996			-0.14916			-0.29505			-0.104181			0.0259481			0.442076			0.222353			-0.0585588			0.243421			-0.0379009			0.0353607			0.821008			0.930764			-0.364613			-0.261944			0.54708			-0.650346			-0.210683			0.174859			0.361634			0.0376451			-0.534449			0.936842			-0.673096			0.151881			0.0265611			-0.297181			-0.134564			0.210152			-0.229858			0.230456			0.421921			0.471678			-0.0565892			0.28545			0.2272			-0.721704			0.195889			-0.540062			-0.27694			0.0185418			0.399529			-0.181956			-0.180904			-0.157717			-0.137476			0.393281			-0.000698085			-0.708205			-0.384204			0.61462			0.360223			0.861716			0.160893			0.0927117			0.360084			0.575599			-0.049036			-0.228819			0.390278			-0.328235			-0.584384			0.384261			-0.488273			-0.412802			-0.350951			-0.640534			-0.459523			-0.160118			-0.371741			0.566004			0.153583			0.627765			-0.941579			0.38333			0.408429			0.502769			-0.0724279			0.533327			0.0793996			-0.128698			0.0904456			0.231517			
0.599182			0.139068			-0.183938			0.0731253			-0.0210009			-0.242425			0.310699			-0.118815			0.557027			0.282712			0.176202			0.0170835			0.105593			-0.165615			-0.071782			-0.250901			-0.503658			-0.392463			-0.434915			0.61594			0.204236			-0.311227			-0.898085			0.318663			-0.134349			-0.196902			0.235001			0.46651			-0.0453629			-0.479116			-0.0746664			-0.816777			-0.579004			0.0463041			-0.622555			0.342761			-0.76867			-0.0137508			-0.491586			0.212137			-0.685742			0.322563			-0.386004			-0.868194			0.473305			0.0727972			0.714985			0.249097			-0.509533			0.610321			-0.152072			-0.224082			0.357865			0.784349			-0.148421			-0.485183			-0.466358			0.637275			-0.464633			0.0981756			0.245213			-0.160525			0.222704			-0.887286			0.648639			0.327188			-0.323328			-0.230499			0.246315			-0.517942			-0.00559689			-0.0105524			-0.545332			-0.537776			0.429553			-0.0894993			-0.268578			0.406391			0.0461601			0.122263			-0.209248			0.336204			-0.550001			-0.133308			0.481648			-0.818829			0.134547			-0.905504			0.37935			0.408608			-0.681515			-0.434122			-0.398635			0.531772			0.249838			-0.854885			-0.103881			-0.141324			0.89157			-0.406326			
-0.862091			-0.694031			0.167895			0.92012			0.137013			0.294764			0.458732			0.575504			0.00864993			-0.392741			0.337973			0.397246			-0.438386			-0.167953			0.796434			0.260357			0.172386			0.45621			-0.490134			0.844187			0.410058			0.127804			-0.0389027			-0.0590659			0.655125			0.594017			-0.153515			-0.700753			0.524473			-0.390828			-0.563833			0.331796			-0.391054			0.384925			0.215147			0.0179466			0.763461			-0.243287			0.926252			0.574697			-0.0899009			0.263373			-0.0308163			-0.364419			-0.645943			0.888809			-0.502492			0.102855			0.312651			0.00287604			0.277332			0.302587			0.662141			0.0954499			0.736882			0.085009			-0.40084			0.0853005			-0.518181			-0.200075			-0.015861			0.690388			-0.620723			0.20983			-0.444277			0.196548			-0.170381			0.183217			0.524854			0.321166			-0.56968			-0.0384045			0.0503719			-0.342904			-0.495515			0.0729479			-0.27226			-0.295634			0.0967778			0.774081			0.760552			0.239598			-0.0938086			0.653656			0.59103			-0.929973			-0.349335			0.233705			0.106245			0.684323			0.663533			-0.0683962			-0.116361			0.00905017			-0.135648			0.134175			-0.0840775			-0.313678			0.102699			-0.0335012			
-0.33845			0.116138			0.0168536			0.10415			0.489936			0.77819			-0.111457			0.0891217			0.245263			0.513415			0.171215			-0.177485			0.125732			0.768374			-0.782253			-0.0725013			0.175151			0.541568			0.0472076			-0.459938			0.159677			-0.624425			-0.343928			0.72891			0.470959			0.574924			-0.0955932			0.289689			-0.654677			0.400842			-0.431629			0.857713			-0.886928			0.567978			-0.581245			-0.596707			0.721271			-0.0276377			0.0406598			-0.386558			0.0391587			0.299792			0.506497			0.424866			-0.0518406			0.0225275			-0.619255			0.391575			-0.0240493			0.183477			0.0579056			-0.161301			0.428494			0.669409			-0.145696			-0.195787			-0.40418			0.2253			0.00690014			0.227969			-0.454982			-0.741647			-0.558357			-0.133938			-0.315569			0.0574064			0.397961			-0.724333			-0.280205			0.195369			-0.175346			-0.449237			0.490594			-0.201545			0.398594			0.053871			-0.123671			0.635978			-0.547071			-0.248344			-0.334811			-0.854699			-0.907585			-0.508583			-0.600877			0.811683			-0.895894			-0.18924			-0.662526			0.0244906			-0.022998			0.181646			0.561949			-0.873212			0.0429038			0.364038			-0.54348			0.199803			0.291238			-0.28699			
0.134427			0.353537			-0.000840606			-0.159938			-0.0169669			-0.636327			0.784966			-0.140639			0.188069			0.380707			-0.182471			-0.126888			0.480568			0.763567			-0.0546215			0.615508			0.620288			-0.411498			-0.482292			-0.392341			0.786185			0.463029			-0.169152			0.486343			0.740863			-0.769347			-0.316064			-0.419606			-0.44038			0.0787999			0.372389			0.668626			-0.489913			-0.179706			-0.651846			-0.357074			0.538719			-0.00677287			0.390608			0.466195			-0.674555			0.274909			0.253242			0.574258			0.536065			-0.281847			0.0375951			-0.0808934			-0.120887			-0.0301862			-0.532925			0.709829			-0.245014			-0.15996			-0.107647			0.165043			-0.184384			-0.411166			0.121595			0.750532			0.281063			-0.227532			-0.193163			0.614791			-0.336115			0.00480689			0.294483			-0.566908			-0.654666			0.233802			0.238973			-0.967478			0.622543			-0.651907			0.0128676			0.872294			0.396624			0.750818			0.425359			0.442566			0.559362			-0.0238165			-0.10009			0.610722			0.715893			0.671516			-0.571617			0.635755			0.716319			-0.259374			-0.502545			0.0942929			-0.181742			0.54356			-0.185067			-0.489082			-0.48163			-0.195593			0.0485119			0.215521			
0.00462736			-0.254836			-0.242059			0.544681			0.737305			-0.730843			-0.127221			0.0842559			0.254592			-0.759264			0.501149			-0.0447424			-0.116355			0.387358			-0.199401			0.167419			0.327839			0.054339			-0.458061			-0.284506			0.345762			-0.187885			0.463512			-0.754513			-0.554792			0.52164			0.237592			-0.0197463			0.226205			-0.217397			-0.360337			-0.325108			-0.00478504			-0.408085			-0.212405			0.0430624			-0.0662303			0.629007			-0.21786			-0.0541831			0.295929			0.649813			0.314529			0.217713			0.181404			0.0208194			0.542484			0.498012			-0.292798			-0.0591412			0.188997			0.403621			0.417191			-0.0020099			-0.558536			0.763202			-0.536808			-0.356799			0.0497753			0.374331			-0.658631			0.0483005			0.390692			0.374061			0.685419			0.807079			-0.418491			0.739879			0.371235			-0.33523			0.78293			-0.63485			0.496917			-0.0944032			-0.359326			-0.528833			0.807392			-0.0998162			-0.169767			-0.00241194			-0.257446			0.303049			-0.555687			-0.303783			-0.304775			0.255929			0.000168148			-0.109247			-0.87085			0.940858			-0.357665			-0.96385			-0.155601			-0.252077			0.440567			0.780662			-0.284046			0.102202			-0.440145			0.0772735			
0.566033			-0.372808			0.23627			-0.262795			0.36261			-0.0803126			-0.967504			-0.495348			0.0507683			0.547485			-0.215347			0.26104			-0.75871			-0.212639			-0.571014			-0.644708			0.148844			0.127179			-0.340148			0.566641			0.430285			0.603025			-0.436816			-0.426102			-0.409187			-0.138713			0.0954238			0.326107			0.66244			0.0957984			-0.560303			-0.727689			0.086254			-0.217807			0.259031			0.0260653			-0.340599			0.288471			0.941708			-0.327096			-0.0424172			0.927183			-0.343735			-0.138934			-0.0968647			-0.227586			0.274119			-0.389824			0.0412493			-0.270196			0.338767			-0.0377699			0.364959			0.233126			-0.0706811			0.315857			0.0129233			0.350334			0.172665			0.867537			0.217179			-0.307445			0.689626			0.0796386			0.226029			-0.497553			0.135468			0.262812			0.645267			-0.32754			-0.412589			0.454015			-0.168932			-0.831413			-0.350119			-0.136171			0.477548			-0.0858364			0.688723			0.327638			-0.333502			-0.0386169			0.126787			-0.400581			-0.0600123			0.275224			0.0546625			0.588601			-0.358496			0.910772			-0.282157			-0.0954			-0.268501			-0.213935			0.0551426			0.157187			0.323849			-0.0263569			-0.142486			-0.605606			
0.182236			-0.162662			0.091403			-0.117056			-0.268115			0.136442			0.565667			0.53652			-0.340235			0.953222			0.507548			-0.048669			-0.107785			-0.936825			-0.715307			0.0157368			0.139392			-0.357829			0.65432			-0.490306			0.222212			-0.629576			0.0042879			0.674918			0.228079			-0.190034			0.647393			-0.439331			-0.310225			-0.300857			0.724915			-0.483971			-0.380568			-0.114768			0.450603			0.152642			-0.338532			0.227841			0.078135			0.519976			-0.193159			-0.151283			-0.234708			-0.28818			0.111608			-0.426219			0.189409			0.64592			0.0110681			0.127194			0.111031			-0.00517447			0.169044			0.163374			0.0990052			0.00480703			0.265665			0.88868			-0.709874			-0.835611			-0.104161			0.324701			-0.362132			0.0338485			-0.195618			-0.75115			-0.568936			0.272466			-0.240902			0.616266			-0.678734			-0.712081			-0.688168			-0.547933			0.377154			0.125027			-0.142078			-0.128734			0.686436			-0.314006			0.365056			0.584586			0.446108			-0.310289			0.209628			-0.840845			0.370428			-0.486714			-0.700006			0.68633			-0.827594			0.125142			0.182575			0.545461			-0.532061			-0.000121265			0.347901			0.298568			-0.518766			-0.393278			
-0.959791			-0.145576			-0.00205799			0.390377			-0.382711			-0.176888			-0.0785492			-0.0450992			0.0595286			0.238624			-0.0596653			0.254463			-0.360458			-0.87313			0.279358			-0.024425			0.634055			-0.373198			-0.0815015			0.901781			0.104306			-0.150142			-0.0693223			0.0998623			0.23884			-0.268281			-0.526727			0.667377			-0.38135			-0.540874			-0.207663			0.0514814			0.0563025			0.437902			-0.0365349			-0.58763			-0.705025			-0.0503584			0.688797			0.653725			-0.0849736			0.889363			0.0580094			-0.461198			0.0577334			-0.323548			-0.422046			0.158967			0.354915			-0.264267			0.51506			0.00837229			-0.671447			0.494829			0.0745302			0.509792			-0.0549039			0.523901			-0.348534			0.244452			-0.50202			-0.135145			-0.10733			0.242902			-0.0970591			-0.528079			-0.320495			-0.336236			-0.0186552			0.26824			-0.34625			0.111804			0.159852			-0.248559			-0.161941			-0.445028			0.0700306			-0.47233			0.279491			-0.290865			0.195322			-0.0743868			-0.721412			0.277503			-0.446364			-0.58041			0.5484			-0.254933			-0.931712			0.0581363			0.46749			-0.0665087			0.713739			-0.918432			-0.0448661			0.0495309			0.192957			-0.0854469			-0.597624			0.105323			
-0.405772			-0.184436			-0.225888			0.127947			-0.701724			-0.534174			0.565612			0.616935			0.19322			0.539922			-0.427153			-0.114518			0.245053			-0.491208			0.988515			0.188556			0.109076			0.108685			-0.365151			-0.976145			0.274759			0.290642			-0.302721			-0.34595			-0.170101			-0.914528			0.386169			-0.457687			0.490396			-0.225288			0.705794			0.0671214			0.131658			0.0122356			-0.00463254			0.0775876			0.172138			-0.772227			-0.219865			-0.567654			-0.153416			-0.104664			-0.211954			0.129109			-0.438427			0.62712			-0.47317			0.532735			-0.236423			0.289669			-0.307647			0.100704			0.117202			0.100537			0.400528			-0.787814			0.371263			0.231244			-0.0133011			0.444097			0.834135			0.478974			0.451853			0.0661653			0.661022			0.000211943			-0.61835			0.274988			-0.324095			-0.394917			-0.512609			-0.592177			-0.0642128			0.159456			0.331966			0.0813269			-0.265913			-0.458733			0.462044			0.0916515			-0.111915			0.767119			0.263285			0.0865339			-0.246052			0.975645			-0.238394			-0.229057			0.254092			-0.44305			-0.322416			0.890679			0.143651			0.307983			0.491703			0.947152			-0.0257255			-0.0499107			0.291822			0.264893			
-0.455743			-0.117799			0.852614			-0.977421			0.471884			-0.637528			-0.530733			0.569143			-0.158093			0.368664			-0.359896			0.289867			0.152539			-0.34743			-0.45933			0.602404			-0.117757			0.212579			0.474082			0.427857			0.209536			0.43355			0.032319			0.625786			0.335632			0.121326			-0.527241			-0.966803			-0.346267			-0.311957			0.115833			0.0817771			-0.300611			0.275867			0.109347			-0.281081			-0.0105701			0.0243218			0.60147			0.493395			-0.598946			-0.158707			-0.696889			-0.662295			-0.345045			0.395525			-0.0823961			0.762567			-0.462434			-0.0118943			0.269444			-0.530776			0.209561			-0.802464			-0.651087			0.223274			0.10334			0.39958			0.316217			0.327578			0.124346			0.234725			-0.146375			0.238403			-0.977918			0.145598			-0.0792183			-0.320755			-0.907769			0.694869			-0.339116			0.115059			-0.286828			-0.769819			0.0246059			0.497337			0.220735			-0.472776			-0.498786			-0.558093			-0.233982			0.31218			-0.274235			0.772607			0.235903			-0.213298			0.48675			0.365669			0.378991			0.0393466			0.679465			0.423078			-0.602541			0.0479929			0.233149			-0.954401			0.262989			-0.234174			0.247076			-0.257133			
-0.532894			-0.369581			0.670168			-0.739233			-0.279583			-0.129088			0.756452			-0.33622			-0.275897			-0.414117			-0.169259			-0.0121737			0.387706			-0.277529			0.495809			0.573709			-0.694613			0.193885			0.536075			-0.490417			0.101756			-0.218228			0.31424			0.655147			-0.347143			-0.443208			-0.260899			-0.275694			-0.621316			-0.402211			0.134165			-0.500145			0.270543			-0.304149			-0.126395			0.163396			-0.693684			-0.135527			-0.509176			-0.224242			-0.28105			-0.479635			0.385515			0.0506625			0.0901845			0.559061			-0.513709			0.493092			-0.460858			0.50908			-0.26639			0.550489			0.117219			-0.889298			0.755547			-0.127447			-0.0302324			-0.0851804			-0.115532			0.112149			-0.11655			0.167907			-0.474119			0.188478			-0.0613217			0.516615			0.0564105			-0.426011			0.0739657			-0.584968			0.448919			-0.0405677			0.437547			-0.387237			-0.211123			0.652659			0.409301			-0.191173			-0.103714			-0.521783			0.667256			-0.425726			0.0353119			-0.30232			0.376797			-0.265876			-0.358025			-0.537006			-0.290617			0.0739833			-0.494231			0.275509			0.773976			-0.437139			-0.707829			0.113118			0.931954			0.0194449			-0.737351			-0.555727			
-0.159234			0.841109			0.247727			0.639643			-0.0582528			-0.11783			-0.0686086			0.0654386			-0.161083			0.520646			0.257054			0.0455513			0.574994			-0.378878			0.710944			-0.366902			-0.587391			0.128726			-0.59661			-0.273121			0.217539			0.563246			0.561095			-0.630889			-0.436298			-0.387982			0.269793			-0.599472			0.492412			-0.187053			0.229558			-0.706533			-0.429391			-0.229763			0.322184			0.602268			-0.195985			-0.546651			0.137186			0.3359			-0.18311			-0.255506			-0.466018			0.593229			0.452218			-0.447236			-0.297842			-0.205293			-0.147328			-0.0900119			0.502322			-0.535858			-0.0856649			-0.387307			0.0583754			0.505748			-0.794704			-0.367324			-0.213387			-0.216512			-0.249169			-0.243945			-0.309044			0.442917			-0.721494			0.48625			0.502159			0.330156			0.113825			0.322994			0.384947			0.484641			-0.223593			0.587237			0.511616			0.535329			-0.159024			0.296677			-0.728221			0.905154			-0.828696			0.579155			-0.325442			-0.464046			0.506297			-0.22086			-0.666806			0.812558			0.909712			0.986218			0.687024			0.027147			0.333413			-0.325466			-0.85842			0.0748269			0.445505			-0.0744477			0.687295			0.300456			
0.170308			0.169295			-0.508939			0.229384			-0.349551			0.213271			-0.760713			0.926535			0.0448156			0.240293			-0.369612			0.952492			-0.671463			-0.303349			0.394692			-0.355726			0.519397			-0.653018			0.707005			-0.289806			-0.251099			-0.386105			-0.661789			-0.805555			-0.158269			-0.927819			-0.0724503			-0.687551			-0.00615844			-0.316666			-0.0657127			-0.0576542			0.240135			0.493461			0.973152			-0.958419			0.0835528			-0.0558007			0.32351			0.75645			0.108192			-0.417256			0.0748409			0.460457			-0.307024			-0.56525			0.644004			0.960437			0.0997407			0.45092			-0.84763			0.0628092			0.456028			-0.526767			-0.675703			-0.71442			0.335048			0.384524			0.299997			0.359609			0.556147			0.462268			-0.820202			-0.942447			-0.619138			0.299229			-0.910575			-0.764677			0.243808			-0.50958			-0.184503			0.904932			-0.14911			-0.046617			-0.690744			-0.0513227			-0.0500582			-0.244162			0.542002			0.0347338			0.133608			-0.976224			-0.0224818			-0.0728065			-0.617208			0.832925			0.338923			0.404581			0.177945			-0.899061			0.022375			-0.642896			-0.214813			-0.101595			0.245458			0.231751			0.561381			0.428858			-0.14899			0.601654			
-0.506559			0.627244			-0.0475749			0.440792			-0.104902			-0.824634			0.291047			-0.544483			-0.465189			0.353485			-0.283461			-0.329049			0.270752			-0.300887			0.563195			-0.303407			-0.17619			-0.486867			0.0692635			-0.738673			-0.175586			-0.749623			-0.352277			0.343198			-0.06506			-0.206674			0.0503455			-0.275182			-0.314637			-0.42978			-0.175329			0.348574			-0.196178			-0.113964			-0.738339			0.0350517			-0.391342			0.374492			-0.173317			0.0332914			0.090294			-0.219803			-0.307464			-0.380807			0.420211			0.424525			0.724048			-0.187348			0.878599			-0.431363			-0.00121514			0.318395			-0.643043			-0.054627			0.296668			0.479605			-0.178637			0.276128			0.0466065			0.332576			0.0899834			0.273119			0.4407			-0.108395			0.123953			-0.360874			-0.0131698			0.569204			-0.35581			-0.496749			-0.113784			0.478235			0.234737			0.233788			0.364296			0.162322			0.531583			-0.497216			-0.164035			0.320449			-0.0153683			-0.210719			0.395617			0.218779			0.584151			0.373207			-0.275913			-0.449532			-0.202521			0.461139			-0.0799694			-0.372853			0.828596			0.00360463			-0.254829			-0.535205			0.44495			0.271886			-0.731905			0.00876834			
0.486427			0.0416313			0.14893			0.519833			0.990494			0.0860444			0.65664			-0.215855			0.757848			-0.483991			0.633885			0.384071			0.349903			0.156123			-0.220475			0.343514			0.171659			-0.118704			0.577941			0.747733			0.503113			-0.554661			0.240479			0.798777			-0.00422238			0.400379			0.692019			-0.863556			-0.4111			0.673541			0.120426			0.254609			-0.608439			0.326336			-0.482879			-0.58878			-0.0244092			0.230832			0.272912			0.755326			0.196713			0.897168			-0.200055			-0.101389			-0.665556			0.635652			0.193885			-0.0436359			0.404064			0.139138			0.821994			0.0396852			-0.24652			-0.431058			-0.0526587			-0.604454			0.0603471			-0.0239097			0.528738			0.153683			0.0371856			-0.251942			-0.389468			-0.217301			0.0251264			0.569695			0.588056			-0.948092			0.320436			-0.322319			-0.440454			0.584823			0.105107			0.061103			0.250563			0.913875			0.234298			0.395595			0.210827			0.145007			0.421844			0.137843			0.0679674			-0.825413			-0.497822			-0.881171			0.655741			0.400925			0.0715338			-0.704299			-0.644155			0.242676			0.191223			0.290345			0.194882			0.318349			0.636114			-0.216233			0.855037			0.0101988			
-0.213708			0.586994			-0.191085			-0.390727			-0.972094			0.281282			0.333956			-0.483605			-0.400121			0.331373			-0.131835			0.429841			0.332419			0.405704			0.0129948			-0.149834			0.761872			-0.379434			0.444583			0.140562			0.0134099			-0.741355			-0.352091			0.175783			-0.838642			-0.340027			-0.276579			0.115443			-0.285303			0.23358			0.240778			-0.00750031			0.221116			-0.210244			-0.674921			0.488832			-0.946656			0.373566			-0.7184			-0.339745			0.400525			-0.562678			0.192488			0.776051			-0.450025			-0.768739			0.141741			-0.33809			-0.0314469			0.552288			0.246644			0.101546			0.595331			-0.132563			0.40311			-0.540534			0.198308			-0.0667179			-0.481795			-0.742549			0.912109			0.372494			-0.628335			0.239352			-0.314277			-0.439329			0.467324			0.4001			-0.820652			0.278303			0.291254			-0.210741			0.0568437			-0.298492			0.284228			0.608297			0.879162			-0.699112			-0.135282			-0.592461			0.857457			-0.336343			0.458219			-0.106552			-0.162319			0.303904			0.405787			-0.333327			-0.262734			0.426103			0.444617			0.863305			-0.457498			-0.125591			-0.435909			-0.0487321			-0.07002			0.18113			0.753131			-0.0396831			
0.236871			0.104686			0.0913092			-0.266943			0.267002			-0.030055			0.550887			-0.0173709			-0.724908			0.674256			-0.981841			-0.567502			0.270927			0.0683264			-0.980009			-0.728506			0.142396			-0.495902			-0.0545879			0.23521			0.203076			0.0308737			0.128044			-0.410777			-0.287717			-0.571232			0.753203			0.208219			-0.388305			0.743015			-0.354877			0.632537			0.397443			0.620965			-0.367692			-0.41484			-0.0404033			-0.573779			0.00327774			0.187981			0.358617			-0.713606			-0.317612			0.421149			0.653659			0.183993			-0.954978			0.66854			-0.14132			0.198794			-0.0708377			0.120355			-0.785458			-0.695664			0.536337			-0.644141			0.100897			-0.729932			0.445728			0.646349			0.449679			-0.830503			0.0154979			0.900346			-0.151159			-0.0438872			-0.138085			-0.0456441			0.499201			-0.156195			-0.166809			-0.308445			-0.689601			0.0981771			0.90962			-0.829319			-0.315074			-0.303558			0.62367			0.0461319			0.344978			0.293916			0.174687			-0.424485			-0.636882			-0.00997548			0.42562			0.931275			0.381245			0.213135			0.44978			0.719491			0.343881			-0.0749958			-0.744286			-0.476298			0.106137			0.454206			-0.712649			0.267725			
-0.459349			0.309183			0.0201679			0.147372			0.66861			-0.806881			0.297956			-0.315692			-0.962392			-0.727321			0.506441			-0.351137			-0.688642			0.131103			0.791989			0.13729			0.399852			0.372234			0.0607213			-0.583956			0.916289			-0.463997			0.691124			-0.258509			0.0266907			-0.0294547			0.636323			-0.680424			0.152438			-0.805291			0.00531257			0.822527			-0.435177			0.489127			0.515714			0.525631			0.690204			0.0955691			-0.821151			0.952909			0.27505			0.603367			-0.0605889			0.883307			0.714565			0.242934			0.796806			-0.222693			-0.0375787			0.0504341			-0.216528			-0.499121			0.277756			0.145326			-0.181415			0.791864			-0.510556			0.273693			-0.402072			-0.936385			0.456318			0.504301			0.508372			-0.598954			-0.0944119			-0.788005			0.428875			0.0329813			0.0522804			-0.595735			0.0708578			-0.0905406			-0.904435			-0.432857			-0.160097			0.187994			-0.209334			-0.344787			-0.532511			-0.558			0.301305			0.0446699			0.478023			-0.962825			0.600837			0.513206			0.101887			0.747775			-0.72734			0.515676			-0.031389			-0.0684847			0.608045			0.754673			0.757179			-0.945794			-0.101257			0.444064			0.775444			-0.688286			
0.32863			-0.193682			-0.175557			0.710084			-0.230546			0.052229			0.752543			0.00215041			-0.713414			0.0335551			-0.451117			0.522231			0.481058			0.303562			-0.18217			-0.0119197			-0.154844			-0.411292			-0.084866			-0.295035			-0.692828			-0.3864			0.966589			-0.365216			-0.00747313			-0.197312			-0.195793			0.753301			-0.187554			0.467182			-0.112393			-0.323972			-0.103109			0.0924966			0.0545256			0.065796			0.575528			0.312189			-0.607852			-0.650994			0.314945			-0.521972			-0.826191			0.407763			-0.372637			-0.0897567			-0.243833			-0.506445			-0.111509			0.31271			0.286277			0.110117			0.679782			0.806475			-0.304702			-0.00469013			0.0936693			-0.167199			-0.928802			-0.662303			-0.174942			-0.235572			-0.114092			-0.561136			-0.385417			0.557137			-0.684317			0.313312			0.410584			0.583346			-0.346136			-0.309452			0.0858554			-0.535436			0.145784			-0.0820193			-0.0790674			0.174124			0.548158			0.933179			0.501039			0.432204			-0.741536			-0.330444			-0.199918			0.142403			-0.276915			0.309557			0.360453			-0.164457			0.178998			0.442133			0.351468			0.798399			0.301427			0.139543			0.321806			-0.184629			0.292629			0.349004			
0.292309			0.44711			0.456139			0.247241			0.0637741			-0.0181781			0.791839			0.396781			0.722304			0.642969			-0.903661			-0.537904			0.0205716			-0.0189578			0.0232758			0.715717			-0.330672			0.761796			-0.412771			0.94356			0.122837			0.371025			-0.888158			-0.382116			-0.714089			0.850178			-0.202421			-0.516482			0.208689			0.315482			0.517364			-0.0536402			-0.458633			-0.20102			0.0533678			0.476174			-0.179166			-0.0739619			-0.377565			0.928192			0.0601425			0.385498			-0.639513			0.91166			-0.520252			-0.764526			0.560185			0.486019			-0.741541			0.659126			0.458593			0.384633			-0.103818			-0.0158398			-0.786938			0.302233			0.364683			-0.025253			0.314552			-0.191408			-0.655276			0.634968			-0.117972			-0.197471			-0.340314			-0.221118			-0.23658			-0.886183			-0.0106976			-0.118695			-0.0660185			-0.0328856			0.134478			0.296382			0.0310849			0.663602			-0.485889			0.59193			0.492216			-0.0992626			0.0910692			-0.242185			-0.163458			-0.464282			-0.0411676			-0.490213			0.236711			-0.226826			-0.0361711			-0.265324			-0.183336			0.931683			-0.628839			0.985067			0.691607			0.0599637			-0.191796			0.463387			0.322297			0.886161			
-0.305022			-0.290426			0.0768576			0.0977748			-0.279999			0.378166			0.347778			-0.636572			0.309351			0.199858			-0.0936228			-0.064846			0.829794			-0.121093			0.150221			0.452879			0.732839			-0.451392			0.581025			0.0246408			0.00405759			0.41689			0.0772194			0.106121			-0.223025			-0.501723			-0.468664			-0.46922			0.715845			-0.664492			-0.250435			-0.10868			0.151048			0.181238			0.32461			0.634801			0.139377			-0.970807			-0.721869			-0.567444			-0.720293			0.246505			-0.0022526			0.465023			0.393051			0.630743			0.892578			0.342518			-0.210566			0.339847			-0.201531			-0.6487			-0.323729			-0.0364989			-0.637416			0.385808			0.0454967			0.460913			-0.961232			-0.528968			0.518632			0.128954			-0.689088			0.376575			0.271909			-0.0217799			-0.202346			0.120794			-0.414996			-0.163913			-0.268125			0.36584			0.275229			0.376442			-0.344317			0.168712			0.702106			0.541465			0.116251			-0.491275			0.845422			0.891209			-0.417219			0.217141			-0.141821			0.273556			0.0017275			-0.0275246			0.585824			0.0785512			-0.0160538			0.0381081			0.756194			0.23082			0.372736			0.278737			0.00864292			0.104678			-0.859203			0.666779			
0.0298175			0.557134			-0.180603			0.670673			0.0348293			0.291352			0.0503565			0.482339			0.119802			0.606943			-0.591799			-0.439215			0.851198			0.507328			0.224611			-0.19508			-0.601275			0.0701213			0.0697789			0.869925			0.0578024			-0.313502			0.118356			-0.64472			0.511014			-0.15209			0.0591417			-0.0418827			-0.411539			-0.575542			0.242399			-0.78724			-0.564694			0.632664			0.389871			-0.205154			0.102786			-0.185579			-0.918098			-0.129501			0.0473468			0.274777			-0.748265			0.948341			-0.770621			0.436801			-0.307002			0.261676			-0.412141			-0.372024			0.262408			-0.402254			0.332818			-0.45033			-0.0282075			-0.460079			-0.215932			0.522455			0.0551451			-0.538038			-0.413065			-0.465751			0.0597224			-0.516983			0.548553			0.201178			0.758588			-0.773236			0.146652			-0.169713			-0.976846			-0.140086			0.456319			0.10725			0.982964			0.0627151			-0.355986			-0.69357			0.013931			0.290811			-0.339867			0.345786			-0.106535			0.111151			-0.128179			0.888031			0.0322654			-0.327245			0.668273			-0.476874			-0.459347			0.399385			-0.371685			0.730839			-0.437245			-0.293887			-0.546303			-0.486685			-0.161933			0.0434215			
-0.50745			0.698734			0.346425			-0.569464			0.419533			-0.148624			0.0594415			0.610153			0.231496			0.153424			0.280068			0.101804			0.823177			0.315741			0.348905			0.0409779			0.206308			0.0327365			-0.598829			-0.700064			0.346502			0.289897			-0.550719			0.11052			-0.0752097			-0.84299			-0.534774			-0.200919			-0.00958122			0.438978			0.878802			-0.129975			0.96825			-0.120311			-0.0154242			0.143452			-0.180707			-0.0337897			0.40072			-0.561007			-0.210888			-0.13531			-0.416914			0.094413			0.177303			-0.467562			-0.27527			0.598973			0.544082			-0.662433			-0.798333			0.0299953			-0.566124			0.120845			0.745415			0.720172			-0.0735176			-0.206963			-0.239013			-0.119931			-0.288349			-0.410351			-0.286549			0.101453			0.148127			-0.0616758			-0.425337			0.0620094			-0.115989			-0.248535			0.313802			0.0520767			0.472585			0.837908			0.444643			-0.763159			-0.313716			0.218661			-0.0926422			-0.567784			0.212608			-0.867071			-0.548407			0.455657			-0.298436			0.820398			-0.086169			-0.947009			-0.152163			0.18514			-0.885637			-0.0591499			-0.394468			-0.317543			0.169577			0.00832263			0.194157			-0.0333338			-0.328883			-0.0115121			
-0.0171946			0.274699			0.554145			0.646913			0.825314			-0.173184			-0.442875			-0.614143			-0.15412			0.363075			0.0765921			-0.574959			-0.220872			0.458042			-0.243517			0.381619			-0.132614			0.48654			0.501853			0.984577			-0.517717			0.627475			-0.465805			-0.939669			0.50726			-0.160204			-0.129247			-0.0583777			0.439076			-0.873033			0.124452			0.459401			0.278839			-0.329656			-0.00215828			0.569794			-0.689458			0.083189			-0.243425			0.575394			-0.124193			0.480543			0.0843503			-0.257642			-0.19857			-0.038356			-0.0777106			-0.362294			-0.0864563			0.13895			-0.165284			0.743044			-0.232572			-0.451841			-0.463501			0.0199197			-0.254028			0.357564			0.0980281			-0.637775			-0.547409			-0.539159			0.0623443			0.412909			0.324856			0.0192281			-0.542207			-0.149942			-0.430538			-0.583215			0.929029			0.00703807			-0.867676			-0.730589			0.615028			-0.0922554			0.209488			-0.504319			0.677638			-0.641914			0.540505			0.587254			0.23434			-0.389146			-0.486395			-0.528124			0.373776			0.297281			0.0251885			0.191017			0.953352			0.469736			0.506957			0.0543923			-0.100071			0.212384			-0.0697267			-0.332096			0.0528479			0.492135			
-0.125888			-0.306784			0.022211			-0.208454			-0.706479			-0.972799			-0.418177			0.501273			0.354738			0.455232			-0.336185			0.86724			0.0815617			-0.207402			-0.51339			-0.242223			0.119191			-0.372936			0.401968			0.183934			0.364247			0.131016			0.926993			0.158625			-0.984283			-0.46376			0.793795			-0.298025			0.968343			0.013736			-0.695014			0.550278			0.575293			-0.418638			0.377448			0.789573			-0.821144			-0.0556682			-0.219678			0.667265			0.0371644			-0.982333			0.310701			-0.0660926			0.790543			-0.494218			-0.778562			0.122448			0.374126			-0.428784			0.149999			0.0307904			-0.309841			-0.27373			0.000474278			-0.501373			-0.0176557			0.17207			0.319078			0.486502			0.884768			0.663699			-0.178649			-0.832712			-0.730949			0.548278			0.48613			-0.498281			0.288235			-0.338919			-0.522295			0.0640948			-0.318298			0.257798			-0.43617			0.31979			0.666638			-0.430931			-0.154535			-0.211082			0.987858			-0.623564			0.652586			-0.462813			0.122332			-0.207685			0.758737			-0.0907151			0.155047			-0.781099			-0.0408868			0.33601			-0.481688			-0.621605			-0.247091			0.730158			0.0983336			-0.784444			-0.301423			0.243649			
0.114548			-0.385216			-0.378625			-0.0925644			-0.00597231			0.708256			0.769259			0.695445			-0.342562			0.3792			0.03011			0.806763			0.0827822			0.0400947			-0.931247			0.110488			0.421831			-0.656917			-0.518775			0.274662			0.310704			-0.696785			-0.185661			-0.0512372			0.498861			0.277451			0.0553126			0.414942			0.205801			0.43012			0.394627			-0.0851278			-0.11127			-0.943849			-0.272479			-0.449318			0.17886			-0.648328			0.701049			0.565006			0.959317			-0.805861			-0.150986			0.229454			-0.766529			0.339657			-0.92051			0.0501433			-0.155792			-0.437198			0.21149			-0.613474			-0.206218			-0.435042			-0.337929			-0.0854502			0.14808			0.453009			0.221059			0.708939			0.347347			0.160557			-0.58412			0.794667			-0.165738			-0.697226			0.248274			-0.197235			0.0551878			0.435954			-0.0177993			-0.158949			0.156502			-0.00287263			-0.617247			0.0456648			0.322082			-0.0573568			-0.211799			-0.134994			-0.462606			0.365227			-0.183727			-0.11525			-0.255452			-0.242967			-0.331537			-0.432638			-0.638507			0.467447			-0.134287			-0.271477			0.452113			-0.380296			-0.550896			-0.554948			-0.234506			-0.0484409			-0.435455			-0.250861			
-0.144471			0.508441			0.6215			0.649721			0.458901			0.0634549			0.224535			0.0811681			-0.208289			0.13703			0.388024			0.721421			-0.158146			-0.24226			0.299109			0.163477			-0.349893			-0.0642118			0.37591			0.185237			-0.591854			0.474547			0.795652			-0.150397			0.384778			-0.609206			0.247797			-0.0917581			0.387119			0.212279			0.182684			0.399531			-0.481199			-0.438345			-0.817903			0.929798			0.521186			-0.150072			0.341634			-0.379355			-0.72092			0.358068			-0.10177			-0.159617			-0.437552			0.34663			0.508812			0.755449			-0.486778			0.42264			0.758554			-0.0196664			0.523557			0.0450296			0.0507719			-0.71886			-0.0072351			-0.400052			0.415178			0.332831			-0.438695			-0.65026			-0.0173741			-0.934915			0.498203			-0.649951			-0.44734			0.339564			0.270526			-0.542373			0.366763			-0.170047			0.763121			-0.633644			0.569236			-0.109801			-0.603142			-0.281464			0.552896			-0.462882			0.469164			0.551198			-0.806817			0.919968			-0.124179			0.61668			-0.385887			-0.610759			-0.255904			0.172325			0.113499			-0.241288			0.397074			0.463278			-0.153273			0.224134			-0.339836			-0.508459			0.354689			-0.152486			
0.0299389			-0.211428			0.0660045			-0.381618			0.226556			0.0584878			0.598445			-0.105375			-0.0937887			0.384909			-0.539316			0.253759			-0.42304			0.480324			-0.204873			0.0300305			-0.5359			0.187554			-0.093519			-0.0159414			0.103888			0.0429145			0.210633			-0.401787			0.230652			0.0180144			-0.499623			-0.386327			0.278138			0.400512			-0.130021			-0.763554			-0.768305			-0.381455			0.0765468			-0.722262			-0.000164513			-0.711089			-0.0997106			0.489692			0.0871052			0.727139			-0.646437			-0.329516			0.332316			-0.0512192			-0.0560388			-0.222533			-0.00451451			-0.152483			-0.237559			0.525365			-0.101437			-0.0383456			0.344384			-0.0154465			-0.0339147			-0.571238			-0.0762977			-0.267844			-0.0250942			-0.117575			-0.0882285			-0.181486			0.23227			-0.158183			-0.400716			0.287676			0.742883			-0.172752			0.0811237			-0.298507			0.39927			0.651222			0.0212426			0.68991			0.648393			0.562778			0.122214			0.734904			-0.0903537			0.240271			-0.572898			0.0633689			-0.179887			-0.0790557			0.327871			0.123828			-0.506296			0.378506			0.168023			-0.0871914			0.673959			0.952034			-0.0160885			0.312807			-0.981119			0.495616			-0.3488			0.381451			
0.216633			0.392561			0.216771			0.349685			-0.752825			0.200525			-0.0616833			0.247693			-0.239428			-0.706372			-0.343385			0.84394			0.0666473			-0.887547			0.0208618			0.0249132			0.103092			-0.361582			0.540879			0.340237			-0.273331			-0.418217			0.282313			0.288397			-0.185119			0.652942			0.163833			-0.518576			-0.126973			0.253727			0.356765			0.167322			0.429715			-0.564188			0.581256			-0.107383			0.303478			0.622329			0.252851			0.204006			0.139529			-0.261147			0.407873			0.942605			0.225937			-0.208523			-0.669426			-0.495728			-0.23984			-0.0401756			-0.242692			-0.284344			0.239479			0.0316822			-0.0533174			0.469138			-0.00321416			-0.192385			-0.707567			0.238819			0.704538			-0.203657			-0.112511			0.602357			0.704749			0.240723			0.601743			-0.26123			0.432837			-0.696448			0.0445187			0.0415213			-0.108403			0.958141			0.0692434			0.318242			-0.268263			0.042387			0.654498			-0.306264			0.456032			-0.0980276			-0.0902821			-0.0525539			-0.52464			-0.315806			0.20533			-0.221312			0.631967			0.143318			0.713804			0.164277			0.637477			0.114179			0.0222662			0.22394			-0.748984			-0.759796			0.185297			0.00588529			
0.972484			0.348676			0.292901			0.590326			0.229474			0.390396			-0.468404			-0.305371			0.00102325			-0.184437			0.370705			-0.60505			0.280501			0.0430896			0.455007			0.148186			0.302114			0.478237			-0.0571267			-0.672166			-0.153103			-0.585294			0.146829			0.0299054			-0.113325			-0.573504			0.210099			-0.753086			0.00283589			-0.106564			0.0469473			0.492493			0.315776			-0.322803			0.592655			0.178244			-0.0857566			0.172373			-0.951792			0.342999			0.882039			0.191717			0.256428			-0.724142			0.436061			0.0124929			0.210319			-0.405779			0.497344			0.20035			0.0368796			0.215805			-0.265906			-0.247917			0.71986			0.0460855			-0.225564			-0.449521			-0.24293			0.575734			0.00490426			0.830485			0.703357			-0.566377			0.168879			0.0968796			0.637106			0.120903			0.0529501			0.236903			0.242183			-0.0861011			0.252294			0.55864			-0.35454			0.0193793			0.442049			0.0220288			-0.283517			0.0531726			0.521392			0.350094			0.69795			-0.222126			0.187157			0.138195			-0.0582326			0.0854059			0.646415			-0.212654			0.431582			-0.745916			0.379676			0.199845			-0.988777			0.485971			-0.0805755			-0.382519			-0.0449845			-0.159001			
-0.366328			0.0370751			0.498087			-0.673393			0.726977			0.715467			0.692808			0.0886725			0.308833			-0.248953			0.533489			-0.604817			0.139421			-0.17461			0.0516245			0.302344			0.371495			0.296015			-0.0340239			-0.972677			-0.0523217			-0.487645			0.139675			-0.446837			0.495516			-0.242726			0.255824			0.223486			0.75683			0.597124			0.0331709			0.691494			-0.403562			-0.0746773			-0.308495			0.256615			0.259566			0.407988			0.0834475			-0.60398			0.466278			-0.23867			0.40174			-0.296773			-0.0221004			-0.783361			-0.632067			-0.231176			-0.442506			-0.738394			-0.981202			0.860289			0.341241			0.511658			0.0852269			-0.012934			-0.250418			0.171187			0.521448			0.647881			0.0531486			0.623774			0.444519			0.410733			-0.359356			-0.558361			-0.931329			0.666497			-0.0634293			-0.139326			0.369015			-0.337251			-0.20907			-0.144548			-0.386292			-0.379665			-0.502054			-0.739122			-0.305065			0.0346575			0.840298			-0.51856			-0.348253			-0.22061			-0.521902			0.279385			0.404647			0.237144			0.894132			-0.42831			-0.200722			-0.303147			-0.101077			0.0942646			0.144228			-0.304359			0.549504			-0.838101			0.206924			-0.594291			
-0.137133			-0.119663			-0.000748644			0.311102			-0.197554			0.0985256			0.0433928			-0.404937			0.419786			-0.278352			-0.0129313			0.0777597			0.015841			-0.409939			0.306975			-0.652131			0.760686			0.0831896			0.632834			-0.387972			-0.568833			-0.0850083			0.896699			-0.309252			-0.211327			-0.17898			-0.44759			0.565775			-0.408277			0.467972			-0.41001			0.406207			-0.147361			0.489093			0.148854			0.27708			0.950454			0.688696			0.526465			-0.113434			0.476353			0.419182			0.51322			0.689862			-0.437504			0.0980942			-0.564195			0.703607			0.455328			0.940411			0.393501			0.479461			0.460422			-0.0693835			-0.354091			0.0163136			-0.358946			-0.139749			0.219224			0.20469			0.0367637			-0.797683			-0.304554			0.190855			0.217358			-0.740536			-0.478675			0.694544			-0.24032			-0.932613			-0.576242			0.477337			-0.370959			0.826234			-0.386393			-0.265553			0.646165			0.307118			0.277717			0.181478			-0.00671136			-0.431849			-0.109322			0.840762			-0.445487			-0.827338			-0.108398			-0.448913			0.325969			0.214533			-0.278512			-0.256762			-0.489456			0.315159			0.107037			0.0768712			0.355431			0.894742			-0.992683			-0.130547			
-0.581856			-0.853805			-0.141198			0.343527			-0.173101			0.217292			-0.0928371			-0.411511			0.0268903			-0.184916			-0.148283			0.735302			0.349128			0.595585			-0.278384			0.15757			0.678296			0.349166			-0.308449			0.538251			0.824916			0.235119			-0.0650757			-0.780145			-0.576844			-0.228764			-0.416666			-0.0394247			-0.251429			-0.0304091			0.0415964			-0.26566			-0.470728			-0.234283			0.546034			0.0212138			0.21499			0.0691309			-0.0399079			-0.391246			-0.334132			0.595594			-0.342376			-0.227958			0.197359			-0.0303676			-0.160909			0.464721			-0.484406			-0.118808			0.452229			0.161257			-0.45324			0.451207			0.238153			0.24502			-0.619416			0.63018			0.0345304			0.536488			0.861335			0.0982433			0.028093			-0.0798165			-0.35025			-0.153804			-0.150936			0.0562494			-0.771713			0.31228			0.190231			-0.34845			-0.451622			-0.318451			0.569289			-0.515053			-0.610702			0.564403			-0.296765			0.564951			0.360082			0.607834			-0.193546			0.663496			-0.133338			0.00313025			-0.07293			-0.40247			0.452545			-0.883844			0.169787			-0.327042			-0.0295409			-0.456471			-0.422915			0.0555366			-0.389913			-0.533921			0.893404			-0.0165767			
0.384017			-0.0563489			0.370825			0.0817704			-0.319914			0.547377			0.228263			0.115501			0.380694			0.459555			0.414552			0.317057			0.318165			0.225155			0.393023			0.832893			0.00356863			-0.50199			-0.301618			-0.00583432			0.692782			0.355219			0.294504			-0.117942			-0.367445			-0.678372			-0.246063			-0.1948			0.0642084			-0.0299109			0.51471			0.426344			0.348051			-0.160401			0.280101			-0.518941			-0.0181603			0.769754			-0.144228			0.759617			-0.801241			0.21973			-0.397077			0.566106			-0.409601			0.0420281			-0.676393			-0.632471			-0.463067			-0.482633			-0.266292			0.9589			-0.432343			-0.821634			-0.521602			-0.207091			-0.493276			-0.837857			-0.465555			0.607577			-0.359126			0.368177			-0.241788			-0.688479			-0.0874407			-0.197012			-0.0629146			-0.0561369			0.527718			0.124279			-0.482612			-0.0682406			-0.152824			-0.10569			0.745254			0.505453			-0.424464			0.346264			-0.381624			0.558176			0.290026			0.560858			0.459575			-0.0342782			-0.105752			-0.10121			-0.126412			-0.297572			-0.0327318			-0.0566169			0.396362			-0.378473			0.727431			-0.335246			0.396794			0.833603			-0.224865			-0.208079			0.204061			0.359928			
0.738934			0.318227			-0.281071			-0.512352			-0.365101			-0.199399			0.319254			-0.716711			-0.0844308			0.774547			0.112573			0.192434			-0.453796			0.211328			0.00658558			-0.359154			-0.881064			0.203347			-0.955856			0.366509			0.321767			-0.403401			-0.502044			0.142547			0.533754			-0.909403			0.428585			0.112393			0.913936			0.653104			-0.631608			-0.0902277			-0.07361			-0.00181314			0.830419			-0.61648			0.0797974			-0.758736			0.0856089			0.0851747			0.240278			0.124467			0.663327			0.142042			-0.0659172			0.317057			-0.25853			0.417749			-0.894725			0.327289			-0.842319			-0.130632			-0.449928			0.367088			0.822518			-0.306963			-0.00731357			-0.300001			-0.0706163			0.450282			-0.20626			0.0566023			0.186616			-0.845266			-0.43366			-0.0607288			0.130146			-0.0200467			-0.427281			-0.920748			-0.159134			-0.121927			-0.181389			0.377764			-0.213269			-0.291006			-0.382171			0.172871			0.124248			0.0169283			-0.47568			0.541595			0.938382			-0.62634			-0.638203			-0.0489343			0.00879803			0.582249			-0.500025			-0.279921			-0.491125			0.384024			-0.619865			-0.214331			0.281686			0.0610602			-0.502384			-0.0521527			0.47812			-0.62639			
0.622714			0.626841			0.198978			-0.34316			0.150117			0.66651			-0.513488			0.830288			0.0174893			0.733854			0.0203681			0.0362891			0.174829			0.972853			0.409622			-0.0219959			0.00119407			0.00519726			-0.169727			0.340899			-0.440808			0.0413987			0.0309941			0.261528			-0.767325			-0.151854			0.0626297			0.257035			0.69639			0.303297			-0.629701			-0.665436			-0.992671			0.224576			-0.186533			0.362952			-0.523499			0.0504502			-0.528682			0.774419			-0.299978			0.0653937			0.427979			0.102257			-0.145819			0.16557			0.314745			0.0614487			0.657818			-0.118413			0.407359			-0.664368			-0.614023			-0.35225			0.748563			0.14937			0.502138			0.668471			-0.0979537			-0.388563			-0.471541			-0.190643			0.216942			0.468221			-0.219465			0.686014			0.449299			-0.430577			-0.203618			0.390958			0.807109			-0.18262			0.640259			-0.00287978			-0.138862			0.203484			0.0345324			0.00420501			-0.29656			0.163607			-0.0551932			0.0667698			-0.681564			0.768847			-0.251514			-0.669016			-0.828066			-0.143897			0.445573			-0.293721			-0.208274			-0.16535			0.223335			0.493906			0.658109			0.82608			-0.49613			-0.427705			-0.759578			-0.14338			
0.197322			0.139014			-0.715861			-0.632211			0.429861			0.124699			-0.143893			-0.224318			0.0949158			-0.386192			-0.019185			0.403575			-0.229502			0.361274			-0.240888			-0.56688			-0.187738			-0.243566			-0.288685			-0.0926702			-0.284896			-0.884054			0.0256324			-0.74362			-0.649525			-0.132451			-0.69597			0.383944			0.0276507			0.0754032			0.813295			-0.417058			-0.321833			-0.215866			0.43385			0.0288609			-0.347849			-0.130066			-0.303484			-0.222071			0.510194			-0.432708			0.680559			-0.130305			0.296993			0.132721			0.509259			-0.43123			0.368166			-0.181097			-0.01554			-0.198459			0.169305			-0.768581			-0.158026			-0.214516			0.104289			-0.541988			0.407921			-0.0330765			0.285036			0.161115			-0.357289			0.171619			-0.066899			0.481488			0.258775			-0.053186			0.00819985			0.33758			0.780771			0.521524			-0.0216654			0.00939433			-0.0341562			-0.977734			-0.496252			0.226002			0.385103			-0.203309			0.25769			0.31661			-0.0297739			0.444637			0.17588			0.586893			-0.353386			-0.640767			-0.799639			0.615762			0.288046			-0.481898			0.883904			0.194746			-0.310571			0.567952			0.144053			0.200533			0.575291			-0.768202			
-0.912927			-0.886796			-0.963162			-0.706358			0.536982			-0.482047			0.0255291			-0.177507			-0.106393			0.0959229			0.122089			0.27783			-0.331674			-0.386419			-0.160834			-0.482175			0.388086			0.0666768			-0.726728			0.219045			-0.0745016			0.343702			-0.0233671			0.587276			-0.176908			-0.634697			0.283777			-0.183939			0.170891			0.0158178			0.381058			-0.475852			-0.154283			0.278143			-0.0191417			-0.904303			0.107923			0.226311			-0.39185			-0.421169			0.105974			0.656267			0.427952			-0.446911			-0.831555			0.731512			0.574043			-0.57408			0.0586461			0.341373			0.100794			-0.462807			-0.45945			-0.3243			-0.56573			0.0202866			0.0601966			0.261531			0.369298			-0.039703			-0.00776534			0.453174			-0.00465056			0.956401			0.490955			0.1842			0.27945			0.389859			-0.410274			0.652338			-0.0756547			0.344321			-0.118218			-0.421573			-0.127869			-0.67744			0.662392			-0.0684501			0.420925			-0.350496			0.27925			0.2295			0.290433			-0.363329			-0.357854			-0.209396			-0.981309			-0.177209			-0.319796			0.306252			0.522754			-0.220484			-0.534707			0.89675			-0.303336			0.106537			0.319544			-0.41279			-0.272641			-0.0370783			
0.155374			0.359841			0.604956			-0.800094			0.599587			-0.122104			-0.587854			0.767704			-0.222364			-0.726121			-0.498642			0.609397			0.560703			-0.634485			0.183784			0.172432			0.384185			-0.685838			-0.101035			0.236495			-0.0358076			0.127007			-0.264632			0.460303			-0.0585341			-0.0585802			-0.750381			0.0804932			-0.32531			0.618115			0.368245			0.526791			0.411643			0.578662			-0.0511676			0.48523			0.592922			0.724831			0.346975			0.273203			-0.819758			0.706841			0.32839			-0.296696			-0.47936			0.0208392			0.512144			-0.211974			-0.104724			-0.222704			0.366748			0.325556			-0.456199			0.420442			-0.0885307			0.511507			-0.0806936			0.418279			0.373655			-0.019505			0.803295			-0.193025			0.49949			-0.45732			0.240041			0.100193			0.463279			0.220367			0.234415			-0.112733			0.432852			0.32242			-0.0674284			-0.178786			-0.434497			0.131868			-0.0835699			-0.210001			0.455054			-0.772022			-0.0186253			0.603167			0.212347			-0.156575			-0.421435			-0.0918706			0.444425			-0.356318			0.0939892			-0.213734			-0.377728			0.566299			-0.562251			-0.510471			-0.847222			-0.00524381			-0.0564927			-0.387304			0.571171			-0.182894			
-0.915355			-0.00072934			-0.64486			-0.351089			-0.110721			0.311488			0.127374			-0.0117602			0.329862			0.0858607			0.143933			-0.173984			0.0236771			0.0322876			-0.21563			0.299883			0.289009			0.100019			-0.613634			0.482128			0.276671			-0.628348			0.172495			0.427036			-0.187731			-0.504207			-0.197224			0.50559			0.00762422			0.0894548			0.306469			0.435078			-0.561729			0.467731			0.0493502			0.0492536			-0.574858			-0.452617			0.905751			-0.510328			-0.414531			-0.342307			0.37248			-0.462225			0.369761			-0.720232			0.0025871			-0.066345			0.705559			0.565994			0.369061			-0.434288			-0.0315065			0.151459			-0.243299			0.207989			-0.0906504			-0.256386			-0.0797889			0.95109			-0.330488			0.018664			0.404187			-0.0454348			-0.467673			0.314786			0.469429			0.786431			-0.544327			-0.0941796			-0.0226698			-0.430407			-0.217353			-0.649415			0.703934			0.401478			-0.109847			-0.242517			0.0863579			0.375899			-0.474004			-0.225357			-0.467138			0.185416			0.0503267			-0.166252			0.548862			-0.251963			0.176152			-0.280408			-0.907345			0.813167			0.0424546			0.133578			-0.471921			-0.917133			-0.429627			0.400959			-0.328569			-0.250695			
-0.386389			-0.534241			-0.08419			0.690638			-0.596073			0.695793			-0.131586			0.931221			-0.633557			0.167617			0.501972			-0.348842			-0.398609			0.0887948			-0.28257			-0.480202			-0.935266			0.280184			-0.285457			0.80098			-0.836632			-0.0846657			0.469104			-0.249453			0.717145			-0.669873			0.305847			0.0241219			-0.728032			0.529436			0.157491			-0.512385			0.393113			0.927091			0.300968			-0.0377711			0.413656			-0.463051			0.51899			0.20193			-0.708516			0.207833			0.295696			-0.711192			-0.859175			-0.457313			0.583386			0.310534			0.188783			-0.107849			0.660775			-0.319494			-0.643622			0.872299			-0.259918			-0.326306			0.411486			0.166151			0.177173			-0.125023			0.871857			0.339001			0.631538			0.207824			-0.00612408			0.49847			0.415631			-0.393083			0.163961			0.196146			0.0551573			-0.219082			0.230616			0.0472686			0.911431			0.818337			-0.440372			0.0562755			-0.0107807			0.665364			-0.111481			-0.102042			-0.536438			-0.740994			0.455927			-0.253797			-0.247049			0.133854			0.161983			-0.748054			-0.174826			-0.18706			-0.768772			0.604388			0.684636			-0.520822			0.877521			-0.487845			0.510328			-0.618447			
-0.32154			0.1788			-0.269115			-0.15847			0.442731			-0.348415			0.711894			-0.0118417			0.0814888			-0.677996			0.448023			0.691421			0.37934			0.512972			0.3919			0.86746			0.52229			0.30874			-0.211233			-0.366246			0.100594			0.0148515			0.0573588			0.232985			0.0610313			-0.338654			-0.248101			0.669114			0.428739			-0.356266			-0.0664507			-0.842493			0.00299043			-0.471923			0.139547			-0.329923			0.29412			-0.0136037			0.993304			-0.331772			-0.0101076			0.849969			-0.107335			0.410702			-0.894969			0.412181			-0.109091			0.0183201			0.0120201			0.216501			0.200016			0.264499			-0.263911			0.484043			0.229997			0.114516			0.323773			-0.223663			0.541692			0.070369			-0.10102			0.168086			0.233818			0.296008			0.160051			-0.826978			-0.682901			0.144271			-0.149091			-0.262765			0.50576			-0.420326			0.906396			0.412352			-0.291796			0.648326			0.0687965			-0.545458			-0.345986			-0.206617			0.361233			-0.932761			0.410791			0.659327			0.368409			-0.445418			-0.0245877			-0.497022			0.243549			-0.0422565			0.294003			0.306069			0.222344			-0.00305516			-0.0699279			0.418336			0.750525			-0.260673			-0.279858			0.521682			
0.150144			-0.241114			-0.649643			0.31879			0.564485			-0.100475			0.318678			0.246971			-0.13393			0.710288			-0.617907			-0.0619602			-0.0771093			-0.678289			0.0149044			0.207393			-0.0393801			-0.451607			-0.542293			-0.765576			-0.728076			0.401484			-0.629864			0.439189			-0.558158			0.171513			-0.223245			-0.0422844			0.267372			-0.352189			0.457147			-0.620292			0.433846			0.356139			0.498474			0.536537			-0.377346			0.137918			0.300311			0.385934			-0.30931			0.537844			-0.264673			-0.44053			0.403465			-0.400693			-0.335064			-0.427433			0.264215			-0.6762			0.18479			0.367359			-0.0518297			-0.697433			-0.256629			0.942574			0.319314			-0.0647399			-0.459567			0.295048			0.628976			0.531017			-0.457607			0.195686			-0.302494			-0.345893			0.209368			0.248648			-0.386378			-0.484775			0.634345			-0.103667			0.118026			-0.436042			0.679987			-0.0480101			0.216234			-0.393562			-0.124707			-0.0564766			0.454041			-0.741582			0.196084			0.249408			0.160381			0.559142			-0.342699			-0.316713			0.50006			0.687796			0.502157			0.128074			0.345064			-0.784904			-0.426073			-0.186672			-0.508927			0.0603874			0.420933			0.686104			
-0.488942			-0.482869			-0.371823			-0.326828			0.345593			-0.170051			-0.652475			0.380187			-0.0280965			-0.439526			-0.876719			-0.317654			0.663508			0.511502			-0.785578			-0.741507			-0.0322095			0.35496			-0.360198			0.4704			0.208154			-0.715839			0.537547			-0.323481			0.406263			0.0101391			0.143397			0.151971			0.125483			0.177857			0.272079			0.261304			-0.0252658			0.585516			0.287654			0.498137			0.220908			-0.114815			0.857791			0.143795			-0.359957			0.179539			0.288055			-0.207836			0.267317			0.281061			0.34018			-0.450693			0.510495			0.591121			-0.604165			0.432443			0.627675			-0.419534			-0.568956			-0.436178			0.303936			-0.156472			-0.40813			-0.0967137			0.652758			-0.122354			-0.0473368			0.117437			-0.585937			0.427336			0.715642			-0.91122			-0.256471			-0.622604			0.05083			-0.47602			-0.570746			-0.00220036			-0.0181047			0.944779			0.272566			0.0613838			0.706443			-0.408822			-0.582152			0.0579776			0.331093			-0.478812			-0.949256			0.125615			-0.737231			-0.483362			-0.877863			0.211211			-0.24801			0.198678			0.739838			0.647541			-0.0443438			0.324686			0.232623			-0.889138			-0.478013			0.0948505			
