Matrix_6
0.0239527			0.128428			-0.0174145			-0.317952			-0.215083			-0.344837			0.67765			-0.142838			-0.555779			-0.146873			0.229502			-0.203545			-0.0565149			0.499032			-0.314943			-0.196895			-0.189871			0.0157102			0.304489			0.200089			-0.549753			-0.618666			-0.408612			-0.118586			-0.0711572			-0.697727			-0.599853			0.346696			0.576841			0.582439			0.722238			0.630831			-0.0697303			0.208255			-0.0690652			0.397622			-0.177353			-0.75405			-0.4204			-0.350807			0.0974834			-0.384224			0.0121228			-0.557859			-0.265153			0.444481			-0.861086			-0.25647			0.299162			-0.354719			-0.0558154			-0.270181			0.196155			0.0158636			0.601256			-0.36183			-0.059795			0.137873			0.902208			0.307831			-0.0135307			-0.0242911			0.34097			-0.0397956			-0.152715			0.207731			-0.0912248			0.383083			-0.0425133			0.313155			0.66021			0.472445			0.0309858			0.45864			-0.707711			0.1727			-0.254766			-0.305995			-0.10135			-0.0833194			-0.287303			-0.0353072			0.31119			0.488171			0.324583			0.179174			-0.196389			0.0385601			0.392526			-0.985796			-0.867538			-0.15454			0.247115			0.445549			-0.822956			-0.159487			-0.537288			0.539294			-0.266845			-0.681606			-0.355345			-0.467629			-0.318638			0.760591			0.646712			0.472745			-0.159907			0.345969			-0.697704			-0.809509			0.0311039			0.157636			-0.0477176			-0.370136			0.289924			-0.463922			0.442626			-0.796917			0.205313			0.534158			-0.0927988			0.207104			-0.269504			0.410446			-0.327568			-0.0386771			0.464754			0.0779947			-0.841714			-0.279447			-0.546611			0.924109			0.54424			0.15145			0.377924			0.738923			-0.315153			-0.124594			-0.221547			0.0181664			-0.49331			0.164989			-0.674118			0.130064			0.430511			-0.685404			0.859499			-0.932181			-0.59309			-0.0891307			0.0443287			0.290412			-0.114811			-0.400152			-0.329241			-0.606084			-0.408908			-0.0356444			-0.253008			-0.309745			-0.919697			0.225254			0.071158			0.973581			0.0167499			0.170707			-0.10055			0.045153			-0.115636			-0.245532			0.314523			0.989838			-0.212968			-0.147926			0.00958838			-0.751606			-0.427212			0.00601842			0.144002			0.579432			-0.639255			-0.187408			-0.53935			0.238221			-0.955221			0.181198			0.269599			-0.754817			0.0742289			-0.213159			0.252458			0.0170094			-0.0771051			0.374538			-0.556929			0.418762			0.182859			0.55498			0.63102			0.3108			0.0918814			0.686692			-0.308925			-0.0482624			-0.341697			0.210946			-0.113851			0.000129848			-0.240148			-0.68105			-0.927534			0.499074			-0.415422			0.0274597			0.138492			0.317			-0.0583441			-0.0962538			0.0731495			-0.421022			0.488373			-0.193638			-0.13746			-0.585764			0.0916145			-0.52391			0.0120296			-0.134549			0.0831268			-0.105471			-0.543924			0.397574			0.00768411			-0.732434			-0.234198			-0.336663			-0.580342			0.227492			0.554451			0.233951			-0.031268			0.444552			-0.419404			-0.439006			-0.447436			-0.485497			-0.384132			0.167608			-0.863208			0.871964			
0.619554			0.922451			-0.222023			0.44534			0.0789866			-0.192555			-0.622624			-0.0983395			0.647462			-0.396638			-0.443305			0.63666			-0.0370035			0.415763			0.642994			0.350668			-0.0484989			-0.66856			0.176575			-0.00838745			-0.57943			-0.0278193			0.199675			-0.0856531			0.108056			-0.723749			-0.868688			0.284662			0.511313			0.478623			-0.612143			0.581731			-0.390877			-0.532892			-0.142552			0.480658			-0.0470548			-0.287944			-0.908309			-0.134356			-0.106972			-0.527969			0.0608903			0.295872			0.261774			0.770486			-0.915183			-0.487685			-0.224137			0.1457			0.879489			0.0778232			-0.422726			-0.239048			-0.967986			-0.171724			-0.778647			-0.67211			-0.645636			0.2323			-0.871184			0.646927			0.603348			-0.579909			0.832251			-0.600438			-0.600114			0.241127			-0.857801			0.19805			-0.298277			-0.653085			-0.154437			-0.135251			0.111574			0.156828			0.560374			-0.172355			-0.0889359			0.176894			-0.50559			0.0459042			0.730885			0.565256			-0.365567			0.136123			-0.190089			-0.307593			0.250002			0.194073			0.118078			-0.411572			0.546686			0.116614			-0.502467			0.286493			0.270405			-0.200882			-0.39929			0.800512			0.0709573			0.0546919			-0.48378			-0.554157			0.544667			-0.651731			-0.227009			0.775304			0.504416			0.13696			0.432426			-0.589605			0.20151			-0.37266			0.789783			0.269756			-0.363833			0.917549			0.277114			-0.157906			-0.0827887			0.24927			-0.646111			-0.176946			-0.251698			0.356972			-0.670402			0.442222			-0.354541			-0.357211			-0.552616			0.161653			-0.196901			-0.168465			-0.35881			-0.562665			0.0563978			0.722582			-0.786116			-0.385613			-0.376443			-0.0606217			-0.0981195			-0.432988			-0.596292			0.4108			0.51898			0.0501517			0.13026			0.183322			-0.980283			-0.0688478			-0.0897707			-0.0450045			-0.407866			-0.69089			0.310882			-0.23996			0.210936			-0.0483401			-0.798806			0.133693			0.44138			0.0422467			-0.0992042			0.751302			0.338652			-0.381639			0.828312			0.036718			-0.296905			0.403304			0.766189			0.358633			-0.0677321			-0.252389			0.0467375			-0.741786			-0.299341			0.246466			-0.306204			0.227421			-0.559681			0.768369			0.161836			-0.774594			-0.288323			-0.886926			-0.348377			0.557825			-0.451695			0.694563			0.0332159			-0.516409			-0.430268			-0.890055			-0.0654347			-0.487057			-0.213466			-0.612364			0.399554			-0.316864			-0.0681229			-0.377665			-0.647821			-0.235514			-0.685452			-0.115775			0.269566			-0.00452965			0.327843			-0.405808			0.318047			0.842318			-0.26794			0.361171			-0.276929			0.0487092			0.211749			-0.221017			0.212802			0.289754			-0.472092			0.205917			0.153839			-0.830798			-0.467796			0.169587			0.227673			-0.204693			0.287546			0.262202			-0.0872329			0.0820135			-0.206943			0.412577			-0.00423535			0.492549			-0.305612			0.406902			-0.447243			-0.101219			-0.313683			0.58353			0.512336			-0.154047			-0.206998			0.477642			-0.330728			-0.582088			
-0.87233			-0.432095			-0.35399			0.395294			0.37096			0.0369205			-0.504045			-0.44517			-0.271398			0.153262			-0.00749891			0.177564			0.600733			0.662058			0.67525			0.593779			0.206135			0.0757285			0.416957			-0.471614			-0.429159			0.323216			0.324177			0.769956			-0.74109			-0.442708			0.0708102			0.598954			0.618068			-0.679601			-0.184558			0.569199			0.442933			-0.395559			-0.436168			-0.590253			0.620883			-0.413919			0.0697086			0.245152			-0.30086			0.660184			-0.569474			-0.441339			0.803132			-0.226985			0.142378			-0.127406			0.155701			-0.21579			-0.576727			0.888481			-0.419638			-0.0323168			0.654851			0.806468			0.406107			0.288373			-0.466706			0.148764			-0.0798945			0.0511955			-0.992072			-0.187336			0.85917			0.201199			0.321644			-0.639219			-0.597291			0.393548			0.539111			0.283709			0.527599			-0.121595			-0.535909			-0.570406			0.204687			-0.343486			0.184533			-0.0839269			0.539414			-0.307652			-0.14897			0.421058			0.514157			-0.448415			-0.726167			0.0409398			-0.0837947			0.10759			-0.025077			0.107729			0.0366472			-0.135612			0.0906103			-0.416713			0.317099			-0.248769			0.252513			0.111593			-0.418862			-0.0207915			0.220274			-0.221555			0.324418			-0.00314881			-0.396934			0.0814527			0.0689493			-0.410372			0.888153			-0.183388			-0.853752			-0.326654			-0.293928			-0.61314			0.806875			-0.0542309			-0.0570923			-0.331877			0.22742			-0.348044			-0.298161			0.0897683			-0.131713			0.0441939			0.0353664			0.568129			-0.401334			0.215283			0.779987			-0.0528318			0.350412			-0.547597			-0.303601			0.38527			-0.0688344			-0.215066			-0.200403			0.364905			-0.517103			-0.834275			-0.0736172			0.328038			-0.358928			-0.298414			-0.785167			-0.391069			-0.289716			-0.141655			-0.0233365			0.477175			0.178977			-0.494013			-0.297996			-0.188327			0.287495			0.447884			0.343258			-0.200217			-0.286571			-0.107887			-0.878535			0.639058			-0.0469728			0.103698			0.947019			-0.155785			0.484331			-0.673407			-0.351479			-0.0622104			-0.921641			-0.612908			-0.248335			-0.307536			0.219627			0.34091			0.229322			-0.1786			0.556039			0.887424			-0.435205			0.216715			0.106014			-0.47369			0.113693			-0.0903773			-0.575051			-0.155352			-0.251935			-0.168264			-0.483161			0.0133185			0.229225			-0.617915			0.370891			0.0873443			-0.120199			0.123488			-0.161507			-0.379569			-0.493454			0.110638			0.427173			-0.360657			-0.435439			-0.62879			0.321141			0.423262			0.848515			-0.781536			-0.253936			0.423648			-0.326943			-0.403993			-0.180783			0.55364			-0.299826			-0.00487207			0.739441			0.731664			0.110119			-0.0492446			-0.253284			0.792994			-0.753356			-0.413092			0.0500167			0.053304			-0.209175			0.551659			0.243222			0.30224			0.093044			-0.813608			-0.0662795			0.156868			0.335021			0.271544			0.157139			-0.61312			0.405183			0.246931			-0.533073			-0.364633			0.103762			0.16732			0.0408458			0.697975			
0.0760443			-0.221161			0.0279803			0.0425815			-0.394122			-0.59962			0.948384			0.509273			0.456401			0.23735			0.519961			0.180029			-0.129022			0.140213			0.0424495			-0.695239			0.209808			0.143395			-0.449656			-0.735252			0.222776			-0.239849			-0.47054			0.740975			-0.223872			-0.711885			0.534346			-0.378552			0.484714			0.16118			0.119993			0.521279			0.334506			0.271174			0.0741323			-0.0831751			0.834598			0.0753532			0.258455			-0.0198172			0.123114			-0.831943			-0.169632			-0.627921			0.187578			0.324204			-0.695332			-0.302144			0.097292			-0.559928			-0.464151			-0.190273			-0.249701			0.426655			-0.89201			-0.246108			0.80947			0.0248827			0.649104			0.102261			0.681775			0.230063			-0.643377			0.571716			-0.693318			0.281822			-0.106817			0.315761			-0.147331			-0.218729			0.863553			0.239869			0.186237			0.443822			-0.334072			-0.428592			-0.727292			0.31759			0.573928			-0.247911			-0.0169376			0.145364			0.0609798			0.438614			-0.431804			-0.630967			0.634503			-0.00448736			0.0379368			-0.0128949			0.0435758			0.210926			-0.0215083			0.172683			-0.40151			-0.400178			0.215088			0.728339			-0.476685			-0.0765151			-0.202286			0.756931			-0.125392			-0.827502			-0.191297			0.303084			-0.0182773			-0.312322			0.820999			0.241869			-0.316429			0.305183			-0.177263			0.511368			0.276589			0.169602			0.248911			-0.283457			-0.343692			0.44947			0.465995			-0.602877			-0.554896			-0.125264			0.194166			-0.679528			0.724364			0.177041			-0.855839			0.206011			0.340899			-0.393061			0.453446			-0.0908731			0.560191			-0.774108			-0.649341			-0.0762901			-0.484489			-0.441848			-0.339597			0.543306			0.534837			-0.682588			0.459455			-0.923456			-0.325581			-0.434961			-0.401383			-0.296356			-0.108364			0.24745			-0.412941			-0.235705			-0.610892			0.0701854			0.279075			-0.0774246			0.111675			0.3746			-0.586042			0.757197			-0.342486			0.369225			-0.415519			-0.702164			-0.17712			0.218675			0.571221			0.395652			-0.235269			0.209631			-0.904296			-0.0259349			0.113151			0.168821			0.168037			-0.656835			-0.325924			-0.533277			0.100135			-0.433345			0.157585			-0.0292155			-0.033493			0.605622			-0.653073			-0.704263			-0.753285			-0.0758785			0.562628			-0.189556			0.717676			0.114098			0.0714162			-0.656177			-0.157073			0.0324149			0.222318			-0.0405496			-0.530005			-0.396761			-0.0927839			-0.346184			0.320667			-0.537233			-0.0339467			0.362531			-0.541612			-0.984764			0.324765			0.592148			-0.656931			-0.232253			-0.953426			0.65416			0.2433			-0.31323			-0.222357			0.723432			0.0593946			-0.742833			0.562607			-0.179299			0.620455			-0.0492098			-0.509579			0.0252494			-0.619802			0.204587			-0.272804			-0.0756158			-0.544007			-0.756088			0.692421			0.252519			-0.205267			0.223579			0.0571102			-0.528374			0.0313604			0.00839314			-0.0239368			0.530361			0.491659			0.655105			-0.124538			0.284433			0.135128			0.0134467			
-0.54952			0.266347			0.371306			-0.600944			-0.397417			-0.307733			0.171606			-0.112337			0.534891			0.101284			-0.101972			-0.363951			0.0910266			0.500764			0.116441			-0.920888			0.34431			0.187817			-0.32288			-0.354547			-0.418244			-0.914313			0.365402			-0.265072			0.210616			0.0825665			0.74254			-0.292277			-0.568107			0.442322			0.315668			0.18101			0.14602			0.0966543			-0.572929			-0.704999			0.567575			0.504967			0.28768			0.592578			-0.264614			-0.481711			-0.24621			0.689003			0.130407			0.951626			-0.352124			0.00691609			-0.464092			-0.235085			-0.224807			-0.452311			-0.252982			-0.134302			0.204333			0.315198			0.391799			0.168611			-0.353495			-0.528316			-0.511602			0.726784			-0.294021			-0.720837			-0.12394			-0.108075			0.0742688			0.371985			0.225997			0.4222			-0.375828			0.84712			0.00377304			0.648383			0.39472			-0.499817			-0.86064			-0.83306			-0.450276			-0.642548			-0.309075			-0.31993			0.430074			0.174305			-0.448926			0.962832			0.296006			0.128606			-0.420098			-0.654192			-0.259982			0.365841			0.760173			-0.563388			0.140354			-0.372065			0.3408			-0.0753316			0.283063			0.778421			0.894701			-0.579839			0.145509			-0.546833			-0.222191			-0.888248			-0.0910497			-0.611283			-0.192226			-0.536156			0.509568			0.98147			-0.321723			-0.0157845			-0.0418878			0.249877			0.384852			0.0472727			-0.54198			0.380418			-0.0562346			-0.0929119			0.451592			0.363092			-0.168447			-0.178135			-0.110226			-0.397089			-0.318357			-0.72895			-0.174567			0.602913			-0.0285673			0.00976558			-0.432152			0.869106			0.250962			-0.147397			0.288885			0.351631			0.12329			0.445335			0.542499			0.665945			-0.541181			-0.243975			-0.922535			0.521804			0.00350231			-0.0766233			0.195196			-0.139492			-0.991051			0.0253764			-0.341386			-0.146465			-0.326995			-0.913611			-0.197298			-0.21116			-0.124896			0.288051			-0.239354			0.892075			0.629047			0.304125			0.334239			-0.461967			-0.80939			-0.49983			-0.74827			-0.33194			0.407728			0.114496			0.107407			-0.884112			-0.613438			0.677814			0.53313			0.230892			0.197768			0.242072			0.700552			0.601909			-0.438239			0.10774			-0.675559			0.861929			0.365835			0.615813			0.185451			-0.0613528			0.0109842			0.616313			0.219382			-0.0568911			0.628932			-0.00820315			0.156141			0.0917187			0.292917			0.205464			0.199989			-0.50535			-0.382929			0.612226			-0.625444			0.563083			0.36713			0.0293175			-0.682682			0.70976			0.387462			0.580298			0.661538			-0.499534			0.330737			0.39502			0.0474974			-0.495385			0.363946			0.131621			0.221889			0.214714			-0.54558			-0.0613046			-0.628481			-0.286462			0.807839			-0.00521351			0.752557			0.382129			-0.571372			0.589502			-0.737936			-0.443971			0.326594			-0.383417			-0.45923			0.147289			-0.452021			-0.00492426			-0.677822			0.572246			-0.537312			-0.248242			0.335591			-0.0855535			-0.646531			0.243331			
0.0578065			-0.0536372			-0.323936			-0.00522754			-0.0299993			-0.740312			0.739193			0.251225			-0.597281			-0.219113			-0.625222			-0.901697			0.866759			0.362322			0.0537711			-0.213264			0.586982			-0.0459968			-0.480268			0.134426			-0.377543			-0.429482			-0.595065			0.0502462			0.0803276			-0.705998			-0.878973			0.0799609			-0.00737655			0.226604			-0.122566			0.712708			-0.646492			-0.00743676			0.00278477			-0.578747			0.488425			-0.52894			0.171874			-0.264057			-0.252614			-0.328498			0.292687			0.284732			0.51685			0.405701			-0.295718			-0.421475			0.328112			0.413686			0.650476			-0.568062			-0.548783			-0.0146685			-0.0568403			0.271676			0.155223			-0.446			-0.588571			-0.729588			-0.386393			0.111909			-0.0725017			0.127574			-0.271825			0.582167			0.2562			-0.0437075			-0.288528			-0.533798			-0.38041			0.373515			-0.209346			0.390838			-0.078564			-0.356288			0.612324			-0.68582			-0.459826			-0.354862			0.218621			-0.146696			-0.137808			-0.709364			0.464849			0.0413092			0.219251			0.00161744			0.135595			-0.220231			0.100001			0.298511			-0.0619073			-0.223786			0.102052			0.406155			0.231714			-0.832443			-0.302311			0.29891			-0.573412			0.0708451			-0.236624			0.105773			-0.298121			-0.271273			-0.348499			-0.275469			-0.495965			-0.259598			-0.145956			0.491525			-0.421051			0.793238			-0.147808			0.745155			0.53798			-0.244065			0.2617			0.371588			0.640267			0.0745513			0.139218			0.268612			0.0128177			0.104168			-0.071568			-0.994883			0.204323			0.108984			0.767761			0.263028			0.148123			0.0895122			0.135257			0.306389			-0.373285			-0.72696			-0.239983			-0.192816			-0.390552			0.567386			-0.845233			-0.42811			-0.0785988			-0.792639			-0.19973			-0.202808			-0.382244			0.184527			-0.467927			-0.196674			0.535033			0.0223659			-0.177249			-0.0466486			-0.297976			-0.621568			-0.290467			-0.359283			0.16938			0.00851544			-0.17375			-0.633221			-0.801681			-0.189113			0.386878			-0.330442			-0.604499			-0.530585			0.208711			-0.157603			-0.395161			-0.952495			0.149592			0.639432			-0.000537308			-0.230447			0.743031			-0.231528			0.109265			0.189651			-0.662255			-0.124055			-0.00176466			0.536057			0.542326			-0.421122			-0.2264			0.202089			0.313495			-0.491097			-0.0244177			0.418048			0.316398			0.175236			-0.133769			0.284609			-0.0348377			-0.215412			-0.434865			0.27427			-0.187325			0.0553437			-0.582112			-0.0998652			-0.0825629			-0.407798			-0.368299			-0.409028			0.0764185			-0.496197			-0.114869			-0.656857			-0.992847			-0.635764			0.432838			0.229239			-0.34161			0.24645			0.371426			-0.812522			-0.661381			-0.262577			-0.518697			-0.0538451			0.147969			0.440277			-0.655708			-0.299773			-0.66241			-0.244598			0.417859			-0.707311			0.715243			0.47127			0.12504			-0.670695			0.321844			-0.174691			-0.098457			-0.293906			-0.318937			-0.100774			0.139733			-0.776146			0.0425448			-0.310739			-0.287586			-0.365634			
0.03122			0.151433			-0.470859			0.342879			-0.689621			-0.013288			-0.431138			-0.454699			0.205038			0.88579			0.749948			-0.192828			0.501526			0.752987			-0.000393969			-0.0760101			-0.243395			-0.691899			-0.456134			0.790292			-0.180049			-0.261631			0.145265			0.377223			0.264531			-0.973922			0.083657			0.288805			0.344303			-0.061306			0.181481			-0.696337			0.91546			-0.188764			-0.325012			0.123343			-0.0290062			-0.217731			0.317395			-0.628785			-0.363425			-0.13339			0.520305			-0.581807			0.87731			-0.29972			0.451787			-0.395565			-0.0761639			-0.076818			-0.0616683			-0.0586769			-0.683408			-0.482068			-0.0393436			0.382275			0.51008			-0.478558			-0.795596			0.433321			-0.804922			0.0510306			0.263682			-0.351328			0.369304			-0.161078			0.512018			0.636302			0.316418			-0.0312983			-0.102388			-0.232346			0.383416			-0.822785			-0.839715			0.285284			-0.408969			-0.407139			0.257103			0.210278			0.269642			-0.539176			0.146672			-0.206555			-0.436444			-0.00371864			-0.361202			0.47647			-0.653358			-0.0155328			-0.00482668			-0.740427			0.688223			0.417856			0.252362			0.341912			0.642297			0.66949			0.798072			0.129786			0.228291			-0.865244			-0.392922			0.381654			0.28297			-0.210899			0.118842			-0.61756			0.344618			0.0105321			0.736322			0.0237633			0.053223			-0.266527			-0.0543813			0.847491			-0.205064			-0.253095			-0.787057			0.079485			-0.624014			0.389666			0.611627			-0.294707			0.765962			-0.84401			-0.227456			0.110778			0.212871			-0.180971			0.189644			-0.604647			0.248455			0.077817			-0.224905			-0.15337			-0.792105			0.0736987			0.473952			-0.591411			0.0419583			-0.461679			0.624989			0.806472			-0.412611			0.249685			-0.361229			0.219532			-0.697723			-0.404911			0.464337			-0.219766			-0.395459			0.342453			-0.0577515			0.434154			0.454614			-0.152639			0.229323			-0.226736			0.605117			0.150564			0.291952			0.0827328			-0.910174			-0.00620332			-0.911958			0.0796361			0.173586			-0.189864			-0.250216			-0.124068			0.0738016			-0.798352			-0.599638			0.474887			0.303045			0.390653			0.754343			0.487293			0.142158			-0.0755831			-0.0896625			-0.103321			-0.129173			0.611001			0.72369			-0.266139			-0.502225			0.459518			0.275265			-0.559279			0.672859			0.296706			-0.19373			-0.539734			-0.26143			0.336347			-0.199378			-0.122149			-0.877625			-0.590007			-0.420666			0.631943			0.112118			0.155704			-0.275445			0.00675392			-0.320431			-0.334995			0.438868			0.142849			-0.02523			0.694097			0.332394			-0.176046			-0.441755			0.573574			0.0367617			0.152871			0.124106			0.706545			-0.825505			-0.00637813			0.415224			0.155528			-0.466391			0.758396			0.556838			-0.546082			0.800152			0.48708			0.0333171			-0.111033			-0.00191435			-0.0409277			-0.47416			0.0337455			0.369895			-0.0548562			0.597175			0.344118			-0.534373			0.664534			-0.72933			0.376754			-0.270167			0.25186			0.492384			0.980408			
-0.604778			-0.360246			-0.16192			0.503326			-0.129231			0.251947			-0.841179			0.0471467			0.252739			0.258324			0.480808			0.0281953			0.886392			0.637007			0.00530114			-0.107141			0.902469			-0.767533			-0.949231			-0.596666			-0.6824			-0.00580548			-0.0898245			-0.530123			0.116014			-0.76616			0.321721			-0.114484			-0.241601			-0.611912			0.334224			-0.364958			-0.019325			-0.127583			0.588171			0.66544			0.401295			0.0475399			0.418283			-0.746335			-0.322326			-0.059271			-0.0109038			0.152129			0.387385			-0.465451			-0.485207			0.150269			-0.889821			-0.107424			0.995097			0.285623			-0.737567			-0.597728			-0.471289			-0.39368			0.332284			-0.773003			0.411841			0.0874027			0.608839			-0.203276			-0.473218			0.492208			-0.229739			-0.735063			0.120693			0.378451			0.376766			0.216748			0.779785			-0.0730655			-0.671373			0.653877			-0.500333			0.0623659			-0.5794			0.251903			0.241921			0.125423			0.958866			-0.0490407			-0.467058			0.785391			0.130804			0.136651			0.28068			0.100611			0.356493			0.0587806			-0.827643			-0.259877			0.150324			0.0727383			0.737999			-0.690132			0.189369			0.423271			0.906501			-0.188762			0.608098			0.661929			-0.188309			0.511459			-0.412188			-0.189169			-0.0665224			-0.0623013			0.420871			-0.103641			0.405958			-0.853687			0.243267			-0.204626			0.757527			0.160169			0.601871			0.269941			0.3181			0.00175932			-0.175635			0.469535			-0.345008			-0.573588			-0.0370005			-0.37867			0.166485			-0.940475			0.563349			0.184634			0.44972			0.0761788			-0.128654			0.27162			-0.397308			-0.252708			0.118693			0.0441125			0.0496775			-0.0448549			-0.13688			-0.178453			-0.00698954			0.0449739			-0.522632			-0.415948			0.054653			-0.299643			0.358054			0.739994			-0.520611			0.00913692			0.0233105			-0.0172115			0.300654			-0.274216			-0.925286			0.33932			-0.454596			0.307977			0.500276			0.0787213			0.124767			-0.13645			-0.188094			-0.624197			-0.344669			-0.434956			0.021393			-0.384209			-0.50226			0.256715			0.476509			-0.0277043			0.555			-0.288912			0.0348465			-0.101609			0.750511			-0.575993			0.111324			-0.441497			-0.122695			0.448746			-0.127169			-0.715936			-0.0333912			-0.0469012			0.540333			-0.0673616			-0.125477			-0.280111			0.39194			0.415599			0.290461			0.763183			0.00287074			0.392767			-0.302934			0.222392			0.0917228			-0.0101525			0.647874			-0.219884			-0.744012			-0.0638209			0.474628			0.352914			-0.343091			-0.521554			-0.471513			0.0142796			0.420786			0.201294			0.852875			0.994812			-0.332736			-0.633467			-0.324631			-0.350596			-0.247593			0.368309			-0.0768946			0.34673			0.500187			0.266272			0.196652			0.138421			-0.381519			0.654109			-0.0339015			-0.138575			0.255047			-0.397897			0.190718			0.547774			-0.198446			-0.691311			-0.270212			0.384873			-0.206285			0.0384295			-0.0805359			0.0589594			0.16955			-0.659748			-0.870762			-0.118758			0.115247			0.310439			
0.120501			0.229476			-0.744713			0.721092			-0.149997			0.102012			-0.469342			-0.15737			-0.271008			0.634929			-0.267356			-0.628917			-0.288028			0.541675			-0.144411			0.00751948			-0.155761			-0.396516			0.0911493			-0.459728			0.601155			-0.716899			0.255515			-0.383709			-0.398503			0.207615			-0.470743			0.00397767			-0.359965			0.178835			0.118793			0.190349			0.614519			-0.183266			-0.583529			0.747909			0.293263			0.454132			-0.25451			0.290478			-0.597873			0.432799			0.669146			0.647232			-0.153715			-0.172676			-0.0926161			0.973982			-0.0856657			0.346988			0.820788			-0.557908			-0.527699			-0.39132			0.0514493			0.095674			0.960577			0.952769			-0.370869			0.651342			0.502973			0.426181			-0.156014			0.376849			-0.300465			0.831835			0.216273			0.192781			0.629535			-0.0870451			0.0527345			0.33103			0.439378			-0.373833			-0.132515			-0.616882			-0.444843			-0.709862			0.412492			0.789913			0.00555363			0.403665			0.224338			-0.896902			0.666392			-0.891552			-0.221464			-0.263359			-0.325767			0.130179			-0.00269207			-0.363184			-0.462371			-0.543903			0.154596			0.582589			-0.509791			-0.167816			0.5039			-0.525338			0.768637			0.90557			0.795836			0.408123			0.266825			0.234584			0.162655			0.567032			-0.524319			0.675615			0.186261			-0.202058			0.334775			-0.566575			-0.469754			-0.459137			0.273508			-0.96752			0.0735089			0.497895			0.563851			-0.290134			-0.0647268			-0.773962			0.0392657			0.0753023			0.365628			-0.972675			0.965623			0.32107			0.457777			0.458296			0.724723			0.623318			-0.183842			0.380673			0.311228			-0.224803			-0.112205			0.413482			0.225669			-0.0939857			-0.538212			0.477892			-0.581345			-0.133439			-0.501914			0.808153			-0.445811			0.528297			-0.828599			0.0625405			-0.273414			-0.181916			-0.219819			-0.0612866			0.348629			-0.761309			0.461126			-0.334951			0.11174			-0.359861			-0.240309			0.0872958			0.233178			-0.116959			-0.370342			-0.166828			0.607829			-0.267653			0.00325778			-0.620537			0.692554			0.958265			0.0777019			0.427751			-0.229128			-0.293958			-0.270171			0.418197			-0.15583			0.071928			0.342486			0.121605			0.0135594			-0.205002			-0.666227			-0.0270633			0.131992			0.349947			-0.403718			0.1075			-0.360347			-0.539478			-0.415956			0.58387			0.0515593			-0.548992			0.39879			-0.696509			-0.180542			0.0355504			-0.349754			-0.21453			-0.321898			-0.188231			-0.0481941			0.270388			-0.143642			-0.158284			-0.450446			-0.376968			-0.714642			-0.405968			-0.335729			0.292342			-0.054344			0.11414			0.452573			-0.583796			-0.148423			0.4867			0.882084			-0.814281			0.540992			0.729713			-0.235454			-0.305293			0.301107			-0.218637			0.173056			0.258325			-0.371893			0.572653			0.95987			0.497315			0.188786			0.112409			0.576776			-0.35776			-0.10129			-0.218167			0.417546			-0.192711			0.211263			0.400066			0.401646			0.835502			0.276406			-0.345551			
0.513618			0.485967			0.429412			-0.127897			-0.553182			0.713489			-0.138182			-0.0470609			-0.42318			-0.265661			0.224486			-0.0199747			0.268477			0.224588			-0.338022			0.23794			-0.229153			0.583372			0.0912855			-0.241456			-0.432404			-0.234845			0.76886			-0.319499			-0.355155			0.0982953			-0.7487			-0.434211			0.850313			-0.8566			0.472543			-0.0462727			0.163368			0.0678286			-0.200684			0.390527			0.413194			0.175689			-0.76639			0.525919			0.199244			-0.661632			0.291895			-0.471287			-0.890455			-0.666507			0.722705			0.139119			-0.274691			0.181691			0.372814			0.635453			-0.533102			0.320413			-0.335162			0.315453			-0.279759			-0.499751			0.568119			0.316451			0.434275			0.137243			-0.650046			-0.145258			0.553436			-0.513589			0.447852			0.644591			-0.371462			-0.527403			0.21419			-0.151307			0.50471			-0.358081			-0.879389			-0.00293444			-0.067866			0.0241628			-0.633107			-0.151493			-0.0987112			-0.121196			0.188061			0.338722			-0.0347911			0.0850078			0.282038			0.628495			0.336224			0.139192			0.0787369			0.225376			-0.253809			0.29569			-0.634692			0.208256			-0.213261			0.367993			-0.0567627			0.914939			0.226155			0.199916			0.0784435			0.683889			-0.119227			0.26384			-0.144026			-0.0924882			0.257616			0.333479			-0.34947			-0.507413			-0.0198516			-0.193536			0.628944			-0.0444739			0.267515			0.600502			0.240762			-0.105426			0.237339			-0.165728			-0.472666			-0.23755			-0.0291073			0.136468			0.548568			-0.473284			0.316135			0.0216726			-0.53061			0.41303			-0.763488			0.813643			0.952912			-0.875256			-0.586062			0.18784			0.447316			-0.680969			-0.775973			-0.432548			0.188612			0.922017			0.252559			-0.540651			-0.381519			-0.156456			-0.316449			-0.100694			-0.0812188			-0.139922			0.102755			-0.215609			0.159621			-0.57641			-0.0120175			-0.0199859			0.293461			0.434683			0.496653			-0.343029			0.185048			-0.142776			-0.10731			0.263211			0.0988567			0.316452			0.36617			-0.0450666			0.434501			0.488428			0.0154879			-0.270527			0.222171			0.304326			-0.237598			0.209597			-0.439548			-0.193095			-0.528			0.495477			0.538556			-0.472358			-0.307681			-0.210135			0.024399			-0.403643			0.926912			-0.409726			0.362623			0.183742			-0.902367			-0.285686			0.796291			0.167378			0.40117			0.4314			0.0417256			0.0854507			0.396425			-0.478623			-0.990505			-0.0763412			-0.00517895			0.34781			0.958833			0.467029			0.744323			0.487791			0.315337			-0.168568			-0.505104			0.316878			0.364302			-0.201304			0.0212346			0.448461			0.77962			0.103007			-0.248673			-0.952124			-0.184484			0.138604			-0.634558			-0.114395			0.538165			-0.486072			0.0263646			-0.253594			0.0949685			-0.380096			-0.907518			-0.27885			-0.420262			0.867332			0.100309			-0.509847			-0.709506			0.404343			0.440778			-0.39324			0.231644			-0.217514			0.268327			-0.670222			0.175335			-0.936118			-0.63317			0.312718			
0.00798545			-0.0603008			0.677548			-0.683102			-0.453394			-0.566483			-0.40826			-0.29829			0.797277			0.0595601			-0.424549			0.772201			-0.467008			0.139162			-0.355623			0.329153			-0.444918			0.816873			-0.40099			-0.210204			0.0545161			0.219717			0.562492			-0.150914			-0.065026			0.0912088			-0.766862			-0.283078			0.47355			0.597565			-0.354504			0.325791			0.0827823			-0.253977			0.658233			0.309644			0.891249			0.523329			-0.673448			-0.0235953			-0.578187			-0.358475			-0.100495			-0.0831407			0.330332			0.47075			0.728642			-0.493605			0.460675			-0.843966			-0.184955			0.202881			-0.309347			-0.445113			-0.139897			0.148514			0.47812			0.421522			-0.224876			0.865262			0.387863			-0.286881			-0.291887			-0.816915			0.103576			0.520524			-0.139733			0.368121			0.395923			-0.0807078			-0.264718			0.197416			-0.226628			0.613642			-0.31429			-0.672004			-0.0638282			-0.663737			-0.0148759			-0.149636			-0.45416			0.117014			-0.343908			-0.255066			-0.417809			-0.0376087			-0.983511			-0.1476			-0.745197			0.129627			-0.511587			0.425074			0.483983			-0.548083			0.499194			0.180888			0.768484			0.150057			0.572671			-0.0881182			-0.371484			0.0849187			0.299817			0.137844			0.533607			-0.239913			0.112468			-0.57281			-0.140584			-0.354274			-0.211556			-0.209263			0.288871			0.682774			0.343557			-0.499168			-0.390295			0.00880343			-0.517445			-0.402068			0.362925			-0.65485			-0.315996			-0.185954			-0.175288			0.335977			-0.274806			-0.338841			-0.909104			0.174043			-0.268385			0.474023			0.0211218			0.50279			0.656479			0.145569			-0.560378			0.134715			-0.0140288			-0.658581			-0.145375			0.753153			0.0230179			0.909381			0.091256			0.291272			0.0665615			-0.170711			-0.00621261			-0.0552782			0.149174			0.359836			0.735767			0.000344406			-0.22524			0.158331			0.401261			0.194931			-0.260389			0.252252			0.789429			-0.230628			0.39892			0.0165898			0.172067			-0.126524			-0.197832			0.0318546			-0.749409			0.0977505			0.178908			0.575462			0.719598			0.215293			-0.125341			-0.424082			-0.260369			-0.335582			0.124519			0.0829762			-0.550932			0.225847			-0.178721			-0.329755			-0.157087			0.731275			0.401473			0.535613			-0.247427			-0.051399			-0.243228			0.159313			-0.256596			0.109658			0.0853959			-0.274896			0.0570765			0.0120193			-0.450615			-0.258309			0.611851			-0.463003			-0.12461			-0.493681			0.77972			-0.00820233			-0.136761			0.595123			0.22646			0.597693			-0.0894131			0.256325			-0.29392			0.302218			0.348831			-0.437592			-0.500205			-0.000670225			0.0308326			-0.17508			-0.518763			0.112087			0.152821			-0.976291			-0.516808			-0.832268			-0.202647			0.373782			-0.402455			-0.830105			-0.376096			-0.576284			-0.302129			-0.0309828			0.0306755			0.40054			0.142362			-0.84019			0.679838			0.348243			0.424955			-0.670514			-0.849584			-0.285834			0.488044			-0.211919			-0.549428			-0.588757			0.931294			-0.630635			
-0.148953			-0.0881215			-0.404168			-0.0120624			-0.172746			0.635867			0.43784			0.494155			0.257698			0.117239			-0.560466			0.153659			-0.331266			0.656455			-0.283184			0.279888			0.0621833			-0.493353			0.137699			0.581233			-0.266949			0.102539			-0.867309			-0.908285			0.339199			0.594944			-0.116831			-0.567588			-0.359179			0.111861			0.431049			0.290033			-0.05574			-0.00675992			-0.462215			-0.356195			-0.438589			0.642995			-0.783406			0.0373096			0.0762654			-0.405244			0.131957			-0.226075			0.987538			-0.0794548			0.394876			-0.0380791			0.803283			0.302917			-0.647877			-0.759406			0.773533			-0.202304			0.226737			-0.550155			0.186369			0.0982081			0.0480304			0.329574			-0.226663			0.344577			-0.0288363			-0.551194			0.549472			0.0620668			-0.0591347			0.0646202			0.107947			0.511214			-0.15218			0.166519			0.0334857			0.739712			0.014961			-0.445397			-0.39678			-0.120023			0.724311			-0.935577			0.854029			-0.609583			-0.888973			-0.102701			-0.0222449			0.0541031			-0.457323			-0.514291			0.135384			0.121167			-0.36643			-0.202537			0.0858969			0.379773			-0.17985			-0.69843			0.428891			-0.183321			0.78332			-0.191065			-0.388739			0.23437			0.264722			-0.511585			0.694894			0.467008			-0.789571			-0.514408			0.154305			-0.37172			0.0730637			0.0678524			-0.600022			0.66134			-0.477526			-0.60632			0.380786			0.93402			0.327725			-0.838545			0.0774378			0.0346413			0.736233			-0.386803			0.151163			0.20675			-0.699256			0.783334			-0.110801			-0.320004			-0.343686			-0.201409			-0.245598			-0.798383			-0.445835			-0.165156			-0.160592			-0.0652695			0.159581			-0.143068			0.613191			-0.52616			0.516637			-0.400987			-0.821284			0.765728			0.912264			0.622007			0.886693			-0.432141			-0.0525935			0.328891			-0.22628			0.435287			-0.0334912			-0.0160075			0.549209			-0.554268			-0.0552245			0.0414841			0.384774			-0.150291			-0.483954			-0.172954			-0.413113			-0.440601			-0.213778			0.345937			0.259899			-0.734987			0.0275939			0.671524			-0.715026			-0.362704			-0.223696			0.189233			0.261467			0.671731			-0.116357			-0.333549			0.304053			-0.105027			0.0342403			-0.4172			-0.349429			-0.0990266			0.335712			0.325011			0.0682319			0.521016			-0.522937			0.0600446			-0.990319			-0.860354			-0.333274			-0.429052			-0.575308			-0.353446			0.198003			-0.876458			-0.0223033			-0.238201			-0.815047			-0.546667			0.172904			-0.0186083			0.562075			0.337194			-0.35763			0.496269			-0.18015			-0.224276			0.854416			-0.110613			-0.11711			-0.017584			0.209907			0.140196			0.491134			0.864086			-0.936362			-0.660107			0.189005			-0.0404911			0.101286			-0.7407			-0.422094			-0.34271			0.235553			0.0130191			-0.0660421			-0.968053			0.19643			-0.239521			-0.285106			0.37748			-0.602938			0.0108421			-0.061706			0.265174			0.450401			0.314562			-0.144141			0.00108399			0.270867			-0.151969			-0.205916			0.607853			0.457016			-0.0586886			
-0.730839			0.417735			-0.608869			-0.223092			-0.282825			0.362404			0.0660179			-0.230502			-0.161692			0.385495			-0.125022			-0.0139346			0.418957			-0.179262			0.632572			-0.206703			0.652917			-0.425436			-0.989963			-0.710077			-0.10794			-0.0981438			0.087684			0.173768			0.326447			-0.518055			-0.520499			-0.335668			0.450241			-0.471089			-0.00395076			-0.0168236			-0.0350184			-0.381911			-0.819001			0.848143			0.0475683			0.0317668			0.133397			-0.330279			0.778647			0.0978001			-0.539089			0.390164			0.0831407			0.218282			-0.496898			-0.0422949			0.0591217			-0.154215			-0.372945			0.648329			-0.428686			-0.77253			-0.306838			0.36914			-0.357208			-0.717933			-0.378442			-0.910904			-0.681226			-0.0276452			0.363727			0.507548			0.133255			0.913591			-0.0752405			0.867192			-0.246469			0.00351026			-0.50316			0.623721			0.0749125			0.12367			-0.877857			-0.307055			-0.253551			0.118821			-0.343278			-0.257568			-0.00970515			-0.198454			-0.245969			0.4053			-0.738574			-0.0697913			0.0591889			0.475447			0.297977			-0.506389			0.477384			0.395685			0.19454			-0.317757			0.0909526			-0.121138			0.127026			0.569146			0.543571			-0.164155			-0.524306			-0.11879			-0.471245			0.322163			-0.144994			-0.170138			0.649398			0.0277241			-0.136306			-0.168266			-0.617635			0.18719			0.809417			-0.178895			-0.415427			-0.0356247			0.634376			0.102877			0.345651			-0.560689			-0.296933			-0.170672			-0.272724			-0.0173425			-0.0884688			-0.606			0.407816			0.386752			-0.72326			-0.279743			-0.329395			-0.646457			0.188878			-0.732427			0.111979			-0.00748889			-0.0134187			-0.0589758			0.0624755			-0.305925			-0.155054			0.204076			0.764886			0.421702			-0.930072			-0.622422			0.702523			-0.3383			0.341467			0.0421463			0.218329			0.492372			0.515614			0.482122			-0.27478			-0.778607			-0.0221482			-0.598511			-0.935796			-0.189594			-0.163321			-0.0920007			-0.600836			0.424912			-0.851719			0.223686			-0.376539			0.188887			0.193241			0.291654			0.328539			0.165818			0.404397			-0.805998			0.335249			0.517328			0.480926			0.915724			-0.55366			0.0667243			-0.46226			0.12613			-0.753004			0.426368			-0.231993			0.203178			-0.542794			-0.342315			-0.0750313			-0.119593			-0.160236			-0.191638			-0.252954			0.409229			0.386552			0.576427			0.602528			0.469134			0.0421972			-0.309105			-0.412369			0.703759			-0.894766			0.364469			-0.634098			-0.80001			-0.419111			0.0885778			-0.385543			-0.555964			0.0401965			0.618285			-0.157528			-0.257816			0.142384			0.384785			-0.663662			-0.175972			-0.741938			0.261536			-0.108494			0.432726			0.855623			-0.681257			-0.613719			0.0523387			0.520593			0.276917			-0.112127			-0.434369			0.452273			0.493197			-0.0954799			-0.639914			0.060899			-0.531841			0.111538			-0.603686			0.450662			0.774612			0.624026			0.106387			0.0920817			-0.598305			-0.0942241			0.646201			-0.281053			0.4735			-0.59034			-0.294028			
-0.178384			0.184202			-0.0843996			-0.775005			0.707699			-0.495571			-0.0695946			0.705078			0.186999			-0.728568			-0.395542			0.266624			0.093142			-0.0694661			-0.741574			-0.0104032			-0.791967			0.498524			-0.166382			0.372079			0.261228			0.918807			0.662901			0.556953			-0.392274			-0.446353			-0.128378			0.498321			-0.294574			0.0466398			0.493476			0.385646			-0.425411			-0.0173969			0.942681			-0.361567			-0.00487871			-0.114536			-0.0826611			0.0103561			-0.01955			-0.197774			0.0852869			0.670154			-0.67667			-0.0400736			-0.0149637			0.41517			0.412188			-0.0217817			0.515214			-0.499131			0.76488			-0.359625			0.100085			0.0224308			0.00475744			0.404431			0.846845			-0.596974			0.0251244			-0.126144			-0.192447			-0.303176			0.22622			-0.368224			0.0307705			-0.140419			0.241198			-0.607359			-0.659204			0.7322			-0.104323			-0.612723			0.0544227			-0.0542999			0.862586			0.334523			-0.0899456			0.342239			0.00380467			-0.209998			0.0927848			-0.276746			-0.37049			0.0127974			0.351875			0.210852			0.781575			-0.994848			0.265517			0.360201			0.818176			-0.479865			0.373547			-0.380081			0.147772			-0.0192676			-0.598395			-0.605762			0.719624			0.71427			-0.736887			-0.81704			0.642054			0.301617			0.19534			0.920999			0.0319054			-0.827475			0.191957			-0.979517			0.555295			-0.970044			-0.640541			-0.4984			0.0403224			-0.25456			-0.549935			0.669628			0.0338308			0.317752			0.205098			-0.173404			-0.0237615			-0.667746			-0.0614768			0.355588			0.0784758			-0.0967768			-0.00646596			-0.2938			0.73573			-0.322787			-0.23676			-0.419146			0.145117			0.365277			0.131954			-0.374069			-0.0504444			0.631353			-0.732777			-0.344572			-0.0298556			0.0204005			-0.206483			0.219899			0.117164			0.515539			-0.0364332			0.303253			0.487243			-0.275214			-0.164148			-0.0587642			0.183726			0.447137			-0.114408			0.204461			-0.378646			0.306465			0.170422			-0.424965			0.265219			-0.57991			0.330047			0.122365			0.436357			-0.235451			-0.725083			0.0850568			-0.0781737			0.556372			-0.412261			0.501904			-0.523482			0.039613			0.064339			-0.0324326			0.366755			0.0981544			0.404659			0.463742			-0.280059			0.666628			-0.79734			0.736598			0.91853			-0.0233392			-0.373578			0.487067			0.314563			-0.157968			-0.116596			-0.18773			0.293125			0.988299			0.364974			0.463109			-0.457169			-0.503917			-0.428227			0.0829411			0.237655			0.639113			0.218292			-0.44935			0.0282434			-0.109865			0.00736006			0.337598			-0.108555			0.609433			0.386578			0.421642			0.891622			0.50519			-0.618225			0.650938			-0.495461			-0.678815			0.343953			-0.527512			0.320504			0.728687			-0.710695			-0.0439378			-0.172528			0.150982			-0.206743			0.184814			0.137966			-0.635867			0.41987			-0.429862			-0.531839			0.404307			0.737035			-0.410587			0.651307			0.234577			-0.223796			0.146399			0.0984744			0.137634			-0.338			0.148428			-0.901548			0.554604			
-0.277997			0.834838			-0.174484			0.556563			0.954993			-0.470044			-0.665534			0.000578222			-0.344313			0.350453			-0.00731519			-0.910536			-0.0328645			-0.129413			0.524425			0.285753			-0.633179			0.933827			0.163005			0.511645			0.845991			-0.0404054			0.559374			0.0658845			0.280397			0.600561			-0.607442			0.0564705			0.167972			0.495973			0.226833			-0.815504			-0.324537			-0.306461			-0.295635			0.277894			0.491159			0.0118688			0.35141			0.0187254			0.392856			0.555465			-0.712131			0.356733			-0.81284			-0.315935			0.279224			0.433421			0.484521			0.26749			-0.0703705			0.0124992			0.755165			0.481805			-0.0339325			-0.391991			-0.255605			-0.110663			-0.309544			-0.0180632			0.255063			0.115041			-0.641247			-0.00425118			-0.112402			-0.750004			-0.0647131			0.419876			0.823282			0.333563			0.492999			0.94293			-0.781196			-0.318172			-0.136847			-0.187735			-0.0185669			0.6699			0.958521			-0.140651			-0.838679			0.508236			-0.683584			-0.31582			-0.240548			-0.140556			-0.056209			0.414515			-0.480472			0.0890746			0.606862			0.17383			0.680989			-0.0460201			-0.60432			-0.068282			-0.792386			-0.0659036			-0.479871			0.17042			-0.306481			0.711102			0.577845			-0.546392			0.290002			-0.40006			0.585669			0.600845			0.136258			0.0070585			0.337261			-0.366168			0.905476			0.456206			-0.0588523			0.473509			0.84576			0.214206			0.27989			-0.0745519			0.873095			-0.438466			-0.142779			-0.419151			-0.164278			0.0643484			0.135104			-0.119673			0.428369			0.117776			0.302551			-0.61514			0.0778187			-0.340182			0.369361			-0.385365			0.365156			0.79755			0.515618			-0.524665			-0.275058			0.0102624			0.645695			0.0273083			0.401404			-0.0261955			-0.120698			-0.490093			0.469351			-0.404662			0.163628			0.111296			-0.501096			-0.82301			0.222012			0.0342799			0.409208			-0.440556			0.686511			-0.11154			0.929808			-0.0800072			0.68512			0.542645			-0.861738			-0.36021			-0.559673			0.542042			0.136006			0.0547208			0.0753451			-0.469102			0.189862			-0.953796			0.26213			-0.763502			0.997184			-0.399434			-0.105768			0.0927654			0.239558			0.172218			-0.20208			-0.491832			-0.239496			0.489222			-0.752724			0.321329			0.777794			-0.89486			-0.509575			-0.0414824			0.96228			-0.395891			0.296625			0.0908432			0.156638			-0.110365			0.15709			0.337472			-0.167092			0.368863			0.127343			0.0341725			-0.487802			-0.888203			0.696922			0.588842			0.212581			0.177342			0.222314			-0.480834			0.69263			0.407449			-0.238954			0.824929			0.0340346			-0.25882			0.0296152			0.480905			0.219309			-0.134088			-0.116283			0.151574			0.167943			-0.143991			-0.123429			0.453315			0.406577			0.208782			0.505626			0.276616			-0.0912599			-0.0403801			-0.227928			-0.161635			0.282441			-0.14394			-0.125712			0.0553857			0.760647			0.10113			0.0167459			0.0836885			0.156147			0.471767			-0.211007			-0.626127			-0.0262612			-0.0271501			
-0.511924			-0.299575			0.540579			-0.120878			0.888566			-0.0146307			-0.321263			-0.613678			0.77343			-0.416484			0.705768			0.424315			-0.0271433			0.025068			-0.546248			0.0464115			-0.988095			0.426873			0.360705			-0.168299			-0.123711			-0.781215			0.629437			-0.0658943			-0.371774			0.489905			0.277387			0.72119			0.646531			0.238126			-0.278155			-0.891553			-0.282851			-0.591145			-0.567783			0.168406			0.619394			0.321468			-0.00730033			-0.253827			0.3243			0.302155			0.468453			-0.137068			-0.472783			0.43161			-0.742304			0.854953			0.236607			0.728946			-0.255698			-0.0480712			0.353343			-0.671321			-0.656569			0.590288			0.68367			-0.534648			0.946677			-0.38606			0.42744			-0.093919			0.480495			0.204281			-0.180396			0.925081			-0.0245821			0.435832			-0.773036			0.0747187			0.0486456			0.238315			-0.392479			-0.89082			0.029903			0.325412			0.0923766			-0.741421			-0.565948			-0.568155			0.10083			-0.182803			0.13763			-0.572643			-0.875108			-0.73388			-0.365091			0.508152			-0.0567656			-0.491588			0.0260306			0.407807			-0.0479336			0.0311751			0.764939			-0.00111435			0.223749			-0.0665911			-0.0149669			0.3682			-0.512312			-0.408488			-0.0908603			-0.628153			0.356245			-0.237922			0.0773617			-0.462708			0.310066			-0.55096			-0.161978			0.491319			-0.175948			-0.300374			-0.368718			-0.908089			-0.0659263			0.147324			0.424628			0.728561			-0.436825			-0.0513017			-0.401404			-0.650535			-0.210826			0.668061			-0.343			0.135615			0.664086			0.982242			-0.379093			0.31681			-0.0247274			-0.343101			0.0881149			-0.77545			-0.241488			-0.0506896			-0.250544			-0.822954			-0.265259			0.239023			0.358773			0.380582			-0.0487155			0.339244			0.0118927			0.28402			0.431423			-0.933555			0.13838			0.486986			-0.0908263			0.040118			-0.522174			-0.309603			0.576356			0.368715			0.274403			0.400725			0.143502			0.363717			-0.145547			0.64149			0.906022			0.522055			-0.860718			-0.175176			0.231431			-0.567815			0.311628			0.280668			-0.195137			0.0955735			-0.303378			0.0271342			-0.0606155			-0.106799			-0.56815			0.59048			0.0557637			-0.891945			-0.675216			0.311212			-0.00499174			0.0831055			-0.224508			-0.0421462			0.0935613			0.583901			-0.285452			0.193901			0.226981			-0.239276			0.690629			-0.234894			-0.147646			0.462907			0.596328			0.0906822			-0.6049			-0.94242			-0.26004			0.0878508			0.554059			-0.813063			0.506624			-0.265401			0.260077			0.318487			0.594283			0.119951			0.454712			-0.117642			0.249579			-0.0953197			-0.412308			0.0816158			-0.655714			-0.0787803			-0.361354			0.0854883			0.516769			0.00791457			-0.633531			0.0517654			-0.250424			-0.0335979			-0.378173			-0.505052			0.253945			-0.666219			-0.784226			0.475113			0.124824			0.0475959			-0.327796			0.0911124			0.273698			-0.602025			0.331989			-0.514193			-0.496527			-0.716618			0.178616			-0.338504			-0.653864			-0.181633			-0.915941			-0.558648			
0.320294			-0.448556			-0.380828			0.576511			-0.136137			-0.132819			-0.587373			0.327487			0.345741			0.959834			-0.0990075			-0.0225179			0.0957412			0.167652			-0.0785288			-0.326388			0.234355			-0.704813			-0.249265			-0.60424			0.0264676			-0.0885057			0.303814			0.431698			0.253993			-0.267179			-0.353359			0.0733682			0.884196			-0.383905			0.423548			-0.206177			-0.0591573			0.287446			0.118672			0.108619			0.0205814			0.19092			-0.191648			-0.0580847			-0.131238			0.0368189			-0.0930607			0.495553			-0.0913989			-0.2785			0.0307198			0.534066			-0.630771			0.463858			-0.109087			0.311094			0.899914			-0.294415			-0.41385			-0.918068			0.930614			-0.30468			0.230016			0.717778			-0.111603			0.802711			0.0638701			0.404714			-0.220137			-0.0697852			-0.483705			-0.252505			0.391312			-0.0615046			0.269933			-0.422394			0.246436			0.263374			-0.836042			0.861039			0.205055			-0.814328			-0.532322			-0.218789			0.191381			0.211443			0.272647			-0.300707			0.149703			-0.534251			0.0806349			0.481432			0.212508			0.168219			0.243319			0.296846			-0.0964426			0.407185			0.122635			-0.687418			-0.589748			0.198092			0.180461			0.547315			0.552025			-0.726896			0.204236			0.357366			-0.327675			0.432265			-0.637518			0.154259			-0.0113437			-0.332001			0.481544			0.362015			-0.372311			-0.459603			0.74428			-0.0822665			0.218172			-0.389892			0.198427			0.396404			-0.610017			0.17956			0.170366			0.229662			0.0927419			0.55169			-0.546712			-0.00763592			0.763627			-0.0588238			0.460064			0.231995			0.723387			0.177186			0.35784			-0.121213			-0.328787			-0.970625			-0.218621			-0.142219			-0.698311			-0.870593			0.201008			-0.0822332			-0.675257			0.644085			-0.319817			-0.783249			0.107846			0.0276621			0.454275			0.492979			0.606436			-0.387606			0.383936			0.647			0.228415			-0.398311			-0.11202			-0.0129218			-0.139283			0.317321			0.365108			0.45878			-0.00647514			-0.552606			-0.113799			0.697861			0.662063			0.24219			0.83047			0.635395			-0.268604			-0.451191			0.396775			0.262514			-0.364691			0.0312059			0.629732			0.781096			0.468878			0.28673			0.0489446			0.322236			0.218201			0.35142			-0.610799			-0.103315			0.607904			0.130942			0.412097			-0.157195			-0.559028			-0.348276			0.70528			0.64468			-0.249155			0.124954			0.112861			-0.471698			0.0184299			-0.20959			0.0964122			0.903075			0.187915			0.0313834			0.0650908			-0.518769			-0.506306			0.427636			-0.305474			0.965013			-0.275427			-0.143473			-0.491423			-0.0286905			-0.30946			-0.417704			0.468061			-0.295372			0.197509			-0.400742			0.0510752			0.562472			-0.1676			0.0444474			-0.0331465			0.650062			0.471161			-0.265626			-0.134312			-0.88189			0.543916			-0.00407366			-0.0972661			-0.155372			-0.784683			0.166893			0.390071			-0.145772			-0.400783			-0.469727			0.104366			-0.0835447			0.957002			-0.76016			0.31955			-0.216168			0.63128			-0.277557			
-0.514958			0.0725467			0.0433515			-0.289977			-0.192042			0.11228			0.648294			0.268668			0.823366			-0.224194			0.563863			-0.165324			-0.333039			-0.279324			0.124148			-0.0260239			-0.131573			-0.0372851			-0.878125			-0.486424			-0.27535			0.0224976			0.0115264			-0.677146			0.889929			-0.166703			0.0675304			0.286956			-0.352258			0.0433207			-0.649961			0.557082			0.905032			-0.720474			-0.193614			0.267599			0.310433			-0.395171			-0.523792			0.501391			-0.101284			0.10303			0.274962			0.11408			-0.107314			0.242877			0.13895			-0.427871			-0.337486			-0.81936			-0.0171883			-0.384247			-0.586662			0.664387			-0.354586			0.0147762			0.281477			0.90223			0.0852348			0.38094			0.546629			0.461961			-0.105009			-0.357914			0.804157			0.479877			-0.956282			0.393324			-0.403114			0.554705			-0.349116			-0.939405			0.116712			-0.557965			0.0623559			0.0590986			-0.357129			0.421882			-0.181388			-0.018563			-0.461006			0.523437			0.572913			0.462851			-0.448257			0.170621			-0.0131157			0.578228			-0.655209			-0.606709			0.304651			0.0106292			0.000286604			0.0389887			0.67012			-0.229364			0.512356			0.719164			0.406578			0.0978968			0.250038			-0.633638			-0.0115798			0.348025			0.0572867			0.661641			0.0130883			-0.00859878			-0.0168387			0.371126			-0.56733			-0.468688			0.279021			0.0617142			0.252459			-0.08634			0.480762			-0.247431			-0.180319			-0.411846			-0.177751			-0.0080066			0.733025			-0.260655			-0.0531538			-0.304049			0.583402			-0.0726746			-0.326064			-0.312094			0.147473			0.157512			0.534629			0.224558			0.180947			-0.49401			0.245106			0.106635			0.405757			-0.205289			-0.690084			-0.138025			0.0632614			-0.379322			-0.400405			0.161739			0.261232			-0.189675			0.104544			-0.171073			0.342213			-0.27645			-0.52118			0.269887			-0.212813			0.0144902			-0.506218			-0.539237			0.0222051			0.393918			0.355273			-0.364623			0.185856			-0.115301			0.501744			0.717075			-0.062255			-0.910973			-0.621466			0.199225			0.178249			0.00759642			0.00422636			0.135062			0.242772			-0.21562			-0.175062			0.314932			0.467102			0.0872873			-0.182991			0.0841916			0.153063			-0.343212			0.161189			0.12906			0.49782			0.269066			-0.135691			-0.716769			0.4699			0.462011			-0.711457			-0.506335			-0.185207			-0.368709			0.596281			0.202861			-0.341705			0.0894495			-0.0245954			-0.908031			0.393347			-0.124841			-0.0035086			0.198408			-0.682599			0.389373			0.330901			-0.487728			0.942917			0.0483256			0.4749			0.214897			-0.103646			0.0146408			-0.152302			-0.24138			-0.546838			-0.0928907			0.21682			0.143746			0.0919776			0.850202			-0.0553402			0.0960151			0.051246			-0.373633			-0.124304			-0.420263			-0.128151			0.833051			-0.297268			-0.241895			0.142095			-0.266759			-0.671093			0.143401			0.261755			-0.448981			-0.313016			-0.518373			-0.6017			-0.721371			-0.48524			-0.511151			0.0303658			-0.863636			0.152518			0.465757			
-0.313949			0.252976			0.303711			-0.20083			-0.886416			-0.00585456			-0.75133			0.429356			-0.14526			0.0437117			-0.437171			0.207008			0.122491			0.365087			0.0242857			-0.328914			0.000993625			-0.00566924			0.431214			0.277499			-0.106391			0.514231			-0.263115			0.370574			0.235746			-0.0176173			0.298112			0.203299			0.431537			0.559109			-0.119905			-0.242609			-0.414022			0.0464614			-0.371836			-0.926775			0.432224			-0.214336			0.0341669			0.500034			0.173833			-0.701405			0.555774			0.165774			-0.00588511			-0.10225			-0.616049			-0.0812354			0.113321			-0.827903			-0.196266			0.507211			-0.542528			-0.147535			-0.594995			0.392397			-0.655244			-0.2453			0.371733			0.516324			0.808247			0.0489904			0.470767			-0.000405486			-0.336232			0.612703			0.0773809			-0.494767			0.44752			0.641091			0.878957			-0.257094			0.543047			-0.584067			0.146634			-0.189393			-0.288372			0.352611			-0.239679			-0.572125			0.173337			-0.487935			-0.13354			0.156933			-0.167789			-0.430031			0.572229			-0.610671			-0.230837			-0.00131669			0.740876			0.323487			0.24556			-0.717786			-0.756031			-0.226975			0.195411			0.599502			0.476651			0.448127			-0.286675			-0.314645			-0.112621			0.681751			0.115031			0.486894			-0.305356			0.26006			-0.785221			-0.724492			-0.120947			0.510706			0.216151			0.0586062			0.221147			-0.413954			0.165004			-0.468186			-0.0380398			0.871634			-0.740978			-0.26556			0.807521			-0.152044			-0.118959			-0.396414			-0.377616			0.499502			0.228613			-0.896536			-0.945994			-0.439597			-0.375715			-0.156267			-0.196605			-0.0499401			0.224374			0.216338			0.469355			-0.737811			-0.947222			-0.00199276			0.207654			0.387869			-0.779706			-0.194881			-0.55524			0.0693124			-0.447291			-0.185419			-0.40043			0.811242			-0.802709			-0.00197504			-0.370961			0.300074			0.0736996			0.714395			0.405887			-0.701704			0.921363			-0.649491			-0.192205			-0.578294			-0.63799			0.0588554			-0.0250989			0.254337			-0.224584			0.0468927			-0.36096			-0.257927			0.123811			0.590147			-0.275533			0.200852			-0.817317			0.117042			0.463012			-0.161649			-0.352658			-0.231085			-0.150393			0.201282			0.121808			0.357586			-0.722968			-0.688375			0.292216			-0.156509			0.151967			0.3725			0.517848			0.0379164			0.214894			-0.321078			-0.523754			0.264641			0.487349			0.0880312			-0.237246			0.819955			-0.112649			-0.379943			-0.0319414			0.674598			-0.541375			-0.727569			-0.102476			0.185383			0.524055			0.21403			-0.353644			-0.120571			-0.114442			-0.0988847			0.294194			0.456006			0.131129			0.548697			0.1278			0.0151566			0.218913			-0.95212			-0.339132			-0.64468			0.962796			-0.026449			-0.40776			0.103792			0.318375			0.45207			-0.784001			-0.283688			-0.11928			-0.0262436			-0.623859			0.202592			0.0644737			0.518221			0.839753			0.502525			-0.516651			0.446803			-0.183349			0.973912			0.197078			0.164833			0.471454			-0.761909			
0.521227			-0.419144			-0.692096			-0.666804			0.797337			0.740828			0.66156			-0.320574			-0.482362			0.0713375			0.486119			-0.359341			-0.787228			0.437166			0.35238			0.0362864			-0.434706			0.496314			0.00364023			0.36623			0.132583			-0.0572494			0.109586			-0.462382			0.897879			-0.656519			0.325912			-0.580299			-0.308454			0.984954			0.258178			0.110261			-0.11954			0.304104			0.0349915			-0.0784484			-0.167277			-0.0444881			-0.672176			0.505663			0.134836			0.557162			0.536745			-0.710558			0.307411			0.708413			-0.169354			0.0545537			-0.438545			0.205571			-0.0647912			-0.123637			-0.338939			-0.208475			0.400318			0.448439			0.197267			-0.951616			0.216555			-0.108666			-0.0465337			-0.203171			-0.948023			-0.385655			-0.133636			0.116201			-0.0357684			0.182233			0.174474			-0.0644549			0.0498173			-0.163234			-0.776389			0.319626			0.0759773			0.610347			0.566672			-0.0242477			-0.394146			-0.777981			-0.267934			-0.288267			0.276153			0.28894			0.379321			-0.136126			-0.0352372			0.685372			-0.227317			-0.436514			0.0975375			0.720874			0.612008			-0.585111			-0.181047			-0.942737			-0.607689			0.314766			0.130787			-0.282243			-0.69659			0.146611			0.501896			-0.112546			-0.179468			-0.130163			0.352789			-0.791353			0.586726			0.238876			-0.169517			-0.630347			0.0794816			-0.026551			-0.351532			0.236756			-0.0160964			0.0285898			0.104166			0.393445			0.627433			-0.137674			-0.0679234			-0.210329			-0.224587			-0.233065			0.0536942			-0.387146			0.658449			-0.0237247			0.412343			0.474074			0.219009			0.224647			0.732352			-0.752961			0.925435			-0.994075			0.256415			-0.653435			-0.246921			0.553883			0.257597			0.629151			-0.707384			-0.247136			-0.44174			-0.317108			-0.155862			0.0592255			0.196191			0.299814			-0.758513			0.160964			-0.533476			-0.945147			0.638275			-0.662295			0.128344			0.443043			-0.483167			0.553629			-0.627949			0.24892			-0.217246			-0.269992			-0.0629795			-0.604494			-0.686345			-0.503643			0.86973			0.170894			0.103097			-0.231334			-0.181771			-0.201295			0.467447			-0.463278			0.739523			0.75241			-0.472207			0.118341			-0.0774964			0.346436			-0.24808			0.519837			0.381195			0.169207			-0.373355			-0.0412964			-0.351896			0.479738			0.662233			-0.0676121			-0.584288			0.518161			0.325563			0.00155373			-0.531303			-0.0628836			-0.365294			-0.0431375			-0.690304			0.410111			-0.439727			0.260366			0.179754			0.309206			0.103196			-0.380189			0.0858705			-0.719158			0.13705			0.367317			0.725285			-0.405613			-0.0430017			-0.222559			0.662989			-0.548668			0.544216			-0.197108			-0.261548			-0.696539			-0.104992			0.287719			-0.22436			-0.0603845			0.525664			-0.280183			-0.529904			-0.208699			-0.947979			0.123296			0.618739			-0.872109			-0.597418			-0.0722717			-0.461803			-0.0890494			0.28672			-0.365826			-0.624113			-0.48999			-0.00403023			0.372899			-0.981062			-0.0627175			0.506377			0.705199			
0.292686			-0.0470202			-0.460773			-0.921134			0.334071			-0.323113			0.0144499			0.358839			0.248231			-0.493542			-0.130079			-0.353892			-0.349187			-0.657475			-0.183484			0.217649			0.778598			0.151975			-0.40413			-0.744502			-0.597379			0.240486			0.255509			0.518654			0.82449			0.808491			0.330029			0.325868			0.208473			-0.867847			0.311994			0.637265			0.15839			-0.915504			-0.55495			0.766438			-0.195218			0.128006			0.484481			0.0266188			-0.664036			-0.295337			-0.0391975			0.545635			0.2511			-0.721895			-0.293137			0.154679			-0.205714			0.159217			-0.700181			0.0622667			-0.10629			-0.321298			0.103056			0.207345			0.831293			-0.132535			0.0790614			0.174627			-0.20359			-0.299221			0.169664			-0.832447			0.328565			-0.131787			-0.206248			0.0666342			-0.72107			-0.653077			0.654584			0.553879			-0.149709			0.743928			-0.0695658			0.266657			0.344243			0.398648			-0.31129			0.500885			-0.422749			0.963972			-0.951294			0.692639			-0.0619006			-0.654119			-0.00868105			0.428219			-0.594382			-0.58095			-0.213514			0.338531			0.0540023			0.000874573			-0.117755			0.657634			-0.282842			0.27178			-0.529232			0.221333			-0.247381			0.637995			-0.718147			-0.116866			-0.341541			-0.398794			0.983005			0.138129			-0.641419			-0.0214978			-0.854937			0.450401			-0.0635836			0.376566			0.235898			-0.310775			-0.619369			0.565056			-0.313508			-0.245703			0.0952783			-0.449279			-0.580025			0.706326			0.625026			-0.323654			-0.8514			0.0138671			0.537895			0.193719			0.822926			0.314993			0.264759			-0.251005			-0.0625393			-0.291643			0.502806			-0.0567562			-0.158502			-0.421313			0.0998919			-0.225569			-0.0831554			0.500146			0.262518			0.0590443			0.318403			-0.447014			0.093785			0.332501			-0.19353			0.791954			0.755931			0.0768008			0.768204			-0.332195			-0.629225			-0.308291			0.60052			0.503427			0.56373			-0.16882			0.105259			-0.187506			-0.249979			0.596728			-0.31809			0.140688			-0.598419			0.239164			0.724726			-0.107151			-0.198106			0.0401104			0.503663			-0.56556			0.959506			0.379881			0.254375			0.302244			0.165774			-0.239708			-0.431695			0.57032			-0.28583			-0.230275			0.293676			-0.914247			0.734333			-0.760585			0.172637			0.374078			-0.339699			-0.117586			0.361915			-0.222269			0.62592			0.146891			-0.477492			0.383686			0.0715151			-0.0444084			0.647619			0.221588			-0.433524			-0.882622			0.759581			-0.0459578			0.294017			-0.577232			0.126559			0.820841			0.255614			-0.445189			0.132553			-0.487151			0.00262306			-0.654107			0.321025			-0.373989			-0.676656			0.174519			0.464143			0.500246			0.0477976			0.079407			-0.518449			0.404035			-0.254977			-0.0183275			0.0941279			-0.666492			0.069109			-0.184155			0.215126			0.44349			0.581513			0.405685			-0.0889063			-0.0445982			-0.174272			-0.192614			0.27371			0.506847			0.619994			0.377358			0.201023			0.446433			-0.161628			0.613828			
0.510854			0.130649			0.0688026			-0.029971			0.110661			-0.552648			-0.0464019			0.760976			-0.0814138			-0.566171			-0.597589			0.463929			-0.0846986			-0.334963			-0.484512			-0.0676639			0.339814			-0.359081			-0.577055			0.169171			-0.307701			-0.426692			0.696522			0.515528			-0.496078			0.332729			0.393871			0.103687			0.0260594			-0.799008			-0.212529			0.042155			0.578694			-0.717211			0.534865			-0.867132			-0.651067			-0.150818			0.23854			0.403191			-0.320966			-0.764041			-0.433173			-0.129717			-0.373388			-0.135365			0.229607			0.421125			-0.442258			0.33675			-0.0263586			0.265197			-0.172736			-0.483455			-0.182343			-0.521051			0.0892559			0.124418			-0.49649			-0.305487			-0.612178			-0.27417			0.518645			-0.0453445			-0.61807			-0.10682			0.0612619			-0.214962			0.502329			0.0562415			-0.122932			-0.128063			0.485715			0.775708			-0.0539789			0.197315			-0.0652972			-0.32015			0.552504			-0.333556			0.428935			0.110293			0.0455609			0.0400978			0.747747			-0.89344			0.264767			0.20734			0.694131			-0.0573858			-0.311102			-0.0836366			-0.0755973			0.107152			-0.473548			-0.310478			-0.228556			0.761448			-0.0416323			0.41068			0.380365			0.188899			0.678591			-0.196612			0.0767483			0.0453023			0.679345			-0.280901			0.832752			-0.160902			0.549859			0.0181025			-0.313924			0.547677			0.105105			-0.140566			0.669383			-0.04588			0.402302			0.361812			0.382224			0.0675615			0.00731816			0.554725			0.0363209			0.355133			0.00856395			0.403382			-0.0694594			0.13416			0.00968369			0.296442			-0.699543			-0.242228			0.432856			0.0708927			0.43232			-0.180783			-0.201992			-0.700828			0.064147			-0.280861			0.194999			0.262104			0.136841			-0.550757			-0.117616			0.296987			0.00386542			-0.437442			-0.466989			0.368705			-0.185019			0.18938			-0.21012			-0.180321			-0.203302			-0.217561			0.396808			-0.359263			-0.713087			-0.190383			-0.507478			-0.407854			0.140486			-0.0337328			-0.194584			0.423065			0.574297			0.305349			0.476249			-0.449432			-0.237554			0.122224			-0.466619			-0.146474			-0.256656			-0.0197466			0.243605			0.13562			0.320195			-0.127548			-0.342314			0.50888			-0.201476			-0.659242			0.366361			0.763994			0.671322			-0.0750158			-0.0234586			-0.312031			0.0033876			-0.0951633			-0.552007			-0.0616201			-0.84113			-0.669405			-0.392006			0.890324			-0.396871			0.21255			-0.121717			-0.332343			-0.957401			0.285376			0.891027			0.593023			-0.531155			0.884488			0.259419			0.496402			-0.275073			0.939724			-0.168862			0.153157			-0.0373286			-0.0970513			0.0796459			-0.244754			0.389057			0.43979			0.0231783			-0.902654			-0.125585			0.901432			0.807849			0.727243			-0.605446			0.402188			0.487442			0.647555			-0.530432			0.189489			0.687807			-0.632154			-0.279075			-0.396983			-0.271095			-0.274584			-0.104566			-0.330959			-0.436205			0.210807			-0.653961			0.651555			0.0961191			-0.456295			0.688038			-0.142811			
0.654604			0.452308			0.994861			-0.149351			0.249241			0.858667			0.215306			-0.850937			-0.55552			-0.963469			-0.0650087			0.407872			-0.377527			0.374836			0.004336			-0.145257			0.232268			0.123281			0.366278			0.290095			0.133226			-0.317504			0.751531			-0.123572			0.528771			-0.59338			0.0476638			-0.1613			-0.437544			-0.351637			0.508557			0.765571			0.27168			-0.722126			-0.375945			0.25557			-0.31575			-0.061022			-0.335409			-0.74723			-0.20267			-0.279024			0.180958			-0.0168088			-0.135486			0.202926			-0.222175			-0.325256			0.676115			-0.0536004			-0.0919826			-0.0886666			0.0974257			-0.107101			-0.405669			-0.275704			0.432901			-0.553022			0.498764			-0.652937			-0.347			-0.520048			0.724085			0.62279			-0.382326			-0.602352			-0.337656			-0.183112			0.260982			0.512741			-0.248514			0.731518			-0.0919754			0.136216			-0.226636			0.112805			0.775489			-0.683664			0.782517			0.996421			-0.318571			0.451963			-0.11595			-0.806456			-0.228978			0.312228			-0.183043			-0.458689			0.365112			-0.758297			-0.634022			0.530584			0.033615			-0.0910785			0.0599073			-0.778499			-0.550322			0.127617			0.00630566			0.154717			0.788845			-0.572639			0.607498			-0.278158			-0.215541			0.603037			0.0147088			-0.0232907			-0.820885			-0.141373			0.355443			-0.747762			0.0689351			-0.477418			0.293903			0.17756			-0.269188			-0.920263			0.017643			-0.873033			-0.0606649			0.0454035			-0.71405			0.421437			-0.922914			0.209524			-0.879332			0.015978			-0.138411			-0.0480822			0.165018			0.152811			0.469172			0.0282017			0.280214			0.537368			-0.297172			-0.284337			-0.147794			0.299483			-0.626464			-0.731627			-0.0201164			0.0255119			0.205609			-0.20461			-0.282539			0.304006			-0.427598			-0.289732			0.615343			0.044467			-0.428454			0.438155			-0.162995			0.791384			0.314979			0.0665854			-0.204379			-0.1243			0.671403			-0.764126			-0.311167			-0.0736974			-0.0374784			0.53406			-0.29151			0.286978			0.541505			0.217992			0.111235			0.410471			-0.358402			0.596292			-0.316312			-0.48812			-0.187849			-0.456052			0.400132			-0.535799			0.445808			-0.24235			0.0197286			-0.423088			0.045556			0.0457697			0.0480481			0.557724			-0.448722			-0.131062			0.800075			-0.157207			0.582422			0.264296			-0.262842			0.97678			-0.0559114			-0.124258			-0.866554			0.130359			-0.13179			0.290132			0.440174			-0.224549			0.127419			0.0882538			-0.0824632			0.017845			0.333422			0.282678			0.210455			0.392578			-0.348527			0.503306			0.164541			0.514527			-0.330366			-0.268419			-0.373432			-0.412808			-0.115294			-0.247212			0.253			0.0295585			-0.378518			0.915818			0.297436			-0.226701			-0.341251			0.149502			-0.473649			0.334284			0.681413			-0.22912			-0.32563			-0.0112188			-0.154429			0.706549			0.600681			0.431662			-0.0302096			0.380229			0.811985			-0.0913536			0.867348			-0.40919			-0.597659			0.244089			0.159797			-0.417311			
0.261433			0.859788			0.0213572			-0.560649			0.797073			0.000893139			-0.474873			-0.605695			0.0631347			0.436254			0.052639			0.407339			0.3693			0.131962			-0.461917			0.844017			0.185901			0.240737			0.596736			0.204087			0.234268			0.0434073			-0.159891			-0.081755			0.810139			-0.498708			0.737559			-0.174931			0.616541			-0.0637955			0.317117			0.53482			-0.0186926			0.00355207			-0.267128			-0.479452			-0.0558359			0.028024			-0.114495			-0.382015			0.0556205			-0.565227			-0.0803827			0.553891			0.138655			0.156563			-0.168903			-0.296495			0.434458			0.0641657			0.794662			0.399735			0.195849			-0.670059			-0.400008			-0.117569			0.856673			-0.158423			0.208703			0.668471			-0.0916221			-0.281687			-0.0413169			0.307718			-0.522421			-0.0509652			-0.25063			0.525782			0.315206			0.472289			-0.523952			-0.323713			0.0550824			0.944842			0.680451			-0.626633			-0.477664			-0.185127			0.678643			0.830391			-0.0492379			-0.465513			0.0841932			-0.26444			0.645242			0.227689			0.300075			-0.810681			-0.831318			-0.0676977			0.802686			-0.717562			-0.231351			0.591263			0.683354			0.0931468			-0.20847			0.0770947			0.0962051			-0.238569			0.118369			0.506072			-0.0597089			-0.309935			0.0581374			-0.0511836			-0.255417			0.439075			-0.128599			0.703921			-0.097499			-0.288911			0.0161787			0.745379			-0.286274			-0.214569			0.5339			0.547535			-0.918652			0.152804			0.0711029			0.344024			-0.0342826			0.175709			0.952043			0.160814			0.774428			0.268422			0.0626486			0.0248124			0.301975			-0.151604			-0.392461			0.406489			0.585418			-0.0855716			0.0320178			-0.0729223			-0.359756			0.493853			-0.13274			0.449818			-0.934895			-0.180511			0.428308			-0.447822			-0.0720215			0.438337			-0.659832			-0.444694			0.499121			-0.7166			-0.508995			0.637205			-0.511225			0.447084			0.0363526			-0.860905			0.507401			0.20343			0.171418			0.926822			0.104785			0.704734			0.425153			-0.0660308			0.715499			-0.727671			0.404374			0.240258			0.120328			0.273684			0.371684			0.592677			-0.672252			-0.737128			-0.0290865			-0.129321			0.427177			-0.224899			0.465021			0.437431			0.778703			0.825611			-0.189281			0.00808593			0.355274			-0.0555161			-0.379727			0.199146			-0.494574			-0.127779			0.182466			-0.159919			-0.862298			0.662164			-0.229808			0.187012			-0.664084			0.575037			0.171876			-0.911363			-0.645415			-0.204626			0.593257			0.19777			0.0995498			-0.635961			-0.591288			0.0219705			0.0316585			-0.980236			-0.900407			0.0708001			-0.377169			-0.153948			0.0541977			0.208759			-0.6822			0.211087			0.176347			-0.831047			-0.171695			-0.206187			-0.367435			-0.53311			-0.531783			0.704097			-0.084595			-0.884785			0.0516298			0.0455184			0.267073			0.0251907			-0.271369			-0.599583			-0.166083			0.0238099			-0.00122402			-0.0772563			0.117813			0.499594			0.456566			-0.33994			0.542302			0.467125			-0.545571			-0.31964			0.789062			-0.915096			
0.748426			0.235722			0.559415			-0.770156			-0.481299			-0.411637			0.377231			-0.172436			0.811327			-0.781321			0.770378			-0.710982			0.217859			-0.608868			0.681265			-0.833447			-0.38792			0.326729			-0.323138			-0.480836			-0.936103			0.651075			0.281689			0.00714498			0.372851			0.217888			0.0348384			0.580694			0.740066			0.916			-0.556939			-0.60651			-0.310305			-0.0200343			0.649795			0.398386			0.918196			0.115798			-0.0616733			-0.0814941			0.720366			0.497793			0.121918			0.594168			0.137768			-0.382319			0.567341			0.611051			-0.403055			0.00561901			0.190435			0.517084			-0.58096			0.443899			0.41295			0.0598445			-0.0506877			0.394531			0.215012			0.0799534			0.106119			0.0623273			-0.114466			0.366973			-0.302159			0.770569			-0.0234662			0.605866			0.0299107			-0.157184			-0.368567			0.0692971			-0.0782324			0.278658			0.183638			-0.145194			0.692205			0.469598			-0.376738			0.142982			0.85716			-0.828343			0.20061			-0.43439			0.261159			0.11797			-0.361806			-0.696348			-0.401946			-0.351599			0.0756134			0.885405			-0.102704			0.445012			-0.11114			0.480129			0.22559			-0.476864			-0.676685			-0.215298			-0.952071			-0.100054			0.0177029			-0.104655			0.0346947			0.2021			0.298152			-0.848818			0.172644			-0.702854			-0.319073			0.434983			-0.0859849			-0.410346			0.456365			-0.454875			0.60281			0.877376			0.0717571			0.108522			0.667351			0.390897			-0.664498			0.721541			-0.0832894			-0.272442			0.533081			0.33895			0.104541			0.479066			-0.189928			0.521091			-0.636201			-0.29148			-0.305977			0.0489298			0.128509			-0.347079			0.129916			0.202713			0.137863			-0.463705			-0.891385			-0.0091915			0.167242			0.103695			-0.638445			-0.372899			-0.729777			-0.398465			-0.0240187			-0.17694			0.0685913			-0.618851			0.57046			-0.111537			0.0538451			-0.135094			0.131996			-0.103493			-0.330988			-0.31977			-0.370951			-0.142459			-0.0839482			0.317086			0.026145			0.362502			0.579375			-0.117637			-0.339788			-0.176782			-0.209498			0.170723			-0.112931			0.004849			-0.354467			-0.50667			0.487145			-0.541684			-0.693229			-0.560497			-0.0335887			-0.346788			0.0603251			0.117118			0.156241			-6.00363e-05			-0.223317			0.286166			-0.681269			0.681211			0.851336			-0.329756			-0.725958			0.0247385			0.00538911			0.488867			-0.239451			0.103623			-0.0689354			-0.609269			0.411574			0.128865			0.406014			-0.392616			0.338469			-0.256409			-0.437737			0.534678			0.590522			0.298008			0.263031			0.0844743			0.270926			-0.106341			-0.745488			-0.483552			-0.747871			0.502502			-0.292729			0.0361728			0.18429			-0.815444			0.36326			0.684898			0.337717			0.345657			-0.0358707			-0.391776			0.284448			0.225115			0.173309			0.179471			-0.214814			-0.104662			0.128222			0.00062581			0.373972			0.383029			0.522031			0.400694			0.189621			-0.537838			-0.639674			0.69219			-0.0887019			-0.54901			-0.134825			-0.73955			
0.212794			0.0786815			-0.0342888			0.469021			-0.314183			-0.958158			0.112389			0.423682			0.527188			-0.025377			-0.38855			-0.473846			0.731428			-0.112426			-0.856127			-0.155594			-0.0120272			-0.249159			0.877052			-0.164746			0.373882			0.218228			0.539984			-0.271757			0.305853			-0.010961			-0.80273			0.126284			-0.815175			0.416823			0.359623			-0.363908			-0.849486			0.378114			-0.398005			-0.302592			0.625726			0.398331			0.902608			0.733823			0.376967			-0.31347			0.379466			0.227652			-0.0920793			-0.0358938			-0.116529			-0.600027			-0.407018			0.40449			0.111804			-0.215299			-0.296083			-0.200406			-0.0160605			-0.627283			0.402669			-0.475822			-0.0242154			0.20519			-0.13802			0.0106816			0.20473			-0.0620292			-0.125929			0.293868			-0.288863			0.494887			-0.390406			-0.306829			-0.933677			-0.155474			-0.673199			-0.244135			0.933612			0.605133			0.752799			-0.787854			0.757292			0.099993			0.0987846			0.335083			-0.11602			0.693183			0.333868			-0.450408			-0.335509			0.153813			-0.488301			0.206018			-0.0611793			-0.932082			0.175168			0.459285			-0.3529			-0.857867			-0.452718			-0.143149			-0.202945			-0.176798			0.417065			-0.824612			-0.161175			0.227325			0.385343			0.72032			-0.747817			-0.0332883			-0.024395			0.698952			-0.164556			-0.116675			0.684066			0.0912427			-0.457407			0.494333			-0.322815			0.313081			0.185727			0.0989853			0.730943			0.204928			0.370053			0.426029			0.393451			0.539803			-0.324941			-0.142962			-0.364081			0.870492			-0.662088			-0.385929			0.114291			0.621857			-0.0946707			-0.139797			-0.589739			0.301476			0.0828408			0.555483			-0.843474			0.309322			-0.369692			0.448742			0.553108			-0.301767			-0.631324			-0.0553654			-0.520936			0.0126603			0.582397			-0.694551			-0.529563			0.337626			0.132461			-0.674718			-0.378815			-0.0117753			-0.257132			-0.398544			0.615784			0.847515			0.857082			0.300115			0.658344			0.261276			0.871567			-0.899393			0.581249			0.310534			0.140082			-0.174377			-0.00495267			-0.336654			0.569297			0.316967			-0.0405466			-0.768532			-0.176977			0.564951			-0.234218			-0.0208406			0.229885			-0.264768			-0.0352273			0.109088			-0.446303			0.324435			0.305291			-0.0760101			-0.503658			-0.132587			0.625294			-0.517923			-0.328725			0.212516			-0.533485			-0.314413			-0.197084			0.183014			0.486654			0.672542			-0.167209			-0.483361			-0.743003			-0.853633			-0.0282409			-0.015866			-0.263875			-0.431304			-0.0498565			0.927216			0.212123			-0.360284			-0.401306			-0.737985			-0.864096			-0.102229			-0.841841			-0.221098			-0.499222			0.438489			-0.291988			0.0674833			0.526697			-0.33409			0.816206			-0.27502			-0.651952			0.40877			0.965903			-0.175923			-0.920993			-0.482969			0.293382			0.82263			0.0589072			0.337692			-0.277774			-0.0945486			-0.249056			-0.297615			0.13864			-0.204124			-0.937204			0.484019			0.292081			-0.409678			0.0444259			-0.0392865			
0.335952			-0.316268			-0.483245			0.0541358			-0.358097			-0.0155693			-0.342982			0.41596			0.281052			0.33402			-0.0484765			-0.687649			0.27735			0.643209			0.312995			0.0789465			-0.139183			-0.67415			-0.505295			-0.567724			-0.222078			-0.105459			0.0479139			-0.0180093			-0.623979			0.559891			-0.963958			0.443118			-0.385897			0.707086			-0.372541			-0.286363			0.447781			-0.37635			0.299393			0.378646			-0.157557			-0.258668			0.732801			0.0169942			0.000188874			0.627273			-0.195303			0.585958			0.237063			0.103229			0.81898			0.335218			0.140581			-0.0228674			-0.465217			-0.67989			-0.591584			-0.196912			0.553851			-0.427137			-0.250931			-0.365578			0.217603			-0.555768			0.541419			-0.0766517			-0.379264			-0.169543			0.368984			0.259499			-0.119404			0.961496			0.09749			-0.507313			0.0512528			-0.19643			0.176621			0.182994			-0.245313			-0.684864			0.542589			-0.497066			-0.309672			-0.763283			-0.684827			-0.256719			0.00033506			0.0567317			0.468047			-0.118734			0.0384123			-0.142036			-0.587831			0.288039			-0.327602			-0.290946			-0.0593142			0.0154472			0.519984			0.2346			-0.246754			-0.145995			0.488213			0.826349			0.24572			-0.383163			-0.283709			0.407012			0.617284			0.295002			-0.308176			0.135244			-0.729473			-0.161615			0.973222			0.180561			-0.562763			-0.678975			-0.257486			-0.808953			-0.781428			-0.575649			0.113092			-0.304039			-0.379972			0.732107			0.31579			-0.00397984			0.255746			0.410737			0.69107			-0.730895			0.267254			-0.108191			-0.0668119			-0.188063			0.649254			0.703493			-0.145244			0.377251			-0.651308			-0.632908			-0.731154			0.665446			-0.760988			0.833245			-0.584227			-0.900056			-0.753158			-0.311538			0.581477			-0.136079			-0.19439			0.175752			0.0775277			0.681038			-0.653472			0.281377			0.238202			0.0554177			-0.443176			-0.569661			-0.026057			-0.179642			0.395551			-0.164163			0.100032			-0.366554			0.644887			-0.642321			0.206453			0.439724			0.429869			0.0642044			0.250625			-0.334566			-0.229856			-0.619657			0.283397			-0.643255			-0.828304			0.0314554			0.111234			-0.464597			0.680654			-0.316477			0.416095			-0.343237			0.852738			0.128319			-0.497659			-0.445655			-0.830788			-0.334002			-0.155804			0.741612			-0.723131			-0.22256			0.837673			0.269233			-0.0755755			0.400531			-0.363985			0.0575049			-0.161054			0.957547			-0.928441			-0.186258			-0.364364			-0.420094			-0.439968			0.0594896			0.327222			0.545292			0.153024			0.0531065			-0.626919			0.0409859			-0.27261			0.792278			-0.128767			-0.0238031			-0.544942			-0.456101			-0.494521			0.609286			-0.914024			0.416729			-0.0809819			-0.399433			-0.0686797			-0.122149			0.527404			-0.197253			-0.0996987			-0.432578			-0.142626			-0.328748			0.811072			0.06105			-0.511119			-0.176506			0.455673			-0.194207			0.842989			0.0354505			0.147341			-0.506451			0.290986			-0.477038			0.556095			-0.536872			0.787142			0.00141678			
0.448357			-0.232612			-0.325334			0.161164			-0.328062			-0.565907			0.108553			0.927523			-0.274811			0.295006			-0.3963			-0.0830437			0.0421006			0.0939243			-0.122102			0.0272718			0.301369			0.942123			0.0389765			-0.781617			-0.106372			0.142636			0.308817			-0.977727			-0.332774			-0.328046			0.757504			-0.562309			-0.412349			-0.348747			0.352566			-0.893108			0.0188488			0.230639			-0.0475615			0.126561			-0.143379			-0.498213			-0.450791			0.0750858			0.613153			-0.309599			-0.0306433			-0.608415			-0.452068			-0.233576			-0.202368			-0.513075			-0.326728			0.552499			-0.127307			-0.0672892			0.0401431			0.0326582			0.214171			0.0364436			-0.595808			0.560873			0.401588			0.962908			0.477556			0.789134			0.0874257			0.706876			-0.661691			0.0384703			-0.283554			0.237344			0.409653			0.0258769			-0.164015			0.227029			-0.297413			0.0652219			0.0593474			0.228143			0.398037			0.286802			-0.38154			-0.142432			0.222444			-0.175245			-0.79782			-0.240543			0.679019			-0.0122503			0.436871			0.0121847			-0.175815			-0.12623			-0.636972			0.385986			0.00950406			0.112734			0.258624			0.117521			0.606605			-0.257703			-0.139445			-0.799459			-0.131526			0.269903			0.246322			-0.0891464			-0.0089772			0.00984224			-0.318225			0.464209			0.990777			-0.0376912			0.0106245			-0.139034			-0.692419			-0.25863			-0.298129			-0.0315114			-0.471465			-0.451516			0.408275			-0.425933			-0.193317			0.738339			0.0489895			0.738865			0.0593856			0.287071			-0.208987			-0.566319			0.000122226			0.722044			0.685186			0.59051			0.531556			-0.0218716			0.0677017			0.550737			-0.957193			0.63271			0.31432			-0.190985			-0.187942			-0.0689868			-0.182469			0.181331			0.590216			-0.352894			0.388137			0.474048			0.189042			0.670347			-0.637025			-0.256764			0.437308			-0.164668			0.543615			-0.167013			0.0394053			0.404502			0.854173			0.377032			-0.015262			-0.45558			-0.510704			0.0598507			0.398171			-0.960433			0.276205			0.207793			0.10645			0.283884			0.379565			0.424944			-0.552578			0.291177			0.556285			0.412553			0.536182			0.428494			0.0830665			-0.271692			0.0370181			-0.0945409			0.129943			0.179257			0.704685			-0.79386			0.314814			-0.372505			-0.680294			-0.854623			0.336787			0.0582517			0.172429			0.0732955			-0.12715			0.76698			-0.252741			-0.637264			0.447865			0.415756			-0.316237			-0.331627			0.505793			-0.573656			-0.34524			0.560696			-0.921138			-0.866188			0.172804			0.585049			-0.120495			0.288771			0.0756402			-0.420644			0.8618			-0.178657			0.0717696			-0.233227			-0.688744			-0.44381			-0.377658			-0.668996			-0.478276			-0.907291			-0.537782			-0.220045			-0.339608			0.204434			0.370069			0.259053			0.0945769			-0.260689			0.249414			-0.133169			0.146851			0.37223			-0.430161			-0.634293			0.395072			-0.306334			0.370432			0.637774			0.589574			-0.80052			0.711659			0.150836			0.552542			0.258356			0.147772			0.391346			
0.414739			-0.544737			-0.47575			0.0151943			0.330635			0.481397			-0.594299			0.0164552			0.533076			0.175285			0.0874344			0.184484			0.0232843			-0.931878			0.0932437			-0.746378			-0.239698			-0.378975			0.52852			-0.426693			-0.246742			0.0406769			0.347393			0.0378352			0.239062			0.528916			-0.603865			-0.367314			0.117978			-0.469764			0.641317			-0.300751			-0.0240247			0.651812			0.237452			0.630426			-0.554459			0.796894			0.230262			0.648199			0.154756			-0.148749			-0.387881			0.171898			0.0115591			0.378473			-0.458214			0.23795			-0.363683			0.634401			0.537523			0.117239			-0.578992			0.288055			0.427908			-0.489564			-0.827709			0.152051			0.804897			-0.058569			-0.253942			-0.109495			0.291923			-0.0677192			0.0733724			-0.708547			-0.518732			0.358913			-0.706151			-0.0410569			-0.366345			-0.32865			-0.22729			0.563974			-0.18693			0.152935			-0.349268			-0.0498666			0.0205216			0.603152			0.0479383			0.06502			-0.924444			0.478435			-0.649476			0.564759			-0.510264			-0.188334			0.972945			0.0314163			0.426077			0.277822			0.225415			0.712796			0.0222324			0.253688			0.312028			0.297603			0.586805			0.302281			-0.166076			0.233662			-0.552854			0.57203			0.442069			-0.441207			0.175861			-0.701882			-0.61373			-0.633629			-0.356659			-0.0768915			-0.255293			-0.207383			-0.247661			0.351672			0.434688			-0.270265			0.165186			0.675377			-0.416433			0.431253			-0.266815			0.27747			0.237019			0.78147			-0.480128			-0.215342			-0.565745			0.958151			0.169113			-0.558497			-0.334721			0.430182			0.814282			0.287027			-0.09305			-0.781413			0.00746709			-0.482876			0.706052			-0.499504			0.507358			0.553868			0.398159			-0.365333			0.616322			0.218363			0.24802			0.232496			-0.125602			-0.218453			0.271679			0.132209			0.243929			0.107277			-0.722193			0.696439			0.0929593			-0.28766			0.0272009			0.256817			0.338197			-0.795831			-0.306471			0.808439			-0.275299			0.224752			0.476743			-0.570487			0.936881			-0.130812			-0.00463021			0.4109			0.514859			0.903791			0.745104			0.415064			0.0175848			0.219083			0.505243			-0.685176			-0.408863			0.152302			-0.638732			0.127693			0.0568318			0.295096			0.408606			-0.853159			-0.298424			-0.0230182			-0.883575			0.0121399			0.416923			-0.443966			0.362218			-0.451499			0.619177			0.634491			0.206121			-0.275853			0.253995			0.981841			0.469028			0.385144			0.401481			-0.688337			-0.0558854			0.0362382			-0.388896			0.0271496			-0.330433			0.293488			0.140337			0.0957756			0.570718			0.692045			0.0718212			0.548086			0.159239			-0.537998			0.38396			0.107628			-0.323375			-0.424535			-0.558134			0.886147			-0.556888			0.0622235			-0.13098			-0.454904			-0.358706			-0.0533184			0.844677			-0.901995			0.668684			-0.330025			0.903052			0.541943			0.240278			0.305051			0.0554748			0.0507609			-0.695336			-0.30158			-0.266212			0.182117			-0.298584			-0.564674			
-0.0180703			0.121009			-0.219378			-0.200522			-0.267492			0.0704365			0.646333			0.964393			0.0234818			0.52451			-0.28276			-0.123175			-0.9877			-0.220491			0.166168			-0.0611498			-0.224359			0.643297			-0.727738			-0.0845965			-0.207913			0.530919			0.0811908			0.0755384			0.248021			-0.0323744			-0.188515			0.670857			-0.330963			0.216581			-0.368536			0.174149			-0.177502			0.0613959			0.0369591			0.574068			-0.865104			0.743959			0.0626143			-0.725868			-0.210925			-0.471239			0.622609			-0.482774			0.200453			-0.362937			-0.322813			0.012087			0.695463			-0.996055			0.3319			-0.0422818			0.262436			-0.585946			-0.234998			-0.122095			-0.848844			0.156555			-0.5406			0.242496			0.451471			0.176721			-0.621598			-0.539228			-0.266102			-0.825996			-0.560537			-0.115487			0.134739			0.450562			-0.00926069			-0.0408411			0.24549			0.0929233			0.0131214			0.449286			-0.0594177			-0.38122			0.0705787			-0.0939784			0.156309			0.450244			0.392698			0.111198			-0.485703			-0.924292			0.432495			0.917433			-0.168515			0.355071			-0.0290139			0.647191			0.677765			0.499672			-0.348287			0.47481			-0.587818			0.216506			0.229519			-0.364131			0.915583			-0.191764			-0.674238			-0.0013233			-0.234192			0.778032			-0.504096			0.309858			0.0827954			0.394698			0.154057			-0.252653			0.57087			-0.0670734			-0.78688			-0.203753			0.0903191			-0.435634			-0.46221			0.482308			0.0916118			-0.0462249			0.490928			-0.0393064			0.104975			-0.441693			-0.497149			0.491775			-0.402639			0.280682			-0.0306844			-0.346404			-0.448054			-0.269541			-0.901224			-0.128307			-0.123126			-0.127804			-0.0650048			0.0794113			0.718339			-0.70759			-0.869833			-0.0384637			0.650399			0.0912385			-0.15556			-0.280747			-0.49815			0.98758			-0.210658			-0.406418			-0.207922			0.0336431			-0.151725			0.681134			0.216423			0.0520421			-0.79003			-0.215172			-0.73565			-0.345166			-0.155842			0.0515219			0.163136			-0.0189914			-0.206446			-0.219275			0.213903			0.523302			-0.744617			0.132143			0.492957			0.251078			-0.0156442			-0.213112			-0.538418			-0.0492736			0.432105			-0.188735			0.197298			-0.583047			-0.642015			-0.254782			0.0773679			0.472894			0.615837			0.169965			0.701745			-0.251648			-0.402041			0.443104			-0.0511348			0.202746			-0.579054			0.804731			-0.31852			0.0118577			-0.742402			0.498261			-0.018273			0.280499			0.222405			0.132324			0.00557422			0.182208			0.298538			0.530914			-0.0590979			-0.434419			-0.640571			-0.858185			0.326388			0.25094			0.496864			0.577279			-0.0812434			-0.606165			0.102316			-0.000119779			0.272845			-0.080737			0.694362			0.213896			-0.86857			0.548289			0.00380587			-0.077113			0.815249			0.524449			-0.142791			-0.6781			-0.160331			0.134288			0.00661935			-0.263152			0.0258603			-0.117039			-0.189536			-0.986316			0.717711			-0.568046			-0.647044			-0.0304461			-0.585889			0.413905			0.825672			-0.341998			-0.11532			0.654689			
0.236692			-0.338791			0.152639			-0.27758			-0.16995			0.53931			-0.585199			0.459423			-0.0976479			0.801187			0.511784			-0.0154132			-0.308017			0.00397816			0.592097			0.612509			-0.789432			-0.432443			-0.441135			-0.44535			0.00938157			-0.418024			-0.533732			-0.59466			-0.0894126			-0.221527			0.690435			0.195928			0.229335			-0.678843			0.884936			0.608149			0.273384			0.422803			0.0473022			0.216123			-0.312483			0.306607			-0.360237			0.653751			-0.328146			-0.389764			-0.547804			0.689147			0.0815613			0.117392			-0.359943			0.0261623			-0.593431			-0.0500283			-0.39702			0.514877			0.00953909			0.380699			0.000428807			0.00490893			-0.585112			0.835144			0.169897			0.211732			0.143309			-0.309353			0.704131			-0.662717			0.339618			-0.179279			-0.212563			0.449002			0.386066			-0.417046			-0.327342			0.0684812			-0.468865			-0.75234			0.327196			-0.803395			-0.151101			0.249149			-0.451596			-0.247366			0.187452			-0.428813			-0.49941			-0.179689			-0.732445			0.5279			-0.542228			0.721471			0.564987			0.121161			0.47026			-0.264828			0.883742			-0.34546			0.394444			0.286335			0.861285			0.182884			-0.393484			-0.19734			-0.678874			0.385488			0.186525			-0.464305			-0.330483			-0.332303			0.453347			0.57585			-0.343778			-0.402726			0.235094			0.192489			-0.524927			0.640261			-0.666233			-0.169761			-0.906569			0.754991			-0.25476			-0.152076			0.157541			0.121558			-0.126203			-0.681614			0.0041802			0.531305			-0.510332			0.505287			0.7767			0.434622			0.406505			-0.34667			-0.889726			0.511116			-0.417009			0.442052			0.0213833			0.884481			0.0200647			-0.466305			-0.701547			0.193445			-0.438032			0.558274			0.130503			0.234811			0.431528			0.709666			0.080871			-0.761556			0.000973222			-0.187034			-0.360512			-0.716307			0.00162414			-0.688756			0.679327			0.749514			0.561194			-0.172466			-0.146253			0.704427			0.424103			-0.0609615			0.593647			-0.61209			-0.57262			-0.246687			-0.446644			0.398404			-0.220615			0.182677			0.249008			0.550094			-0.0903215			-0.531153			-0.293733			0.3558			0.395411			-0.125818			-0.618142			0.0900429			0.209721			-0.282703			0.699544			0.435925			-0.0241891			-0.918793			0.0351367			-0.92374			-0.373761			0.0548821			-0.180954			0.0751161			-0.709925			-0.477017			0.238896			0.059575			0.330273			-0.104712			0.486659			-0.327495			-0.303962			-0.172972			0.0734439			-0.00815385			0.376621			0.517668			-0.374883			-0.364538			0.318408			0.0413422			0.00959654			0.716605			-0.253839			-0.31366			0.737648			0.356882			0.285419			0.408992			0.670691			0.917409			0.0343394			-0.203693			0.347544			0.459169			-0.620152			-0.0782319			0.0517021			0.259158			-0.408286			-0.467422			-0.848007			-0.452934			0.759534			-0.735499			-0.0159278			-0.0223673			0.0509332			0.0136893			0.132867			0.850916			-0.29938			-0.489388			-0.0977264			-0.412112			0.237662			-0.783538			0.151219			-0.177277			
-0.105932			-0.0210704			-0.568669			0.179448			-0.0692396			-0.654048			0.258229			0.184749			-0.0650073			0.405765			-0.0529799			0.439737			0.285291			0.537321			-0.318261			-0.190254			-0.370751			0.454039			-0.173021			-0.380748			0.638157			-0.193948			-0.585308			0.674082			0.130586			-0.0522075			-0.740319			-0.111479			0.729754			-0.108014			0.340672			0.743256			0.795398			-0.438147			-0.518235			0.289706			0.0244326			0.527243			-0.253549			-0.150878			0.306649			-0.264838			-0.142791			-0.289518			0.330527			-0.0463199			-0.429855			0.180532			-0.0247284			-0.3406			-0.0602945			-0.0581652			-0.246039			0.2477			-0.548345			-0.283703			0.915528			0.915429			-0.564863			-0.587973			-0.133149			0.118611			-0.892227			0.35192			0.0545655			0.0574608			-0.0487119			-0.606909			0.133275			-0.0133519			0.329577			0.199739			-0.276057			0.246092			-0.02947			0.287907			-0.296115			-0.203086			-0.597142			0.18574			-0.752391			0.127774			-0.287988			0.665423			0.332658			-0.0779873			0.371751			-0.269188			-0.395274			0.117505			0.409705			-0.537336			0.00270259			-0.254153			0.131699			0.473071			-0.735374			0.630586			0.324476			-0.0110172			-0.659492			0.202352			0.634566			0.0583555			0.813664			0.228548			0.319216			-0.282535			-0.565034			0.330046			-0.0925388			-0.056158			0.107141			0.0544904			-0.795719			-0.585777			-0.090133			-0.165724			-0.282126			-0.710202			-0.926241			0.742344			-0.181445			-0.0470842			0.0846365			-0.250222			0.254678			0.524923			-0.519559			0.453897			0.593309			-0.0627784			0.488018			0.876833			0.486971			-0.273748			-0.10714			-0.622226			-0.527264			0.551024			-0.125981			0.227283			-0.121833			-0.333638			0.989523			0.0555004			-0.901722			0.582254			0.580335			0.511991			0.691878			0.447276			-0.61728			-0.349925			-0.0999454			-0.0477589			0.204498			-0.288592			-0.790798			0.986535			-0.367893			-0.531014			0.534268			-0.801731			0.320218			-0.893198			-0.947189			-0.413526			0.662501			-0.340677			0.346396			0.428716			-0.221113			0.0478202			0.0446671			-0.406162			0.277168			-0.457138			-0.387254			0.133113			0.530213			0.445459			-0.00414385			-0.426311			0.282789			0.398913			-0.237048			0.119972			0.112449			0.229945			-0.896091			0.504805			0.398503			-0.0518009			-0.0345847			-0.151668			0.484854			0.181679			-0.316345			-0.00234658			-0.564427			-0.21649			-0.322959			-0.320929			0.410053			0.818321			0.192706			-0.140972			-0.362682			0.333058			0.656049			-0.436306			0.276319			0.189136			-0.639244			0.155494			0.375967			-0.0529971			0.365216			0.691748			0.00317044			-0.287441			0.77212			-0.0849697			-0.306335			0.738912			-0.107002			-0.536272			-0.143176			-0.675659			-0.555406			0.203928			0.631301			0.0517772			-0.379461			-0.214534			0.223392			-0.327933			-0.0685392			-0.0161996			-0.343657			-0.807249			-0.0479294			0.905108			0.312148			-0.693015			-0.268007			-0.168655			0.275835			0.673868			
-0.295939			0.321156			-0.684501			0.557038			-0.376532			0.760213			0.537046			-0.238887			-0.490867			-0.597375			0.484407			0.783952			0.259231			-0.206868			-0.667932			0.0698306			0.230175			-0.643923			0.29808			-0.583557			-0.056754			-0.350039			-0.0608327			0.129429			0.757245			-0.282791			-0.0113116			0.213397			0.271004			0.119369			-0.204467			0.647852			-0.451013			-0.361536			0.178695			-0.822279			0.0292969			-0.610163			0.00810134			-0.0705431			0.543607			0.467319			0.409605			-0.190515			-0.0018189			0.0447559			0.00655437			-0.397195			0.13354			-0.212835			0.334449			-0.286256			0.135051			-0.455918			-0.2853			-0.200578			-0.497925			0.0625628			-0.189424			0.129294			0.214892			-0.807865			-0.0705923			-0.0878221			-0.0454637			-0.0100775			0.310952			0.668001			-0.755994			0.414991			-0.138703			-0.117608			-0.335707			-0.357719			-0.628103			0.276714			-0.224058			0.38342			-0.348			-0.289499			-0.355813			0.259466			-0.495535			-0.143444			-0.703112			-0.810246			-0.0497615			0.262888			-0.0929829			-0.0319494			-0.365481			0.85934			0.460733			-0.436597			-0.622351			-0.367497			-0.39371			0.295719			0.290374			0.383617			0.112644			-0.312961			0.559173			0.482225			0.0464147			-0.284201			0.746386			-0.32167			-0.0718234			0.0764455			0.512316			0.440604			-0.33903			0.375019			-0.349375			-0.499511			-0.690368			0.333278			-0.115644			0.35333			0.0447245			0.385665			-0.642527			-0.225075			0.215842			0.115753			0.84203			-0.113165			-0.438347			-0.88451			0.738521			0.265033			0.728124			-0.16607			-0.0918543			-0.0100429			0.65251			-0.272986			0.0789668			-0.478588			-0.516887			0.977721			0.128048			0.882666			-0.206572			-0.680497			-0.045064			0.455378			0.149149			-0.381356			0.569252			-0.355573			0.742704			0.9174			-0.277612			-0.52412			-0.289806			-0.585368			0.147259			0.13718			-0.0598971			-0.0561552			0.425133			-0.612749			-0.00516119			0.323771			-0.732048			0.531824			-0.310117			0.261977			-0.148274			-0.0683968			-0.266655			0.628833			0.229211			-0.383489			0.410429			0.0372721			-0.228498			0.472017			-0.187458			0.65859			-0.00133226			-0.805593			-0.059737			-0.162678			-0.89936			-0.23247			-0.0524809			0.244449			0.0953503			0.193366			0.439037			-0.225857			-0.485949			0.391939			-0.457825			-0.327178			-0.470235			0.262848			0.447351			0.100547			0.0792008			0.103278			0.222345			-0.16709			0.560998			0.202065			-0.545422			-0.326365			-0.0408952			-0.637889			0.140864			0.171821			0.294127			0.367994			0.18977			-0.654309			-0.154986			0.117675			0.160715			0.378888			-0.42411			-0.0848463			-0.10451			0.835179			-0.419886			-0.481734			0.376144			0.682251			0.240066			0.67138			0.690303			-0.528365			-0.63086			0.07008			0.00985113			0.0700433			-0.0590362			-0.149798			-0.597587			-0.280612			-0.976502			0.0259232			0.0613943			0.456927			-0.494138			-0.695751			-0.557063			-0.18599			
0.429335			-0.207313			-0.19156			-0.479472			0.0879603			-0.204294			0.0219876			0.143743			0.173344			-0.412849			0.303858			0.732547			0.11564			0.683574			0.439109			0.927319			-0.353721			0.252383			0.626496			0.239943			0.201105			-0.573596			0.0314879			-0.286135			0.333703			0.0832696			-0.0281152			-0.0635154			-0.363639			-0.187135			-0.232788			-0.352634			0.0549714			0.485413			-0.412046			0.633048			-0.70594			0.169037			-0.402685			-0.508797			0.295471			-0.612923			0.20305			0.0322659			-0.84877			-0.365042			-0.587847			-0.282635			-0.363742			-0.714697			0.340715			0.619887			0.709998			-0.459515			0.150287			-0.411483			-0.485754			-0.249536			-0.484408			0.397227			-0.150178			-0.588928			-0.322624			-0.0312079			0.215359			-0.227992			-0.49457			0.0177427			-0.049835			-0.294693			-0.282567			0.811712			0.486544			-0.47789			-0.700849			-0.438199			-0.139211			0.857446			0.198334			0.797591			0.597236			-0.398383			-0.424453			0.75018			-0.528416			0.863409			0.237233			0.0483178			0.546459			-0.463447			-0.684684			-0.519933			-0.215071			0.856924			0.187906			-0.839695			-0.204008			-0.581697			0.502499			-0.0362038			-0.118816			0.226922			0.62857			-0.508296			-0.653005			-0.526758			0.285849			0.481694			-0.28024			0.0474182			0.104186			-0.101571			-0.00188806			0.384769			-0.29166			0.372717			0.374888			-0.794067			-0.19014			-0.691083			0.814747			0.038928			-0.683342			-0.152131			-0.539614			-0.0190273			0.303009			0.304434			-0.304433			0.251137			-0.230925			0.147927			0.157975			-0.127278			-0.164847			-0.541962			-0.159778			-0.442045			-0.460831			0.281687			-0.0251612			-0.016997			0.561652			0.476184			0.585866			0.503648			-0.74814			0.714156			-0.438585			-0.424793			0.17432			-0.456519			-0.863347			0.534124			0.730462			0.797046			0.455851			0.157817			-0.090325			-0.851884			0.426546			-0.459915			0.426766			-0.559081			-0.0614993			-0.528296			0.486216			-0.670401			-0.157227			0.867431			-0.485583			0.503221			-0.432462			-0.080474			0.478917			0.38491			-0.268391			-0.820832			0.159077			0.142324			-0.679103			0.313069			0.355298			-0.542302			0.541709			-0.481828			0.423058			0.244692			-0.0530491			-0.381938			-0.47146			-0.557717			-0.1261			0.387538			0.0932255			0.0457688			-0.0685401			-0.326294			0.228236			0.281114			-0.339581			-0.391596			0.676912			-0.353642			-0.72002			0.339727			0.0833575			-0.474932			-0.0393692			0.354345			-0.0987821			-0.20318			0.50277			0.815244			-0.257786			-0.004087			-0.181922			-0.00919991			-0.186847			-0.539663			0.418033			0.675346			-0.0891329			-0.753231			0.774316			-0.225262			-0.313374			-0.194413			0.917024			0.646593			0.0813666			0.450199			0.730572			0.213856			0.127144			-0.414402			0.348997			0.0292601			0.771637			0.592722			-0.205762			0.531007			-0.00975138			0.428052			-0.159658			-0.581519			-0.0260143			-0.122012			-0.29683			-0.215621			
