Matrix_1
0.410485			0.101869			0.483315			-0.179829			-0.227037			0.381141			0.507073			-0.479303			0.198795			0.52844			-0.0493799			0.756469			-0.0709041			0.68328			-0.365825			0.321778			-0.529774			-0.0391459			-0.598144			-0.139048			0.159995			0.342328			0.532441			-0.0708541			-0.0130455			0.258949			-0.0835513			0.276125			0.179876			-0.841952			-0.100943			0.272691			-0.348267			0.186533			0.126699			0.639796			0.101704			0.153608			0.418212			-0.485032			0.2444			0.122301			0.0966446			-0.29379			0.0399658			-0.300027			0.103767			-0.109337			0.676816			0.110188			-0.641859			-0.0178149			0.66892			0.276833			0.657586			0.43594			-0.7257			-0.228712			-0.45453			-0.250175			-0.0853922			-0.053452			0.270859			-0.403921			0.428298			0.509805			0.246827			0.0171075			-0.274085			-0.22149			0.184298			0.0594979			-0.330758			-0.582686			0.016688			-0.67107			-0.280234			-0.905731			0.293007			-0.912125			0.126269			-0.192929			-0.336038			0.122077			0.0198481			-0.594235			0.0661108			-0.790617			0.0487324			-0.722677			-0.106658			0.169673			0.0374421			-0.703818			0.0607042			0.215788			0.374099			-0.0376472			-0.188432			0.136884			0.649495			-0.128298			-0.747305			-0.295321			-0.0442796			0.609936			-0.26577			-0.00552213			0.484314			0.0149555			0.879079			0.154056			0.340953			-0.327297			0.469699			0.209171			0.365896			0.312897			0.720664			0.520437			-0.276551			0.306307			0.195273			0.365793			0.627016			0.337409			0.226798			0.538461			0.56868			-0.15645			-0.358432			-0.359011			0.838204			0.860162			0.375527			-0.68613			-0.49698			-0.409202			-0.455067			-0.350649			-0.271576			0.331819			-0.104008			0.960687			-0.455781			0.603218			0.176745			-0.128181			0.033951			-0.210757			0.179681			-0.344273			-0.477268			0.215884			-0.49152			0.400798			-0.161014			0.00112358			-0.535835			-0.471583			0.724177			0.114742			0.0948697			0.267534			-0.149156			0.392586			-0.0790287			-0.421781			-0.0946322			0.209762			0.373251			-0.00617326			-0.0614323			-0.402259			-0.18996			-0.625768			-0.3485			0.346522			-0.0980964			-0.257804			-0.611347			-0.456846			0.705105			-0.294373			0.169622			-0.124266			-0.78949			-0.0102505			-0.0947832			-0.705524			-0.0414818			-0.359758			0.131438			0.318347			0.119781			-0.0685119			0.396135			0.0375484			0.346325			-0.301169			0.153822			-0.436738			0.310687			-0.143902			-0.0578977			-0.846692			-0.0197072			-0.188588			-0.753117			-0.349186			-0.130556			0.417187			0.3845			-0.343343			-0.0197283			0.0292079			0.146032			-0.574407			0.67661			-0.700562			0.117763			0.224751			-0.424007			-0.283637			-0.157518			-0.205035			0.28067			0.146064			-0.427051			-0.621188			-0.00993404			0.590109			0.317225			-0.596005			0.0823551			0.325058			-0.00709976			0.468731			0.407046			0.259751			-0.169064			0.209395			-0.258667			-0.0549906			-0.118822			-0.327003			-0.0175519			0.554188			-0.726757			0.728018			0.239482			0.120645			0.403974			-0.567634			-0.199133			-0.641594			-0.0644411			-0.049125			-0.662026			0.041938			0.241575			-0.585081			0.592387			-0.45839			0.025873			0.000313456			0.0850577			-0.357435			-0.251436			0.440481			-0.285381			-0.898813			0.235203			0.225907			-0.0827741			0.522727			-0.356825			0.733138			0.552318			0.0239296			-0.183784			-0.120776			0.636614			0.367987			0.841476			0.100563			0.567229			-0.386842			0.206934			0.776223			-0.240848			0.366831			-0.106099			0.200271			0.790019			-0.251218			-0.899607			0.632623			-0.467428			0.0158931			-0.243757			0.221296			0.529316			0.330479			0.0461798			-0.55827			-0.290577			-0.178179			0.1047			0.193415			0.0615433			-0.166406			0.213629			-0.155611			0.0941912			0.365669			0.461686			-0.0620477			-0.454209			0.215134			0.780597			0.0260875			-0.471784			-0.193426			0.338584			0.0829921			-0.224681			-0.945033			-0.594946			0.143079			-0.348113			-0.658681			-0.716451			-0.0826041			-0.058514			0.216333			-0.188517			-0.081549			0.105131			0.557833			-0.829724			0.460409			-0.0404263			0.582651			-0.417374			-0.269078			-0.11031			0.0559099			-0.307139			-0.0659984			-0.0750215			0.0708398			0.663144			0.061195			-0.88233			0.307294			-0.585703			-0.103195			0.621676			0.420796			0.425126			0.493028			0.873111			-0.0459112			0.0211583			0.139023			-0.686441			0.568867			-0.0451553			-0.563576			0.30944			0.0316214			-0.603279			-0.134045			-0.500996			0.0213047			-0.56918			-0.430119			-0.304923			-0.330479			-0.356725			-0.273932			0.37441			-0.576831			0.238268			0.112033			0.905334			0.243828			-0.553964			0.719079			-0.56397			0.873102			-0.298828			0.207048			0.486319			-0.311265			0.165239			-0.0377483			-0.857505			0.132279			-0.0304228			-0.650242			-0.288			0.635322			0.225744			-0.273408			0.0984777			-0.336871			0.306632			0.869262			0.335177			-0.0919497			0.894321			0.245117			-0.842353			-0.785989			0.0244182			0.297296			0.187994			-0.907351			0.6569			0.135751			0.0142327			-0.698004			0.147735			-0.236487			0.581099			0.170914			-0.790672			-0.0642402			0.532809			-0.302971			-0.215714			-0.857416			-0.38226			-0.0605127			-0.45593			0.201473			-0.247927			0.13296			-0.257929			0.122923			-0.581683			0.358213			0.279943			0.57427			0.511128			0.0850852			-0.278531			-0.307417			0.681691			-0.0163336			0.954851			-0.228487			-0.27436			0.400561			-0.783294			0.145736			0.394291			0.885435			-0.355977			-0.122614			-0.341666			0.587943			0.0157618			-0.202659			-0.0840351			-0.0700964			0.0592107			-0.380793			-0.413937			-0.279362			-0.369371			0.565699			0.282957			0.316232			0.159771			0.00574667			0.104282			0.178005			0.306826			0.496345			-0.561536			-0.0779075			-0.639915			0.502328			-0.331319			-0.674587			-0.379214			0.940456			-0.206306			0.99135			0.504892			0.563883			-0.427686			0.130578			-0.15375			0.201325			-0.389252			0.191612			
0.310968			-0.293273			0.134518			-0.771708			0.214489			0.416698			0.807531			0.125635			0.0522616			-0.506394			0.427596			0.0690639			-0.154159			-0.328115			-0.0801817			-0.6327			0.167617			-0.138233			0.548872			-0.843914			-0.44358			0.754095			-0.00169005			-0.337929			0.131053			-0.168644			-0.632318			-0.891191			-0.813657			-0.808871			0.39262			0.51221			0.627161			-0.864663			0.177883			-0.8876			-0.274115			-0.527908			0.42899			-0.00189839			-0.25227			-0.0795823			0.0613202			-0.393889			-0.150328			-0.240093			-0.407691			-0.246834			0.793618			0.133846			0.16856			0.0417793			0.404737			-0.391031			-0.320931			-0.602642			-0.739265			0.595915			0.270727			-0.419806			0.45525			0.464869			-0.0991584			-0.347368			0.574862			-0.0498014			0.296861			0.422689			0.0941837			0.249513			0.147243			-0.396973			0.0594571			0.0958452			-0.672245			-0.497905			0.242688			0.379324			0.253554			0.3817			-0.136279			0.038911			-0.244776			-0.291069			-0.111761			0.293887			0.191178			0.0225264			-0.597483			-0.225908			-0.172574			-0.0325984			0.288028			-0.963243			0.687032			-0.50315			0.260102			0.25924			0.549284			0.130685			-0.0543104			-0.214682			-0.898789			0.74083			-0.770151			0.208184			-0.45797			0.251101			0.0995775			0.293427			-0.000746563			0.0844971			-0.607483			-0.187762			0.110086			0.422463			0.0925109			0.297096			0.914595			-0.634318			-0.551465			-0.065297			-0.3407			-0.308306			-0.778651			0.461603			-0.775165			0.358959			-0.31853			0.474296			-0.299226			-0.310847			0.100588			0.0813897			-0.691364			0.48812			-0.389933			-0.87185			0.148692			0.517567			0.00271286			0.176158			-0.146537			-0.407816			-0.831328			0.336391			-0.638544			-0.202304			0.479601			0.0197593			-0.221057			-0.0816377			0.0194867			-0.164468			0.644089			-0.683597			0.133288			0.808948			0.834428			-0.674878			-0.185681			0.377871			-0.41835			-0.0812629			-0.450526			0.142107			-0.272975			-0.716298			0.398806			-0.688908			0.715422			-0.72658			0.213056			-0.334154			0.805476			-0.179876			0.176139			-0.00322012			0.721471			-0.145781			-0.00117562			-0.514097			0.823677			0.462676			0.649646			0.0513199			-0.0479451			0.298158			-0.918042			0.0913968			-0.253728			0.281414			-0.0744309			-0.18025			-0.399976			-0.717649			-0.115881			0.349105			0.169219			0.811153			0.575623			0.232072			0.0251112			0.163845			0.0781005			-0.235925			-0.500144			-0.354327			0.967174			-0.10113			-0.786724			0.103659			0.347179			-0.232148			0.811332			0.57913			0.345807			0.675581			0.706671			0.327027			-0.185565			0.0666087			-0.0985711			0.205822			0.725408			-0.306485			0.369729			-0.0812356			0.609318			-0.558489			-0.411274			0.329888			-0.0670076			-0.213999			0.186202			-0.733137			0.0693149			0.90129			-0.420961			-0.572367			0.0888175			-0.105953			0.435689			0.646453			0.506828			0.0454989			-0.0596986			-0.288156			0.710777			0.494834			-0.220692			0.0832832			0.37779			0.419251			0.398387			-0.286632			0.516346			0.0312772			0.23344			-0.232185			-0.488357			-0.0582801			-0.566461			0.78223			0.111119			0.0958058			-0.504096			-0.673326			-0.666679			0.623087			-0.66919			-0.816955			0.709983			-0.280276			0.0869694			-0.620193			0.0826458			0.733653			-0.620479			0.0813115			0.4818			-0.510362			0.261999			-0.33311			0.273538			-0.331027			-0.682138			0.0406559			0.344627			0.723638			-0.731007			0.844246			0.620006			-0.51025			0.0820592			-0.0441409			0.212398			0.033817			0.121395			0.750166			0.067945			0.0746596			-0.801518			0.0619312			-0.0437749			-0.187199			-0.111321			0.348819			-0.501947			0.762232			-0.0270867			0.325532			-0.789771			-0.249575			-0.26371			-0.324543			0.341365			-0.99646			0.192856			0.236776			-0.202107			0.387366			-0.714652			0.0381762			-0.951399			0.44235			-0.153169			0.799068			0.43775			0.389251			0.0648001			-0.16836			0.326878			-0.0147332			-0.359043			-0.130021			-0.354369			-0.540347			0.857845			0.274571			0.555641			-0.238801			-0.020154			-0.206306			0.873232			-0.309004			0.0254716			-0.637578			-0.100534			0.179812			-0.681937			-0.39019			0.37301			0.301118			-0.0315655			0.171818			-0.338596			0.539742			0.60836			0.808941			0.509128			0.732281			-0.510563			-0.104012			0.425936			0.218029			-0.34283			0.881306			0.594082			0.164617			0.184193			0.602603			-0.787371			0.103277			-0.109366			0.741223			-0.172454			0.0798156			0.24746			0.223295			-0.770021			0.957397			0.774337			0.0134113			-0.994444			0.796111			0.20089			-0.437194			-0.372785			0.287296			0.324537			0.00379833			0.104257			0.102378			0.0500686			0.274021			0.658878			0.0857773			0.054455			-0.85056			-0.395341			-0.0858148			0.645253			0.0278141			-0.00762451			0.0224797			-0.0713798			0.742657			-0.905549			-0.328308			-0.357211			0.498854			0.702692			0.337456			-0.463183			-0.0302415			0.242097			0.309568			0.0737477			0.696477			-0.111087			-0.639297			-0.527326			-0.268964			0.923233			0.543794			0.198383			-0.49661			-0.0185085			-0.176976			0.834622			-0.117527			0.201707			0.0507004			-0.0287681			0.6793			-0.350047			-0.660829			-0.0689609			-0.277067			-0.114075			-0.106166			0.231781			0.104935			0.0271015			-0.54098			-0.0304289			-0.198727			-0.507614			0.591071			0.0320511			0.190788			0.0226634			-0.574407			-0.4005			-0.166945			-0.732538			-0.780126			0.953834			-0.121128			-0.0912984			-0.0200351			-0.643613			0.0730897			-0.723243			0.330349			0.0890182			-0.682778			0.098152			-0.582406			-0.512773			0.698294			0.393929			0.651162			0.0946806			0.821394			-0.859706			-0.395642			0.590499			0.0916415			0.1628			0.33449			0.0884929			0.474221			0.690717			-0.0446317			0.270733			0.524772			0.209447			-0.321499			-0.204026			-0.261467			-0.288423			0.0233391			0.2521			0.485725			0.203964			-0.753913			0.945187			0.157982			
-0.127912			0.105523			0.450853			0.961075			-0.639478			-0.0414113			0.378275			0.0116997			-0.574135			-0.434901			0.273611			-0.217952			-0.279644			0.724816			-0.230308			-0.557088			-0.267762			0.489953			0.265136			0.16756			0.140083			0.127866			-0.312974			-0.190895			0.317444			0.0290156			0.685695			0.355237			0.74843			-0.537128			0.532938			0.416382			0.094617			0.114296			0.138629			-0.0309251			-0.130162			-0.440054			-0.00986182			0.251365			0.0624915			0.208343			-0.247159			0.430744			0.610689			-0.0390748			0.717532			-0.471135			0.397505			0.376345			0.0255464			0.425476			-0.324269			-0.333738			-0.0357593			-0.207781			0.0643764			0.0856023			-0.227924			0.303143			0.641969			0.399801			0.255607			-0.935102			-0.153378			0.357321			0.693578			0.0194385			0.455636			-0.493816			-0.290671			0.136762			0.387119			-0.323987			0.559			0.050654			0.310593			0.672549			0.164495			0.204074			0.316688			-0.113704			0.493742			-0.711056			0.268641			0.45145			-0.369459			-0.26604			0.260487			-0.00869294			0.534517			-0.256868			0.617478			-0.151501			0.070102			0.80466			-0.0139398			-0.0667968			0.340076			-0.185749			0.510157			-0.95426			0.124911			-0.342219			0.306146			0.512292			-0.0996496			-0.106088			-0.640038			-0.688938			0.117606			0.0223901			-0.16686			0.0751529			0.957495			-0.480967			-0.145087			0.349854			0.775995			0.325666			-0.264213			-0.11547			0.659897			0.423595			-0.414877			0.720353			0.21784			0.227791			0.428082			-0.0100006			0.308733			-0.605551			0.97112			-0.749683			-0.236908			0.152266			-0.384436			-0.110308			-0.569849			0.0479143			0.774112			-0.27228			0.37634			0.587285			-0.728248			0.115196			0.656516			-0.393267			-0.285491			-0.879646			0.259882			0.511356			0.167655			0.091765			-0.0992576			0.766312			0.0602768			-0.754341			-0.00652883			-0.165824			-0.0117426			-0.159007			0.242686			0.272768			0.624922			0.851118			-0.432455			0.394141			-0.758707			0.158495			-0.0308086			0.628603			0.427663			0.222173			0.222029			-0.305539			-0.301204			0.553099			0.346716			0.511884			-0.0265697			-0.567917			-0.203208			0.131147			-0.40241			0.69934			0.488532			0.500064			-0.569214			-0.586628			-0.733136			-0.415934			-0.717964			-0.933233			0.239737			0.0559766			0.535583			-0.894235			-0.0556593			-0.702113			-0.51314			-0.897908			0.264763			-0.511888			0.500497			-0.37032			0.462773			0.016188			-0.578954			0.223534			-0.226795			-0.754249			-0.1131			0.63728			0.555698			-0.15424			0.15667			0.420034			-0.164684			-0.622615			-0.129996			-0.241075			0.711426			-0.287622			0.440539			0.281385			-0.773793			0.00514025			0.185605			0.871165			-0.298997			-0.52577			-0.181437			0.851258			0.182009			0.686651			-0.657463			-0.142591			-0.408935			0.627902			-0.325301			0.0209823			0.221995			0.229341			-0.458852			-0.190373			-0.564686			0.51589			0.638113			-0.102149			0.0480824			-0.624754			0.0637087			-0.160988			0.887854			-0.471818			-0.0419418			0.684698			-0.978622			-0.503597			-0.0871814			0.230995			-0.553903			0.628237			0.453475			-0.273024			0.264423			-0.599429			-0.806019			-0.565719			-0.030241			-0.790819			0.350415			-0.233025			0.224147			-0.539867			-0.376478			-0.461855			-0.070937			-0.0195696			-0.455072			0.395086			0.351452			0.723698			-0.452982			-0.497159			-0.480451			0.331011			-0.869296			0.502888			-0.315345			-0.573693			0.175812			-0.869276			0.208076			-0.403711			-0.517116			-0.47562			-0.763453			-0.925409			-0.702717			-0.369433			0.111782			-0.0308528			-0.243358			-0.291196			0.660224			0.79			0.211241			0.0146376			-0.138826			-0.773206			-0.847875			0.218133			-0.057275			-0.38003			0.158641			-0.24255			-0.122201			-0.430573			0.96402			0.0253626			-0.547138			0.612822			-0.516956			0.912819			0.320036			0.34678			-0.211704			-0.0602582			0.434234			0.959009			-0.414905			-0.0469117			-0.24642			0.236089			-0.258143			-0.283446			0.430293			-0.379882			-0.306826			-0.014653			0.171847			0.766644			-0.00475855			0.23952			0.285815			0.509953			0.654566			-0.135941			-0.630235			0.398691			-0.492956			-0.895681			-0.141355			0.296157			0.337462			0.0751446			-0.252606			-0.0303415			-0.0648773			-0.436127			-0.221258			0.0109189			0.463237			-0.11779			-0.529554			-0.193453			0.491416			0.00989419			-0.142484			-0.706442			-0.186599			0.619357			0.0253615			-0.0584053			-0.533335			-0.507604			0.0956152			-0.12267			-0.245428			0.722737			0.161614			0.00326513			-0.228876			0.367809			0.259893			0.186005			-0.0486269			-0.512506			0.354737			0.217326			-0.0204942			-0.280762			0.516719			0.6005			-0.429219			0.140304			0.137275			0.31749			-0.2069			-0.919979			-0.111192			-0.128731			0.147949			-0.0222918			0.496886			-0.214368			-0.230062			0.734805			-0.425562			0.62171			-0.22051			-0.186462			0.181635			0.695228			-0.50551			-0.0661234			-0.287917			-0.217022			-0.532979			0.445272			-0.892018			-0.164428			-0.00148137			0.543346			-0.296865			-0.954322			0.427218			0.583247			0.785614			-0.372196			0.355505			-0.0725341			-0.431815			0.0130436			0.115873			0.547834			0.390479			0.551242			0.271866			-0.330272			-0.202978			-0.507804			0.0687298			-0.394208			0.35794			0.769294			-0.519554			-0.187686			0.277798			-0.395026			-0.481943			0.00235464			0.10558			0.175192			0.819028			-0.0882401			0.436804			-0.2347			-0.212943			0.172325			0.370862			0.269141			0.588204			-0.295631			0.467707			-0.424431			-0.50617			-0.492779			-0.455685			0.288074			0.221843			-0.0281121			0.0139417			-0.685914			0.461175			-0.673217			-0.125517			-0.000503707			-0.297739			0.269428			0.816952			0.887222			0.757163			-0.873197			0.235017			-0.536556			0.392534			0.014896			0.282423			-0.54808			-0.0287303			-0.261306			-0.228312			0.498815			-0.936695			0.393297			-0.585524			0.135596			
-0.217607			0.731382			-0.437336			0.20926			0.436274			0.120316			-0.0728257			-0.653637			-0.263337			0.533215			0.216949			-0.673792			-0.422886			-0.316416			-0.0285375			0.153129			-0.450209			-0.366845			-0.0385721			0.0242386			-0.0808401			0.230913			0.393411			0.0739195			0.789344			0.366671			0.00443236			-0.195576			0.0997919			-0.368647			-0.204604			0.838901			0.782517			0.402796			0.912867			0.508431			0.669901			-0.159347			-0.962711			-0.883019			0.129697			0.0639759			-0.669409			0.587011			-0.308742			0.269011			0.14732			-0.88603			0.296315			-0.565566			-0.328073			-0.918124			0.324583			-0.195201			-0.721311			0.0628944			0.013829			-0.275619			0.104744			0.324391			0.550968			0.132413			0.429343			0.289503			0.704544			-0.82675			-0.344957			-0.0972189			0.343286			0.684333			0.308958			-0.0187662			-0.771796			0.577089			0.0526279			-0.698788			0.385535			0.0198567			0.114183			-0.52041			-0.448487			-0.829361			0.189355			-0.96769			-0.450693			0.107041			0.369102			0.0746693			0.212733			0.230976			-0.603333			-0.538905			-0.771153			0.0819448			-0.396421			-0.251443			-0.85346			-0.249177			0.284703			0.0462724			-0.00395952			0.878541			0.121045			0.715972			-0.156931			-0.647291			-0.463133			0.0604875			-0.42459			-0.70077			-0.356316			0.500998			-0.566508			0.111451			0.0747447			0.252016			0.253131			-0.120287			0.0785941			-0.493382			0.319753			0.156044			-0.622476			-0.154252			0.225947			-0.431187			0.369659			0.0132879			0.16434			-0.55363			0.183305			-0.821846			0.0356344			0.218063			-0.536127			-0.381067			-0.294147			0.762728			-0.13544			0.765921			0.168125			0.291405			0.0925418			0.0522454			0.282829			-0.0562896			0.623804			0.180925			-0.0676902			0.733817			-0.246527			0.603385			-0.0659592			-0.310192			-0.336822			-0.0812162			-0.248711			0.317654			0.141438			-0.547551			-0.730964			-0.0728168			0.0337397			0.459675			-0.150224			0.0706273			-0.727276			-0.208643			-0.071872			-0.548575			-0.53915			-0.424793			0.16673			-0.735664			0.351141			-0.0756589			0.223938			-0.309394			-0.198619			0.024442			0.366392			0.0321659			-0.133721			0.361489			-0.040775			0.443189			-0.259129			0.0331762			0.0664949			0.175496			-0.173026			0.879655			0.53258			-0.133445			0.435607			0.224463			-0.676103			-0.198466			-0.966552			0.337652			-0.0714			-0.300942			0.0717594			0.429161			0.0354477			0.53408			-0.222976			-0.28478			-0.26739			0.203282			-0.824905			-0.209355			-0.00868353			-0.249673			0.678023			0.172413			-0.250622			-0.458628			-0.544109			-0.317279			0.657178			-0.860481			-0.204307			-0.232371			-0.84848			-0.80382			-0.585251			-0.414651			-0.436941			0.899725			0.302807			0.67637			0.26107			-0.47747			0.947078			0.254072			-0.0316697			-0.145499			-0.426332			0.168727			-0.781332			0.218274			-0.369653			-0.419654			0.0226874			-0.763219			-0.346047			-0.477516			0.708357			-0.0348557			-0.860981			-0.692256			0.240042			0.498084			0.75816			-0.0744377			0.0258444			-0.905431			0.31262			-0.119757			0.221672			-0.834647			0.22056			-0.986175			0.34898			-0.338762			-0.146803			-0.0213533			0.363582			0.424658			0.338627			0.890923			-0.119825			0.148668			0.0930737			0.285091			-0.0629235			-0.251843			-0.0979006			-0.847934			0.200263			0.844644			0.66689			0.209821			0.551932			-0.128441			-0.288443			-0.192814			0.421898			0.599823			-0.219263			-0.0171347			0.657792			0.173422			0.175944			0.841079			0.2238			0.489992			0.483464			0.261996			0.226306			0.344412			-0.167973			0.813833			0.3759			0.440184			0.991725			0.0253713			0.218378			0.649558			0.740412			0.522358			-0.406032			-0.0719251			-0.755367			0.405764			0.0124882			0.256967			0.0769978			-0.548194			-0.0823115			0.116672			-0.47817			-0.556652			0.678789			-0.259623			-0.321938			-0.29051			-0.465681			0.230435			-0.173027			-0.0784797			0.184245			0.259008			0.417228			-0.140502			-0.196088			-0.379239			0.719393			-0.185688			0.11849			-0.33357			0.108895			0.24398			0.000698242			0.0197032			-0.417375			0.833412			-0.00167901			-0.369238			-0.148401			0.0685309			0.561965			-0.353026			0.420541			0.273491			-0.117216			-0.91813			-0.168851			-0.798758			0.449477			-0.254472			0.380122			-0.27233			0.322719			0.648795			0.212971			0.592237			0.316988			0.0729801			0.155978			0.219459			0.107605			0.303553			0.210218			-0.370505			-0.346373			-0.293486			0.176868			0.165872			-0.745294			-0.414054			0.60979			0.238195			-0.452589			-0.416173			-0.106863			0.442244			-0.866994			-0.664544			-0.102909			-0.804144			-0.510146			-0.184551			-0.0869257			-0.884317			-0.16114			-0.19863			-0.387037			0.415661			-0.382242			-0.0436783			-0.675028			-0.44803			0.127433			-0.44571			-0.338622			-0.159021			-0.758813			0.407146			0.833553			-0.880745			-0.00520364			0.391347			-0.267935			0.389586			-0.0597137			0.000898044			0.309877			-0.180703			-0.130743			0.686379			-0.150507			-0.0292422			0.672219			-0.509977			0.319477			0.201366			-0.556096			0.909107			0.341192			0.781128			0.319673			0.0915889			-0.622749			0.118428			0.637758			0.490768			0.182247			-0.60789			-0.201178			-0.470988			0.644014			-0.552273			0.0347493			0.323138			0.221486			0.264498			0.20099			0.872055			-0.131364			-0.0941321			0.157584			-0.0964279			-0.765844			-0.419384			0.570546			0.321252			-0.106134			-0.813501			0.176923			-0.0391703			0.298974			0.673522			-0.257596			-0.333282			-0.435877			0.0866653			-0.302646			-0.401929			-0.496571			-0.274677			-0.221544			0.329217			0.251512			0.624027			0.0423188			0.57609			0.781634			0.57822			0.450331			-0.362379			-0.615679			-0.194217			-0.425816			0.141045			0.755041			-0.29828			-0.906614			0.940677			-0.560781			-0.761686			0.480552			0.0686803			-0.158702			-0.102346			0.416912			-0.318762			-0.191484			0.201036			
0.986873			0.336352			0.734629			-0.221723			-0.309993			-0.881092			0.383175			-0.533741			0.46021			-0.636876			-0.3604			0.166188			-0.535168			-0.00767632			-0.070915			0.105903			0.311516			0.199356			-0.312675			0.189246			-0.247537			0.470109			0.492292			-0.0760595			0.309922			-0.0500662			0.80537			0.196389			0.0500453			0.325581			0.107339			0.560247			-0.261377			-0.480864			0.101185			-0.236307			0.486627			-0.409474			-0.314216			-0.170523			0.0369219			0.183866			-0.629108			-0.312498			-0.540983			0.0993327			0.0302475			-0.080625			0.673833			-0.888534			0.136503			0.18995			0.0535208			-0.0537841			-0.909281			0.0400239			0.414379			0.234413			-0.0919061			0.343635			-0.632799			-0.177254			0.200398			-0.54009			0.952595			0.935563			-0.94696			0.326152			-0.261197			0.824806			-0.67213			0.45727			0.203			0.295939			-0.200348			0.745384			-0.405042			-0.39369			-0.66589			0.828694			0.182953			-0.813689			0.374595			0.537539			0.0411464			0.228304			0.0168397			0.411889			0.59126			0.18271			-0.217402			0.472549			0.411403			-0.872284			-0.677206			-0.546834			-0.331072			0.610174			-0.289539			-0.689487			-0.132673			-0.345924			-0.508474			0.0690119			-0.316318			-0.378781			0.862325			-0.32667			0.133375			-0.336023			0.335293			0.209459			-0.626897			0.543536			0.19211			0.389375			0.761251			0.0681108			0.863228			-0.645067			0.346123			0.502621			0.482593			-0.356032			-0.170218			-0.509689			0.0760036			0.135696			-0.366238			-0.0215417			-0.173632			-0.194343			-0.607218			-0.163273			0.712709			-0.211735			-0.37759			-0.00916016			-0.425384			0.151118			-0.476951			0.42405			-0.192761			-0.0965537			0.912451			0.201522			0.757801			-0.795434			-0.0207113			-0.113676			-0.867246			-0.337812			0.0390222			-0.103921			-0.180782			0.416614			-0.0346631			0.3483			0.153311			-0.466798			0.300874			-0.599348			-0.343165			0.0393237			-0.13653			0.560519			-0.405633			-0.226693			-0.591561			0.422174			-0.340886			-0.393782			0.684682			0.557992			-0.0847099			-0.104313			0.20197			0.2243			0.189323			-0.252549			-0.32083			0.598047			-0.569179			0.277034			0.353557			-0.100042			0.393899			-0.550166			-0.0844103			-0.313828			-0.610892			0.161968			0.612384			-0.365964			-0.937148			0.554945			-0.531613			0.338192			0.0615398			-0.252221			0.151085			-0.52198			-0.425581			0.183907			0.641874			-0.539153			0.424803			-0.732157			-0.260156			0.427002			-0.222888			-0.123537			0.162651			0.222121			0.62068			-0.219187			0.304706			-0.738827			0.0646018			0.904375			0.37262			0.0344013			-0.352842			0.782881			-0.238492			0.169559			0.545245			-0.14766			0.553868			0.248488			0.525863			0.0920746			-0.307682			-0.802418			0.102706			-0.664561			0.439798			-0.740223			0.0655017			-0.27467			0.801249			0.541764			0.405688			0.0740139			0.333633			0.62365			-0.497261			0.140413			-0.472105			-0.809424			0.0213541			-0.615771			0.468305			-0.944144			0.373476			0.203917			-0.25752			0.345539			-0.0891149			0.0189544			-0.823104			-0.494512			-0.0681453			0.545836			-0.019303			-0.709716			-0.504041			-0.171466			-0.375666			0.286505			-0.514686			-0.4528			-0.722808			0.454322			-0.622831			0.9157			-0.708746			0.0026665			-0.207961			-0.0522362			-0.825455			-0.931496			0.147675			-0.055638			-0.420068			0.728918			-0.37473			0.538128			0.412102			0.448714			0.369206			-0.745382			0.59576			-0.174928			-0.167275			-0.673705			-0.447809			0.0353383			0.395533			-0.0959769			-0.0591931			-0.0425681			-0.645171			0.404901			0.174253			-0.229854			-0.0799076			-0.323805			-0.0419068			0.888283			0.140412			0.21729			-0.206893			0.618951			0.560402			-0.725597			-0.279309			0.291506			-0.198466			-0.83008			0.20401			0.135177			-0.114239			-0.772477			0.264819			-0.472711			0.189065			0.273493			-0.395853			-0.171234			0.0527375			0.546709			-0.377401			-0.148501			0.105234			-0.37611			-0.50303			-0.845293			0.884523			-0.906695			-0.0912906			0.0709435			0.687126			0.16743			-0.606603			-0.347689			0.889896			-0.0652802			0.246953			0.250213			-0.33617			-0.322538			0.35585			-0.787013			0.0716069			-0.0563953			0.697075			-0.431906			0.13432			0.674515			-0.458028			0.0227518			0.495102			0.428337			-0.245384			-0.602882			0.350849			-0.593945			0.091602			-0.5034			-0.205642			0.162128			0.0746275			0.427291			0.291844			-0.347285			0.0561948			-0.152326			-0.369941			-0.752563			-0.380459			0.324304			0.264248			0.100177			-0.0877248			0.240153			-0.0188513			-0.0515676			0.172334			-0.750051			0.301769			-0.265647			-0.309193			0.278941			0.990512			-0.2543			0.763087			0.223903			0.480105			0.402691			-0.394557			0.212385			-0.355708			-0.0155361			0.219431			0.0992387			0.216564			-0.643387			0.573618			-0.586735			0.556201			-0.00449648			-0.428137			0.514979			-0.125893			-0.188564			-0.183128			-0.150147			-0.0318632			-0.0643852			0.297627			0.0254897			0.157386			0.33939			0.660527			0.142277			0.199596			0.797391			0.0771289			-0.472833			-0.703369			-0.0556529			-0.0240206			-0.45703			-0.450928			-0.224026			-0.636952			-0.720232			0.130775			0.0809836			0.68185			-0.142853			0.340591			0.117306			0.299515			-0.0836622			-0.116071			0.449694			-0.183357			-0.396047			-0.0938998			-0.791666			0.752311			0.501051			-0.0796288			0.619564			0.441834			-0.144544			0.0987784			0.227825			0.245368			-0.102767			-0.800468			-0.376784			-0.504807			0.977622			-0.386381			0.203827			0.187061			-0.579758			0.264428			0.355988			-0.27986			0.0925084			0.254138			-0.0392857			0.695335			-0.181651			-0.341677			0.908651			0.382096			-0.290122			0.59777			0.258982			-0.00894036			0.399393			-0.0347985			0.113235			0.379948			0.129271			-0.444238			0.224428			0.593945			0.30413			0.237783			0.244907			0.891925			-0.478586			-0.546818			-0.501832			
0.260666			0.348536			0.0472539			0.211458			-0.06303			-0.814296			-0.274893			0.623295			-0.498096			0.436659			0.723132			0.326689			-0.194593			0.394358			0.439553			0.326849			0.0533272			-0.494314			0.4878			0.303175			-0.278404			-0.16955			0.180932			0.553798			0.848953			-0.48769			0.406683			-0.318461			0.0145172			-0.250239			-0.679916			-0.0299546			-0.29176			0.206579			-0.115255			0.424302			0.466066			-0.0908113			-0.438408			-0.565617			0.181658			0.391238			-0.352132			-0.131011			0.0863106			0.493666			-0.261637			0.59603			0.416281			-0.237209			0.291467			0.287938			-0.551042			-0.0742272			0.642443			0.415988			0.291573			-0.526295			-0.656667			0.905473			0.228098			0.0280175			-0.472246			0.400282			-0.272412			0.0566581			0.363684			-0.991902			0.586751			-0.483154			0.326117			0.22965			0.526027			-0.347646			-0.316868			-0.0652549			-0.790835			-0.720047			-0.324418			-0.714096			0.679264			-0.324167			0.386009			-0.413375			-0.543643			-0.232429			-0.917342			0.311608			-0.17033			0.211052			-0.023068			-0.494809			0.906272			-0.163688			-0.596638			0.927816			-0.989319			-0.494953			-0.777857			0.594703			-0.479688			-0.0849117			0.149378			-0.65436			0.189212			-0.221678			-0.0979414			0.452312			-0.0777366			-0.288955			-0.118435			-0.570919			0.188835			0.385948			-0.724298			0.350607			0.0727183			-0.764822			0.618806			-0.511803			-0.225801			0.211084			0.140478			0.297476			-0.663671			-0.0691426			-0.234317			0.0361932			-0.172189			0.236934			-0.531029			-0.26524			-0.281414			-0.20665			-0.468301			-0.123644			0.542459			-0.178363			-0.201454			-0.434196			-0.0409351			-0.133726			-0.98655			0.256508			-0.247819			-0.304672			-0.77507			0.675373			0.670567			-0.0721713			0.168459			-0.232639			-0.0521502			0.317619			0.383306			-0.122287			-0.307403			-0.254649			-0.279166			-0.051346			-0.419347			-0.32059			-0.181321			-0.0537111			-0.23211			0.202283			0.521913			-0.149598			-0.470725			0.408878			-0.585161			0.238139			0.909647			0.170339			0.980275			0.122205			-0.0972933			-0.115923			-0.611924			-0.186442			-0.383186			-0.405489			0.439818			0.905285			0.0385094			0.00223857			0.151915			-0.11643			-0.122908			-0.635945			-0.378972			-0.075897			0.705419			0.363273			-0.272573			0.567805			-0.113924			0.170529			0.540141			-0.344987			-0.25893			0.361598			-0.544869			0.401428			0.325796			-0.304605			0.22633			0.26813			0.0250652			-0.43202			-0.234974			-0.666332			0.64862			0.77987			-0.160776			-0.548096			-0.540772			-0.334367			0.373372			0.413508			-0.127617			0.428514			0.238429			-0.640951			-0.719332			0.34831			-0.375583			0.658152			0.404411			0.0542015			0.126016			0.35403			-0.155232			0.00610391			0.0201822			-0.18691			0.157344			-0.143647			0.0245055			-0.733589			0.0333881			-0.00975828			-0.810861			-0.319819			0.158125			0.463671			-0.538182			0.936208			-0.720315			0.0512527			0.169552			0.0983663			0.384605			-0.566301			0.0602832			-0.348901			0.727778			0.231113			0.0838754			-0.0703406			0.464554			0.406655			-0.480891			0.405211			0.283873			0.231518			-0.0900923			0.268432			0.143231			-0.139173			0.57025			0.568848			0.0305969			0.657912			0.526788			0.173646			0.374264			0.0592019			0.432051			-0.201384			-0.887783			0.106465			-0.45687			0.27145			-0.456786			-0.879822			0.912446			0.0565204			-0.0373027			-0.107386			-0.127955			-0.368368			-0.0109402			0.0049471			0.507052			0.669858			0.247648			0.120257			0.158742			0.253699			0.735478			-0.508199			0.578052			0.0596654			-0.20219			-0.265664			0.5879			0.085059			-0.557395			-0.641367			-0.339672			-0.947734			0.506543			0.109794			-0.295083			0.744864			0.335439			0.242679			-0.713716			0.790508			0.567256			-0.555847			0.846252			-0.560572			-0.565591			-0.724203			0.602525			0.209973			-0.501931			0.0494658			-0.110656			-0.563923			0.639989			-0.451561			0.173468			-0.60433			0.343749			-0.501104			-0.202363			0.00085935			-0.198403			0.192467			0.155388			0.0362264			0.803544			-0.854418			-0.605699			0.0133933			0.49789			0.695852			-0.0156826			-0.218429			-0.0625526			-0.403727			-0.0295538			0.505297			0.365612			0.593121			-0.619096			-0.287465			0.638245			0.496234			0.582152			-0.410001			0.167511			-0.0959665			-0.285839			-0.299891			0.00347528			-0.244945			0.229333			0.0546759			-0.28451			-0.896949			0.373583			-0.55815			0.914153			0.132902			0.316542			0.172855			-0.0921683			0.0989904			0.306434			0.13113			0.351689			-0.107111			0.384047			0.484048			0.641921			0.334449			-0.145448			0.105609			-0.220496			0.0303405			-0.648391			0.53797			-0.472737			-0.301724			-0.132348			0.320711			0.290126			-0.65977			-0.563944			-0.687			-0.030748			-0.0745342			0.135302			0.289268			0.641766			-0.399062			-0.320402			0.300561			-0.284394			-0.424847			0.568709			-0.408318			0.361936			0.215663			-0.0988731			-0.190134			-0.104839			-0.0272923			0.459901			0.0172982			-0.21864			0.135168			0.179439			-0.53679			-0.059581			0.2657			0.153301			-0.928482			0.582949			-0.448222			0.0112533			0.209913			-0.0756751			0.273264			0.246954			0.984924			-0.385889			0.105359			-0.0247651			-0.00862147			0.439759			-0.406027			-0.0993596			-0.954677			0.580922			0.755229			0.0247572			-0.397664			-0.247917			0.288937			0.71405			0.632268			0.194209			-0.75783			0.223049			0.583941			-0.660561			-0.641623			-0.132938			0.101846			0.198343			0.796283			-0.793474			0.443344			0.130118			-0.0557831			-0.283211			-0.363816			0.406034			-0.137802			-0.814641			-0.339488			-0.22252			-0.482122			0.619756			0.152992			-0.0615182			0.0102016			-0.289504			0.59085			0.405937			-0.0389962			-0.410437			0.420535			-0.0541488			0.339317			0.0326729			0.271086			0.475406			0.303971			0.139951			0.463848			0.105882			-0.397479			0.521855			0.0182786			
0.37628			0.333511			-0.342328			-0.0650275			0.453022			-0.465253			0.158898			-0.0135278			-0.209966			0.10325			0.267109			-0.172574			0.314652			0.318568			-0.0291443			-0.495557			-0.61665			-0.153684			-0.00800556			0.110513			0.274325			-0.158693			-0.712477			0.697046			-0.179743			-0.0763716			0.326633			0.187559			-0.316967			0.231092			-0.0492748			-0.393494			-0.377131			-0.41486			-0.0135049			-0.0388779			-0.111791			-0.181363			-0.275178			-0.182452			0.145703			0.197322			0.209556			-0.807273			-0.588111			-0.0168353			0.424879			-0.28726			-0.0701361			-0.822622			0.577515			-0.35291			0.3527			-0.686731			0.0961654			0.653591			-0.174452			0.0463548			-0.586155			0.28406			-0.588549			-0.294158			0.319457			0.137082			-0.275841			0.610995			-0.479108			0.111565			0.323911			0.497246			0.646612			0.128931			-0.424736			-0.287975			-0.0702987			0.0384376			0.294115			-0.355302			-0.442155			0.136168			0.0800652			-0.274577			-0.427247			-0.0584749			0.138597			-0.175908			-0.509031			-0.439525			-0.375417			0.36074			0.418561			-0.133316			0.159539			0.707309			0.289017			0.84001			-0.354073			-0.275621			0.0520907			0.186219			-0.0812389			0.301686			0.872359			0.363687			0.392335			0.634047			0.884728			0.664036			-0.586206			0.026789			0.0943722			-0.208659			0.109757			-0.713154			0.965551			-0.513645			-0.0820399			-0.102757			0.139518			0.204221			-0.720219			0.930357			0.450057			0.61518			0.00483956			-0.598189			0.330738			0.234823			-0.276971			0.699421			0.711214			-0.823931			-0.969523			-0.438866			0.0973277			0.176587			0.388555			-0.112211			0.402717			0.154405			-0.714555			-0.738503			-0.31049			-0.494544			0.459663			0.782999			-0.0418456			0.159381			-0.256984			-0.344817			-0.696257			-0.272106			0.105836			0.179847			-0.231971			-0.0466186			0.330712			-0.275264			-0.244687			0.553411			-0.272107			-0.107888			-0.0824648			0.585098			0.0383489			0.0589376			0.694358			0.0468916			0.406697			0.222134			0.8805			0.607362			0.905946			-0.313867			-0.043378			0.215233			0.102092			0.0672937			0.451194			-0.44223			-0.925496			0.0146475			0.455217			-0.799845			0.105578			0.41463			0.0663763			-0.177389			-0.305444			-0.0885201			0.164606			0.0259349			-0.0350311			0.290891			-0.625775			-0.613236			0.211134			0.0591342			0.0900375			0.182368			0.11296			0.0438037			0.500151			0.130269			-0.151561			0.526849			-0.239415			-0.16198			0.0684977			-0.207862			0.272851			-0.31404			0.233587			0.573125			-0.123058			-0.543046			-0.281306			0.242014			-0.216506			0.230846			-0.706293			0.349211			0.34879			-0.535622			0.459453			0.659561			-0.770667			-0.750487			0.0415781			0.38776			-0.358808			0.183539			-0.226016			-0.162054			-0.347438			0.458272			-0.966162			0.195119			-0.246147			-0.229969			0.738589			0.615451			-0.766458			0.297605			0.145497			0.834253			-0.636318			0.00118373			0.615277			0.173857			0.513298			-0.31737			-0.328429			-0.244389			-0.237876			0.600233			0.0432706			0.904074			-0.201987			-0.138342			-0.0348122			-0.79414			-0.729847			0.414582			0.19187			-0.415106			-0.174758			-0.522162			-0.0229248			-0.0383477			0.827694			-0.141892			-0.610908			-0.371954			0.559059			-0.392128			0.559736			0.381415			-0.544562			-0.0998917			0.493068			0.245977			0.0204843			0.800866			0.177424			0.48488			-0.210006			-0.586675			-0.320596			-0.413382			-0.199259			-0.00551772			0.867188			-0.296417			0.04269			0.435184			0.634693			0.449189			0.0802625			0.684469			-0.49904			0.749728			-0.626498			0.564236			-0.342042			-0.778817			-0.549771			-0.148492			0.734145			-0.0827531			-0.0171252			0.172211			0.147195			-0.0928257			0.175747			0.844569			0.0370723			0.0543429			-0.590284			0.58289			0.438547			-0.167666			0.0942275			0.714925			-0.374448			0.147433			-0.085882			-0.643397			-0.146952			-0.640535			-0.631726			-0.473203			0.17947			-0.194136			-0.589516			0.0681479			-0.469521			0.644154			-0.2578			0.359956			0.250896			0.859097			-0.984028			-0.815523			-0.168275			0.629511			0.0445374			-0.233193			-0.31173			0.310325			-0.105668			-0.114143			0.851925			0.451838			-0.0449338			0.305349			0.060026			-0.597765			-0.290224			0.222281			0.483094			-0.377954			-0.1062			-0.771183			-0.271856			0.42132			-0.181494			0.0259193			0.394792			0.451297			0.606412			-0.60225			0.273217			-0.446013			-0.487528			0.382691			-0.0323673			0.0546063			0.471671			-0.143371			-0.163073			-0.753797			0.137827			0.229735			-0.69763			0.626322			-0.274049			0.122792			-0.36526			-0.249429			-0.00867899			0.641266			0.260442			-0.14817			0.843265			-0.0417954			-0.097176			-0.641667			-0.199717			0.986234			-0.176478			-0.402572			-0.36432			-0.121304			0.440368			0.0510451			-0.0281206			0.887445			-0.620683			0.359466			0.147123			-0.0519852			0.893381			0.3161			-0.346829			-0.830806			0.0176477			-0.421961			0.866265			-0.31404			0.211147			0.317944			-0.5194			-0.424699			-0.271719			0.0426483			0.982054			0.0397654			-0.11957			0.296711			0.611005			0.0118304			0.138765			-0.455552			0.411116			0.346527			0.336018			0.305921			0.108622			0.219192			-0.0486965			0.280664			0.630402			-0.839793			0.0576145			-0.287629			-0.378042			-0.404972			0.110547			-0.0847351			0.355533			-0.234321			-0.487117			-0.072044			0.716168			0.590746			-0.645774			-0.12114			-0.0213965			0.232375			0.928584			-0.0958635			0.323697			0.727148			0.0300467			0.428335			0.775116			0.103081			-0.157218			0.478169			-0.452234			-0.124222			0.163426			-0.414535			-0.588177			-0.15861			-0.345918			-0.614577			-0.406952			-0.231942			-0.746528			0.723099			0.571222			0.188078			-0.0972419			-0.0543013			-0.0963921			0.119238			-0.21498			0.445229			-0.0636276			0.719784			-0.235876			0.0727697			-0.176624			0.546707			-0.341365			0.180577			-0.0873013			-0.465113			
-0.0569205			-0.514945			0.435754			-0.13805			0.537174			-0.324589			-0.176295			0.572644			0.484938			0.143982			0.0241327			-0.458909			0.387206			0.384406			-0.0809444			0.714775			0.636027			0.332885			-0.254156			-0.0146688			-0.386496			0.451666			-0.125347			0.182198			-0.0381567			-0.107175			-0.191858			0.130351			0.701656			-0.477297			0.493986			-0.133235			-0.163364			0.840426			0.426816			0.226433			-0.228787			0.232716			-0.145414			0.0321921			0.40253			-0.362968			0.117879			-0.484192			-0.778799			-0.825263			-0.1977			0.397927			0.632564			0.150657			-0.266645			0.0966189			0.209614			-0.423165			-0.054732			-0.210838			-0.272237			-0.475869			0.695242			0.322467			-0.411765			-0.7277			0.340764			-0.787615			0.100107			-0.173033			-0.409743			-0.200344			-0.16066			0.0527837			-0.290876			0.452982			0.0204238			-0.301279			-0.295297			0.6584			0.0251614			0.145639			0.0238079			0.124059			-0.0139026			0.0788578			-0.4327			-0.0924573			0.431251			0.0125397			-0.545518			-0.497901			-0.0133762			-0.543726			0.608597			0.629849			-0.234645			-0.767239			0.872665			0.167865			-0.668501			-0.0829659			0.0322306			-0.540417			-0.42909			-0.239723			0.762594			0.142407			0.0331043			0.79454			-0.7008			-0.155095			0.292559			-0.296617			-0.626852			-0.0930928			0.580194			0.437403			-0.171831			-0.170363			-0.702885			-0.603704			-0.630392			0.0120442			-0.133134			-0.272259			0.244521			-0.276588			0.302887			-0.707301			0.553603			-0.618324			0.107315			0.243102			-0.163733			0.246423			0.0382862			-0.444205			0.28566			-0.223996			-0.0959066			0.231462			0.347404			-0.560834			0.329994			-0.220416			0.314863			-0.481007			0.532726			-0.36374			0.827021			-0.402823			0.486674			0.338998			-0.16118			-0.0619112			-0.653202			0.15469			0.0432081			0.427381			-0.0924468			0.395265			-0.47298			-0.497314			0.446812			-0.00185442			-0.0428119			0.178713			-0.760849			-0.539565			-0.582547			0.204329			0.0142055			0.687462			-0.53759			0.0843055			-0.378448			-0.176626			-0.0141147			-0.971697			0.662596			-0.35507			0.651172			-0.515881			0.50058			-0.933411			0.333426			0.2872			0.153501			0.643197			0.186575			0.724609			-0.558776			-0.0536189			0.189249			0.470698			-0.428756			-0.716936			0.00582783			0.445551			-0.303877			-0.0619611			0.703775			-0.384145			-0.080049			0.178199			0.655279			-0.64761			-0.399467			0.901886			0.651937			0.384247			0.654069			-0.54591			0.0898755			-0.106204			-0.323004			0.345948			-0.177614			-0.149443			0.0189868			0.749658			0.464323			-0.115687			0.704028			-0.202987			0.51133			0.0754965			0.169117			-0.686978			-0.679004			0.461592			0.00135675			0.335315			0.25549			-0.35729			0.187966			0.0540323			0.740454			-0.636768			-0.0501447			-0.278164			-0.79071			0.394568			0.488367			-0.427111			-0.0537256			-0.630674			-0.345046			0.69793			-0.187163			0.142344			0.464213			0.153176			-0.741269			0.184744			0.635636			0.160174			0.118286			0.152847			-0.551193			0.0848355			-0.361712			-0.0600539			0.98288			-0.515585			0.246702			-0.710721			-0.463434			0.393663			0.540557			0.988861			-0.545372			-0.506189			0.10808			0.0825005			0.270721			0.993278			0.636966			-0.2721			-0.0203425			0.441002			0.312248			0.33454			0.333842			-0.619349			0.0375905			-0.337445			-0.144264			0.207989			0.0540744			0.79837			-0.447013			-0.404387			-0.471337			0.122799			0.362953			-0.713049			-0.218914			0.424634			-0.996653			0.0981232			0.156947			0.0177784			0.043823			0.512989			0.0977032			0.58759			0.074325			-0.463135			0.163188			0.681098			0.595355			0.533836			0.528483			-0.916417			0.42206			0.78559			-0.221895			-0.306745			-0.302193			0.109045			-0.276809			-0.608396			-0.713851			0.218359			0.294977			-0.409855			-0.107689			0.229022			-0.588893			0.560665			0.236519			-0.262958			-0.162122			-0.0661047			-0.229016			-0.408363			-0.535024			0.978302			-0.226429			-0.62496			-0.159602			-0.434262			0.194853			0.0544075			-0.422987			-0.192776			-0.218402			-0.105325			0.31946			0.0389451			-0.744779			-0.211645			-0.969409			-0.0267729			0.00282596			0.307231			-0.682446			0.0229071			0.062656			-0.0670787			0.126096			0.0280799			0.116175			-0.175045			0.00484999			0.585971			0.706543			0.527521			0.573565			-0.673104			0.0161106			-0.344979			0.0592218			0.623407			0.871603			-0.322643			0.931531			-0.504638			-0.564409			0.875273			0.460856			0.76425			0.104088			0.116353			0.590147			-0.137762			0.786541			0.316804			-0.210583			0.0494667			0.509061			-0.20926			-0.136603			0.211934			-0.483851			-0.355391			0.500224			0.677323			0.329088			0.764507			0.260609			-0.0674203			-0.249573			-0.498203			0.840116			-0.286467			-0.246924			0.174841			0.101769			0.144111			-0.242735			0.30135			0.26086			-0.0453513			-0.457402			0.00545401			0.669596			0.0438139			-0.473445			0.632505			0.0513807			0.555876			-0.574472			0.101516			-0.151115			0.364701			0.154747			0.0799512			0.48829			0.149091			0.0656858			0.752066			-0.155074			0.246901			-0.427076			-0.343061			0.433272			0.238585			-0.437094			-0.416024			-0.13484			0.00480122			-0.318864			-0.446849			-0.391506			-0.111957			-0.516831			-0.268905			0.731252			0.17731			0.568041			0.280862			-0.323314			-0.572835			-0.591984			0.192214			0.0334978			0.435481			-0.0563906			-0.738906			-0.0536675			0.251995			0.658744			-0.651233			0.0935563			0.0378552			-0.343085			0.45344			-0.44582			-0.244166			-0.513382			0.178657			-0.641776			-0.170459			0.207762			-0.550915			0.540279			0.726951			0.0229477			-0.376775			0.345315			-0.530715			-0.764589			-0.352626			0.0655432			-0.767089			-0.443854			0.294056			0.56015			0.277392			0.118536			-0.122088			-0.383993			0.797926			-0.0346877			0.0651473			0.00614902			0.154009			0.598283			0.0319541			-0.168488			0.258546			
0.986185			-0.0515875			0.377336			0.0673351			0.859811			0.239478			0.329302			0.329517			-0.0488775			0.358713			0.429579			0.502498			-0.493529			-0.141055			0.0911135			0.135276			0.169671			0.130401			0.182203			0.801976			0.241028			0.598539			-0.172152			-0.018689			0.138375			-0.386226			0.0127473			-0.208412			0.569976			0.603198			-0.264231			-0.524342			-0.27673			0.135385			0.382483			-0.710175			-0.899184			-0.397568			-0.997569			-0.544565			-0.564502			-0.516919			-0.678612			0.431632			-0.6157			0.238621			0.138925			-0.185202			0.618952			0.14629			-0.604238			-0.807752			-0.723268			-0.0921511			-0.84155			0.0284742			-0.0537018			0.70304			0.469209			-0.475448			0.0367165			-0.0757087			0.114409			0.280991			0.594002			-0.877245			-0.0648449			-0.296838			0.0628462			0.646291			-0.904173			-0.108254			0.74949			0.510091			0.327676			-0.387896			0.129321			0.223634			0.814152			0.00393148			0.530852			-0.629251			-0.592882			0.45058			-0.317435			-0.807886			-0.986461			-0.0621984			-0.187227			0.173972			0.645947			0.348479			-0.00106263			-0.156954			0.0876569			0.386107			0.497309			-0.417805			-0.183548			-0.163999			-0.127571			-0.332164			-0.157056			0.144698			-0.0414057			-0.0921432			-0.240775			0.156573			0.510064			0.0404395			0.366406			-0.210194			0.106194			-0.130148			-0.725533			-0.0510329			0.025725			0.134386			0.881071			-0.534635			-0.429677			0.41968			-0.802079			0.171503			0.323059			0.0156268			0.846714			0.273047			-0.321274			-0.443834			-0.160663			-0.357541			0.144529			-0.116875			-0.915905			-0.28792			-0.503947			0.375965			-0.442492			-0.190122			-0.0615883			-0.829571			-0.427928			-0.153934			0.670048			-0.170563			-0.119319			-0.187109			-0.100821			0.0242536			-0.046397			0.204099			0.292058			-0.0500681			-0.266619			-0.437436			0.0557509			-0.414515			0.303744			-0.643642			-0.0910514			0.453444			-0.294983			0.490411			0.591808			-0.328502			-0.494314			0.491806			-0.125421			-0.00370297			0.156169			-0.0979006			-0.175589			0.51272			0.418556			-0.125211			0.419564			-0.342771			0.659721			0.244163			0.509819			-0.0347807			-0.216643			-0.082058			-0.25791			-0.35521			-0.811123			0.187116			-0.152403			0.479518			-0.129741			-0.284168			-0.813922			-0.382419			-0.0166724			-0.205109			-0.932215			-0.774732			0.0592428			-0.448761			0.815538			0.833718			-0.17933			-0.301465			-0.415857			-0.148668			-0.646214			-0.311257			0.361452			0.326887			-0.141697			0.412104			-0.419044			-0.114905			-0.433533			0.153616			0.387142			-0.329228			-0.710437			-0.147933			0.141902			0.519965			0.13297			-0.913954			-0.447999			-0.0613965			0.538671			-0.00682512			0.0410163			-0.367524			-0.28924			-0.636584			0.901361			0.0656834			-0.48012			0.161861			-0.623484			0.43474			-0.216614			0.360773			-0.661551			0.727864			0.0331554			0.610312			-0.784976			0.591843			0.318192			0.312848			-0.755541			0.338612			0.34256			0.737992			-0.211786			0.190631			0.438165			-0.434255			0.258139			-0.401505			0.435399			0.744687			-0.138646			0.667217			-0.164836			0.0713919			-0.634483			0.543386			0.290915			0.176162			-0.182797			-0.430267			0.0220482			-0.653731			0.616014			0.0909032			-0.366466			0.678556			0.163875			0.0492839			-0.385365			-0.809786			0.184469			0.282944			0.317201			-0.496296			0.875173			-0.0164134			-0.144389			-0.00607857			0.0225723			0.172625			-0.164102			0.518192			-0.296879			-0.259642			-0.612729			-0.716403			-0.379805			-0.109963			-0.0620379			-0.830671			0.0443259			-0.165234			-0.0202866			-0.374873			0.369752			-0.327217			-0.698532			0.475356			-0.0385741			0.988364			0.0983678			-0.102087			0.390448			0.285028			0.574301			0.307795			-0.323648			-0.773485			0.145466			0.0175155			-0.169561			0.223163			-0.536081			-0.269459			-0.142561			-0.402305			-0.0833068			-0.377511			0.439859			0.43477			-0.17767			0.0613811			-0.0876639			0.182128			-0.243245			0.394784			0.352204			-0.855157			-0.626933			0.214339			-0.660997			0.32732			0.066722			-0.251615			-0.227481			0.900142			-0.177478			-0.025433			0.13168			0.381913			-0.276543			0.257943			0.639033			0.897636			0.578398			0.129043			-0.42314			-0.248719			-0.268611			0.710061			0.430859			0.239856			0.00669941			-0.211219			0.541225			-0.446166			0.286227			-0.0711025			-0.132518			-0.39661			-0.281339			-0.210925			0.17646			-0.0677809			-0.404104			-0.155845			-0.430708			-0.249984			-0.442258			0.24265			0.493656			-0.856237			0.291172			0.133163			0.769203			0.36968			0.28713			-0.00475531			-0.618405			-0.404041			0.336286			0.47219			-0.328198			0.340845			-0.126754			-0.382693			0.328345			0.95977			0.498178			0.0579063			0.921669			0.796409			0.474882			0.392529			-0.386016			0.0752179			0.699322			0.418834			-0.120433			-0.422052			-0.368774			0.00874209			-0.556486			-0.407961			-0.246582			-0.0120984			-0.12149			0.606195			0.0883861			0.0101642			0.215791			-0.0507528			-0.560104			-0.767903			0.122277			0.0792127			0.297961			-0.21478			-0.0314918			-0.249482			-0.0836706			-0.0382234			0.146409			-0.229228			-0.15435			-0.437176			0.390608			0.373273			0.0783536			-0.746028			-0.64059			-0.811953			-0.255076			0.767885			-0.0475272			-0.174708			0.323246			-0.496573			-0.519697			0.200364			0.132811			0.177334			0.0538089			-0.403235			-0.000520105			-0.155831			-0.195318			0.651668			0.0329181			-0.262299			0.65081			0.834816			0.408968			-0.168512			0.175219			0.369227			0.176685			0.11266			-0.0134098			0.0742116			0.054226			-0.135337			0.198411			0.0695689			-0.190788			-0.355151			-0.6537			-0.0982141			-0.0103336			-0.312939			0.7319			0.382411			0.249737			0.571773			0.34678			-0.683661			-0.658304			-0.472893			0.228997			0.41437			-0.371			0.029669			0.926366			0.917239			-0.524746			-0.416265			0.330648			0.289632			0.784402			0.584491			
0.303293			0.482056			0.468598			0.328817			-0.594375			-0.734317			-0.707098			-0.578632			0.446157			-0.268554			0.00318263			-0.000459808			-0.473672			-0.426321			-0.3409			-0.0839594			0.765121			-0.0608826			-0.586309			0.000275387			-0.712982			0.216929			0.570657			-0.0604167			0.76243			-0.724755			0.762653			-0.0373482			-0.365456			-0.0117647			-0.258956			0.456665			0.375245			-0.25272			0.631057			-0.718775			-0.0245438			0.158099			0.176532			0.262871			0.0474146			-0.134865			-0.0166556			-0.0825174			0.696469			0.00572803			0.595492			0.044433			-0.414048			0.162929			0.475907			-0.736623			0.00874756			-0.415375			0.724662			0.152114			0.410611			-0.480285			0.0128936			-0.0289889			0.163758			0.237865			0.108996			0.310387			-0.753378			0.224904			0.523221			0.0445746			0.810557			-0.407939			0.529256			0.71244			-0.0654543			0.019502			-0.797844			-0.151934			-0.773996			-0.774265			-0.863603			-0.0374553			0.306194			-0.479588			-0.702488			-0.1223			-0.495301			-0.258773			0.737096			-0.346834			0.0291352			0.443062			-0.71383			0.088866			-0.526532			0.0116448			0.391651			0.542466			0.0836039			-0.209116			-0.322684			-0.0917293			0.0225968			-0.159849			-0.0842711			0.410043			-0.390201			0.28324			-0.42615			-0.147805			-0.140958			-0.209198			-0.0863596			-0.459476			-0.246699			0.0651938			0.226866			-0.385656			0.114599			0.377414			0.294818			0.424858			-0.652076			0.278739			0.0229881			-0.7771			-0.263674			0.30303			-0.18236			0.207545			-0.35913			0.28231			0.0156045			0.0521676			0.379134			-0.394866			-0.0438079			-0.586714			0.0482018			0.643043			0.567717			-0.274842			0.102259			-0.383474			0.213751			0.716204			0.0228628			0.00157759			-0.22727			0.0193128			-0.756254			0.249086			-0.735561			-0.134101			0.0671425			-0.0847111			0.397443			0.488028			-0.382879			-0.151001			-0.555471			-0.721398			-0.65951			-0.223562			0.12473			-0.11996			-0.641281			-0.426469			0.132808			-0.0489923			0.161865			-0.358105			0.413474			-0.14659			0.118654			0.382151			-0.277183			-0.391595			-0.528449			0.218583			-0.099233			0.205653			-0.0651985			-0.274163			0.759733			0.538485			-0.569018			-0.487373			0.554512			0.539617			0.0100412			0.658194			-0.447853			0.354736			-0.0469496			0.594494			0.654949			-0.488744			0.902513			0.2935			-0.540672			-0.645237			-0.136803			0.368491			0.10196			-0.0227799			-0.476967			0.230088			-0.230366			0.832321			0.106712			0.197188			-0.530071			-0.521003			-0.100067			-0.838296			0.217383			0.795194			-0.252059			0.385077			0.155892			-0.554132			-0.0564037			0.228914			0.332127			-0.441561			0.768809			-0.558684			0.342686			-0.231327			0.000184358			-0.658294			0.255048			0.0412929			0.351052			-0.0847475			0.0550856			0.487286			0.0179404			0.100319			0.436767			-0.27995			-0.0503026			-0.028905			-0.36389			-0.241006			-0.539349			0.0209407			0.503789			0.222768			-0.290205			0.296887			-0.0644164			-0.229383			0.841307			0.166135			-0.436365			-0.714433			-0.181341			0.108704			0.0990851			0.394353			-0.181471			0.0247183			-0.128033			-0.509533			0.216426			0.88568			0.232234			-0.546047			-0.0247903			-0.366214			0.790298			0.065618			0.331674			0.312659			0.168814			-0.681694			0.737301			-0.0586625			0.339704			-0.574715			-0.341718			-0.0658182			-0.255709			-0.128678			0.123845			0.870785			-0.634067			-0.903383			0.86081			-0.155498			-0.30525			-0.50052			0.0694631			0.77378			0.411559			-0.170458			0.301837			-0.0853812			-0.02269			-0.137428			0.0532959			0.15819			-0.165903			-0.379766			-0.104759			-0.141838			-0.527108			-0.718587			0.484735			-0.434967			-0.703724			-0.487709			0.0193902			-0.197242			0.338461			-0.544529			-0.204911			0.0419479			-0.264264			0.606477			-0.51489			0.0511641			0.249363			-0.0891034			-0.312293			0.736644			0.38305			-0.279108			-0.238302			-0.344898			-0.747618			0.134904			0.267589			0.704283			0.196719			-0.215852			-0.591274			-0.332258			-0.852835			0.243493			-0.127595			-0.203275			-0.19551			-0.576541			0.0974477			-0.335316			0.0224369			0.000752381			0.165571			0.610693			0.350647			-0.650131			-0.427649			-0.843242			0.652365			-0.26327			-0.0914292			-0.0786782			0.385151			0.134269			0.164172			-0.585554			-0.00347732			0.648003			-0.941267			0.664338			0.468935			-0.00809513			-0.743207			0.842762			-0.268765			0.0944389			-0.931342			0.299666			-0.0556793			0.243302			-0.452933			0.438642			0.6271			-0.13381			0.607254			0.466989			0.366537			-0.255604			-0.293097			-0.405258			-0.621264			-0.564264			0.971714			0.816235			0.119092			0.731965			-0.27661			0.43091			-0.825983			-0.121057			0.716286			0.223907			0.182739			-0.430218			-0.0395022			-0.279564			0.142428			-0.871622			0.440136			0.890552			-0.32056			0.623973			-0.0615331			-0.169933			-0.688289			0.184176			0.267346			0.0789757			-0.0929321			0.551231			-0.0526684			-0.144053			0.546237			-0.464684			0.270059			-0.0889857			-0.867187			-0.193443			-0.334716			0.195796			-0.224863			0.397266			-0.664885			0.219679			-0.701259			-0.217697			0.25928			-0.318159			0.762574			-0.048484			-0.167943			-0.461633			0.744612			-0.23527			-0.781805			0.429132			0.700947			0.125766			0.654589			-0.647696			-0.55046			-0.48949			0.509958			-0.0152335			-0.453203			0.348122			-0.0971622			-0.133094			0.496013			-0.735495			0.0251048			-0.0880467			-0.20645			-0.192518			0.573223			-0.522137			0.216645			-0.50495			0.126432			-0.4134			-0.277283			0.222182			0.103389			0.134482			0.0018492			0.0608488			-0.430129			-0.542642			-0.46267			-0.66812			-0.196906			0.16723			-0.557787			-0.256934			-0.547249			0.529758			-0.569207			-0.917701			-0.158918			-0.775084			-0.495153			-0.114754			-0.0697283			-0.287396			8.74548e-05			-0.0311368			0.0312491			0.0967712			-0.775908			0.115131			0.472155			0.0120784			-0.046968			0.351601			
-0.0608957			0.028162			-0.62622			-0.787063			0.723801			0.209772			0.577355			-0.0430861			-0.550784			0.487074			-0.404392			-0.214266			-0.115221			0.464358			-0.0942864			-0.271998			-0.439602			-0.520827			-0.755183			0.328127			-0.316625			-0.876971			-0.106332			0.925563			0.238608			0.351757			-0.152705			0.552357			-0.259395			-0.26565			-0.190837			-0.368671			0.120995			-0.65263			0.93661			0.612877			-0.436412			0.0313533			-0.930248			-0.00994625			-0.24272			-0.388869			-0.602581			-0.175048			0.13304			-0.318415			-0.0755115			-0.481793			-0.0826397			-0.212366			0.465964			0.226588			-0.530898			-0.636822			0.0650119			0.763385			-0.957795			-0.363752			-0.544232			-0.892987			-0.396748			-0.307788			-0.842541			0.308931			0.669703			-0.0919478			0.183504			-0.929372			0.29873			0.378568			-0.994852			-0.220243			0.0325446			0.567767			0.394696			0.409071			-0.246843			-0.498372			-0.353491			-0.28422			-0.389793			-0.207151			-0.445329			0.0128399			0.409621			-0.0572514			0.353699			0.394967			0.141803			-0.0155447			0.847875			-0.604009			-0.598159			0.477496			0.357889			0.151176			-0.304581			0.100391			-0.398503			-0.126834			0.0814585			-0.103139			0.372959			-0.287823			-0.476092			0.85086			-0.0421279			0.349422			0.209321			-0.742623			0.962554			-0.242524			-0.199006			-0.827792			0.3371			-0.0975172			0.863024			0.254261			0.029698			0.341588			0.0625045			0.373083			0.0572864			0.4611			0.678176			0.294122			0.321348			0.590437			0.419367			0.121517			0.0703917			0.136546			-0.747803			-0.00963105			-0.325405			-0.309886			0.340154			0.791401			0.154773			0.20148			-0.187396			0.212614			-0.219013			-0.10853			0.178355			0.20559			-0.690179			0.970512			-0.0984653			0.859137			0.205998			-0.586488			-0.756523			-0.130263			0.49461			0.418759			-0.318918			-0.783039			0.388617			-0.385368			0.515421			-0.41813			-0.168433			0.442723			0.378361			0.465269			-0.705543			0.674936			0.463962			-0.198681			-0.836229			-0.148375			0.307047			0.314629			-0.179			0.578145			0.302725			0.491067			0.335855			-0.631672			0.00376093			0.577108			-0.459456			0.331412			-0.132832			0.384761			0.125187			0.56681			-0.35846			-0.271616			0.578418			-0.78106			-0.514174			0.131201			0.539676			-0.00685847			-0.0768903			0.288524			0.823908			0.0411905			-0.491301			-0.3556			-0.649748			0.0563117			0.778932			0.242444			0.403487			-0.0170864			0.335816			0.019902			-0.221087			-0.172584			-0.20631			-0.361876			0.674235			0.0608559			-0.104289			-0.531532			-0.605459			0.4032			-0.406526			-0.168036			0.21009			0.167044			0.432812			0.106841			0.553814			0.121559			0.165881			0.170504			-0.377332			-0.111572			-0.0479311			0.468595			0.472376			-0.635554			-0.963487			-0.259953			-0.489987			0.565022			0.392479			-0.380685			-0.045141			0.112032			0.279756			-0.868162			0.138517			0.796897			-0.202165			-0.557736			-0.219395			-0.633323			-0.00604635			-0.403369			-0.227325			0.176228			0.238657			0.174601			-0.5416			-0.661842			-0.359319			-0.203483			0.182161			0.561526			0.185064			-0.394748			0.389855			-0.0242614			-0.536235			0.339			-0.965936			-0.519989			0.0329821			0.112925			-0.10572			-0.275931			0.54982			-0.209453			-0.0872259			-0.660481			0.382319			-0.45967			-0.394127			-0.554297			-0.0825687			0.0868178			0.39284			-0.181288			0.461498			0.397208			0.123418			0.11175			-0.721274			0.0648008			-0.534976			-0.19733			-0.472084			0.272433			0.334474			-0.286334			0.632944			-0.779518			0.111057			0.210065			0.143119			0.208503			0.412244			-0.195173			-0.904413			0.0276656			-0.661997			-0.064662			0.346249			-0.082386			-0.286981			-0.463521			0.907659			0.0581603			-0.376139			0.167577			-0.401823			-0.611664			-0.339392			0.209759			-0.327098			-0.802049			0.0906282			-0.264785			-0.645738			0.556348			-0.277043			0.959672			-0.553189			0.329292			-0.0692242			0.067742			0.202413			0.383131			-0.727641			0.760052			-0.0632045			0.403435			-0.172565			0.351901			0.655778			-0.703902			-0.324045			-0.261921			0.417736			-0.923565			-0.549642			0.373158			0.639587			0.108342			-0.261236			0.856796			0.447339			0.339672			-0.298431			-0.269205			0.139255			0.606942			0.0444166			-0.489811			0.271127			0.534761			0.0022747			-0.171176			0.953608			-0.417849			-0.271592			-0.895029			-0.66893			0.409665			-0.0308571			-0.432413			-0.281671			0.106223			-0.314338			0.303345			-0.147771			-0.367943			0.235984			0.0365756			-0.179871			0.436057			-0.582058			0.207174			0.231413			-0.48294			-0.5673			0.0555709			0.682273			-0.475758			-0.12163			-0.0263125			0.346519			-0.330373			-0.00108003			-0.171885			-0.048912			0.245286			-0.444176			0.888586			0.574875			0.747614			0.119177			-0.635806			-0.132869			0.585684			-0.204461			0.265825			0.0942591			-0.19439			-0.831253			-0.14143			0.349625			-0.542114			-0.731092			-0.232391			-0.658942			0.415392			-0.289183			-0.0405536			-0.104128			0.0255925			-0.281345			-0.580949			0.404049			0.0835459			0.282924			-0.0400423			0.189917			0.124998			0.660349			0.513263			0.266139			-0.403957			0.644058			-0.319245			0.482821			0.745617			0.125297			-0.0398973			0.248376			0.473209			0.801788			0.195725			-0.00197211			0.0448619			0.482379			-0.111073			-0.274687			0.619335			0.532793			0.211548			0.0888177			-0.0623841			0.569513			-0.345554			-0.239941			0.257204			-0.698108			-0.436554			-0.525636			-0.263019			-0.408603			0.321371			0.767145			-0.995145			0.206889			0.583477			0.0867167			-0.344647			-0.487459			0.393274			-0.359074			0.0207861			0.268119			0.622112			-0.569134			-0.181512			0.167796			0.0494069			0.0881782			0.05656			0.917369			-0.25245			-0.714662			0.572999			-0.560669			0.857127			0.367036			0.187538			0.353284			0.0763992			0.170492			-0.274701			-0.163321			-0.251752			
-0.42522			-0.37147			0.662313			0.0488287			-0.550333			-0.589405			-0.794965			0.199728			-0.41624			-0.604558			0.119687			0.35853			-0.31712			-0.201212			0.633297			0.358695			0.407838			-0.559459			0.184986			-0.45131			-0.131959			-0.129856			-0.024857			-0.221769			-0.234516			-0.0893342			0.832466			-0.820641			0.162708			0.319798			-0.0265736			0.0184076			-0.226648			-0.423813			-0.447463			-0.216717			0.604238			-0.0163309			0.0564305			-0.870779			0.621096			-0.342485			-0.345524			0.186276			-0.668662			0.317528			0.117649			0.641387			0.22785			0.0773382			-0.65203			-0.241322			-0.0376574			-0.144253			-0.3669			0.116799			-0.534634			-0.602368			-0.45371			-0.985614			-0.382727			-0.145185			0.0852339			0.147032			-0.572453			-0.0172007			-0.51387			0.645257			-0.157204			0.244532			0.305218			0.243604			-0.603585			-0.182846			-0.166799			0.134498			0.199149			-0.395706			-0.0584379			0.72486			-0.982838			0.39915			0.00622219			-0.000538231			-0.313224			-0.0550776			0.118807			0.179411			-0.547088			-0.0633168			0.263585			0.347292			-0.811668			-0.269219			0.0405821			-0.289374			-0.132027			-0.738855			0.365893			-0.00351188			0.0298534			0.664242			-0.0154196			0.449683			-0.625372			-0.149275			-0.139731			-0.118154			-0.0928644			0.0172834			-0.223609			0.121439			0.0562937			0.602232			-0.279065			0.40995			-0.637546			0.233533			-0.0496081			-0.501576			0.104264			-0.277525			0.634705			-0.70833			0.108732			0.176773			0.431446			0.0163895			-0.392003			0.188639			0.2988			0.065004			-0.0070766			0.454313			-0.946328			-0.214745			0.719181			-0.328607			-0.149435			-0.535693			-0.0648728			-0.230033			-0.974929			0.0597371			-0.251522			-0.507978			-0.0085754			0.111217			0.384283			-0.332728			-0.282179			0.958138			0.537273			-0.134354			0.0555335			-0.402063			-0.244188			0.547052			-0.386426			-0.0287877			-0.350639			-0.182123			-0.0375451			-0.513156			0.281157			0.205111			0.685781			-0.527444			0.263888			0.317169			0.557069			0.559584			0.0856582			0.738371			-0.476887			0.643141			0.35989			-0.433578			-0.5252			-0.992719			0.198788			-0.28324			0.165283			0.601426			0.0850681			-0.713591			-0.386295			-0.427388			0.327357			-0.0901094			-0.0972216			-0.0230338			-0.436327			-0.146851			-0.0310027			0.511544			0.36684			-0.144535			-0.494329			0.225958			0.378042			-0.309525			-0.218129			-0.285438			-0.316071			-0.606288			-0.317175			-0.0757254			-0.6274			0.0300813			-0.308087			-0.907399			-0.61397			0.498669			-0.823185			0.555996			0.592477			0.150873			-0.0970356			-0.124871			0.120089			-0.175379			0.625804			0.523555			-0.0487399			0.12061			-0.224698			-0.139406			0.3496			-0.173959			0.851533			-0.075551			0.479554			-0.426094			0.905909			-0.405494			0.609003			-0.538052			-0.365165			0.135581			0.473546			-0.316285			-0.509626			0.569663			-0.365109			0.176212			0.790896			0.597833			-0.108694			0.11042			0.095657			-0.265988			-0.297384			0.0822988			0.0530492			-0.208595			-0.733087			-0.486254			-0.575529			0.80407			-0.0211867			0.688299			-0.331786			-0.113836			0.196788			-0.624307			-0.24135			0.291436			-0.711485			-0.156254			0.0867604			-0.375906			-0.37277			0.0927722			-0.152682			-0.157879			0.241246			0.254433			0.210374			-0.426649			0.714194			-0.150226			0.262651			0.516604			-0.842264			0.0749065			-0.125289			-0.326409			-0.317955			-0.376566			0.154227			-0.104241			-0.460646			0.19381			0.283575			0.432413			-0.107547			0.317317			0.481058			-0.040725			0.546903			-0.500006			-0.130819			0.440153			-0.0798115			0.0906839			-0.518991			0.442276			-0.766316			0.935117			-0.0762304			-0.935322			0.493108			-0.626331			-0.930473			0.772105			-0.0698307			0.26839			0.308334			0.493912			-0.431983			0.302501			-0.235322			0.0810683			0.895228			-0.0955445			0.0194464			-0.160893			0.635939			0.276421			-0.543599			-0.225552			-0.0157463			0.342843			0.316032			0.341916			-0.232399			-0.55254			-0.102111			0.850205			0.191168			0.431269			0.542805			-0.0662286			0.165252			0.497678			0.553946			0.422176			-0.175211			0.00917107			0.682751			0.681192			-0.0614487			-0.141055			-0.52009			-0.830681			0.17185			0.671429			-0.0210358			0.0465735			0.113011			-0.184462			-0.890505			0.412665			-0.340943			0.30079			-0.224366			0.455538			-0.330572			-0.237468			-0.55412			0.291219			-0.671913			0.213914			-0.171481			-0.148827			-0.263941			0.175775			-0.184578			-0.095161			-0.20931			0.0124453			-0.699195			0.0341415			-0.229747			0.747752			0.700276			-0.405203			0.146873			0.959155			-0.48899			-0.385383			0.294027			0.0731788			-0.572459			-0.559123			-0.75344			0.231352			0.498079			-0.644477			-0.420146			0.043965			-0.341734			0.470164			0.601015			-0.408674			0.622559			0.30661			-0.274802			0.509105			-0.426234			0.37666			-0.625828			-0.597072			-0.689856			-0.249711			-0.379649			0.413852			-0.492122			-0.0997121			-0.538899			-0.104071			0.993719			-0.756519			-0.0215806			0.0447545			0.130129			0.345975			-0.333423			0.618368			-0.124608			-0.116564			0.858596			-0.116039			-0.12853			-0.124238			0.52877			-0.735602			-0.4812			-0.036929			0.445713			-0.768356			0.0807152			0.286934			0.357399			-0.383793			-0.0868112			-0.243615			-0.187024			0.0411252			-0.272535			-0.198585			-0.669432			-0.509799			0.0799751			-0.565061			0.272234			0.163406			0.717603			0.0902988			0.136028			0.651			0.145923			-0.236615			0.0990062			-0.550788			-0.322864			0.0553115			0.498135			-0.801231			0.224707			0.164653			0.361416			0.25097			-0.290739			-0.454554			-0.288496			0.0880438			-0.0205605			-0.0508622			0.178367			0.317372			0.733371			-0.161523			0.117699			0.0786719			-0.31104			-0.508552			0.539856			-0.571711			0.55916			-0.463208			-0.369177			-0.442254			0.16402			-0.547494			-0.290597			0.645336			-0.765046			-0.350307			
0.00500701			-0.36117			0.45017			-0.948537			0.706702			-0.656874			0.191793			0.25025			0.9905			-0.747977			-0.709176			-0.267529			0.922916			0.644826			-0.201823			-0.641718			-0.629734			0.128693			0.0687295			-0.953			-0.756815			-0.341277			0.277699			-0.670997			0.0668938			-0.456658			-0.255208			0.148691			0.464079			-0.183935			0.30969			0.0458171			-0.237973			-0.374299			-0.0118026			0.111447			0.090963			0.429957			-0.05637			-0.737448			-0.0441455			-0.418347			-0.205132			-0.810278			0.339551			0.912162			-0.587262			-0.520933			-0.4756			-0.604697			-0.243302			0.518531			0.0753234			0.30184			-0.0984547			0.120516			0.488418			0.37827			-0.530903			-0.383368			0.351116			0.186013			-0.269035			-0.186076			0.42479			-0.291422			-0.488801			-0.206584			-0.230879			-0.270986			-0.515478			0.221824			0.678793			-0.241159			-0.537983			0.144605			-0.4734			-0.28415			-0.74543			0.316417			-0.361314			0.419346			-0.605177			0.482855			-0.804936			-0.131911			0.148056			-0.0651259			-0.440298			-0.316241			-0.606829			-0.181606			-0.163123			0.0331616			-0.0967814			-0.134524			0.0962301			0.254683			0.74256			0.681173			-0.182176			0.726482			0.357742			-0.125302			0.328371			0.148385			0.571875			0.108046			-0.212937			0.000862253			0.647258			0.365184			-0.258444			-0.00310371			0.102304			-0.164305			0.257414			-0.314473			0.162261			-0.04373			-0.205138			0.886418			-0.69878			0.88037			0.0346874			-0.0183493			0.115218			-0.843818			-0.230344			-0.230141			-0.106951			-0.268847			0.00624414			-0.202973			0.364858			-0.184023			-0.0789597			0.0320399			-0.308827			-0.798143			-0.574712			0.340906			-0.200201			0.170109			0.27416			-0.788613			0.529774			-0.0447041			-0.330863			0.591652			0.535766			0.358439			-0.105113			0.848983			0.929819			-0.968918			0.490704			0.189618			0.0965054			0.321663			-0.0182189			-0.287687			0.551455			0.599361			-0.151447			0.987584			0.612087			-0.0148195			0.960059			0.102315			-0.237065			-0.243996			0.328878			0.0405778			0.104203			0.594694			-0.0434112			0.406515			0.0738424			-0.494944			0.318589			-0.25919			-0.148344			-0.178077			0.470176			-0.0677812			-0.0526814			-0.00423783			0.841799			-0.508605			0.879582			0.725011			0.040283			-0.630684			-0.559458			-0.352143			-0.12305			0.515603			0.251855			-0.339248			0.849049			0.467534			-0.23856			-0.116968			-0.604113			0.551703			-0.276835			0.710816			-0.241585			-0.906048			-0.113081			-0.0191841			0.0957371			0.0578791			0.355772			0.131756			0.218033			-0.506461			0.147899			0.0580859			-0.347448			0.0841298			0.285367			0.00647497			0.591392			0.591029			-0.179753			-0.0877311			0.0746133			-0.409141			-0.260822			0.0217797			0.681692			-0.275213			0.594013			0.426853			-0.0215468			0.199378			-0.512113			-0.0758914			0.628535			0.667251			0.135728			0.168656			-0.17002			-0.633966			0.615904			0.0108463			-0.133003			0.0861976			-0.346604			0.627665			0.187672			0.103869			-0.39334			-0.20416			0.291172			-0.0851124			-0.983189			0.360385			0.00672819			0.711482			0.0288409			-0.260221			0.106972			-0.0593901			0.049317			0.156864			-0.0480725			0.134917			0.258848			0.365415			0.228362			-0.315598			0.338497			0.239112			0.0433196			-0.328738			-0.77774			-0.528116			0.140667			0.356911			-0.330424			-0.14491			-0.0197731			0.743877			0.7574			-0.0487685			0.307147			0.0414275			-0.0352841			0.337129			-0.00391759			0.87694			0.503378			0.510974			0.770482			0.0889787			0.271179			0.850107			0.0866114			-0.52372			-0.144029			0.100091			-0.028419			0.0755756			-0.569845			-0.858184			-0.441691			0.047484			0.835953			0.227548			0.532907			0.12799			0.0684554			-0.142717			0.420985			-0.187593			-0.0130139			-0.0355674			0.0838627			0.301144			0.00432653			0.492258			0.492877			-0.452525			0.616821			0.511908			-0.276994			-0.108781			-0.633334			0.212649			0.54243			0.595177			-0.022847			0.716228			-0.63675			-0.0480355			0.0443326			0.202112			-0.305201			0.128254			0.0481283			0.416658			0.114751			0.0235772			0.292512			-0.12439			-0.136791			0.928739			-0.111664			0.822149			0.542483			-0.390303			0.284564			-0.67269			0.0592682			0.166569			0.188866			-0.260988			0.179393			0.555276			-0.486278			-0.357413			-0.586584			0.597265			-0.078664			-0.129893			0.374422			0.13959			0.0916044			-0.607008			-0.016375			-0.0665822			-0.41559			-0.361328			-0.357747			0.266952			-0.225519			-0.129595			-0.440858			0.465193			0.0858654			0.613168			0.183393			-0.102769			-0.612209			-0.21076			-0.074242			-0.183372			-0.719536			0.0220055			-0.00768029			-0.739046			-0.0509402			-0.279253			-0.804761			0.997374			0.111276			-0.302133			-0.0151061			0.193898			-0.083558			0.0337176			-0.119465			0.254823			0.533145			0.0613033			0.363721			-0.14729			-0.423007			-0.101088			-0.0266461			0.00283991			-0.404985			-0.22704			-0.0306578			0.232599			-0.382724			0.248014			0.031021			0.794561			0.253702			0.115349			-0.305196			0.34737			-0.295771			-0.436042			0.173942			-0.0828105			-0.140704			-0.658649			-0.0340944			-0.509979			0.793178			-0.209635			-0.899537			0.577343			0.338257			0.147351			0.307125			0.107908			-0.0227699			0.0443858			0.258515			-0.400638			-0.517037			-0.671809			-0.801024			-0.135258			0.131015			-0.129762			0.137972			0.545479			0.290891			0.0226377			0.21458			0.823031			0.722286			0.0747776			0.523002			-0.549809			-0.198965			-0.0863199			0.0339018			-0.399439			-0.0856531			-0.660587			-0.48283			-0.273558			0.0310713			0.170847			0.258605			-0.139423			-0.219363			0.426201			0.135096			0.225012			0.305127			-0.192838			-0.168606			0.0202753			-0.149206			0.131147			0.335857			0.123109			-0.34109			-0.146488			0.258246			0.121092			0.576993			0.341908			0.136514			0.089607			0.220179			0.0857171			-0.115468			-0.357858			0.680379			-0.0956636			
0.472724			0.0411616			0.154346			-0.623239			-0.972537			-0.0724625			-0.6518			-0.266335			0.35259			0.681905			-0.12836			-0.3733			0.446047			0.492561			0.751872			0.149381			-0.261185			-0.471839			-0.750452			0.556923			0.0561232			0.425702			-0.562789			0.729432			0.937458			0.147024			-0.260789			0.560621			0.767452			-0.160437			-0.847846			-0.856772			-0.900829			-0.31144			0.215404			0.237906			-0.140407			-0.646564			0.0260013			0.335467			0.205314			0.0363485			-0.711161			0.10448			0.442446			0.246828			0.117746			0.0678144			-0.274409			-0.287606			-0.248694			-0.369988			-0.253672			-0.449626			0.43314			-0.383838			0.164247			0.365175			-0.271011			-0.0992962			0.309367			-0.514456			-0.0486197			0.210994			-0.838599			0.621826			0.603628			-0.439765			-0.424415			-0.279626			0.000188812			0.415289			0.231352			-0.0677624			-0.339239			0.00623167			0.500333			-0.14879			0.619814			0.259725			0.0277332			-0.216759			-0.440309			-0.879103			0.380195			-0.116301			-0.777969			-0.455166			0.627267			0.356684			0.154863			-0.465368			-0.849677			0.121711			0.64784			-0.31735			-0.0995548			0.383562			0.277094			-0.0563754			0.436469			0.436997			-0.854547			0.0944311			-0.319582			0.274372			0.622861			-0.148001			0.258671			-0.348648			-0.379944			-0.104052			-0.396531			0.0209298			0.337957			-0.379891			0.12536			-0.485515			-0.291865			0.48916			0.464497			-0.568934			-0.865624			-0.790317			-0.183269			-0.700063			-0.400934			-0.384669			0.48619			-0.353771			0.574196			-0.150666			0.232741			-0.477326			0.875974			-0.61891			-0.733235			-0.187337			0.569902			-0.0704783			0.457775			-0.670993			-0.840764			0.228574			0.666742			0.129302			-0.861097			0.34985			-0.3687			0.388473			-0.700173			0.226682			0.0121702			-0.00335965			0.306353			-0.0363718			0.624759			0.0359423			0.25545			-0.0803161			0.20661			0.445061			0.5126			-0.594195			-0.80407			-0.431212			-0.403913			0.767489			-0.383842			-0.115398			0.371694			-0.259778			0.198726			0.186866			0.221462			0.773694			-0.195144			-0.89897			0.361857			0.258753			0.235563			-0.934277			0.386757			-0.105829			-0.252003			-0.4798			-0.26408			0.511665			-0.355281			-0.068505			0.226311			-0.0470645			0.615276			-0.267575			-0.674964			-0.563883			-0.444965			-0.0426596			-0.300934			-0.665503			-0.248881			-0.741116			0.313532			0.273409			-0.181959			-0.100956			-0.467495			-0.544884			-0.0400453			-0.456563			-0.0245401			0.481437			0.309073			0.346497			0.232853			-0.996351			-0.560453			0.559875			-0.0708644			0.761613			0.256996			0.553729			0.0727321			-0.728994			0.148198			-0.315182			0.272083			-0.0418593			0.157577			-0.174789			-0.3437			-0.494651			0.226032			-0.492335			0.455743			-0.270262			-0.336245			-0.514621			0.620842			0.118974			-0.627919			-0.116531			-0.297449			-0.38622			-0.322119			0.313073			0.397622			0.282465			0.507804			-0.821039			-0.742984			0.188042			-0.828164			-0.820452			-0.738727			0.713624			-0.114777			-0.561506			-0.0288138			-0.0998465			0.113011			-0.558401			0.142921			-0.580336			0.397536			-0.081233			-0.0116955			0.272689			-0.122666			0.268658			0.623811			0.273902			-0.722331			0.302524			-0.349459			-0.171864			0.315938			0.15981			-0.141688			0.198819			-0.947399			-0.0241642			0.594479			-0.719926			0.388123			0.143228			0.785411			0.107977			-0.31401			-0.171538			-0.935739			0.638362			-0.356512			0.144009			0.35606			-0.204338			-0.383651			-0.0594745			-0.114816			0.802448			0.611952			-0.533956			-0.207067			-0.110796			0.637429			-0.359943			0.325142			0.551136			-0.246784			0.279844			-0.939109			0.038058			0.573876			-0.0562319			0.507417			-0.924101			-0.196188			0.253905			0.145198			0.487393			0.609671			-0.238092			0.0179972			0.517934			-0.403815			0.432646			0.132127			0.00459412			0.825798			-0.0684572			0.246199			0.960681			0.541664			0.537742			0.541379			0.161793			0.237328			-0.15335			0.865072			0.442292			0.625431			0.00676898			0.824041			0.122157			-0.0251909			0.43366			-0.363567			-0.458222			0.766923			0.0790355			-0.534533			-0.802558			0.292375			-0.176187			0.69018			0.405504			-0.292458			0.379825			-0.451606			0.12001			0.098391			0.160748			-0.57265			0.0116824			-0.626827			0.392446			-0.141929			-0.949746			0.0354204			0.671752			0.392963			-0.506155			0.251415			0.279039			-0.396524			-0.637868			-0.369547			-0.350006			-0.242174			0.831789			0.584742			-0.339256			-0.40197			0.00916459			0.0996862			-0.278916			-0.449517			0.395677			0.336216			0.0911197			0.0293733			0.0901914			0.280718			-0.312724			-0.609682			0.187866			-0.189066			0.720977			-0.655649			-0.659517			0.773645			-0.104908			0.295966			0.807146			0.0703808			0.247081			0.204615			0.597702			-0.559037			-0.463245			-0.418962			-0.218957			-0.87656			0.409837			0.0619462			0.202483			-0.0295187			-0.0471219			0.311469			0.0897664			-0.377786			-0.160883			0.138432			0.701247			-0.475388			0.307628			0.67807			-0.0826684			0.567779			0.927904			-0.0855618			-0.0234029			0.377775			-0.230001			-0.209752			0.0487564			0.136797			0.113548			-0.194617			0.265262			-0.687469			0.222834			0.118915			-0.208324			0.0261101			-0.440933			0.436643			0.6627			0.434087			0.244092			0.125926			0.558813			-0.169725			-0.107404			0.477422			0.363521			-0.267394			0.45236			-0.148663			0.134054			-0.464012			-0.245054			-0.0461493			-0.414191			-0.463296			0.535081			0.188584			0.839977			-0.302586			-0.301614			0.700326			0.179998			0.34711			-0.0567068			0.288736			-0.375428			-0.627138			-0.4798			-0.443998			0.223434			-0.450583			0.0582133			-0.534463			-0.61342			0.261708			0.0632148			0.145383			-0.692027			0.254467			0.101216			-0.145364			-0.285962			0.198138			0.0612193			0.934586			-0.439578			0.720257			0.260622			-0.538047			-0.387663			
-0.0570847			-0.469691			0.23181			-0.0956974			0.82387			-0.0767779			-0.0354675			0.425782			-0.153575			0.448887			0.786329			-0.117998			-0.108418			-0.537648			-0.584258			-0.317966			0.7636			0.598636			0.358145			0.194661			0.540044			0.360119			0.0365031			-0.241114			-0.406123			-0.107535			-0.585624			-0.293828			0.616139			-0.875122			0.37413			0.390404			0.211179			-0.397333			-0.718449			0.269883			0.0228042			-0.888545			-0.418059			0.0358888			-0.329589			0.206327			0.691177			-0.676015			0.44837			-0.597634			-0.355095			-0.285236			-0.463336			0.0402581			0.163061			0.283146			-0.597122			-0.725631			-0.251346			-0.249402			0.732056			-0.815255			-0.482928			0.0331445			-0.166844			0.648418			0.804186			-0.027661			0.242249			-0.893028			0.784497			0.454575			-0.107452			0.322519			0.199188			0.0934237			0.482703			-0.0944147			-0.953927			-0.144389			0.511012			-0.516025			0.451097			0.155054			-0.060082			0.523398			-0.0256262			-0.714256			-0.267449			0.050036			0.518075			0.561228			0.408777			-0.169023			-0.510375			0.215354			0.109483			0.115			-0.320705			-0.173209			-0.271213			-0.497006			0.445749			-0.228679			-0.267412			-0.112913			0.150933			0.154214			0.262442			-0.481321			0.0519117			-0.920361			-0.63781			0.680434			0.728342			-0.732619			0.267335			-0.367112			0.0512322			0.290686			-0.0345856			0.713053			0.871062			-0.270271			0.332879			0.169992			0.639677			0.117583			0.269315			0.369392			-0.30026			-0.411188			0.70895			0.666527			-0.259085			-0.475502			0.513344			-0.722153			0.548117			-0.0763085			0.266292			-0.701516			0.351209			0.468645			-0.175751			-0.272217			-0.62809			-0.00506399			-0.245257			0.0334545			-0.18799			0.213475			0.42027			0.159814			-0.235486			-0.451496			-0.314492			-0.343338			0.706336			0.696934			-0.893922			-0.146691			0.0712165			-0.169861			-0.25424			0.188189			-0.00203756			0.697569			-0.198559			0.243247			-0.115386			0.024402			0.643057			-0.531041			0.338758			0.699852			-0.468388			0.856464			-0.402235			0.440942			0.285744			0.147418			0.210372			-0.45567			0.0849752			0.132102			-0.684954			0.136739			0.248629			0.160634			-0.75134			-0.298277			-0.561448			-0.10327			0.185377			0.360215			-0.19763			-0.957378			-0.129676			0.267186			0.903698			0.305191			0.0603433			-0.358515			0.17362			0.306341			-0.137673			-0.208015			-0.360893			0.276263			0.647192			-0.656766			-0.346004			-0.315675			0.346163			-0.15302			0.555401			0.764226			0.349182			0.325263			-0.525494			0.388286			0.372024			-0.0108394			-0.377195			0.619844			-0.190837			-0.089841			0.290105			0.348909			0.108268			-0.0953098			-0.214629			0.501927			-0.607401			0.265777			-0.095016			0.0616442			-0.0519163			0.204297			0.099638			-0.660507			-0.408507			-0.954937			0.995342			-0.788935			0.727968			-0.891275			0.13702			0.337557			0.333138			0.971256			0.00575822			0.702382			0.503933			-0.137439			-0.193092			0.161031			0.00945604			0.10008			0.260356			0.32944			-0.169433			-0.132921			-0.251555			0.208279			-0.215429			-0.173776			-0.32455			-0.238842			0.15635			0.758709			-0.491941			-0.218552			0.18411			0.661025			-0.395581			-0.185628			-0.913505			-0.78714			-0.522666			0.384698			0.047987			-0.042095			0.925282			-0.161973			-0.388576			-0.226029			-0.365106			0.904599			-0.477938			-0.681026			0.262699			-0.133221			-0.0882764			-0.495023			-0.127668			-0.0424284			-0.650398			-0.456253			-0.539457			-0.12424			0.588344			-0.275336			-0.104619			-0.254285			0.315081			-0.312701			0.00432975			0.208107			-0.305258			0.0722534			0.203629			0.74742			0.117164			0.0609777			-0.138864			-0.895142			0.176037			-0.6867			-0.241093			-0.323532			0.27844			0.450997			0.376989			-0.657276			-0.13465			0.00173925			0.303417			-0.264331			0.0447518			0.0985966			0.413604			-0.123585			0.124481			-0.892362			0.126904			-0.537121			-0.521197			-0.631396			0.0128761			0.314177			-0.735738			0.37728			-0.197694			0.35842			-0.0713933			-0.317966			-0.702332			-0.697336			-0.387959			-0.273422			-0.594857			-0.260826			0.607763			0.308487			-0.198151			0.0191237			0.50616			-0.0701121			-0.669014			0.725214			0.931028			-0.600166			-0.725219			-0.409014			0.520273			-0.505991			-0.102832			-0.699053			-0.740742			0.0845815			-0.938709			0.121232			0.360248			0.748402			-0.0215283			0.130944			-0.550658			-0.0298336			0.118098			-0.1927			0.216292			-0.124508			-0.200337			0.250442			-0.947289			0.203146			-0.00317683			-0.526026			0.0580266			0.653051			-0.407423			0.45208			-0.0835963			-0.247852			-0.154019			-0.824462			-0.210785			0.712382			-0.149327			-0.345998			-0.0372246			0.355472			-0.319818			0.370633			0.668955			-0.479295			0.455224			-0.108955			0.276376			-0.572124			0.563988			0.317057			0.205348			-0.178236			-0.788657			0.229963			0.439838			-0.485142			-0.0729458			0.679269			0.313922			-0.451635			-0.222606			0.390615			0.766644			-0.649061			-0.0260134			-0.0490649			0.116467			0.541539			-0.519573			0.202363			-0.0256842			-0.686855			-0.644083			0.0782919			0.356989			-0.0839726			0.429606			-0.0879348			-0.28846			0.541092			0.661031			-0.0959612			-0.377815			0.268041			-0.223679			-0.400079			0.270471			0.174528			0.748929			0.599697			-0.427856			-0.915366			-0.650861			-0.771925			0.149583			-0.0285433			0.324219			-0.130141			-0.284908			0.145506			0.241915			0.057806			0.204944			-0.628775			-0.870206			0.489821			-0.826506			0.0090696			-0.588238			0.526921			0.0453132			-0.0584986			-0.276765			-0.053788			-0.13841			-0.566943			-0.276091			0.809479			-0.790098			0.371552			0.201409			-0.404779			-0.243729			-0.212549			-0.121056			0.0292923			-0.954673			-0.0668927			-0.126496			0.652147			0.650743			-0.165975			0.134578			0.376995			0.114196			-0.0699988			0.137305			-0.248327			0.17166			-0.805076			
0.655699			0.138498			0.0794749			0.312433			0.0792861			-0.618404			-0.563387			0.217482			0.45895			-0.184553			0.240363			0.737827			-0.934213			0.39391			0.529534			-0.518672			-0.266733			0.587992			-0.105039			0.669077			0.152104			0.0461421			-0.191961			0.319615			-0.319139			0.552062			-0.332355			0.583059			0.175093			0.359338			-0.954892			-0.708471			-0.0507528			0.438919			-0.23422			-0.806959			-0.706076			-0.564813			0.00666194			-0.183246			-0.436527			-0.503956			0.638902			0.28002			-0.617224			0.0337002			-0.245887			0.196096			0.0860869			-0.131808			-0.0834556			0.492273			0.549121			-0.595198			-0.513752			0.159839			0.499973			-0.482309			0.0442289			0.471794			0.458621			-0.37381			0.337695			0.477215			-0.412732			-0.282163			0.620148			-0.690212			0.0269479			-0.170607			0.257591			0.150056			0.349206			0.388501			-0.412891			-0.222644			-0.829871			0.187246			-0.100304			0.512695			0.0462003			0.238554			0.63662			-0.57638			-0.0764567			-0.601349			0.279752			-0.33176			-0.628951			-0.88214			0.152384			0.0399806			-0.616209			-0.969012			0.330122			0.67816			0.104663			-0.378015			0.335117			-0.533023			-0.51411			-0.0543932			0.0249827			-0.535765			-0.464784			-0.975481			-0.851559			-0.133183			0.651745			0.659748			-0.32096			0.5546			-0.37179			-0.0552848			-0.20801			0.17398			0.0236679			-0.20987			0.717616			-0.837349			0.540746			0.114187			0.66364			-0.43927			-0.227771			-0.418864			0.47914			-0.58448			-0.0525698			-0.0923786			0.0705488			0.319171			0.366034			-0.243874			-0.343228			0.71624			0.73991			0.651187			-0.105584			-0.541494			-0.501565			0.666275			0.146154			0.302145			-0.17193			-0.115			0.262594			-0.27338			0.209995			0.132862			0.119309			-0.706889			-0.196413			0.222496			-0.0445891			0.920267			0.422566			-0.831455			-0.730959			0.500487			-0.607692			0.284833			0.988368			-0.547755			-0.163582			0.618298			0.5317			0.0911331			-0.207241			0.308003			0.675297			0.0409461			-0.258047			0.56263			-0.0464978			-0.922692			0.078291			-0.422318			-0.305518			0.0189813			0.763001			0.468373			-0.202491			0.212024			0.151122			0.255437			0.157263			-0.085236			-0.16355			-0.502887			-0.231093			0.511864			0.389019			0.229229			0.391373			0.729471			-0.101672			0.370521			0.82719			-0.830353			0.110818			0.167184			0.496962			-0.249788			-0.147553			0.841855			0.403054			0.139726			-0.837312			0.209445			0.287233			-0.51526			-0.049941			-0.208066			-0.575122			0.43128			0.640936			-0.299788			0.437538			0.323999			-0.81373			-0.33543			0.54085			0.0802469			0.216895			0.301028			-0.168629			-0.0893474			-0.398538			-0.288453			-0.594483			0.52604			-0.0260809			0.628906			-0.362939			-0.571098			-0.812297			0.529306			0.604604			-0.400033			0.52803			-0.285347			-0.744192			0.221883			-0.195076			0.876634			0.586763			-0.303912			-0.0800527			-0.0383396			0.0243721			0.249728			-0.603477			-0.0331046			-0.277555			-0.449029			-0.465364			0.905446			-0.201363			0.794414			-0.0922265			0.13882			0.977797			0.301481			0.484733			-0.748095			-0.426521			0.521123			-0.0629169			0.427176			-0.834099			-0.427808			-0.501441			0.213046			-0.368462			0.355141			0.2013			-0.413946			-0.174484			0.396435			0.0763843			-0.638681			-0.779482			0.110841			0.194096			-0.235533			-0.26278			-0.351218			-0.64219			-0.0415995			-0.00427628			-0.725464			0.242349			0.497792			-0.572228			-0.164373			0.10842			0.507379			0.276543			-0.428258			0.224962			0.320805			0.43453			-0.136131			0.198012			-0.762964			-0.0978605			0.186564			0.336842			0.112584			-0.568243			-0.446609			0.746603			-0.231017			-0.770921			0.873098			-0.69405			-0.660219			-0.400545			0.4699			0.211608			-0.0764053			0.131861			0.419653			0.347913			0.404355			-0.384307			0.599389			0.793248			0.0625199			0.63557			0.272209			0.195388			0.647942			0.241771			-0.863789			-0.441042			-0.310727			0.0980596			0.133745			0.417223			-0.476024			-0.611222			0.472527			0.23957			-0.854171			-0.183994			0.304485			-0.19258			-0.177545			-0.432249			0.661251			0.868919			-0.96454			-0.20816			0.434664			0.331809			-0.332154			-0.242736			0.420347			0.327738			-0.178573			0.0687736			-0.736308			0.412478			-0.754989			0.118049			0.334211			0.295958			-0.184644			0.428076			0.115652			-0.188096			-0.82205			-0.182329			0.419754			-0.379126			0.246255			-0.158697			-0.565747			-0.228249			0.786301			0.429699			0.180777			-0.521952			-0.895142			0.574781			-0.543681			0.283153			-0.14138			0.289244			0.324037			-0.105636			-0.445164			-0.446401			0.33686			-0.0267436			-0.24366			0.304444			-0.651313			-0.098819			0.586736			-0.290897			-0.115455			-0.545634			-0.58302			-0.0335952			-0.4525			0.540033			0.22627			-0.675169			-0.583912			-0.558565			0.329261			-0.202302			0.354807			-0.44582			-0.626112			0.716623			-0.310352			-0.364943			0.14577			-0.303951			-0.283376			-0.3136			0.691316			-0.102614			-0.270608			-0.364653			-0.417389			0.448534			0.0242549			0.432728			-0.205083			-0.200155			0.138259			0.0609136			-0.252118			0.25711			0.159518			-0.149625			0.519615			-0.819345			0.212415			0.720375			0.547533			0.274574			0.165947			0.296583			0.671784			-0.425298			-0.856445			-0.189433			0.226917			-0.621705			0.338202			-0.17093			0.00481409			0.600047			0.743414			-0.08727			0.266169			-0.283682			-0.655699			-0.11179			-0.845556			0.716797			-0.256762			0.351846			-0.263174			-0.193103			-0.464547			-0.383806			0.816598			-0.34135			0.851617			-0.374828			-0.580607			0.143151			-0.165062			0.31913			-0.0441482			-0.521945			-0.635056			0.0936093			-0.203778			0.0957241			0.352232			0.166373			-0.278409			-0.234254			0.285357			-0.412627			-0.412392			0.387829			0.177807			-0.165996			-0.700704			-0.0964374			-0.0762667			
0.399411			0.234177			0.167864			-0.27735			-0.233644			-0.279464			0.250495			0.718858			-0.21147			0.211298			-0.601048			0.310672			0.64276			0.821236			0.193854			-0.243964			0.000383292			-0.180196			-0.349205			0.674885			-0.457055			-0.00871606			0.050471			0.784969			-0.650158			0.182166			-0.289794			0.146889			0.604271			-0.390568			0.233757			0.0763459			-0.154484			-0.202723			0.821623			0.0826567			0.843982			-0.139193			0.201456			-0.164042			0.641766			-0.0207077			0.258502			0.407192			0.533687			0.186807			0.6796			0.678908			-0.256583			0.209327			-0.618591			-0.536789			0.0583946			0.218865			-0.138932			0.559311			-0.0818305			0.270675			0.460855			0.454078			0.699255			-0.842999			-0.223748			0.502791			-0.157902			0.31169			-0.135546			-0.769243			0.562717			0.553694			-0.173582			0.8832			0.0461438			0.0966603			-0.132483			-0.273554			-0.14717			0.385643			-0.460362			-0.223422			-0.0204249			-0.566507			0.1636			0.0815209			-0.756432			0.469927			-0.134234			-0.499601			-0.167621			0.595941			0.0432932			-0.374674			0.0880519			-0.0357076			-0.398049			0.52433			0.950017			0.218945			-0.0811136			0.216683			0.0178721			0.05033			-0.137446			0.0492535			-0.379276			0.340799			-0.282075			-0.811953			-0.0560323			-0.34212			-0.928604			0.680315			-0.2653			0.788765			0.402552			0.0615967			-0.252447			-0.778947			-0.631464			0.494759			-0.142178			0.332209			-0.0224341			-0.45449			-0.484696			-0.929901			0.648059			0.192347			-0.300015			0.470827			-0.276557			-0.702812			0.202489			0.250491			0.795108			-0.699307			-0.354087			0.0313227			-0.237442			-0.187408			0.409021			0.729554			-0.424505			-0.519905			0.250801			0.465064			0.00671019			0.3673			0.520812			-0.364769			-0.413994			0.677543			-0.581213			-0.0793675			-0.124605			0.693128			-0.271542			0.216802			0.155455			0.243674			0.112534			-0.534603			0.322488			-0.0316925			-0.0554831			0.32779			0.487186			0.364208			0.257845			-0.690926			0.0277735			-0.140814			-0.743835			-0.217299			0.331776			0.0941398			-0.75562			0.280099			0.409388			0.268382			-0.869019			0.503391			-0.608206			-0.544999			-0.136385			-0.256046			0.0825874			-0.173936			-0.189811			0.0735206			-0.7767			0.691022			0.449658			0.343443			-0.698278			-0.0388213			0.00676784			-0.0750647			0.451859			0.569168			0.994052			-0.319997			0.574198			0.0136986			-0.110279			0.806826			0.463304			-0.0901859			0.720604			-0.188824			-0.0959483			0.266687			-0.394318			0.652866			-0.369219			-0.557576			-0.337162			-0.266766			0.133962			-0.469141			0.233388			-0.123972			0.648566			-0.585687			-0.26629			0.271501			-0.499562			0.98885			-0.00235677			-0.101074			-0.296195			0.308101			0.0447566			0.258399			0.17138			-0.501655			0.946049			-0.468647			0.443757			0.31791			0.877551			-0.0631488			-0.159332			-0.257631			-0.113915			0.209269			-0.0986089			-0.153399			0.446431			0.0935014			-0.503554			-0.162702			-0.689009			-0.315126			0.0518838			0.0298194			-0.0134833			-0.0562253			-0.127875			0.425322			0.159562			0.585357			0.429233			0.0119662			-0.985785			-0.258879			-0.808166			-0.562759			0.893994			-0.272058			-0.210447			0.0364871			-0.261011			-0.453991			-0.0805823			0.759196			0.13334			0.456846			-0.223755			0.0643868			0.182345			-0.147603			0.28266			-0.216789			0.405114			-0.207581			0.00897108			-0.0138938			0.290279			0.534448			0.623888			-0.34749			0.779555			0.795053			-0.265544			0.769848			-0.610564			-0.352561			-0.344252			0.254515			-0.294066			-0.205389			-0.0742209			0.0654676			-0.93955			-0.135402			0.454494			-0.786225			-0.00891975			-0.293119			-0.821468			-0.294586			-0.116008			0.179385			-0.287908			0.240504			-0.0837954			0.311272			0.792794			0.15802			0.834596			-0.545712			0.175313			-0.783346			-0.216643			0.841605			0.209382			-0.10168			-0.338628			0.115478			0.136113			0.542059			-0.369646			-0.312486			-0.445471			-0.170891			-0.131113			0.503012			-0.3515			0.121483			-0.193688			0.383211			-0.414876			0.672682			0.191818			-0.659529			-0.0599883			0.180082			0.721839			0.68839			0.130686			-0.633761			0.00819644			0.508364			-0.484337			-0.142621			-0.983214			0.433439			0.176872			0.761835			-0.624534			0.967751			-0.0800087			0.422987			0.167988			0.0791412			0.468926			0.585954			0.277139			0.418523			0.522318			0.0188546			-0.246968			-0.352532			-0.068619			0.847216			-0.512584			-0.843861			-0.112761			0.931334			-0.0493877			0.963856			0.35061			0.669177			0.506206			-0.227866			0.886615			-0.352647			0.376048			-0.146127			0.04272			0.404594			-0.860247			-0.460178			0.275265			-0.567261			-0.364533			0.515367			0.0319804			0.111121			0.383073			-0.415722			-0.0387278			0.153186			-0.616628			0.531057			0.0761866			-0.428939			-0.381355			0.328998			-0.0653675			0.488441			-0.0355864			0.325884			-0.101744			0.307062			-0.0419331			-0.0206667			0.619008			-0.321691			0.298511			0.948572			-0.437996			-0.206705			0.836696			0.607715			-0.280729			0.109182			-0.531906			-0.554648			-0.305794			-0.167943			0.655696			-0.0195142			0.501456			-0.662178			0.0227274			-0.251197			0.452722			-0.738667			-0.389605			0.127985			-0.337988			0.190508			-0.763661			0.149739			-0.334798			-0.734552			0.461664			-0.555705			-0.628168			0.571685			0.0448348			0.178082			0.261743			-0.0541026			-0.408813			0.525456			-0.135404			0.77263			0.266887			-0.352851			0.0970878			0.482251			0.5912			0.205163			-0.355487			-0.592782			-0.0131211			-0.658233			-0.46972			0.638111			0.101726			0.144507			-0.560441			0.511681			-0.615317			0.841548			0.61537			-0.0251687			-0.0635881			0.249648			-0.0814635			-0.53742			-0.0916971			-0.480621			-0.422214			-0.00688721			-0.0261895			0.591476			0.418232			-0.0989119			-0.926458			-0.152042			-0.611995			-0.458701			-0.396005			0.157243			0.155515			0.723796			
