Matrix_1
-0.166568			0.692577			0.329147			-0.647482			0.266996			0.0828955			-0.459179			0.427331			0.234286			-0.964547			-0.551179			-0.345008			-0.0725806			-0.617687			0.259001			-0.758204			0.620612			0.601825			0.606183			-0.228701			-0.136547			-0.163413			0.41159			0.143603			0.0963759			-0.133846			-0.218984			0.0316011			0.415727			-0.19333			-0.403631			-0.223113			-0.798161			0.275564			-0.71355			-0.407318			-0.326282			-0.116895			-0.281753			0.144026			-0.0789306			0.190771			0.210001			0.210705			0.434839			0.0110345			-0.923787			0.368444			0.895651			0.344007			-0.879255			-0.63855			0.669593			-0.113557			0.0263678			0.120098			-0.177145			0.632581			0.290939			-0.0764765			0.35757			-0.597423			-0.791201			0.00864068			0.683376			0.199305			-0.0786806			-0.424488			0.329121			-0.130419			0.257067			-0.15326			0.251748			-0.358268			-0.538397			-0.253339			0.839283			0.0356846			-0.126678			0.357226			-0.151383			-0.420735			0.545756			0.155671			-0.0346719			0.7443			-0.352823			-0.12892			0.157932			0.0775865			0.558342			-0.0466841			0.245102			0.0625917			0.269552			-0.161023			0.610496			-0.0164744			0.132484			0.830529			-0.736397			0.261552			0.426163			-0.466059			-0.0686895			-0.0353763			0.926788			-0.404474			0.950443			0.00982662			0.420313			0.304383			0.0414701			-0.0811629			0.506002			0.330731			0.663337			0.0125017			0.536232			-0.67515			0.0803998			0.107091			-0.714116			-0.134283			0.500337			-0.0326717			-0.118601			-0.274469			0.0376166			0.624311			0.601546			0.521452			0.334063			0.403887			-0.130743			-0.115945			-0.75976			0.313657			0.0931269			0.149967			0.451005			0.296707			0.158935			-0.965508			0.102496			-0.604059			0.613456			-0.77976			-0.714065			-0.428786			0.412035			0.710735			-0.234056			0.227049			-0.279925			-0.124472			0.373082			-0.000220745			-0.281607			-0.354414			-0.712987			-0.227436			0.0426943			0.380235			0.0541034			0.0256308			-0.114815			-0.920115			0.18971			0.72225			0.608466			0.375262			0.0428056			0.396545			0.241283			0.835545			0.421967			-0.177255			0.47555			0.0849649			-0.128053			-0.664157			-0.481334			0.332649			-0.0711765			0.608592			-0.941501			-0.428681			-0.639785			0.3598			0.201369			-0.837618			-0.707647			0.659244			0.485368			-0.159532			-0.219537			0.0890967			0.0631457			0.0650574			-0.0874705			0.563294			0.427458			0.591363			0.110006			0.594167			-0.448959			-0.437018			0.469574			-0.230661			-0.189914			-0.139508			-0.0040344			0.517067			0.228297			0.937588			0.216421			-0.0466799			0.308381			-0.246448			0.245835			0.0943332			0.0640077			0.454415			-0.127638			-0.559011			0.119335			-0.268294			0.628686			0.25586			0.306145			0.50525			-0.278292			0.0711533			0.0417845			-0.0836688			-0.112836			0.236584			-0.11632			-0.295151			0.453279			0.395189			0.156082			-0.597253			-0.259233			-0.993295			-0.796431			0.192919			-0.60421			-0.437684			0.273046			-0.0664649			0.813173			0.448175			-0.111501			-0.264862			-0.0920386			0.0620299			-0.563808			0.56061			-0.0530441			0.393229			-0.598965			0.139097			-0.132398			-0.264087			0.723992			0.257754			-0.333592			0.261588			0.503461			0.211165			-0.357673			0.131641			0.140873			-0.60555			0.338048			0.548052			-0.259403			0.195653			-0.240859			0.714672			0.894594			-0.467047			-0.131798			0.0805087			-0.820232			0.732587			-0.552004			-0.708181			0.460102			-0.459079			0.222786			-0.255659			-0.425782			0.58299			-0.828782			0.536464			-0.322084			-0.252745			0.194121			0.223853			0.611944			-0.699323			-0.606198			0.461422			0.133083			0.175988			-0.11939			0.0249261			-0.355361			-0.313151			-0.0146597			-0.443769			-0.104098			0.0545928			-0.169155			0.0881304			0.583293			-0.399349			-0.166739			-0.239264			0.636494			-0.269653			0.408843			-0.159436			-0.428383			0.132184			-0.492168			0.707392			0.257754			0.160176			0.0665354			-0.30681			0.265864			0.364335			0.34706			0.81614			0.112909			0.116529			-0.0473689			-0.823388			-0.708311			0.424541			0.215909			0.274901			0.12034			-0.228383			0.163464			-0.014589			0.584262			0.517057			-0.067146			-0.529977			0.372431			0.0735866			0.155097			-0.0171772			-0.0882424			0.342529			0.326611			-0.425426			-0.57159			0.261855			0.0781839			-0.467435			0.525495			0.281965			-0.826328			-0.444406			-0.178969			0.814001			-0.902833			-0.441148			-0.0436698			-0.978812			0.277974			-0.321732			-0.297984			0.0935937			-0.148895			0.0783274			-0.229802			-0.43393			0.303764			0.268507			0.0112223			0.348617			0.0683888			-0.260652			-0.345586			-0.403477			0.206317			-0.033933			0.332928			0.041044			0.381715			0.957351			-0.301765			0.126231			-0.463294			0.66401			-0.277369			0.956321			-0.712767			0.0836517			-0.392589			0.106477			0.939527			-0.305593			0.46025			-0.711178			0.43181			-0.0667478			0.321362			-0.443558			0.712001			-0.0193048			0.239477			-0.110555			0.111151			-0.0691718			-0.268805			0.284305			0.270806			-0.579637			-0.157807			0.306497			-0.249252			0.221945			0.668807			-0.447116			-0.689929			-0.262222			-0.539847			-0.671474			-0.575929			0.34515			-0.835815			-0.226313			0.27016			-0.314501			-0.301617			0.680123			0.212414			-0.969488			-0.194913			0.615606			0.0286147			0.010492			0.608619			-0.422274			-0.446781			0.785777			0.315785			0.350458			0.493602			-0.27588			0.00275023			0.663854			-0.0838473			0.33026			0.740646			0.435633			0.243152			-0.073173			0.0453623			0.895596			-0.432222			-0.788586			0.957302			0.0881796			0.0150647			0.341159			-0.312798			0.228626			0.792393			0.298524			-0.122148			0.441882			0.265074			-0.502878			-0.346381			0.382935			-0.317824			0.0116695			0.176192			-0.0939614			-0.222808			-0.369079			0.471363			0.422084			-0.267865			-0.0393123			-0.784148			0.00241322			-0.492829			-0.467803			-0.960654			-0.54097			
-0.317904			0.495117			0.745922			0.0916218			-0.300721			0.86427			-0.538436			0.0108847			-0.103777			-0.184516			-0.572424			0.2152			-0.56664			0.405178			-0.855127			0.528763			0.112626			-0.341447			-0.23802			0.392939			-0.419701			0.63464			0.147026			0.388335			0.62488			-0.0726112			0.185293			-0.143848			0.621518			-0.882816			0.489127			0.600926			-0.0330503			-0.607411			0.478931			-0.599462			-0.209384			-0.478994			-0.345701			-0.291935			-0.0221659			0.21776			0.227819			0.849161			-0.587323			0.94993			-0.65726			-0.00769164			-0.533632			0.575943			0.907464			-0.461581			-0.287882			0.175266			-0.353358			0.485062			-0.343939			-0.425933			0.307442			-0.698756			0.478479			0.464644			0.590184			-0.587212			0.00456856			-0.491524			0.200691			-0.263854			-0.509657			-0.84067			-0.407822			0.0874707			0.569477			0.0256485			-0.63042			0.303011			-0.577854			-0.0836086			-0.0730057			0.464768			0.247982			-0.91174			0.787622			0.719497			0.344597			-0.087778			0.851148			0.449932			-0.488988			0.654756			0.234014			0.897453			0.414431			0.50555			-0.498542			-0.232861			-0.0329753			-0.28614			0.64367			-0.271096			-0.224321			-0.117682			-0.265571			0.3753			-0.162993			-0.828355			-0.254677			0.00721921			-0.587376			-0.836802			-0.75968			-0.114831			0.096505			-0.752621			-0.0175732			-0.0432663			0.911009			-0.0262152			0.274799			-0.396931			-0.283316			-0.381089			0.788604			-0.724084			-0.133188			0.677027			0.275908			0.574406			-0.245471			0.107738			0.63426			0.718998			-0.109761			0.315156			-0.106987			0.250536			-0.418693			-0.509113			0.264936			0.448507			-0.524227			0.0405459			-0.532501			0.352333			-0.42489			-0.325507			0.351812			-0.406605			-0.579068			-0.0761265			-0.150845			-0.798717			0.123013			0.197973			0.333879			-0.478795			-0.0364809			0.167377			-0.600241			-0.353669			-0.358016			-0.740142			0.0626673			0.314975			-0.647782			0.0342144			0.182453			0.0957084			0.567085			0.169948			-0.782013			-0.408524			0.829202			-0.0186466			0.189104			-0.247593			0.178343			0.499712			0.399328			-0.345328			-0.300451			0.119563			-0.112257			-0.443513			-0.135239			0.628426			0.836883			-0.128074			-0.290023			0.320706			0.319245			-0.633569			0.0673021			-0.539494			-0.246238			-0.254917			-0.0736319			0.473898			-0.249984			-0.591255			0.102936			0.725084			-0.220954			0.400607			-0.402796			0.17172			0.300133			-0.994308			0.463989			-0.237865			0.84683			0.0686938			0.137187			-0.180136			0.480444			0.316535			0.145775			0.411276			-0.464475			-0.51067			0.923471			0.234954			0.650431			0.810664			0.0210289			0.111361			-0.185018			-0.0715095			-0.0623102			0.101736			0.477754			-0.633353			-0.621543			0.0435436			0.267756			0.522561			-0.208255			0.50685			0.639815			0.0805221			0.811656			0.121916			-0.28418			0.207468			0.49592			-0.146178			-0.96111			-0.442066			0.0293744			0.518001			0.124215			-0.404701			-0.0014832			0.0872167			-0.030177			-0.138193			0.318391			-0.871751			0.898777			0.76538			-0.696014			-0.247696			-0.330295			-0.0941498			-0.290902			0.414211			0.593861			0.168697			-0.568354			-0.410808			0.780899			0.0978144			-0.152501			0.0581749			-0.279269			0.823534			0.749304			-0.0347347			0.335615			-0.224449			-0.203609			0.1352			-0.471304			0.213901			-0.627642			-0.0391763			-0.145967			-0.128606			-0.495607			-0.492227			0.442145			-0.214716			0.64374			-0.105871			0.129202			-0.132512			0.174916			-0.163207			-0.186661			0.575305			-0.171466			0.165073			0.779996			-0.477784			-0.532873			-0.248743			0.700064			-0.125411			-0.336503			0.0685591			-0.342754			0.34479			0.531939			-0.678704			-0.177078			0.247466			-0.754663			-0.555283			0.345329			-0.0281851			-0.0936407			-0.145647			-0.136845			-0.304307			-0.643489			-0.646469			0.21756			-0.0672448			0.0285431			-0.0446416			-0.46026			-0.301638			0.0144683			-0.198478			-0.251481			0.507132			-0.0578428			-0.214969			-0.243701			-0.332756			-0.370388			0.0437907			0.506561			-0.563307			-0.258254			-0.195136			0.0444342			0.361907			-0.289534			-0.891609			0.449719			-0.652906			-0.207769			-0.265396			-0.514795			0.412057			-0.122061			-0.691212			0.519027			0.0592881			0.120518			0.223902			0.742139			0.0414716			0.0921124			-0.784624			-0.81723			0.270997			-0.292732			-0.358009			0.294436			-0.680272			-0.450922			0.73699			0.0392541			-0.613701			-0.510415			-0.0857177			0.274787			-0.415137			0.244573			0.499474			0.0760376			0.202177			-0.453712			0.403903			-0.518864			-0.777549			-0.0196756			-0.0955047			-0.235632			0.311612			-0.136671			0.815027			0.446088			-0.569503			0.0589034			-0.0129762			-0.0677382			0.0133666			0.366704			-0.0802247			0.234622			-0.193271			-0.441246			-0.882141			-0.11069			-0.294595			0.486556			-0.0212697			0.586282			-0.573853			-0.539549			0.432073			-0.521265			0.538612			0.196912			0.13828			-0.576017			0.779041			-0.0873444			0.780533			-0.780009			-0.746547			0.143933			0.108636			0.271176			0.761205			-0.82757			0.150355			-0.60936			-0.798142			-0.0977644			0.929772			0.383774			0.796575			-0.01842			-0.356886			-0.71944			-0.282718			0.880884			-0.0184499			0.370754			0.263508			0.0542795			0.350683			-0.50089			-0.284464			-0.185237			-0.328615			0.285105			0.641459			0.0302847			0.671074			0.462165			0.690271			0.0730339			-0.166601			-0.427291			-0.718558			0.743463			0.507511			-0.677075			0.801289			-0.334023			-0.330376			0.534854			-0.406611			0.145674			-0.176428			-0.63525			-0.321368			0.430808			-0.830515			-0.934643			0.0937392			-0.571231			-0.0570636			0.919357			0.120529			-0.533183			-0.261863			0.234992			-0.20804			0.691892			0.506991			0.0944988			0.433493			-0.678764			0.396324			-0.165051			0.17595			-0.490656			-0.385047			-0.22745			-0.0731865			-0.530984			-0.454615			-0.26746			-0.151272			
0.896722			0.438906			0.5426			-0.755337			0.0520426			0.449833			0.508042			-0.451081			0.242859			0.828712			-0.414688			0.329935			0.34228			0.911584			-0.371294			0.291205			0.648267			-0.342064			-0.580417			0.102769			-0.218495			0.494906			-0.69106			-0.198101			-0.974223			-0.274676			-0.624071			0.169889			-0.52377			-0.0234467			0.45583			0.0783113			0.0834435			0.708513			0.142459			0.0628532			-0.0688573			-0.30654			-0.381089			-0.348427			-0.0695077			0.365025			-0.575021			-0.329382			-0.00617656			-0.262464			0.383963			0.690982			-0.265823			-0.0429866			0.326912			0.68611			0.179802			0.234766			-0.332051			-0.506095			-0.445177			0.379585			-0.48628			0.328487			-0.351057			-0.147085			0.144369			-0.0635347			-0.26623			0.83346			0.809325			0.0440644			-0.372632			0.491572			0.117724			0.103416			0.393335			-0.267623			0.266874			-0.00503929			-0.969689			0.511503			0.361312			0.412881			0.637821			0.901016			-0.0593156			0.0982616			0.152894			0.138274			0.792213			-0.159826			0.346928			-0.211018			-0.688573			-0.307067			-0.252746			0.54598			0.20433			-0.413141			0.174257			-0.458425			-0.0885882			-0.426227			0.283733			-0.0731662			0.289642			0.0482964			0.360536			0.297008			-0.270732			0.202396			0.00564678			-0.0131021			-0.345206			0.509495			-0.0642479			0.0355872			0.241327			-0.936518			-0.138469			0.0565678			-0.635215			0.133983			-0.126078			-0.371177			-0.273424			-0.411167			0.878292			0.284671			-0.756922			-0.0683356			-0.660723			-0.311445			-0.270158			0.697385			-0.388442			0.551893			0.0715437			-0.19503			0.575753			-0.730242			0.452535			-0.114769			-0.559963			-0.187898			-0.0021681			-0.0951105			-0.733178			-0.134349			0.578179			-0.11471			0.335402			0.0627364			0.710047			0.180016			0.372498			-0.44483			0.406029			-0.309376			-0.282314			0.188248			0.0196506			0.206662			0.161024			0.444033			-0.540213			0.621905			-0.592038			-0.507216			-0.19958			-0.384257			-0.331715			-0.389789			-0.142165			0.139563			-0.296311			-0.11441			0.551656			-0.504805			-0.220301			0.602513			-0.0618847			0.168727			-0.0409824			0.971452			-0.0904339			0.580572			-0.274314			-0.578137			0.0719926			0.0860964			0.0419512			0.20744			-0.227897			0.136624			0.225429			0.547172			0.879217			0.66774			0.653673			-0.0877954			0.64113			-0.457581			0.0730688			-0.436305			-0.245429			0.779814			-0.361916			0.832387			0.129994			0.0170554			0.387226			-0.13218			0.797145			-0.116899			-0.0572813			0.0744783			0.0403482			0.0727145			0.073099			-0.120551			-0.174574			0.494657			0.373783			-0.881727			0.382571			0.753237			0.115134			0.222976			-0.596985			0.142661			-0.119003			-0.186476			-0.157388			0.564074			0.894509			0.211556			-0.581289			-0.00806839			0.558273			0.28649			0.299488			-0.191103			0.646142			-0.292262			0.512219			-0.021677			0.364545			-0.532675			0.391377			0.859712			-0.073843			0.381906			-0.600757			0.191405			-0.0223746			-0.0873407			0.547691			0.201278			0.501146			-0.249922			-0.511677			-0.207128			0.249633			0.593297			-0.31477			0.617577			-0.780284			0.549697			-0.0965363			-0.27338			-0.754014			0.611506			-0.260056			-0.300942			0.0234483			-0.261765			0.830475			0.0485792			0.355254			-0.0680857			-0.379114			0.380628			0.593586			0.772126			-0.0188417			-0.163882			-0.526393			-0.163977			0.337437			0.165349			-0.0928397			0.00508339			-0.565074			-0.11209			0.187182			-0.504982			-0.710088			0.460442			0.47221			-0.989578			-0.319468			-0.769916			-0.425235			0.736002			-0.429128			-0.205235			0.122453			0.254121			0.30017			-0.399741			-0.356798			0.0150512			-0.303762			-0.149682			-0.724949			0.48521			0.0756348			-0.132206			-0.447492			0.451396			0.257072			-0.490469			0.100594			-0.306118			0.962834			-0.0457375			0.324253			0.147504			-0.202703			0.239367			0.818018			0.283404			0.116726			-0.0209374			-0.206144			0.0256632			-0.904324			0.392447			0.56435			0.485732			-0.135114			-0.24404			-0.871538			-0.199657			0.174024			0.290733			-0.729806			0.760449			-0.290949			-0.270168			0.103838			-0.341711			0.280681			0.548903			0.416019			-0.191263			0.107391			-0.035054			-0.896077			0.0302178			-0.0342431			0.450379			0.386009			0.0201408			-0.045825			0.048974			-0.15178			-0.235571			0.0396406			0.245958			-0.168536			-0.172952			-0.238674			0.0396804			0.756032			-0.613744			-0.546097			0.09581			0.913316			-0.308807			0.298203			0.410546			0.16577			0.828137			-0.132749			-0.0238859			-0.735782			-0.138633			-0.511989			-0.445958			0.471729			0.102235			0.744713			0.374748			0.826244			0.0910968			0.251282			0.801961			-0.0136175			-0.26796			0.631823			-0.0612908			-0.0943037			0.728035			-0.283858			-0.598181			-0.180268			0.514593			0.246618			-0.452783			-0.697103			-0.30332			0.467388			0.211057			0.22336			-0.407423			0.853787			0.0630981			0.379488			0.49682			-0.0538557			-0.562956			-0.0930842			0.0325917			0.4419			-0.385228			0.507031			-0.259618			-0.434225			0.0583718			-0.495961			-0.398159			-0.754078			0.19064			-0.134973			0.0973113			0.465479			-0.228144			0.185875			-0.0940155			0.67567			0.402141			-0.468057			-0.815763			0.408211			-0.100326			-0.000590083			-0.556381			-0.317911			0.0342821			0.0519338			0.429694			-0.254552			0.885574			-0.675835			0.337907			-0.901688			0.298934			0.312977			0.651023			0.489192			0.902412			-0.317376			0.137211			-0.161574			-0.997363			0.0150725			-0.618901			-0.741423			-0.0787245			-0.174654			0.757508			0.762435			-0.213092			-0.0343159			-0.166061			-0.02876			-0.166277			0.578932			0.719628			0.195392			-0.192601			-0.838642			-0.553896			-0.461742			0.269049			0.4771			0.270768			-0.599684			-0.292377			0.920181			-0.00685243			0.352352			0.666272			-0.41316			-0.228709			-0.147207			-0.251037			0.0530997			-0.624145			-0.339591			0.551429			
0.037519			-0.282962			-0.117191			-0.277316			0.627021			0.0597552			0.198228			-0.498421			0.945793			0.418909			0.552223			0.519019			-0.112813			-0.743878			-0.56966			0.700418			0.131393			0.485282			0.648257			0.594241			-0.0319124			0.110511			-0.522277			-0.224853			0.511611			0.464237			-0.778475			-0.253221			0.407504			0.664803			0.0178606			-0.0164577			-0.494799			-0.244448			-0.14138			0.325971			0.798976			0.295993			0.1659			0.0923783			0.0499449			-0.549631			-0.0701101			0.441387			0.215425			0.194249			-0.462402			0.301791			-0.270787			0.179229			-0.0520281			-0.262113			0.332995			-0.18521			-0.461977			-0.642812			-0.260783			-0.125967			-0.462042			-0.14322			0.250114			0.0303835			0.200512			-0.138844			-0.456523			0.192079			0.71277			-0.142249			-0.426238			-0.467817			0.215357			0.390007			0.959086			-0.364585			0.150139			0.646487			-0.815451			0.129323			-0.354418			0.647734			-0.352176			-0.0946393			-0.943225			0.320975			-0.737644			-0.403742			-0.230783			-0.0460251			0.292506			-0.982534			0.685992			0.306848			0.370837			-0.310323			-0.160571			0.083928			0.303918			-0.295546			0.843133			0.741528			-0.385961			0.685651			0.000798821			-0.320265			-0.0272398			-0.088777			0.52324			0.0760927			0.153169			-0.248772			0.20242			0.345264			0.163785			0.797691			0.250382			-0.158303			0.418219			0.680416			-0.0999494			0.205972			-0.51033			0.055794			-0.560424			-0.154249			-0.641178			0.440241			-0.379405			-0.340119			-0.907846			-0.248783			-0.0703998			-0.100622			-0.698041			-0.0973578			0.359179			-0.618757			-0.0637395			-0.109123			-0.464832			0.675147			0.313577			0.380664			0.548208			-0.260679			0.133064			0.267868			0.138967			-0.562767			-0.41562			-0.545776			0.867863			-0.383087			-0.0995975			-0.109032			0.0271081			-0.57409			-0.770604			-0.180395			-0.229269			-0.739043			-0.201069			0.206632			-0.0485409			-0.836267			-0.74022			-0.70107			-0.347317			0.996342			-0.46827			-0.116526			-0.499275			0.250019			0.26096			0.806943			-0.234354			0.884666			-0.288131			-0.563015			-0.427568			0.126549			0.938892			0.359048			-0.113892			0.653196			-0.739141			0.517284			-0.619058			0.0567886			0.557821			0.296911			-0.313368			0.395484			0.114638			0.338129			-0.3262			0.145994			-0.418065			0.166647			-0.497527			-0.101972			-0.108958			-0.592289			0.240533			-0.026588			0.321298			-0.0279158			0.316035			0.572494			0.486096			0.651933			-0.280534			-0.312788			0.191417			0.662115			0.130902			-0.369912			0.28309			0.3709			-0.672073			-0.363548			-0.301329			0.502783			0.148803			-0.222477			0.213723			0.527104			0.241455			-0.3165			0.6397			-0.910831			0.136232			-0.0193503			0.702963			-0.299451			-0.593886			-0.494626			0.781936			0.0179449			-0.440511			0.306333			0.251133			0.0303078			-0.111232			0.418761			-0.26134			-0.270495			-0.280732			-0.144924			0.246802			0.68879			0.676351			-0.384352			0.619673			-0.328727			-0.00960321			-0.626533			0.540207			-0.25751			0.452456			-0.371591			0.176438			-0.134177			-0.0444501			0.0122304			0.918949			-0.316854			0.312845			-0.516573			-0.517899			0.0762336			0.0333927			0.79526			0.410705			0.374624			0.319501			0.208171			-0.926082			-0.415885			-0.0086767			-0.0145023			-0.0928333			0.533972			0.242129			-0.582352			0.997147			0.647294			-0.328489			0.587132			0.305762			-0.0187833			-0.510924			0.384623			-0.732218			0.0352493			-0.000105831			-0.541084			0.0864102			-0.151071			-0.180404			-0.284803			-0.329415			-0.14624			-0.297456			0.216699			0.16843			0.19728			0.0855404			0.532502			-0.675448			0.161447			0.268818			-0.292689			0.963161			0.0522372			0.374566			0.00690776			0.111495			0.306205			-0.144611			0.698124			-0.803184			0.573051			-0.890811			-0.402105			0.635504			-0.521284			-0.905413			-0.281233			0.272215			0.189198			0.147695			-0.66754			0.0521727			0.880994			-0.24128			-0.254446			0.362236			0.127826			-0.722448			-0.245404			-0.430025			-0.0520183			-0.215165			0.397493			0.0338356			0.991458			-0.726224			0.414041			0.646183			0.0716447			0.832452			0.390586			-0.0321276			-0.373776			0.350751			0.0350073			0.293903			0.638184			0.244655			0.1102			0.0822291			0.729581			-0.642544			0.0915517			-0.128341			-0.459146			0.677261			-0.226212			-0.4236			0.322838			-0.764696			-0.497765			0.288048			0.19089			-0.698086			0.251254			-0.0030711			-0.674246			0.0325425			-0.131569			0.706028			0.331977			-0.667757			0.370431			-0.571474			-0.00214485			-0.471257			-0.573349			-0.307207			-0.468449			0.0265567			-0.251024			0.00898436			-0.249117			-0.207378			0.273891			0.00653325			-0.544141			0.10287			-0.280483			-0.152811			0.327525			0.491943			-0.015596			-0.246478			-0.10574			-0.419058			-0.0843348			-0.552379			-0.525318			-0.148103			-0.412079			-0.835355			-0.203518			-0.452905			-0.23664			-0.460773			0.691117			0.0342099			-0.429034			-0.825809			0.659913			0.977448			0.000360634			0.0300138			0.187073			0.153991			0.362963			-0.376727			0.466818			-0.0842982			-0.25833			-0.344668			0.808321			0.368761			-0.223125			0.415934			0.234864			-0.262723			-0.766301			-0.115187			-0.685103			-0.489932			-0.415756			-0.282353			-0.415831			0.146266			-0.302479			0.0213962			-0.884409			0.293303			0.199106			0.360003			0.220267			0.11418			0.205057			-0.200793			0.767466			0.100068			-0.964809			0.0791332			-0.0977872			-0.00751256			0.567845			0.707682			0.509211			0.521487			-0.201996			0.443084			-0.310096			0.398457			0.476228			0.157077			0.593643			0.260175			0.0315752			0.0416737			0.253807			-0.276916			-0.205339			-0.34074			-0.341869			0.154053			-0.295076			-0.453919			0.504521			0.188176			-0.312011			-0.382776			-0.457346			0.537947			0.219453			0.0688142			-0.274073			0.0401599			-0.578126			-0.5838			-0.031471			0.932754			0.420575			
-0.465529			-0.163081			0.681886			0.836728			-0.315745			-0.897048			0.347259			0.748108			0.676296			-0.117132			-0.447634			-0.522			0.121393			0.945841			0.169998			-0.640315			0.36765			-0.294859			0.220849			-0.466716			-0.213533			-0.273752			0.0615104			-0.763907			-0.318161			0.682384			0.368269			0.83533			-0.0744432			-0.418743			0.466012			-0.844651			0.672757			-0.572156			-0.739361			-0.126762			-0.496096			-0.400839			-0.292927			-0.283553			0.927217			0.618433			-0.490796			0.334816			0.244502			-0.282337			0.905794			-0.0204968			0.498133			-0.631874			0.00562334			0.0188242			0.713751			0.424507			-0.227123			-0.389461			0.160479			0.17747			0.968109			0.51091			0.156866			-0.151436			-0.466372			0.315152			0.565239			-0.226651			-0.0209221			0.0216664			0.594485			-0.686966			-0.404775			0.0140948			0.50774			-0.333146			-0.16562			0.0978706			0.926514			-0.351727			0.0366825			0.412137			0.559381			-0.429107			0.0858629			0.366527			0.467505			0.0585839			-0.191347			-0.890113			-0.25077			-0.0309398			0.189368			0.658775			-0.41874			-0.613445			-0.391747			-0.280747			-0.178105			-0.292444			-0.639141			-0.258972			-0.404819			-0.771066			-0.102324			-0.555165			0.377272			-0.661016			-0.358558			-0.112083			0.929011			0.259891			-0.153613			0.754727			0.164884			0.432417			-0.522513			0.882178			0.711632			0.786646			0.182428			0.390646			-0.361499			-0.691904			0.639482			0.170583			-0.205282			0.413993			-0.418752			0.427404			-0.218042			0.0749344			-0.840467			-0.765774			0.292269			0.760197			0.145241			-0.411173			0.23173			0.122996			-0.11422			-0.609908			0.423869			0.52837			-0.30778			0.641758			-0.299766			0.175577			-0.499484			0.108884			0.129933			0.00848965			-0.752019			0.0996489			0.52866			-0.532273			-0.186556			-0.170273			-0.682527			-0.537343			-0.526834			-0.927193			-0.170512			-0.420331			-0.811405			-0.544965			-0.225573			0.26048			0.144918			0.529559			0.0265759			-0.0941656			-0.199553			-0.100892			0.00744082			0.362523			-0.64863			0.594268			0.195426			-0.758054			-0.541992			-0.627976			0.574174			-0.376367			0.387136			-0.650813			-0.291438			-0.432106			0.278309			0.223243			-0.173641			0.356625			0.640025			-0.55962			0.56099			-0.432077			-0.501003			-0.213628			-0.232253			-0.27765			-0.719288			0.220102			0.361432			-0.126042			0.31635			0.368808			-0.259647			0.14631			-0.457485			0.268854			0.251959			-0.263678			0.0676609			-0.322544			-0.126381			0.657228			-0.250163			0.148271			-0.45482			0.391147			0.512009			-0.224486			-0.594401			0.171673			0.899303			0.222746			0.546727			0.153065			-0.564389			-0.23497			0.389509			0.298443			-0.189304			0.112858			0.0341074			0.287945			0.298786			0.506008			0.198555			-0.135964			-0.169563			0.286696			-0.986859			0.196257			-0.0352735			0.204016			-0.342862			0.789319			0.584666			0.264314			-0.110349			0.206017			-0.25332			-0.29111			-0.185218			0.373793			0.631888			0.135363			0.19493			0.0677187			-0.456065			-0.0563272			-0.235875			-0.369912			-0.129458			0.270021			0.785748			-0.52728			0.028854			0.632554			0.163493			0.295312			-0.196988			0.12834			0.22923			-0.792776			0.608836			0.339542			-0.683688			0.119674			0.209343			0.62225			0.190819			-0.36355			-0.849005			-0.882542			-0.346293			-0.991672			0.332629			-0.56504			-0.0283015			0.0792618			0.626362			-0.397035			-0.573218			0.700405			0.410351			0.446856			-0.18114			0.152809			0.126999			-0.62233			-0.15101			-0.627954			-0.860887			-0.741016			-0.240748			-0.173362			-0.162256			-0.641821			0.306223			0.632445			0.228581			-0.54552			-0.219862			-0.286792			-0.964248			0.47071			0.0954683			0.320669			-0.440625			0.0464028			0.13133			0.589957			0.138498			0.289458			-0.923242			-0.148414			-0.97615			0.23791			0.780665			0.354339			-0.31731			0.124542			-0.0360459			-0.272514			-0.138843			0.837495			0.163183			-0.645241			0.292757			0.499506			-0.204472			0.091351			-0.394323			-0.297369			-0.218173			-0.278973			0.021941			-0.137529			-0.519987			0.596873			-0.609156			0.167437			-0.653646			0.0912228			-0.220475			-0.258312			0.332185			-0.196476			0.642926			-0.23528			-0.742592			-0.525866			0.484897			-0.60037			0.226044			0.104826			0.190153			0.968573			0.0595079			0.324216			-0.351372			0.315292			0.738197			0.737792			-0.185914			-0.612068			0.333045			0.390624			0.151678			-0.283747			0.532191			-0.739627			0.115282			-0.153937			-0.604308			-0.010351			-0.389014			-0.766469			0.411899			-0.20496			-0.335492			0.593974			-0.285049			-0.202295			0.387709			-0.593336			0.37615			0.447905			-0.770411			0.86175			0.285883			-0.686276			0.0909975			0.0376516			0.00450132			0.290903			-0.167992			0.374485			-0.248806			-0.0130762			-0.19914			0.122534			-0.482861			-0.734053			0.929772			-0.539637			0.762944			-0.133115			0.362191			0.537661			-0.234021			0.105461			-0.393181			0.327067			0.212686			-0.642603			0.149332			0.301167			0.396846			-0.0355849			0.450557			-0.597388			0.0989226			0.0350394			-0.00660945			-0.614092			0.413676			0.119265			0.666885			-0.614647			0.375524			-0.774879			0.714575			0.39403			-0.111218			-0.156077			0.15807			0.16952			-0.504388			-0.340018			-0.00304592			-0.416263			0.312622			0.343162			0.284897			0.396677			0.439481			0.306485			-0.381651			-0.114194			-0.146767			-0.446828			-0.32206			-0.128198			-0.461179			-0.395042			0.156343			-0.0624027			0.126827			-0.0709574			-0.282094			-0.146095			-0.0403513			0.413925			-0.38083			0.105374			-0.0988879			-0.255249			0.786484			-0.137614			0.0602294			-0.0883653			-0.00362791			0.442213			-0.0360537			0.642731			0.491637			0.727354			0.235657			0.214606			-0.349003			-0.0268717			-0.171274			0.19373			-0.0189288			0.37438			0.11278			0.433194			-0.0298586			-0.0863473			
-0.572153			0.505566			-0.149484			-0.658267			0.0618215			-0.20128			-0.991842			0.026542			-0.156754			-0.249891			0.270574			0.542973			0.259874			-0.0916492			0.511531			0.280317			0.474156			-0.721382			0.390467			0.508548			-0.469629			0.413163			0.101893			0.36573			0.100101			0.405556			0.33583			0.522062			-0.208749			0.138669			-0.172198			0.0429933			0.637981			-0.796017			-0.565655			0.0759474			-0.680397			0.39884			0.0255371			0.48967			0.258395			-0.732564			-0.38344			0.124884			-0.825448			0.4374			0.227923			0.58548			0.180514			0.865359			0.241678			0.372767			0.189078			0.105663			0.537711			-0.193962			0.544939			0.306348			0.141179			0.261042			-0.70113			0.141151			-0.163869			0.448082			0.633536			0.303505			-0.63945			-0.513148			-0.218749			-0.604194			-0.208771			0.359195			-0.887348			0.0772641			0.477434			0.00747672			0.0305324			-0.5317			-0.4337			-0.475271			0.858653			0.380519			-0.17506			-0.423842			-0.130508			0.330133			0.452674			0.0837289			-0.36572			-0.124795			-0.396646			0.105188			0.0865574			0.32852			-0.450709			-0.385041			-0.643195			0.298415			-0.542949			-0.36471			0.474349			0.414921			-0.442255			-0.241733			0.632698			-0.0383137			0.0483684			-0.706737			0.146448			0.365343			0.247596			-0.52622			-0.16528			0.410322			-0.636597			-0.677527			-0.480581			-0.792845			-0.252941			0.0889074			0.207089			-0.0880717			-0.151854			-0.73555			0.144409			0.0841134			-0.201577			0.11441			-0.235539			-0.612077			0.14729			0.531934			-0.957112			0.188253			-0.108707			-0.813405			0.228302			0.390804			-0.611237			-0.690019			-0.209489			-0.682481			-0.420876			0.907693			0.826799			-0.219467			-0.951819			0.009398			0.118647			-0.261836			0.187016			-0.27891			0.590039			-0.120984			-0.0136564			-0.538304			-0.378032			0.527602			0.561445			0.380516			0.864488			-0.0456792			0.0667621			-0.0617373			0.377084			-0.938563			-0.503293			0.350659			0.189079			-0.578751			0.0846037			0.378927			-0.277078			-0.665336			-0.163602			-0.306421			-0.0214844			0.387855			0.18044			-0.157123			-0.890976			-0.427663			-0.60942			0.0716936			-0.586932			0.543525			-0.576754			-0.505893			-0.358644			-0.412526			-0.283073			-0.630331			0.275665			-0.337447			-0.602335			-0.2282			0.164424			-0.00717061			-0.293871			-0.0442227			-0.0550835			-0.52533			-0.0643171			0.457759			-0.271657			-0.305498			0.223321			0.787921			-0.121467			0.450136			0.367802			0.579499			-0.165335			0.30827			0.182554			0.042076			0.532067			0.369675			0.119314			0.22754			-0.0848472			0.558416			0.163336			0.566989			-0.068085			-0.057406			0.167643			-0.507126			0.688901			0.489151			-0.455552			-0.159114			0.547482			-0.177692			-0.154904			-0.711845			-0.241984			0.236156			-0.0396283			0.0885009			0.746076			-0.550933			-0.544824			-0.616841			-0.340511			-0.508279			-0.31741			-0.327126			0.263931			0.282649			-0.478031			0.403447			-0.765973			-0.465267			0.681355			0.309857			0.353281			0.122784			-0.0326535			0.372747			-0.698934			0.20062			-0.0784808			0.534582			-0.394612			0.464339			0.996782			0.829774			0.737381			-0.350173			0.178312			-0.969542			0.0787733			-0.217252			-0.244677			-0.501777			0.652491			-0.534422			0.437592			0.155739			-0.328241			-0.24321			-0.222817			-0.224555			0.701832			0.0400277			0.190107			0.321152			-0.322023			0.150412			-0.594647			0.0511347			0.0325555			0.912311			-0.334181			0.548053			-0.230683			-0.448922			0.18188			0.209324			0.456462			-0.141554			-0.172007			-0.466226			-0.830447			-0.049612			0.713629			0.00649133			0.392583			-0.279305			-0.729914			-0.490367			0.0702035			-0.130255			-0.655391			0.898268			-0.0380444			-0.188091			-0.315102			0.49127			-0.241394			0.318593			-0.410494			-0.283174			-0.231985			-0.296237			-0.046719			-0.0550929			0.545751			0.226275			-0.0284068			-0.0556415			0.315712			0.0400982			0.461009			0.248638			0.55001			0.862495			-0.000624125			-0.241305			0.573882			0.345259			0.282289			-0.172034			0.0718644			-0.360015			-0.107478			-0.725092			-0.120555			0.214472			-0.048993			-0.142654			0.159248			-0.320303			0.183495			-0.724307			-0.402208			0.743796			0.804641			-0.19972			-0.676538			-0.506193			0.268519			0.0400503			-0.306572			-0.0872727			-0.118835			0.121217			-0.389719			0.147862			-0.193371			-0.771726			0.0381125			-0.487155			-0.212887			-0.563199			0.144103			0.359978			0.717255			0.420509			0.348287			-0.264667			-0.550857			-0.548491			0.321927			-0.63409			0.0238447			0.314366			0.267913			-0.380667			-0.0374696			-0.406685			0.147139			-0.572487			-0.450106			0.0168596			-0.268418			0.764023			-0.0375456			0.167372			0.262548			-0.156052			-0.24263			-0.311571			-0.390017			0.663469			0.973099			-0.943907			0.968709			-0.448424			0.0814387			0.357067			0.144614			0.480888			-0.740245			-0.514815			-0.0535925			0.46188			-0.891865			-0.432981			0.351893			0.398316			0.708273			0.0416652			0.257813			0.156421			0.0555291			0.111055			0.0670758			-0.576677			0.0767225			-0.420907			-0.945007			-0.428658			0.781607			-0.863379			-0.759209			-0.24399			0.108522			0.0541331			-0.254866			-0.369959			-0.162136			0.00324972			-0.804796			0.2375			0.982643			0.0136406			-0.178625			-0.300397			0.164154			-0.676502			-0.12306			-0.538395			0.272812			0.490709			-0.351166			0.0200349			0.213209			0.0842957			-0.359235			0.071593			-0.364739			0.767506			0.23805			-0.184812			0.0825412			0.297589			0.00495308			-0.0558605			-0.231144			-0.235622			-0.519339			0.945791			0.203332			-0.013055			-0.0395701			0.500622			-0.851814			0.0425666			-0.273404			0.436139			-0.0212249			0.0677298			0.383679			-0.166715			-0.45101			-0.84652			0.0325469			0.536702			-0.394414			-0.384736			-0.423849			0.723115			-0.319967			0.227575			-0.181541			-0.417354			-0.411086			0.750031			
-0.456537			0.288026			-0.144737			0.463967			0.433218			-0.249864			-0.177011			-0.617908			0.296707			-0.28535			-0.583837			-0.806646			0.962494			0.394189			-0.81538			-0.767055			-0.250846			0.0503625			-0.0745649			0.0611942			-0.242502			0.246986			0.274469			0.181234			0.0578537			0.811584			-0.243301			0.969228			0.00763671			0.385594			0.344217			-0.651534			0.214729			-0.233243			0.531044			0.104062			0.729121			-0.169467			0.187678			0.671684			-0.747667			-0.257208			-0.197053			0.134476			0.306012			0.612502			-0.0441656			-0.603067			-0.230428			-0.00110327			0.00613992			-0.608091			-0.253848			-0.267084			-0.553848			-0.139827			-0.517862			-0.61523			0.16787			-0.0750499			-0.445242			-0.16722			0.122659			0.286149			0.0247563			-0.863973			-0.00504564			-0.0872554			0.0251998			-0.121409			0.105807			-0.933086			0.307138			-0.00975815			-0.469607			-0.244898			-0.571767			0.329015			0.00812827			-0.619054			0.503551			-0.77541			0.0669213			-0.731737			0.566284			-0.371235			0.0788386			0.80698			0.354672			-0.560502			-0.0263342			-0.139706			-0.566915			-0.422329			-0.259761			0.117144			0.161555			0.118856			-0.428663			0.259624			-0.103415			0.324005			-0.83995			0.401831			0.238688			-0.670065			-0.531922			-0.244731			-0.0136987			-0.010597			-0.280226			0.101183			0.711038			0.334195			-0.343811			-0.194456			0.35258			-0.131474			0.499983			0.325724			-0.324045			0.129604			-0.171565			-0.233569			-0.13384			-0.380274			-0.344177			0.346507			0.126682			0.68112			0.486882			0.532382			-0.540777			-0.519195			-0.905373			-0.181405			-0.43522			0.595138			0.369154			-0.103493			0.326269			0.233403			-0.528606			-0.307125			0.030246			0.311038			-0.170033			0.0345085			0.933418			-0.305176			-0.688098			0.497484			0.22228			-0.197358			0.55767			0.0456075			0.163327			-0.198054			-0.0314683			-0.197948			0.408772			-0.337095			0.395032			0.252863			-0.0261794			-0.471571			-0.671518			-0.439323			-0.0631167			-0.146653			0.315843			0.0228239			0.0901618			0.318972			-0.0671895			0.393057			-0.688211			-0.34572			0.07938			0.302579			-0.27763			0.826856			-0.290253			0.216796			-0.908672			-0.154129			-0.116106			0.501361			-0.575745			0.266449			0.102867			-0.579416			0.0668297			-0.435506			0.512207			0.618253			0.291557			-0.520446			0.86571			0.157331			-0.0337964			-0.221171			-0.305844			0.255024			0.0467267			-0.000566804			-0.314416			-0.0436994			0.351666			-0.231396			-0.376435			-0.715162			0.377155			0.39158			-0.828878			0.584073			-0.418711			0.06348			-0.67367			0.518076			-0.0198599			-0.830168			0.213624			-0.0626533			0.479091			0.527856			0.499587			-0.187279			0.97062			-0.174013			-0.237386			-0.0164691			-0.37342			0.356302			-0.199959			-0.710319			-0.409294			-0.466303			-0.268687			-0.16677			0.570256			0.273171			-0.261132			0.565569			-0.740681			0.717983			0.461687			-0.113932			0.534102			0.386283			-0.412991			-0.0790519			0.294934			-0.480461			-0.252243			-0.284879			0.412758			-0.70576			-0.295356			-0.202027			-0.0468439			-0.146033			-0.1339			-0.722785			-0.407761			-0.26541			-0.521406			-0.611867			0.0383909			-0.364379			0.761581			-0.144677			-0.134372			0.166844			0.438533			-0.125422			-0.367454			-0.127284			0.621887			-0.97125			0.259434			0.378994			-0.255345			0.32459			0.340902			-0.32572			0.0979713			0.471638			-0.416513			-0.58019			-0.11912			-0.742759			-0.653072			-0.0114486			0.787869			-0.54313			0.306427			-0.43508			0.569508			0.0156633			-0.162859			0.0077517			0.577001			0.440104			0.25814			0.0757539			0.697621			-0.227875			-0.0558113			-0.4561			-0.406294			-0.833808			-0.0965777			-0.356584			-0.617915			-0.130523			-0.760435			0.398862			0.152823			0.896152			0.0561538			0.0842898			-0.770948			-0.238556			-0.436082			0.332081			-0.709268			-0.147664			0.646017			0.40222			-0.191681			-0.495979			0.391411			-0.158915			0.550947			0.486296			0.0471294			0.703743			0.102955			0.541425			-0.685717			0.397753			0.157388			0.413824			0.0841732			0.503836			-0.409104			-0.573589			-0.00927415			-0.331937			-0.431331			-0.349361			-0.799844			-0.316457			-0.249428			-0.221513			-0.485064			0.245978			-0.043837			0.153985			-0.41238			0.250714			0.0966821			-0.162317			0.336865			-0.000441546			-0.21466			-0.669535			0.600707			0.564074			0.497733			-0.0585165			0.0308243			-0.437608			-0.686825			-0.369906			0.205094			0.691995			0.0152744			0.552431			0.185074			0.360624			-0.164504			0.233451			-0.258116			-0.195397			-0.303011			-0.109032			0.108561			-0.613454			0.528525			0.245593			-0.169945			0.303314			-0.736776			0.734322			-0.696649			0.576951			-0.849053			-0.32383			0.0794693			-0.268437			-0.170979			0.0226895			0.263993			-0.0345244			0.564596			0.0352034			-0.256813			0.152829			-0.40638			0.962082			-0.133315			-0.724746			0.775041			0.0109162			-0.5694			0.267914			-0.329114			-0.126068			-0.901685			0.0930902			-0.0782998			-0.116338			-0.299368			0.206992			0.0377418			-0.0402919			-0.0518735			-0.0832726			-0.215296			0.163982			-0.426407			0.272268			-0.13828			0.43052			0.0712672			0.294882			0.175895			0.275725			-0.464003			-0.788703			0.0901019			-0.353817			-0.189755			-0.746364			0.453079			0.859107			0.621805			0.434943			0.235606			-0.127217			-0.160794			0.76593			0.197462			0.184323			-0.861694			-0.0536085			-0.234018			0.316164			-0.501018			0.00674539			0.544081			-0.401259			-0.0392203			0.382559			0.466862			0.729606			0.647516			-0.415883			0.649237			0.365667			-0.00129839			0.312631			-0.272375			-0.406281			-0.0642094			0.238624			0.257024			0.00424589			0.351205			-0.551992			-0.00474143			0.326898			0.116917			0.706385			-0.0223793			-0.891467			-0.260077			-0.0571303			0.0900032			-0.586773			-0.0534763			0.362353			-0.106668			0.098135			-0.654285			-0.729472			-0.751554			-0.0283468			
0.288469			0.248231			0.507012			0.660177			-0.431466			-0.00880828			-0.464449			0.518116			-0.14719			-0.423346			-0.260332			0.247631			-0.601077			-0.594977			0.645219			-0.226897			-0.448705			-0.402471			0.0500369			0.0275945			-0.28761			-0.372387			0.491279			0.831105			-0.155988			-0.314726			-0.243012			-0.116128			0.272155			0.0964352			-0.0518146			-0.194689			-0.415863			-0.124089			0.25105			0.277994			-0.183556			0.376707			-0.160666			-0.151096			0.805841			-0.160279			0.41594			0.424959			0.612145			-0.251889			0.457832			-0.380666			-0.790959			-0.482107			0.546686			0.0801109			0.685769			-0.153688			0.835406			0.684502			0.420419			0.867349			0.398358			0.507822			0.135376			0.81688			0.918125			-0.0713804			0.183161			-0.624033			0.520496			0.341621			0.364139			0.773218			-0.803429			-0.254415			-0.653603			-0.179607			-0.335877			-0.166233			-0.050643			-0.180503			-0.331766			0.030764			-0.725484			-0.399523			-0.375311			0.568376			-0.658589			-0.779967			0.612098			-0.144027			-0.349168			-0.181125			-0.857633			0.549482			0.126658			0.72931			0.236595			0.0961742			0.372599			0.283864			-0.171024			0.594229			0.111325			-0.097285			0.0471681			-0.721323			-0.0795098			0.210731			0.65939			-0.0157572			0.326374			-0.0429399			0.179568			0.00450047			0.0903679			0.326725			0.217698			0.386654			0.308884			0.0786634			0.161299			-0.585872			0.185247			0.516981			-0.198104			-0.099688			-0.683729			-0.197094			-0.438255			0.10844			-0.979555			-0.0428218			-0.54085			0.0717696			0.00451531			-0.214997			-0.123682			-0.480301			-0.292926			0.120687			0.160662			0.494079			0.220377			-0.762512			-0.116251			-0.903994			0.613907			-0.927123			-0.110839			0.440575			0.650946			0.499654			-0.57963			-0.147365			0.367542			0.362365			0.0255162			0.388443			-0.204283			0.179776			0.11486			0.411745			-0.218471			0.189979			0.54839			-0.627409			0.336633			0.61078			0.171119			-0.273615			0.0148315			-0.254008			-0.0793077			-0.834385			-0.497245			0.405685			0.336411			-0.653463			0.100579			-0.36503			0.379763			0.261896			-0.57362			-0.609704			0.544032			0.322322			-0.6506			0.124323			0.532259			0.862133			0.453572			0.157588			-0.417517			-0.28113			0.0403602			0.0993964			-0.878096			-0.168862			-0.0700602			-0.64851			0.367718			0.0886371			0.153914			-0.575564			0.352702			-0.0272159			0.185804			0.0657847			-0.175708			-0.30762			-0.0756399			0.657559			-0.154549			0.300465			0.72384			0.0863289			0.553963			0.368615			-0.500901			0.804034			0.538727			-0.0493695			0.0135528			-0.457401			0.887345			-0.523162			0.320913			0.340406			-0.673318			0.116922			0.140828			0.47989			-0.359484			-0.672698			-0.660393			0.452202			0.0686532			0.0136659			0.850756			-0.249898			-0.675306			0.363074			-0.444194			0.0440493			0.755683			-0.471799			-0.395555			-0.794963			0.0716302			-0.246113			0.178007			0.306288			0.733574			-0.721332			-0.0204918			-0.545145			0.653422			-0.359591			-0.431211			-0.192696			0.81891			-0.248627			0.409412			0.750718			-0.297027			0.399317			-0.535484			-0.501835			-0.361791			0.0969167			-0.379386			0.102297			0.00146958			0.273755			-0.85476			0.736198			0.711443			-0.491083			-0.617453			0.457872			0.451225			0.0971517			-0.0348555			-0.215655			-0.526388			-0.300073			0.292795			0.127245			0.229092			-0.0801253			0.28601			0.36299			-0.530927			0.0129886			-0.535943			-0.357833			0.769946			-0.260834			-0.91934			0.00730131			-0.00809545			0.627255			-0.308957			0.0523149			0.665936			0.184715			0.886407			0.121806			-0.216004			0.380692			0.224593			0.623193			0.224993			0.0590515			0.450085			-0.543847			-0.62725			0.711856			-0.561927			0.581863			-0.182412			0.279225			0.0311416			0.255044			-0.56491			-0.0344585			0.0709018			-0.1301			0.623201			0.68154			-0.934196			-0.0489508			-0.694874			-0.408382			-0.0957977			0.178695			0.13804			-0.448871			0.730969			-0.298778			-0.135877			-0.719046			0.155887			-0.0138066			-0.401944			-0.0392184			0.0570071			0.263684			0.788841			0.20597			-0.350202			0.265761			0.854615			-0.046663			-0.0118463			-0.168605			-0.97848			-0.706797			0.986375			-0.565727			0.667793			0.499749			0.846692			0.0751136			-0.105716			-0.00572225			-0.385255			-0.23436			-0.0914127			0.276786			-0.438616			0.839465			-0.690181			-0.266236			-0.0447136			0.526675			0.0425925			0.117146			0.105926			-0.499316			0.334188			-0.128016			-0.959897			-0.785735			-0.539001			-0.798956			-0.125141			0.185216			0.377952			0.3187			0.0742416			0.117155			-0.570187			-0.678771			-0.106283			-0.843715			-0.294477			-0.432826			0.209255			0.411718			0.0991986			-0.330567			-0.206825			0.556414			-0.18524			0.113446			0.650228			0.751628			-0.193455			0.401883			-0.0978628			0.290522			0.580979			0.286281			0.0929222			-0.331914			0.315517			-0.759361			-0.140206			0.843523			0.526589			0.653427			-0.692007			0.131554			-0.424234			0.56776			-0.403554			-0.960478			0.420201			0.045641			0.349179			-0.298476			0.332349			-0.215517			0.0542425			0.620843			-0.726995			0.501237			0.941069			-0.090448			-0.277096			-0.442193			-0.207996			-0.619111			0.0847004			0.406337			-0.834592			0.13819			-0.0475717			0.490322			-0.116565			0.747021			-0.487717			-0.448095			-0.713661			0.352212			0.152335			-0.267537			0.283895			0.609424			-0.530242			-0.736549			-0.0610691			-0.170245			0.338808			0.235179			-0.0872237			-0.214093			0.118504			-0.443028			-0.194231			-0.234762			0.315007			-0.281125			0.672861			0.715582			0.556015			0.511703			-0.347471			-0.534063			-0.578048			-0.109109			0.332703			-0.318467			-0.5268			-0.317461			-0.343019			-0.141093			-0.678894			0.124147			0.112331			-0.0834349			-0.426198			-0.900065			0.0656527			0.487089			0.0551721			-0.263582			0.415423			0.231252			0.210055			0.452519			
0.170122			0.8627			-0.348994			-0.121589			0.0427022			-0.326649			0.364767			0.047703			0.367555			-0.0303993			0.92924			0.552255			-0.0788228			0.60111			0.302663			-0.382858			0.345199			0.704753			-0.187339			0.098466			-0.297628			-0.205622			-0.338196			-0.11381			0.179626			0.0513474			0.565813			-0.156025			-0.553542			0.220964			-0.454256			0.504816			0.517437			0.48513			0.410256			-0.988084			-0.0786081			0.90605			-0.319818			-0.323489			-0.515779			0.515931			-0.116207			0.0812174			0.0851625			-0.00676941			0.896739			-0.0299704			-0.470029			0.636144			0.547839			0.287716			-0.0130358			0.745856			-0.356997			-0.192031			0.438408			-0.307725			-0.053894			-0.0164462			-0.24271			0.978354			-0.324894			-0.122468			-0.60313			0.0664587			-0.0834795			0.0423973			0.00712975			0.400802			-0.811023			0.0173403			0.111954			-0.084029			-0.765424			-0.144954			-0.365877			0.16167			-0.340926			0.236382			0.0182382			-0.29685			0.164485			-0.522673			-0.704809			-0.739487			-0.181416			-0.00149295			-0.113904			-0.817745			-0.742292			-0.844144			-0.85415			0.46067			0.121479			-0.311631			0.813163			-0.40463			-0.283269			-0.39692			-0.377457			0.285567			0.453979			0.300012			-0.13324			-0.49779			-0.0559086			0.747411			-0.743008			-0.558018			0.596493			0.0216847			0.260634			-0.111612			0.153065			-0.511081			-0.0591217			-0.99754			0.252417			-0.716045			0.891552			0.484157			0.73242			-0.687488			0.778965			-0.837053			-0.418096			-0.318107			0.0425537			0.383741			0.764517			-0.283379			-0.45187			-0.392057			-0.193461			0.331643			-0.201425			-0.248471			0.70059			-0.147999			-0.0474266			-0.647388			-0.26808			0.334143			-0.30122			0.0293419			0.399643			-0.523566			0.0301397			-0.86869			0.176421			0.1906			0.922009			0.558526			0.207411			-0.512638			0.512468			0.239398			0.33854			-0.209584			-0.535581			-0.79291			0.824474			0.451837			-0.337921			0.673507			-0.11575			-0.544608			0.000276853			0.113555			-0.00388286			0.676675			0.172482			-0.553101			0.254732			0.421757			0.438978			0.347843			-0.157414			-0.072547			-0.0651842			-0.934751			-0.632506			-0.116504			0.70292			-0.0226625			-0.121598			-0.45468			0.0426634			-0.833232			-0.551196			0.00848215			-0.59425			0.0225919			-0.218982			0.0896784			-0.0621152			0.600904			-0.0508547			0.355849			-0.550551			0.392945			0.188392			-0.310005			-0.574428			0.192646			0.208487			-0.471887			-0.0216253			0.15407			-0.0890653			0.861985			0.411984			0.200837			-0.950776			0.666719			0.158975			-0.336095			-0.673147			0.244473			-0.473645			0.837361			-0.421051			-0.0074864			-0.875905			-0.566315			0.013406			0.345838			0.117381			0.12036			-0.21919			0.25458			-0.143621			0.149743			0.710714			0.0594685			-0.115205			0.491318			0.982442			0.103536			-0.796502			0.240182			0.450735			-0.0192911			-0.815096			0.272871			-0.259864			0.438422			-0.227152			-0.354504			0.992753			0.408524			0.705125			0.0334246			0.275551			-0.227694			-0.293242			-0.0348047			-0.371399			0.15704			-0.0484276			0.264059			-0.277492			0.617443			-0.161705			-0.0475196			-0.378305			0.137884			0.150685			0.165435			-0.169464			0.636963			0.257317			-0.100924			0.454462			-0.514998			0.126459			0.348837			0.570126			-0.139173			-0.330456			-0.582864			-0.245417			0.428884			0.30504			0.148395			-0.188481			0.462388			-0.360352			-0.0559872			-0.521115			-0.353754			0.514774			-0.145953			0.290436			0.146561			-0.232516			0.546364			0.802008			-0.0897748			0.0991328			-0.246613			-0.0601961			-0.410167			-0.750895			0.280405			-0.557606			0.261546			0.140493			-0.60892			0.445836			-0.807128			0.0482556			0.914599			0.759782			-0.735772			-0.126026			-0.589527			0.294686			0.306089			-0.174926			-0.962712			-0.742749			0.82631			0.791441			0.390898			0.417458			0.580597			0.0173177			-0.36159			-0.306709			-0.215997			-0.0780366			-0.60408			0.273106			0.807519			0.633707			-0.182714			-0.577909			0.58172			-0.516266			-0.443966			0.293865			-0.314633			0.253165			-0.864008			0.447854			0.207504			-0.186137			0.163019			0.403723			-0.91482			0.188767			0.734966			-0.408268			-0.429268			0.469011			-0.235507			-0.484302			0.121796			0.626152			0.553806			-0.110671			0.202081			0.272794			0.410581			-0.246711			-0.559967			-0.682801			0.0766089			0.32314			0.722178			0.611386			-0.0337287			-0.0851777			-0.246507			-0.6328			-0.396723			-0.702369			0.0421521			-0.100141			0.202672			0.451907			0.300554			-0.0378981			0.261699			-0.215725			0.442174			-0.698896			0.25655			0.523356			-0.720465			-0.222274			-0.323704			-0.0700595			-0.696232			0.155404			0.550128			0.0323887			0.447983			-0.183869			0.0932077			0.828329			0.157496			0.552273			-0.523851			0.124614			0.723781			-0.56498			0.574665			0.171198			-0.109935			0.48423			-0.905953			-0.0455336			0.107081			-0.694921			0.383889			0.0555555			0.427982			-0.104967			0.453735			-0.777223			-0.407033			0.141146			0.357617			-0.578081			-0.295152			-0.380578			-0.624773			-0.400191			-0.015685			-0.487826			-0.50472			0.223217			0.231101			0.268761			0.0909668			0.41535			-0.175161			-0.0582342			0.490882			0.34592			0.115454			0.165211			-0.552187			-0.8075			0.130917			-0.0733437			-0.404377			-0.665307			-0.666399			-0.0847883			-0.307307			-0.113035			0.542813			-0.929997			0.30445			-0.273332			0.363465			0.570408			-0.0340708			-0.0314784			-0.521092			-0.784196			0.554123			0.00164665			-0.0716018			-0.480897			-0.281123			-0.698843			-0.946491			-0.118545			0.174322			0.0247829			0.266509			0.0784531			-0.229845			-0.365484			-0.468923			-0.0169392			0.825224			0.0173458			0.10337			-0.169082			-0.548249			-0.639715			0.584462			0.697547			0.194609			0.54215			-0.695049			0.73214			-0.59073			0.29327			-0.713529			0.495095			0.892774			-0.00932796			0.230596			
-0.254045			0.12505			0.549374			0.348333			0.0884596			-0.099102			-0.526631			0.256101			0.823603			-0.175666			-0.192811			-0.648747			-0.227244			0.919316			0.675526			-0.406101			0.311982			-0.329593			-0.316148			-0.118065			0.100723			0.0915248			0.582078			-0.439853			-0.484506			-0.625632			-0.336146			0.726831			0.0815028			-0.548521			0.276814			-0.498637			-0.484347			0.172968			-0.233591			0.618709			-0.562315			-0.561842			0.768541			0.0880156			-0.482643			-0.294407			-0.0979013			0.39552			-0.496339			0.365084			0.766815			0.11989			0.779252			0.924554			-0.378528			-0.0856811			0.485248			-0.0195898			-0.328289			0.466739			-0.465508			0.147393			-0.186524			-0.35302			-0.752204			-0.268014			-0.694493			0.657391			0.657888			-0.0760683			0.511843			0.164317			-0.286849			-0.401767			-0.470582			-0.22804			0.176317			0.429162			-0.21577			0.350766			-0.194405			0.102466			0.297958			0.348213			-0.27669			0.424727			-0.365037			-0.053596			-0.749113			0.328083			0.0898358			0.0717793			-0.146656			0.200834			0.650608			0.65632			-0.542428			-0.0904753			0.736159			0.517108			-0.0268103			0.111448			0.271404			-0.191564			-0.0896503			0.762567			-0.0464238			-0.947439			-0.485066			-0.244949			0.475387			0.60858			-0.349447			0.294012			0.982503			-0.665522			0.22872			-0.453611			-0.0208735			-0.61208			-0.676095			-0.028285			0.470145			-0.152374			-0.00361305			0.831125			0.444112			0.278783			0.0614999			-0.257518			-0.390688			0.246115			0.457162			0.58787			0.426803			-0.429228			-0.590082			0.703919			-0.549839			-0.0258659			0.0345737			0.252636			-0.0367493			-0.467311			-0.184637			-0.375541			0.138731			0.268385			-0.424891			0.885742			0.221453			-0.602931			-0.725464			-0.16883			-0.272634			-0.0343025			-0.366217			-0.729239			-0.400439			0.252102			0.196532			0.170875			-0.13335			0.0342654			0.809556			0.831504			-0.590607			0.186683			-0.536362			-0.411653			0.393981			0.228237			0.210304			0.0237293			0.0725278			-0.471343			0.761306			0.401588			0.0728434			0.366017			0.302879			-0.00403224			-0.0261011			-0.392048			-0.821227			-0.657793			-0.0874515			0.0899324			-0.342722			-0.351706			-0.473665			-0.362316			-0.0966448			0.214867			-0.120225			0.0837453			-0.289024			0.43066			-0.511238			0.501916			0.537565			-0.503369			0.656354			0.836817			0.0651716			-0.341279			0.660421			0.479249			-0.73144			0.18352			-0.0575412			-0.0262487			-0.0800992			-0.331558			-0.221504			0.844685			-0.208669			0.100246			0.107664			0.735116			0.169133			-0.465058			0.380669			-0.528983			0.594335			-0.607781			0.396106			-0.485654			0.32832			0.092189			-0.124081			-0.0196501			0.150642			0.535556			-0.58855			0.239292			-0.116456			0.336801			0.437244			-0.619938			-0.678536			0.0556564			0.207949			-0.138165			-0.153881			0.916758			0.66105			0.274687			0.218057			-0.199203			-0.394933			0.938121			-0.0355039			-0.0523855			0.0836871			0.297937			0.212418			-0.449577			0.127407			0.641346			0.162469			-0.0702362			0.758624			0.340298			0.627027			-0.377168			-0.0191791			0.140531			0.110355			0.36707			-0.781136			-0.563227			-0.103576			-0.528817			-0.118653			-0.183914			-0.634808			-0.499015			-0.252014			0.383952			0.203229			0.411139			-0.443833			0.117968			0.876244			0.00965944			-0.0197477			0.57475			-0.252005			-0.433263			-0.94276			-0.398905			-0.250244			-0.191733			-0.0181325			-0.66668			-0.360126			-0.844116			-0.134003			0.235763			-0.52803			0.564645			0.343174			0.198956			0.0521309			0.0948796			0.655454			0.294248			0.172827			0.704877			0.412236			-0.564172			0.359419			-0.190972			0.333332			-0.434483			0.363717			0.0283342			-0.142665			0.297455			-0.299062			-0.121964			-0.58251			-0.152891			-0.192733			0.108309			0.262275			-0.697831			0.967684			0.752811			-0.207226			-0.263748			-0.592383			0.176908			0.764494			0.173595			0.520423			-0.622716			-0.0258008			0.333438			0.281486			-0.850223			0.0159527			0.357471			0.330767			-0.414507			0.35132			0.218349			0.545361			-0.79012			0.439335			0.0781091			0.164403			-0.073402			-0.39833			-0.0263057			-0.15416			0.769206			0.473324			-0.208564			0.814852			0.406529			0.854496			0.076451			-0.0409001			0.173669			-0.141848			0.625992			-0.395406			-0.465375			-0.577169			-0.575632			0.57828			0.185538			-0.63056			-0.557952			-0.46604			-0.201409			-0.537764			-0.064396			-0.811298			-0.353179			0.341614			-0.389542			-0.225453			0.290343			-0.504471			0.0716569			0.361295			-0.954028			0.0607227			-0.351369			0.524412			-0.214054			-0.47889			-0.0853577			-0.0266692			0.526263			0.152637			0.00269598			0.163327			0.61857			-0.920197			-0.725205			-0.450947			-0.0995261			0.0242304			0.24235			0.0830491			-0.105			-0.00921358			-0.0371979			0.114645			-0.565597			-0.235422			-0.290529			0.0979952			-0.0311128			0.885847			0.0230742			-0.459949			-0.45933			0.3723			0.520221			-0.0149808			0.92893			0.167797			-0.0476796			0.139729			0.586501			0.601443			0.287457			0.111919			-0.17742			-0.221474			0.580746			0.132102			0.826187			0.0267046			0.755269			-0.0348665			-0.146322			0.431691			-0.0771071			-0.362961			0.0376562			0.259959			-0.0608722			0.37664			-0.723978			0.796171			0.711496			0.855381			0.455015			-0.235322			0.452711			-0.200882			0.306493			0.493485			0.3295			-0.19537			0.735124			-0.332871			0.303297			-0.146382			-0.0830134			-0.182601			0.0872386			0.376181			-0.0889956			0.913376			0.339368			-0.163187			-0.666922			0.869664			-0.00882926			-0.0195837			0.649329			-0.463412			-0.732715			-0.0927656			0.100839			0.217889			0.502618			0.858534			-0.678604			-0.0949043			-0.274779			-0.372543			0.412126			0.191633			0.94398			-0.306909			0.0794686			0.0730756			-0.870265			0.0430202			-0.241903			0.11134			-0.128441			0.486169			0.188037			0.0227813			0.172912			
-0.723647			-0.0734985			-0.795198			0.617423			0.562106			0.824642			-0.421717			0.058561			-0.014823			-0.217471			0.157163			-0.106105			0.707193			-0.00841945			-0.052883			0.989609			0.413859			0.184612			-0.396469			0.713062			0.432997			-0.0756533			-0.0154299			0.894653			-0.423299			-0.733013			0.280642			0.233595			0.877609			0.409328			0.78738			-0.216097			-0.0247298			0.451606			0.0213922			-0.141139			-0.486576			0.36511			0.0631103			0.187123			-0.0368226			0.0953375			-0.260967			-0.248964			-0.510791			0.87745			-0.713708			-0.192331			-0.103282			-0.408566			0.20218			0.866457			0.704279			0.0286707			-0.722993			-0.894975			-0.0230706			0.0333217			0.158244			0.370118			-0.4371			0.244343			-0.421594			-0.337047			0.151775			-0.0401951			0.336841			0.321318			0.420478			-0.276805			0.734024			-0.36307			0.178753			0.029202			-0.420808			-0.234628			0.224216			0.0915266			0.215822			-0.089715			-0.781283			0.456841			0.229189			-0.211789			0.0652522			-0.374868			-0.138202			-0.27274			0.471926			-0.229613			0.131975			-0.35061			0.290564			0.501419			0.440675			0.043742			-0.19492			0.950874			-0.159333			-0.02118			0.291514			-0.427182			0.247087			-0.610645			0.131324			-0.00429785			0.487216			0.789193			-0.250341			0.695335			-0.0895488			-0.084967			-0.430872			-0.61999			-0.328351			0.0394178			-0.224119			0.330194			0.235878			0.611263			-0.559504			-0.960144			0.315245			0.0628108			0.177909			-0.149675			-0.355797			0.332809			-0.787788			-0.420823			-0.354507			-0.176133			0.637826			-0.506697			-0.256106			0.211213			-0.725704			-0.566791			-0.456776			-0.408411			0.0944691			-0.681651			0.864756			-0.465515			-0.715014			-0.0882903			-0.69735			0.189287			-0.252922			0.072001			-0.414257			-0.349191			-0.0767115			0.496228			0.848629			0.842716			0.160381			0.787753			-0.0909263			0.954307			-0.0819262			-0.549232			0.109891			0.664739			0.453702			-0.69699			-0.285193			0.157093			-0.59701			-0.628593			0.868001			0.682171			0.44636			0.0582582			-0.213937			0.343384			-0.980595			0.247578			0.0445468			0.562015			-0.0232083			0.778247			-0.393732			0.512615			0.761371			-0.339954			-0.307312			-0.0361951			0.858547			0.678598			-0.0998878			0.704841			0.223839			0.308058			-0.374213			0.00133848			0.360339			-0.449714			0.363971			-0.260302			-0.281258			0.831992			-0.588527			0.471427			-0.15408			-0.172431			0.378477			-0.214877			-0.408246			0.443828			-0.96172			0.216836			0.093879			-0.0295484			-0.569244			0.33938			-0.138309			0.656613			0.351262			0.0668025			-0.195911			0.142253			0.398995			0.247304			-0.137472			0.727585			-0.0863759			-0.33747			-0.0425573			-0.0752229			0.147308			-0.260016			0.369514			-0.1454			-0.618899			0.182766			-0.281241			-0.32016			-0.4999			0.388472			-0.914794			-0.596732			-0.114453			-0.461699			0.839948			-0.57269			0.114437			-0.0786299			0.474323			0.346978			-0.646109			0.79344			-0.182267			0.04078			0.54937			0.239009			0.108343			-0.396257			0.326856			0.24514			0.561845			0.503288			0.245136			0.158909			0.680827			-0.794813			-0.480544			-0.171015			0.897958			0.418931			-0.541344			0.134722			-0.0896915			0.09035			-0.146996			0.334866			0.183954			-0.321211			0.420701			0.29086			-0.0800229			0.900332			0.452244			0.553733			-0.112655			0.460087			0.503834			-0.231459			0.195974			0.816558			-0.280744			0.220715			-0.103566			0.131038			0.906756			-0.234756			0.468441			0.463755			0.506894			-0.1249			0.995745			0.940104			-0.255511			0.142953			0.472303			-0.0679481			-0.53647			0.597798			-0.695751			0.0451224			-0.804684			-0.500442			0.32739			0.81326			0.0107456			-0.34866			0.33693			-0.484253			0.0926593			-0.868717			-0.509548			0.897185			-0.484499			-0.362566			-0.240244			-0.972707			-0.35396			-0.192451			-0.135244			0.485378			-0.888158			-0.0296404			-0.0264112			0.364407			-0.284806			0.0123846			-0.39922			0.565263			0.651271			0.399263			-0.368663			-0.0967418			-0.666602			-0.270653			0.290375			0.621294			-0.248061			0.922503			-0.106028			-0.0640329			-0.409833			0.287442			0.533216			0.214939			-0.0326097			-0.00761315			0.488588			0.504272			0.395015			-0.384505			-0.182754			-0.822348			-0.400392			-0.202386			0.613585			-0.570113			0.29566			0.217473			0.0439585			-0.319607			-0.43571			0.0321655			0.9607			-0.215368			-0.531018			0.069853			0.038283			-0.0566973			-0.00373344			0.564545			0.0192423			0.446961			-0.647623			0.446289			0.595027			0.54862			0.0695108			0.127926			0.921795			-0.168824			-0.167578			0.444228			0.34642			0.579088			-0.390424			-0.561276			0.275667			0.748591			-0.143671			0.475956			0.0959307			0.228538			-0.0131459			0.689268			-0.117131			0.11363			0.918212			-0.194552			-0.351702			0.394243			0.146721			0.296949			0.761034			-0.574715			0.16755			0.525566			-0.258252			-0.132992			-0.133332			0.317903			0.296849			0.594537			-0.277464			-0.0580198			-0.276089			-0.123433			-0.0695491			0.146584			0.710474			-0.505828			-0.0252699			0.14131			0.20883			0.847265			0.479296			-0.367885			-0.203448			0.394229			-0.0974198			0.109298			-0.669843			0.303544			-0.110564			-0.117371			0.0650355			-0.646922			0.0539001			-0.621807			0.0942494			-0.325692			-0.652013			-0.542581			0.382142			0.0296028			-0.86628			-0.50222			-0.0572551			0.150144			0.388002			-0.0720593			-0.502469			-0.194976			0.583925			-0.0217258			0.572226			0.0468712			0.87741			0.0574398			0.126309			0.610174			-0.164121			-0.166922			-0.0388525			-0.586602			0.090629			0.514217			-0.640634			-0.340436			-0.0343019			-0.679384			0.416469			-0.187716			0.270609			-0.859811			0.529044			-0.115947			0.0916887			-0.0144867			0.692908			-0.0647253			0.392688			0.463732			0.140105			-0.64875			0.425593			0.0197115			-0.355			0.367429			-0.16671			0.196583			
-0.521532			0.0715666			0.0431001			-0.179471			0.481774			-0.787602			-0.326758			0.929974			0.200417			-0.0974345			0.548381			0.690428			0.346827			-0.346965			-0.265076			-0.19846			0.320663			-0.358092			0.0727682			-0.135192			-0.106932			0.218988			-0.218757			-0.141078			0.108527			0.127019			0.604997			-0.407327			0.258361			0.117537			-0.336256			-0.0926626			-0.00426806			-0.216364			-0.325448			0.19468			0.0849953			0.176238			-0.225725			0.607001			-0.334864			-0.255726			-0.0292573			-0.90574			0.158482			-0.511712			0.0706743			-0.237599			-0.846439			-0.161595			0.23085			0.59911			0.379979			-0.151399			-0.769513			-0.236512			0.483139			0.762288			-0.136272			0.108396			-0.0334795			0.227939			0.213955			0.270519			0.558852			-0.37412			-0.287206			-0.490479			-0.574229			-0.0240332			-0.317742			-0.533524			0.677412			0.198017			0.170728			0.360388			-0.15177			0.101672			0.322284			0.467815			0.276684			0.494862			0.0716588			-0.00808664			0.351148			0.646362			0.604163			-0.0565966			0.974866			-0.0226362			-0.366056			-0.231765			-0.688604			0.0102976			-0.0244416			-0.0900294			-0.0444677			-0.248285			0.228793			-0.370559			-0.281327			-0.0830203			0.85219			-0.307054			0.669463			0.157058			-0.338536			-0.0241361			-0.897997			-0.739418			-0.369875			-0.162339			-0.455384			0.950154			-0.314351			0.0784101			0.0424253			0.555026			-0.0396541			-0.299871			0.327169			-0.629333			-0.264106			0.105206			-0.0245211			-0.105899			-0.334777			0.464649			-0.958217			0.0546301			-0.277884			-0.132732			-0.557758			0.761411			0.0660182			0.0665878			0.155517			-0.57177			0.347068			0.0131191			0.694625			0.140977			-0.380551			-0.0224733			-0.454599			-0.377629			0.554093			-0.179966			-0.547457			-0.528975			-0.706873			-0.589866			0.132348			-0.0888038			0.309394			0.514133			-0.698963			-0.246283			0.0732939			0.557057			-0.506411			0.483976			0.712537			0.150301			-0.257294			-0.251162			-0.400052			0.321494			-0.479426			-0.564972			0.488064			-0.295753			0.293864			0.53303			0.170989			-0.764029			-0.120087			-0.59659			0.106539			0.129067			-0.422911			-0.843304			0.371607			-0.362269			-0.30428			-0.0569003			0.648433			-0.619934			0.158522			0.818977			0.925701			0.110603			-0.0151246			-0.80257			0.839753			0.816281			0.22941			0.494022			0.200138			0.629181			0.0101069			0.50567			0.0887264			0.320036			0.229047			-0.534701			0.190268			0.103452			-0.443265			0.123139			-0.287207			0.156774			0.258371			-0.30566			-0.343904			0.786902			0.846785			-0.460395			0.124563			0.858803			-0.700937			-0.542172			0.713905			0.324407			-0.160188			-0.168355			-0.102768			-0.195251			0.436913			-0.698279			-0.00689816			0.599133			0.2093			-0.372785			0.162334			-0.394935			0.0659			0.165386			0.524224			-0.442727			0.299271			0.0458663			0.467856			0.624016			-0.780718			0.3566			0.576111			-0.0782439			0.780033			-0.115766			-0.863027			-0.703634			0.223457			0.63571			0.403982			0.0587182			-0.00206561			0.273877			-0.0679352			-0.781028			-0.202183			0.0874599			-0.109545			0.273747			-0.326994			-0.0119075			0.0768388			0.289926			0.95414			0.510457			-0.0990468			0.493071			-0.0643214			0.316991			0.82724			-0.319817			0.128494			0.567977			-0.354022			-0.563445			0.397467			-0.283485			-0.494888			-0.572037			0.0614858			0.321898			-0.110835			0.48252			-0.4591			0.529552			0.591941			-0.450169			0.164823			-0.432642			0.141617			0.188357			-0.255715			-0.360134			-0.440075			-0.889515			-0.00424789			0.263842			0.041195			0.377955			0.00571205			0.0310264			-0.429426			0.732215			-0.36538			0.602751			-0.0950437			-0.726574			-0.407654			-0.365737			0.214275			0.0679927			0.0587158			0.274995			-0.104291			-0.474763			-0.351041			-0.354232			0.698622			-0.0265539			-0.0902636			-0.213407			0.0997726			0.426096			-0.312083			-0.758147			-0.466941			-0.507652			-0.46935			0.387859			-0.0988621			0.223132			-0.24641			0.143333			0.455295			-0.555902			-0.26322			0.169716			0.757934			-0.334756			-0.224771			-0.289902			-0.132599			0.282161			-0.325293			-0.743631			-0.601185			-0.268561			0.694244			0.575325			0.265563			0.39094			0.351065			0.00462114			-0.0098102			-0.360902			-0.683592			-0.622416			-0.128019			-0.167703			-0.449702			-0.131836			0.245182			-0.969223			-0.14735			0.8229			0.556021			-0.249247			-0.53051			0.626692			-0.280109			0.643816			0.630682			-0.0357812			0.3406			0.404833			0.292337			0.467792			0.569259			-0.23649			-0.236406			-0.347415			0.882847			-0.0280861			0.0208			0.116839			-0.0115564			0.598352			-0.850344			0.277384			0.261165			0.0150635			-0.866962			0.61704			0.538999			0.197616			-0.206096			0.279366			-0.168471			0.648815			0.359739			0.100584			0.11828			0.311753			-0.725164			-0.225676			0.679778			0.0782375			-0.535757			0.468005			0.381183			-0.391888			-0.153356			0.387188			-0.174557			-0.0392972			-0.737559			-0.00848854			0.555384			0.144141			0.534278			-0.0337838			0.281616			0.272238			0.983			0.76674			-0.65625			-0.572343			-0.122862			-0.245566			-0.363291			0.833849			-0.295449			-0.658768			0.508914			0.544102			-0.448685			0.429606			0.228613			-0.000662453			-0.140738			0.519312			0.22564			-0.439849			-0.357218			-0.142132			0.281099			-0.231035			0.597096			-0.594217			0.769846			0.154027			0.535302			-0.156682			-0.278854			-0.225223			-0.246556			-0.125508			-0.351175			0.772793			0.96921			-0.342027			0.536802			0.258829			0.429314			0.385583			0.260138			-0.392718			0.415931			-0.733556			-0.575627			0.505381			-0.617105			-0.217893			0.276517			-0.308992			0.529912			-0.477843			-0.696031			-0.520141			-0.000436533			-0.246315			0.208163			-0.392152			0.295701			-0.318029			0.207627			0.407686			0.235445			-0.0846201			-0.0470923			-0.146596			0.239966			0.134713			0.188344			-0.0276148			
0.21739			0.442453			0.267111			-0.316573			0.786923			0.890254			-0.92599			0.558847			0.0641937			0.11323			0.0460955			0.503624			-0.102971			0.0129732			-0.13062			0.516298			0.263472			-0.235463			0.00808106			0.116664			0.325636			0.956416			0.293493			-0.319884			0.381279			-0.683074			0.360248			-0.758861			0.0397036			-0.243668			-0.0859014			0.120278			0.440593			0.131733			0.256379			-0.23883			-0.313894			0.602044			-0.123009			-0.383611			-0.327335			-0.235154			-0.177697			0.0159971			0.590257			0.0997676			0.411956			-0.437139			0.375733			0.923459			0.0322577			0.254082			0.446349			0.210222			0.590322			0.422878			0.24368			-0.766519			-0.0774203			-0.848542			0.20908			0.118213			0.513272			-0.145482			0.00693628			0.373336			0.743829			0.7741			0.39766			-0.651921			-0.352871			0.233342			0.38588			-0.163395			-0.75662			0.0354018			0.811172			0.339487			0.130866			0.145387			-0.24193			-0.198865			-0.00456568			0.193751			-0.336028			0.266017			0.592401			-0.388903			0.518879			-0.738528			0.335096			-0.721993			-0.459859			-0.331421			-0.0790078			0.445388			-0.225863			-0.475599			-0.0067849			-0.549074			-0.184614			0.46495			-0.248665			-0.84494			-0.371632			-0.0535734			0.4249			-0.310037			0.299351			-0.587923			-0.200167			-0.629603			-0.0452823			-0.438782			-0.797339			0.451501			-0.628257			-0.926826			0.159353			0.469628			-0.258914			-0.400975			0.240982			0.50987			-0.0756009			-0.478513			-0.0638849			0.178141			0.259736			-0.00170151			-0.365494			-0.208322			0.94781			-0.228514			-0.331899			-0.76703			-0.100876			0.75668			-0.230789			0.223716			-0.909035			-0.183122			0.0932135			-0.000859902			-0.423469			-0.0925596			0.0938273			0.664652			-0.173927			-0.160331			0.400612			0.411315			0.433493			0.00264951			0.393476			-0.0693522			-0.107767			-0.0134247			0.134349			0.44185			0.074725			0.894053			-0.270115			-0.291769			-0.130314			0.215038			-0.222434			0.48925			-0.146413			-0.418535			0.417155			0.0953079			-0.511117			0.419303			-0.0750166			0.170645			0.0713435			0.754621			0.33967			0.817058			-0.302115			-0.310846			-0.0945769			-0.0657306			-0.261655			-0.110799			-0.121771			0.458702			-0.273587			-0.211598			0.380619			0.128441			0.101311			-0.355973			-0.0659095			0.399952			-0.592966			0.0741387			0.150432			-0.244538			-0.244086			0.0406435			0.704465			0.165478			0.500388			0.163842			-0.603366			-0.841587			-0.371178			0.395877			0.684062			0.496598			0.299432			-0.190655			0.0243892			-0.145803			-0.075934			0.188533			-0.124247			0.127787			0.163054			0.495082			-0.253047			-0.488546			0.423152			0.191154			-0.135891			-0.209985			-0.248899			-0.322951			-0.347469			0.588737			0.13412			0.203346			0.396543			-0.104691			0.113905			-0.526722			-0.272857			0.0269288			-0.053757			-0.365853			0.122161			0.264763			-0.108471			-0.238973			0.102493			-0.433706			-0.23567			-0.361167			-0.815437			0.0171722			-0.7799			-0.490456			0.632466			-0.0947516			-0.76515			-0.0891238			0.129635			0.051484			-0.046592			0.732975			0.908524			0.38657			-0.211186			-0.172518			0.369564			0.273332			0.547016			-0.431781			-0.0228208			0.408902			-0.331808			-0.34184			-0.355489			0.300069			-0.872502			0.264863			0.168832			-0.0110649			-0.0747449			-0.0754325			0.47763			-0.0259134			-0.604423			0.840476			-0.0802515			-0.661429			-0.385732			0.0264476			0.375999			0.317956			-0.212077			-0.509415			-0.657131			0.0590017			-0.252853			0.345206			-0.792406			-0.810216			0.144432			-0.707092			0.0930557			-0.066879			-0.327215			0.338494			0.558384			0.436716			-0.224331			0.298992			0.22776			-0.90412			0.279029			0.468167			0.504862			-0.621861			0.165903			0.427596			0.00511691			-0.38084			-0.332131			-0.478384			-0.225037			-0.121984			-0.467548			0.508852			-0.517594			0.125888			-0.435634			-0.0891857			0.792813			-0.1183			-0.187719			-0.40529			-0.664437			-0.5731			0.71952			0.27649			-0.184868			0.603854			-0.544121			0.104641			-0.00844575			0.3509			0.326			-0.850212			0.441528			0.244705			0.423819			-0.00203176			0.907224			0.39588			-0.166258			0.696828			-0.0590627			0.0961575			-0.591809			0.253164			0.363572			0.216037			0.190662			-0.0709917			0.231792			-0.440429			0.643791			-0.15453			-0.238133			-0.0574528			0.244166			-0.403507			-0.4557			0.0408591			0.838324			0.32707			-0.021204			-0.61889			0.293089			-0.44158			-0.0638697			0.0510921			0.136461			-0.363684			0.156782			0.00585566			-0.606039			0.721531			0.134082			0.0559894			-0.546795			0.30223			0.265123			0.788703			0.165446			0.13733			-0.158343			0.396445			0.728968			-0.629401			-0.44362			-0.209203			-0.180389			-0.315437			-0.255083			-0.709045			0.463771			0.174017			0.00534164			-0.512709			-0.0364509			0.285956			-0.682267			0.0493313			-0.0403654			0.59706			0.316743			0.337478			0.0057704			0.247728			0.0901611			0.186038			0.260612			0.937776			0.205605			-0.115031			0.211919			0.130388			0.532989			0.256147			0.381382			-0.182707			-0.39794			0.522868			0.177663			0.205849			-0.126705			-0.809163			-0.360191			0.157253			0.183809			0.0929466			-0.0166717			0.339464			0.363431			-0.0633728			-0.368852			-0.375962			0.209903			-0.00305108			-0.165001			0.202434			-0.259771			-0.546278			-0.325622			0.172436			0.831093			0.0663439			-0.659019			-0.198199			-0.0406523			-0.525394			-0.495398			-0.0309311			-0.3204			0.450978			0.175165			0.502402			-0.343923			-0.459716			0.0937919			0.135404			-0.181768			-0.331378			-0.302722			-0.0235401			-0.16848			0.434537			-0.0317922			0.407291			0.337313			0.590587			-0.729929			0.144256			0.202016			0.331423			0.464892			-0.333671			-0.142821			-0.474274			-0.085882			0.302353			0.274123			-0.448822			-0.666173			-0.587025			-0.312237			-0.0334931			0.634234			0.409236			0.0967692			0.345724			
-0.0258733			-0.283795			0.810388			0.348927			-0.387105			0.180784			0.308453			0.508562			-0.127086			-0.648242			-0.892139			-0.122192			0.600222			0.237946			-0.805502			0.172769			0.189634			-0.0243624			0.216744			-0.222789			0.284087			-0.215422			0.193693			0.598138			-0.217036			-0.25872			0.730218			-0.334738			0.397535			-0.00318578			-0.319218			-0.178838			-0.0479567			-0.0895426			0.795691			-0.354383			-0.0654502			-0.350248			-0.128351			-0.435172			0.492579			0.135431			0.0257687			0.340095			-0.434283			-0.386502			-0.425001			0.0341806			-0.206365			0.396297			0.765852			0.210925			0.634473			-0.0912655			-0.374253			0.172502			0.477212			0.219042			-0.150368			-0.50473			-0.270446			0.472461			0.529777			-0.177106			-0.388427			-0.0522013			-0.0351003			0.541652			0.160967			0.172225			0.232211			0.0419792			0.308264			-0.0400709			0.0829105			-0.186755			-0.742006			0.494355			0.413402			0.828298			0.535571			0.824849			-0.904891			-0.98241			0.166666			0.307254			-0.401565			0.254281			-0.369466			0.642785			0.561207			-0.505256			-0.212202			-0.225738			-0.497319			-0.238333			-0.585916			-0.24226			0.198822			-0.0895838			0.539093			-0.0703742			0.928314			-0.34995			-0.546308			-0.110744			-0.0999328			-0.464507			0.639567			-0.212589			0.212435			-0.123393			-0.256982			-0.138379			0.145513			-0.192605			-0.48057			-0.150767			0.532563			0.940063			-0.519171			-0.237855			0.351932			0.384862			-0.0538853			0.554574			-0.830063			0.789481			-0.505006			0.425225			0.34675			-0.273403			-0.441244			0.314991			0.0637051			0.268995			-0.66996			0.092202			0.48016			-0.48634			-0.0428459			-0.503348			-0.0207081			-0.650333			-0.159696			0.151576			0.591428			-0.746759			0.913897			-0.227756			-0.164546			0.841244			-0.461825			-0.375119			0.105997			-0.05552			-0.0845482			-0.00880616			-0.418125			0.668948			-0.329835			0.265945			-0.847485			0.592654			-0.358768			-0.0794186			-0.351796			-0.991683			0.236622			-0.0635675			-0.396599			-0.292685			0.253042			-0.459133			0.974109			-0.798973			0.628616			-0.984822			-0.628359			-0.43065			-0.436492			-0.485154			0.548456			-0.616288			0.241239			0.0568548			0.503609			0.20925			0.100927			0.304165			0.120254			0.0464395			0.313123			0.851128			-0.064135			0.118114			0.583918			0.624984			-0.724028			-0.294636			-0.907084			-0.394278			-0.128339			-0.394704			-0.201123			0.257269			0.235401			0.409391			0.507134			0.535471			-0.00060907			-0.161689			0.790235			-0.725088			0.444534			0.395516			0.236147			0.0465689			-0.259667			0.503887			0.202322			-0.0411421			-0.973037			-0.20446			-0.810024			-0.185678			0.714622			0.344642			-0.60682			-0.426372			-0.32365			0.676782			0.0420017			0.816368			0.0615234			0.537307			0.601736			0.638177			0.516863			-0.340664			0.60747			0.407496			-0.310591			-0.383395			0.458804			0.777967			0.0101501			0.113523			0.94269			-0.0748197			-0.337724			-0.144442			-0.447319			0.851463			0.774148			-0.292623			0.597807			0.073577			-0.416952			-0.205849			0.479389			-0.593859			-0.0614403			-0.401524			0.171405			0.0828299			-0.665241			0.420393			0.669218			-0.158283			0.195616			-0.388961			-0.539671			0.415131			0.511115			-0.229386			0.339388			0.218772			0.736528			0.648318			0.781076			-0.286594			-0.799889			-0.375848			0.53644			-0.114577			-0.0470547			-0.30505			0.0979051			0.397405			-0.0333221			0.246218			0.213909			0.0200821			0.872063			-0.169763			-0.583142			-0.575448			0.00251434			0.0675943			-0.544495			0.266427			0.669175			-0.0406352			-0.80232			0.350778			-0.75022			0.515348			0.266083			-0.725611			0.322487			0.152956			0.336892			-0.367427			-0.200876			0.434094			0.69011			0.00488691			-0.0325993			0.14944			0.702055			-0.494066			0.247583			0.0624215			-0.0151894			-0.334465			-0.278844			-0.261913			-0.572854			0.224493			-0.673755			0.484141			-0.278181			0.746378			-0.447967			-0.0940668			-0.174044			-0.139449			-0.00402874			0.132652			-0.135941			0.101682			-0.50058			0.1503			0.346304			-0.165758			-0.574209			0.0466206			0.241632			-0.106044			-0.328289			-0.358281			0.0148341			0.28356			0.126995			-0.220528			-0.13756			0.177799			-0.369156			-0.0732908			0.499684			0.635479			-0.12055			0.362545			0.716193			-0.0340825			-0.629957			0.11472			-0.181611			-0.0664053			-0.253377			-0.0994359			0.302265			-0.811119			0.472503			-0.249205			-0.23802			-0.620514			-0.543703			-0.307635			-0.0413103			-0.620289			-0.211173			0.0735923			-0.257404			-0.227553			-0.0911833			0.484416			-0.720748			0.390021			0.159278			-0.245752			0.0806062			0.526441			-0.383429			0.732016			-0.374695			0.964048			-0.71387			0.686277			-0.121458			0.126343			-0.285688			0.562013			0.223623			-0.272577			-0.0520996			-0.229737			0.378872			0.306473			-0.572906			-0.797725			-0.606623			-0.16515			-0.698493			0.256194			-0.261334			0.224308			0.242444			-0.703091			-0.159517			0.805636			0.534472			-0.738698			0.462788			0.17704			-0.589389			0.0354131			0.58806			0.958052			-0.0749463			0.27155			-0.574885			-0.212473			-0.245443			-0.131908			-0.379358			-0.298499			0.369601			0.0259074			0.0744775			0.137626			0.488974			-0.356728			-0.144254			-0.00615525			-0.116117			0.128264			-0.544813			0.732866			-0.395468			-0.89707			-0.293841			-0.542843			-0.523852			-0.583619			0.336645			-0.10044			-0.0186326			-0.0106502			0.346516			-0.536727			-0.256341			0.602668			0.698788			0.255801			-0.0238999			0.161963			0.18406			-0.292937			0.0568464			-0.408773			-0.511907			0.692205			-0.303461			0.345826			-0.144166			-0.632567			-0.286166			0.0671195			0.138268			-0.627061			0.794522			-0.109282			0.581492			0.355873			0.406026			0.60622			-0.701908			0.0981608			0.421197			-0.885164			-0.266528			0.0906125			-0.00375795			0.410337			0.13514			-0.0273999			0.548708			-0.0284528			
-0.342854			-0.421209			-0.151155			-0.0940561			0.396862			0.14963			-0.780477			-0.761402			-0.172604			0.0569275			0.419392			0.110973			-0.158013			0.0923546			-0.689057			-0.903207			-0.00846096			-0.269947			0.112908			0.0417454			-0.0124481			-0.741237			0.73568			-0.195716			0.632639			-0.133514			0.331729			-0.239768			0.0248555			-0.219941			0.00570518			0.272168			-0.829913			-0.21074			0.0685086			0.014332			0.410516			-0.481338			0.644228			0.118134			-0.515584			-0.778155			-0.343416			-0.0503562			0.281034			-0.00600033			-0.565345			0.446411			-0.0344587			-0.223262			0.149397			-0.407942			0.972615			-0.0724037			-0.366057			-0.151108			0.298904			-0.205678			0.275893			-0.287928			-0.112896			0.291299			-0.0473466			0.0490943			-0.307344			0.0891082			0.18117			-0.419545			0.511955			-0.0895726			-0.0687099			-0.110977			-0.104812			-0.431908			-0.105474			-0.0187376			0.0511249			-0.103807			0.418149			0.336825			-0.356068			-0.249296			-0.612437			0.121044			0.0236677			-0.603581			0.87933			-0.555747			0.484553			0.301642			-0.257288			0.640385			0.187245			0.139832			0.0862538			0.574009			-0.0688575			0.616286			0.0103329			-0.0152055			-0.105957			0.330298			0.649119			0.0079094			-0.700728			0.394888			0.424596			0.103813			0.142552			0.277701			0.489388			0.171431			0.0631296			-0.0718284			-0.0119869			-0.350765			-0.843489			-0.521156			0.423643			-0.101033			0.149945			-0.0109998			0.152524			0.0948436			0.415508			0.785489			-0.278908			-0.0147489			-0.552667			-0.150501			-0.145623			0.206077			-0.223405			-0.532075			0.807966			-0.381299			0.0254808			0.681483			0.106267			0.014671			-0.174897			-0.34504			0.153388			-0.654651			0.301667			-0.409575			-0.269548			-0.0493755			0.842097			-0.419103			0.142809			-0.362189			-0.134279			0.518105			-0.411929			0.426024			-0.151265			0.166971			0.0795918			-0.00173592			-0.128316			-0.556912			0.385501			-0.0983939			0.700123			0.883943			-0.0329497			0.0972895			0.226829			0.536973			0.0720045			0.195819			0.576167			0.81096			-0.0483182			-0.676139			-0.963098			0.119392			-0.173777			0.506697			0.331227			-0.0133601			0.433963			-0.391151			0.712065			0.284039			-0.25648			0.237905			0.196455			-0.0404349			0.256747			0.0569188			-0.0303687			0.192338			0.236044			0.699849			0.198145			-0.599195			0.294325			0.748264			-0.321654			0.112051			0.298233			-0.490735			0.592346			-0.00450248			0.211575			0.000233266			-0.731034			0.0613794			0.0241857			0.567584			0.331726			0.272901			-0.690229			0.681346			0.327866			-0.302816			0.657938			0.0709956			0.543884			0.268629			0.45326			-0.26343			0.476556			-0.0631531			-0.539971			0.202481			-0.113734			-0.371483			0.452745			-0.0473369			-0.39377			-0.250343			-0.473945			0.153442			-0.377			-0.0686379			0.427615			-0.60977			0.659847			0.246574			0.316951			-0.542174			0.139013			-0.377216			-0.855311			-0.0708666			0.242098			-0.0754137			-0.641981			-0.669669			0.361477			0.572787			0.713251			0.634902			-0.885352			0.494371			0.51965			-0.580831			-0.00692088			0.514826			0.274223			0.492254			-0.627781			-0.199765			0.537114			-0.15566			0.420732			-0.0601612			-0.596394			-0.086754			-0.323373			0.227722			-0.560211			0.490235			0.939564			-0.220715			-0.658466			0.260254			-0.0109363			0.146935			0.232753			0.0495011			0.0325151			-0.411219			0.456668			-0.203529			0.0262618			0.330359			-0.0493488			0.178543			-0.670511			-0.718776			-0.607392			-0.0709748			-0.179008			-0.415695			-0.403116			0.649214			-0.2239			-0.951527			0.635135			0.136593			0.52114			0.585109			0.723774			-0.0541966			-0.363011			0.61493			0.708306			0.120769			0.186961			0.721747			0.637094			-0.0497104			-0.561087			0.711677			0.3473			0.34957			0.665602			-0.649194			-0.324095			-0.911386			-0.53739			-0.195238			0.22394			-0.137009			-0.692237			-0.643396			-0.0182137			0.234041			0.458273			-0.563446			0.311766			0.885273			-0.168759			-0.355011			-0.0908515			0.879076			0.512982			-0.174258			0.498154			-0.0569355			0.881102			0.232814			-0.684742			-0.637651			-0.967886			0.60457			-0.00717765			0.0104106			-0.283753			-0.602888			-0.102023			-0.433079			-0.0207768			0.0125652			-0.216026			0.504925			-0.780551			-0.76987			-0.253112			0.010336			-0.312326			0.186396			0.120717			-0.432192			0.175801			0.249552			-0.358429			-0.283538			-0.756817			0.347088			0.96679			-0.50728			0.0185663			-0.0719143			0.0829565			-0.209209			-0.379898			0.189553			0.127309			0.248257			-0.374996			0.465706			-0.847679			0.672183			0.562725			-0.607906			0.280408			-0.281994			-0.0694905			0.594102			0.321671			-0.504738			-0.269521			0.239862			-0.203924			-0.0359765			-0.14573			0.257984			0.191697			0.438005			-0.354076			-0.48392			0.123342			0.0443611			0.644782			-0.726472			0.177012			-0.448891			0.503484			-0.469265			-0.312044			0.529493			-0.821702			0.0570307			0.307241			0.0263069			0.348635			0.270693			0.116796			-0.317212			-0.116582			-0.502113			0.293144			0.0190582			0.67874			-0.0429992			0.26946			-0.281373			0.691823			-0.453179			-0.0778017			0.323229			0.267001			0.717954			0.811515			-0.606366			0.559766			-0.225024			0.0230707			-0.29171			-0.250917			-0.395851			-0.846228			-0.492314			-0.508997			0.408189			0.502415			0.044706			-0.202859			-0.260626			-0.362332			-0.307081			-0.289315			0.142381			0.164048			-0.699255			0.0168815			-0.0910454			0.851323			0.96375			-0.905547			-0.127328			-0.744168			-0.325475			-0.817479			0.770892			0.338789			-0.641111			-0.0462555			-0.285861			0.430667			-0.556011			-0.388044			0.987808			-0.281268			-0.428766			-0.0529156			-0.195972			0.816022			0.672948			-0.35374			-0.256458			-0.245945			-0.496226			-0.56354			-0.83423			-0.233704			0.116957			0.479004			0.118594			-0.259589			-0.979008			0.148727			0.924657			-0.557529			0.00680054			
-0.275265			-0.211625			0.176046			0.0468364			-0.163367			0.195814			0.749224			0.665297			-0.0281639			0.658231			-0.514015			0.0370533			0.299458			-0.546878			0.0554475			0.472025			-0.414058			0.276668			0.288901			0.0110805			-0.296284			0.0523156			0.531243			0.288947			-0.174338			-0.212908			0.175449			0.122077			0.259761			-0.466305			-0.869621			-0.0614588			-0.469302			-0.391534			0.156649			0.893557			-0.416065			-0.133541			0.257092			0.348206			0.157602			0.795702			0.375064			0.121745			-0.279776			0.239978			0.639381			-0.292771			-0.30176			0.204143			0.78876			0.176961			-0.385464			0.205422			-0.275511			0.119923			-0.62168			-0.0570432			0.538049			0.0959036			0.0121402			0.752788			-0.179891			0.115072			-0.893624			-0.380663			0.190076			-0.0199451			-0.356099			-0.820617			0.323331			0.353555			0.32666			0.19802			0.689974			-0.50437			-0.0449498			0.451889			0.0589372			-0.810351			-0.95147			0.302284			-0.094152			-0.740841			0.307177			0.305307			-0.105972			-0.672713			-0.364361			-0.178308			0.207593			-0.648423			-0.139098			0.451264			0.545595			0.0638018			-0.375068			0.102585			0.333382			-0.113955			0.6406			0.640467			-0.0740569			-0.0777458			0.284057			-0.486028			-0.387308			0.0362761			0.158077			0.701254			0.196783			-0.904563			0.339125			0.174362			-0.483805			0.843063			0.642386			0.274597			0.321918			0.0121764			-0.41587			0.533122			0.325835			0.994257			-0.43487			-0.179456			0.151376			0.349836			0.350039			0.212846			-0.119642			-0.209459			-0.253428			0.601436			-0.643568			0.558446			-0.440828			0.431229			0.182779			0.329437			-0.512678			0.203236			0.29978			0.398577			0.713488			0.156896			0.0222668			0.50137			-0.634293			-0.481621			0.270732			0.535651			-0.0257578			-0.245832			0.840797			0.0340721			0.302785			-0.184151			0.441759			-0.431531			-0.294916			0.447197			0.179982			0.518977			0.525674			-0.827871			-0.23838			0.204794			0.346933			-0.220919			-0.10542			0.404096			-0.104875			0.11562			-0.295599			-0.090302			-0.0654567			-0.0302194			0.244877			-0.706183			-0.405885			0.548877			0.184624			0.354214			0.416431			-0.557448			0.223646			-0.361548			-0.72466			0.46556			0.196345			-0.0941733			-0.440184			-0.258311			-0.749628			0.57573			-0.289647			0.295993			0.17671			0.197221			0.589156			-0.649096			-0.548024			-0.704366			-0.338512			0.347103			0.116018			0.456245			-0.127989			0.18321			0.499519			0.264084			-0.533952			-0.272212			-0.0780609			-0.349285			0.808871			0.842403			0.953756			-0.157475			-0.47845			-0.397574			0.00605495			-0.0551626			-0.693127			0.552627			-0.0487079			-0.26461			-0.60404			-0.754074			0.0494024			-0.300004			0.943983			-0.114516			-0.519603			0.111531			0.348755			-0.506284			-0.761088			0.728377			-0.0302999			-0.296345			0.0441121			0.604655			0.251891			-0.218242			-0.955775			-0.387168			0.0402381			0.24617			-0.222976			0.0391751			-0.0278718			-0.822345			-0.848851			-0.098819			0.249011			-0.0626852			-0.435562			0.280666			0.355074			-0.297754			0.966034			0.488682			-0.344354			-0.529519			0.474939			0.103057			-0.837957			-0.891135			-0.294929			-0.62784			-0.637241			-0.236579			0.401575			0.521452			-0.304119			0.0929442			0.356879			0.040685			0.286647			0.759984			0.242341			0.0767824			-0.855063			-0.315566			-0.875489			-0.914704			-0.378329			0.307504			-0.153686			0.902357			-0.526409			-0.248099			-0.0254703			-0.39748			-0.196308			0.246216			0.376885			0.0381497			-0.182755			-0.125387			0.575841			0.126355			0.854995			-0.332286			-0.688151			0.472059			-0.11159			-0.255552			-0.449365			-0.086031			0.0999155			0.138366			-0.00503877			0.433988			-0.977838			0.0302794			-0.502721			-0.0548333			-0.398143			-0.0525887			0.215669			-0.778746			-0.613392			0.219984			-0.0299225			-0.197507			0.0871108			0.640847			0.616569			0.138087			0.571946			-0.311008			0.246776			0.508794			0.151216			-0.498555			-0.138906			-0.257676			0.0121243			-0.160882			0.562412			0.833547			0.152724			0.186533			0.227443			0.348064			0.630756			-0.0643191			0.442812			-0.235255			0.521451			0.515068			-0.736003			0.581729			0.367798			0.803796			-0.29776			0.0490779			-0.82645			-0.216907			0.171092			-0.114487			0.699339			-0.399221			-0.448483			-0.658206			0.542728			0.0947682			-0.59646			0.740463			-0.273212			0.305707			-0.685461			0.626794			0.441442			-0.368575			-0.0528878			0.405805			-0.166024			-0.464561			-0.0207728			0.264173			0.414241			-0.40776			-0.31311			0.0473396			0.0512021			-0.288485			0.00534202			-0.213722			0.510122			-0.289237			-0.681331			-0.271704			-0.906917			-0.409336			0.644944			0.360245			-0.598333			0.626678			0.226823			-0.425253			0.383722			-0.575311			-0.345276			-0.317687			-0.408148			0.0194134			-0.308382			0.513881			0.0920159			-0.220959			0.685266			-0.0766945			0.231569			0.258726			0.094748			0.00493806			0.206854			-0.0470874			-0.0988102			-0.171696			0.978105			-0.494781			0.302196			-0.0149532			-0.345557			0.842526			0.645904			-0.572526			-0.228784			-0.251383			-0.754854			0.784765			-0.292034			-0.214125			0.27092			-0.231839			0.477993			-0.290068			0.270842			0.194599			0.506655			0.0414025			-0.1809			0.759961			0.465465			-0.139516			-0.175267			-0.0348329			-0.25096			0.640892			-0.0840008			-0.801484			-0.918813			-0.398273			0.63351			-0.618774			0.322612			-0.47733			-0.134113			-0.131685			-0.015517			-0.361906			0.178607			-0.375835			-0.631179			-0.485148			0.841042			-0.302133			0.640656			0.163638			0.466968			-0.160617			-0.280044			-0.249813			0.0124936			0.0648368			-0.748939			-0.277603			-0.060129			0.366524			-0.155739			-0.17894			0.0997801			0.671606			-0.309767			0.386557			-0.530325			0.493091			-0.322233			-0.928443			0.0171856			-0.154921			0.136573			-0.0701823			-0.553797			0.515753			
0.16737			0.0968823			0.0264978			-0.0288795			-0.566304			0.367547			-0.867478			-0.276621			0.811045			0.407941			-0.355406			0.946084			-0.176582			-0.742885			0.143272			-0.124475			0.405775			0.567221			0.602992			-0.71715			-0.246814			0.59845			-0.462106			0.928435			0.106355			-0.859384			-0.2629			-0.186838			0.268437			0.381977			-0.671456			-0.405251			0.495606			-0.451523			-0.174692			-0.145602			-0.271258			-0.302254			-0.233899			0.579788			-0.0334321			-0.0596417			0.296064			-0.520653			0.624295			-0.534144			-0.908545			-0.169144			0.369323			-0.191463			-0.368507			-0.612016			-0.556951			-0.777575			0.0415851			-0.744618			0.0235247			0.719308			0.361825			0.252216			0.65007			-0.273243			0.0706647			-0.122675			0.12409			0.0317703			0.0897928			-0.332837			0.164988			0.581516			0.272432			0.542136			0.589819			0.992581			-0.649727			0.505905			-0.0855266			0.0882033			0.642313			0.4008			-0.61128			-0.73586			0.140938			-0.154823			-0.155605			-0.159957			-0.946454			-0.325321			0.229595			0.219586			0.352817			0.210658			-0.849945			0.778437			-0.798877			0.388529			-0.421444			0.622878			0.548145			0.145525			-0.284439			-0.947756			0.238902			-0.5506			0.182673			0.497426			0.657921			-0.0645682			0.0823077			-0.540531			-0.0473649			-0.247918			0.582471			-0.0750037			0.343401			-0.600417			0.50783			0.263811			0.219019			-0.232004			-0.108673			-0.469184			0.282741			0.11577			0.339082			0.0179389			0.546412			0.620351			0.702907			0.28058			0.190503			-0.416146			-0.334593			-0.173637			0.405852			0.128295			-0.482747			-0.0986319			0.450444			-0.830569			0.40588			-0.294289			0.53011			0.766692			-0.823014			0.0927934			0.560792			-0.52929			-0.0797387			-0.0649622			0.292034			-0.827889			-0.00135677			0.244746			0.459335			-0.0578173			0.557037			-0.606216			0.436353			0.789318			0.186264			-0.20395			0.0319859			0.732398			-0.269437			0.0336307			-0.13178			0.353217			-0.67089			0.726447			-0.303846			0.300107			-0.805655			-0.480205			-0.047132			0.58076			0.314251			0.698112			-0.166356			0.281689			-0.117428			-0.852801			-0.417097			-0.865605			-0.128837			0.700495			0.0978786			-0.00196783			0.469761			0.474241			-0.420617			0.654473			0.18666			-0.652057			0.433314			0.00424048			-0.107296			0.511029			0.739627			-0.988988			-0.125363			-0.589481			0.0288889			-0.723161			0.203615			-0.230665			-0.0197754			-0.216741			-0.474931			0.0859008			-0.394998			0.54795			0.767219			0.145856			0.099848			-0.123784			-0.253075			0.572166			-0.244638			-0.746569			0.521949			-0.412209			-0.519445			-0.580565			0.248623			-0.288504			-0.2904			0.516383			-0.233167			-0.400775			-0.817959			0.244001			-0.0469832			-0.148184			-0.25549			0.524894			0.739156			0.721952			-0.209743			-0.505583			-0.552197			-0.456441			0.495542			0.0946201			0.682878			-0.348668			-0.519552			0.584749			-0.112982			0.526281			-0.312613			-0.368024			0.328182			-0.644175			0.154232			-0.47035			0.372806			0.0932407			-0.730671			-0.221676			0.275525			0.368233			-0.158558			0.590425			0.0536511			-0.64894			-0.643735			0.639056			0.0524144			-0.367725			0.265843			0.585287			0.237695			0.128343			-0.288007			0.0340743			-0.729807			-0.107105			0.0227716			-0.602844			-0.139687			-0.277468			-0.514493			0.913051			0.546923			-0.49386			-0.28182			0.0013261			-0.523511			0.0639551			0.888854			0.150445			-0.553203			-0.53739			-0.0825919			-0.387761			-0.0512232			-0.00130114			-0.270033			0.299394			-0.854025			0.273325			-0.121302			0.854654			-0.202354			-0.46193			0.405336			0.741283			-0.187326			-0.572872			0.412598			-0.677102			0.936912			-0.286313			-0.916012			0.0693526			0.62428			0.419623			-0.928042			-0.860308			-0.3162			0.654078			0.220436			-0.0113186			-0.526482			-0.505883			0.027838			-0.196101			0.0413654			-0.597481			0.384904			-0.507219			-0.810997			0.863324			0.242943			-0.776926			-0.359804			-0.696315			-0.528019			-0.312746			-0.452901			0.613434			0.0188119			-0.122709			-0.192819			-0.790704			0.176549			0.435849			-0.12978			0.159605			-0.00744337			0.775212			-0.046118			0.500602			0.336837			-0.373021			0.10952			0.990156			-0.0851769			-0.330042			-0.261949			-0.0253457			0.198739			0.089601			-0.860799			0.159497			-0.00661716			0.00593601			-0.702165			-0.951783			0.117961			-0.697932			0.831795			-0.42013			-0.853758			-0.532439			-0.894269			-0.314183			0.464406			-0.682317			-0.357805			-0.271908			-0.137607			-0.145151			0.388461			-0.414904			-0.240205			-0.851957			0.0375277			0.648086			-0.628134			-0.406976			0.32859			0.178615			-0.0182311			-0.478887			-0.350989			0.848252			0.503785			-0.693963			-0.526572			0.944154			-0.961399			0.452466			-0.135108			0.271745			-0.328308			-0.0414611			0.142113			-0.326557			0.987466			-0.312708			-0.446492			-0.373504			0.200312			0.634575			-0.176565			0.787467			-0.184157			-0.122923			-0.375006			0.676596			0.137429			0.146478			0.0694833			-0.140537			0.272074			0.369905			0.247569			-0.135243			0.779444			0.143251			-0.310236			-0.43736			0.3148			-0.245659			-0.512059			0.633211			0.132623			0.534012			-0.477827			-0.0829424			-0.292045			-0.048392			-0.853448			-0.519592			0.371133			-0.385044			-0.43275			0.391035			0.111812			-0.203157			-0.191638			0.018584			0.109922			-0.147604			-0.568666			-0.523756			-0.125767			-0.149625			-0.250111			-0.00221373			-0.23326			0.923469			-0.702361			0.474895			0.946194			0.5577			-0.770693			0.928586			-0.0444316			-0.0838242			0.605201			0.0824473			-0.291237			-0.281115			0.094512			0.838533			-0.797524			0.22794			0.114422			0.261083			-0.421591			-0.00133551			0.215393			-0.0129719			0.220513			0.0200876			-0.390987			0.662618			-0.320807			0.195471			-0.0723236			0.321829			0.130719			-0.387404			-0.331427			0.0889605			-0.646445			0.297128			
