Matrix_6
-0.165372			0.0832107			-0.470638			-0.226927			0.822707			-0.189582			0.310748			-0.651932			-0.511219			-0.289923			-0.344169			0.862738			-0.871578			-0.610558			-0.228301			-0.0602672			-0.114083			0.480217			-0.207729			-0.63445			0.898416			0.530147			0.764122			-0.847036			0.551362			0.0992213			-0.260093			0.103304			0.135111			0.755104			0.480677			-0.1861			-0.572012			0.294153			-0.470903			0.386561			-0.0784565			-0.303217			-0.0764041			0.473229			-0.159655			0.829207			-0.704251			0.156519			0.0800542			0.215629			0.184408			0.0873581			0.189905			0.279406			-0.31408			-0.0833983			0.282895			-0.546622			-0.514888			-0.981581			0.0636446			0.429751			0.505521			0.136408			-0.625197			-0.176781			-0.43934			-0.281925			0.655059			-0.219122			0.434927			0.494801			0.065026			0.27867			0.542731			0.446087			0.62901			-0.15573			-0.214532			0.292641			-0.872591			0.554865			-0.231066			0.0626313			-0.995851			0.0764715			-0.369936			0.773647			-0.0465649			0.385474			-0.187242			0.141274			-0.523283			0.290649			0.790057			-0.870653			-0.05144			-0.304857			-0.752896			-0.865194			0.414491			0.384568			-0.275158			0.572809			-0.676336			0.0867272			0.0346834			0.80995			0.0590951			0.223085			-0.278615			-0.315473			-0.674198			0.248084			0.381628			0.269928			0.0298356			-0.649554			-0.383216			-0.2329			-0.117054			0.157534			0.46451			-0.0380622			0.229487			0.377627			-0.347592			-0.160711			0.49448			-0.944972			-0.120467			0.276842			-0.416515			-0.128695			0.21334			-0.728659			-0.867633			0.744223			0.254982			0.120837			-0.259676			-0.191734			-0.517269			-0.314999			-0.265848			-0.23156			0.452982			0.38118			-0.0776119			-0.103293			0.13836			0.447901			-0.159224			0.721054			0.170049			0.484012			0.645774			-0.409858			-0.140274			-0.0935513			-0.106161			0.718771			-0.933842			0.442855			0.602929			-0.906873			0.254318			-0.484363			0.331311			0.0126224			-0.260107			0.307415			0.319063			-0.154384			0.215958			0.0740285			-0.572857			-0.035343			0.0571668			0.109406			-0.0738486			0.334081			0.769737			-0.464531			-0.655608			0.220915			-0.368522			0.27037			-0.884561			0.342058			-0.48431			0.319985			0.00548131			-0.554424			-0.00399145			-0.532571			0.146767			0.227498			0.947995			0.710424			-0.426849			0.409309			0.315121			0.283547			-0.488222			-0.382757			0.742649			0.570448			-0.521672			-0.448098			-0.78054			0.0301736			-0.312027			-0.336666			-0.62187			-0.337719			0.117483			-0.00434971			-0.0396272			-0.22423			-0.0310837			0.269745			-0.0225695			0.23225			0.00753386			0.342661			0.130093			-0.450772			-0.806348			-0.401917			-0.130654			0.316452			0.397815			-0.259367			0.00906218			-0.0429966			-0.188356			0.978864			-0.305007			-0.0822726			0.37199			-0.681698			-0.383618			0.416002			-0.465244			-0.674911			0.209268			0.31621			0.783105			-0.0836238			-0.205139			-0.434456			0.770393			0.557246			
-0.243757			0.5226			0.208156			-0.108208			-0.0182992			-0.238621			0.522524			0.727358			-0.171036			-0.104809			-0.615516			0.28351			-0.230314			-0.536208			-0.434047			0.229856			-0.641862			-0.382618			0.107704			0.488826			-0.236744			-0.554192			-0.488189			-0.040175			-0.225558			-0.381882			-0.179161			0.460485			-0.965016			-0.197148			0.555335			0.18521			-0.123919			0.0466829			0.168813			0.4248			-0.849059			-0.426366			0.686066			0.385404			-0.79586			-0.635672			-0.394183			0.0565432			-0.733142			0.294414			-0.88023			-0.0121069			0.853347			0.209856			-0.221388			0.195398			-0.379609			-0.444643			0.482714			0.104431			0.209117			-0.78385			-0.569256			0.394494			0.00693244			0.663256			0.8555			0.41438			-0.815388			-0.261573			0.600319			-0.381726			-0.664217			0.0687554			-0.575845			0.467583			-0.467652			-0.0959322			-0.157942			0.629566			0.101559			-0.0656657			0.507333			-0.420848			0.0180376			0.822786			0.928795			0.440907			0.0240386			0.377329			-0.621212			0.114008			0.262562			0.865048			0.795846			-0.302054			0.0531042			-0.0529808			0.663021			0.372263			0.303128			-0.557579			-0.161198			0.336927			0.394729			0.166161			0.833423			-0.0249666			0.27615			-0.228303			-0.0953083			-0.674435			0.76155			-0.647583			0.592191			-0.0558577			-0.0388521			0.891917			0.802764			-0.379792			0.26978			0.320072			0.195281			0.216307			-0.357789			0.241966			0.317437			-0.850445			0.0237524			0.0877922			-0.21354			0.303403			0.0438371			-0.757918			0.157958			0.920238			0.0460952			0.357748			-0.0186052			0.402148			-0.242567			-0.577297			0.0202188			-0.181568			0.2275			0.0375447			-0.169554			-0.441795			0.413025			0.329491			0.106031			-0.491056			0.261506			0.791355			-0.0726025			-0.0109457			0.072282			0.557448			-0.0236668			-0.537185			-0.52457			-0.119495			-0.220831			0.629517			-0.0905936			0.168484			-0.514993			-0.263356			-0.838509			-0.744848			0.11201			0.175647			-0.327196			-0.554523			0.867587			0.327434			-0.19127			0.564161			-0.209583			-0.366826			0.0876621			-0.140764			0.169304			-0.224494			-0.490603			-0.413376			0.480857			0.840696			0.365273			-0.298633			0.197341			0.233313			-0.14734			0.157182			-0.661549			-0.236819			0.07881			-0.154988			0.605141			0.0170089			0.556613			-0.0745519			0.1994			-0.48823			-0.183215			0.444689			0.770051			-0.00809363			0.159634			-0.585818			-0.354983			0.23978			-0.794099			-0.0365585			0.170647			0.828058			-0.0579667			-0.830731			-0.703451			-0.453672			0.264248			-0.130147			0.0471968			-0.54906			-0.61769			-0.420761			0.325549			0.445388			0.197148			0.211475			-0.00135657			-0.842293			-0.278784			0.0194485			-0.0656074			-0.674922			-0.342025			-0.181299			0.226412			-0.246845			0.529046			-0.61308			-0.25015			0.440505			-0.17446			-0.310752			-0.678549			0.187409			-0.391762			-0.388888			0.435938			0.103787			-0.455189			0.4937			
-0.229162			0.182712			0.578344			-0.428237			-0.0793448			-0.0199936			-0.0175754			-0.227489			0.0640046			-0.455849			0.60484			0.566255			0.455034			-0.25783			0.791107			0.436395			0.000316482			-0.232692			0.379023			-0.339921			0.648668			0.576798			0.883303			0.155891			0.348355			0.435278			-0.0610398			-0.0317765			0.786586			0.105471			0.492682			-0.370164			0.428706			0.581688			0.28557			0.39371			0.587021			-0.254471			-0.53065			0.447179			0.22718			-0.288954			0.512034			-0.0670268			-0.360064			-0.0500271			-0.110962			0.150062			0.624921			0.207824			-0.245298			0.441531			-0.688943			0.314056			0.0305197			0.190436			-0.378107			-0.476767			-0.292444			-0.0687526			-0.0967778			-0.233269			0.846119			-0.342555			0.771492			-0.198201			-0.266956			0.621268			-0.0257899			-0.361317			-0.0193538			0.773815			0.555907			0.32629			-0.277351			-0.346895			0.523577			-0.879845			0.164034			0.174877			0.281448			-0.68816			-0.291716			-0.873337			0.337978			0.487951			-0.431411			0.118083			0.21384			-0.781392			0.428456			0.859056			-0.539918			-0.179162			0.197227			-0.475938			0.224494			0.0771358			0.308869			0.462509			-0.197086			0.360929			-0.0751307			-0.559183			-0.453076			-0.0158614			-0.0747483			0.709856			-0.0362326			-0.85285			0.259727			-0.119817			0.105691			-0.731854			0.832772			-0.292672			0.462067			0.0656113			-0.0911621			-0.181029			0.0164008			-0.780459			-0.532706			-0.483107			0.18504			0.457102			0.287302			0.794404			0.0717201			-0.0268526			0.276062			0.309354			-0.0615147			0.493141			0.348131			-0.524905			-0.732384			-0.109406			-0.722777			0.93919			-0.487621			0.417888			0.289083			-0.0693696			0.0620166			-0.080318			-0.141753			-0.247634			-0.352245			0.380254			-0.470907			-0.148237			0.21854			0.187661			0.239836			0.578525			0.00485517			0.867971			0.0483856			-0.297666			0.456909			-0.214359			-0.0834129			0.628132			-0.591147			0.252767			-0.389055			-0.895817			-0.596734			-0.287833			0.308624			0.800872			0.0441715			0.536397			0.56815			0.264311			-0.871566			-0.311975			-0.395442			0.368932			0.132705			-0.170715			-0.540573			0.558268			-0.556424			0.569768			-0.763673			-0.655324			0.695747			-0.629664			-0.714388			-0.956483			-0.510037			-0.228626			-0.657504			0.0128874			0.554915			-0.343248			0.0140679			-0.491359			-0.0772487			-0.055741			-0.539972			-0.000863271			0.410394			0.25764			0.00759258			-0.196576			-0.241948			-0.292746			0.163817			0.989641			-0.164157			-0.0550411			-0.341954			0.552174			-0.219563			-0.599551			0.291003			-0.416254			0.733727			-0.226924			0.498809			-0.363019			0.0917604			-0.0265234			0.623573			-0.330662			-0.0119804			0.17682			-0.788711			-0.0588502			-0.669972			0.0246098			-0.103513			0.600559			-0.342352			0.706392			0.471951			-0.850313			0.0748508			-0.173039			-0.512607			0.518202			0.606168			-0.207143			-0.000970363			0.250873			0.131683			-0.07354			
0.687938			0.233449			0.42445			0.401668			0.16624			0.0159065			-0.877068			0.0364574			-0.0921166			-0.236917			-0.359109			-0.402452			0.421103			0.577232			0.457332			-0.171277			0.382284			0.637018			-0.235291			-0.421021			-0.926426			0.359385			-0.81776			-0.44427			0.80917			0.375318			-0.90735			-0.327686			-0.293118			0.0221074			0.215485			-0.068498			-0.405574			-0.470509			-0.468217			0.883444			-0.426971			0.493082			0.858641			0.540233			0.447167			0.147383			0.0278036			0.439719			0.803783			0.678381			-0.510599			-0.189118			0.0334261			0.0155341			-0.604124			-0.222456			-0.622428			-0.750421			0.224469			-0.436279			-0.48649			0.45563			0.172183			-0.408765			-0.509371			-0.273077			0.328381			-0.0168366			0.292248			0.340046			0.593322			-0.266208			-0.278831			-0.00929406			-0.22093			0.376466			-0.818383			0.405056			-0.216988			0.218716			-0.2738			0.353504			-0.994887			-0.776813			0.684561			0.58314			0.277574			0.569964			0.0927159			-0.329953			0.270526			0.214942			0.259829			0.262331			-0.0474467			0.339085			0.430823			-0.180312			-0.672778			0.725543			0.313625			-0.120005			0.679065			-0.552735			-0.534937			0.140197			0.403514			-0.72646			0.260108			0.0352172			-0.0767962			0.968685			0.0346931			0.201053			0.102728			-0.214098			0.232413			-0.202834			-0.576184			0.384165			0.53337			-0.426955			-0.256603			-0.419481			-0.562683			0.47305			0.391116			0.490899			0.990311			-0.95434			-0.00669559			0.871777			-0.836777			-0.203988			0.147462			-0.584553			0.45773			-0.155389			-0.25928			-0.399887			-0.434526			0.489574			0.244522			0.200138			0.968793			0.606986			-0.430785			0.0827758			-0.553842			-0.560786			-0.657003			-0.249556			0.288319			0.346267			0.0778049			0.130777			-0.503195			0.220101			-0.401699			-0.796917			0.742146			0.314822			-0.283338			0.577297			-0.318812			-0.631037			-0.344628			-0.0961309			0.947302			0.322099			0.722919			-0.375366			-0.343534			-0.648821			-0.513739			0.102824			-0.523786			0.758809			0.185308			-0.334004			0.0981078			-0.383086			-0.59949			0.154711			-0.599866			-0.181211			0.0969793			0.211314			0.211066			-0.43861			0.420771			0.074399			-0.510085			-0.0129384			-0.16641			0.0976226			0.330682			-0.0739813			-0.949583			0.0595286			-0.112258			0.426539			-0.21964			-0.178336			0.639028			-0.143687			-0.22236			-0.39905			-0.161577			0.451818			-0.303322			0.42577			-0.438537			-0.214728			0.847087			-0.786207			0.487215			0.888169			-0.107408			-0.0315991			0.24577			0.0160377			-0.168216			0.52182			0.267716			0.364365			0.418209			0.374137			-0.116017			-0.306023			-0.26687			-0.636448			-0.00264816			-0.116552			0.486981			0.3149			0.045552			0.51772			0.290468			-0.951031			0.442421			-0.87807			-0.0511989			-0.970897			-0.187554			-0.219307			-0.530007			-0.635399			-0.693873			-0.498518			0.358121			0.201585			-0.520912			-0.263451			
0.267468			-0.137365			0.126492			-0.122209			0.989657			0.154778			-0.330597			0.130497			0.160773			-0.558422			0.767584			0.385812			-0.221684			0.316521			0.0796821			-0.45239			0.370611			-0.0652858			-0.566916			0.768493			0.696083			0.465495			-0.268847			-0.907282			-0.696788			-0.405455			-0.1096			0.308887			0.452103			-0.763794			-0.278161			0.464			-0.0264723			0.23841			-0.877474			0.161801			-0.0662983			-0.00650461			-0.127334			0.0908981			0.666077			-0.0681947			0.0798668			0.190952			-0.113066			0.319341			0.0890867			-0.00307642			0.0582479			0.173083			0.283434			0.0725274			-0.803892			0.197152			-0.565436			-0.373777			-0.428223			-0.407697			-0.827099			-0.0637189			-0.674572			0.190178			-0.234864			0.503805			-0.102295			-0.44662			-0.327829			-0.95855			-0.507069			-0.850377			-0.704218			-0.705129			-0.245185			0.672112			0.0125853			0.111476			0.55052			0.218499			-0.555147			0.42794			-0.0471987			-0.201213			0.161465			-0.231272			0.367048			0.852397			-0.547762			-0.497744			0.0135568			0.0890239			0.158322			-0.33869			0.240748			0.496821			0.133533			0.430979			-0.180159			0.0332014			0.832947			-0.114661			0.452698			-0.362269			-0.156235			-0.707895			-0.68669			-0.0526483			0.0526572			-0.18564			-0.307562			0.172493			0.862135			0.24336			0.373737			0.0465784			-0.16138			0.44749			-0.130626			-0.0461363			-0.11173			-0.130537			0.286398			-0.387066			0.0435913			0.623832			-0.765636			-0.838426			-0.244901			0.182089			-0.542515			0.46163			0.168681			0.260721			-0.432869			0.488619			0.331236			0.23244			0.657183			-0.921474			0.474107			0.10078			-0.546724			-0.343263			0.386623			0.913043			-0.381252			-0.463967			-0.61372			-0.7089			0.258411			-0.233629			0.602327			-0.616617			-0.240312			-0.840868			0.340527			-0.033507			-0.0966718			0.68028			0.434069			-0.0215167			-0.262732			0.344892			0.0588709			-0.453953			0.234863			-0.864046			-0.490371			0.454233			-0.214409			-0.231779			0.268481			-0.569404			-0.17099			0.070834			-0.0255369			-0.0637326			-0.84992			-0.225434			0.158805			-0.172691			-0.527053			0.196796			0.0411675			-0.517132			0.11437			0.650078			0.254244			-0.110071			0.380402			-0.0569061			0.443524			0.141944			0.334631			0.305849			-0.978773			0.0736704			-0.395291			0.511174			-0.74415			0.992233			-0.737995			-0.359938			0.278954			0.0680171			-0.301291			-0.600529			0.301913			-0.431445			0.441901			0.135927			0.225844			0.601433			-0.513126			0.0775013			0.446483			-0.40635			-0.409671			0.0740515			-0.0577123			0.203971			0.626659			0.25436			0.0349817			-0.766626			-0.199502			0.276843			0.170048			0.153608			-0.368302			0.0407655			0.104641			-0.328881			-0.494914			-0.259257			0.798926			0.465903			-0.27948			-0.708926			0.52344			0.635518			-0.240053			0.131973			-0.0750532			0.960116			0.236964			-0.400305			0.923758			0.192046			-0.51977			-0.377173			
0.550927			0.704356			0.952096			-0.305549			0.0527917			0.459342			-0.606208			-0.465274			0.436425			-0.602795			0.0516058			0.594676			0.248607			0.758484			0.302303			0.108903			-0.0480331			0.405734			-0.511792			0.282724			-0.981453			0.0791132			0.402303			0.78588			-0.528721			0.220256			0.19355			0.875627			-0.41913			-0.0295801			-0.462591			0.0765402			-0.595143			0.841395			-0.0959337			0.659847			0.557481			-0.465844			0.461997			-0.775786			0.291925			0.379458			-0.669805			-0.402698			0.220753			-0.0103152			0.281359			0.623469			0.311714			-0.401671			0.824554			0.383943			-0.931508			0.164342			0.519079			-0.334537			-0.841027			-0.694323			-0.416056			-0.05584			0.806253			0.120867			-0.0382211			0.0740082			-0.647331			-0.284182			-0.122618			0.511399			-0.521785			-0.603641			-0.359488			-0.611409			0.982978			-0.136306			0.480139			-0.22566			0.00803467			0.918685			0.229904			0.119584			-0.298479			0.419641			0.262967			0.102542			-0.367621			-0.374978			0.0749863			-0.46451			0.386212			0.00608634			0.0508205			-0.144363			0.79733			-0.284693			0.661364			-0.252639			0.426968			0.906503			0.0381461			0.254648			-0.98055			0.203321			-0.383234			0.138767			-0.161679			0.690993			-0.259783			0.283743			0.266721			-0.66718			-0.351352			0.50352			0.00174775			0.0202531			0.897191			-0.821661			0.779008			0.555765			-0.0229969			0.368598			-0.391097			-0.713525			0.552484			-0.303077			0.691043			0.14694			0.840764			0.308475			0.227875			-0.897002			0.348883			-0.175904			-0.15936			-0.288057			0.78023			-0.239464			0.41483			-0.256209			-0.267947			0.653829			-0.724258			-0.429757			0.264639			-0.633739			-0.569949			0.972783			0.119332			0.077852			0.0492805			-0.899875			0.170582			0.0917402			-0.18431			-0.729281			0.107963			0.315998			0.429258			-0.0276054			0.473771			-0.0718974			-0.504541			-0.465354			0.810716			0.646814			-0.0682726			0.407052			0.889863			0.026961			-0.683355			0.793802			0.614747			0.235265			0.206627			-0.860229			-0.58417			-0.287256			-0.0535685			-0.333846			-0.42807			0.0441134			0.355497			-0.236482			-0.339723			-0.308649			-0.520466			-0.562312			-0.0920365			-0.18788			-0.939894			0.11856			-0.0731805			0.378361			0.571782			-0.158458			0.117412			-0.228025			0.634206			-0.224835			-0.528084			0.0692847			-0.153261			-0.193374			0.129911			-0.422244			0.108917			0.387051			-0.508225			-0.286319			-0.751997			-0.562657			0.232085			-0.0498901			-0.523027			0.687768			0.792279			-0.329187			0.560629			-0.0366876			-0.390308			-0.143914			0.365461			-0.361868			0.343353			0.297726			-0.550384			-0.884621			-0.0380614			-0.157923			-0.0978279			-0.243578			0.297774			-0.190026			-0.0546562			0.29193			0.354463			-0.456317			-0.59962			0.397993			-0.0147962			0.183615			-0.420359			-0.508702			-0.511941			-0.0237442			-0.230746			0.574823			-0.834904			-0.0966289			-0.143824			-0.624595			
0.0467622			-0.0926366			-0.949487			0.110436			-0.794047			0.419535			-0.555266			-0.425572			-0.405619			0.0321794			-0.342859			-0.943565			0.333212			-0.488843			-0.960372			-0.489205			0.158982			0.49149			-0.324598			-0.263896			0.0578999			0.257578			0.0725336			-0.902215			-0.25352			-0.527794			0.460347			0.391937			0.588081			-0.0181522			-0.609875			-0.77977			0.207563			-0.907304			-0.00417413			0.518292			0.452085			0.0123874			-0.326646			0.662679			-0.107673			0.768044			0.748479			0.0613663			0.325564			0.0451993			-0.578637			0.0511414			-0.299622			0.148214			-0.0621606			0.359476			-0.124213			0.598398			0.14769			0.31595			-0.230828			0.131694			-0.524928			0.556131			-0.131992			0.311825			-0.554632			0.115821			-0.2052			0.239557			0.617941			0.446317			0.0903181			0.498954			0.560621			0.375739			-0.230433			0.917523			-0.025391			-0.429159			-0.331597			-0.464814			0.149667			-0.00629447			-0.434438			0.549409			-0.328653			-0.275331			-0.572244			0.447935			-0.626393			0.212687			-0.521323			-0.184161			0.185746			-0.207294			0.248732			0.464478			-0.688518			0.0780848			0.308863			-0.429521			-0.220384			0.45661			0.254574			0.561317			0.187551			0.10384			-0.0447436			-0.622915			-0.202626			0.00270241			0.666235			-0.115938			0.262962			0.77523			0.435388			-0.0609212			-0.0248543			0.305128			0.246845			0.285967			-0.205144			-0.195936			-0.750223			0.0858945			0.0830434			-0.858552			-0.00472389			-0.430014			0.460467			0.520214			-0.198949			-0.300004			0.0421597			0.276538			-0.856321			0.0145194			-0.351321			-0.270107			-0.889757			-0.228013			0.51898			-0.590922			0.621673			-0.481263			0.71414			-0.363899			0.157562			-0.260336			-0.188886			0.0958447			-0.402668			0.0418001			0.830195			-0.149802			0.547502			0.59735			-0.0174781			0.0874423			0.145692			0.0419828			0.463342			0.860116			-0.172728			0.783966			0.527137			-0.501229			-0.366622			0.433327			0.26274			0.0462814			0.828375			-0.0857121			0.0119649			0.499034			-0.949694			-0.149432			0.80575			0.0813862			-0.578175			-0.28701			0.590672			0.479628			-0.656758			0.230436			-0.284932			-0.0793808			0.534868			-0.185802			0.0474363			0.154753			-0.249447			0.763832			0.158204			-0.0330648			0.367544			-0.0913198			-0.486703			0.490065			-0.216908			0.0402014			0.322347			0.300209			-0.27691			0.633543			-0.425476			0.167972			-0.339303			0.0289359			0.484389			0.236884			-0.0795886			-0.0659725			0.262395			-0.0810492			0.452125			0.645818			0.297346			-0.564618			0.458333			-0.336982			-0.416902			0.158426			0.490443			0.693967			-0.229131			0.342223			0.0817022			-0.120751			0.461289			-0.0676268			-0.0199785			0.0932945			0.342246			-0.674052			-0.704729			-0.149162			-0.386555			-0.735536			-0.413498			-0.0408201			-0.60246			0.3254			0.203719			-0.867156			0.867125			0.566907			0.220019			0.0763933			-0.692701			0.281231			-0.260202			-0.62096			
-0.295364			-0.807206			0.376685			-0.734667			-0.512353			-0.335915			0.00939314			0.377448			0.501827			0.0256046			0.351063			-0.323196			-0.46521			0.725919			0.799806			-0.0331425			0.0730538			-0.67275			-0.874555			-0.476467			0.251665			0.608142			0.0331981			-0.208239			0.180652			0.667242			-0.456827			0.265428			-0.361035			-0.0238509			-0.304299			-0.21424			0.474949			-0.425709			0.72852			-0.28067			-0.533542			-0.0215597			-0.129634			-0.0613338			-0.115464			0.268233			-0.178941			0.270458			0.262051			0.548138			0.661845			0.0553969			0.304832			-0.148277			-0.276094			0.0264859			-0.180863			0.121986			-0.591324			-0.0676376			0.0491221			-0.315134			-0.710423			-0.135645			-0.799404			0.405321			0.04825			-0.433154			0.667941			0.520845			0.0470992			-0.274103			0.0354381			-0.143994			0.907365			-0.169891			0.615369			0.741606			-0.214963			0.333188			0.455537			0.447895			-0.449824			0.726625			-0.620815			0.202154			-0.278426			-0.0382592			0.979176			-0.457776			0.228958			-0.372489			0.249449			0.219233			-0.0852364			0.207517			-0.565166			0.166606			-0.933494			0.355298			0.13914			0.313746			-0.31557			0.993235			0.585666			0.16211			-0.296466			0.293573			-0.109605			0.136111			-0.47997			0.284602			0.19387			0.493415			0.255336			0.361418			-0.555582			-0.398554			-0.141408			0.903675			-0.214448			0.533814			-0.412298			0.6244			-0.0986214			0.271686			0.194426			0.234269			-0.699586			-0.541123			-0.205077			-0.226248			0.0927236			0.808478			0.467408			-0.429115			0.0404231			-0.597769			0.102115			-0.253059			-0.448307			-0.0383127			0.217722			0.67804			0.106316			0.266941			0.312725			-0.608868			-0.787377			-0.0138157			-0.530498			-0.957345			0.617772			0.166909			-0.015348			-0.196114			-0.0757161			0.013843			-0.37056			0.601408			-0.657068			0.0341733			-0.00293789			-0.329934			0.796339			0.546261			0.636873			-0.322796			0.14679			0.362238			-0.770835			-0.248123			0.0644066			0.609931			0.0605733			-0.671213			-0.399115			-0.947098			0.401762			-0.163223			-0.892558			-0.0203189			0.404274			-0.312006			0.0618679			-0.107783			0.0398585			-0.32331			0.351229			0.418904			-0.581899			0.140363			-0.486299			-0.122482			-0.268955			-0.196887			-0.677638			0.114496			-0.725084			-0.270046			-0.818461			0.768788			0.157082			-0.574894			-0.836753			0.28518			-0.479529			0.107704			-0.0621092			-0.64773			-0.856126			-0.799759			-0.365289			-0.552972			0.158653			0.692238			-0.180639			0.420987			0.397581			-0.126892			-0.194442			-0.570178			-0.624156			0.586555			-0.514919			-0.611799			-0.25028			-0.021423			-0.764597			-0.668619			-0.523433			-0.38968			-0.261454			-0.0877207			0.621727			-0.73452			-0.353785			-0.419016			-0.713255			-0.0499017			-0.396019			-0.0994172			0.911443			-0.285285			0.108117			0.336208			0.105667			-0.246486			-0.513133			-0.799333			0.0853011			0.161036			0.392435			0.431036			
0.90017			0.141361			-0.457247			0.807721			0.460629			0.716323			0.000614316			-0.0225612			-0.194216			0.00447836			0.50073			-0.0182544			0.547713			-0.0223165			0.356195			0.200949			-0.0280725			-0.500891			-0.159567			0.160413			0.175152			0.626658			-0.615008			0.370148			0.306061			0.0443158			0.630885			0.421908			-0.0894833			0.17373			0.46483			-0.205664			0.0711177			-0.547443			0.259103			-0.0405899			-0.608411			-0.0363293			0.121797			0.632898			-0.450365			0.486603			0.44964			0.415577			-0.819297			-0.0813492			0.105054			0.0577408			-0.0538731			0.327135			-0.0303237			-0.0171974			0.559346			0.0236769			0.560079			-0.394297			-0.214882			0.548324			-0.349239			-0.540835			0.272061			0.55858			-0.382363			0.455264			0.265657			0.0251939			-0.182848			-0.48508			-0.846787			0.772935			0.289366			0.0317068			-0.250637			-0.163914			-0.736835			0.947527			0.294171			-0.117944			-0.0498206			-0.815882			0.444035			-0.115999			-0.0232464			-0.230114			-0.531189			-0.463901			0.407815			-0.754571			-0.275441			-0.476509			0.492158			-0.193956			0.50463			0.517342			-0.0633606			-0.109807			0.258159			0.118163			0.893502			0.593523			-0.163636			0.389748			-0.384312			-0.0895307			0.0248706			0.412924			-0.301174			0.0054999			0.138377			-0.267741			-0.108903			-0.972873			-0.938132			0.560814			0.312975			0.946058			-0.176757			0.0394585			0.0876435			0.0976584			0.906271			0.678234			-0.385807			0.0308326			-0.156885			0.54769			0.807672			-0.216538			0.486675			-0.426461			0.557616			-0.443434			0.233887			0.400509			0.261949			0.393928			-0.558375			-0.0923399			0.196439			-0.00611017			-0.747236			-0.645677			0.744856			0.0137345			0.836249			0.0132624			0.17268			-0.216814			0.310503			-0.146668			0.669535			0.475711			-0.15878			-0.339638			0.0171869			0.857455			0.0381895			0.0591906			-0.411536			0.126063			0.369266			0.447144			-0.516381			-0.503954			-0.607254			-0.115153			-0.143727			-0.18651			-0.352437			0.163262			-0.0584851			0.609782			-0.287224			-0.287302			-0.209574			-0.28823			0.184662			-0.0443773			-0.158332			0.334932			-0.274673			-0.471132			0.0987556			-0.585124			0.125931			0.0161293			0.978633			0.745192			0.170588			0.526692			-0.11069			0.0457597			0.518671			0.132681			-0.294422			0.0113166			-0.527172			-0.758599			-0.418548			-0.0541472			0.266169			0.244446			0.0930324			0.464153			-0.00348432			-0.567772			-0.449941			0.241797			0.187488			0.86967			0.440764			0.563103			0.152818			-0.810679			-0.269454			0.470282			0.510562			-0.280315			0.178715			0.386633			0.416598			0.367489			-0.953165			0.520119			0.18072			0.894986			-0.572295			0.0908632			-0.690532			-0.10588			-0.162892			0.653953			0.552655			0.697981			0.941404			-0.447141			0.589209			-0.129116			-0.452909			-0.129143			0.707373			-0.0217687			-0.74839			0.669835			0.476588			-0.1372			-0.103219			-0.360299			0.00221789			-0.0653467			
-0.039908			0.056682			0.443108			-0.474627			-0.258074			0.201333			0.0897215			-0.759488			0.685069			-0.0288969			-0.217539			0.10687			-0.132152			-0.0933385			-0.691473			-0.528881			0.531135			-0.811302			0.719007			-0.124253			0.105108			0.13269			-0.226227			-0.481448			0.398425			0.079104			-0.0909443			-0.187041			0.241669			-0.0967125			0.121818			0.722918			0.378686			-0.484952			-0.211078			0.537682			-0.748296			-0.0644256			-0.219468			-0.27688			-0.00138731			0.308961			0.047713			0.0159198			-0.0341597			-0.236359			0.927517			-0.111032			0.882617			-0.211901			-0.255587			-0.613431			-0.221572			0.699182			-0.130122			-0.46985			-0.198805			0.0641199			0.303625			-0.0111841			0.53362			-0.363078			0.474082			-0.39788			-0.25332			-0.590302			0.108875			0.174448			-0.18601			-0.657543			0.126546			-0.799904			0.0806025			-0.411788			-0.493856			-0.34846			-0.612711			-0.449806			0.212189			-0.654659			0.0677755			-0.0529017			0.435049			-0.546282			0.203941			-0.0268615			-0.30732			-0.273095			0.274577			0.364868			-0.775013			-0.118465			0.527761			-0.103727			0.462156			0.726791			-0.347154			0.0342334			0.0853692			-0.989694			-0.806217			0.0961672			-0.144583			-0.0519132			-0.972997			0.669481			0.704122			-0.451442			-0.602568			0.219386			-0.834959			0.18427			0.722531			0.633403			0.802638			-0.359347			-0.467198			0.170017			0.334114			0.708349			-0.923534			-0.363346			0.330197			-0.220875			-0.0134229			0.081127			-0.866261			-0.181884			0.415948			0.0108585			-0.334116			0.231639			0.493378			0.468867			0.202021			-0.17106			0.020547			-0.212676			-0.751676			0.321542			-0.609042			-0.766513			-0.351764			0.0447304			-0.360305			0.0482096			-0.587935			-0.243132			0.243713			-0.170399			-0.371814			0.248234			0.604959			0.0119762			0.312739			0.599022			-0.118512			-0.189901			-0.119997			-0.290967			-0.0903007			-0.360996			0.103757			0.136368			0.584264			-0.234081			-0.333913			-0.562215			0.444077			0.536131			-0.906969			-0.539498			-0.114574			0.676348			-0.559694			-0.0356015			-0.604584			0.333682			0.524756			0.480841			0.784335			-0.349187			0.260679			-0.0642934			0.0663706			-0.137453			0.172371			-0.0165482			0.308688			-0.464358			0.278139			-0.989851			-0.107471			-0.797102			-0.958392			0.539663			0.670933			-0.103213			-0.746612			-0.00544637			-0.0878876			0.597456			-0.348399			-0.6509			0.346752			0.694703			0.847916			-0.390771			0.25095			0.534994			-0.54184			0.543713			0.850893			0.668493			0.0029672			0.146614			-0.511851			-0.205031			0.0302585			0.16932			0.137928			0.752956			0.24208			-0.126738			-0.0857932			0.000702553			0.310475			0.675112			-0.371617			-0.250362			-0.162879			-0.910057			0.629371			-0.445326			0.0305835			-0.509319			-0.389147			0.274213			0.494196			-0.874332			-0.143647			-0.145993			0.556698			-0.233955			0.567239			0.804211			0.866834			-0.659479			0.643348			0.702858			
-0.00381046			0.560707			0.323331			0.159318			0.0358871			0.653992			-0.0700921			0.544029			-0.170173			0.206165			-0.266158			0.539502			-0.117526			-0.432125			0.491157			-0.467639			0.905984			-0.328993			-0.524133			0.085496			0.0564334			0.0956993			0.444438			-0.68833			-0.39885			0.103438			-0.322236			-0.128484			0.17452			-0.10595			-0.291575			0.45097			-0.725961			-0.149666			-0.00911704			0.466441			-0.260186			-0.0454818			0.623408			0.142514			0.144502			-0.116463			0.558976			-0.891576			-0.566266			-0.0627394			-0.558423			-0.660699			-0.287889			-0.275909			-0.74631			0.592803			-0.634394			-0.594543			-0.284376			-0.0481255			0.883025			-0.53618			0.629709			-0.229293			0.157063			0.49578			-0.210619			0.675088			-0.243853			-0.365668			-0.169005			-0.464899			-0.634516			0.0185138			0.0547502			0.257534			0.561594			0.272812			0.593789			-0.598715			0.110028			0.719429			-0.422429			0.268133			-0.476077			-0.129644			-0.098318			0.286282			0.40357			0.0647662			0.984629			-0.00462637			-0.0073312			-0.256297			0.393019			-0.312977			0.263539			-0.303831			0.689838			0.158232			0.323661			0.621334			-0.0647221			-0.130641			0.191161			0.132037			-0.109028			-0.106238			-0.550908			0.0860044			-0.208165			-0.281763			-0.34195			0.369401			0.923016			0.296454			-0.392341			0.73263			0.188287			-0.17933			0.551824			-0.110821			0.730199			0.316484			-0.291075			-0.460997			0.0234512			-0.322107			0.292187			-0.15668			-0.403849			-0.229034			-0.179041			-0.332158			0.272434			-0.0600971			0.0139301			-0.227399			0.293896			-0.641557			0.565196			0.410873			-0.0578575			0.814365			-0.239702			-0.0967285			0.424465			-0.0247937			-0.0814311			0.198098			0.168794			-0.336111			-0.341876			0.140896			0.188527			-0.733891			0.324007			0.0693952			-0.0269413			-0.92724			-0.372809			0.549908			0.300293			0.666668			0.000118812			0.51838			-0.059503			0.221034			0.494623			0.392586			0.302372			-0.249892			0.245501			0.335086			-0.0216053			-0.251719			-0.85214			-0.598966			-0.570151			-0.663118			-0.74632			0.00877126			-0.462361			-0.0217171			-0.935929			-0.471638			0.317722			0.389059			0.422689			-0.750574			0.643113			0.166948			-0.370255			0.857255			-0.398948			0.549875			0.268981			0.258036			0.00779516			0.106287			-0.267065			0.425259			0.0258471			-0.438237			0.808394			-0.342205			0.0189231			0.366529			-0.172559			-0.458827			-0.0952277			0.558525			-0.161103			-0.15518			0.00694836			0.0148408			-0.227943			0.0506501			0.162172			0.305776			-0.0300435			-0.313244			0.153453			0.439989			0.00686584			-0.190497			0.55104			0.025204			-0.116301			-0.102006			-0.337515			0.731212			-0.285512			-0.0748376			0.0705868			-0.268422			0.131992			-0.17214			-0.281746			0.252094			0.0255676			0.353618			0.215374			-0.00385786			0.794787			-0.640834			0.569681			0.436634			-0.467467			0.541751			0.165387			0.498276			-0.112748			0.550404			
-0.642828			-0.363508			-0.650604			-0.772773			0.629589			0.824331			0.148111			0.000280781			0.173655			-0.764363			0.406691			0.531026			0.62575			-0.830173			0.473975			0.804541			0.315984			0.646541			-0.319885			-0.693538			0.122984			0.112937			0.451158			0.0260552			-0.232952			0.506847			0.0510133			-0.305397			-0.79759			-0.208231			-0.154176			0.362258			0.110728			-0.00121491			-0.102238			-0.222419			0.210351			-0.401756			-0.547985			-0.990758			0.0985517			0.45967			-0.193377			0.168808			0.535943			0.208489			0.386443			0.431323			0.289134			-0.192979			-0.111135			0.678095			-0.00489659			0.47913			-0.393201			0.231358			0.775341			0.70713			0.619391			-0.545552			-0.713775			0.175745			-0.638517			0.0951202			0.0473682			-0.0750834			0.0620603			-0.516205			-0.359862			0.493454			-0.225896			-0.146256			0.0410512			-0.107015			-0.595043			-0.66735			0.836511			0.447021			0.892978			-0.465615			0.918333			-0.137508			0.0432181			0.209536			0.00676362			-0.333485			0.0874			0.102997			0.470106			-0.43384			0.176009			-0.608296			0.245736			-0.50204			-0.17434			0.0155768			0.276578			0.0983545			-0.294542			-0.0387861			0.673493			-0.10741			-0.0613475			-0.129022			0.435689			0.0437204			0.363811			0.00251113			-0.392778			0.698742			0.825923			-0.0480137			0.310509			0.0150514			0.248397			0.855578			0.284065			0.364691			-0.215303			-0.28406			-0.590608			-0.487053			0.0560779			0.692878			0.88662			0.0308436			-0.245938			-0.979322			-0.150195			-0.413137			-0.132648			0.304473			-0.08635			0.143464			-0.0255163			0.03441			0.251676			0.451573			-0.814231			-0.579602			-0.65677			0.857292			0.615939			0.0599829			0.53171			-0.748234			-0.400911			0.27498			0.833203			0.105962			0.17597			0.823253			-0.0614596			-0.606965			-0.495676			-0.517955			-0.109799			0.199525			0.242466			-0.409961			0.0987967			0.729223			0.0928301			-0.721075			0.819441			-0.702658			-0.985684			0.47801			0.236376			-0.277471			-0.218254			-0.0128132			-0.334429			0.231397			0.617772			0.268485			-0.373778			-0.602273			-0.0444726			-0.681504			0.60828			-0.312753			0.121387			0.543943			-0.911172			-0.624508			-0.144126			0.113557			-0.425488			0.231104			-0.756377			-0.765281			0.347887			-0.0187734			-0.876746			0.801069			-0.839139			0.297777			0.00920731			-0.0746532			0.634586			-0.322375			-0.0443332			0.301334			-0.599585			0.213637			-0.424616			-0.123144			0.844022			-0.203089			-0.544765			-0.285035			0.601876			-0.952611			0.574851			-0.726564			0.70322			0.450775			0.547631			0.466686			-0.0891121			-0.205746			0.480556			0.634071			-0.313946			0.21183			-0.766345			-0.385599			0.000659454			-0.0864515			-0.0690803			-0.315199			-0.769231			-0.190297			0.389005			-0.282493			0.228214			-0.700857			-0.468823			-0.201499			-0.140522			0.207118			-0.981873			0.15015			0.735975			0.454487			0.257023			-0.0124351			-0.402228			-0.512285			
0.329869			-0.710665			0.616317			0.0545914			0.286099			-0.0982506			0.449429			0.717489			-0.169146			0.0918809			-0.245241			-0.129557			-0.261812			-0.134517			-0.0267545			0.785939			-0.356465			-0.620089			-0.697461			0.293621			0.282822			0.668223			0.362769			0.605165			0.112397			0.717292			0.499541			0.03371			-0.858575			0.280357			0.0162056			-0.570712			0.150532			-0.203664			-0.846885			0.102906			-0.228728			0.546241			-0.689297			-0.596519			0.00024018			0.758065			0.377091			0.0226137			-0.315364			-0.105602			0.178869			0.281494			-0.172746			0.799932			-0.212981			-0.353232			-0.263452			0.281651			-0.430898			0.0579251			-0.251762			-0.0196673			0.367498			0.685659			0.737782			0.0304605			0.291574			0.581896			-0.347454			-0.260583			0.0322127			0.0638344			-0.551853			0.365564			-0.611119			-0.0164788			-0.516228			-0.660175			-0.329203			-0.238464			0.591116			0.772007			0.244672			0.23032			0.249439			-0.242141			-0.619049			-0.994797			-0.146604			0.245772			-0.311478			-0.0492102			-0.364145			0.418403			0.342833			-0.450115			-0.160244			0.839572			0.878039			-0.707704			0.000435319			0.258421			0.705405			-0.123955			-0.175743			-0.222868			0.685644			0.580836			0.0994543			0.306627			-0.159597			-0.222452			0.182123			0.821226			0.929024			-0.0776788			-0.371784			-0.147673			0.158425			0.459649			0.621432			-0.162033			0.425065			-0.16328			0.435452			-0.175507			-0.306858			0.351077			-0.521944			-0.441995			-0.476045			-0.800204			0.416522			-0.0580697			0.30026			0.964307			0.370356			0.229407			-0.493153			-0.1672			0.0146982			-0.458037			0.415443			-0.525316			0.489642			0.115089			0.298461			0.0607856			0.126045			-0.148232			-0.0154489			0.288955			-0.0786083			-0.331234			-0.557444			0.10499			-0.406269			0.0607514			0.470281			-0.0910797			-0.335955			-0.948821			0.00976973			-0.109817			0.760087			0.161905			0.154159			0.236994			-0.39312			-0.45578			-0.0497021			0.200591			-0.0770989			-0.318067			0.0115168			-0.382666			-0.502092			-0.0530731			-0.227453			0.521381			-0.117409			-0.268677			-0.768694			-0.205626			0.0881869			0.372105			-0.588268			0.0814667			-0.217674			-0.00999802			0.3174			0.636848			0.241687			0.835159			-0.205659			-0.976176			0.361847			-0.673678			0.516656			0.453595			-0.00754345			0.182662			-0.429015			-0.474376			-0.207347			-0.675537			-0.149505			0.153306			-0.242157			0.00643571			-0.071373			-0.367755			0.00130658			0.887738			0.857804			0.523127			0.587962			0.121752			0.166881			0.402803			0.0229835			-0.932879			0.343279			-0.219478			-0.587148			-0.180517			-0.120679			-0.357916			-0.324647			-0.630966			0.509789			0.416885			-0.109139			0.339064			0.787727			-0.794061			-0.157563			0.534227			-0.755687			-0.222449			-0.351559			0.032189			0.499829			-0.717078			0.523409			-0.16733			-0.201605			-0.117092			0.110813			-0.408021			0.330452			0.5486			-0.882846			-0.680523			
0.279159			0.916774			0.524771			-0.875296			0.584858			0.470657			-0.788555			0.101825			-0.530582			-0.568815			-0.162578			-0.363332			-0.789023			0.731292			-0.0373799			-0.458177			0.487938			-0.20146			-0.152069			-0.315417			0.438005			-0.0668789			-0.335134			-0.397134			0.239588			0.0658126			-0.621551			-0.173878			-0.632257			-0.465013			-0.549091			0.210557			0.342525			0.183858			-0.443877			-0.41629			0.266749			-0.331489			-0.333715			-0.186443			-0.360725			0.905135			-0.113381			-0.199566			-0.1931			-0.674011			0.284666			-0.503156			0.474649			-0.59394			-0.0719077			0.116918			-0.468927			-0.0976722			0.656132			0.0025752			-0.638054			-0.347088			-0.253941			-0.209987			-0.159505			0.124332			0.242534			0.585016			-0.0374817			-0.652779			-0.0940209			-0.102871			-0.335504			-0.386392			-0.0453316			-0.230177			0.103228			0.330134			-0.41168			0.188057			-0.576815			-0.129511			-0.708655			-0.934833			0.370872			0.3188			0.152533			-0.0208023			-0.166825			0.78993			-0.87773			-0.226819			0.176344			0.762913			-0.436783			-0.831155			0.339676			-0.124219			-0.254974			-0.305387			0.111509			-0.442107			0.340249			-0.0734599			-0.499988			-0.24987			-0.689059			0.102845			-0.176317			0.449139			0.0886572			0.266742			0.858773			0.00165187			-0.242722			-0.121131			-0.169594			-0.132173			0.67894			-0.557332			0.624508			-0.594816			-0.870349			-0.158483			0.297934			-0.0268648			0.534354			0.710161			0.366145			0.0390427			-0.702907			0.147992			0.50685			-0.470484			-0.212433			0.154727			-0.522948			-0.294909			-0.571652			0.528723			0.0863323			0.192316			0.2811			-0.425757			0.612488			0.0862744			0.138535			-0.18554			-0.265244			0.258886			-0.13463			-0.708209			-0.874217			0.0852403			0.474323			0.705083			0.195393			0.0640298			0.322073			-0.745911			-0.177468			-0.103719			-0.497935			0.374608			0.644641			-0.639947			-0.121748			-0.476812			-0.419323			-0.613166			0.0529903			-0.0211245			0.0599037			0.585755			-0.463619			-0.207055			0.836615			-0.56543			-0.0116103			0.466177			0.164184			0.512154			-0.0583751			0.791115			0.643879			0.417784			-0.77377			0.411126			-0.196757			0.856528			-0.754927			-0.127596			0.766565			0.0561036			-0.275296			-0.36974			-0.430158			0.867118			-0.334999			0.790403			0.972873			0.793263			0.00178583			-0.400707			0.550946			-0.527943			0.0784757			-0.227412			0.114656			-0.423189			0.352456			-0.767863			-0.237783			-0.0483116			0.346418			-0.37749			0.286778			0.158199			-0.0548708			-0.187261			0.289139			0.0503231			-0.0331979			-0.0506277			0.0136806			0.235981			-0.00651369			0.205863			0.414094			0.0204037			-0.587864			-0.660729			-0.335285			-0.0129969			0.0890254			-0.472416			0.255773			0.267198			-0.445279			-0.331325			0.00218186			0.0962315			-0.393334			-0.317356			-0.646669			0.0295329			-0.131554			-0.413874			0.0112747			0.150002			-0.432138			-0.0394067			-0.0348135			-0.934102			
0.241818			-0.533145			-0.0390313			0.107785			-0.00117336			-0.280033			-0.174093			0.596715			0.715695			0.0516158			-0.310351			-0.681864			-0.828841			-0.13656			0.277964			-0.3634			-0.15328			0.391625			0.298577			0.707582			0.230064			0.117139			0.282244			0.171568			0.117987			0.689532			-0.0562152			0.082915			0.140734			-0.764466			-0.471438			-0.453973			0.88565			-0.256972			0.271025			-0.121711			-0.0636115			0.401815			0.095261			0.156681			-0.0165888			0.54197			0.205878			0.577288			0.117778			0.175706			0.0570034			0.895279			-0.274579			-0.409159			-0.15135			0.449909			-0.745037			0.058131			0.251685			-0.00907681			-0.810011			0.0617758			-0.114968			-0.168459			-0.875263			0.481364			-0.0619724			-0.224485			-0.750291			-0.633598			-0.19982			0.726338			-0.444138			-0.766969			-0.572559			-0.266492			0.402052			0.45538			-0.267058			-0.194179			-0.16483			0.195427			-0.467065			0.452313			0.21473			0.107628			-0.605038			0.0911443			0.169732			-0.0179361			0.20895			-0.0849058			0.492254			0.350769			-0.13952			-0.232229			0.689774			-0.205195			0.358635			-0.35663			0.0927324			-0.0402917			0.463336			-0.358597			0.222795			0.389314			0.0900173			0.566469			-0.018035			-0.15187			-0.0469293			-0.452452			0.311102			-0.11691			0.0183787			-0.732933			0.0645828			-0.262532			0.682686			0.0226777			0.852521			-0.142402			-0.0962596			-0.12696			0.707793			-0.392811			0.804577			0.0291582			0.335124			0.0803294			-0.0303555			-0.686471			-0.199039			-0.665679			-0.0312036			-0.280735			-0.0778786			0.452203			0.398614			0.0059267			0.0989197			-0.630094			0.494764			-0.125821			-0.560948			-0.648895			0.502325			0.113911			0.0935567			-0.610382			-0.257348			0.112808			-0.340546			-0.698119			-0.537803			0.868806			-0.0730936			-0.00966375			-0.281477			0.20546			-0.306798			-0.344814			0.150644			-0.03062			-0.142133			0.0150621			0.0171978			-0.224918			-0.268706			-0.260933			0.0792397			0.632983			0.0768625			0.467714			0.618034			-0.837391			-0.0496785			-0.0657678			-0.204637			-0.0780034			-0.316816			0.244598			-0.367148			-0.0201673			-0.72212			0.495647			0.102891			0.627652			0.186436			0.268784			0.394623			0.100634			-0.197055			-0.493281			0.0787111			-0.308137			-0.358318			-0.00229364			-0.426733			-0.0351743			-0.583403			-0.22117			0.958497			-0.699052			-0.339888			0.515099			0.0452303			-0.3322			-0.0113677			-0.216161			-0.0577561			0.256636			0.279974			0.572313			0.680875			-0.206021			0.556939			0.205404			0.5958			0.392509			-0.673703			0.256865			0.454527			-0.737148			0.238636			0.251164			0.261879			-0.524376			-0.67058			-0.474724			0.371694			0.0991544			-0.0384841			0.215095			0.149011			-0.168151			0.378142			0.207833			-0.406162			0.0641538			-0.676237			0.234734			0.175721			-0.36943			0.442683			-0.131795			0.891192			-0.111474			-0.125873			-0.56873			0.206901			0.14526			0.0721418			-0.0873143			
0.372385			-0.598763			-0.157049			0.15597			0.521798			0.176561			-0.0707925			0.0747431			-0.140358			-0.181202			-0.0412089			0.449762			0.0681128			0.383915			0.214279			0.125622			-0.683664			0.214679			-0.145974			0.656021			0.917894			0.3101			0.0476597			-0.592225			0.138008			0.367618			0.0573775			0.747007			0.0946329			-0.033257			-0.175995			0.305725			0.0614812			0.914462			-0.883974			0.183259			-0.126224			-0.333413			0.40249			-0.142214			-0.0216874			-0.12527			-0.211589			0.645681			-0.398972			0.712248			-0.59303			0.755087			-0.5244			-0.510955			0.0961384			0.0656258			0.842109			-0.350367			0.116687			0.898235			0.438622			-0.0100457			-0.326053			-0.602335			-0.441095			-0.223854			-0.50345			-0.373898			0.179526			0.12655			0.37115			-0.666486			-0.728634			-0.607351			0.496166			-0.46141			-0.729512			-0.659142			0.761604			-0.159896			-0.153404			-0.48135			0.396266			0.463196			-0.625238			0.793543			0.473766			0.748022			0.297412			0.900194			0.828657			-0.394574			-0.0223788			-0.0591902			0.226208			-0.530799			0.0901361			-0.641706			0.568253			-0.22234			0.190005			-0.764965			0.528552			-0.52285			0.517595			-0.312005			-0.538766			-0.2032			-0.799407			-0.640057			-0.0233854			0.0816065			0.530053			-0.447266			-0.919511			-0.0263137			0.845674			0.104009			-0.70677			-0.0436922			0.319123			0.503537			0.456979			0.375289			0.912014			0.292298			-0.0531018			-0.33213			-0.144412			-0.654614			-0.313037			0.0417158			-0.542407			-0.259388			0.180026			-0.130672			-0.881282			-0.53205			-0.263055			0.335615			0.168369			0.718073			0.256491			-0.646429			0.547216			-0.459766			-0.182987			-0.812221			0.0955932			0.430587			0.051213			0.426128			0.191149			-0.0180591			-0.911411			0.110393			-0.13414			-0.606031			0.944805			0.100799			0.00349778			0.280373			0.305165			0.420179			0.32496			-0.493132			-0.818619			-0.259889			-0.34707			-0.40947			0.174213			0.271755			0.311951			-0.377437			0.0918069			0.181716			-0.176041			0.00192363			-0.508652			0.10548			0.515264			0.345568			-0.735734			0.0192264			-0.0595032			-0.169658			0.674378			0.361779			0.919836			-0.0298339			0.77916			0.600034			0.464362			0.131045			0.240604			0.636112			-0.481448			0.445154			0.206359			-0.206088			-0.324074			0.262541			0.0255701			0.275251			0.194912			-0.0639298			0.574435			-0.813321			0.70381			0.637317			0.539017			0.230876			-0.260473			0.0258317			-0.355053			-0.118565			0.288696			-0.358395			-0.434206			0.239957			0.0723677			-0.216674			0.0855775			0.0422943			0.497893			-0.0383887			-0.974901			0.305558			0.568179			-0.648655			-0.79866			0.063445			0.198659			-0.699727			-0.411729			-0.218209			0.139383			-0.641196			0.881291			0.0911226			-0.765024			0.0994544			0.107995			0.132511			-0.454636			-0.336916			0.17252			0.610224			0.228805			0.613525			-0.18328			0.407501			0.262509			-0.10309			
0.421831			-0.0583863			-0.329974			-0.373172			0.290332			0.454708			-0.984468			0.883363			0.294801			-0.374147			-0.121907			-0.658414			-0.962206			0.158532			0.862429			0.437072			0.0402585			-0.573714			-0.938707			-0.532129			-0.275072			-0.426133			-0.505402			0.500142			-0.525964			-0.676163			0.171719			-0.818074			0.0552577			-0.222425			-0.645022			0.291797			0.231761			-0.192429			-0.869591			0.119919			-0.351473			-0.641887			-0.0208501			0.23042			-0.22482			-0.486799			0.301505			0.401265			0.55839			0.596507			-0.640036			-0.0176116			0.311516			0.142534			0.0261986			0.569813			-0.811832			-0.255071			0.567496			-0.00486113			-0.542074			-0.117589			0.699182			-0.179092			-0.198052			-0.210764			-0.32056			0.589578			0.2201			-0.0962462			0.116213			0.855722			-0.216081			0.364725			-0.767449			-0.106822			-0.251881			0.342457			-0.0163218			0.928974			0.337746			-0.465977			-0.159885			-0.554806			0.349769			-0.890394			0.222022			-0.0505817			0.839592			-0.481144			-0.0478753			-0.511465			-0.137565			0.349709			0.0649497			-0.209743			-0.439396			0.651113			0.335707			-0.158268			-0.00713732			0.669337			-0.0461374			-0.0257643			-0.271872			0.251556			0.89504			-0.592434			-0.0473481			0.606496			0.404328			-0.219596			-0.207486			-0.338542			-0.182443			-0.24827			-0.683391			0.216398			0.24522			-0.217256			0.794399			-0.0633873			-0.643388			0.254985			-0.0599363			0.408617			0.254537			-0.3025			-0.264608			0.625018			-0.0462378			-0.218296			-0.226065			0.575281			-0.281325			0.11378			0.551903			-0.143263			0.00328498			-0.162089			-0.163542			0.0767838			0.513009			-0.901423			0.270004			-0.473248			-0.149785			0.0259495			0.734518			-0.647346			-0.247009			0.400053			0.417582			0.140476			-0.381889			0.352187			0.0748038			-0.255271			-0.086528			0.628313			0.399645			0.112878			0.0586233			-0.467241			-0.0934718			-0.722199			-0.240734			-0.413538			-0.00813078			0.180249			-0.44899			-0.0700765			0.234763			0.232466			0.0977455			0.309937			-0.458898			0.854305			0.526245			0.113741			0.0782291			-0.13496			-0.577647			-0.227246			-0.157729			-0.54			0.6859			-0.303748			-0.683748			0.927827			0.849779			0.111903			-0.881178			-0.255357			0.743932			0.0670931			0.171675			0.368821			0.732242			0.670652			-0.218523			-0.672039			0.913212			0.827803			0.489197			0.0594117			0.655119			-0.169729			0.365873			-0.590429			0.43655			0.885194			-0.325506			0.613965			-0.167079			-0.0264659			-0.0674668			0.294849			0.431928			-0.920015			-0.0148278			-0.235352			0.0427437			0.27005			0.58997			0.376405			0.425271			-0.296441			0.647272			0.314985			0.368475			0.348586			0.0482206			0.0427857			0.784989			0.357353			0.0352727			0.883425			-0.257528			0.14079			0.451438			0.188253			-0.962378			0.128805			-0.252204			0.119796			-0.00116719			-0.815468			0.892231			0.151032			0.0173942			0.039687			-0.420675			-0.572999			
0.292679			-0.548871			-0.0549795			-0.263369			-0.475276			0.370576			0.348865			-0.303711			-0.255203			-0.102173			0.537168			0.423134			0.63649			0.25499			0.356239			0.831648			0.316419			0.0177387			-0.151156			0.264479			-0.109715			0.978743			-0.256544			-0.449147			-0.166874			-0.466619			0.422201			0.135429			-0.379952			-0.107223			0.106607			-0.212711			-0.291527			-0.609423			-0.617046			-0.187193			0.153999			0.0318594			0.154252			0.61757			-0.0279708			-0.00561732			-0.382443			-0.45777			0.176307			0.58322			-0.316618			-0.429656			0.783178			0.908361			-0.425604			-0.358408			0.305795			-0.563746			0.429843			0.895096			0.344843			-0.0725849			0.115277			-0.256659			-0.462187			-0.343956			-0.158307			0.0104448			0.860696			0.053986			-0.0781981			-0.314034			0.461401			0.268262			-0.110667			0.0794138			-0.189662			-0.331901			0.374092			-0.705101			-0.85384			-0.126043			-0.174847			-0.315073			0.207776			0.155685			0.0419643			-0.140553			0.829441			-0.209853			0.616992			-0.139689			0.333941			-0.100103			-0.312038			0.261746			-0.0359326			-0.702963			-0.738142			-0.611809			-0.49834			-0.390776			-0.0149048			-0.139824			-0.255965			-0.607527			0.718875			-0.32583			0.326849			-0.19123			0.192616			0.13085			0.592249			0.0137839			0.700031			0.0639146			0.188264			-0.317896			0.501952			-0.805092			-0.533161			-0.220735			0.140862			0.00885966			0.408919			-0.204159			0.204448			-0.261			-0.883446			0.343434			0.152287			0.588262			-0.210845			-0.759787			0.151313			0.126802			0.422294			-0.264055			0.778815			-0.0373129			0.553056			-0.0505356			0.36754			-0.444958			0.269043			0.183597			0.618804			0.476793			-0.00588827			-0.725532			0.0581927			-0.420789			0.0977334			0.240462			0.170931			0.0738202			-0.355085			0.0253609			-0.44706			0.257136			-0.119791			-0.545883			0.101576			-0.195776			0.422892			0.135803			-0.0299735			-0.235134			0.397767			-0.382759			-0.862888			-0.185231			-0.139801			0.125809			-0.23183			-0.0529113			0.108147			-0.28976			0.866899			0.135507			0.198793			0.334568			0.0488221			0.273684			-0.457857			-0.351121			-0.0914906			0.262371			0.845627			0.48565			-0.234295			-0.255237			-0.138105			-0.770279			-0.775351			0.0480049			0.143832			-0.434272			0.156513			0.264743			0.606715			-0.224792			-0.438065			-0.710007			-0.12423			0.354337			0.0855381			0.625196			0.630092			0.933001			-0.349421			-0.309719			0.495128			0.247769			0.0377416			-0.0492917			-0.550154			0.349703			-0.199109			0.0794135			-0.0193812			-0.170043			0.414474			0.343157			-0.083736			-0.370229			0.698272			0.323326			-0.250796			-0.19042			0.192855			-0.17399			-0.652129			-0.151722			-0.479159			-0.176318			0.263698			0.388681			-0.701898			-0.138546			-0.0181565			-0.112269			0.439744			0.405176			-0.218273			0.0650798			-0.398811			0.679796			-0.414984			0.370863			-0.073675			0.868393			0.701864			0.43487			
0.536244			0.218197			-0.665548			-0.079804			-0.306951			-0.842723			-0.404337			0.356027			-0.329928			0.813005			-0.584825			0.415691			-0.233795			-0.664377			-0.869246			0.396422			0.0837605			-0.0130876			0.481177			0.204752			-0.519475			0.13481			0.113293			-0.488992			0.0148556			-0.426624			0.379437			0.0444739			-0.586684			0.0494851			0.531946			-0.435588			0.424442			0.684391			0.949832			0.18224			0.328964			0.193802			-0.476334			-0.10279			0.624464			0.560005			-0.276461			0.341355			-0.173873			-0.367395			0.170083			-0.181384			0.82842			0.442197			-0.741198			0.816408			-0.671676			-0.377401			-0.270401			-0.312919			-0.306204			0.175282			-0.213351			0.279808			-0.159042			-0.0496441			-0.288579			0.417105			0.179969			0.233817			-0.388797			-0.356159			0.166504			-0.50273			-0.0353276			0.433198			-0.44366			-0.517981			-0.155614			-0.192657			-0.252447			-0.386932			-0.159479			0.0231528			0.0587859			-0.814936			0.231307			-0.749154			-0.583932			0.565262			0.423206			0.0738097			-0.582872			0.207466			-0.0690496			-0.00122943			0.311458			0.165739			0.115787			-0.402508			0.78353			0.801726			-0.0173728			-0.396203			-0.0599387			0.363961			0.0255493			0.606359			-0.796234			0.0469581			0.361687			-0.107419			0.00769272			-0.546703			0.679104			0.504191			0.492531			-0.861445			0.123663			-0.0991325			0.468556			-0.198861			-0.293918			0.304378			-0.763403			0.923575			-0.530465			0.825811			0.249838			-0.572463			-0.207869			-0.0342287			0.0341077			-0.794679			-0.762504			-0.954898			0.00631185			0.25351			0.307606			0.391771			0.096034			0.324865			0.217332			-0.402726			-0.400837			-0.34261			0.352374			-0.392036			-0.391065			-0.236448			-0.702552			-0.352164			-0.178778			0.133819			0.263807			0.0914043			-0.608081			-0.362695			-0.0189825			-0.242036			0.261607			-0.393603			-0.631459			-0.471434			0.472146			0.0858047			-0.776912			0.237517			-0.116983			-0.465802			-0.409415			-0.0685325			0.300004			-0.0866087			0.465551			-0.30965			-0.104091			0.209632			0.363211			-0.827927			-0.108396			0.147893			0.647975			-0.528551			0.293332			0.663155			0.0941539			0.0465262			-0.371625			-0.0588624			0.448554			0.243298			0.411534			0.23003			-0.343061			0.141549			0.55597			-0.627474			-0.882247			-0.152347			-0.615597			-0.325983			-0.331354			0.976476			0.224582			-0.950615			0.397611			-0.261499			-0.585501			0.404565			-0.0573129			0.079995			0.239973			-0.444295			-0.756105			-0.500347			-0.126103			-0.272881			0.995421			0.0652609			0.0551794			0.0364207			0.646765			0.571728			0.400801			-0.0725349			-0.573723			0.0229261			-0.0859532			-0.617143			-0.174034			0.229635			0.134998			-0.821867			-0.05477			0.423148			-0.0371038			0.384656			-0.529978			-0.305477			0.58012			0.160661			-0.529951			-0.196925			0.313053			0.0711726			-0.417707			-0.0912342			0.290766			-0.877923			0.7367			-0.00866086			0.707131			0.504846			
0.187503			-0.0408791			0.312791			0.375221			-0.286003			-0.0338526			-0.345334			-0.591428			-0.292058			-0.157316			-0.522597			0.654851			0.133669			-0.0835856			0.0217049			0.0512723			0.118376			-0.198405			-0.232358			0.073533			0.197833			0.220799			0.246406			-0.143153			-0.623567			-0.406541			-0.00529559			0.00374824			0.174449			0.420195			-0.0268511			-0.18706			-0.539638			-0.0421225			-0.309544			0.495674			0.148766			0.980214			0.08231			-0.314297			-0.344748			0.145184			0.709113			-0.285686			0.471826			-0.891506			0.36461			-0.0778387			-0.335896			-0.367852			0.303584			-0.00958464			0.21359			0.951374			-0.497383			-0.0572472			0.680112			0.706489			-0.488546			0.3018			-0.330244			0.230162			-0.258858			-0.0100055			0.630427			-0.332767			-0.0383639			-0.320982			-0.936183			-0.446399			0.641321			0.840479			0.820218			-0.206414			-0.725134			-0.165126			0.405349			-0.639218			-0.148796			-0.756638			-0.0432482			0.451516			0.158353			-0.315128			-0.822137			0.328591			0.0612525			-0.550413			-0.0806084			0.256486			0.216464			0.867204			-0.179678			0.142474			0.583522			0.643382			-0.586662			-0.130345			-0.0573219			0.0107525			0.222929			-0.254191			-0.142824			0.047771			-0.35256			0.165744			-0.153973			0.133736			-0.073951			-0.291643			-0.144716			0.253291			0.39549			-0.934062			0.0678781			-0.0359745			-0.416517			0.546016			-0.280171			-0.0104374			0.402826			-0.366512			0.249694			0.274233			-0.224928			-0.608137			-0.0106055			0.642409			0.293958			-0.138579			-0.514206			-0.114877			-0.804657			-0.400149			-0.501784			-0.471463			0.7476			0.363908			0.408916			-0.395061			0.469206			-0.360529			-0.388662			-0.97326			-0.379043			0.106726			0.80589			-0.84304			0.231934			0.9412			0.446228			-0.669466			0.558836			0.296345			-0.424348			-0.284568			0.0908953			-0.689726			0.449745			0.0277146			0.589117			0.326995			0.16908			0.549932			-0.468982			0.614536			-0.837016			-0.447752			0.623586			-0.431353			0.210383			-0.105229			0.183113			-0.349844			0.212325			-0.516502			-0.175887			-0.371258			-0.784346			-0.311358			-0.833098			-0.726893			-0.295412			0.304448			-0.481976			-0.530642			-0.358954			0.384784			0.288386			-0.476362			0.736449			0.0425726			-0.731353			-0.259099			-0.66868			0.557068			0.24385			-0.345178			-0.457478			-0.500692			-0.0439894			0.135353			-0.359319			-0.274432			0.207407			-0.580377			0.2172			-0.281471			0.476558			-0.290261			0.740671			0.338292			0.167465			-0.919853			0.0227753			0.604119			0.454608			0.440492			0.141767			0.308526			0.623116			0.311662			-0.782417			-0.808912			0.224952			-0.472127			0.318295			-0.765446			-0.331406			-0.356584			-0.56407			-0.239776			-0.0508239			-0.0427234			-0.18022			-0.811144			-0.44725			-0.522881			-0.0199161			0.180152			0.392096			-0.246795			-0.671731			0.0981705			0.461892			0.920761			-0.0402056			-0.244454			0.656766			-0.476321			
-0.867351			-0.237152			0.477022			0.378105			0.181455			0.123526			0.171584			-0.26038			0.222336			0.398195			0.00658285			0.454141			0.421491			0.214314			-0.417367			0.187543			-0.76801			-0.272136			0.27416			-0.844762			-0.0250132			0.554974			-0.133658			0.672159			-0.520301			-0.813446			-0.1595			-0.378991			0.43113			-0.839091			-0.185939			-0.129546			-0.554575			0.380381			0.699688			0.146696			0.767556			-0.00393877			-0.201982			0.28213			-0.334116			0.576676			-0.128196			-0.0611009			0.603174			0.274343			0.404481			-0.185689			0.245771			0.184389			0.0172089			0.557559			0.915891			0.605425			-0.0983073			0.0727295			-0.529252			-0.144886			-0.63529			0.60217			0.028543			-0.676271			-0.196656			-0.164314			0.439814			-0.0200971			-0.870097			0.145046			-0.595314			-0.0253579			-0.0874432			-0.487971			-0.081934			-0.842905			-0.075917			-0.926488			0.152632			0.745606			0.345691			0.959519			-0.21142			0.0382163			0.0842533			-0.842446			0.615417			-0.628183			-0.146807			0.0579611			-0.239339			-0.335296			-0.523447			-0.117525			0.0308503			-0.554467			0.649166			-0.0660928			0.071482			0.450362			-0.0857845			0.859408			0.164595			0.0724649			0.342541			-0.783871			0.42778			-0.164726			0.73536			0.540858			0.164939			-0.224073			-0.366769			-0.738066			-0.653424			0.301393			0.525808			-0.590228			-0.261307			0.551499			0.0253264			-0.174398			0.291016			-0.75709			-0.24607			0.757304			0.195194			0.0447202			-0.213936			0.298227			0.0396941			-0.894768			0.799043			0.240179			0.187424			-0.666026			0.0899878			-0.515112			-0.629593			-0.93874			0.216925			-0.673343			0.0456192			-0.129693			-0.472083			0.265083			-0.50111			-0.127323			0.448165			-0.23389			-0.188289			0.509075			-0.278378			-0.0426687			0.760383			0.767579			-0.125172			-0.483499			0.398441			-0.00647877			0.256564			0.324863			-0.411117			0.835538			0.479987			0.441731			0.743646			0.633676			-0.129755			0.122145			0.0364468			-0.0862175			0.335905			0.354381			0.379383			-0.451542			0.515703			-0.396645			-0.457423			-0.83899			-0.48367			0.599399			-0.277845			0.277357			-0.11272			-0.492383			0.49035			-0.584393			-0.139702			0.112847			-0.10081			-0.33445			-0.477867			0.83365			-0.662931			-0.995173			-0.520281			-0.0332952			-0.82025			-0.1917			-0.41977			-0.702771			0.305528			0.334119			-0.437022			0.093064			0.48248			-0.586557			0.383417			-0.168937			0.179661			0.12648			0.555019			-0.0496484			0.00324792			0.00434714			0.728021			0.111809			0.610812			-0.0185045			-0.283621			-0.542262			-0.0419626			0.249074			0.550153			-0.0973906			-0.274099			0.981418			0.383872			0.392902			-0.243965			0.353778			-0.33241			0.1871			0.546005			0.290003			0.18537			0.203571			-0.142765			-0.094169			-0.64258			-0.678398			0.284642			0.528628			-0.291703			-0.540495			-0.354418			0.0723759			-0.612796			-0.720952			-0.167756			-0.479443			
-0.558859			-0.531502			0.41727			0.282764			-0.534578			-0.0756345			0.362047			0.111635			-0.229991			-0.436345			0.440186			-0.502709			-0.344943			0.393343			-0.335767			0.119816			-0.346825			-0.77968			-0.82089			-0.474497			-0.0677468			-0.513096			-0.970567			-0.0469392			-0.186758			-0.500876			-0.425461			0.404073			-0.380008			-0.492543			0.329055			0.308044			-0.181738			-0.358445			-0.0543963			-0.243982			-0.213797			-0.32183			-0.0124556			0.158339			-0.475383			-0.327707			-0.227902			-0.765778			-0.328664			0.055146			-0.226044			-0.0620633			-0.0525894			0.161679			0.411847			-0.97093			-0.745804			-0.618072			-0.752619			0.0200372			-0.0381846			0.267293			-0.500746			0.16446			-0.939865			-0.514667			-0.457506			0.424482			0.177329			-0.704326			0.081039			-0.388878			0.377896			0.174784			-0.329821			0.43907			-0.252768			-0.913566			-0.130933			-0.347774			0.732726			0.55802			-0.649691			-0.0430226			-0.563651			-0.59691			0.428853			-0.115136			0.848618			-0.305408			0.0659951			-0.306791			0.93034			0.0657002			0.5521			-0.0919779			-0.0780153			-0.403761			0.102607			-0.494608			-0.542513			0.540283			-0.111873			0.109828			-0.116111			-0.157062			0.0274143			-0.383728			0.179901			0.185419			0.16069			0.212669			-0.161249			-0.126015			-0.494388			0.0671695			0.766233			0.64202			0.0686494			0.48299			0.1557			-0.238826			0.116045			-0.225269			0.792167			0.629664			-0.421781			0.0514413			0.0495748			0.48959			-0.559714			-0.370262			-0.741257			-0.647089			-0.953192			0.595817			-0.399204			-0.49786			-0.00337641			-0.285181			-0.0961653			-0.371203			0.572126			0.0118733			-0.551011			0.240894			0.364263			0.519277			-0.11597			-0.777043			-0.557463			0.446093			-0.571665			-0.327776			0.0781672			0.424076			-0.667195			-0.19423			0.283941			0.398587			-0.440789			-0.359929			0.51612			0.054891			-0.0753697			0.439002			-0.0684868			-0.599559			0.695511			-0.619738			-0.212989			-0.141644			-0.244341			0.725189			0.147094			0.327091			-0.0895826			0.0779952			0.303829			0.297801			0.137026			0.244236			-0.704479			-0.391403			0.514509			0.541323			-0.889011			0.535597			0.161734			-0.128143			0.0878087			-0.515672			0.765868			-0.389661			0.648823			0.382736			0.213068			0.454829			-0.310992			0.579895			0.679891			0.0284918			-0.146012			0.121272			-0.136764			0.0102396			0.412688			0.981755			-0.873194			0.492032			0.116149			-0.207062			0.222099			0.43131			0.177778			-0.233672			0.24909			0.321718			0.56585			-0.154401			-0.245594			-0.0361812			-0.569103			-0.159659			0.592595			-0.16917			-0.395432			-0.00535175			0.805537			0.118942			0.231801			-0.0415328			0.106425			-0.274142			-0.067647			-0.0388364			-0.0924686			-0.10327			-0.0769682			-0.599962			-0.075503			-0.434266			0.573114			-0.359657			-0.866557			0.192981			0.4888			0.0487462			0.695111			-0.606485			0.781139			-0.332896			-0.225113			-0.592159			
0.101798			-0.0238027			-0.473829			-0.253895			-0.0177972			-0.525005			0.43134			0.622205			0.0305945			-0.400022			-0.147553			-0.506786			0.317732			0.159219			-0.0973523			0.672893			-0.372828			0.434053			-0.171052			0.609093			0.367101			0.159619			-0.81326			-0.255165			-0.505278			-0.725514			-0.159998			-0.434008			-0.214793			0.0148464			0.667529			0.960265			-0.702514			-0.0721813			0.74699			0.700259			0.0196705			0.121915			-0.650615			-0.393868			-0.262776			-0.572997			-0.963798			-0.0686841			-0.408314			-0.00533681			0.290933			-0.519715			0.325369			0.155538			-0.8161			-0.244325			0.19242			0.125385			0.225151			0.0382304			0.519148			0.00179496			-0.0747099			0.124315			-0.477484			0.356726			-0.210397			-0.102769			-0.710159			-0.0791437			0.311018			0.479158			0.431638			-0.367111			0.496781			0.0140906			-0.178757			-0.0285193			0.03131			-0.307274			-0.112461			-0.684186			-0.560433			-0.0451973			-0.213524			-0.627572			0.383813			-0.330954			0.0674445			0.179458			0.353484			0.523412			0.0607164			-0.118346			-0.426367			0.214454			0.0853247			0.334938			-0.267201			0.312905			-0.22398			-0.0568204			-0.533855			0.121096			0.539778			-0.724221			-0.314979			0.111395			0.0251737			0.929358			-0.647252			0.221892			0.311895			0.252775			-0.753356			-0.0166432			0.275256			0.181226			-0.231179			-0.136105			-0.0193261			-0.541317			-0.000565415			-0.399777			0.451975			0.183621			-0.0431556			-0.248421			-0.495974			0.544363			-0.306156			-0.0350565			0.0512913			-0.516781			0.218321			0.105639			0.911976			-0.712823			-0.74525			-0.944525			-0.0213351			-0.444086			-0.243182			-0.108821			-0.163576			0.170129			-0.518635			0.649105			-0.192106			-0.319609			0.121858			0.413169			-0.0654548			-0.214049			-0.132306			-0.039671			0.165973			0.449276			0.250837			0.358494			0.990609			-0.563521			0.349669			-0.22457			-0.930198			-0.650411			-0.274452			-0.0244787			-0.0268846			-0.489217			0.0506028			0.771521			0.961656			-0.271516			-0.299999			0.0517183			-0.468663			-0.638668			0.154507			0.476387			0.433971			0.0993318			-0.242066			-0.191639			-0.247508			0.0371457			0.137265			0.471667			0.181138			0.03964			0.0428687			0.725664			0.312273			-0.203285			0.401316			-0.231734			-0.051743			0.637667			-0.644482			0.547745			0.175966			-0.277396			-0.906568			-0.6994			-0.231591			-0.253447			-0.463153			-0.152221			0.166639			-0.17362			-0.881793			0.486662			0.00299764			-0.628061			0.104558			0.433181			0.230559			-0.175553			-0.445432			0.156701			0.680906			-0.876111			0.177625			-0.0604958			0.386628			0.309626			-0.546618			0.0923435			-0.0850771			-0.279567			-0.755616			-0.431431			-0.553322			-0.531907			0.243926			0.524711			0.536038			0.192456			0.5392			0.274175			0.0418995			-0.132965			-0.34805			-0.583043			0.321619			-0.0971531			-0.216435			0.2757			0.0158448			0.296395			0.0467597			-0.105715			-0.163402			0.0947519			
0.0911995			-0.0517618			0.211479			-0.181281			0.545707			0.134408			0.614379			-0.583176			0.549353			0.115111			-0.26156			0.282188			-0.0120912			0.0968513			-0.366275			-0.305876			-0.220867			0.358222			0.0591206			0.449476			0.437061			0.1681			0.593554			0.576293			-0.523535			-0.254837			-0.393129			-0.370457			0.35598			0.490356			0.218033			0.239756			0.12484			-0.00720727			-0.348364			0.437876			-0.603637			-0.172982			0.174754			-0.487639			0.503087			-0.892849			0.462691			-0.213452			0.476684			-0.0288615			-0.736068			0.0984062			-0.123731			-0.529121			0.912503			-0.00630997			0.745319			0.0120314			0.338187			-0.320261			0.481672			-0.23408			-0.364963			0.280893			-0.563818			0.141084			0.436112			-0.000927705			0.419287			-0.626997			0.68482			-0.103001			0.094742			0.127313			-0.95873			-0.492724			-0.422348			-0.295569			0.0455469			0.405212			-0.29834			-0.522931			0.423925			0.177443			0.0945156			0.233412			-0.0226616			0.109435			0.15998			0.471737			-0.123954			-0.25292			-0.428303			0.226324			-0.759279			0.216967			0.023756			0.883743			0.347936			-0.455607			-0.0168315			0.170016			-0.0210947			0.0646575			0.600885			0.327276			-0.263917			-0.103605			0.41134			0.00297262			-0.0654741			0.365045			0.591244			-0.0665107			-0.622449			0.562312			-0.417994			-0.315323			-0.391927			0.347826			0.341364			-0.587219			0.231452			-0.482614			0.407911			-0.747836			-0.0716967			-0.390338			-0.101524			0.26885			-0.745186			0.0303604			0.037918			0.379928			0.0847687			-0.655656			-0.915944			-0.360054			-0.461848			-0.084377			0.865968			-0.771579			0.0423422			0.207391			-0.336331			-0.310318			0.222151			-0.368745			-0.257123			-0.318458			-0.624484			-0.584002			0.343595			-0.381771			0.207387			-0.271762			-0.218747			-0.814358			-0.695447			-0.233568			-0.242602			-0.0997105			0.565662			0.369601			0.579888			0.12105			-0.00448192			-0.198623			0.081667			-0.331435			-0.0554794			0.00761614			-0.334524			-0.249322			0.311414			0.0921232			-0.0853023			0.654774			-0.107524			-0.169369			-0.347294			0.453917			0.294069			0.513021			-0.460354			-0.271975			-0.509543			0.0381971			0.252789			-0.189476			-0.924036			-0.254675			0.106093			0.548127			0.413283			0.22884			0.229652			-0.263198			-0.0021497			-0.412662			0.812288			0.232963			0.284427			-0.286707			-0.305611			-0.228313			-0.476003			-0.124117			0.101249			0.701097			0.0559385			0.073969			0.69259			0.0825192			-0.994739			0.707906			0.985974			-0.539018			-0.105199			-0.209568			-0.100386			-0.0347929			0.316762			-0.711845			0.782695			0.345575			-0.190252			-0.148087			0.549091			-0.305329			-0.0237026			-0.387744			0.305404			0.526834			0.302772			-0.390408			0.239845			0.182959			0.584127			-0.188628			0.969604			0.208169			-0.858376			-0.0804999			-0.0300302			0.179089			0.00267362			-0.0586846			0.133893			0.468795			0.647307			-0.14069			0.473915			-0.984603			
0.0554311			0.182028			0.127465			0.540496			-0.718658			-0.00551969			-0.680285			0.116072			-0.396419			-0.366399			-0.72877			-0.216364			-0.0805057			0.179038			0.104692			0.394073			-0.0515374			0.609043			-0.58703			-0.88796			0.191331			-0.433745			-0.137567			0.86987			0.355783			0.22027			0.215059			-0.454134			-0.580065			0.341831			0.470023			0.367497			-0.94895			0.0520882			-0.117334			-0.22811			0.846936			0.0557422			-0.632537			0.20313			0.288493			-0.12174			0.581245			0.911487			-0.490579			-0.966263			-0.453251			0.289056			-0.604638			-0.307474			0.0325693			-0.227416			-0.449955			0.428074			0.470278			-0.641867			0.388168			0.0884476			0.301154			-0.271201			0.156685			-0.76408			-0.345461			0.103579			-0.304986			0.627044			-0.308874			0.331691			-0.214256			0.0680252			-0.882318			-0.592795			0.330849			0.734433			0.182134			-0.208436			-0.278311			0.58007			0.218622			0.597083			-0.170627			-0.474287			0.25189			0.625782			-0.401772			0.879229			0.430511			-0.505718			0.216299			0.216097			0.53848			-0.462038			0.345514			-0.425067			0.53072			-0.238454			0.959859			0.00614999			-0.0896783			0.0196723			-0.596962			0.143168			0.768954			-0.194156			0.815414			-0.21687			-0.0832772			0.435341			-0.935212			-0.395501			-0.433802			-0.0752801			-0.215257			-0.154231			-0.420107			-0.4601			-0.562987			-0.145792			-0.680888			0.0342441			-0.26428			0.540846			0.521759			-0.414125			0.735828			0.595889			-0.72966			0.238384			-0.161356			0.756165			0.0302666			0.156434			-0.256956			-0.924608			0.349106			0.423569			-0.241863			0.184981			0.176396			0.352511			-0.136123			-0.288486			0.571046			-0.0848034			-0.365116			0.209328			-0.23682			-0.181006			0.164646			0.583913			-0.205697			-0.815108			0.113109			-0.425604			-0.309075			0.384291			0.279683			0.592236			-0.764773			0.541456			0.207833			-0.670628			-0.380298			0.115135			0.124173			0.259078			0.254114			-0.0429992			0.87536			-0.194504			-0.0420652			-0.436991			0.512549			-0.0125574			0.342518			0.0260045			-0.951258			0.338132			0.343026			-0.14446			-0.154789			0.881127			-0.0263209			-0.00187852			-0.00251117			-0.164325			-0.196256			-0.739941			0.531348			-0.888381			0.31618			-0.0577988			0.908272			0.289611			0.903339			-0.688455			0.126351			0.208706			-0.128781			-0.338041			0.6106			-0.260467			-0.367025			0.222933			-0.862962			-0.435131			0.229043			0.404145			0.106187			-0.164375			-0.782978			0.289809			-0.711425			0.357276			0.535632			0.341257			-0.33802			-0.390203			-0.652795			0.62979			0.414705			-0.836313			-0.611993			-0.466815			-0.262054			-0.403184			0.150118			0.00141522			0.0918588			-0.506335			-0.431226			0.319438			-0.905378			-0.409076			-0.247386			0.430085			-0.66371			-0.550498			0.275763			0.0355691			0.0815445			0.0106235			0.00237716			0.526173			-0.591217			-0.654535			0.1562			-0.531311			-0.909597			-0.53935			
0.734358			0.149137			0.102679			0.0144328			0.0133813			-0.240388			-0.138323			-0.616644			0.715987			0.0494407			0.744715			-0.264455			0.176606			-0.354194			0.342367			0.409019			-0.219146			-0.0661981			-0.637264			-0.125471			0.842511			-0.296642			-0.310108			0.0078205			0.0660832			-0.110152			0.272994			-0.14441			-0.0409604			0.0432366			0.152181			0.696957			-0.455088			-0.78413			0.411158			0.449765			0.0851594			0.137912			0.752924			-0.178746			-0.540168			0.298906			-0.165345			-0.314509			0.660644			-0.334216			-0.104605			-0.707404			-0.193487			-0.366072			0.321763			-0.22304			0.727554			-0.871477			-0.395236			-0.0268302			-0.238005			-0.0165002			-0.836066			0.297394			0.316296			0.315507			0.0776291			0.328461			0.743954			-0.0198962			0.178055			0.403028			-0.823695			0.203305			0.640091			-0.0170624			-0.502784			0.474278			-0.630941			-0.483997			0.831214			0.36541			-0.899803			0.452189			-0.225925			-0.0882288			0.84808			-0.0481724			-0.0662602			-0.404604			-0.865843			-0.141741			-0.497148			-0.0476529			-0.472671			0.068956			-0.673794			-0.133276			0.238881			0.413277			-0.0363665			0.263446			0.382379			-0.320579			-0.548667			0.255713			-0.573431			-0.0117122			-0.484746			-0.419645			-0.0497371			0.245828			-0.962811			-0.523735			-0.290005			-0.943879			-0.586229			-0.844023			0.422958			0.294826			-0.373797			0.00242945			0.24752			-0.0422043			0.500797			-0.0207379			0.659196			0.819404			0.320327			-0.69148			-0.14569			0.176857			0.548238			-0.379406			-0.541057			-0.896633			-0.259021			-0.137963			0.416455			-0.113828			0.233948			-0.657045			0.0347185			0.178858			-0.119778			-0.358911			0.524415			-0.572933			0.249288			0.459808			-0.236557			0.393925			-0.279231			-0.724437			-0.1325			-0.0717753			0.146007			-0.1534			-0.29164			0.450742			0.0637728			-0.300285			0.0553279			0.159805			0.209498			-0.933458			0.0601064			0.0492684			-0.0525959			0.215549			0.173295			0.0356202			-0.186295			-0.566839			-0.305228			0.38988			0.200851			-0.135953			0.440619			0.0510529			-0.164466			-0.184761			-0.267491			-0.146423			-0.047508			-0.475143			-0.704574			-0.380445			0.305937			-0.43425			-0.00584804			-0.460384			-0.632561			-0.00267364			0.409748			0.260411			-0.242382			0.229886			0.569214			0.491585			0.0463115			-0.113409			0.26754			-0.0930311			-0.022406			0.42388			0.467628			-0.511896			0.10947			-0.0375195			-0.933016			0.250944			0.0221141			0.304787			0.0720081			-0.614278			0.621911			-0.0426514			0.669257			-0.408766			0.346235			0.138066			0.627425			0.369092			0.710857			-0.253008			-0.39019			-0.76033			0.160449			0.011577			-0.834424			0.19481			0.401966			-0.942855			0.789921			-0.513816			0.175168			-0.227158			-0.147333			-0.0911027			0.0153451			-0.572888			0.806509			0.529698			0.632995			0.747772			-0.0920048			-0.960934			0.871804			0.212405			0.573887			0.461449			0.0972561			-0.194358			
-0.600817			-0.0889067			-0.431472			0.146973			0.4022			0.410856			-0.228202			-0.420654			0.188845			-0.45456			-0.418			-0.895563			-0.524076			0.120722			-0.298882			-0.571313			-0.0768711			-0.213718			-0.531979			-0.86657			-0.263109			-0.560307			-0.421858			-0.346091			-0.109598			0.16697			0.664556			-0.078851			0.574387			-0.445913			-0.610085			0.472189			-0.249489			0.74419			0.139191			-0.884616			-0.102414			-0.209448			0.246178			-0.314374			-0.169331			0.927476			-0.0633709			0.426101			-0.0682545			0.904053			-0.204853			-0.324251			0.0402815			0.207606			-0.0589107			0.228469			-0.440773			0.152997			0.791854			-0.41088			0.147665			0.339766			-0.109422			0.125263			-0.436487			-0.101308			0.409929			-0.0234665			-0.65331			-0.931219			-0.252465			0.872283			-0.0110218			-0.182185			-0.112923			0.492845			-0.0607205			0.460683			-0.114807			0.0541557			-0.19211			0.628246			-0.341685			-0.183627			-0.607816			0.00313077			0.0943103			0.256095			0.223228			0.143188			-0.960794			0.146122			0.127227			0.197437			0.073584			-0.008083			0.218527			0.0119481			-0.852173			-0.508631			0.98752			-0.383027			-0.460882			0.0440141			-0.18625			-0.360355			-0.420677			0.477531			-0.403413			-0.241136			-0.879293			-0.00417845			-0.352783			-0.285937			-0.640196			-0.56369			0.120707			0.673942			0.647691			0.237484			-0.440753			0.458119			0.131286			-0.109778			0.0611062			0.0679307			0.0705263			-0.0622806			-0.547749			0.593747			-0.327801			-0.383332			-0.408331			0.321685			-0.717105			-0.350234			-0.467205			0.00547821			-0.72746			0.0453738			0.230781			-0.547793			0.00294699			0.471191			0.0742494			0.412489			-0.14956			-0.840783			0.367041			-0.256729			0.399692			-0.316782			0.288052			0.0505994			-0.288241			-0.125806			0.056805			-0.177356			0.382748			-0.0912785			0.433842			-0.556996			0.875036			0.116481			-0.329084			-0.00310709			0.652252			0.568427			0.0423128			-0.132672			-0.713533			-0.0695289			0.067296			-0.0257133			0.395489			-0.110815			-0.220077			-0.190421			0.336951			0.00456538			-0.062223			0.214772			-0.657696			0.337808			-0.394432			0.84053			-0.0170179			-0.0811425			0.149127			-0.611534			0.253081			0.202969			0.40475			-0.19389			-0.192276			0.0841187			0.224318			0.119973			-0.382484			0.10193			-0.0032123			0.0911418			0.183751			-0.557535			-0.370209			0.504577			0.0913414			-0.228658			-0.427087			-0.379962			-0.517063			-0.0163671			-0.123353			-0.685708			0.321016			-0.569969			0.386994			0.642163			-0.894487			-0.388702			0.134805			-0.271536			0.00822737			-0.375027			0.188734			0.223525			-0.172696			0.410039			-0.158233			-0.759243			-0.288888			0.542677			0.0268214			-0.606124			0.347658			-0.714901			-0.414652			-0.43592			0.0999032			0.144979			0.823772			0.892957			0.117929			-0.0147717			-0.0808263			0.240899			0.0365351			-0.270288			-0.143751			-0.383287			0.113042			-0.593979			0.554543			-0.400034			
0.679026			-0.0428182			-0.151754			-0.112545			0.320976			-0.186906			-0.232265			0.719898			-0.038567			-0.0651034			0.647273			0.320636			-0.511513			-0.618372			0.0381055			-0.556456			-0.612832			-0.997349			-0.795597			0.239415			0.532153			0.611453			-0.801737			-0.0594146			0.591442			-0.216628			-0.0199949			0.348392			-0.924929			-0.0872482			-0.199387			0.549317			0.0423497			0.032036			0.698272			0.090591			-0.770725			0.0853783			-0.225778			0.0907975			0.155078			-0.0965488			-0.444096			-0.0622975			-0.633413			0.454944			0.79041			0.783537			0.64875			0.604033			-0.267632			-0.471741			-0.268616			-0.0226105			-0.729913			0.14987			0.887749			-0.605626			-0.0455642			0.0264386			-0.129232			0.0642441			-0.395378			-0.281862			0.239046			0.225054			-0.553263			0.249235			-0.15435			-0.443608			0.595508			-0.568918			0.1032			-0.0424326			0.730826			-0.307637			0.428648			-0.310127			-0.728859			-0.585463			-0.076534			0.264525			-0.574691			0.0191914			0.210267			-0.0216362			-0.350605			0.551678			0.175947			-0.322008			-0.782222			-0.037495			-0.164033			-0.0297556			-0.290626			0.236904			0.921716			0.0953786			-0.626486			-0.0433585			-0.187332			0.163327			0.22699			0.326956			0.337978			0.294595			0.154537			0.824744			-0.271456			0.311488			0.294309			0.555347			0.109132			0.0950736			0.405336			0.712551			0.150218			-0.493436			-0.241395			0.3844			0.144284			-0.836895			-0.406087			0.0497198			0.549756			0.620367			0.13825			-0.984713			-0.196083			-0.466307			-0.816659			0.336155			0.107085			0.0961261			0.708179			0.204637			0.240657			-0.0498534			0.276874			-0.328907			-0.337673			-0.326739			-0.123994			0.0291091			0.139491			0.161442			0.0397315			-0.418513			-0.0585168			-0.391232			0.150819			0.740019			0.26744			-0.203653			0.725396			0.00769929			-0.722459			-0.19752			0.116275			0.156317			0.194805			-0.0285696			0.312981			0.255418			-0.480426			-0.496337			-0.184014			0.335493			-0.799686			0.332277			0.212318			-0.222266			-0.525309			0.156362			0.499803			-0.157398			-0.573017			0.262472			0.464468			-0.172405			-0.0430746			0.141593			-0.0625218			0.377637			-0.506888			-0.0509805			-0.609113			-0.520546			0.216112			0.623642			0.0228751			-0.701908			-0.0406911			-0.179593			-0.300066			0.935112			-0.640399			0.435179			-0.516115			-0.310777			-0.242674			0.391337			-0.132143			-0.524518			0.860139			0.0555649			0.119275			0.369348			-0.136938			0.0315011			-0.530273			-0.22304			-0.421059			-0.273589			-0.496302			-0.383649			0.983108			-0.156599			-0.0224791			-0.0740172			0.15431			-0.614888			-0.161114			0.848393			0.165138			0.462312			0.312575			-0.10903			-0.768433			0.262485			-0.0357841			-0.44833			0.308482			-0.335123			0.457387			0.110507			0.373195			0.384748			0.247782			0.122396			-0.215329			-0.55798			-0.14038			0.641687			0.0152418			-0.0138622			-0.321686			0.870451			-0.486925			0.39495			
0.0912164			0.0666072			0.360165			0.656438			-0.678825			0.0520202			-0.526899			-0.40985			-0.107398			0.180448			-0.234366			-0.344543			-0.120978			0.640429			0.652438			0.596263			0.913477			0.16225			-0.43783			0.155533			-0.417892			-0.255814			-0.043978			-0.64138			-0.107145			0.304842			0.000505107			0.865678			-0.404511			-0.0586809			-0.408385			0.0898406			0.0942352			-0.5466			-0.58717			-0.114188			-0.363087			-0.025887			0.321202			0.597643			0.0676131			0.26448			0.049794			-0.250875			-0.379803			0.590147			0.208093			0.830657			-0.191854			0.97079			-0.709319			-0.639547			-0.927681			0.0963105			-0.763888			0.0597246			-0.368268			0.179694			-0.0149742			0.553822			-0.0715536			0.432606			-0.186711			-0.182312			-0.710166			-0.729919			-0.174639			0.84855			-0.379197			-0.515029			0.428814			-0.359769			0.4149			0.182825			0.0288931			-0.413208			-0.0339872			0.752718			0.0875553			-0.177046			-0.47645			0.0899189			0.156606			0.531885			-0.398412			-0.105244			-0.0483349			0.658783			-0.398588			0.128373			0.17383			0.918164			-0.0673374			-0.291888			0.628205			-0.441024			0.48039			0.733127			-0.623993			0.69645			0.644149			-0.266573			0.305386			-0.0533896			0.302934			0.231572			0.610222			-0.128957			-0.366527			0.432577			0.135398			-0.174279			0.302718			0.0807827			-0.80857			0.0677315			0.281371			0.356937			-0.47496			0.493035			0.61279			0.238394			0.322135			-0.781204			-0.148134			-0.427703			-0.316483			-0.234794			-0.394175			-0.108677			-0.618972			0.731823			-0.286414			0.145451			-0.421405			0.0904876			-0.051081			-0.208354			-0.173425			0.345887			-0.0417427			-0.823851			0.324803			-0.253612			0.22334			-0.232717			0.785512			-0.419478			-0.210552			-0.556812			0.57548			0.166436			0.489508			0.932798			-0.193213			-0.141423			0.185158			-0.300609			-0.10223			0.446697			0.506055			-0.451868			-0.878684			-0.307137			0.236701			-0.27655			0.444841			0.303671			0.0820811			0.541949			0.686674			0.29104			-0.679312			-0.0243833			0.732675			-0.113446			-0.862464			-0.113744			0.458365			-0.248513			-0.762683			-0.405139			0.675972			0.236862			0.232289			-0.544661			-0.513773			-0.31395			0.787312			-0.419035			0.241285			-0.0114987			-0.89317			0.0784641			0.243499			0.309999			0.511673			0.345358			0.688914			0.4388			-0.242822			-0.10214			0.123036			0.350073			0.132481			0.131561			-0.694189			0.199728			0.51566			-0.708823			-0.272443			0.0773296			-0.549513			-0.170059			-0.615455			0.496209			0.204577			0.537991			0.86746			0.733884			-0.210157			-0.774653			-0.0982136			0.305582			0.186872			0.42643			-0.243824			-0.510345			-0.00219217			0.513168			-0.0771037			-0.141471			-0.551815			-0.216264			0.329751			-0.825868			0.807603			0.321978			0.507362			0.266117			0.586829			0.0836035			-0.0661444			-0.246667			-0.834484			-0.0151088			-0.400484			0.170021			-0.47005			-0.32201			
0.294906			-0.33882			0.411672			0.154012			0.884031			0.246618			0.222092			-0.451727			0.490731			-0.881079			0.571833			-0.323128			-0.178557			0.246066			-0.897581			-0.197851			0.267318			-0.515282			-0.0807245			0.278161			0.22669			0.392863			0.00398885			0.36035			-0.29309			-0.172815			0.234335			0.125743			-0.535445			-0.866688			0.0933119			-0.111157			0.207315			0.0777777			0.507784			0.36812			-0.938129			0.18			-0.334805			-0.214614			-0.668068			-0.667145			-0.108577			-0.088436			0.467773			0.228449			0.339831			-0.193009			0.1643			-0.494603			-0.139393			0.0806802			-0.159047			0.272795			-0.0220045			0.309371			-0.202287			0.0550929			-0.17624			0.331898			0.256999			0.28303			-0.450745			-0.0621262			-0.0439295			-0.508079			-0.698373			0.365494			0.0958869			0.218135			0.677096			-0.377736			-0.829324			-0.431287			-0.0842083			0.320317			-0.224442			-0.75204			-0.278524			0.731149			0.132766			-0.162457			0.268717			-0.273307			0.842642			0.104333			0.428408			-0.0973169			0.744896			0.385058			0.0274612			0.368498			0.0759363			-0.753375			0.00141306			-0.195011			-0.319977			-0.22931			0.283526			0.378713			-0.512207			0.526653			0.16707			-0.0137657			-0.576292			-0.218644			0.421075			-0.165146			0.114228			0.803216			0.781708			0.0181945			0.0956316			-0.222704			0.0862413			-0.63092			0.956181			0.498102			-0.348383			-0.266981			-0.762142			0.454092			0.357043			-0.414919			0.655238			0.390428			-0.566858			-0.667783			-0.651938			-0.3508			-0.0319198			-0.542028			0.160792			-0.79332			-0.0883535			-0.717399			-0.22958			0.889363			-0.212105			0.16234			-0.149615			0.729896			0.0797971			0.829424			0.44239			-0.766205			0.094674			-0.769346			0.581606			0.117226			0.880772			-0.127533			-0.170863			-0.799542			-0.710789			-0.153271			0.892154			0.277094			0.514101			-0.515764			0.272017			0.405314			-0.335102			0.160347			0.837288			-0.474886			-0.133069			0.0759857			0.01916			0.560937			-0.488591			0.406157			0.327428			-0.630628			-0.206912			0.196732			0.106846			0.325825			-0.634491			0.380366			0.769609			0.517659			-0.236198			-0.00102289			-0.0961466			0.379377			-0.449204			0.282307			0.0342847			0.24815			-0.790598			-0.387348			-0.297484			0.338704			0.520407			-0.461091			0.605628			-0.539343			0.469497			0.177795			-0.173772			0.274685			-0.763474			0.573505			-0.12215			-0.0484929			0.223857			0.422981			0.678999			0.786869			-0.0116798			0.0208385			0.390139			0.461089			0.0518244			-0.16583			0.0881819			0.326386			-0.0661834			0.176977			0.676408			-0.651242			-0.431247			0.254482			-0.150545			0.375281			0.127106			-0.574458			-0.456888			-0.451199			-0.236281			-0.205817			-0.407822			0.359813			0.603917			-0.0800698			0.367293			0.522523			0.0442741			0.0185224			0.12283			-0.0115604			-0.721259			-0.0469297			0.832184			-0.57524			-0.171532			0.526408			0.434497			0.834669			
0.431412			-0.485313			-0.958405			-0.166202			0.1688			-0.208737			-0.246485			-0.135059			0.412818			0.152601			-0.152491			0.520552			0.154716			0.313064			-0.699633			0.150462			0.0267278			0.658647			0.242589			0.887436			-0.301238			-0.0031174			0.539066			0.778237			-0.215593			0.819964			0.31629			-0.981159			-0.032406			0.20336			0.422132			-0.0155841			-0.28518			0.593898			0.19419			0.304174			0.255581			0.185517			-0.334598			0.0238352			-0.146217			0.459288			0.846892			0.495546			0.0572262			-0.217898			0.131348			-0.991656			-0.199188			0.265149			0.125511			0.480769			-0.490685			0.281979			0.215684			0.400337			-0.657878			-0.107372			0.35725			0.0693672			-0.155776			0.706845			0.00807192			0.646285			-0.0786078			-0.0576231			0.376076			-0.478113			-0.2894			0.00866491			0.584009			0.637284			-0.597254			-0.515836			0.493515			-0.13513			-0.16824			-0.426073			0.0954473			0.411506			-0.627965			0.284991			0.524663			0.179765			0.108116			0.768127			-0.848261			-0.287048			-0.491911			-0.134152			-0.495007			0.155219			0.208416			-0.987723			-0.0587555			0.255362			-0.279938			0.429341			0.827807			0.0130157			0.179796			-0.187637			-0.434255			-0.144467			-0.748777			-0.0280547			-0.546553			-0.552747			-0.273841			-0.327681			0.576528			-0.507153			-0.552935			-0.00566889			0.42379			0.0755624			-0.860577			0.214075			-0.28607			-0.63519			0.654139			-0.510963			0.691705			-0.477823			-0.543338			0.159646			-0.0978159			-0.619565			0.717495			-0.788423			0.301149			0.596961			-0.0176869			-0.337728			-0.318796			0.320167			0.652817			0.407266			0.188586			0.135867			0.150378			-0.814083			0.598411			0.121741			-0.531855			0.0534723			0.602458			0.111646			0.0939246			0.68437			0.580319			-0.462703			0.636436			0.30262			0.196563			0.743062			0.724621			-0.688049			-0.39566			0.532829			0.93287			0.450112			-0.78051			0.523927			-0.0240175			-0.756491			-0.744899			-0.487682			0.758818			0.425949			0.152583			0.68149			-0.668677			0.00214959			0.153452			0.399002			0.509432			0.583537			0.421615			0.233889			-0.170684			0.393138			-0.0731653			0.121574			-0.688991			-0.462281			0.903144			-0.368328			-0.902161			0.325829			-0.185302			0.438824			-0.235126			-0.208333			-0.0247364			-0.52183			-0.335996			-0.089523			-0.721857			-0.028428			-0.0145446			-0.460302			-0.0898749			0.553763			0.61831			-0.709334			0.618953			-0.680557			0.45456			0.228784			-0.118613			0.437806			0.166005			-0.228398			-0.0398208			0.316773			0.736907			0.108936			-0.718859			-0.168894			-0.499728			-0.373349			-0.408945			-0.36783			0.146008			0.723224			-0.822765			0.248071			0.0475568			0.898081			-0.230079			0.0238767			0.807441			-0.1215			0.0598378			0.507712			-0.301034			0.0798792			0.901793			0.117948			-0.297186			-0.383438			-0.540811			-0.208459			-0.463145			-0.0420814			0.573531			-0.361813			-0.0283607			0.266524			
-0.117047			-0.0795233			-0.159628			0.30562			0.144719			0.395309			0.100649			-0.0873918			0.600177			-0.205203			0.752392			-0.502401			-0.367096			-0.0705993			0.152692			0.0692592			0.0094812			-0.269632			0.128563			-0.236406			0.381453			0.0476277			0.280917			-0.238571			0.433088			-0.795771			0.659104			0.451952			0.302745			0.131564			0.0507813			0.308627			-0.0497992			0.790047			-0.472905			-0.419972			0.431696			-0.136967			0.277361			0.740306			0.00236508			0.603857			0.313244			0.504828			0.107104			-0.904476			-0.0752035			0.103174			0.342876			0.0691351			0.447378			0.941847			-0.737771			0.29073			-0.106556			0.785156			-0.160612			-0.301011			-0.812088			0.554815			-0.223729			-0.127707			0.659698			0.14007			0.184975			0.0406157			-0.0374129			0.428928			-0.687321			0.291334			-0.601566			0.535605			0.0237335			0.108253			-0.377757			-0.708743			0.548193			-0.868705			-0.221589			-0.514751			-0.8381			0.376473			-0.225274			0.574974			-0.291452			0.721215			0.386627			-0.541037			0.145348			0.692978			-0.228369			0.165656			0.792676			-0.516342			-0.261469			-0.176857			0.22262			0.255185			-0.927373			0.402449			-0.328974			-0.511232			-0.888755			-0.263533			-0.874444			0.208447			-0.587595			-0.447267			-0.165595			0.324774			0.0557638			-0.178541			0.323254			-0.0322979			-0.219979			-0.686099			0.281935			0.296675			0.93134			0.314664			-0.229533			-0.0741496			0.0552688			-0.272699			0.333392			0.845629			-0.546216			0.113191			-0.158423			-0.0486785			-0.93309			-0.201993			-0.301157			0.623399			0.600422			-0.167543			0.955662			0.430257			-0.706679			-0.400775			-0.180824			-0.378083			0.857388			-0.203439			0.0665835			0.592894			0.0079497			-0.697815			-0.725295			-0.0772296			0.295447			0.0350009			-0.0476976			-0.142501			-0.543939			-0.75675			0.142117			0.0661692			0.743455			0.383325			0.42621			-0.887053			-0.00491026			0.0834183			0.495908			-0.226801			-0.224351			0.000389835			0.133325			0.561261			0.209715			-0.459575			0.508288			0.0867017			0.0504385			-0.0778192			0.235104			-0.0942561			-0.0477281			0.466202			-0.379196			0.478164			0.767676			-0.0168387			0.950151			0.025363			0.231722			0.277667			0.0428722			0.558555			-0.230487			-0.229784			0.16536			0.65292			-0.36429			-0.0564731			-0.145245			-0.631484			-0.437924			0.416225			-0.775812			-0.246291			-0.0164783			-0.193997			0.96371			0.540619			-0.327765			0.176075			-0.411171			-0.185724			0.671526			-0.170992			-0.705321			0.423631			0.572611			-0.423052			-0.0665093			-0.442485			-0.0861816			-0.534772			0.065192			0.604371			0.215697			-0.713955			0.136121			-0.521992			0.133505			0.778111			0.719645			-0.393582			-0.0203122			0.342161			-0.319036			0.509855			0.191469			-0.044708			0.209146			-0.417861			0.70756			-0.152539			0.374562			0.679744			-0.0118412			0.725327			-0.0690958			0.109039			0.134217			-0.744535			-0.571654			-0.218725			
0.392368			-0.0501291			-0.154788			-0.0132134			0.126327			-0.609985			-0.722785			0.0438128			0.350117			0.344762			-0.304846			0.447347			-0.296429			-0.705543			-0.38337			-0.199543			-0.290705			-0.451855			0.297937			-0.346515			0.716227			-0.123547			-0.382638			-0.0515732			-0.662866			-0.122407			0.621666			0.48938			0.31985			0.417488			-0.0766653			-0.542217			0.422276			0.165327			0.581323			-0.487337			0.445357			0.359078			-0.0388037			0.333281			-0.0169175			0.35631			0.112955			0.119237			0.229603			0.669664			-0.12866			0.246931			0.355009			0.383955			-0.191877			-0.64904			0.662498			-0.188477			-0.967063			0.6629			0.022734			0.661838			0.283952			0.186094			0.208403			-0.157992			0.0493706			0.372409			0.136024			-0.890868			-0.485511			0.622016			0.0423963			0.647767			-0.398043			0.324937			-0.257767			0.458804			-0.000831276			0.307427			-0.112579			-0.0669519			-0.0499356			-0.271418			0.671023			-0.401216			-0.401287			-0.361038			0.528429			0.395936			-0.191601			-0.426317			0.761219			-0.337			0.346959			0.292729			0.551431			0.961811			0.00810508			0.596556			0.0817789			-0.0828045			-0.233836			0.462289			-0.985608			0.488262			-0.75337			-0.331606			0.0149597			-0.824675			-0.682096			0.846216			0.0495464			-0.283797			-0.301331			0.664752			0.357404			-0.205533			-0.0482865			-0.478573			-0.268574			-0.782261			-0.415341			0.570057			0.952059			0.263833			-0.113985			-0.303063			-0.542825			0.412741			0.133038			0.0494726			0.502314			0.0764788			0.141695			0.347936			0.104458			0.0593399			-0.725044			-0.177308			-0.131419			-0.760466			-0.886778			0.595394			-0.0481853			-0.951544			-0.159028			0.0637047			0.0265993			-0.144703			0.500596			-0.721146			-0.129695			-0.328694			-0.229582			-0.042008			-0.220158			0.00499212			-0.618099			0.281959			0.0126392			0.853172			0.643622			0.563533			-0.957755			-0.905388			-0.173686			-0.0737853			0.823227			-0.578485			0.323551			-0.413833			-0.0761991			-0.386355			0.16202			0.157561			-0.551587			0.0140708			0.262668			0.292606			0.138698			0.775827			0.291948			-0.1526			-0.348253			-0.186634			0.221661			-0.647541			0.465284			0.310343			-0.751113			-0.337937			-0.482245			-0.359012			0.298138			0.698976			0.256304			0.370019			-0.394078			-0.314591			0.671125			-0.304323			0.52801			0.600029			-0.572809			-0.969499			-0.830267			0.46034			-0.668742			-0.0110288			-0.17375			-0.141243			-0.557107			0.48145			-0.650951			-0.874123			-0.221029			0.449971			0.489644			0.0431619			-0.24834			0.461912			0.447526			0.174624			0.516368			-0.593871			0.262071			0.105146			0.0254106			0.285231			-0.393848			0.94527			-0.578026			-0.532462			0.167087			-0.108298			-0.466008			0.0329461			0.0909349			-0.0965673			0.255991			0.368925			-0.926769			-0.0663725			0.0807175			-0.358961			-0.506126			0.320465			0.512048			0.128435			0.228497			0.0841545			-0.301316			0.605043			
0.109009			0.694929			0.175958			-0.118577			0.124655			-0.279121			-0.305962			-0.42399			-0.0520669			0.245102			-0.632347			-0.114852			0.345483			-0.127336			0.424421			0.623194			0.181931			-0.452771			-0.265343			0.952968			0.290219			-0.820962			-0.865485			0.715897			-0.465806			-0.356837			0.0686558			0.00758484			0.134529			0.107183			0.455933			-0.117731			0.282331			-0.374655			0.776168			0.277988			-0.715621			0.220757			-0.613968			-0.39256			0.640743			0.718012			-0.188071			0.761739			0.741005			0.211865			-0.485901			-0.194758			-0.0140636			-0.62912			-0.634018			-0.879785			-0.157974			0.566613			0.0670704			0.178372			0.542292			0.454167			-0.611842			-0.523304			-0.411409			0.631916			0.707293			0.27213			-0.355437			0.572941			0.215207			-0.180936			-0.0799786			0.364853			-0.0773951			-0.348957			-0.747698			-0.247787			-0.179476			-0.135276			0.102246			0.240183			0.334468			0.423321			0.356755			0.163036			0.014622			-0.500566			0.333222			-0.087658			0.285347			-0.609603			-0.32725			0.214322			0.117962			0.846186			0.0709847			0.0143307			0.430493			0.283493			-0.193451			0.701171			0.114594			-0.446512			-0.188526			0.684131			0.0153427			-0.626755			-0.198021			0.446886			0.212702			0.0922494			0.440123			-0.497741			-0.559961			-0.114104			-0.45602			0.484675			0.731362			0.0844272			-0.391926			0.487298			-0.131823			-0.396231			-0.408759			0.075253			0.542984			0.735687			0.573624			0.0900525			-0.224438			0.00842978			0.0963842			-0.69116			-0.0295649			0.748487			-0.711932			0.873144			-0.620199			0.143609			0.188103			-0.462489			0.0599893			-0.295778			-0.332517			-0.352621			-0.313995			-0.778871			0.442614			0.810791			-0.557941			0.180503			0.395818			-0.293546			0.637046			-0.166854			0.641964			-0.0280672			-0.15536			0.449019			0.467842			0.0779781			0.166836			0.620865			-0.656537			0.499717			-0.243963			-0.346536			0.614781			0.257103			-0.44432			-0.0529557			0.615288			-0.25217			0.238735			-0.770281			-0.174641			-0.381444			-0.340575			0.00831728			0.00719252			-0.183309			0.688773			0.0812552			0.3346			-0.252812			-0.736673			0.29614			-0.00723832			-0.366101			0.115042			-0.241106			0.0294136			-0.205136			-0.588696			-0.454284			-0.0753779			-0.327121			0.214389			0.499979			0.46439			-0.719491			0.591862			-0.571257			-0.352067			-0.194354			0.27735			-0.0230006			0.471805			0.0145819			0.512274			-0.151072			0.402399			-0.803118			0.519981			-0.195823			0.120277			-0.0723037			-0.640777			-0.964071			-0.474603			0.227322			0.162883			0.665794			0.739795			-0.0741438			-0.560462			0.647996			-0.702192			0.284341			0.0685874			-0.204556			-0.435008			0.247089			0.268387			0.271731			-0.274524			0.628484			-0.150234			-0.535238			0.284613			-0.277867			-0.125804			-0.348933			0.150262			-0.13305			-0.103323			-0.124912			-0.339725			0.136111			-0.372298			-0.587869			0.813756			-0.247234			
