Matrix_2
0.571185			0.476178			-0.450412			0.00567068			0.265172			0.568997			0.103648			-0.756103			0.37862			0.244422			-0.611534			0.215777			-0.943765			0.144271			-0.270342			-0.485391			-0.266459			0.0490297			0.53107			-0.212318			-0.284874			0.301691			-0.312197			-0.380803			0.479916			0.408935			0.433783			0.66974			-0.416174			-0.259174			0.478548			0.0181321			-0.910839			0.404934			-0.634625			-0.205781			-0.33042			0.302665			0.352796			0.153975			-0.194302			0.352217			0.230197			0.138707			0.248379			-0.491692			-0.310875			0.363082			-0.158808			-0.153451			-0.617566			0.0410283			-0.884886			-0.675404			-0.192883			-0.508837			0.16065			-0.215346			0.387023			-0.123537			0.265417			-0.105484			-0.450492			-0.960957			0.157918			-0.364097			-0.131727			0.640609			-0.318221			0.28286			0.458107			0.452681			-0.602501			-0.178088			-0.20928			-0.263637			0.0788413			-0.493506			0.217303			-0.0695533			-0.161709			0.2193			-0.487573			-0.283841			-0.0735842			-0.0676006			0.268671			0.131469			0.181547			-0.0330445			-0.125705			0.418488			0.19414			-0.349605			-0.111995			0.262288			-0.157722			0.508815			0.0909045			-0.030055			-0.05797			-0.582101			0.707853			0.510502			0.0902084			0.787485			-0.794592			0.0333666			0.302617			0.226693			-0.259263			0.41806			-0.536014			-0.554693			0.322041			-0.00098561			-0.972203			-0.450347			-0.803544			-0.264327			-0.330946			-0.430735			0.264576			0.116365			-0.0733006			0.571659			0.491427			-0.297859			0.312865			0.32649			-0.334097			-0.274501			0.496044			0.250261			-0.2245			-0.313406			0.918723			-0.46055			-0.0994089			0.500638			0.462068			-0.0387492			-0.0552509			0.440513			0.299291			-0.38612			-0.698347			-0.471607			-0.118806			0.0889726			-0.00340466			0.904764			-0.0677895			-0.199448			0.243464			0.135912			0.608039			0.00953065			0.137011			-0.244885			-0.731145			-0.691259			0.853391			-0.434798			-0.126101			0.346952			-0.0827257			-0.284763			0.0828711			-0.0297053			0.353853			0.0174948			-0.394282			0.461833			0.215511			-0.106124			-0.495444			-0.536241			0.602217			0.688716			0.834038			-0.622297			0.128425			-0.572831			0.0102378			-0.158717			-0.888611			0.556953			0.558831			-0.598381			0.191984			-0.180061			-0.168729			0.63691			0.706966			-0.750651			-0.507209			-0.468597			-0.638193			-0.298876			-0.361631			0.121373			-0.248264			0.0971754			0.0773549			0.118736			-0.263923			0.61862			-0.40103			0.231842			0.693306			-0.125144			-0.371085			-0.520957			-0.328971			0.151703			0.335524			0.549033			-0.18611			0.279904			0.414142			-0.82387			0.0322386			0.42471			0.435304			0.031478			-0.0682197			-0.156836			-0.00728676			0.137937			0.0365191			0.385162			0.307496			-0.00388315			0.559868			0.342428			0.0888025			0.186737			0.672288			0.12889			0.203823			-0.633408			-0.299757			0.240215			0.5963			0.185834			0.144837			-0.325508			0.325511			-0.316397			
-0.835751			-0.578625			0.529553			0.0559			-0.400904			0.123475			0.572167			0.287307			0.442256			-0.0785547			-0.561743			-0.323797			0.862097			-0.2424			0.226442			-0.936654			0.0671486			-0.0333343			-0.0232207			-0.430269			-0.0151231			-0.358311			-0.078205			-0.251118			-0.14538			-0.360017			-0.253356			0.836284			-0.69134			-0.293694			0.642198			-0.236742			0.40203			-0.335563			0.10658			-0.506571			-0.186743			0.755939			0.377608			0.838568			-0.396401			-0.329406			-0.222017			-0.243272			-0.145252			0.103667			-0.223336			0.0965276			-0.230957			0.30397			-0.338922			-0.300974			-0.518653			0.0486437			0.255691			-0.418631			0.195951			0.463122			-0.018061			-0.0698719			0.693473			0.727243			0.00561329			0.0220674			0.704884			-0.265156			-0.0207216			0.614838			-0.799999			-0.295762			0.129174			-0.0414788			-0.175995			0.0329124			-0.0458149			-0.335714			0.227001			-0.299711			0.400045			-0.591179			-0.0454108			-0.210812			-0.639442			0.0724681			-0.130402			0.0809075			-0.667817			-0.396005			-0.366631			-0.711556			0.302063			-0.885547			-0.047175			0.213291			0.549919			-0.546589			0.991474			-0.1498			0.483678			0.359221			-0.0339726			0.483083			-0.637182			-0.0925926			-0.339838			0.346319			0.150249			0.49181			-0.413326			-0.120858			0.183359			0.487481			-0.214273			-0.524579			0.496222			-0.349245			-0.63214			-0.469196			0.339396			0.165456			-0.330361			-0.00127189			-0.530918			0.659207			-0.722708			-0.19786			0.179057			-0.298922			0.995213			0.393478			-0.0952541			-0.592767			0.215321			0.866046			0.571581			-0.689436			-0.0293233			0.933088			0.436427			0.88665			-0.399796			0.69462			0.219458			0.078948			-0.0413063			0.266543			-0.743532			0.220369			-0.33859			0.194003			-0.353653			-0.353026			0.535708			0.187973			0.192831			-0.0531731			0.904696			-0.0542856			-0.85673			-0.370772			0.599779			-0.268869			-0.612182			-0.0107922			0.841429			-0.271061			0.270205			0.638027			0.631326			0.0956406			0.206574			-0.595238			0.105508			0.557691			-0.384406			0.0117274			-0.103975			0.152961			-0.283301			-0.0546806			-0.653917			-0.824238			0.280759			-0.525348			-0.586167			0.214047			0.0937991			0.229314			-0.783263			0.698873			0.218757			0.0737166			-0.445903			0.410225			-0.394222			-0.784842			-0.61453			0.697334			-0.704886			-0.575175			0.5973			-0.552618			0.09438			-0.271166			-0.475357			0.0589941			0.370297			0.270547			0.0379632			0.308732			-0.66633			-0.35583			0.408203			-0.360489			-0.0299592			0.950664			0.338497			-0.544758			-0.354731			-0.44037			0.299802			0.280956			0.384254			0.214967			-0.115787			-0.471727			-0.737984			0.0176673			0.652095			-0.41638			-0.441788			-0.7345			-0.596312			0.112803			-0.205217			0.0295819			0.179541			0.913138			-0.196125			0.729171			-0.0468569			-0.381921			0.195337			0.321212			-0.231471			-0.268463			-0.168306			-0.533718			0.34048			-0.807575			
-0.473605			-0.113387			0.0480389			0.373047			-0.430741			-0.0296903			-0.0272011			0.837264			-0.929522			-0.575157			0.0528478			0.183175			-0.66036			0.102111			0.16886			-0.178729			-0.0295063			-0.222617			0.337128			0.039759			0.0460798			0.209927			-0.149378			-0.417125			-0.543058			-0.0382361			-0.152328			0.405954			-0.0845872			-0.190085			0.507072			-0.0861231			0.395808			0.180645			-0.836835			0.0691329			-0.881854			-0.33748			0.0560155			0.331013			-0.696549			0.189424			0.885741			0.660438			-0.431792			0.93451			0.660221			-0.751221			0.698119			-0.549467			0.237353			-0.291544			0.334054			0.386693			0.965955			0.147336			-0.0988989			-0.664073			-0.328272			0.466349			0.610035			-0.101505			0.381412			0.289318			-0.209801			-0.0884591			-0.228731			-0.167974			-0.603109			0.842874			-0.0757309			-0.0936663			-0.19043			0.0841553			-0.208758			0.452874			0.457632			0.52879			0.332128			-0.48028			0.00297317			-0.115779			0.20486			0.0388979			0.0643646			0.441537			-0.0499831			0.0238942			-0.349833			0.21792			-0.248934			0.331292			0.551626			0.196915			0.763325			-0.724858			-0.396572			-0.0500412			0.514413			-0.110854			0.12681			-0.0467406			0.372017			0.206023			0.656657			0.436578			0.0273495			-0.0875543			-0.724601			0.0793701			-0.266805			-0.671275			0.0734943			-0.251175			-0.253746			0.0182673			-0.491069			-0.239737			0.255314			0.614201			0.474062			0.157268			0.0258666			0.0225982			0.200556			-0.0886679			0.126428			-0.496675			0.584281			0.268858			0.441913			-0.29159			-0.743706			-0.139578			-0.660945			-0.20942			0.67101			0.592782			-0.535152			-0.592542			0.0618541			-0.600035			0.0104023			0.624938			0.135297			-0.125848			-0.054364			0.0325362			-0.029097			-0.710296			0.330438			0.116943			-0.328536			-0.228913			0.30299			0.512409			0.205124			-0.192531			-0.0839556			-0.158688			-0.862248			0.139687			-0.5239			0.744985			-0.450195			-0.3888			0.346777			-0.167346			0.80815			-0.523005			0.185326			-0.291634			0.218469			0.425983			-0.267957			-0.109561			0.125053			-0.0561705			-0.41673			-0.255673			-0.54775			-0.360725			0.366867			-0.771582			-0.000654954			-0.370807			0.441401			-0.388963			-0.238789			-0.351258			0.0343693			-0.899394			0.264655			-0.110049			0.238061			0.26346			0.364603			0.875198			0.357694			-0.381318			-0.00311755			0.490662			0.287997			0.30702			-0.689171			0.312799			-0.31797			0.725906			-0.336739			-0.374001			0.217685			-0.261685			0.220514			0.12376			0.0342419			-0.0284448			0.553348			0.217005			-0.325745			-0.312637			0.216054			0.264623			-0.637516			-0.245851			0.252353			0.892607			-0.21292			-0.690179			-0.110718			-0.423504			0.620307			-0.224097			0.679508			0.296576			-0.326139			0.518201			-0.80004			0.0477128			0.203746			0.145539			0.240543			-0.0945196			-0.0494764			-0.854373			0.558553			0.103434			0.263248			0.377478			-0.553145			0.545707			
0.052252			0.162027			-0.0727636			0.264801			0.61448			-0.501215			0.043683			0.30084			0.374737			-0.461779			0.221174			-0.654675			-0.00391719			0.496608			0.545288			-0.648844			-0.261827			-0.30013			-0.257734			-0.00328104			-0.207242			-0.0558567			0.0552791			-0.774292			0.632172			-0.288272			0.149644			0.350542			0.143142			-0.520168			-0.0885202			0.769052			-0.372713			-0.540506			-0.329642			-0.0101673			-0.937979			0.190134			-0.286133			-0.239498			0.335593			-0.583799			-0.724752			0.293505			-0.795516			0.561994			-0.179671			0.0227115			-0.278072			-0.303868			-0.0957593			0.360251			-0.351653			-0.236129			0.0376327			0.0167769			0.395363			-0.0361165			-0.00752118			-0.06915			0.30514			0.0432039			0.589334			0.194271			-0.133271			0.210168			-0.708509			-0.332338			-0.0515988			-0.335092			0.54955			-0.10653			0.0630042			0.622248			-0.094384			-0.702996			0.104262			-0.891588			-0.153413			-0.645625			0.378184			0.108987			0.452489			-0.0968565			0.674752			0.761984			0.570944			0.207929			-0.201235			-0.603105			0.138728			-0.196465			0.427504			-0.12752			-0.43418			0.248553			0.589973			-0.0594747			0.527137			0.991846			-0.405888			0.399379			-0.653925			-0.175368			-0.143514			-0.237523			0.0729002			0.0827909			0.339856			0.355671			0.80826			0.452063			-0.571013			0.192358			-0.381499			0.303284			0.00397624			-0.290706			-0.239803			0.185163			0.365013			-0.715649			-0.76921			-0.13837			-0.555374			0.32596			0.0909687			-0.185933			0.346828			-0.00558912			0.305694			-0.207549			-0.476583			-0.107886			0.93682			0.0708631			-0.516689			0.178613			0.0496756			0.262513			-0.532015			-0.255493			-0.418381			-0.210743			-0.419715			-0.549648			-0.388268			-0.0463068			-0.0659214			0.0975734			0.407189			-0.118557			0.520747			-0.854042			0.344125			0.831601			-0.0564371			-0.238279			-0.595452			-0.786429			-0.0486256			0.68398			0.16964			0.307458			0.214797			0.478876			-0.0725109			-0.197952			0.834909			-0.367635			-0.142669			0.3199			-0.479695			-0.402235			-0.208839			0.267694			0.25969			-0.120303			0.193235			0.614522			-0.0872347			-0.245895			-0.186236			0.578553			0.0742768			0.294848			0.409548			-0.583192			0.259662			-0.555543			0.0605016			0.228667			-0.517379			-0.690071			-0.223973			-0.403311			0.232092			-0.168078			-0.642228			-0.436067			0.282542			-0.331015			0.287345			-0.206379			0.541206			0.486752			0.0560202			-0.422715			0.22805			0.483832			-0.354117			0.466945			-0.267971			-0.210893			0.342028			-0.176883			0.158745			0.151626			0.095385			0.372049			-0.908059			0.156552			0.127084			0.109904			0.197177			-0.461184			0.110242			-0.556532			-0.168558			0.112185			0.114331			0.210213			-0.221633			0.844859			-0.558862			0.893606			0.414373			0.196389			-0.314602			0.22282			-0.109301			-0.331941			-0.295998			0.937122			-0.147425			0.136617			0.215448			-0.576406			-0.219775			-0.698794			
0.0463361			-0.749645			-0.800825			0.43839			0.183607			-0.251041			-0.303576			-0.581434			0.208749			-0.430929			-0.474401			0.343535			0.445365			-0.0607236			-0.404934			0.679076			0.0243549			-0.176799			-0.173099			-0.0513959			0.695213			0.139595			-0.00783287			-0.244263			-0.0909363			0.134387			-0.340321			0.8432			-0.258375			-0.0574863			-0.594443			-0.67796			-0.366972			0.490382			-0.157678			-0.523322			-0.321073			0.590057			0.226951			0.401821			0.540379			0.565505			-0.188625			-0.449257			-0.0395845			0.960134			0.260426			0.0170739			-0.0454306			0.301175			0.256359			-0.173111			0.00197913			-0.627081			0.112328			0.421865			0.0920527			0.746694			0.216917			-0.336657			0.218226			0.660635			0.65502			-0.828231			-0.0793909			0.159381			-0.901663			-0.619886			-0.310993			0.319511			-0.305084			0.429979			-0.49583			-0.739789			0.199874			-0.154065			0.329856			-0.340089			0.0519176			-0.269694			0.260001			-0.233204			0.81021			0.537649			-0.211315			-0.234667			-0.533822			0.579385			-0.651675			0.334844			0.0567951			-0.113415			-0.332232			-0.115749			0.0142535			-0.182654			-0.107563			0.432517			-0.21094			-0.714452			-0.218582			0.677678			-0.169682			0.122383			0.492938			-0.86106			0.404792			0.0262511			-0.375446			-0.751768			0.0438023			-0.930071			-0.213295			-0.568074			-0.594875			0.00270618			0.111544			-0.0410748			-0.738437			-0.120258			-0.282498			-0.0138142			-0.26905			-0.440478			0.405846			0.0683485			-0.446112			0.474307			0.220528			0.0928595			0.72053			-0.0849272			-0.537859			-0.0188778			0.690409			-0.470066			-0.327585			-0.169228			0.381799			-0.539251			-0.1871			-0.351714			0.449654			-0.385495			-0.406053			-0.168914			0.175198			0.334126			-0.555769			-0.373861			-0.834487			-0.981639			0.16535			0.817239			-0.263813			-0.20991			0.912955			0.582382			-0.729387			-0.838129			-0.0871664			0.334736			-0.022519			0.518258			-0.0149389			0.358529			0.180258			-0.315939			0.216653			-0.503436			-0.196284			-0.225307			0.389323			-0.165847			0.0187126			-0.552901			0.554132			0.0536692			-0.880819			0.115745			-0.134694			0.798847			-0.097682			0.461907			0.108281			-0.6785			0.0795481			0.732592			0.350666			-0.713163			0.936655			0.363894			0.0229671			-0.303444			0.453141			0.225641			-0.118707			-0.751712			-0.400759			-0.119687			-0.315665			-0.034734			0.500289			0.20452			-0.11395			0.455492			0.718033			0.95467			-0.724579			0.226483			0.193389			0.157487			-0.200422			-0.0394901			0.310329			0.656133			0.368497			-0.130126			0.0684898			0.944098			0.00841864			0.42817			-0.15298			0.240411			-0.233953			-0.366847			0.379143			0.326163			-0.135385			-0.40722			-0.0928055			0.634445			0.427232			-0.205856			0.493726			-0.169713			0.233138			0.271588			-0.0504775			-0.495608			-0.0456809			0.665325			-0.686287			0.149227			-0.781586			-0.22382			0.428824			0.157037			-0.0484			-0.401465			
0.286169			0.503036			0.489712			-0.280043			-0.0338865			0.859179			-0.293759			0.505369			0.905293			0.768828			0.101101			-0.656332			-0.203999			-0.35296			-0.537862			0.268331			-0.743897			-0.699122			-0.53483			-0.17088			0.120584			-0.271763			-0.588088			0.384816			0.306801			-0.453608			0.0704745			-0.429943			0.654387			0.357476			-0.466347			-0.570036			-0.126666			0.303823			-0.0113891			-0.0744997			0.0890663			0.612506			-0.117653			0.780414			0.315565			-0.242215			-0.430041			0.0186945			-0.81101			0.564146			0.16119			0.143216			0.331558			0.445365			-0.495955			-0.00094832			-0.40491			-0.0201504			0.039234			0.287762			-0.617648			-0.274716			-0.354181			-0.164548			-0.522529			0.572745			-0.891953			0.328925			0.472283			-0.464503			-0.130918			-0.0513034			0.425086			0.411682			0.319357			0.351207			-0.14985			-0.281888			0.41129			-0.359942			-0.190747			-0.501371			0.13985			-0.192392			0.494465			0.160147			0.357874			-0.513865			-0.153754			-0.731804			-0.0532384			0.0946667			0.324875			0.69548			-0.538993			0.163669			-0.497519			-0.377662			-0.142114			-0.252094			0.911471			0.119509			0.394462			0.558417			0.134756			-0.501339			0.220554			0.130635			0.165654			-0.548233			0.875485			-0.38574			-0.691847			0.023686			0.332629			0.847946			-0.409975			0.454945			0.434925			0.700174			0.0949388			0.829907			-0.197352			0.739542			0.790227			-0.364487			0.0481411			-0.0241976			0.0249612			-0.0936729			0.833847			-0.157901			0.451533			-0.338553			0.404942			0.321974			-0.921564			0.356335			-0.236932			-0.123641			0.30183			-0.157023			0.0684891			-0.698966			-0.451876			-0.256214			0.107471			-0.201726			-0.266827			-0.415877			0.206108			0.251582			0.267968			-0.73887			-0.0364734			0.0642334			-0.342659			0.442064			-0.598602			0.146935			-0.163268			-0.0108506			0.466081			-0.331826			-0.248967			0.20337			-0.507572			-0.516042			-0.149028			-0.0616035			-0.57339			0.0363791			0.340265			0.0841841			0.390312			0.423594			0.400062			0.667096			-0.49228			0.42969			0.507072			-0.0767817			-0.490422			-0.0963621			0.173299			-0.0843471			0.0767312			-0.505638			0.756296			0.194214			-0.0157573			0.43024			-0.401647			-0.265476			-0.656521			0.363127			0.41515			-0.129113			0.279739			-0.574667			-0.179106			0.176619			0.0879835			0.0769668			0.234122			0.286778			0.823333			0.124626			-0.366469			0.254123			0.0874861			0.074938			-0.0448154			-0.875005			-0.0442501			-0.627674			-0.301068			0.283298			-0.447428			0.0943265			0.224544			-0.620387			0.811085			0.40649			0.158181			-0.554248			0.0774319			0.0173438			-0.552005			0.408436			-0.909915			0.386618			-0.148165			0.0177693			0.252213			0.957933			0.0123161			0.176318			0.175077			-0.193033			0.354165			0.189196			0.248318			-0.570898			-0.00551007			0.665827			0.592804			0.412611			-0.190886			-0.321078			-0.612623			-0.357997			-0.237478			-0.218364			
-0.1524			-0.251883			-0.659924			-0.500507			-0.474554			-0.497125			-0.272191			0.0964911			0.629015			0.33922			-0.0357262			0.46529			0.125989			0.67773			-0.331305			0.538069			-0.0385019			-0.0396014			-0.578797			0.622174			-0.540653			0.152156			0.246787			0.585851			-0.376733			-0.0421369			0.585015			-0.751032			-0.944298			-0.640594			-0.221135			0.843993			-0.754233			0.454834			-0.794382			0.00179056			0.208496			0.0454294			0.387143			0.534436			-0.483221			-0.388044			-0.0847219			-0.180259			-0.12214			0.277851			0.592404			-0.0452998			-0.514142			0.736641			-0.5738			-0.222058			-0.0991411			-0.0110795			-0.80063			-0.456646			-0.721896			-0.366512			0.0185785			0.14302			0.289114			0.917929			0.0428832			0.00199085			0.552247			0.459738			-0.136175			-0.053408			-0.590512			0.450022			0.0883595			0.642692			-0.389485			-0.629942			0.908501			-0.587522			0.0635148			-0.303865			0.372612			0.24417			0.581153			0.810079			0.177347			-0.618845			0.472898			0.233473			0.56771			0.284621			-0.585516			-0.486492			0.261115			-0.192732			0.549808			-0.836352			0.724172			0.334338			-0.437668			0.334236			-0.522052			0.134886			0.396893			-0.904519			-0.116397			0.404952			-0.389284			-0.0581954			-0.702917			-0.251847			0.110096			0.778255			0.242067			0.188419			0.146442			-0.597568			0.43115			-0.24271			0.244477			0.62744			0.328476			0.0851817			-0.0309024			-0.779816			-0.420624			-0.476268			0.853697			-0.168189			0.430188			-0.493037			-0.845204			0.539118			-0.803384			0.618394			-0.759665			-0.241752			0.848229			0.761009			-0.769745			-0.369957			-0.110052			-0.129167			-0.0645413			-0.884664			0.659637			-0.518606			-0.185867			0.244905			-0.570017			-0.273822			0.301369			-0.592545			-0.294444			-0.103383			0.386283			0.730335			0.480045			0.847053			-0.345378			-0.0820603			0.390435			0.317126			-0.580347			0.208627			-0.380822			-0.334498			-0.15997			0.0216409			0.0727322			-0.128564			0.35308			0.26247			-0.0310925			0.13669			-0.573122			0.615628			-0.492955			0.0269361			-0.680665			-0.0030571			-0.265461			0.918435			-0.549117			0.0217322			0.844952			0.365673			0.199703			-0.338375			0.546764			-0.155535			0.306951			-0.636876			0.439693			-0.320191			-0.207358			-0.453633			0.0238609			0.257475			0.382613			-0.242429			0.662868			0.727517			-0.700649			-0.701376			0.114646			-0.159771			0.137925			0.456162			0.255785			-0.511147			-0.120954			0.634217			-0.0757657			-0.121354			-0.794392			-0.48361			-0.459755			0.499156			-0.66845			-0.205326			0.251874			0.24482			-0.203473			-0.524886			0.510995			0.160501			-0.880364			-0.111238			0.39204			-0.153954			0.0370799			-0.416985			0.406903			-0.695274			0.46657			-0.454991			-0.0361614			-0.50826			0.113676			0.191697			-0.70702			0.167664			-0.128526			0.071179			0.0636824			-0.204735			0.250254			-0.0865804			-0.298186			0.302836			0.172066			0.0749021			
-0.430069			-0.173448			0.591661			0.959131			0.264354			-0.450224			-0.199663			0.497095			-0.118653			0.0404453			-0.245964			-0.520429			-0.436508			-0.578414			-0.930339			-0.677099			0.367713			-0.85258			0.0466314			-0.0362264			0.158815			0.285508			-0.200989			-0.0181024			0.0122845			0.46997			-0.707683			0.448983			-0.60648			-0.572254			-0.175449			-0.423811			-0.629062			-0.650018			-0.225232			0.451852			-0.563246			-0.556439			0.000624534			0.303865			0.0679436			0.182149			0.170152			-0.0428806			-0.0950788			0.828617			0.724603			-0.140768			-0.111003			-0.940055			0.0962902			-0.668796			0.319085			-0.622429			-0.379666			0.299589			0.125037			-0.356568			-0.645542			-0.258638			-0.135053			0.1272			0.295931			0.795232			0.0539187			0.311059			-0.393335			0.262951			0.328168			0.17821			-0.271702			0.362385			-0.232431			0.0602364			-0.17568			0.824841			-0.348032			0.441162			-0.523628			0.285666			-0.00744949			0.589019			-0.0226834			-0.862232			-0.169732			-0.887177			-0.822023			-0.268448			-0.068001			0.735726			-0.87602			-0.0741864			-0.314295			-0.641427			0.117753			-0.611741			0.172302			0.650803			0.46131			-0.653378			-0.605744			0.0975288			-0.0816454			-0.0705434			-0.507563			-0.132195			-0.285317			-0.709985			0.806913			0.192288			-0.721471			0.454352			-0.546388			0.325193			0.0274983			0.576243			-0.448039			0.447714			0.976116			0.171872			-0.27623			-0.294886			-0.885338			0.295498			-0.969137			0.0195873			0.224079			0.484737			0.310994			0.0990119			-0.355216			-0.603403			-0.076358			0.392791			-0.381884			0.352221			0.168487			0.0151526			-0.143775			0.145814			-0.0241693			-0.179017			-0.00920435			-0.171031			-0.0846671			-0.453972			-0.121782			0.374935			-0.361818			-0.554642			-0.077473			0.719871			0.0214786			-0.265124			-0.0514312			0.514837			0.208625			0.0530303			0.318701			0.555454			0.51427			-0.0555668			-0.809823			0.493023			-0.177171			-0.172614			0.62121			0.657842			0.48281			-0.12644			0.685065			-0.368982			0.628768			-0.279021			0.314991			0.154426			0.203633			0.787357			0.873356			-0.820242			0.0725445			-0.688885			-0.33402			0.310373			-0.407761			0.202605			0.168411			-0.556793			-0.454205			0.0863407			0.00920324			-0.11489			-0.637206			-0.589279			-0.0209738			0.1458			0.41573			-0.481807			0.5075			0.442683			0.160291			-0.158393			0.249975			0.180034			-0.610759			-0.883597			0.254474			0.772648			0.789038			-0.606768			0.660262			-0.16755			-0.698015			0.16605			0.158375			-0.00978011			-0.438592			-0.188756			0.208085			-0.693468			0.0243809			-0.228628			0.366598			-0.173797			-0.317286			0.216089			-0.256992			-0.309525			0.485457			0.628789			0.601908			0.224941			0.235672			-0.0170915			-0.527865			0.0265337			0.133525			0.0152307			0.401503			0.575469			0.72159			0.287628			0.288639			-0.447639			-0.429973			0.351287			-0.33351			-0.048405			0.215532			0.201118			
0.495626			0.0475183			0.177359			-0.649742			0.94338			0.371398			0.230232			-0.147571			-0.628385			0.457926			-0.341945			0.500832			0.581885			-0.877604			-0.393546			-0.426526			0.689173			-0.738248			0.569363			-0.048409			0.815529			0.128658			-0.14475			0.398016			0.0490916			0.760038			-0.18916			-0.203084			-0.0747371			0.0806293			0.982263			-0.12654			0.11969			0.122132			-0.707416			0.313734			-0.259155			-0.460515			0.0867468			0.067493			-0.310818			-0.290992			-0.876735			-0.202559			0.329114			-0.750648			0.708837			0.467259			-0.862022			0.315077			0.333792			0.447248			0.283236			-0.219846			0.412859			-0.156829			-0.208366			-0.241428			-0.318785			0.675862			-0.0177711			-0.381928			0.62297			-0.209073			0.67117			-0.605775			-0.193236			0.534048			-0.527256			0.918502			-0.19082			0.702433			0.209816			0.783078			0.492213			0.22354			-0.573971			-0.227661			-0.239869			0.341625			-0.217196			-0.0340711			-0.283272			0.761027			-0.273979			0.057759			-0.620003			0.886718			0.623849			0.826608			-0.366843			0.569562			0.843635			0.235933			0.541666			-0.118477			-0.0931899			0.351976			-0.193201			-0.395763			0.345573			-0.0146873			-0.246621			0.13996			0.207653			0.522588			-0.572318			-0.0865978			-0.337969			-0.431309			-0.00690895			0.00165243			0.623165			-0.657686			0.0449531			-0.171645			0.0245211			0.23225			0.180773			-0.602827			-0.340626			-0.223049			-0.446495			0.0570371			0.466396			-0.545884			0.565483			-0.956923			0.563917			-0.304384			0.705738			-0.473015			0.142211			0.165809			0.170198			0.121554			-0.767926			0.854523			0.119782			-0.36863			-0.337085			0.278915			-0.422068			0.231797			-0.115875			0.562309			-0.96491			0.202076			-0.563251			-0.304875			-0.112506			-0.828886			0.183966			0.156403			0.543837			0.36442			-0.385424			-0.06785			-0.169977			0.631842			-0.142994			-0.448035			0.209288			0.0346926			-0.437982			0.266582			-0.573342			0.969263			-0.867676			0.365043			-0.23887			-0.247393			0.0674417			0.839045			-0.664961			0.432737			0.144467			-0.94313			-0.316461			0.565513			0.227747			-0.481651			0.133558			-0.545633			0.0170711			-0.606269			0.328314			-0.430879			-0.417404			-0.303757			-0.0343105			0.24375			0.0872111			0.726838			-0.406351			0.535296			-0.419059			0.491974			-0.0977558			0.301469			-0.185472			0.440919			0.147687			0.1398			0.33038			0.10097			-0.905629			0.965871			-0.244708			-0.460977			0.448857			-0.124513			0.0585425			0.27637			0.489979			0.122242			0.103433			-0.655848			0.0358841			-0.375255			0.391252			-0.365328			-0.594991			0.0423315			0.176113			0.489743			0.216432			-0.59255			-0.388498			-0.370788			0.271481			0.75456			-0.0782208			0.573534			0.58693			0.391355			0.473518			-0.348323			-0.284612			-0.581667			-0.321854			0.681139			0.661367			-0.586904			0.370169			0.544153			-0.279749			-0.389236			0.728237			0.671672			
-0.742171			-0.197946			0.457365			0.869382			0.617819			0.352762			0.146219			0.433327			0.0732642			-0.206023			-0.0942014			0.490439			-0.019018			0.67087			-0.289593			0.162838			-0.540445			-0.499517			0.0370704			0.244716			-0.113327			-0.705273			0.869771			-0.526224			0.25452			0.210986			0.27487			-0.269414			0.496721			0.405772			-0.62085			0.0861143			-0.47655			0.555976			0.636231			0.0269022			-0.986568			0.18812			-0.136771			0.506842			-0.971204			-0.63417			-0.0318611			-0.0671334			-0.106101			-0.54464			-0.198351			0.499319			0.416938			0.0243574			-0.0161166			-0.585063			-0.248234			-0.551967			-0.365211			0.268842			-0.930758			0.808897			-0.855427			0.270439			-0.624731			0.382428			-0.237798			-0.169106			0.899652			0.813276			0.682429			0.910364			-0.556183			-0.431294			0.10096			0.577278			0.902033			0.166384			0.595563			-0.253334			0.127446			-0.0679398			-0.079531			0.16266			-0.139332			0.52426			0.867142			0.421573			-0.127607			-0.654274			-0.103806			0.476268			0.200139			-0.204249			0.421451			0.0161988			0.0487501			0.537841			0.176596			0.734474			0.277463			-0.489007			-0.103109			-0.469308			0.737107			-0.437817			0.293496			0.163915			-0.0599416			0.463665			0.932588			0.0571026			-0.373917			-0.882253			0.290904			-0.235676			-0.573555			0.101905			-0.860538			-0.390818			0.0192731			-0.0757368			0.110841			-0.624			0.397241			-0.232099			0.666499			-0.813443			-0.0673828			0.660047			-0.366046			-0.0919197			-0.145794			-0.353836			-0.533293			0.284871			0.254783			0.29652			-0.009374			0.166462			-0.295477			0.762464			0.956236			0.130051			0.373552			-0.17872			-0.963551			0.452963			0.370137			0.304508			0.330147			-0.229897			-0.694102			0.114716			0.401789			-0.107345			-0.602331			0.778373			-0.370601			-0.414847			-0.207234			-0.0595849			0.105895			-0.257364			-0.608012			-0.715231			0.288609			0.245864			0.0230096			-0.0898164			0.0660988			0.458431			-0.00843489			-0.445535			0.0786748			0.199587			-0.409898			-0.722493			0.383143			-0.122013			0.514266			0.687101			0.361509			0.0413791			-0.0437312			0.391307			0.762063			-0.0753033			-0.65612			0.246648			-0.147771			-0.0951396			0.28007			0.37622			0.257483			-0.111053			0.0959559			-0.761553			-0.352214			0.556554			-0.0995686			-0.0691636			-0.179019			-0.0980022			-0.561564			0.980758			0.188277			0.803138			-0.601868			-0.869891			0.192353			-0.268833			0.0266924			-0.0297041			0.00700919			-0.0625031			0.311294			-0.167056			0.533902			0.0762467			0.509204			0.0877182			0.321004			0.403996			-0.288942			-0.203201			-0.643979			0.399763			0.643863			-0.293218			-0.472636			-0.327676			0.555407			-0.350588			-0.112854			0.140353			-0.352703			-0.150756			-0.391689			0.103702			0.167139			-0.594324			0.509679			0.552365			0.307999			-0.636089			0.0708188			-0.169265			0.278539			-0.638062			0.259353			-0.0843243			-0.220618			-0.0457842			
0.563858			0.154288			-0.536172			0.661878			-0.159602			0.200808			-0.610668			0.402506			0.564089			0.985609			-0.0478774			-0.620797			0.478787			-0.480545			0.0365589			-0.458032			0.52401			0.317928			0.541702			-0.426123			0.156468			0.536822			-0.157857			-0.904565			-0.424533			0.16006			-0.18836			-0.0453509			-0.201277			0.0798251			0.762371			0.065112			0.578494			0.575223			-0.00465			0.0823341			-0.305596			0.561545			-0.64645			0.391041			0.317183			-0.607156			-0.164008			0.00792349			0.21107			-0.081749			0.110902			-0.187111			-0.21875			0.188074			0.426935			0.366271			-0.26517			0.698025			0.0635961			-0.357808			0.121765			-0.588971			-0.394664			-0.653196			-0.088647			0.535793			0.14187			0.698944			-0.226155			0.1915			0.876507			0.648734			-0.63064			0.885871			-0.203446			-0.441786			0.0941509			0.225325			-0.115327			0.91241			0.116509			0.682981			-0.0705715			0.0723379			0.31523			0.126613			0.270917			0.837453			0.247317			0.236073			-0.129935			-0.611865			-0.771719			0.285191			0.616867			-0.229826			-0.000853284			0.147527			0.957054			0.143893			0.45289			0.549931			-0.166505			-0.0233522			0.289328			0.662843			0.268872			0.181754			-0.0457943			-0.364997			0.252355			-0.482357			0.358151			-0.288719			0.0374859			0.00618986			0.611363			-0.331719			0.418633			0.825635			-0.464896			-0.209129			0.609144			-0.798948			-0.277446			-0.0894364			-0.0953188			-0.255902			-0.14522			0.556324			0.555012			-0.405944			0.00338676			-0.0667713			-0.359334			-0.115376			-0.303956			-0.124167			-0.306847			-0.746423			-0.0857837			0.563959			-0.0860037			-0.0730664			-0.492962			0.0786029			0.306381			-0.618307			0.209004			0.00279734			0.729726			0.224027			0.212287			-0.435007			0.275936			-0.0210378			0.276877			0.149683			-0.403389			0.881424			0.28088			-0.867156			0.594277			0.0922738			0.225314			-0.693905			-0.0300524			0.190456			-0.519659			0.833498			-0.627253			-0.0772608			0.404788			0.71458			-0.0757779			-0.436371			-0.57637			0.344544			-0.0214678			-0.0278647			-0.108975			-0.489058			0.179302			0.153516			0.699162			-0.821845			0.445965			0.152439			-0.326033			0.206527			0.993766			-0.10445			-0.191237			-0.40044			-0.489945			-0.458532			-0.20632			-0.485492			0.647125			0.535962			0.0694419			0.142983			-0.834886			-0.143166			-0.0261062			0.099274			0.588036			0.899924			0.485202			-0.81247			-0.137887			-0.475519			-0.00341946			-0.276269			-0.168183			0.293982			0.415679			0.069378			-0.0309082			-0.107112			-0.1321			-0.226368			-0.14896			0.0350577			-0.026982			-0.13513			-0.201412			-0.091267			0.764297			0.0997542			-0.540946			-0.545047			0.549999			-0.766045			-0.690373			-0.51324			0.540565			0.359187			-0.502151			-0.505173			-0.650662			-0.307968			-0.752323			-0.273717			0.23155			-0.200891			-0.296228			0.0682521			0.170164			0.245306			-0.40585			-0.762856			0.162472			0.477063			
0.282022			0.366664			0.31202			0.299199			-0.237202			-0.347158			-0.0515467			-0.116091			0.433439			-0.0457065			0.447922			0.257071			0.214902			0.309883			0.873136			-0.309691			-0.214558			-0.268454			-0.844056			0.790923			0.114061			-0.896602			0.414665			0.198681			-0.253348			0.016121			-0.038479			-0.140999			0.147869			-0.271145			0.295297			-0.575512			0.174271			0.59928			-0.358854			-0.793815			0.103306			-0.206004			-0.269509			-0.876904			0.582762			-0.119194			-0.579088			-0.151387			0.125363			0.726131			-0.64047			-0.285702			0.30005			-0.253701			-0.373285			0.896797			0.143894			0.034669			-0.350137			-0.925701			0.394491			-0.269681			0.815026			0.0360159			-0.348778			-0.292355			0.100637			0.271972			0.0292014			0.202334			0.00622957			-0.237569			0.459974			-0.126048			-0.40793			0.648316			-0.343972			-0.414973			-0.210374			0.915056			-0.165241			0.286509			-0.203278			-0.194162			-0.0685801			0.203448			0.3437			-0.285467			0.0296246			-0.279331			-0.341285			0.747397			-0.981951			-0.283282			0.0251056			0.155718			0.122529			-0.0389878			0.366864			0.603089			0.640704			-0.0104756			-0.710109			0.429578			0.154901			0.463115			0.318418			-0.942427			-0.758593			-0.266311			0.339621			0.636382			-0.408839			-0.0602073			-0.277942			0.134124			0.0275883			0.409578			-0.589241			-0.299887			0.342705			-0.307026			0.188769			0.713347			-0.116428			-0.296688			0.127056			-0.0345452			0.0806809			0.803457			0.421912			0.551323			0.591457			-0.498871			0.230301			-0.0591053			-0.229279			-0.0107116			0.223599			0.365538			0.634128			0.786819			0.0379569			0.416958			-0.541551			0.15158			0.355438			-0.412821			-0.438389			0.951787			-0.676897			-0.0973153			0.0511693			0.109059			0.664076			0.62001			-0.26344			-0.382609			-0.578914			-0.2017			0.228646			-0.543819			0.189319			-0.543296			0.447629			0.888053			-0.779616			0.0185174			-0.20708			-0.476317			-0.602684			0.188844			0.247249			-0.0726008			-0.518638			-0.0860539			0.485118			-0.740932			-0.494955			0.125395			0.543425			-0.415555			0.296619			-0.101827			-0.0802411			-0.104728			0.0452438			-0.301152			-0.522901			0.597964			-0.0812562			0.650607			0.761582			-0.958662			-0.294017			-0.462248			-0.320098			-0.85485			-0.537281			0.388968			-0.106266			-0.0810214			0.811819			0.138417			-0.736569			0.807537			0.406871			0.721495			-0.455235			0.177095			0.323687			0.604458			0.230895			-0.192693			-0.534201			-0.0398101			0.419112			-0.793205			-0.0499064			-0.410188			-0.277921			0.698041			0.20425			0.133195			0.934182			0.165882			-0.0136127			-0.110854			0.705787			0.228596			0.66105			-0.5089			0.0552187			-0.140513			0.156163			0.497993			-0.012973			-0.302816			-0.145007			-0.0706681			0.827587			-0.333357			0.458476			0.0456508			0.0177804			0.33869			-0.613088			-0.379775			-0.173172			-0.926662			0.424301			-0.291399			0.200384			-0.167094			
0.503599			0.485857			-0.217301			0.449798			0.447367			0.191404			-0.182068			0.145212			-0.894044			-0.358882			0.606633			0.204569			-0.229797			-0.657654			-0.620304			0.849065			-0.0106218			-0.218977			-0.40651			-0.3342			-0.233848			0.244082			0.142138			-0.264848			0.460478			0.174216			-0.591886			0.27052			0.478869			0.0782408			-0.428778			0.17669			0.521304			0.134185			-0.0816381			0.224994			-0.393321			-0.324612			-0.912719			-0.386183			-0.736583			0.302002			-0.556596			0.228218			0.445663			0.441576			-0.435824			0.662392			-0.654647			-0.380794			0.915725			0.32968			0.780871			0.0294312			-0.567191			0.401506			0.116005			-0.937065			-0.355274			0.564114			0.094084			-0.425748			0.509537			-0.386629			-0.355543			-0.0312411			-0.112039			-0.446057			-0.450783			-0.499756			-0.184768			-0.339025			0.279652			0.597149			0.215399			0.11667			0.277569			0.197878			-0.730857			-0.574847			0.306423			-0.0078346			0.405203			-0.514503			-0.823587			-0.0868144			-0.825651			-0.771138			-0.357965			0.138792			0.758788			-0.135221			-0.582952			-0.774939			-0.0157809			0.805131			0.331759			0.122611			0.2182			0.35028			0.0726266			0.00155804			0.649632			0.0754677			-0.823661			0.00507365			0.407902			0.178718			-0.0958114			0.497892			-0.364089			-0.801417			-0.277857			0.261895			-0.574853			-0.139955			-0.0429634			-0.114615			-0.526808			-0.207197			0.175231			-0.426484			0.355423			0.182754			0.161226			-0.265377			0.361773			0.261876			-0.674489			-0.916821			-0.360213			-0.0593087			-0.726321			0.307297			-0.0151038			-0.00976474			0.124389			-0.0159379			0.323565			-0.296332			-0.0957456			0.16889			0.147858			0.138256			0.297852			-0.0497216			0.388167			-0.28544			-0.738362			-0.832196			0.445832			-0.329893			-0.446203			-0.486887			0.260727			0.0534283			0.700379			0.964709			0.0270497			-0.242926			0.272325			0.21023			-0.0780402			0.640217			0.349855			0.487961			-0.0657894			0.283737			0.870196			0.420275			-0.361672			0.532922			0.490278			0.0132038			0.715229			-0.118866			0.509374			-0.233594			0.496179			-0.717501			0.171298			-0.10347			-0.490281			-0.219674			0.194106			0.730816			0.153547			-0.296936			0.0534983			-0.579911			0.798947			0.0435909			-0.701369			0.0325452			0.272958			0.34217			0.310974			-0.0925458			-0.299356			0.57368			0.632687			0.0401012			0.260045			0.0746297			-0.785909			0.787815			-0.177035			-0.453389			0.537905			0.094799			-0.307923			0.827489			0.692829			-0.0753926			0.183207			0.107913			0.179881			-0.755232			-0.0236437			0.234618			-0.249093			0.0800937			-0.122998			-0.423983			-0.40629			0.670325			0.376947			0.277652			-0.0319704			0.531039			0.305792			0.665777			0.363079			-0.256472			-0.357137			-0.587979			0.422556			-0.461658			0.0264081			-0.511431			-0.584009			0.135414			0.248509			-0.704764			0.707605			-0.397812			0.123681			-0.0626789			0.245545			-0.441407			
-0.679013			0.287423			0.38876			0.398983			-0.706105			-0.447507			-0.27397			0.501872			0.371843			-0.335957			0.586614			0.376767			-0.388765			0.597772			-0.185806			0.713403			0.279532			-0.0360421			0.494725			-0.471082			0.234145			0.369228			0.0798062			0.167899			0.0931123			-0.423673			-0.343053			-0.714068			-0.359769			0.330463			0.681856			-0.196689			-0.375034			0.0575266			-0.315236			-0.0531279			-0.291626			-0.277243			0.407486			0.69509			-0.310053			-0.05584			0.698201			-0.00165311			-0.101392			0.388377			-0.521186			-0.446637			0.421131			-0.0318489			0.871245			0.761272			-0.333472			0.35891			0.226961			-0.356171			-0.287582			-0.431296			0.520864			0.343243			0.33458			-0.449131			0.123952			0.4337			-0.196552			-0.144819			0.125935			0.311358			-0.068481			0.823029			-0.364902			-0.0161058			-0.290306			-0.588094			0.635305			0.327186			-0.393422			-0.0839182			0.126999			0.497616			-0.226566			0.40585			-0.676635			-0.482628			-0.28744			-0.421665			0.79298			0.143331			0.097913			0.0285686			0.329105			0.197017			-0.240098			-0.331859			-0.854507			0.0825404			-0.216924			0.709149			-0.197719			0.675575			0.315953			-0.506575			0.974237			0.990781			0.0576735			-0.903095			-0.10672			0.210175			0.36224			0.754226			0.103073			0.0319817			0.458817			0.437966			0.610296			-0.639647			0.0204941			0.0186676			0.291896			-0.27117			0.369084			0.288138			-0.137084			-0.316835			-0.00224371			-0.0202688			-0.429749			0.447774			-0.118977			0.0285091			-0.193889			0.0776127			-0.464733			0.94873			0.375688			-0.391266			0.726909			0.391387			0.898169			-0.135693			-0.638237			0.0587871			-0.258698			0.429017			0.119093			0.262245			-0.316658			0.453926			0.0663052			0.558531			-0.156275			-0.564167			-0.685431			-0.370352			0.0927715			-0.218891			-0.111431			0.533962			0.7182			0.0715183			0.351364			-0.194435			-0.280464			0.175935			-0.84876			0.306001			-0.396764			0.411241			0.83298			0.0479138			0.319643			0.430314			-0.106465			-0.533428			0.544634			0.300014			-0.323103			-0.295779			0.173918			0.0146282			-0.494789			-0.258676			0.209577			-0.321668			0.411944			0.169475			0.151002			0.42515			-0.880231			0.622219			-0.193632			-0.407616			0.142806			0.00184192			0.588041			0.562531			-0.20198			0.100389			-0.716376			-0.206495			-0.318362			0.061538			0.645384			0.638556			-0.337178			-0.774521			-0.0920636			0.129493			0.174353			0.0718345			-0.0165002			0.101747			0.0119726			-0.262531			0.510171			0.774225			-0.241146			-0.0631813			-0.347062			-0.247535			-0.60087			0.690969			0.534876			0.115755			0.119226			-0.703994			-0.543737			0.143937			0.616452			0.0731556			-0.482917			-0.733115			-0.639676			-0.644908			-0.446079			-0.754623			0.0392052			0.44509			0.0570689			-0.544323			-0.214099			0.97196			-0.627984			-0.322614			0.451689			-0.291642			0.264448			-0.648164			0.0350973			-0.0800047			
0.0184457			0.228765			0.465787			0.331307			0.93355			0.507976			0.0562479			0.491254			0.756943			-0.725271			-0.624269			0.0774126			0.926511			0.751913			-0.00977825			0.00546287			-0.396772			0.158472			0.28341			-0.329415			0.0492109			-0.170022			0.474105			0.439158			-0.20857			0.226908			-0.317605			-0.0293275			-0.233542			-0.5904			-0.516683			-0.390886			0.0416046			0.980457			-0.00836301			0.471839			-0.492656			-0.365999			0.124502			-0.17019			-0.321708			0.867944			0.131125			0.0564964			0.288005			0.184504			-0.549839			0.168642			0.660982			-0.354011			-0.0473145			0.521104			-0.135753			-0.390662			0.15663			-0.233208			-0.681165			-0.380195			0.452348			-0.33677			-0.116756			-0.350837			-0.528695			-0.597755			-0.540177			-0.241023			-0.510315			-0.370653			0.236453			0.956727			0.538561			0.750467			0.566044			-0.173632			0.47555			-0.597707			0.584559			0.357541			0.386496			0.226549			-0.37075			0.302675			-0.158085			0.730489			-0.445449			-0.362873			-0.022841			-0.143558			-0.209214			0.431578			0.431963			0.0201578			0.228639			-0.924463			0.257128			-0.0301707			-0.611363			0.0092011			-0.328948			-0.0103631			0.784114			-0.23875			-0.395413			0.611423			0.758086			-0.158695			0.580407			-0.65917			0.161932			0.890795			0.0387463			-0.400104			0.626346			-0.229302			0.165933			-0.733182			-0.27288			-0.0513351			-0.468306			0.29922			0.279895			0.127194			-0.157862			-0.177948			-0.118119			0.851186			0.127678			-0.178866			0.271194			0.580748			0.188888			0.154666			-0.277784			-0.602425			0.253782			-0.858357			-0.263413			-0.738164			0.650383			0.00327021			0.241925			0.184766			0.425869			-0.273733			0.609931			0.595788			0.215889			-0.788492			-0.217649			-0.330762			-0.0587942			0.0876926			0.347713			0.467475			0.137113			0.103393			0.0786991			0.830439			-0.0939786			0.627845			0.892533			-0.678248			-0.151219			-0.327385			0.109067			0.225992			-0.620203			0.381846			-0.367568			0.00768952			0.116854			0.442182			0.0516362			0.142618			-0.599701			0.0445329			-0.169605			-0.77575			-0.162204			-0.177256			-0.216318			-0.484364			-0.206589			0.1413			-0.127145			-0.618609			0.147647			-0.0763536			0.85519			0.251374			-0.458928			-0.00585876			-0.134059			-0.00393923			-0.692364			0.113677			-0.454877			-0.295842			-0.941118			0.195615			0.125281			0.241822			0.514368			0.300362			-0.0798708			0.782425			-0.469437			0.768919			-0.0850695			0.379931			-0.807706			-0.543532			0.137865			-0.366497			-0.210096			0.281553			-0.190552			0.0665719			-0.586471			-0.296992			0.148239			-0.835199			-0.021916			0.171755			-0.361301			0.167116			0.119325			0.460172			-0.00240737			-0.422168			0.079174			-0.868433			-0.473286			-0.0808582			-0.542839			0.605506			0.276574			0.0161061			0.0490038			-0.295664			0.0191761			0.341756			-0.0628136			0.41697			-0.278925			0.947659			0.677257			0.765627			-0.338412			0.607031			
-0.827588			0.522407			-0.182318			-0.109018			0.0197243			0.219097			0.262827			0.319961			-0.155824			0.769839			0.426192			-0.41368			-0.724521			0.533527			-0.386003			0.322129			0.179655			-0.398856			0.564777			0.404534			0.322513			0.0598416			-0.825112			-0.586834			-0.474975			-0.359669			0.317273			-0.606148			0.373766			-0.264725			-0.276392			-0.395866			-0.419187			0.638409			-0.615635			-0.477219			0.555836			-0.45506			-0.636851			0.128994			-0.633009			0.0380203			-0.626309			0.150282			-0.155941			-0.724232			0.813136			-0.37364			-0.151313			-0.738127			-0.0080776			0.333848			0.239079			0.225487			-0.54099			0.0833196			0.301087			0.147563			0.424028			0.141944			-0.511691			-0.185022			0.322555			0.141279			0.20611			0.0169197			-0.184233			-0.0820438			0.143005			0.315447			0.286329			0.0968164			-0.394739			0.148353			0.368174			0.278313			0.470889			-0.054593			0.642823			0.144801			0.0718684			-0.363689			-0.178063			-0.029922			-0.290395			-0.130848			-0.241314			-0.214525			0.313702			-0.529239			0.153096			-0.182004			-0.668042			-0.289489			-0.173179			0.782644			0.194347			0.576017			-0.327922			-0.825797			0.757428			0.159011			-0.15816			-0.321516			0.258706			-0.320108			-0.328624			0.278479			-0.658593			-0.243257			0.363863			0.135697			-0.0965363			-0.106767			0.00771006			0.079161			0.277583			0.0226955			-0.369349			0.393094			0.1042			-0.169027			-0.475606			0.336975			0.174153			-0.573768			0.409652			-0.29718			0.222962			-0.571204			-0.0274555			0.175441			0.101571			-0.493572			0.419422			-0.107234			-0.756096			-0.444957			-0.248958			0.28037			-0.147657			0.0948138			0.107353			0.802104			-0.485959			0.38439			-0.221275			0.87118			-0.113273			0.144951			-0.105305			0.00661109			-0.0811665			0.22081			-0.49458			-0.742951			-0.0779276			0.393166			0.562305			0.392824			0.738109			-0.0158473			-0.657296			0.209148			0.755081			0.140198			0.498186			-0.316276			0.0604626			0.770498			0.757079			-0.129813			0.248872			0.136432			-0.0656828			-0.0277168			0.27788			0.718023			-0.0803863			0.220325			-0.759027			-0.776546			0.122863			0.33257			-0.364876			0.744866			-0.974822			-0.788798			0.915918			0.419519			0.0187621			-0.0971077			0.422447			0.638384			0.391459			-0.201227			0.594875			0.155436			0.626109			-0.129631			-0.538369			-0.640795			0.358057			0.128872			0.221816			-0.366464			0.595578			-0.336886			-0.000963861			-0.289896			-0.354002			-0.122418			-0.256182			0.958788			-0.334819			0.149822			0.00601874			-0.034691			-0.0952572			0.779474			0.0205605			-0.0311597			0.299007			0.429998			-0.295916			0.442348			0.481278			0.72158			0.354711			-0.410646			0.104068			-0.477645			-0.22802			0.242151			-0.311062			0.759739			0.0430203			0.932496			-0.154716			0.481175			0.617468			0.188972			-0.0161311			0.371238			0.0355858			0.287428			0.507474			-0.111716			-0.583843			-0.0111902			
0.0793968			-0.405941			-0.773228			0.0304241			0.0425362			0.534848			-0.559808			-0.0839631			0.209363			0.278919			0.0695984			-0.479276			-0.433872			-0.471315			0.570546			0.53771			-0.322833			0.275428			-0.202292			-0.153184			0.172466			0.439821			0.0201192			-0.749015			-0.502279			-0.0330437			0.419422			0.104621			0.287716			-0.0581714			-0.160852			0.134925			-0.676313			0.365848			0.0765513			-0.182882			-0.0116475			-0.120267			0.014595			0.151435			0.0458513			-0.406087			-0.818757			0.689176			0.146436			-0.101904			0.16103			0.177737			0.685264			0.15606			0.00687561			-0.272479			-0.2997			0.351364			-0.163416			-0.905306			-0.805374			0.280382			-0.262705			0.14579			0.974454			-0.148346			0.321656			-0.284804			-0.221325			0.106542			0.665449			0.158987			-0.738182			-0.084738			-0.0592613			-0.128562			-0.332554			0.0895594			0.141242			-0.871245			0.856728			-0.869565			-0.0914381			0.714802			0.490547			0.0311987			0.219665			-0.0615609			0.160467			-0.0669738			0.593384			-0.203476			0.927154			-0.205887			-0.279047			0.208632			-0.0998012			0.116679			-0.116985			0.282579			0.784621			-0.907355			0.931034			-0.209545			-0.294518			-0.483907			-0.535592			0.0913342			-0.0745616			0.442156			0.036767			-0.319953			-0.545465			0.791004			0.510254			-0.0073859			0.120763			-0.791978			-0.108754			0.0408732			-0.582101			-0.644265			-0.353635			-0.235649			0.107092			0.442747			0.202493			-0.925223			0.439359			0.0175943			-0.044052			0.767893			-0.509727			-0.130786			0.313756			-0.530364			0.710055			0.383403			0.789707			-0.467134			0.175873			0.59165			0.347778			0.659701			-0.0959621			0.0235718			0.325124			-0.487233			0.335928			-0.194534			0.70286			-0.491592			0.679513			0.236596			-0.00564583			-0.0426607			-0.621232			0.185484			-0.601847			-0.975016			-0.393929			0.0404558			0.35757			0.664726			-0.0485238			0.185429			0.347998			0.035903			0.376627			0.0316524			-0.776586			-0.418872			0.260763			0.384976			-0.640951			0.387945			0.143969			0.435556			-0.00526223			0.0263509			-0.209027			0.365921			-0.313093			-0.229016			-0.20919			0.246449			-0.24672			-0.32264			0.940255			0.381845			0.0332524			0.336081			0.202624			-0.0314442			-0.162052			-0.179857			0.113537			-0.0185249			0.661905			-0.0297775			0.0306172			-0.490658			0.78091			0.491432			-0.354486			-0.146025			0.674497			0.294372			-0.621476			0.716085			0.254324			0.849418			0.641673			0.219184			0.138737			-0.53456			0.38763			0.643216			0.425117			0.0466582			0.0938767			0.500935			0.615089			-0.370577			-0.517229			0.290292			-0.394353			-0.240165			-0.256663			-0.56189			-0.352269			-0.197369			-0.207606			-0.300993			-0.471089			0.843674			-0.222702			0.793453			-0.0947838			-0.0819993			0.556067			-0.514638			-0.403449			0.242899			-0.518056			0.320372			0.288171			0.235544			0.0112811			-0.320422			0.380065			0.588301			0.171399			-0.373885			
0.168522			-0.367671			-0.0435997			-0.136193			-0.255766			0.405857			-0.601382			-0.466584			0.137742			0.248139			-0.438415			0.461932			-0.764284			0.425366			-0.89384			-0.165272			0.804199			0.185823			0.0657472			0.041374			-0.307317			0.95033			-0.202605			0.39947			-0.0539513			0.486804			-0.126466			0.265193			-0.339492			0.328688			0.195733			0.177783			-0.432842			0.130199			0.0196577			0.886021			0.185267			-0.682292			-0.127048			0.663045			-0.280986			-0.0908536			-0.909338			-0.044677			0.665316			-0.845456			-0.339956			-0.297817			-0.0444543			-0.35287			-0.447677			-0.204746			-0.487269			0.176382			0.0692175			0.769032			0.346732			0.248484			-0.391517			0.802368			0.820131			0.0526029			0.607714			-0.542612			-0.490137			-0.586175			-0.225747			-0.209985			-0.00766109			-0.452997			-0.585771			0.077639			-0.216222			0.426355			0.248719			0.0623562			0.171781			0.46611			0.807183			0.177589			0.0654456			0.634708			0.562504			0.0331564			0.0274201			-0.238363			-0.0930255			-0.589085			-0.410767			0.656101			0.0182468			-0.42313			0.975431			-0.758223			0.567151			0.569819			0.66349			0.106589			-0.392684			-0.109607			0.291248			0.288135			0.627601			-0.140208			-0.170974			0.375089			0.10577			0.66207			-0.690328			0.0311013			-0.170248			0.197877			0.742719			0.582235			0.115222			-0.2245			0.265436			-0.882282			0.139701			-0.323173			0.143535			-0.830217			-0.648738			-0.238332			-0.125916			0.560721			0.200347			0.783326			-0.342011			-0.169558			0.163596			0.0775037			0.108567			-0.256944			-0.197815			0.7566			0.811942			0.0526407			-0.175454			-0.646928			0.513836			0.110893			0.444742			0.507114			0.905771			-0.323722			0.453414			0.267223			-0.620514			0.100121			-0.300461			0.307574			0.365778			0.139187			0.222037			-0.352189			0.725127			0.25777			-0.165069			0.135723			0.48495			0.361035			-0.594705			-0.529644			-0.0821952			0.0713849			0.48986			-0.184149			-0.500299			0.135797			-0.117263			0.28373			0.855464			-0.660357			0.318419			0.135391			-0.141602			0.0948294			-0.625208			0.325564			0.821055			0.241009			0.613666			0.662004			-0.152807			-0.389339			0.277414			0.0722185			0.0998613			-0.172839			-0.551353			-0.465768			-0.545625			-0.202841			-0.0543901			0.129031			0.710817			-0.0909447			0.180864			-0.0678884			-0.157205			-0.381135			-0.020153			-0.187593			0.625759			-0.114906			0.180979			-0.267796			0.117769			-0.171301			-0.708019			0.466997			-0.0194354			-0.0988268			-0.132352			-0.0869324			-0.189282			-0.532564			-0.275041			0.663765			0.0428591			0.0364743			0.118902			0.433682			0.794884			0.102726			0.131042			-0.367608			-0.684366			0.257694			-0.333939			-0.108993			-0.0974074			-0.154727			0.0857059			-0.435172			0.340202			-0.0159563			0.117324			-0.479556			-0.59915			-0.781977			-0.072082			-0.0465337			0.498603			-0.394477			0.294938			0.681608			-0.0403872			-0.34515			
0.227705			0.294818			-0.142511			0.416723			0.642315			0.0625077			0.657912			-0.407318			0.577006			0.274212			0.112814			-0.580214			-0.525213			0.182777			-0.425532			0.372524			0.216538			0.475839			0.802922			-0.372432			-0.28977			0.166815			-0.316141			-0.183714			0.336173			-0.513552			0.386008			0.451033			0.251094			-0.506876			0.432572			0.683732			0.115146			-0.089889			0.191169			0.689689			0.198535			-0.0347022			0.0363514			-0.32448			-0.0251388			-0.371524			-0.0575211			0.141853			-0.37641			-0.545065			-0.86983			0.393504			-0.45305			-0.594313			-0.516168			-0.200523			0.92929			-0.584386			-0.374573			-0.04989			-0.673194			0.110096			0.262219			-0.371773			-0.309107			-0.412217			-0.18902			0.13622			-0.246586			0.239237			-0.490897			-0.261597			-0.16105			0.785544			0.290041			0.0182447			0.105204			0.640734			0.503414			-0.259769			-0.16586			-0.332058			-0.637362			-0.0202334			-0.528819			-0.621297			-0.464342			-0.298963			-0.842262			0.586676			-0.0444021			0.0833866			0.00177411			-0.689722			-0.232026			0.592161			-0.309189			0.237188			-0.0903897			-0.373048			-0.32858			-0.252943			-0.472053			-0.282064			0.0876828			-0.981251			0.431484			-0.533142			0.288611			-0.662904			-0.015331			0.540973			-0.015778			-0.662738			0.737747			-0.170619			-0.448068			-0.191643			-0.300914			0.353252			0.600665			0.234386			0.604437			-0.104198			-0.0964683			0.318833			-0.0814495			-0.126861			0.921189			0.217247			-0.229152			-0.356932			-0.716072			0.356907			0.0574018			0.336041			0.305814			-0.0115452			-0.230062			-0.479485			0.500216			-0.41241			-0.398643			-0.256643			-0.602587			0.546436			0.500589			0.259225			-0.215343			-0.97474			-0.0943529			-0.453527			-0.565103			-0.0645556			-0.2468			0.0259443			0.0917279			-0.186106			0.770708			-0.324007			0.255366			0.0104727			0.392358			0.0366751			-0.233409			0.0823938			0.296316			-0.328453			-0.402198			0.3448			0.722668			0.142233			-0.273703			-0.616718			0.31859			0.236146			0.769839			0.144369			-0.603222			0.0591208			0.472579			-0.136041			0.18648			-0.615119			-0.170735			-0.30312			-0.817359			0.772708			0.0426131			-0.340343			-0.0809763			0.0921274			0.0325485			-0.611251			-0.442549			0.343106			0.936375			0.553904			-0.605604			0.0832495			0.68863			0.738747			0.125673			-0.0424023			-0.297011			0.657388			-0.115092			0.33548			-0.740944			-0.249698			0.691329			-0.728491			0.408863			-0.836078			-0.666721			0.994929			0.0509061			0.38261			0.254319			0.561639			-0.452497			0.260273			-0.522377			-0.296045			0.257424			0.363435			0.262367			-0.317191			-0.0316662			-0.148773			-0.763827			-0.222183			0.101731			0.889094			-0.694712			-0.36054			-0.114796			0.42334			0.431923			-0.268534			-0.145573			0.199816			-0.632618			0.0941064			-0.0990298			-0.142831			0.021768			-0.463039			-0.288186			0.411238			0.897974			-0.356955			0.388495			-0.297783			
0.021558			-0.341569			0.544449			0.512207			-0.0746925			-0.118762			-0.47611			-0.162192			-0.482052			0.868004			0.181565			-0.610896			0.446744			0.0883632			0.887137			0.848811			-0.519056			-0.177898			-0.269098			-0.0788536			-0.0976995			0.043503			-0.22122			-0.0926639			0.417782			-0.050469			0.417836			-0.230144			0.110608			0.653316			0.0369915			-0.982417			0.480204			-0.854224			0.330593			0.742474			-0.793511			-0.0204277			0.14283			-0.0515517			-0.64284			-0.487258			0.761945			0.484345			-0.0639267			-0.227266			0.0438589			0.651074			-0.469418			0.292978			0.347044			0.183612			0.658371			-0.530816			-0.355824			0.211637			0.0588713			0.408045			0.319372			-0.191458			-0.151536			-0.390375			0.60236			-0.758258			-0.442373			0.282918			0.199809			-0.0684784			0.0113654			-0.128689			0.434506			-0.11163			-0.473894			-0.568713			-0.0741365			-0.480619			0.489264			0.265153			0.0136742			-0.897285			-0.49843			-0.845496			0.417866			-0.229593			-0.401267			-0.278503			-0.113912			-0.246912			-0.403262			0.31115			0.209605			0.340896			-0.573022			0.423704			0.761229			-0.964999			-0.342			0.796885			-0.258254			0.051773			0.470015			0.0273331			-0.240846			0.463837			-0.627358			0.781268			-0.416974			-0.379866			-0.573682			-0.254101			-0.851775			0.181626			0.868711			-0.283386			0.401902			0.414511			-0.040204			0.868742			0.0667696			0.229036			-0.12013			0.770658			0.543768			0.203918			0.38073			0.164958			-0.588234			0.314293			-0.137878			0.11512			0.519142			0.273637			0.584051			0.311496			0.448026			-0.191688			-0.0379369			-0.458993			0.290138			-0.0490622			-0.435514			-0.329313			-0.28467			-0.111558			0.308735			-0.39754			0.000525377			-0.444545			-0.657518			-0.628192			-0.607802			-0.137016			-0.986118			0.482813			0.360773			0.462148			-0.241756			0.0180608			0.0440652			-0.490248			-0.455279			-0.424362			-0.515558			0.876719			-0.1081			0.257466			0.534472			0.0954567			0.0708746			-0.071773			-0.880183			0.136044			0.441518			-0.0303115			0.412371			0.264847			-0.176817			0.604957			0.514529			-0.736629			0.799312			0.72315			0.332288			-0.979407			0.701641			-0.595094			0.0226181			0.0331336			-0.834631			0.685051			0.519695			-0.0135339			-0.148224			0.100212			0.753642			0.44572			0.103632			0.0234606			0.844485			0.201914			0.171373			0.58563			0.132012			-0.0648859			0.584087			-0.546071			0.376947			0.482683			-0.370406			0.200515			0.0718145			-0.0204157			0.570437			0.280887			-0.148599			0.541917			0.411124			0.311464			0.0694106			0.00451618			0.235679			0.24327			0.22201			-0.22986			-0.83015			0.789521			0.139036			0.0592505			-0.494835			-0.969616			0.403914			0.0565547			0.818373			-0.521036			0.441368			0.862179			0.0752513			-0.0269353			-0.686128			-0.185979			0.312944			0.506225			-0.160476			-0.324738			-0.0318602			0.104241			-0.195005			-0.729271			-0.344165			-0.560973			
0.55946			0.318361			0.285396			0.109558			-0.462561			0.277352			0.446115			0.195801			0.250311			0.458417			-0.427817			-0.432173			-0.164754			0.482939			0.0351248			-0.44014			-0.744045			-0.199237			0.507158			-0.664812			0.313608			-0.258897			0.0905959			0.0885246			-0.0547378			0.176036			-0.459449			-0.769992			-0.606351			0.380542			-0.698479			-0.327858			0.108183			-0.25398			0.180564			-0.060352			-0.430676			-0.0467843			-0.049189			0.860782			-0.402811			-0.683732			-0.524348			0.722452			0.309614			0.037296			-0.0620647			-0.668455			-0.399726			-0.811393			-0.725001			-0.199551			-0.142848			-0.0772758			-0.102408			-0.255848			-0.496501			0.894246			0.108933			0.361403			-0.156924			0.401585			0.293443			-0.51468			-0.1348			0.413947			-0.908178			-0.71438			-0.669275			0.0673223			-0.636507			-0.0716373			-0.223791			-0.222623			0.167993			0.107284			0.304203			0.0196629			0.971556			-0.130516			-0.859763			-0.0279519			-0.507649			0.104135			0.355738			-0.161912			0.600506			-0.531622			0.0890968			0.084339			0.166798			-0.662304			0.374651			-0.451111			-0.137209			0.556558			0.512439			-0.332999			-0.444789			0.0746614			0.224227			0.335788			0.499585			-0.593489			0.523735			-0.651803			-0.881463			0.330793			-0.00848595			0.170566			0.133814			0.139348			0.308661			-0.41074			0.50668			-0.969857			-0.133234			-0.270141			-0.384396			-0.263317			0.126176			-0.306961			0.664007			-0.231535			-0.654878			-0.327495			-0.228585			-0.432043			0.0424735			0.437706			-0.229671			0.0249585			0.671743			-0.183921			-0.222554			-0.0537486			0.199687			0.196455			0.822991			-0.200192			-0.192135			0.547635			0.15217			-0.0717344			-0.217146			0.011729			-0.646188			-0.57102			-0.141292			-0.0441459			-0.323458			0.872091			0.326927			-0.722978			0.221558			0.657825			-0.138812			0.363693			0.726516			-0.0528604			-0.259828			0.645201			0.0386991			0.50871			-0.589332			-0.118825			-0.510979			-0.827715			0.26359			-0.129296			0.0200935			-0.378745			-0.419139			0.533827			0.31542			-0.3286			-0.378253			-0.178867			-0.236147			0.105311			0.43062			-0.241216			0.891753			-0.533234			-0.798059			0.0141048			0.0939572			-0.583283			0.289829			0.561072			0.889495			-0.765184			-0.167024			0.155282			0.847418			-0.261588			-0.459607			0.0753035			0.371497			-0.0331559			0.489866			-0.531218			0.00595734			-0.0694046			0.636478			0.382851			-0.140536			-0.426824			0.067686			0.556334			0.855568			0.331723			-0.628388			-0.240454			0.331772			-0.355566			-0.867104			-0.182469			-0.0303044			-0.377474			-0.393622			0.310077			0.985451			0.77744			0.79865			-0.512508			-0.746959			-0.403077			0.798949			-0.61722			0.405877			0.0394953			-0.339525			-0.330725			0.313395			0.500817			-0.677957			-0.309526			0.0841118			-0.08342			0.204482			-0.212504			0.357632			0.109697			0.227472			0.318479			-0.908313			-0.181712			0.134122			0.46459			
0.276284			0.374024			0.659397			0.0281905			-0.2666			-0.441122			-0.718532			-0.372947			-0.517137			0.669495			0.424433			0.289135			-0.982501			-0.764915			-0.00733278			-0.295958			0.157728			-0.151888			0.491138			0.268579			-0.434079			-0.531959			-0.00894931			-0.597718			0.184917			-0.114614			-0.102397			0.560063			0.613471			0.219339			0.0516826			0.915356			0.634725			-0.717186			0.034584			0.868724			0.0758429			-0.0988909			-0.290271			-0.358741			0.316555			-0.189589			0.276518			0.0244467			-0.224383			-0.404593			-0.310984			-0.198936			-0.00223543			0.466624			-0.242572			-0.706224			-0.216541			-0.449946			0.497182			0.283947			0.211404			0.135845			0.0706742			-0.399055			0.0117924			0.183014			-0.0200874			-0.105769			0.975896			-0.869417			0.245966			0.82004			-0.340746			-0.0828101			0.692259			-0.157238			0.387224			0.0503897			0.429297			-0.38867			-0.136769			0.346926			0.182637			-0.210121			0.0133358			-0.493463			0.696609			0.436081			-0.548046			-0.123329			0.822907			0.803407			0.240952			-0.034592			-0.333791			-0.218591			0.727405			-0.399927			-0.900094			-0.0357973			-0.377705			-0.148507			-0.313896			-0.304137			0.0197943			-0.720316			-0.0951903			-0.16473			-0.223109			-0.297971			0.489771			0.319495			0.410302			0.197815			0.362162			0.611482			-0.631551			-0.725976			0.165736			0.264618			0.183439			0.47681			0.0793969			0.791665			0.644447			0.0912517			0.0817599			-0.269902			-0.154952			0.10396			0.697831			0.88437			-0.634399			0.559869			0.0129422			-0.154156			-0.431476			-0.609224			-0.400321			0.350409			0.472943			0.053861			-0.559392			0.501795			-0.387177			-0.376294			0.60324			0.00448181			0.344576			0.320321			0.0977105			-0.862065			-0.489269			0.400053			-0.75222			-0.224535			-0.425376			-0.337821			0.00302487			0.216259			0.147399			-0.150413			-0.181726			0.736857			-0.331708			-0.420606			-0.198916			-0.0367078			-0.344696			0.0601782			0.297904			0.796473			0.23057			0.283961			-0.595095			-0.204762			0.369802			-0.260428			-0.140949			0.166784			0.078541			-0.70863			0.464763			0.163527			0.282408			0.446526			0.198909			-0.206398			0.575586			0.990761			-0.115104			0.622196			0.121028			0.383096			-0.318019			0.185419			-0.0116396			0.0151656			-0.66161			0.977595			0.0249377			-0.111002			0.28653			-0.870668			0.0220914			-0.34469			0.142526			0.0468048			-0.263435			-0.780615			0.129529			0.849793			-0.369171			0.0650593			-0.861702			0.11528			-0.0912456			0.136748			-0.149238			0.515149			0.996451			0.0784626			-0.11734			0.0616733			-0.69178			-0.220427			-0.0979397			0.0821362			0.395276			-0.217556			0.201145			-0.13589			-0.155547			-0.321444			0.285711			0.0968543			-0.34016			0.201332			-0.00290916			0.312819			-0.378148			0.283759			-0.928391			-0.0608778			0.254472			-0.00740053			-0.126071			-0.400053			0.899399			0.399249			-0.154465			0.0605013			-0.867826			0.45305			
-0.24164			0.215091			0.299364			-0.479449			-0.590138			-0.410756			-0.384048			-0.101662			0.171234			0.296174			-0.400634			-0.42885			0.0831665			-0.103813			-0.209383			0.155358			0.0760773			0.516306			0.708109			0.529281			0.0412715			0.144295			-0.69928			-0.668797			0.38701			-0.412158			-0.397094			0.34161			0.1431			0.155761			0.0190999			0.297441			0.363211			0.605988			-0.625975			-0.38342			-0.40938			0.48196			0.224598			-0.212027			0.608105			-0.438027			-0.143959			0.178487			0.197781			-0.141785			-0.203027			0.575318			-0.141631			0.211267			0.387001			-0.592028			0.865643			-0.17523			-0.252422			-0.0833632			0.367764			-0.508479			0.465818			-0.165326			0.785111			0.440413			-0.337434			-0.354948			0.33707			-0.513328			0.838966			0.214086			-0.37619			-0.98904			-0.193668			0.601141			0.561818			0.429639			-0.291708			-0.0811205			0.0579782			0.242891			0.68914			0.33345			0.469867			-0.315016			0.49214			-0.00416294			-0.14425			-0.119037			0.208304			-0.173777			0.412275			0.778499			-0.139378			-0.049167			-0.594051			-0.644775			0.652815			-0.399149			-0.639977			0.511328			0.650308			-0.470498			0.801802			0.0524055			-0.10792			0.717898			-0.921149			-0.47294			0.0822341			0.167235			0.413148			0.57257			5.37615e-05			0.969651			-0.46521			0.206299			0.351889			-0.01267			-0.674698			0.351232			-0.312044			-0.526618			-0.469067			-0.0799846			-0.490622			0.5782			0.519001			-0.393418			0.375199			0.61161			0.507988			-0.498467			0.216885			0.432134			0.333396			0.291685			0.030585			-0.270431			0.485332			0.4916			0.214436			-0.273792			0.187935			0.281503			-0.517746			0.533278			-0.101105			-0.131816			-0.00946309			0.239221			0.103866			0.825417			0.481399			-0.169996			-0.421106			-0.0578935			-0.355053			0.591421			0.501628			0.338576			-0.533913			-0.0550235			0.0755222			-0.56137			-0.065401			-0.804043			-0.047571			0.403031			0.389534			-0.329691			0.0961394			0.342526			0.356083			-0.309763			-0.61916			0.324521			-0.572878			-0.154868			0.347146			0.123975			0.545239			0.173795			0.136158			0.160112			-0.159115			0.634912			0.0487118			-0.175461			-0.0157545			-0.636406			-0.392073			-0.326093			-0.0771821			-0.0538452			0.169637			-0.473148			-0.304563			-0.213427			0.365021			0.826879			0.048215			0.054431			0.378386			0.393595			-0.14507			-0.418327			0.959224			-0.912797			0.429922			-0.664897			0.15555			-0.0309517			-0.826995			-0.64951			0.980845			-0.176313			0.974562			0.378344			0.141877			-0.182944			-0.7152			-0.913797			0.996804			0.966638			0.589643			-0.684915			0.200108			-0.00653066			-0.316585			0.362939			-0.0994333			-0.147382			0.215573			-0.15616			-0.0112221			-0.298403			-0.0232502			0.0152494			-0.146495			0.0900479			-0.186255			-0.317492			0.831626			0.242175			0.857832			-0.094776			0.246343			0.202151			0.0872297			-0.361078			-0.00340276			-0.625244			
-0.268049			-0.215104			0.726778			0.0948622			0.203475			0.33451			0.352542			-0.028639			-0.129027			-0.829248			0.180668			0.412913			0.205276			0.443912			0.437101			0.644825			-0.502726			-0.140907			0.553469			-0.250143			-0.130075			-0.450854			0.658567			-0.105592			0.760304			-0.039972			0.000855324			-0.0912434			-0.532373			0.49878			-0.972839			-0.52729			0.366541			0.733308			-0.31171			-0.155781			-0.598522			0.269235			0.0252535			-0.108463			-0.644946			0.620654			-0.0905161			0.26715			-0.269652			-0.230331			0.439372			0.162674			0.365278			0.51346			-0.225997			0.553842			-0.157239			-0.141679			0.135682			-0.157516			-0.574191			0.663473			-0.0551241			-0.364799			0.192784			-0.182293			0.571764			0.210307			0.0942635			0.428304			-0.623751			0.426253			-0.23735			-0.0605169			-0.363149			0.125323			0.52279			0.5716			0.123094			0.483556			0.312771			-0.100622			-0.455958			-0.0703504			0.504031			-0.358345			-0.643817			-0.377615			-0.244529			0.132792			0.209174			0.663129			-0.458511			-0.088505			-0.598561			0.554317			-0.191729			-0.0725796			-0.323574			0.418409			-0.717511			0.197134			0.545113			0.324657			0.158595			0.44879			0.0513236			-0.705982			-0.282335			-0.0466783			0.510448			0.243128			-0.116401			-0.474536			-0.555604			-0.74829			-0.252415			0.783663			0.473403			0.236168			0.0356157			-0.0902901			0.109218			-0.594143			-0.625992			-0.796194			-0.143326			0.407376			-0.421314			0.23578			-0.012761			0.149371			0.486602			0.44161			-0.0334435			0.0496505			0.467683			-0.195574			-0.744347			0.402028			0.885572			-0.0344954			-0.156026			-0.00358848			-0.681215			0.0234644			0.226083			-0.636613			-0.55876			0.0373956			0.842098			0.404855			-0.653523			0.0230341			0.428271			-0.0856273			-0.785914			-0.116013			-0.0626192			-0.353158			0.164711			0.129503			0.592825			-0.405265			0.111867			0.309714			-0.818288			0.0997356			-0.0345879			-0.16792			-0.147458			-0.639687			-0.129095			-0.149432			0.438674			-0.460504			0.0290275			-0.708713			0.640211			0.541411			-0.673627			-0.132069			-0.513221			-0.0564392			0.70262			-0.383978			0.284924			0.62076			0.175892			-0.911035			0.295052			-0.225901			0.27335			0.445654			0.18666			-0.0163661			-0.262827			0.191511			-0.179242			0.188529			0.121377			-0.0256004			0.59235			0.228322			0.251799			0.342131			0.160084			0.136938			0.631518			-0.146869			-0.259567			0.987009			0.0923578			-0.364631			0.276762			0.195812			0.18854			-0.0278856			-0.519687			-0.187794			-0.355888			-0.183274			-0.142804			0.844811			-0.012164			-0.134042			0.838519			-0.716363			0.164019			0.0500953			-0.621069			0.0129081			-0.0270883			0.368998			0.789029			-0.00729193			0.667313			0.5686			-0.432808			-0.095091			0.0137724			-0.442043			0.25001			0.278104			-0.0172328			-0.362482			-0.203108			0.830035			0.340782			-0.527824			0.23532			-0.0732862			-0.0396372			0.117104			
0.490769			0.095182			-0.811855			-0.209241			-0.109899			0.0148231			0.18193			-0.181953			0.179619			0.185891			-0.653401			-0.750568			-0.943849			-0.648278			-0.105264			-0.235229			-0.528241			0.211319			-0.202046			-0.931096			0.772094			-0.632098			-0.13987			0.0286806			0.517055			0.0808429			0.760864			0.588138			0.341476			-0.512178			0.160066			-0.203924			-0.997708			-0.253874			0.172093			-0.568678			0.0238881			-0.234082			0.0921029			0.189417			-0.55898			-0.770933			0.0337849			-0.353966			0.209113			0.613232			-0.29252			0.218405			-0.483312			-0.282872			-0.33336			0.606702			-0.605708			-0.058888			0.621938			0.196356			0.33495			0.260014			-0.356496			-0.130828			0.168609			-0.450122			-0.159175			-0.316112			0.465306			-0.295204			0.595136			-0.390019			0.286202			-0.358031			0.200668			-0.271044			-0.728076			0.844269			0.166416			-0.46431			-0.277827			0.705748			-0.535439			0.577534			0.275531			-0.256476			0.000417882			0.34354			0.831307			0.0105472			-0.0800615			-0.361633			0.166003			-0.0162901			0.397675			-0.602596			-0.492469			0.536165			-0.507055			-0.19129			-0.936536			-0.85965			0.913292			0.153508			0.453295			-0.770935			0.563862			-0.408913			0.548999			-0.364736			-0.858631			-0.416999			-0.416493			-0.280369			0.751603			-0.00788459			-0.244123			0.814322			-0.482477			-0.377479			-0.208209			0.735694			-0.464479			0.621189			0.688874			-0.70334			-0.1835			-0.685533			-0.534047			0.166162			0.170913			0.466498			0.305856			-0.048272			-0.644675			0.487051			0.511408			0.0967846			-0.152161			-0.222802			-0.375868			-0.00766969			-0.298373			-0.489797			0.234251			-0.0104614			-0.599977			0.30608			0.419532			0.661891			-0.261815			0.483161			0.380358			0.118073			0.484204			0.272914			0.197253			0.241939			-0.232945			-0.617691			-0.1147			-0.858841			0.260578			0.125108			-0.783551			0.0135068			0.274438			-0.562659			-0.599244			-0.566828			0.555898			0.523448			-0.801013			0.36489			0.833952			0.744744			-0.079551			0.386559			0.716624			-0.367405			0.310959			0.13119			0.180917			0.263603			0.672754			-0.311625			-0.475352			-0.0702465			0.450147			0.640541			-0.0773842			-0.347951			0.44843			0.550471			0.396601			0.112909			-0.0920813			-0.0104804			0.663403			0.467272			0.545365			-0.0278744			0.297091			-0.284142			-0.418764			0.234402			-0.825052			0.182838			0.975864			0.879394			0.739915			0.658838			-0.973687			0.56368			0.270053			-0.263333			0.13401			0.0716467			-0.492606			0.920757			-0.075293			-0.174091			-0.14473			-0.638435			-0.4854			0.10188			-0.216667			0.133047			0.352171			0.303429			-0.503747			0.237874			0.932815			-0.623734			0.44781			0.811765			-0.239244			-0.366052			0.873371			-0.132307			0.589894			-0.550781			0.123599			0.0674526			0.164783			0.165659			-0.10463			0.422224			-0.419708			0.296635			0.302786			0.244596			0.665697			-0.394701			
-0.873534			0.385312			0.966499			0.104062			-0.331251			-0.41782			-0.0671319			-0.0749001			-0.814267			-0.509563			0.260987			-0.0859352			-0.18641			0.614208			0.161239			0.930906			-0.0602815			-0.045228			0.502907			0.192276			0.684039			-0.761619			0.342428			-0.318263			0.27077			0.383295			-0.10647			-0.418767			0.477918			-0.838609			0.296445			-0.0258428			0.313699			0.280306			0.33377			0.490217			0.146585			-0.308383			0.144271			-0.864583			-0.642543			-0.337948			-0.326913			-0.0916476			-0.116982			-0.0509504			0.02194			-0.650611			-0.355969			-0.558694			-0.340892			-0.179856			0.0603392			0.146524			0.262988			0.00415964			-0.0256264			-0.269008			-0.60849			0.198902			-0.362726			0.535233			0.18647			-0.248367			0.840513			-0.48629			0.328181			0.427923			0.0587388			0.598651			-0.12424			-0.936341			0.589691			0.000458028			-0.687158			-0.108935			0.207775			-0.0824055			-0.526568			0.353999			0.86565			-0.1847			0.754571			-0.288946			-0.45425			0.193235			-0.0718269			-0.36466			-0.508608			-0.604085			-0.187118			-0.158452			-0.320187			-0.770359			0.568975			-0.47567			-0.518001			0.728277			0.112969			-0.74044			0.160354			-0.615692			-0.141596			-0.550122			0.280074			-0.262979			-0.481935			0.575602			0.0383662			-0.271116			0.0705139			0.354792			0.121492			0.0656872			-0.397544			0.328974			-0.311872			-0.134668			0.101523			-0.4379			0.618967			-0.33724			-0.684629			0.215693			-0.115685			0.201028			-0.746063			0.0970025			-0.495263			0.100163			-0.287049			0.245325			0.108581			0.098598			0.344992			0.418317			0.283743			0.0562774			-0.569342			0.467378			-0.0234702			0.689866			-0.39707			-0.043405			-0.0684556			-0.641139			-0.0176988			0.767178			-0.145569			0.51016			-0.310357			-0.0682082			0.996279			0.727896			0.611113			0.0547754			0.903634			0.0320412			-0.603866			0.662773			0.87079			-0.273232			0.160162			-0.406817			-0.130486			-0.355189			0.618901			-0.597221			0.385329			-0.0838869			-0.339659			-0.0659967			0.260183			-0.318267			-0.271166			0.58422			0.108495			-0.00141824			0.0186678			-0.0318545			0.130847			0.124004			0.577819			-0.402216			0.247511			0.0557025			-0.153951			-0.174628			-0.823893			0.389971			-0.827931			-0.360899			-0.724635			-0.503108			-0.244455			0.14443			0.731821			0.356093			0.184924			0.53434			0.509988			0.113816			0.522455			-0.520105			-0.429799			0.390714			-0.0862105			0.963389			-0.28792			-0.0993013			-0.90693			0.131114			-0.23129			0.165519			-0.292116			-0.316205			0.652651			0.113077			-0.0879289			-0.401246			-0.267953			-0.0632398			0.231003			0.671924			0.335662			-0.224094			0.464108			0.03817			0.175111			0.107112			-0.0386772			0.174671			0.507541			0.988378			-0.167732			-0.1232			0.0785947			-0.53976			0.199669			0.764103			0.164558			-0.193158			0.0115455			0.0675019			-0.241275			0.305306			-0.229652			-0.933821			-0.201117			-0.240862			
0.552282			0.0918459			0.025615			-0.0722371			0.44623			0.353805			0.654739			0.971101			-0.605625			-0.997541			-0.173807			-0.189064			0.161895			0.967263			0.8684			0.378197			-0.536882			-0.340538			0.637364			0.443626			-0.812024			0.641799			-0.0533992			0.31774			0.0595472			-0.716426			-0.0312169			-0.344929			0.640098			-0.749878			0.0716862			0.030367			0.368351			0.299736			-0.336885			-0.806677			-0.119182			0.570547			-0.0241152			-0.496521			-0.65293			0.725008			-0.389065			0.646472			-0.339421			0.215604			-0.0196121			0.0794475			0.91276			0.324787			-0.169622			0.0852137			0.322863			-0.218734			0.542861			-0.792003			0.607626			-0.194029			-0.0400825			0.392472			-0.331139			-0.049372			0.553853			0.140572			-0.22891			-0.325971			0.531872			0.32598			0.569425			-0.062314			-0.465741			-0.264776			-0.0872847			-0.601107			-0.42075			0.335819			0.820292			0.556651			-0.290556			0.0831949			0.254295			0.107351			0.555353			-0.614986			-0.283439			-0.0333973			0.425494			0.789774			-0.352041			0.325276			0.31867			-0.0115829			0.00686349			0.499689			0.273315			-0.595855			-0.175674			0.367856			-0.308601			0.709427			0.315223			-0.195936			-0.377432			0.0142317			0.383859			-0.414554			-0.313214			-0.317294			0.0520176			-0.291619			-0.379945			0.624195			-0.386977			-0.0411951			0.0610111			0.410981			0.0838188			0.683436			0.146456			0.131597			-0.838027			0.232294			-0.275461			-0.704501			0.350612			0.744643			-0.266305			0.00975762			0.0568624			0.957743			-0.267893			0.0382542			0.342776			0.90264			0.140703			0.612709			0.52542			0.115094			0.40857			0.139261			0.450996			-0.447523			0.349636			0.00390851			0.0652183			0.00159017			-0.0538021			-0.138235			0.179367			-0.759002			-0.330313			0.770723			0.537384			0.12945			0.535465			-0.460276			0.381295			-0.131303			0.217794			0.4697			-0.496825			0.0815344			0.115116			-0.991864			-0.00338081			0.7055			-0.151314			-0.435626			0.0452455			0.729675			-0.0146728			0.28884			-0.75401			0.134858			-0.612664			0.647462			-0.604571			0.596192			0.657413			-0.513861			0.247744			0.915097			0.384547			0.32736			-0.257733			-0.15839			-0.424654			0.634314			0.144785			-0.312802			0.271134			0.510927			0.0213315			0.754579			-0.559974			-0.263001			-0.0313107			0.119649			0.0984113			0.0201132			-0.0184173			0.385153			-0.410605			-0.996497			-0.689922			0.300926			0.417325			-0.382849			0.107759			-0.621172			0.226338			-0.630178			0.734146			0.694822			-0.165157			-0.469508			0.040034			-0.841424			-0.099991			-0.547679			-0.827701			-0.550392			-0.82045			0.285233			-0.844653			0.442303			0.639797			-0.825839			0.0300104			0.29511			-0.181746			-0.400818			0.358396			-0.30979			0.0861806			-0.266619			-0.186399			0.383877			0.0107227			0.536402			0.975759			0.782183			-0.327531			-0.101787			0.446327			0.445647			-0.623588			-0.301991			0.469866			-0.180712			
0.678179			-0.205067			0.501063			-0.23453			-0.441541			0.579052			0.478054			0.663829			0.266584			-0.396223			-0.258377			-0.327007			0.147055			-0.59612			-0.388621			0.0899901			0.0262513			0.463414			-0.376954			-0.439619			-0.232413			0.321764			0.292175			0.778659			0.0169918			0.203537			-0.206024			0.0893148			0.130961			-0.229015			-0.525			0.456206			-0.517371			0.941306			0.250946			-0.811792			0.157216			-0.0605582			0.603748			0.363092			-0.596679			-0.15694			-0.908425			0.440586			0.467517			-0.11568			0.769244			-0.229394			0.00588888			-0.756031			0.331043			-0.168828			-0.291834			-0.17527			0.360609			-0.345775			0.726477			0.262374			-0.276742			0.164423			-0.217485			0.513077			-0.0739847			0.116995			-0.36678			-0.11577			0.593283			-0.674797			0.611023			-0.399282			-0.859779			-0.74934			-0.149946			0.22502			-0.17841			-0.0982689			0.320563			-0.559656			0.227034			0.686787			-0.311955			-0.411985			0.450855			-0.432444			-0.725204			-0.130873			-0.49668			-0.158017			0.460031			-0.0525742			0.00918365			0.658938			-0.0484331			0.532786			-0.496749			-0.543064			0.0993367			0.116097			-0.219887			-0.292263			0.269668			-0.0463247			-0.839942			-0.567718			-0.613603			-0.693019			-0.926779			-0.350297			-0.137925			0.134701			-0.166615			-0.0447285			-0.136952			0.725709			-0.464432			0.986193			-0.46811			0.230845			-0.690364			-0.574751			-0.187276			0.301409			0.149798			-0.795014			0.36019			-0.593584			-0.326898			0.102105			0.0825425			0.485493			0.0438016			-0.0535417			-0.41324			-0.791733			-0.98902			0.0655683			-0.277517			0.457717			0.978289			-0.402398			0.702924			-0.47418			-0.601372			0.271672			-0.00672896			-0.283614			0.380698			0.296646			0.277154			-0.074346			-0.731109			-0.302795			0.761432			-0.390942			-0.240439			-0.0476066			-0.89105			-0.361477			0.207082			-0.225617			0.373468			-0.476459			0.664985			-0.204677			0.702812			0.16622			0.434034			0.257255			-0.410827			0.09627			-0.248339			-0.339918			-0.882905			-0.704002			-0.651421			-0.872956			-0.279287			0.176021			0.366072			-0.0455753			0.627089			-0.519082			0.613494			0.464471			-0.323878			-0.254809			-0.32599			0.22565			-0.104888			-0.238533			-0.251472			-0.070437			0.284278			-0.812849			0.207378			0.223404			0.735388			-0.300513			0.117224			0.550627			-0.466339			-0.0100435			-0.0997867			-0.71134			0.244314			-0.467073			0.113301			0.126463			-0.402148			0.506154			0.0908879			0.850474			-0.187673			-0.177722			-0.361821			0.497426			-0.130585			0.636514			-0.372283			-0.0649331			0.914961			0.190646			0.0763616			0.0613116			0.950888			0.0477288			-0.201264			0.384476			-0.708985			-0.409538			0.661783			-0.783277			0.351507			0.492632			-0.210698			0.0805859			-0.21932			-0.191091			-0.135287			-0.456196			-0.565257			0.244496			0.904338			0.462262			0.0794407			0.0614296			-0.122246			0.821465			-0.0685077			-0.0162125			
-0.00767143			0.337548			-0.897985			0.739315			-0.613083			-0.594786			0.185922			-0.67234			-0.361424			0.13994			0.263554			0.696478			0.714661			-0.838742			0.827725			-0.488163			0.494829			0.147947			-0.447183			0.163165			-0.543774			-0.00924718			-0.667437			0.511822			0.0319149			0.835741			0.144337			-0.00195118			0.807012			-0.314599			-0.322856			-0.65221			0.45567			-0.491061			-0.0105581			-0.0756225			0.374399			-0.171347			-0.180359			0.139292			0.479776			-0.348436			-0.994241			-0.371415			0.191479			-0.0143584			0.632596			-0.36323			-0.925813			0.507261			-0.0780025			-0.799063			0.33261			-0.65423			0.602666			-0.0893724			0.431279			-0.0487157			0.190767			0.879189			0.22429			0.111325			0.0429215			-0.6684			-0.667112			0.173275			-0.425142			0.343163			0.174385			0.182972			-0.86342			-0.729005			-0.941867			-0.0220211			-0.650651			-0.399877			-0.122021			0.609262			-0.186881			0.263117			0.0203347			-0.156002			-0.40475			0.920365			0.598784			0.411745			-0.456436			0.22623			-0.390497			-0.144781			-0.0033252			-0.122878			-0.0650935			-0.354896			0.917939			-0.299641			0.534421			0.337208			-0.360864			0.175844			-0.241062			-0.743741			-0.0816226			0.227339			0.302689			-0.492706			-0.473594			0.535566			0.184821			-0.020748			-0.51474			-0.541188			-0.468951			0.66545			0.13248			0.290811			0.361502			0.118136			0.073552			0.809987			-0.788625			0.153965			-0.596191			0.294573			-0.155414			0.056914			-0.503034			-0.1888			-0.13405			-0.0103372			0.547583			0.595099			-0.0685048			0.287825			-0.405701			0.111874			-0.398735			0.0683767			0.088343			0.322103			-0.053432			-0.133439			-0.914961			-0.857757			0.0486309			-0.517749			0.470927			-0.215249			0.259676			-0.170678			0.509615			-0.126638			0.103162			0.665846			0.160272			0.0504164			0.641101			-0.235032			-0.313127			0.127036			-0.585115			0.164561			-0.342165			0.385245			-0.0209209			0.648701			-0.378472			-0.929391			-0.630762			-0.434297			-0.0983785			-0.0164348			0.0699757			-0.203319			0.323108			0.275916			0.132444			-0.0427356			-0.358765			0.400088			-0.156252			0.319742			-0.411053			-0.65668			-0.166259			0.70252			0.435415			-0.805494			0.0300199			-0.218197			-0.439517			0.50006			0.0496915			-0.464686			-0.0966757			0.362967			0.533027			0.212995			0.604968			0.020595			-0.412987			0.557244			0.41956			-0.1112			-0.592973			-0.0259661			-0.638613			-0.546407			-0.954718			0.0576187			-0.0683642			-0.204005			0.299017			-0.388243			0.870136			-0.0384068			-0.481032			0.0358182			-0.150504			0.289315			0.414006			0.188993			0.287697			0.527922			-0.0549048			0.768156			-0.177852			0.631137			-0.174336			0.532722			-0.208053			0.590016			-0.305723			0.106475			-0.741196			-0.777794			0.0225477			0.0248689			0.261102			-0.14992			0.377583			0.192291			-0.363183			0.52017			-0.0243689			-0.202319			0.339482			-0.598102			0.0229556			0.330947			
-0.24435			0.326087			0.0320415			0.235813			0.122456			0.821532			0.210621			-0.664532			0.269039			0.823676			-0.215539			0.239027			0.830509			0.524638			-0.977527			0.561559			0.292385			-0.168263			-0.326222			-0.115625			0.663672			0.410456			0.0569821			0.134007			0.884861			0.0148278			-0.0926573			0.146903			-0.706066			0.60999			0.763449			-0.252176			0.442614			0.0915801			-0.100988			-0.0915519			-0.296089			0.308534			-0.249615			-0.486492			-0.249135			-0.331714			0.379252			-0.488991			0.393533			0.154439			0.537786			-0.000938517			0.488642			0.157861			0.395014			0.00996939			-0.481159			0.186927			0.398919			-0.288063			0.939931			-0.393064			-0.10113			0.281076			-0.150869			-0.408047			-0.564426			0.157806			-0.21142			0.299399			-0.284154			0.588617			-0.377338			0.256076			-0.624379			-0.686837			-0.0321447			0.0170287			0.674457			0.0376176			-0.512421			0.807267			-0.0828811			-0.0692841			0.632702			-0.369375			0.233334			-0.194855			-0.693768			0.34699			-0.0305966			-0.483045			-0.145912			-0.79703			-0.69987			0.715205			0.551873			0.613367			0.671769			0.165391			0.241796			0.292054			0.164461			0.146637			0.462292			-0.184912			0.388255			-0.582087			-0.116511			0.614789			0.434935			0.378184			-0.171109			0.289945			0.167291			-0.155595			0.739966			0.584791			-0.969906			-0.203947			0.026988			0.942821			0.222251			-0.0506155			0.100974			0.301286			0.0280693			0.0614714			-0.248222			0.185713			0.323662			0.168969			-0.494002			-0.0847714			0.954317			-0.155351			0.617948			-0.966878			0.261887			0.513277			-0.370736			0.401949			0.0531878			-0.0728386			-0.702051			-0.299826			0.244083			-0.182748			0.193002			0.590502			0.282799			-0.117517			0.254561			0.295891			-0.0366915			0.280541			0.528096			0.516242			0.565382			-0.519524			0.738869			0.574532			-0.0211214			0.0465162			-0.00478642			0.134001			0.250971			0.297123			-0.373215			0.300357			0.0167243			0.464463			-0.485709			-0.299658			-0.378066			0.513478			0.662554			0.780606			0.723367			0.579336			0.0973223			-0.302			-0.207625			0.699754			0.44782			0.373679			0.528155			-0.210102			0.376839			-0.192241			0.171125			-0.853186			-0.175603			-0.119783			-0.167297			-0.297705			-0.000723065			-0.472953			-0.498344			-0.1385			0.0771472			0.592689			-0.235841			-0.176958			0.258773			-0.148355			0.959669			-0.585658			0.135152			-0.0593255			-0.366352			0.0488764			0.19724			0.744631			-0.439958			-0.0767776			0.186829			-0.214876			0.741325			-0.0834039			0.0299382			-0.954064			0.63773			0.83163			-0.686567			0.471961			0.640308			-0.416833			0.23329			0.455268			0.110646			-0.0358786			-0.535892			-0.255773			0.914504			-0.272408			0.459574			0.220179			-0.113327			-0.266615			0.370997			0.220443			0.843917			0.135433			-0.102019			-0.74052			0.676995			-0.0238943			0.176891			0.628661			0.218931			0.112208			-0.714065			-0.305545			
0.431893			0.126257			0.479646			-0.398827			0.796815			-0.358541			-0.721649			0.131511			0.230848			-0.699692			0.687794			-0.931593			0.69735			0.0705262			0.278804			-0.399754			0.152917			0.0326752			0.217461			0.217711			0.973262			0.110976			-0.153962			0.391799			0.0499856			-0.567929			-0.40249			-0.232568			0.674694			-0.117315			-0.194484			-0.241885			-0.177892			0.291981			0.88702			-0.500427			-0.129374			-0.534867			-0.767178			-0.260664			-0.107355			-0.206724			-0.776885			-0.110711			-0.195422			-0.0252376			0.343064			0.343958			0.573236			0.517476			-0.763459			0.297918			0.10985			-0.72833			-0.402013			-0.125802			-0.764652			-0.037167			0.247155			-0.818532			0.440768			0.473734			0.129829			-0.52419			0.353167			0.417617			-0.348595			-0.0883116			0.135435			0.0724611			0.691099			-0.168219			-0.213041			0.815405			0.326031			0.831429			0.000678989			0.271085			0.962787			-0.426197			0.186185			0.485911			0.643263			0.153311			0.161968			-0.113203			0.128114			0.303527			-0.334076			-0.371111			0.156236			0.492875			-0.108114			0.455386			-0.637089			-0.367995			-0.563392			0.235277			0.98352			0.459186			-0.253475			-0.414202			0.362035			-0.0651146			0.944191			0.324979			-0.579931			0.250125			0.136031			-0.913507			0.641929			-0.245767			-0.31631			0.0954655			-0.200283			0.110751			-0.043879			0.351674			0.216224			-0.895423			0.34886			-0.156904			0.581007			0.0866718			0.609757			-0.724695			-0.355478			-0.528535			-0.263873			-0.245236			0.527965			-0.132939			-0.692843			0.783984			-0.0573305			0.0655135			0.391994			0.166102			0.359553			0.405179			-0.7967			0.178376			-0.518732			0.475805			0.228018			-0.235095			0.931821			-0.190529			0.288043			0.0134814			-0.0785988			-0.0792117			-0.153752			-0.742941			0.0694179			0.673523			-0.421199			0.50077			-0.652889			-0.0291759			-0.505157			0.134017			-0.296742			0.943296			0.251887			-0.0630845			0.294143			0.712386			0.00173654			-0.849828			0.276645			-0.775413			0.0139523			0.241133			0.352604			-0.615916			-0.382383			0.124633			0.0482755			0.111772			0.901157			-0.790559			-0.388068			-0.0573962			0.656143			0.217019			-0.487211			-0.526394			0.124738			0.759922			0.596094			0.307259			-0.108864			-0.201966			0.256174			-0.455467			-0.0200638			-0.0681282			-0.340383			-0.248015			-0.39127			-0.228931			0.474387			0.037672			0.523702			-0.0169983			-0.742737			-0.315935			-0.339142			-0.0516521			0.3009			0.0333247			-0.640348			0.27233			-0.17732			-0.366629			0.778575			0.261269			0.30981			0.106713			-0.47619			0.412155			0.183768			0.242684			0.344864			-0.221466			-0.794456			0.185509			0.0215883			-0.313964			0.0326905			0.00645389			0.285603			0.599162			0.760561			0.175423			0.204759			-0.724101			0.880495			-0.0715288			-0.487435			0.828145			0.0841697			-0.51496			-0.589638			0.15018			0.37782			-0.414733			0.0290461			0.679481			
-0.0279497			0.200333			-0.242571			-0.575803			0.32999			0.115688			-0.112955			0.586251			-0.395005			0.329862			0.178829			0.18584			-0.222778			0.113623			-0.582573			-0.100891			0.34362			-0.0576308			-0.191536			-0.593775			0.468904			-0.500162			-0.0391374			-0.424789			-0.283562			0.19764			-0.735753			-0.0630255			0.370271			0.698267			-0.044031			-0.238358			0.340981			0.685167			-0.20445			-0.486822			-0.215808			-0.121172			0.563012			0.537203			-0.720197			0.774818			-0.407023			0.0521283			-0.213655			0.296606			0.49826			-0.215952			0.622774			0.0850366			0.498094			0.365359			-0.224278			-0.441494			0.260305			0.307543			0.645658			0.0811292			-0.517784			0.148838			0.518938			-0.442522			0.084223			0.547344			0.0708231			0.376789			0.0655543			0.494516			0.0069861			0.208586			-0.0252913			0.277517			-0.0907973			0.359932			0.47985			0.40548			0.206376			0.3595			-0.544819			-0.759476			0.356839			-0.0582109			-0.43941			-0.274808			0.428628			-0.313459			0.0613888			-0.754777			0.0101985			-0.76408			-0.759275			-0.108127			0.112606			-0.381574			-0.000660634			0.296693			0.183858			-0.115347			0.102641			-0.604572			0.52292			0.335735			0.253046			0.0681416			-0.433096			0.31462			0.568273			-0.528831			-0.318031			-0.0453429			0.990481			-0.171192			-0.297992			0.409596			0.412385			0.213762			0.54193			-0.148038			0.470397			0.413086			-0.165276			0.270853			-0.451878			0.331797			-0.258307			0.625887			-0.330444			-0.765917			-0.163636			0.17372			0.422353			-0.0381087			0.072116			0.652044			-0.206246			0.375193			0.419561			-0.0360621			-0.257902			-0.386682			-0.303577			-0.654365			-0.683309			-0.333859			-0.682213			-0.694834			0.340486			-0.653833			0.0707383			-0.621352			-0.40193			0.00716809			0.992748			0.404357			0.663045			0.342067			-0.358679			-0.563728			0.763153			-0.0581419			-0.538758			0.0292437			-0.621918			-0.323884			-0.00427264			0.588302			0.291618			0.209507			-0.370384			-0.514942			-0.655157			0.334673			0.159864			-0.0332948			-0.17774			-0.0663282			0.00123706			-0.562901			0.705547			0.669176			-0.077335			-0.309972			-0.440593			-0.129779			-0.268663			-0.152112			-0.223668			-0.0602484			-0.435753			0.933483			-0.488386			-0.510177			0.201407			-0.34523			-0.466925			-0.8796			-0.290765			0.75213			-0.204714			-0.723853			-0.56811			-0.404363			0.545328			-0.316563			-0.269362			0.38505			0.142071			0.449054			-0.8852			-0.531717			0.448664			0.0039363			0.368111			-0.283125			-0.593518			-0.172869			-0.124419			-0.0365433			0.387524			0.304254			0.314556			-0.462141			0.299362			-0.240613			0.593379			0.486626			-0.520052			0.0424245			0.4609			0.377734			0.0699988			-0.323845			0.197705			0.457091			0.309327			0.839402			0.125516			-0.117867			-0.756258			-0.12863			-0.259472			0.586646			-0.378745			0.371305			-0.541262			-0.521058			-0.140499			0.587708			-0.868922			0.880372			
-0.33554			0.0250456			-0.0987246			0.945096			-0.455022			0.163			0.0523813			0.489472			-0.121412			-0.66182			-0.968454			0.428686			-0.0138961			0.00672701			-0.171237			0.949175			0.229371			0.309866			-0.453726			-0.402156			0.307027			-0.955675			-0.100358			-0.217166			-0.163363			-0.73249			-0.555954			-0.354291			0.348969			0.299292			0.0225345			0.158546			0.0610012			0.368709			-0.0765108			0.270944			-0.609779			0.422959			0.341241			-0.574772			0.293305			0.689496			-0.407798			-0.16074			0.608493			-0.246769			-0.484931			0.177661			0.683761			0.0117918			-0.184878			0.0350299			-0.944778			0.183186			0.700557			-0.17111			0.968766			0.0919897			0.184969			-0.127332			0.361183			-0.203317			0.480465			-0.227564			-0.756954			-0.0802006			0.0644807			-0.334566			0.0285493			0.715237			0.141729			0.425336			-0.652083			-0.112597			0.585764			0.165576			0.310214			-0.774179			-0.464223			-0.448081			-0.715114			0.284317			0.372023			-0.244565			0.142565			-0.156732			0.318159			0.559852			0.296471			-0.179837			0.415248			0.363032			-0.961166			-0.210185			0.101317			0.383897			0.00213328			-0.280435			-0.327594			-0.532031			-0.439572			0.356888			-0.67292			0.452185			-0.428175			-0.241615			0.0214262			0.655535			0.336762			-0.164081			0.688785			-0.21803			0.644698			-0.147352			-0.390723			-0.0508697			0.322324			-0.313262			0.535128			0.547785			-0.301986			0.146361			-0.326321			0.436244			0.462436			0.346915			-0.129361			0.61693			-0.260525			0.180113			-0.704831			0.127063			0.349044			-0.861153			0.48688			-0.351716			0.452926			-0.483693			-0.0306657			-0.172821			0.386799			-0.565577			-0.225348			-0.402943			-0.20633			-0.356012			-0.257165			-0.0272376			-0.101708			0.219069			0.382867			-0.206491			-0.17495			0.121724			-0.430914			-0.631756			-0.23095			0.0846865			-0.776392			-0.0271743			0.534513			0.168135			0.243472			0.455269			0.81118			-0.0540681			-0.114357			0.116521			0.666734			-0.248824			-0.270768			0.0860907			-0.647972			-0.903882			0.354301			-0.0139711			-0.600656			-0.591753			-0.36241			-0.0821821			0.723613			0.100049			-0.333224			0.126499			0.507368			0.828792			-0.353349			0.0909674			-0.347748			-0.335166			-0.351712			0.0158832			0.0785566			0.668778			-0.687455			-0.775852			-0.0263915			0.41124			-0.4194			-0.379119			0.559571			-0.154925			-0.600255			-0.458337			-0.601165			0.152924			0.564751			-0.250085			-0.173652			-0.475164			0.729051			-0.340236			0.458329			0.153487			-0.271246			0.84158			0.731813			-0.166852			0.387921			0.406478			0.0410917			0.021922			-0.391925			0.00192512			0.717682			-0.709866			-0.0919151			-0.218498			0.280621			-0.21469			0.48151			-0.409127			-0.198987			0.129901			-0.0896354			-0.25423			-0.26308			-0.721587			-0.269427			0.381515			0.619735			0.354922			0.236414			-0.116413			0.0774235			0.227951			-0.119264			-0.284689			0.890285			0.871412			
-0.147479			0.128725			0.0991139			0.0460154			-0.311745			-0.406155			-0.370753			0.297358			-0.615268			0.520529			-0.167494			-0.635696			-0.227255			0.783608			0.0342126			-0.2813			0.406545			-0.947607			-0.649737			-0.623735			0.0314609			0.427987			0.50524			0.185397			0.0155611			0.556016			0.0852503			-0.302827			-0.358738			0.873722			0.196577			-0.636557			0.480548			0.6764			0.264111			0.31029			0.749341			0.479858			0.564435			0.0921325			0.699107			0.0759047			-0.158863			-0.941577			-0.501016			-0.265291			0.707307			0.716283			0.59752			0.0307762			-0.104686			0.688002			-0.0436444			0.00402852			-0.462415			-0.00281842			0.132844			-0.1265			-0.158591			0.216661			-0.287038			0.52127			-0.10065			0.389291			0.66066			-0.444875			0.767947			-0.461203			-0.212683			0.625709			-0.295378			0.277741			0.634224			0.104862			0.0531503			-0.20492			-0.926896			0.548209			0.0224619			-0.474894			-0.240611			0.710128			-0.082346			0.100967			-0.750872			-0.694531			0.285188			0.188865			0.385641			0.301317			-0.0199167			0.733955			0.537042			-0.359915			-0.580818			-0.0457067			0.12107			0.670533			0.289363			-0.0535371			-0.182333			0.171273			-0.217065			-0.175967			-0.106811			0.387447			0.299263			-0.718655			0.315688			0.20698			0.477287			-0.56348			-0.0263832			0.164065			-0.67655			-0.493237			-0.186708			-0.381286			0.511596			0.489044			-0.246279			-0.517518			-0.596199			-0.116693			-0.154491			-0.0138601			-0.680823			0.169428			-0.000721616			-0.0819497			-0.0713335			-0.135512			-0.363771			0.636066			-0.281881			-0.856965			0.757139			0.318833			0.266069			0.0418195			0.354636			0.375264			-0.154486			-0.245359			-0.699561			-0.7899			-0.500631			0.38469			0.0282714			-0.355368			0.425962			0.532311			0.134997			-0.333387			0.417982			0.150065			-0.254478			0.400733			0.417922			-0.561042			-0.208277			0.40907			0.188315			0.813788			0.178633			-0.492304			0.236481			-0.0276571			0.0616441			-0.0645923			-0.480109			-0.448365			0.00485193			-0.0602664			0.560891			0.294577			0.470287			-0.638445			-0.0549185			0.237824			-0.0443749			0.253613			-0.577054			-0.536134			-0.126073			0.23345			-0.63774			-0.958851			0.0572719			0.756812			0.404319			0.0316476			0.627455			-0.833984			0.228238			0.898484			-0.661948			0.250513			-0.889967			-0.206734			-0.0914935			-0.0530951			-0.0491946			-0.0757635			-0.12227			-0.314681			-0.415917			0.256595			0.120583			-0.457245			0.230584			-0.394359			-0.0323163			0.239351			0.0954584			0.393574			-0.0426075			0.371145			0.385616			0.251912			0.349181			0.6282			0.481416			0.655849			-0.352084			0.00745744			-0.129411			-0.0967393			-0.30676			-0.193445			0.0633682			-0.189081			-0.250738			-0.600557			-0.0162782			-0.356181			0.116228			0.129598			0.62223			0.721708			0.116251			-0.825264			0.445621			0.874412			-0.0144894			0.0837052			-0.0443745			-0.970677			-0.38497			0.441845			
