Matrix_5
-0.162231			-0.365833			-0.328644			-0.174381			0.530517			-0.0704101			0.171891			0.35024			0.290586			-0.0890001			0.817727			0.370587			-0.18424			0.342668			0.715998			0.169349			0.0200644			-0.37009			-0.0422582			0.192082			-0.203836			0.0275485			0.425707			-0.386077			0.91593			0.298788			-0.26193			0.0471401			-0.0624084			0.207105			-0.290018			0.23162			0.114878			0.379572			0.632128			-0.461388			-0.492407			0.0273707			-0.110362			-0.1923			-0.179723			0.691614			0.0227896			0.306083			-0.45399			0.134083			0.749275			-0.311552			-0.902583			0.340988			-0.268595			-0.108526			-0.0853668			0.104261			0.106293			-0.619872			0.136071			0.660995			0.00428955			0.204088			-0.112342			-0.888501			-0.283025			0.200328			-0.357975			-0.373032			0.57985			0.302798			0.573178			-0.518972			0.717055			0.550622			0.306325			-0.664386			-0.168257			-0.745217			0.0436358			0.887251			-0.362306			-0.273918			-0.0588271			-0.227078			0.0784607			0.0314319			-0.548153			-0.698668			-0.371311			0.50161			-0.541943			-0.0542359			0.606471			-0.698102			-0.173974			-0.177074			0.288395			0.431057			-0.539172			-0.20952			-0.0380444			0.34615			
0.265638			-0.341312			-0.232674			0.535364			0.371241			0.435484			0.0323032			-0.598348			-0.659932			-0.201153			-0.266323			-0.344087			-0.211271			0.203012			0.591521			0.0454569			0.202833			0.464433			0.273599			0.446414			0.0981518			0.295078			-0.0948718			-0.479219			-0.0946173			-0.130038			0.562993			0.716953			-0.0202876			-0.863931			0.77821			0.398185			-0.0755962			0.507455			0.621664			0.797287			-0.348625			-0.404155			-0.462318			-0.163162			-0.110619			-0.199711			0.290746			-0.557314			-0.464066			0.373885			0.0627675			0.70878			0.497398			0.00443727			0.441943			0.859202			-0.304286			-0.498871			0.0383598			0.552973			-0.11402			-0.557508			0.222884			0.519979			-0.769402			-0.294053			0.348112			0.116568			0.368657			0.00972726			-0.746287			0.155459			-0.251004			-0.343567			0.225627			0.116843			-0.826825			-0.309681			-0.510229			-0.315735			0.133663			0.208637			0.0139955			0.0912636			-0.297956			0.203904			0.755942			-0.300305			0.518752			0.187414			-0.164593			-0.371367			-0.263436			-0.511824			-0.2164			-0.140142			-0.49687			-0.751293			0.0897313			0.249968			-0.222304			0.0570909			-0.55213			-0.278955			
-0.253336			-0.321226			-0.196001			0.329215			0.549857			0.428969			0.180041			-0.0530061			-0.352275			-0.783365			0.298256			-0.0579885			0.0983516			-0.56263			-0.295577			-0.0155338			-0.551153			0.349116			0.391104			0.275193			0.0466951			0.555549			-0.190206			-0.496332			-0.151368			0.150216			-0.385429			0.0657173			0.159885			-0.014847			-0.330836			0.0335384			0.761907			0.489697			-0.00495704			-0.0552889			0.21821			0.179774			-0.0328872			-0.15316			-0.811394			0.376053			-0.773329			-0.0642154			0.799632			0.072817			-0.385847			0.657103			-0.143762			-0.593627			-0.522258			0.542689			-0.0799777			-0.533747			0.111378			0.535816			0.400927			0.864588			0.170589			-0.226061			0.0821827			-0.19981			0.193135			-0.515766			-0.0198909			-0.448905			-0.21105			-0.679873			0.285901			0.51269			0.120073			0.0134081			0.265793			0.787247			-0.176337			0.0814737			0.856689			0.0976715			-0.186458			0.313903			-0.774026			0.395868			0.165511			0.927805			-0.237138			-0.0555837			0.259324			-0.194724			0.540368			-0.0979262			0.0430095			-0.512639			0.677104			-0.293173			0.299881			-0.141339			0.24122			-0.910271			0.201893			0.852061			
0.90992			0.458948			0.190148			0.749339			-0.803177			-0.164379			-0.401754			-0.121818			-0.109742			0.287649			0.236033			0.749326			-0.518067			0.664153			-0.0386528			-0.129079			0.237874			-0.829749			0.151944			-0.911602			0.353464			0.0745776			0.567443			-0.313848			-0.562868			0.357151			0.347705			0.165679			-0.0533682			-0.757636			-0.307593			-0.6922			-0.340552			0.688473			-0.576984			-0.0169527			-0.368931			-0.118102			-0.150875			-0.0151941			-0.601902			0.404515			-0.462897			-0.408722			0.331447			0.179302			0.431965			0.343687			-0.601967			0.270261			0.790326			0.366829			-0.147016			-0.0348754			0.0945473			-0.546019			-0.186909			0.193667			-0.247055			-0.427177			0.913663			-0.200602			-0.374281			0.00611835			-0.261006			0.814001			-0.152561			-0.292198			0.0885513			0.427448			0.704756			-0.54776			-0.233681			0.0788922			0.0633491			-0.386605			-0.333103			-0.241173			0.262901			0.4472			-0.725487			-0.859367			-0.266363			-0.141576			0.407204			-0.927475			-0.184485			0.689802			0.305072			0.222761			-0.0890536			-0.336046			-0.124152			0.362929			-0.667188			0.191459			0.770278			0.7932			0.370855			0.363519			
0.239242			-0.0447859			-0.166548			0.0804387			0.0471654			-0.382832			-0.518192			-0.317036			-0.556508			-0.031124			0.28706			0.594427			0.612714			0.38364			-0.422715			-0.459764			-0.638112			0.0613234			-0.193259			-0.477898			0.739446			0.0365499			0.098188			-0.559065			-0.307845			-0.522194			-0.319359			0.421543			0.34455			-0.0138233			-0.428241			0.359123			0.379981			-0.361554			-0.973394			0.182711			-0.0191601			-0.278521			0.417312			-0.299663			0.306136			-0.0870044			0.106708			0.0801658			-0.263365			-0.0086229			0.00766513			-0.822147			-0.741684			-0.214483			0.124713			0.39551			-0.430891			-0.691634			0.618145			0.382039			0.0674015			0.271631			0.789817			0.212424			0.0493025			0.253415			-0.472373			-0.43029			-0.369081			-0.0205688			-0.83478			-0.254148			-0.550609			-0.943074			-0.304941			0.375019			0.300437			0.269288			-0.0259458			-0.145027			0.228112			-0.0374364			0.14681			0.681138			-0.0823119			0.528679			-0.165536			-0.235284			-0.229024			-0.2567			0.13952			0.828867			-0.310793			-0.119783			0.0924606			-0.0504517			-0.10813			0.0389136			-0.531888			0.743106			-0.0675727			0.306448			-0.695049			0.214077			
0.201644			0.0514631			0.404491			-0.0519812			0.115991			-0.940727			-0.908886			-0.368157			0.270978			0.428132			-0.072946			-0.459855			-0.0186835			-0.162356			-0.111717			-0.204225			0.257777			0.323317			0.380909			-0.178871			0.172787			-0.753066			0.665752			-0.00122723			-0.0998341			-0.479805			0.450266			0.0992085			0.362971			0.293396			0.493629			-0.149909			-0.184215			-0.323368			-0.159645			-0.835009			-0.557371			0.357314			0.162243			0.277368			-0.165909			0.146672			0.155187			0.320763			-0.328188			0.128328			-0.269567			0.00757605			-0.744682			0.811773			-0.456007			-0.672666			-0.361225			0.298996			-0.846368			-0.492099			-0.0044164			0.24829			0.373875			0.986017			-0.295432			0.758566			0.230871			-0.402388			0.153273			-0.21987			0.699347			-0.615117			-0.760866			0.13875			0.241727			-0.572514			0.64734			0.0680352			0.639388			0.507201			-0.869402			0.410521			-0.00833649			-0.60239			0.00022041			-0.304338			-0.223455			0.165802			0.184334			-0.236996			-0.160239			0.0839645			0.286246			0.044798			0.84727			0.325478			0.00125927			-0.193507			-0.131156			-0.0944526			0.0485039			-0.00373216			0.12705			0.92947			
-0.358609			0.370765			-0.45266			0.0192486			0.504438			-0.458581			0.0220296			-0.175307			0.316169			0.81333			0.42923			0.854224			0.842465			0.102375			-0.0640832			-0.198182			0.375817			0.0120086			0.552923			0.0905731			-0.0295601			-0.072854			-0.431461			0.248875			-0.254287			0.267358			-0.867885			-0.208626			-0.425173			-0.283717			-0.159527			0.622249			0.528998			-0.321296			-0.597569			0.242944			-0.0717115			-0.606784			0.263892			-0.280133			-0.58071			-0.792103			0.0269584			-0.775476			0.447387			-0.920408			-0.691705			0.71467			0.281001			0.0395117			0.243075			0.646341			-0.870391			-0.761117			0.245515			-0.59511			-0.296143			-0.168795			0.659973			0.0572897			0.526594			0.827608			0.0610762			-0.278705			-0.854184			0.274256			0.181692			0.625356			0.0687564			0.467812			0.154438			0.365041			0.641599			-0.366013			-0.194868			0.110119			-0.103106			0.539855			-0.427584			-0.400922			0.0128462			-0.146565			0.522444			0.0892034			-0.281652			0.375032			-0.304965			0.136447			0.69192			0.217689			-0.412425			0.597109			0.370969			0.146537			-0.513009			-0.329374			0.982861			-0.537249			0.00158748			-0.490933			
-0.576393			0.460996			-0.0254832			-0.705054			0.0172309			-0.231729			0.180624			-0.239368			0.611593			-0.489697			-0.521024			-0.223135			-0.417482			0.631179			-0.409699			-0.0145999			-0.215474			-0.432114			0.0776056			0.10839			0.0163345			0.176148			-0.176316			-0.106003			-0.204932			0.758876			0.0909568			-0.224301			-0.490252			0.582318			-0.717288			0.830741			0.00908132			0.303428			0.398602			-0.295646			0.521237			-0.109484			0.372258			0.467152			-0.354031			-0.409949			0.0617032			0.317048			-0.200973			0.202014			0.475499			-0.200563			0.463136			-0.437593			-0.196481			0.575033			-0.156749			0.0626794			-0.140845			0.899103			0.275034			0.181821			0.106066			0.28619			-0.366323			-0.481278			0.400403			0.227466			0.454911			0.0615001			0.0542696			0.429632			-0.0703858			-0.369098			0.0571141			0.106757			0.0817644			0.251831			0.514869			0.357796			-0.297859			0.174045			-0.420274			-0.55835			-0.277611			-0.961987			0.974362			-0.156471			-0.519643			0.907341			0.245322			0.288578			-0.317224			0.394193			-0.583347			0.216502			0.419338			0.177834			-0.356254			0.881501			-0.089973			-0.0326048			-0.248799			-0.0712621			
-0.352536			-0.12104			0.0762782			-0.0155595			-0.797081			-0.422589			-0.103316			-0.694453			-0.521406			0.330597			0.0575191			-0.29231			-0.106395			0.0678057			0.445697			-0.0408336			-0.46927			-0.3292			-0.173627			0.296584			-0.555804			-0.0523729			0.285868			0.328955			-0.153342			0.429315			0.627005			-0.443232			-0.0651274			-0.201465			-0.040093			-0.502783			-0.0578277			0.275495			-0.434846			-0.0911192			-0.44218			0.0347285			0.2885			-0.163011			-0.562419			-0.411471			-0.512423			-0.152634			-0.119582			-0.614042			0.132908			0.324476			0.250352			-0.90537			-0.823377			-0.155423			0.344017			0.0139991			0.338694			0.476034			0.201758			-0.0486726			0.46827			-0.149818			0.781253			0.147073			-0.506167			0.473833			0.36833			0.23575			0.417687			0.0597988			-0.173346			0.949252			-0.699875			-0.396721			-0.080118			-0.431518			-0.319948			-0.546286			-0.57333			-0.255841			-0.656254			-0.190186			-0.261586			-0.510556			-0.535333			0.310195			-0.257671			-0.16571			0.397469			-0.644072			0.607355			0.109351			-0.27453			0.118004			0.472909			-0.39087			0.201037			0.0554772			0.647662			-0.271036			-0.126791			0.751383			
0.276314			0.405153			0.262892			0.375682			0.116838			-0.777087			0.103586			0.207922			-0.0519934			-0.354186			-0.486138			0.181742			0.841048			0.066104			-0.110583			0.0211021			0.0792416			0.926951			-0.497777			-0.243181			-0.0348111			0.67278			-0.0168076			-0.26405			0.752204			0.207975			-0.0745011			0.360515			0.0245494			-0.319192			0.621108			-0.176008			-0.553098			0.797001			0.267054			-0.193442			0.800573			0.970365			0.427734			-0.173334			0.0905521			0.241028			0.293447			0.167292			0.0988604			0.19437			0.336348			-0.430655			-0.822852			-0.145837			-0.506672			0.757548			0.204844			-0.497306			-0.197991			0.54609			-0.210282			-0.398767			0.155091			-0.386025			0.201734			0.286313			0.49978			0.262291			-0.290107			0.302674			-0.178268			0.143064			-0.383666			-0.0702127			0.00783013			0.0745703			-0.178005			-0.192584			-0.3749			-0.431739			0.609419			-0.48803			0.556501			-0.983775			0.171993			-0.19234			-0.835814			-0.0538238			0.296139			0.576275			0.0916023			-0.082378			-0.116088			-0.516222			0.401396			-0.492555			-0.0178156			0.570866			-0.0520197			0.264957			0.402049			0.227022			-0.223522			-0.0845748			
-0.147111			0.285932			0.235189			0.0391427			0.259673			-0.0519068			0.247365			-0.0690038			0.0196654			-0.453312			-0.493635			0.393786			-0.170945			-0.538874			0.0417478			-0.287022			-0.129654			0.858789			-0.775875			-0.0651887			-0.0610326			-0.251507			-0.390887			-0.317797			-0.39611			0.512741			-0.936695			-0.307901			-0.264013			0.557329			0.194936			-0.503772			-0.626924			0.0293252			-0.38366			0.172894			0.188624			-0.262195			0.429221			0.815878			0.0756068			0.145302			0.855654			-0.0846935			0.320946			-0.218172			0.520455			-0.85837			0.499613			0.298784			0.300763			0.214234			0.112707			0.208131			0.0237959			0.874594			-0.201106			-0.36757			0.457467			0.0165589			0.543855			-0.014295			0.583447			-0.933194			-0.697754			-0.421561			0.599047			-0.182091			-0.737467			0.18649			-0.859587			0.660941			-0.0355045			0.55749			-0.330403			0.146604			0.467587			-0.915883			0.704453			-0.910216			-0.156335			0.0137814			0.389761			0.522245			-0.449258			-0.225214			0.201908			-0.480706			0.382601			-0.233864			-0.0920753			-0.809077			0.676696			-0.091607			-0.138287			0.102566			-0.0740907			-0.352359			0.511268			-0.00452503			
-0.0820422			0.236877			-0.186389			0.886041			0.2165			0.470074			0.623112			0.410873			-0.0308319			0.0102053			-0.144202			-0.458165			0.0965153			0.559504			-0.192274			-0.618545			0.826916			-0.671457			-0.0647176			-0.210203			-0.636428			0.0221685			-0.861981			-0.567637			0.4432			0.218203			-0.157844			0.0450702			0.634065			-0.377542			0.334763			0.0724152			-0.542291			-0.81567			-0.862852			-0.460935			-0.428967			0.218984			0.930099			-0.111772			0.85727			0.6421			-0.272606			-0.139053			0.145459			-0.476364			-0.219969			-0.489164			0.222912			0.381014			-0.0973353			0.394617			0.696381			0.292416			-0.295687			-0.385536			-0.275858			-0.142768			-0.535127			-0.722149			-0.166383			0.0331843			0.127821			0.262415			0.701211			0.633342			0.48344			-0.350864			-0.657983			0.441175			-0.215448			-0.171116			0.596842			0.185569			0.255703			-0.620059			0.16453			-0.367501			0.0326412			0.535356			-0.247023			-0.402225			0.437637			0.159111			0.485297			-0.0474842			-0.191834			0.720033			-0.587248			0.0545314			-0.346622			0.0414173			-0.432025			-0.259623			-0.301212			0.0540402			0.242147			0.173311			0.521895			0.154291			
0.0404102			-0.480594			0.203771			-0.301954			-0.171096			0.289146			-0.0312667			0.356334			-0.958993			-0.430217			0.151959			-0.699351			-0.400899			-0.383896			0.0716122			0.402201			0.0295029			-0.629673			-0.13174			-0.379539			0.243253			-0.632874			0.456124			0.000483473			0.535487			0.484704			-0.158165			0.680019			-0.606806			0.061886			0.206217			0.163413			0.465682			0.0150185			0.00220014			-0.46017			-0.179121			-0.462884			-0.192422			-0.287737			0.711827			0.0703366			-0.493578			0.0236328			0.745274			0.866818			0.773253			-0.54422			-0.17704			-0.25024			0.259			0.336279			-0.515018			-0.291726			0.110822			0.269129			0.249992			-0.701493			-0.170393			0.48271			0.354006			0.314505			0.380312			-0.533268			0.521195			-0.394837			0.211464			-0.273529			-0.0396515			-0.0730864			0.00156617			-0.408221			-0.735112			0.632306			0.149291			0.680096			-0.519684			-0.322958			0.352565			0.29771			-0.470986			-0.74248			0.214959			0.294032			0.358342			-0.303352			-0.00696629			-0.303293			-0.212793			0.18506			-0.194797			-0.417679			-0.208325			0.918683			-0.120096			0.0252371			0.734146			-0.266324			0.0739206			-0.634523			
0.666388			0.420634			-0.496065			-0.212954			0.24852			0.397138			0.00982799			0.259528			-0.0631129			0.16363			-0.108937			0.418967			-0.0774176			0.0457874			-0.737679			-0.303598			-0.103167			0.19314			-0.105056			-0.438561			-0.243694			0.549225			0.21814			0.506108			0.472148			0.66182			0.0522384			-0.923928			0.270881			-0.162058			0.179487			-0.879839			0.16891			0.369055			0.437537			0.284202			0.18414			-0.747555			0.336024			0.717433			-0.201145			-0.227613			0.573305			0.104479			0.602227			0.253221			0.0733689			-0.0729553			0.362839			-0.0439555			0.630776			-0.586487			0.030549			-0.249086			0.652248			0.604338			-0.520821			-0.194567			0.177019			-0.809712			0.00292598			0.445833			0.062026			-0.171741			-0.146208			0.125821			0.566719			-0.599356			0.402814			0.330881			-0.223953			-0.638281			-0.308421			-0.0981582			-0.388951			0.318538			-0.425112			0.767418			0.832673			0.350124			-0.0192829			0.025327			0.259905			0.731167			0.0284239			0.590965			0.375262			-0.935587			-0.755809			0.332049			0.0703095			-0.903179			-0.979146			0.0793394			-0.0850193			0.772507			-0.460003			0.304589			-0.334901			-0.862768			
-0.920187			-0.971765			0.818165			-0.520825			0.712287			0.24762			-0.024067			-0.0843807			-0.0229848			-0.164526			-0.0509936			-0.141449			-0.0779157			-0.221257			-0.316932			0.594231			-0.0109107			0.595094			-0.440272			-0.273564			0.529967			-0.107738			-0.476405			-0.44923			-0.452991			-0.362566			-0.433383			0.104958			0.615107			-0.553343			0.40289			-0.130294			-0.408476			0.873792			-0.1975			0.204159			0.163525			0.171908			-0.138163			-0.10277			0.529195			-0.236673			-0.653938			-0.263815			-0.330625			-0.373103			-0.08034			0.626878			-0.267772			-0.0965598			-0.583193			0.156602			-0.396212			0.333378			-0.313125			-0.0484991			-0.526841			0.164875			0.379516			0.272817			0.114848			-0.382233			0.146301			0.169302			0.481519			0.490893			-0.373162			0.0398824			-0.209342			0.313707			0.735305			0.0928123			-0.682092			-0.608111			0.549525			0.958475			0.986614			0.386653			0.254025			-0.674234			0.257179			0.140484			-0.720854			-0.240818			-0.496752			-0.314812			0.705015			-0.0214181			-0.114777			0.338761			-0.173978			-0.0812456			-0.549117			0.146521			0.621467			0.529654			-0.740071			0.845951			0.5109			-0.0207165			
0.513296			-0.0416329			0.570132			-0.506067			0.516513			0.168891			-0.661059			0.964546			-0.0597912			-0.0309964			-0.875639			0.594307			0.0295041			-0.268813			0.200419			-0.514514			-0.122807			-0.866199			0.292744			-0.398057			-0.264605			-0.497349			-0.0662403			0.13705			0.149071			-0.590321			0.223654			-0.165227			-0.130947			0.0915757			0.793038			-0.579536			0.138008			-0.387688			0.197111			-0.65619			-0.275661			0.520413			-0.475454			0.056171			-0.110634			-0.398653			0.286085			0.489526			0.411756			-0.994726			0.571992			-0.103329			0.479311			-0.0947897			-0.558163			0.0522722			-0.768137			-0.235969			-0.399744			0.529957			-0.22518			-0.0985767			-0.163239			0.158154			-0.448989			0.404758			0.431048			0.102425			-0.104192			-0.731616			0.571374			0.583002			-0.549244			-0.120861			-0.105977			-0.522915			0.0622357			0.440914			-0.30316			0.126232			-0.164329			-0.332359			-0.500458			-0.483089			0.131551			-0.484996			-0.287672			-0.765796			-0.364866			0.695623			-0.359092			-0.203223			-0.0170945			-0.74693			0.492226			-0.13707			-0.229629			-0.519307			0.488779			0.492557			-0.355629			-0.311761			-0.432388			0.834869			
0.299437			0.00999279			0.276154			0.755563			0.134357			0.0355149			0.00283941			0.648451			0.418691			0.159225			-0.0381973			0.585205			0.965169			-0.637201			-0.719525			0.769858			-0.1836			0.564223			0.592239			-0.387061			0.13318			0.110432			-0.122616			0.863475			-0.0362235			-0.0373067			0.327159			-0.597739			0.179552			-0.955376			-0.261736			-0.615998			0.453299			0.401306			-0.0763512			0.383599			0.414761			0.215644			0.909104			-0.383636			0.212432			0.804333			-0.483931			0.39446			-0.266857			-0.672905			0.0894971			-0.758276			0.286522			-0.756727			0.104663			0.308938			-0.0965135			-0.501166			0.378577			0.0425938			0.14353			0.659922			-0.24707			0.205676			-0.168114			0.220207			-0.766579			-0.662387			-0.365334			0.100071			0.0938361			0.234442			-0.0735122			-0.317155			0.143048			-0.465021			-0.240751			-0.252625			-0.160671			-0.149454			0.216828			-0.0659301			-0.340901			0.5645			0.215961			0.943432			-0.236403			0.513026			0.210458			-0.0990837			-0.204911			-0.0598645			0.214549			-0.363356			0.654084			0.583804			-0.138323			0.710604			-0.770892			-0.0326722			0.969284			0.500229			0.705575			-0.114033			
0.0263645			-0.3194			0.446567			0.0405556			0.0653778			-0.557743			0.741987			-0.408398			0.250587			0.288448			0.192059			-0.524746			-0.139392			0.254781			-0.109307			-0.0841729			-0.246746			-0.0990224			-0.333058			-0.0823401			0.24977			0.323085			-0.297802			0.0596292			0.0534602			-0.871879			-0.216177			0.529127			-0.001981			-0.581147			0.290018			-0.521389			0.081156			-0.25072			0.747231			0.142254			0.143402			-0.602655			0.38606			-0.260373			0.626955			0.807615			-0.174533			-0.0715771			0.464874			0.823154			-0.108647			-0.405683			0.284006			-0.88828			-0.593263			-0.422246			0.35137			0.0992667			-0.849751			-0.367361			0.0324273			-0.431789			0.6229			-0.164635			-0.309654			-0.512393			0.252933			0.096763			0.0357352			-0.0774315			-0.0441283			0.199387			-0.129654			0.0679628			0.270809			-0.422921			0.553848			0.455133			-0.168445			-0.505588			-0.297817			-0.475832			-0.00483406			0.0808377			0.108505			0.0418227			-0.325617			0.263328			-0.334965			0.585759			-0.514691			-0.930211			-0.147301			-0.115191			-0.478429			-0.0438994			-0.132431			-0.393598			0.454632			-0.292609			-0.74065			-0.503051			0.044581			0.587122			
-0.0645546			-0.0859589			0.678289			-0.216503			-0.185707			0.0104492			-0.245238			0.133167			0.0898936			0.315295			-0.226192			0.0499455			0.872562			0.245281			-0.701544			-0.523574			-0.0521058			0.106062			-0.0300772			-0.323492			0.121369			-0.855418			0.281545			0.218405			-0.273561			0.21567			-0.0485644			0.0602199			-0.0784347			0.226639			0.428883			0.983871			0.238444			-0.295444			-0.225533			0.409046			0.0830681			-0.106466			-0.252118			0.402405			0.351173			0.512026			0.707122			0.374859			0.254392			-0.859643			0.513899			-0.243461			0.0878439			0.266163			0.294482			0.53447			-0.834749			-0.301625			-0.0554261			0.565195			0.248493			0.660752			0.470212			0.209697			0.170476			0.204716			-0.347059			0.0275163			-0.89443			0.217128			-0.0229428			0.096555			0.516715			-0.306771			-0.760147			-0.743458			0.818862			0.886552			-0.416517			0.48333			-0.591028			0.0539201			-0.290625			-0.700782			-0.0330997			-0.0343894			0.199321			0.418481			-0.350723			-0.376793			-0.0856459			0.969963			-0.274759			0.370501			0.992906			-0.231291			0.901204			0.218489			0.26309			0.486574			-0.0705398			0.400043			0.281637			0.0263652			
0.528878			0.300732			0.652313			0.280696			-0.807876			0.067702			0.146402			-0.36857			-0.354204			-0.88112			0.404652			-0.111386			0.216767			-0.250026			0.164848			0.571242			0.045232			-0.126784			-0.473366			0.529792			-0.311269			0.242653			-0.326715			0.646287			0.558395			-0.0350321			-0.117917			0.23423			-0.32388			-0.804718			0.831163			0.439449			-0.692287			0.187065			0.821542			-0.784158			-0.574559			0.410488			0.938998			0.376761			-0.970996			0.535952			-0.735727			0.0713173			0.264405			0.159662			-0.368237			-0.15934			0.00976967			0.47317			0.0119539			-0.261244			0.372117			0.1235			-0.0726082			0.342184			-0.122124			0.267032			0.662665			-0.924586			0.0669615			-0.0672262			0.10221			-0.119351			-0.748639			0.734123			0.564809			-0.158968			0.476753			0.671498			0.657523			-0.256865			0.141804			-0.591348			-0.0747158			0.61318			-0.308489			-0.451917			-0.0777305			0.19685			-0.249007			-0.119029			0.471137			-0.241486			-0.747687			0.747653			-0.494804			-0.223863			0.936635			-0.133368			-0.460597			-0.531288			-0.309302			-0.220323			-0.602856			-0.170746			-0.545454			0.0258975			-0.516979			-0.0411369			
0.0883856			-0.0793126			-0.126396			-0.193247			-0.00432476			0.214331			0.70544			-0.0908908			-0.602585			-0.0500737			0.319791			-0.115147			0.254399			0.62485			-0.0390527			0.115704			-0.339608			0.318829			0.325559			0.0483509			0.610096			0.0608658			-0.454147			-0.271175			0.215724			-0.18624			0.134748			0.665842			-0.277258			0.223597			0.215926			-0.0254609			0.115437			-0.518029			-0.271266			-0.798869			0.172147			0.98417			0.66821			0.18121			-0.57207			0.157734			-0.744126			0.702655			-0.531555			-0.198484			0.241181			0.0189484			0.269173			-0.072952			0.608832			0.382796			0.946141			-0.280419			0.0689943			-0.168634			-0.206556			-0.807446			0.677054			0.148414			-0.204116			0.420746			0.0304925			-0.707953			-0.0476167			0.335561			-0.258872			-0.238651			0.379459			0.0215548			-0.790187			0.19885			-0.74465			-0.110422			-0.373323			-0.0985798			0.274076			0.0604309			0.244296			0.436094			0.548195			-0.675443			-0.877744			0.0262679			0.141199			0.0525636			0.38778			0.0130477			-0.293511			0.475219			0.517874			0.205486			-0.573113			-0.356676			-0.620483			-0.60759			-0.0153577			0.233623			-0.823814			0.335251			
0.792413			-0.313118			-0.398393			-0.0531362			-0.781651			-0.41934			-0.573058			-0.505896			0.662695			0.245616			-0.0939703			0.444275			0.289857			0.66159			0.267152			0.395612			0.42418			-0.0305659			0.100253			-0.126846			0.264197			0.231			0.890454			-0.580799			0.604753			0.772767			-0.110041			0.103416			-0.0784554			0.351721			0.379293			0.165193			-0.360273			-0.20879			0.0708315			0.332835			0.841399			-0.584285			0.70368			-0.0720078			0.162319			-0.220146			0.515486			0.185398			-0.206145			0.502311			0.463045			-0.335554			-0.405045			0.0801651			-0.112898			-0.0734534			0.0429796			0.13845			-0.212374			0.857845			-0.429081			0.974019			0.377939			-0.403031			0.267364			0.242889			0.160805			-0.0244353			-0.468111			-0.0776979			-0.293679			0.690175			0.130325			-0.327946			-0.277718			0.53381			0.0394373			-0.081445			0.326159			-0.0483015			0.375983			-0.593306			0.223132			-0.201981			0.423914			-0.620014			-0.00457939			0.0433989			-0.404101			0.164266			0.255159			0.915762			-0.416034			-0.0168972			0.298987			-0.0218107			-0.486747			-0.225014			0.303723			-0.42311			0.586556			0.042381			-0.105567			0.248875			
0.43228			0.348729			0.423621			0.80739			-0.761417			0.163648			0.0594843			0.429691			0.466275			0.0688773			-0.305649			0.211848			-0.0989455			0.271069			0.204528			0.52499			-0.289488			0.768804			0.274243			-0.407223			-0.512917			0.1151			-0.646795			-0.0246754			-0.242799			0.0511501			-0.544671			0.921678			0.550631			-0.442555			0.230387			-0.314992			0.0524634			-0.287819			-0.283711			-0.0502186			-0.161168			0.267631			0.512752			0.560302			0.185378			-0.716403			-0.394868			0.236871			-0.898692			0.21641			0.258065			0.87818			-0.108284			-0.0644539			0.569822			0.950186			0.867209			0.117467			-0.116165			-0.212932			0.0892352			-0.229585			0.391589			-0.186893			0.305437			-0.201604			0.905973			-0.688818			0.564366			0.182872			0.258279			0.516814			-0.649857			0.0640991			-0.171278			0.46389			-0.892388			0.636614			0.11852			0.376077			-0.465615			-0.0820063			-0.536276			0.0852773			0.435051			0.08923			0.266064			0.356815			0.860731			-0.251048			-0.583385			0.446639			0.30271			0.713651			0.800526			-0.21152			-0.102491			0.734622			-0.906508			-0.751644			-0.033355			0.604408			0.345091			0.300028			
-0.141586			0.6355			-0.0999405			0.831887			-0.26144			0.170671			-0.683436			0.80481			-0.108159			0.995157			-0.243231			-0.694125			0.282145			0.409896			-0.264642			0.273363			0.314905			0.217386			-0.22463			0.0982528			-0.484083			-0.396163			-0.528353			0.49366			0.272162			-0.153099			-0.160228			0.52969			0.177273			0.777937			-0.158214			0.715213			0.256035			-0.0179366			0.544685			0.506271			0.403257			-0.175528			-0.495613			-0.658679			-0.130365			-0.0687615			0.162173			0.869858			0.510353			-0.978431			0.108582			0.592715			-0.39331			0.857023			0.336274			0.354939			0.445955			0.197793			0.0722456			0.164782			-0.872213			0.285638			-0.0450275			-0.671715			-0.634605			0.693305			-0.812637			0.159471			0.544488			-0.261835			-0.308271			0.659651			0.29126			0.390658			0.263341			-0.235063			-0.0911617			-0.393644			-0.816805			-0.00741478			-0.657162			0.587785			0.386274			0.15325			0.0447127			-0.202429			-0.0402847			-0.44086			0.00949109			-0.0795189			-0.473875			-0.130031			-0.734353			0.400505			0.360845			0.908177			0.184868			0.636172			0.0100574			-0.219512			0.782919			0.0974492			0.0985755			-0.0825049			
0.660855			-0.374264			-0.881992			-0.188593			-0.626946			0.730472			-0.355507			0.601904			0.271479			-0.174088			0.309124			0.740015			0.0308373			0.143978			-0.374881			0.759721			-0.367367			0.0642914			-0.0825241			0.548411			-0.616027			-0.0171127			-0.473527			-0.0143711			0.189394			0.471686			-0.515338			0.24543			0.235519			-0.647387			-0.578852			-0.871801			0.196571			0.154934			0.351135			-0.470151			0.915745			-0.435409			-0.254482			0.64422			-0.804641			0.317796			0.0722143			0.23594			0.380333			0.40626			-0.0095212			-0.0210358			0.05308			-0.810899			-0.620313			0.116288			0.167621			-0.642715			-0.525172			-0.0350093			-0.31126			-0.348713			-0.0419093			-0.564159			-0.396467			-0.637254			0.302038			-0.464777			-0.476634			0.23344			-0.828714			0.338434			0.074151			0.109529			0.285839			-0.19517			-0.484744			-0.35802			0.16978			-0.23164			-0.5312			0.379573			0.686096			0.0989409			-0.31025			0.620603			-0.236956			-0.207312			-0.75757			0.948785			0.0427862			0.137517			0.712663			0.666576			-0.502373			-0.235998			0.283033			0.908937			-0.256831			0.487143			0.620946			-0.41913			-0.147389			-0.714437			
0.228094			-0.814289			-0.289372			0.070489			0.207667			0.629332			-0.526678			0.198714			-0.499856			0.157209			-0.0179905			0.0715556			-0.12023			0.442662			-0.943769			0.328656			0.129963			0.364026			0.191088			-0.666324			-0.350719			0.172414			-0.118213			-0.587302			-0.00264304			0.375535			-0.279367			0.113206			-0.661084			-0.152642			-0.711686			-0.0746104			-0.646609			-0.331123			0.14665			0.385303			-0.135699			0.255351			-0.740926			0.318642			0.133417			0.122704			-0.846137			0.564225			0.901086			0.536159			-0.0342369			0.0310151			-0.258703			0.320365			3.17046e-05			0.00357253			0.349452			-0.13651			-0.612903			0.348785			-0.261085			0.0201249			-0.357823			0.535858			0.111382			0.0428063			0.310311			-0.0118026			0.189192			-0.197792			-0.0260446			0.0852013			-0.310549			-0.333882			-0.125293			0.506377			0.524276			-0.853684			-0.921242			0.0217628			-0.266483			0.0637987			-0.182371			-0.997225			-0.366725			0.339788			-0.00992499			-0.428295			-0.483113			0.274829			0.772671			0.439338			0.867615			0.0707252			0.746828			0.195987			-0.105981			0.482677			0.152827			0.0349781			0.38086			0.090355			-0.160169			-0.0495623			
0.101152			-0.135806			0.114112			-0.203151			-0.0115104			-0.509662			0.666633			-0.599307			-0.655533			-0.321269			-0.19685			-0.319756			-0.159			-0.109387			-0.853984			-0.290272			-0.218967			-0.148673			0.324576			0.380048			0.173192			-0.0487225			0.0334437			0.330297			-0.255087			-0.298193			-0.311576			0.0420493			-0.032643			0.175395			0.250607			-0.100607			-0.177581			0.173703			-0.735312			0.315728			-0.335905			0.546714			0.655357			-0.269476			-0.0736822			0.0753033			0.0854343			0.332609			-0.268806			-0.76823			0.0633932			-0.226728			0.608105			0.00498397			-0.434923			0.254791			-0.269647			0.582006			0.487166			0.582914			0.0814852			-0.455459			-0.71916			0.172086			-0.303685			0.248566			0.449736			-0.0549937			0.0542668			-0.595011			-0.484641			-0.347957			-0.243078			0.972586			-0.298835			0.369489			-0.130553			-0.378961			0.338337			-0.175981			-0.701566			-0.760439			-0.342911			-0.715476			-0.179709			0.19066			0.218604			0.346646			-0.11191			0.578511			-0.679594			-0.469134			0.642266			0.0717549			0.0239192			0.0341695			0.445869			-0.401854			0.555422			-0.0120323			-0.841974			0.83227			0.837718			-0.24656			
0.1225			0.264263			-0.375366			0.263759			-0.0222204			0.110654			-0.195667			-0.621836			-0.201068			-0.00431357			0.646154			-0.139985			-0.71282			0.157434			0.124679			0.773815			0.0281451			0.703246			-0.565788			0.287878			-0.299667			-0.320626			0.652496			-0.457992			-0.226369			0.632216			0.495629			-0.375317			0.222766			-0.396523			0.329939			-0.218787			0.0524878			0.832915			-0.268335			-0.283445			0.4039			-0.796606			0.331885			0.29996			-0.567231			0.344943			-0.590772			-0.363002			0.556648			-0.613247			-0.126022			-0.0918093			0.918113			-0.0794331			-0.385784			0.244385			0.191656			0.0379462			0.836368			0.222342			-0.0273939			0.0653214			-0.380261			-0.508326			-0.67303			0.237642			-0.463312			-0.508145			-0.0815378			-0.190536			-0.37268			-0.218327			0.441194			0.428954			-0.318598			-0.00302648			-0.379079			-0.156842			0.53429			0.478054			-0.0615444			-0.588511			0.494654			0.0501973			0.401001			-0.352149			-0.750188			-0.457396			0.272794			0.0627679			0.213102			-0.369954			0.375753			0.33815			-0.0559618			0.766985			0.0175815			-0.719311			-0.323123			0.51443			0.72277			-0.2968			-0.0269815			-0.133907			
-0.592257			-0.359512			0.116509			0.249565			0.0108795			-0.750252			0.418976			0.284554			0.496481			-0.151232			-0.599032			-0.497616			-0.309767			-0.650976			-0.244791			-0.588039			0.566636			-0.509705			-0.206277			0.448303			0.745431			0.11548			-0.27774			-0.873658			-0.185714			-0.482061			0.205368			0.075356			0.356792			-0.074041			-0.371555			0.135589			-0.421616			-0.3579			-0.304336			0.993266			0.0369956			0.809985			-0.211829			0.19516			-0.536691			-0.428597			-0.027826			0.626063			0.400834			-0.0384434			0.345152			0.50656			-0.412112			0.364528			-0.64749			0.387226			-0.0537537			0.260656			0.162991			-0.137248			0.263004			0.182777			0.051129			0.176627			0.258689			0.849909			-0.032881			0.714658			0.241301			-0.149804			-0.265395			-0.421847			-0.00220989			-0.178016			-0.386555			0.240281			0.0338743			0.0852913			-0.191618			-0.519829			0.027941			-0.439159			-0.337251			0.585942			0.227951			0.239952			0.692061			0.764797			-0.141062			0.0826748			-0.284867			0.276186			0.471661			0.324053			-0.0296522			0.8586			0.675815			-0.157597			-0.903909			0.00457142			0.6458			-0.542791			-0.682455			0.609038			
-0.231424			-0.644909			0.471208			0.122778			-0.274325			-0.0777555			-0.135345			0.857207			-0.263453			-0.00871157			0.443746			0.434686			0.107028			0.344667			-0.0320066			-0.682268			0.165784			-0.285274			0.0384213			0.648441			-0.225646			-0.095639			-0.418412			0.828349			-0.269057			-0.521437			0.326629			0.08447			-0.369472			-0.190837			-0.186681			-0.101221			0.282549			0.0344171			-0.305277			0.264791			-0.202574			-0.0651354			0.232353			0.884162			0.126364			0.097449			-0.402795			0.152293			-0.272146			0.172315			0.308471			0.0578037			0.422791			0.243198			-0.209948			0.182584			0.476481			0.0449603			0.0168005			0.241378			-0.314331			0.443881			0.315082			0.417091			-0.0701133			-0.353923			-0.461932			0.440003			0.994664			-0.59048			0.381542			-0.12852			0.518677			-0.38308			-0.778996			-0.116075			-0.23706			0.485667			0.0180666			0.971783			0.00878949			-0.395671			0.135542			-0.411349			0.743654			-0.118795			0.588472			-0.0501159			0.389845			0.0892259			0.0813329			0.641583			-0.266859			-0.201301			-0.210793			-0.302107			0.769339			-0.0844817			0.113863			0.0302162			-0.260826			-0.641019			-0.171288			-0.424504			
0.858008			-0.250927			-0.339165			0.0561093			0.300279			0.213366			-0.0754606			0.332697			-0.243496			0.699639			-0.0889835			-0.158964			-0.0051523			0.653987			0.816043			0.461241			0.528042			0.128796			-0.215791			0.650303			-0.547475			0.011635			0.639079			0.568883			0.0849063			-0.0641455			-0.353656			-0.716482			0.621557			-0.161877			0.0938399			0.800899			0.72038			0.0340974			-0.493899			-0.252853			0.213856			0.289392			-0.502697			-0.195074			0.153379			-0.095002			-0.654945			-0.495059			-0.187115			-0.1687			-0.389548			0.414897			0.2327			0.482607			0.732851			0.112857			-0.128571			-0.722722			0.289665			0.562326			0.384892			-0.17622			-0.0144624			0.249708			-0.716216			-0.0523328			-0.458594			-0.148658			-0.186557			0.758266			0.218735			0.297942			0.132206			0.478271			-0.153916			0.0413374			0.00727901			0.282023			-0.0549836			-0.593507			-0.200448			0.271693			-0.0798208			0.0788535			0.420791			-0.102846			0.200551			-0.571888			-0.202585			0.412611			0.332592			0.898564			-0.559289			-0.136555			-0.0765558			0.783117			0.418596			-0.576999			-0.584391			-0.903816			-0.120585			0.582684			-0.245718			0.946899			
-0.294655			0.227518			-0.76989			-0.443398			0.235269			-0.0134381			-0.398434			-0.695069			0.478793			0.189614			-0.198242			-0.137065			-0.445187			0.418053			0.271888			-0.0750371			0.104755			-0.534775			-0.777548			-0.489875			-0.264138			0.728888			0.0971422			-0.234348			0.105426			0.457924			0.41684			-0.17023			0.363161			-0.0977742			0.378601			0.0194139			-0.538414			-0.440288			-0.283083			0.0272977			0.116964			0.573832			0.516935			0.012167			0.0298456			0.507259			0.301027			0.148857			0.0706891			-0.412511			-0.0631462			0.258291			0.519082			-0.0503797			0.651591			0.220055			-0.864482			-0.0303553			0.336599			-0.319411			0.334549			0.679035			-0.551893			0.398779			0.488123			0.0270041			-0.404925			0.237491			-0.0191224			0.165275			-0.25389			0.114387			-0.920425			0.991008			-0.494422			0.683499			-0.250482			-0.0619231			0.26606			0.233939			-0.17852			-0.314185			-0.571003			0.0823667			-0.313588			0.313138			0.076807			0.0254562			0.440814			-0.0483266			0.0589811			-0.0643897			0.0103319			0.0543509			0.688053			-0.859252			0.476722			0.341813			0.424147			-0.91411			-0.269609			0.787719			0.027942			-0.873992			
0.320281			0.108173			-0.323213			-0.825783			-0.013206			0.150173			-0.0287603			-0.0268543			0.249352			0.984569			-0.226978			-0.397024			0.411154			-0.507391			0.0295074			0.281216			0.700216			0.0148127			-0.650337			-0.446358			0.496529			0.175488			-0.799693			-0.0961269			0.188987			0.312929			0.488724			-0.233636			-0.627738			-0.514932			-0.487158			0.0802973			0.139763			-0.173134			0.12629			0.0488024			0.757464			-0.449813			-0.352002			0.693379			0.483418			0.657583			-0.152068			0.679095			0.818748			-0.286004			0.274014			0.119116			0.408497			-0.988588			-0.787887			0.40076			0.796787			0.201233			0.175428			-0.06749			-0.890469			-0.0143331			-0.0686572			-0.143346			0.437023			-0.322796			0.113742			0.168558			-0.966369			-0.484649			0.163012			0.814496			0.256436			0.939561			-0.604129			0.023625			-0.544117			-0.315638			-0.334192			-0.0881464			0.164193			0.219181			0.443822			-0.753191			-0.207347			0.805189			-0.377332			-0.225813			0.791579			0.21505			-0.654427			-0.300586			-0.108749			-0.234009			0.563114			-0.501926			0.551239			-0.402396			-0.432205			0.424897			0.0940457			0.691143			0.45952			0.262579			
-0.106168			0.871746			-0.428926			0.201796			0.851386			0.23308			-0.468159			0.666066			-0.435165			0.335644			0.201949			0.348792			0.000707828			0.520381			0.812361			0.380979			0.0112089			-0.0492634			0.455428			0.187049			-0.72639			-0.0262363			-0.536127			-0.464472			-0.762833			-0.536997			0.26671			-0.0900337			0.00378131			0.232538			0.637014			0.294835			-0.284475			0.0177591			-0.311808			0.42658			0.548251			-0.00854629			-0.404692			-0.129951			0.332858			-0.035731			-0.446788			0.550687			0.400604			0.781418			-0.0751251			-0.310384			-0.910339			0.130346			0.15569			0.420601			0.925462			0.9376			-0.0448119			0.746742			-0.203086			-0.0129802			-0.410176			-0.110668			0.567897			0.473891			0.657953			-0.0714274			0.475008			-0.584924			-0.196421			-0.810704			-0.57133			-0.313016			-0.434901			0.281711			0.500356			-0.633597			-0.322307			0.0443866			0.389007			0.82857			0.0737856			0.106285			0.0124175			-0.0183901			-0.425975			-0.800689			0.18377			0.61119			-0.588382			0.56372			-0.370419			0.939443			0.0811456			0.302841			0.787774			0.541848			-0.264714			-0.738941			0.215244			0.315572			-0.698223			0.220396			
0.300321			-0.321615			0.0137109			-0.617339			0.261248			0.0937524			0.204279			-0.203356			0.356938			0.668953			-0.288297			0.32803			0.159338			0.454365			0.210151			-0.888808			0.670458			0.370848			-0.179698			-0.2609			0.404442			-0.390922			-0.233272			-0.414822			0.527984			0.583833			0.328897			-0.11			0.660428			-0.380994			0.600321			-0.0551845			-0.185865			-0.170133			0.276328			0.484757			-0.283308			0.24353			-0.755385			-0.279442			0.0671645			-0.0063181			0.116316			0.260182			-0.651977			-0.0683258			-0.0225234			-0.431765			-0.362571			0.684673			0.758112			-0.0948228			-0.162365			0.371745			0.612188			0.138786			-0.613433			-0.237674			-0.473329			-0.266393			-0.696946			0.0852202			0.959728			0.449183			0.830206			0.013742			-0.487025			0.140019			0.101047			-0.149952			-0.0797969			0.154761			-0.279747			-0.973991			-0.518731			-0.363981			0.400232			-0.671212			0.475756			0.554918			0.415016			0.547294			-0.319719			-0.888511			-0.815111			0.423706			0.746122			-0.540766			-0.0600987			-0.818189			0.802586			0.0936835			-0.0278159			0.583129			0.0812721			0.323214			0.191695			-0.0838359			-0.579784			0.0390114			
-0.161021			-0.969788			-0.0998562			0.574879			0.084722			0.0803724			0.164695			-0.03768			0.0734041			-0.0460404			-0.287891			0.693339			-0.060248			-0.0188485			-0.0762133			-0.799268			-0.241012			0.446088			-0.696927			0.335788			0.818712			-0.0379596			-0.466522			-0.375325			-0.898514			-0.548527			-0.474276			-0.443546			0.143774			-0.597115			0.807038			-0.59413			-0.470286			-0.127865			0.868867			-0.0167268			0.692772			0.865403			0.177317			0.381137			-0.303378			-0.574403			0.611015			-0.400473			0.398157			-0.26466			0.528951			-0.980761			-0.298072			0.0495938			-0.785597			0.277901			0.000280531			0.913497			0.371593			-0.323539			-0.56353			0.373384			0.424462			-0.337582			-0.483266			0.803999			0.0908058			0.582918			-0.573231			0.00474198			0.546462			0.589355			0.095016			-0.189137			0.673177			0.559077			-0.0623687			-0.212906			-0.285419			0.456303			-0.321263			-0.14077			0.0217705			0.137831			-0.143164			-0.810949			0.273168			-0.139589			0.347721			0.23357			-0.480323			-0.743427			-0.0759438			-0.763594			-0.349142			0.27322			0.760496			0.18437			0.646467			-0.285323			-0.540094			-0.512014			-0.202712			0.987051			
-0.181749			0.0132726			0.302364			-0.242621			0.410456			0.0729089			-0.79416			0.440113			0.0283213			0.478935			-0.00144666			-0.477497			-0.136543			0.19681			-0.675523			-0.762509			0.471848			-0.627873			-0.31859			0.840748			0.513092			0.128216			-0.323378			-0.138653			-0.329607			-0.509753			0.0783863			0.151267			0.375191			0.219495			0.706306			0.362634			0.482767			0.198818			-0.319903			-0.163516			-0.380555			-0.207418			-0.238511			-0.232422			-0.567786			0.219227			0.142196			-0.258178			0.724792			0.902181			0.271023			0.0126978			0.113866			0.132884			-0.325039			-0.103911			0.832803			0.67405			0.192566			0.18729			0.0361681			0.43219			0.0877794			0.254987			0.546198			-0.402352			-0.0625402			-0.151334			0.253078			0.242132			0.387022			0.344371			0.188641			0.231936			0.391313			0.156957			-0.0376559			-0.184681			-0.353616			0.231223			0.444597			-0.703876			-0.506552			-0.35367			-0.340647			0.133813			-0.423589			0.427037			0.0446789			-0.813318			0.801051			-0.671711			0.13014			-0.4559			0.70392			0.244344			0.173203			-0.307263			-0.237987			-0.568371			0.533167			-0.528147			0.110375			-0.265158			
0.417331			0.565472			-0.145814			0.529253			0.14378			0.911023			0.249897			-0.66526			-0.086417			0.00319474			-0.254418			0.55973			-0.667203			-0.87422			-0.468106			-0.0454183			0.295787			-0.163295			0.335695			-0.126935			-0.285363			0.922209			0.0308115			0.165723			0.502603			-0.128331			-0.559752			0.0237001			0.293081			-0.696887			0.491388			-0.800902			-0.387874			0.049879			0.569868			0.581038			-0.490728			0.819033			0.112766			0.0879744			0.751689			0.833409			0.0247941			-0.14153			-0.0118752			-0.50717			0.175251			0.295507			-0.174748			0.207665			0.41364			0.0535153			-0.311983			-0.0892517			-0.660557			0.21663			-0.259188			-0.60847			0.313318			-0.525605			0.122583			-0.132993			-0.498425			0.907346			-0.228922			-0.243608			-0.244909			-0.749968			0.157126			-0.419159			-0.2732			-0.852756			-0.822615			-0.633551			-0.993174			-0.218314			-0.706632			0.578859			-0.203098			0.344779			-0.358853			0.883965			-0.346851			0.493316			-0.19321			0.697109			0.303033			-0.234157			0.342484			0.429295			-0.765205			0.188551			0.13847			-0.729606			0.0546018			0.811529			0.241259			0.598558			-0.125525			0.800978			
-0.754538			-0.420273			-0.094066			-0.913538			-0.611127			-0.18112			-0.0794306			-0.491531			-0.121438			0.740375			-0.1942			0.0433144			-0.516456			-0.264458			0.0477481			0.312049			0.011248			0.0783216			-0.268223			0.823156			0.21528			0.0344472			0.0242895			-0.0382427			0.62549			0.0266255			0.00555784			0.0703057			-0.0950877			-0.0635397			-0.0059507			0.51888			-0.207997			0.0584788			0.244063			-0.0118913			-0.740947			0.0201646			0.843581			0.0739583			-0.77276			-0.411496			0.100266			-0.530745			-0.28455			0.302081			0.276729			0.143561			-0.517586			0.354134			-0.16701			-0.24803			0.794674			0.216687			0.61833			0.939329			0.763686			0.731803			0.144048			0.401711			0.138245			0.224587			-0.175528			-0.58687			-0.972513			0.160824			0.735386			0.266934			-0.409901			-0.556423			-0.227997			0.184532			-0.2076			-0.584124			0.261116			0.415873			-0.242558			-0.0639133			-0.608506			0.155909			-0.473463			0.192562			-0.0442171			0.787227			0.138685			0.109192			0.267692			-0.312814			0.610808			0.430579			-0.625049			-0.24357			-0.422635			-0.406673			0.362535			0.283506			-0.113485			-0.136582			0.0836637			0.302985			
-0.343938			-0.115418			0.0863383			0.193886			0.155623			0.533401			-0.965728			0.016889			0.951964			-0.25925			0.731716			0.306703			-0.203278			0.609134			0.49615			-0.0788181			-0.0528514			-0.174398			-0.375929			0.268104			0.137757			0.344332			-0.870016			-0.501317			0.311595			0.622027			-0.0513404			-0.713844			-0.476155			0.658774			0.315657			-0.338075			-0.140531			-0.539768			-0.598728			-0.100292			-0.619554			-0.481989			-0.254921			0.174748			0.151827			0.421706			-0.274545			-0.792952			0.391827			-0.332173			0.409267			0.0725711			-0.147976			0.333087			-0.705672			-0.0633785			0.299517			-0.12955			0.409496			0.601957			0.43186			0.713555			0.436474			-0.0848574			-0.0315695			0.758687			-0.664327			0.138129			-0.0459804			-0.697971			-0.0815845			0.119919			-0.175565			0.0786227			-0.424862			0.314621			-0.201543			0.0489778			-0.419283			0.344166			0.79521			0.443064			-0.350008			0.726525			0.447847			0.395273			0.427037			0.40929			0.287484			0.287852			-0.924647			0.118584			-0.0328305			0.52611			-0.153637			-0.582679			-0.528092			0.454854			0.236352			-0.0170026			-0.671535			-0.295118			0.0951892			-0.417192			
-0.177429			0.218761			-0.058727			0.126911			0.0330803			0.0606325			0.04243			0.337644			-0.134901			-0.211975			-0.410432			0.153749			-0.204267			0.586671			0.465953			-0.305484			0.28522			0.239002			-0.237351			-0.136506			0.0886111			-0.30579			0.361975			-0.182592			0.458813			-0.136171			0.13524			0.211912			-0.427525			-0.850161			-0.42474			-0.13155			0.102972			-0.255521			0.675808			0.40468			0.614373			-0.238559			-0.0576332			0.798071			-0.585308			-0.225754			0.592441			-0.0343654			-0.0637542			-0.499724			0.245257			0.740431			-0.296394			-0.597572			-0.206019			-0.470607			-0.507744			-0.549283			0.669741			0.305219			0.610263			-0.298104			0.688132			-0.0767612			0.120514			0.417509			-0.585327			0.587535			-0.844416			-0.108819			-0.363874			-0.135191			0.210636			-0.293458			0.63017			0.978852			-0.0667409			0.531362			0.20578			0.496509			-0.0683238			0.533469			-0.126947			0.245637			0.0874019			-0.0878599			-0.022666			0.469908			-0.367248			0.639789			0.0540677			0.279103			-0.183602			-0.792717			-0.100627			-0.55637			0.398448			0.219068			0.353641			0.10147			0.537792			-0.865068			0.240792			-0.641777			
-0.639908			-0.0829167			0.100941			-0.471941			0.535682			-0.81053			0.105681			0.368215			-0.410731			-0.0637125			-0.834694			0.452243			-0.265106			-0.407049			-0.031564			-0.0912967			0.323318			0.901958			-0.0591844			-0.353882			0.098031			-0.887738			0.118295			0.408436			0.591225			0.211454			0.199727			0.426297			-0.381493			-0.427847			-0.544888			-0.329336			-0.0752441			0.317123			0.544918			0.345337			-0.0342598			-0.548446			-0.258995			0.0831895			0.473703			0.108888			-0.139278			0.0280843			0.481054			-0.725718			0.0720628			-0.343401			-0.279089			0.0677723			-0.209804			0.630425			-0.0364876			0.0593008			0.100214			-0.410557			-0.0513007			-0.080347			-0.62098			0.0283737			-0.262927			0.369688			-0.417221			0.328947			0.150809			-0.926822			0.314581			0.491822			0.902989			0.201578			-0.24225			-0.294392			-0.432865			-0.0687485			-0.672037			-0.575936			-0.515612			-0.0370813			-0.345916			0.0721003			-0.380575			0.397451			0.83077			-0.396413			0.401281			-0.105229			-0.891645			0.0144502			0.46831			-0.424175			-0.683971			0.240936			0.0564174			0.83308			0.49166			0.152686			0.539656			-0.62199			0.108619			-0.530417			
-0.607556			-0.174486			-0.762936			0.402739			0.628224			0.529263			-0.476088			-0.0175114			-0.603214			-0.12735			0.619196			-0.0989454			-0.511899			-0.266738			-0.447207			-0.767549			0.0495669			0.029437			0.500935			0.733877			0.417747			-0.0380685			-0.981208			0.559141			-0.0513746			0.711368			-0.76358			0.313031			0.0579649			-0.318742			-0.403131			-0.261733			0.176554			0.232285			0.709816			0.308458			0.52324			-0.339204			-0.276031			0.41566			-0.499961			-0.753799			0.456165			-0.476096			0.390512			0.228936			-0.431952			-0.428346			-0.00266215			0.232383			-0.308347			0.453067			0.0191841			0.233821			0.0403156			0.841199			0.0684678			-0.417621			-0.639808			0.0818967			0.739397			-0.404726			0.35721			0.233068			-0.69465			0.262974			0.103378			0.805241			0.389454			0.894828			-0.796004			0.450825			0.392974			-0.170044			0.272356			0.477268			0.447652			0.186637			-0.207005			0.811961			-0.440771			-0.355248			-0.616433			-0.56172			0.0706632			0.526087			0.438853			0.385068			-0.540915			0.540554			0.386721			0.0414298			0.669674			0.597816			-0.852558			0.324721			-0.468953			-0.160395			0.601023			0.131356			
-0.00323376			-0.53406			0.659991			-0.0275454			0.116524			0.0179915			0.205538			0.180698			0.477375			-0.137305			0.395458			0.8789			0.768032			0.615963			-0.0485696			0.265276			0.767446			-0.174962			0.281435			-0.625854			-0.202649			-0.476922			-0.593926			-0.640868			0.0835704			0.00303295			-0.501788			-0.537528			-0.667323			0.10416			-0.5732			0.159206			0.94548			0.319121			-0.562032			0.412087			-0.412959			-0.4323			-0.724596			0.171707			-0.201573			0.0435614			0.70816			-0.00819489			0.415621			0.372191			-0.473345			-0.125773			-0.578724			0.747814			0.314509			-0.816739			0.344389			-0.569034			0.297326			-0.156471			-0.711939			0.890187			-0.603402			0.771837			-0.140528			-0.549983			-0.13329			-0.981634			0.922037			0.0741479			-0.302335			0.480995			-0.364081			-0.50041			0.495397			-0.219251			-0.0151689			0.126997			0.0670044			-0.531345			-0.470864			-0.0665017			0.205522			-0.407102			0.10501			-0.354157			0.039506			-0.227902			-0.832441			0.796546			0.146755			0.26211			0.275397			-0.208592			0.970792			-0.145951			0.777474			-0.193045			0.779285			-0.543385			-0.0147338			0.113874			-0.560071			0.00346599			
-0.486635			0.0323364			0.391185			0.707875			0.844043			0.160427			0.699371			-0.207035			0.153523			0.57796			-0.492723			0.486577			-0.0330198			0.410492			0.241918			-0.256011			-0.92581			-0.173226			0.677146			0.559964			0.0728489			-0.128422			-0.664767			-0.00357721			0.18391			0.746533			0.27432			-0.305575			0.0524347			0.0880902			0.0750667			0.0770435			0.447868			0.227048			-0.120574			-0.267591			-0.0596736			0.245607			-0.573476			-0.576061			0.164317			-0.395658			0.515485			0.47357			-0.357503			0.335009			-0.285588			-0.393974			0.171807			0.104838			-0.551139			-0.356588			0.364146			0.294939			0.62828			0.409735			0.0666253			0.530131			0.664981			-0.763303			-0.0652008			0.410996			0.353924			0.324748			0.497454			0.225732			0.0481965			0.108635			-0.606977			0.664752			0.0716973			-0.0240573			0.442201			-0.318351			-0.61569			0.313842			0.458022			0.587915			0.210835			-0.0518598			0.214969			-0.163448			-0.0795181			-0.266451			0.0291719			0.460296			0.188337			-0.0729374			-0.0987866			0.851157			-0.280992			0.893037			0.146381			0.528007			-0.17372			0.70579			-0.107673			0.136048			-0.218094			-0.436822			
0.49774			0.245942			-0.50411			-0.512589			0.0669934			0.231777			0.280802			-0.126068			-0.223304			0.416563			0.168323			0.746757			-0.486603			0.0747			0.514529			0.535649			-0.405897			0.713447			0.205516			-0.15514			0.993479			0.0553878			-0.173506			0.231384			-0.103845			-0.218816			0.435045			0.308294			-0.195423			0.286432			0.723084			0.315473			0.2916			0.0484565			0.296221			0.704791			-0.400718			-0.608299			0.655236			0.12947			0.25229			-0.415232			0.563547			0.490891			-0.154399			0.383115			0.164793			-0.315658			-0.249471			0.461174			0.0407727			-0.175792			0.0179506			-0.764509			-0.794123			-0.334724			-0.306312			0.584555			-0.00405137			-0.196853			0.560291			-0.144644			0.91659			-0.96182			0.593124			-0.0336655			0.203771			0.163771			0.430728			-0.274803			0.852733			0.187289			0.653437			-0.284685			-0.730669			-0.750953			0.225535			0.274426			0.573778			-0.115063			0.0922222			-0.271114			0.0281817			-0.136612			-0.377213			-0.163383			-0.885599			-0.418473			0.561819			0.472474			0.298369			0.559226			0.485944			-0.43323			-0.954565			-0.842669			0.144154			0.73088			0.333157			-0.528918			
-0.687844			0.00434264			0.361835			-0.308514			0.0235699			-0.327926			0.38634			-0.00342598			0.0328188			0.0390663			0.346238			-0.389545			-0.88934			0.664706			0.603698			0.142372			-0.650087			0.988647			-0.543079			0.533763			0.306593			-0.0573814			0.931453			-0.297458			-0.063402			0.8812			0.104382			-0.0609553			-0.000775072			0.562703			-0.429805			-0.356646			-0.72638			-0.294245			-0.533313			0.820003			-0.366239			0.394602			-0.309041			0.0821153			-0.254421			0.0334796			0.343732			-0.0403977			0.141718			0.562481			0.0734802			0.688392			0.452598			0.430463			-0.521287			0.24183			0.307995			-0.477415			0.090985			-0.0378334			0.153007			0.531773			0.661583			-0.112254			0.0912353			-0.527399			-0.81326			-0.568326			0.402117			0.281621			0.0359282			-0.0655756			-0.121808			-0.0706528			0.451274			0.563517			-0.259643			-0.28296			0.774534			-0.397749			0.586567			0.321784			0.359414			-0.137456			-0.111639			0.316112			-0.256376			0.107138			-0.659419			-0.426374			-0.62726			0.0463544			-0.298281			0.0259915			0.506121			-0.257031			0.0799152			0.00121179			-0.602152			0.612156			-0.168813			-0.351285			0.436578			-0.324595			
-0.648945			-0.0981982			-0.4554			-0.127463			0.441023			-0.601581			0.280374			0.310281			0.0213579			-0.520456			0.429282			0.390128			0.822957			-0.403518			0.763503			-0.557367			-0.0637943			-0.189665			-0.182063			0.131353			-0.219681			0.278416			0.514475			-0.44368			0.402638			-0.407095			0.2339			0.657385			0.721044			-0.164639			-0.58497			0.346042			0.131129			0.320095			-0.0784211			0.0869614			0.198045			0.0735221			0.689938			0.291563			-0.133023			-0.340271			-0.960964			-0.0187776			-0.490733			0.442263			0.135872			-0.123633			-0.768797			-0.304845			0.90247			-0.0990913			-0.16146			0.291595			-0.239003			-0.962512			0.855918			0.709965			-0.0916515			-0.201357			0.675973			-0.404171			0.288747			-0.913393			0.435146			0.501344			0.175613			-0.147316			0.610168			0.37743			0.167001			0.786975			0.425219			0.0555273			-0.98267			0.468904			-0.262212			-0.17099			0.407336			0.342801			0.0453519			-0.183285			-0.0963175			-0.267149			-0.122771			-0.304251			-0.459653			0.382224			-0.0643087			-0.529873			0.295948			0.250155			-0.575004			0.477239			0.0823966			-0.134305			-0.176668			-0.451464			0.481188			-0.163456			
0.874477			0.257978			0.0979057			-0.853916			0.371765			-0.284308			0.0477771			0.770913			0.659986			0.11411			0.000781476			-0.347563			0.509369			0.128134			-0.173623			0.645331			-0.73025			0.525768			0.512455			0.203604			-0.419578			0.596578			-0.33053			0.568931			-0.272468			0.632338			0.172315			0.177479			0.0352735			0.87104			-0.671549			0.512574			-0.0405031			0.709157			-0.34666			0.0531374			-0.273032			-0.463122			0.0535868			-0.440102			-0.355176			0.378171			-0.136938			0.249419			0.296188			-0.599686			0.267269			0.126146			-0.418808			-0.802876			-0.17975			-0.349066			-0.250393			-0.574937			0.494655			-0.508861			0.416588			-0.688573			-0.415496			0.344759			-0.0151302			0.111243			0.199261			-0.259695			-0.755253			-0.508772			-0.818573			-0.928326			0.0809013			0.286626			0.254296			0.341299			-0.559844			0.944085			-0.231946			0.583419			0.308364			-0.030634			-0.391073			0.656655			0.0366574			0.0631896			-0.0810897			-0.310333			0.251397			0.187584			0.0701219			-0.0173559			-0.59667			-0.401837			-0.0856489			-0.0443894			-0.354478			0.127502			0.0810066			0.11331			0.16777			-0.236548			-0.32856			0.703271			
0.0678434			0.168875			-0.571423			0.411759			0.253371			0.267545			-0.38392			-0.450487			0.388902			-0.463822			-0.129705			0.0272387			0.0992403			-0.743788			-0.0886143			-0.0239			0.358043			-0.0868363			-0.407809			0.984074			-0.188			0.43733			-0.188988			-0.627017			-0.919271			-0.931091			-0.0505518			0.0785018			-0.208305			0.318387			-0.0695326			0.260396			0.058878			-0.920589			-0.139616			-0.883272			0.421445			-0.109716			0.0721091			0.245635			0.51174			-0.369871			0.553437			-0.633556			-0.164585			-0.243903			0.452324			-0.0139554			0.484248			-0.38184			-0.099762			-0.142389			0.539436			0.157729			0.626346			0.0541626			0.0731794			-0.485516			-0.160869			-0.382401			-0.235931			0.567465			0.239727			0.584567			0.356525			0.00621096			0.486301			0.364339			0.443397			-0.48262			0.573083			-0.159658			0.113087			0.00578592			-0.59286			-0.492698			0.5789			-0.00824207			-0.0797352			0.559593			0.774455			-0.0968459			-0.233967			-0.978742			-0.249764			-0.169156			0.0329389			0.18757			0.593354			0.153436			-0.904663			0.43381			-0.260097			0.873592			-0.0480124			-0.645267			0.50975			0.406292			0.200596			-0.747217			
0.426776			-0.432293			-0.650141			0.0172109			-0.199968			0.348875			-0.00697613			0.672972			-0.77815			0.409324			0.759679			0.0939644			-0.225745			0.608703			-0.0950401			-0.424634			-0.413866			-0.550428			-0.95043			-0.795784			0.48465			-0.0264478			-0.0750957			0.424007			-0.865152			0.0869606			-0.517717			-0.206512			0.787261			-0.216643			0.0112483			-0.161522			0.294986			-0.256242			-0.0701453			-0.210878			-0.769835			0.216809			0.783593			-0.0613816			0.0349506			-0.37121			0.343437			-0.128728			-0.723742			0.421741			0.339161			0.0360451			0.140195			0.223882			-0.697993			0.218002			-0.16719			-0.158547			-0.291524			-0.465428			-0.663116			-0.499776			0.183588			0.256576			0.135117			-0.355758			0.100107			0.276943			-0.578592			-0.422785			0.558972			0.0940759			0.0012583			0.12394			0.0419073			-0.47698			-0.347911			0.990366			0.0286231			0.344825			-0.0813509			-0.0982298			-0.31182			-0.315109			-0.0866206			0.141113			0.403679			-0.379734			-0.1824			0.204626			-0.403314			0.596172			-0.217273			-0.948651			0.139979			0.109155			-0.0675865			-0.327702			-0.239984			0.135444			0.302849			0.249063			-0.464934			-0.383123			
-0.300833			0.250268			-0.969524			0.173947			0.0468778			-0.472756			0.268122			-0.0264911			0.144967			0.183943			-0.502239			-0.344174			-0.264059			-0.478478			-0.203044			-0.484756			0.414326			0.480691			-0.408732			0.415051			0.881516			-0.444023			-0.246843			-0.375415			0.0901147			-0.841181			0.0925814			0.23372			0.483855			0.0582633			0.731553			0.0924516			0.0722504			-0.35042			0.24882			-0.403523			-0.577684			0.122351			0.538052			-0.361932			0.159375			0.0791447			-0.372013			0.331192			-0.810173			0.865769			-0.774928			-0.31817			-0.19978			0.0178374			0.676345			-0.0556736			-0.349568			-0.319877			-0.434349			0.758744			-0.718542			-0.497337			0.443725			0.442049			0.583067			0.317098			0.254053			0.118461			0.314243			0.962098			0.357341			0.799955			-0.299277			0.544183			0.104533			-0.503435			0.306617			-0.252756			-0.504969			0.0580882			-0.972771			-0.166723			0.624193			-0.192993			-0.783118			-0.322619			0.458304			0.952531			0.732928			-0.365547			0.41			0.122908			0.0868251			0.0651008			0.247356			-0.0266344			-0.571867			-0.259095			0.214114			-0.104386			-0.211151			-0.184054			-0.720892			-0.59316			
0.266233			-0.829764			0.344655			0.277156			-0.0552011			0.761965			0.789662			-0.66298			-0.199587			-0.0705027			0.412973			0.401977			-0.251768			0.392078			0.643886			-0.940853			-0.264556			-0.372937			-0.135053			-0.12616			0.852399			0.220141			-0.328895			0.426096			-0.750229			0.187194			0.018857			-0.903841			-0.418138			-0.554479			-0.750618			0.0459583			0.0894266			0.540019			0.0513998			-0.243011			-0.437031			0.342628			0.503294			-0.225988			0.378403			-0.0339868			0.122368			0.371431			0.72448			0.313457			-0.822382			-0.205446			0.549417			-0.214162			0.0158476			0.111575			-0.127129			0.215675			-0.0685964			-0.209372			0.0499865			0.28967			-0.00171445			-0.140358			-0.510303			0.0133517			-0.235772			0.674103			-0.551701			-0.336801			0.232172			0.447956			-0.349805			-0.553491			0.0467982			-0.245703			-0.0921692			-0.326031			-0.985433			-0.12501			-0.310794			-0.679463			-0.729721			0.147363			0.484672			0.356146			-0.382927			0.401426			-0.0116055			0.415896			-0.465304			0.00682579			0.29933			0.725559			0.240787			-0.526787			0.163862			0.0439111			0.707159			0.13755			-0.26871			-0.409205			0.748291			0.700867			
0.166639			0.531297			0.203088			0.0564878			0.501287			0.382533			0.0911181			0.393977			0.537189			-0.6518			-0.281514			0.0815164			-0.345656			-0.270276			0.187999			0.630352			0.341788			-0.0791347			-0.863708			-0.267557			-0.283477			0.700325			-0.255677			-0.668638			-0.133622			0.872867			0.120611			0.336721			0.0370535			-0.113359			-0.566797			0.225539			-0.0215741			0.992591			0.386962			-0.545479			-0.839216			-0.0023742			-0.4863			0.470726			0.0811616			-0.0399825			-0.0334397			-0.0832695			0.40099			0.534677			-0.403124			-0.0813706			-0.513957			-0.424281			0.912806			0.227298			-0.0637187			-0.0168778			0.611947			0.152076			-0.173282			-0.148504			0.348509			0.677943			-0.261215			0.491997			-0.082914			-0.718042			0.215592			0.848886			-0.0297256			0.172811			-0.668887			0.259637			-0.319669			-0.158704			0.469057			-0.223967			0.34938			0.763365			-0.412767			0.728958			-0.047928			-0.192528			-0.0155498			0.0641594			0.609522			0.171649			-0.517195			0.178687			-0.147734			0.262209			-0.230913			-0.189535			-0.227758			0.434911			0.492208			0.168502			0.813374			-0.476409			-0.548706			-0.440865			0.253335			0.106672			
0.509242			0.0242371			0.635724			-0.389857			-0.0196168			0.27939			-0.566028			0.288194			-0.716341			0.0966472			0.645791			0.71649			0.312706			-0.348601			-0.851098			0.921836			0.137555			-0.704653			0.188527			-0.674936			-0.786406			0.620513			-0.775365			-0.12564			0.30082			-0.362184			-0.619129			0.528612			0.140078			-0.469784			-0.0115419			0.108184			-0.680219			-0.448611			0.402682			0.15952			-0.803537			-0.579315			-0.445037			0.272374			-0.129808			0.768957			0.491142			-0.172508			0.816422			0.452338			-0.565493			0.706579			-0.352898			-0.590834			-0.124306			-0.127013			-0.0740586			-0.0589446			0.253261			-0.0670071			0.514832			-0.212437			-0.116814			-0.313656			-0.524549			0.256907			0.454323			-0.145131			-0.0153579			-0.534216			-0.027417			0.262867			0.11639			-0.781799			0.875708			0.295832			-0.460267			-0.0752518			-0.0657101			-0.686843			-0.350165			-0.0136446			0.767431			0.699439			0.580329			-0.545208			-0.119787			0.770955			0.287746			0.922782			0.303357			0.0335966			-0.553025			-0.00836582			0.354169			-0.907879			0.821223			0.442079			0.739719			-0.449491			-0.406333			-0.174597			0.396453			-0.671397			
-0.35713			-0.862687			0.0768485			-0.510985			-0.0466634			-0.247239			0.015285			-0.376308			0.00838216			-0.0651107			-0.197114			-0.196397			0.0739768			-0.238355			-0.494288			-0.698177			0.518465			0.544886			-0.38622			0.953406			-0.0288872			0.0821375			0.993928			0.132263			0.315131			-0.71866			0.409387			0.255947			0.348985			0.516174			0.752367			0.197012			0.686225			0.631582			-0.105986			-0.15208			-0.0228831			0.935121			0.778858			0.422951			0.496505			0.417242			0.0420347			0.415011			-0.697137			0.366169			0.404348			-0.553272			-0.638715			-0.275526			0.358466			-0.22786			0.58798			0.31032			0.378691			-0.495527			-0.405081			0.163143			0.613342			0.0271412			-0.641464			0.451511			-0.105175			0.250883			0.659144			0.34929			0.433612			-0.509406			-0.469188			0.504303			-0.927408			0.72908			-0.489129			0.351939			-0.392484			-0.77806			0.202603			0.575578			0.213095			0.305935			0.082684			-0.232872			0.0970097			-0.0621266			-0.574646			0.0268879			0.521196			-0.985413			-0.299768			-0.104645			0.499981			0.531494			-0.620587			-0.467811			0.170985			0.0054033			0.547297			0.192499			-0.669383			0.0645696			
0.229594			0.332131			0.53082			-0.220487			-0.197033			-0.09304			0.320731			-0.518912			-0.914969			0.142252			-0.181629			-0.739818			0.834947			0.796206			-0.525245			-0.589031			0.486039			-0.133058			0.683751			-0.255152			-0.663452			0.587213			0.81782			0.193395			0.0763444			-0.0643293			-0.410556			-0.324383			0.102962			0.76218			0.867657			-0.427589			0.716825			-0.513307			-0.341978			0.136516			0.50775			0.244878			-0.496859			0.354917			0.0192116			-0.524148			-0.0754897			-0.204134			0.0203343			0.219458			0.123066			-0.121598			0.0687982			0.700559			0.505461			-0.311685			-0.0856555			0.0368481			-0.16337			-0.478679			-0.318147			-0.392571			-0.778882			-0.251635			-0.959915			0.024946			-0.16927			-0.205497			-0.24963			-0.039468			-0.030773			-0.843409			0.0381345			0.263292			-0.609749			0.26123			-0.0604109			0.541084			-0.015046			-0.147217			0.0957845			0.948242			0.00131173			-0.351379			-0.275178			-0.207548			-0.152841			-0.569213			0.2767			0.100686			-0.548711			0.0786196			0.0345925			-0.519306			-0.144853			0.52268			-0.71829			-0.631488			-0.215588			-0.0509339			0.75429			-0.050922			-0.849675			0.067279			
0.492283			-0.497701			-0.25886			-0.448281			0.776178			0.188023			-0.290153			-0.622683			0.0873995			0.276821			-0.299831			0.556185			-0.602909			-0.449971			0.0301276			0.241852			-0.272564			0.00413606			0.913253			-0.273316			0.540041			-0.445474			0.308906			0.311519			0.870481			0.0834557			0.312399			-0.148527			0.674325			-0.729888			-0.487736			-0.946846			0.173927			-0.472845			-0.428268			0.354191			0.0797651			-0.609664			0.244052			0.352324			-0.405833			0.540883			0.750452			0.876302			0.180168			0.909373			-0.266332			0.640603			-0.347847			-0.306445			-0.493405			0.476155			-0.452728			0.40128			-0.853472			0.0555029			0.916175			0.230751			-0.188748			-0.0557638			0.589907			0.277326			0.117583			0.32035			0.190292			-0.192998			0.734528			-0.103165			-0.361683			0.479758			-0.229286			0.646042			-0.355085			0.680365			0.160837			-0.196559			0.0332592			-0.0896998			0.399456			-0.166355			-0.191205			0.606981			0.566057			0.226311			-0.314324			0.597053			0.0706329			-0.0598916			-0.337461			0.568328			-0.0863815			0.468419			-0.320589			0.356979			-0.274767			0.703128			0.375335			0.531046			-0.484343			-0.928224			
-0.636887			-0.107164			0.751245			-0.663921			0.0365317			-0.794697			-0.0676866			-0.425541			0.378105			-0.297514			0.0186091			-0.205178			0.255648			0.229884			-0.645325			0.377139			-0.854702			-0.32402			-0.0815143			-0.408835			0.0201483			0.0665514			-0.706096			0.0319595			0.266256			0.167628			-0.492404			-0.365757			-0.373404			-0.118054			-0.110881			-0.047262			-0.170384			-0.300529			-0.667669			-0.229192			-0.794551			0.266574			0.592985			-0.00445495			-0.289397			0.106023			-0.281546			0.30071			0.286264			-0.118248			0.258332			-0.288522			-0.549886			0.218223			-0.0192433			0.579335			-0.149175			-0.0772815			-0.311053			0.313841			-0.331421			-0.344254			0.295301			0.915597			0.0668519			0.388637			0.191084			-0.0173241			0.0653766			-0.372385			-0.102729			-0.910627			-0.116337			-0.426921			0.573792			-0.728158			0.13609			-0.282888			-0.0988039			-0.770416			-0.878055			0.53428			0.493365			0.513223			-0.742415			0.146397			-0.433755			0.107854			0.626794			0.140239			-0.407548			0.980481			0.156087			-0.161993			0.475904			-0.0748139			-0.131197			-0.395348			-0.252476			0.392537			-0.446829			0.621519			-0.347686			-0.321819			
0.945221			-0.0440331			-0.681909			0.138019			-0.000217764			0.300127			0.608571			-0.169521			0.409071			0.865142			-0.151499			0.162513			0.145513			-0.714218			-0.739906			-0.555568			-0.321563			-0.661532			-0.0454006			-0.0791387			-0.214726			0.162225			0.927348			-0.148484			-0.582198			-0.493431			-0.385116			0.881576			0.306056			0.0176759			0.511312			0.349788			-0.553256			-0.0712781			0.517179			-0.574742			0.422696			-0.176558			0.62201			0.0962322			0.126353			-0.0863453			0.0939178			-0.0729007			0.372205			-0.00695848			-0.164146			0.108474			0.294991			-0.044688			0.494124			0.676511			0.00352116			-0.337294			0.389185			-0.050483			0.17646			-0.205539			0.0416082			-0.643259			0.0699747			0.231486			-0.344884			-0.414583			0.468909			-0.218225			0.482278			0.158824			-0.540317			0.109653			-0.44308			-0.125889			-0.167337			-0.184084			0.921041			0.0602122			0.252787			0.296826			-0.259016			-0.249182			0.578212			-0.345707			0.619821			0.617118			-0.123574			0.964034			0.16954			-0.281599			0.478494			-0.5807			-0.520926			-0.363735			-0.00804464			0.386078			0.526953			0.0817407			-0.50849			-0.469898			-0.353285			0.585338			
0.0960571			-0.292938			-0.277475			-0.497126			-0.0865333			-0.855971			-0.282736			0.0793166			-0.324003			-0.751612			-0.586327			-0.465291			0.0224416			0.25581			-0.044728			0.987898			-0.101605			0.890815			-0.503879			-0.94131			0.232694			0.0164375			0.566924			-0.546727			0.155987			-0.405841			-0.0167757			-0.736767			-0.668585			0.673766			-0.147731			-0.587795			0.529615			0.506332			-0.126997			-0.557732			0.796928			-0.055145			0.185788			0.0218824			0.24458			-0.256046			-0.494078			0.164914			0.238027			0.198555			0.151205			0.106106			0.179362			-0.110724			0.490332			0.263678			0.0246131			-0.282021			-0.929253			-0.686849			0.162158			-0.265531			0.726274			-0.507218			-0.898642			-0.951225			-0.642351			-0.418369			-0.0976264			-0.914995			-0.79188			-0.3067			0.15968			-0.334172			0.423838			-0.227161			0.261914			0.473242			0.0795737			-0.166523			-0.399094			-0.345719			-0.603743			0.186594			0.0338327			0.513179			-0.487422			0.991273			-0.134831			0.0433022			0.259032			-0.440106			-0.359741			-0.0587636			0.956316			0.119225			-0.402659			0.156793			-0.585541			0.342606			-0.331559			0.3276			0.576075			0.443089			
0.690406			-0.021072			0.412771			0.713718			0.086851			-0.104611			0.337214			0.381109			0.191393			0.0370679			-0.677659			-0.248536			-0.710632			0.486467			-0.627567			-0.435221			-0.717071			-0.425097			0.674202			0.22137			-0.392592			-0.707964			-0.630796			0.31525			0.0243585			-0.0702815			-0.484752			0.516543			-0.23543			-0.655161			0.131297			-0.17781			-0.583826			-0.209913			-0.419946			0.0974678			0.607026			-0.300104			0.0394445			0.4287			-0.440869			0.00014569			0.0910425			0.32646			-0.831429			0.793842			-0.560969			0.55379			-0.195199			0.122028			0.587863			0.143879			0.505752			-0.0217658			0.621843			0.177561			0.657364			-0.41531			0.485437			-0.267023			0.200966			0.984242			0.38484			0.0956243			-0.703995			-0.128597			-0.430819			0.385719			0.384771			0.390511			0.130261			-0.254521			-0.258601			-0.520263			0.611743			-0.172666			-0.0892839			-0.242397			-0.202477			-0.0764962			0.268631			-0.154721			-0.338134			-0.126104			0.577666			-0.622285			-0.877629			-0.09095			0.857558			0.038974			0.449492			0.0356276			-0.413564			0.197716			0.304988			0.440211			0.522416			-0.996508			-0.243754			0.339291			
-0.53808			-0.252012			0.00860107			-0.710202			0.23046			0.116501			-0.0542381			-0.100522			-0.184946			-0.0711631			0.249594			0.211585			0.712793			0.0642498			0.254419			-0.325182			-0.0903741			0.415404			0.406345			-0.533933			0.271867			-0.202932			-0.613779			0.55682			-0.286062			0.718754			0.0545452			-0.728414			-0.3541			0.0274913			-0.20754			0.346853			-0.287709			-0.313732			-0.753538			-0.353473			-0.799494			0.270585			0.0681069			-0.121424			0.332792			-0.0177218			-0.36063			-0.184257			0.236327			-0.748503			0.0783154			0.223773			0.335663			0.446084			-0.41773			0.441747			-0.315531			0.0832313			0.195032			0.273884			-0.635292			0.405836			0.519161			0.500059			-0.47646			-0.29948			0.316028			0.245185			-0.0168957			0.450366			-0.503969			-0.730318			0.649614			-0.315562			0.865178			-0.125174			0.222997			-0.450708			-0.25796			0.908083			-0.103383			-0.664279			0.894201			-0.16228			-0.580805			-0.503772			0.504575			0.848575			-0.691271			-0.00764725			-0.349054			-0.326029			0.426038			0.308086			0.418469			-0.249177			0.0765579			0.0594461			0.35865			0.0661577			0.598633			-0.134907			-0.499705			-0.00219669			
-0.240661			-0.243704			0.211235			-0.0454097			-0.0200167			0.318337			-0.0732992			-0.318754			-0.341908			-0.00332698			0.38588			-0.208882			0.0701937			-0.757708			0.581682			0.613565			0.122852			0.569586			-0.757893			0.0719024			-0.0688728			-0.158332			-0.232209			-0.283731			0.202542			-0.0932442			-0.209452			0.525778			0.402151			-0.430957			0.402166			-0.737821			-0.38825			0.389624			0.327956			-0.513421			0.424305			0.162877			-0.0038386			-0.0597523			0.21413			-0.736204			-0.347219			-0.442636			-0.242127			0.312242			-0.246013			-0.222623			0.162349			0.172112			0.298336			0.317687			-0.98713			-0.49195			-0.464089			-0.211332			-0.568908			0.329014			-0.277999			-0.641849			-0.310801			-0.366928			0.240492			0.363478			-0.0168865			-0.369508			0.56699			-0.71826			-0.130796			-0.261084			0.467061			-0.185209			-0.441294			-0.508318			0.514489			0.559093			0.747982			-0.380758			-0.31025			0.038307			0.554578			0.0141021			-0.5879			0.723135			0.437472			-0.317783			-0.473204			-0.933483			0.24647			0.368938			0.247634			-0.294791			0.00495958			-0.149013			0.414229			0.638776			-0.513101			0.176381			-0.676242			-0.323888			
-0.656766			-0.0446783			0.449766			0.384059			0.208383			0.301194			0.684615			0.513141			0.162981			0.117592			-0.270733			0.218557			-0.21539			0.625458			0.331059			-0.104783			-0.223441			-0.0676945			-0.566555			0.752454			-0.141857			0.0495443			0.48691			-0.0567565			-0.176446			-0.626656			-0.222227			-0.207924			0.00426396			-0.579228			0.348866			-0.582851			0.11426			-0.437721			-0.436703			-0.485464			-0.211181			0.807636			-0.19649			-0.346724			0.35257			-0.119255			-0.575956			0.413158			-0.479051			-0.310982			-0.285832			0.115645			-0.608958			0.245143			-0.298903			0.211212			-0.511233			0.351498			0.390412			0.139275			-0.995574			-0.966091			-0.350428			0.0691802			0.647393			-0.854287			0.223652			-0.397544			-0.605747			-0.151685			0.207488			0.0970175			0.649411			-0.806858			0.349817			-0.158628			-0.535476			0.441207			-0.86991			0.0205857			0.193909			-0.450324			-0.472145			0.201301			0.0986467			-0.205238			0.0627748			0.691723			0.266956			-0.328632			-0.453483			-0.243508			0.554799			-0.0570326			-0.146472			0.112678			-0.542615			-0.688981			0.242706			0.127574			0.378869			0.611934			0.341248			-0.316686			
0.469718			0.482538			0.0301925			-0.307789			0.62992			-0.222944			-0.0106146			-0.496975			-0.497931			0.755082			-0.227929			0.184699			-0.221479			-0.792037			0.393177			0.315156			0.561219			-0.339344			0.614876			0.364494			0.241509			-0.503838			-0.612843			-0.0537225			0.565895			0.145268			0.607939			0.428346			0.197067			0.0266751			0.415433			-0.248204			0.221701			-0.269095			0.241899			-0.288306			-0.427497			-0.482959			-0.512733			0.764775			-0.0984105			-0.43093			-0.261218			0.308776			0.14789			-0.689757			0.101848			0.0866045			0.494314			-0.89643			-0.0363624			0.339309			-0.581395			0.216018			-0.883892			0.0209988			-0.208487			-0.00819328			-0.246658			0.733961			-0.430262			-0.393905			-0.34145			-0.051784			-0.263417			0.275574			0.248322			0.0582888			-0.449231			0.434848			-0.381461			0.407885			0.498314			0.460286			0.203131			0.370969			0.0556823			-0.0995744			0.0302139			-0.55777			0.367831			0.828452			0.170808			-0.277982			-0.43844			0.896846			0.629406			-0.0876797			0.572877			0.539574			-0.244827			-0.566743			0.52457			-0.247447			0.353471			0.0274705			-0.0100921			0.41637			0.593076			0.0787056			
-0.343387			-0.10935			0.0854653			0.5889			-0.0820212			0.375288			-0.616216			-0.89992			-0.196994			0.0416001			-0.578596			-0.806129			0.446403			0.21992			0.772622			-0.226553			0.0905899			0.563381			-0.0920027			0.453124			0.0880008			0.292542			0.208934			-0.369844			0.985205			-0.31518			0.602872			0.178878			0.0816936			0.0599661			-0.623441			-0.00326921			-0.505197			0.0498088			-0.589324			0.447889			0.7712			-0.320997			-0.407689			-0.0506128			-0.455999			-0.28248			-0.842104			0.322088			0.674326			0.0406464			0.529419			0.055042			-0.110635			0.71493			0.684851			0.218053			-0.28029			-0.0936162			0.404042			-0.24005			0.145197			0.305261			0.119896			0.614889			-0.641577			-0.534541			0.501965			-0.196848			-0.357103			-0.899397			0.825924			0.80643			0.146904			-0.300298			-0.816813			0.583887			-0.0984957			-0.190323			-0.39979			0.475134			0.430372			0.16307			-0.698134			0.220351			-0.256913			0.500191			-0.291891			-0.425801			0.907432			-0.188976			0.953018			-0.27761			-0.64518			0.324118			0.742125			-0.0127788			-0.698377			0.0867005			-0.632699			0.505767			-0.782718			-0.262886			-0.311793			0.126629			
0.04965			-0.901272			-0.00778717			0.182542			-0.256717			0.154057			-0.184263			0.75573			0.37047			-0.749308			0.827501			-0.778604			-0.220599			0.184671			-0.23096			0.402314			-0.968407			0.000357423			0.0661998			-0.171566			-0.0167985			-0.136157			0.230804			-0.0498687			-0.00731746			0.0327969			0.536243			0.437068			0.0249608			0.212045			-0.374466			0.481662			0.4704			-0.376878			0.188433			0.66618			-0.409996			-0.524683			-0.0676437			-0.317646			0.493345			-0.285503			0.421817			0.704395			0.527989			0.533461			0.143819			-0.447909			-0.479624			-0.153101			-0.386937			-0.203561			0.67173			-0.151663			0.715782			-0.0848633			0.5867			0.538078			0.51216			-0.628973			-0.196497			0.165491			0.501078			-0.789724			0.181744			-0.0872459			-0.519879			-0.0461865			-0.20485			0.917042			-0.861884			-0.0531863			0.0981941			-0.291068			-0.846276			-0.0281958			-0.103169			-0.410806			-0.173618			-0.671453			0.0528706			-0.9625			-0.42878			0.553733			-0.0154363			-0.501299			0.317058			0.5889			0.185534			0.542182			-0.269887			-0.291315			0.531869			-0.201501			-0.266958			-0.266701			-0.56799			-0.137873			-0.10019			-0.0578067			
0.114219			0.564107			0.0470708			0.490352			-0.133238			-0.601084			0.238243			0.120612			-0.0376408			0.152322			-0.771893			0.398987			-0.198081			-0.0801066			0.225033			-0.0667916			0.579043			-0.0981813			-0.0416398			-0.233117			-0.647191			0.467456			-0.386822			-0.077692			-0.463032			-0.679734			0.246153			0.0848443			0.0451369			0.124709			-0.213847			0.871899			0.117541			0.440541			-0.748992			-0.447885			-0.333462			0.236926			-0.0671427			0.402036			-0.797591			0.629765			0.406744			-0.0333991			0.105695			-0.493841			0.349587			-0.142229			0.292015			-0.355836			-0.299849			-0.302802			-0.499218			0.018522			-0.14765			0.874049			0.0474503			-0.435613			0.0858883			0.39619			0.2634			0.441347			0.396122			-0.632911			0.366758			-0.401327			-0.0134591			-0.313131			-0.394869			-0.331996			-0.0882331			-0.387841			0.0495266			-0.212233			0.348662			-0.292239			-0.503908			-0.371309			-0.0799416			0.100841			-0.477621			0.445155			-0.726363			0.135189			-0.267214			0.253807			-0.482337			-0.0418528			-0.888077			0.0052371			-0.514797			0.197941			-0.527272			0.380748			0.677157			0.598496			0.0195491			-0.711491			0.619133			-0.00211045			
0.207492			-0.0786995			-0.0108164			-0.202604			-0.796176			0.541324			-0.50605			0.180413			0.0261225			0.232574			-0.617886			0.0975622			0.175301			-0.133076			0.304314			0.0649091			0.517629			0.645869			-0.335274			-0.706321			0.389721			0.13438			0.342835			0.374195			-0.299571			0.374188			0.508286			-0.0647604			-0.177185			-0.0275779			-0.220686			0.222345			0.509886			-0.471755			0.268497			0.334561			-0.609609			-0.413589			0.257844			-0.863683			0.626226			0.0574996			-0.482431			0.241418			0.162673			-0.162723			-0.683386			0.145813			0.921318			-0.879292			-0.357029			0.397717			0.361326			-0.261313			0.474494			0.253411			0.287013			0.40505			-0.0887574			0.198922			0.212003			-0.262284			-0.189316			0.236695			0.794502			-0.0900887			0.343926			-0.45779			-0.809929			-0.115156			0.520035			-0.120396			0.141668			-0.697005			0.55996			0.142599			0.0170785			0.0827461			0.159846			-0.577936			-0.228491			0.927973			0.504968			0.384797			0.910841			0.510044			0.706193			-0.34419			0.922157			-0.155318			-0.756709			-0.0859302			-0.908137			-0.474278			0.770168			0.308691			0.30332			-0.428198			-0.266875			0.717514			
-0.689202			-0.395891			-0.23576			0.791632			0.158004			-0.827504			0.470614			-0.0486086			0.341087			0.317358			-0.98461			-0.161287			-0.954973			0.0248026			0.292256			-0.256247			0.692555			0.0236167			0.799594			-0.259405			0.758242			0.103984			-0.539458			-0.376462			-0.370551			-0.296605			-0.00253684			0.471905			0.0379861			-0.824101			-0.168193			-0.132008			-0.559029			-0.658923			-0.241604			-0.147483			0.224397			-0.0690925			-0.118644			0.14388			-0.0619902			-0.0089144			0.198925			0.0858572			-0.734832			0.0355757			-0.728213			0.188282			0.215599			-0.33312			-0.332223			-0.745824			0.294999			-0.00824522			0.120131			0.913734			0.415183			-0.757505			0.0661822			-0.115195			0.0235588			0.160837			-0.958249			0.332872			0.280444			0.161988			-0.041276			0.505892			0.975808			-0.425853			0.246619			-0.123822			0.317314			-0.364129			0.0364629			-0.155824			-0.81318			0.111734			0.832862			0.758765			-0.394561			0.899705			0.391815			-0.0720461			-0.121696			0.392902			0.43466			0.188584			-0.673144			0.759757			-0.42824			0.600853			0.612383			-0.199098			-0.474813			0.696999			-0.447772			0.494556			0.516257			-0.270307			
0.577961			0.110906			0.289403			-0.400238			-0.275422			-0.754179			-0.0639259			-0.0350389			-0.250793			-0.0871834			0.228379			-0.0925074			-0.460613			0.0948481			0.638207			-0.11778			0.05364			-0.344559			-0.0229053			-0.437592			-0.159055			-0.354143			0.0863317			0.927862			-0.00055791			0.480772			0.56925			-0.680662			-0.510513			-0.110913			0.406726			-0.651168			0.46405			-0.157539			0.060688			-0.0740022			0.50643			-0.595841			0.115765			-0.237387			0.131403			-0.266309			-0.898443			0.272005			0.444122			-0.284903			0.0162808			-0.308402			-0.16422			-0.0495605			0.516102			0.383967			0.449783			0.641064			0.596037			0.11771			0.695379			0.313147			-0.0259778			0.615537			0.320768			0.455332			0.552428			-0.21782			-0.330567			-0.00131697			-0.850914			0.845022			-0.362295			0.0956212			0.200954			0.33681			0.69158			-0.239183			0.738198			0.572653			-0.0703711			0.081488			-0.137136			-0.454573			-0.191338			-0.457808			-0.121152			0.0173057			-0.604586			-0.726294			-0.720222			-0.703251			0.414807			-0.689482			-0.198934			0.0764564			0.380624			0.241115			-0.862874			-0.11642			-0.0901697			-0.559927			-0.365294			-0.0890299			
-0.380262			0.289773			0.77804			0.438244			0.740898			-0.415565			0.210835			-0.0164782			-0.260271			0.509887			-0.450983			0.162284			-0.908241			0.638678			0.0971564			0.0185191			-0.0618971			0.00368523			0.431727			-0.520624			0.371953			-0.169412			0.0526062			0.117535			-0.202769			0.107286			0.743236			0.328628			-0.124502			0.620072			0.230441			-0.780244			-0.283564			-0.0605198			0.742299			-0.505347			0.608772			-0.937036			-0.0277311			-0.71467			-0.744728			0.465251			0.394782			0.108064			0.259679			0.409897			0.14421			-0.336591			-0.778551			-0.19362			0.127053			0.233575			0.0226023			0.0387923			-0.326462			0.36675			-0.596253			0.775787			-0.618179			0.481976			-0.0787159			-0.886063			-0.237067			-0.320325			-0.061892			0.0809823			0.112051			0.249439			0.724198			0.124998			-0.574356			0.973922			-0.23786			0.656325			-0.558237			-0.097834			0.830796			0.109037			0.304838			-0.280147			-0.704921			0.517603			-0.375451			0.135193			-0.387403			-0.0818029			-0.830178			0.560189			-0.0983178			0.804485			-0.0746325			-0.27271			-0.480073			-0.770149			-0.796405			0.0621668			0.0413906			-0.0414827			-0.502536			-0.330405			
0.321093			-0.084001			-0.389289			0.20458			0.275991			0.458644			0.161335			0.357396			-0.216399			0.212887			-0.386441			0.707398			0.518278			-0.392273			0.252144			0.0646538			-0.347056			-0.232645			-0.639647			0.0120654			-0.13843			-0.702072			0.32758			-0.514815			0.0363476			0.134399			-0.210961			0.0986883			-0.197648			0.269064			-0.281287			0.188384			0.447953			0.0585425			0.951914			-0.0232034			0.436376			0.191863			0.398558			0.895092			-0.227176			-0.0387304			-0.320116			-0.233578			0.0896751			0.104667			0.060268			-0.309872			-0.457224			-0.67778			0.428483			0.349998			0.0788162			-0.562312			0.0610167			-0.236591			-0.815574			0.271021			0.131655			-0.415961			0.0284541			0.523938			-0.388974			-0.449788			0.616463			0.0709575			-0.20696			-0.282708			0.553424			-0.0208375			0.0864043			0.518819			0.056136			0.421773			0.094901			-0.895184			0.155821			0.819134			-0.22963			0.443153			-0.28984			0.326896			-0.493038			0.183696			-0.897478			0.0282036			0.927842			0.0821516			0.28466			-0.323272			0.050038			-0.0633381			-0.158989			-0.328316			-0.123026			0.399264			-0.548626			-0.0314632			-0.392546			0.231193			
0.320312			-0.532992			0.569412			-0.218571			0.796752			0.172019			0.0228186			-0.280325			-0.197185			-0.112677			0.207325			0.152714			-0.0671971			-0.701189			0.318304			-0.683825			0.462521			0.554084			-0.0120522			-0.742742			-0.498879			0.249072			0.36349			0.121714			-0.61993			0.144962			0.802874			-0.815			-0.43228			0.201189			0.52306			0.282836			-0.476364			-0.134381			-0.128092			-0.31449			0.516513			0.121763			0.0591749			0.20577			0.399443			-0.0640878			0.522413			-0.325315			-0.521248			-0.590055			0.240192			0.247099			-0.414468			-0.252862			0.488881			-0.0439379			0.415593			0.0274972			0.431646			-0.190509			0.438937			-0.230656			0.622705			0.26544			0.0292294			-0.162452			-0.0923915			0.924836			-0.635666			-0.441505			0.39083			-0.210757			0.588003			-0.090717			-0.716471			0.140513			-0.664566			-0.196025			-0.260945			-0.941399			-0.383625			-0.136364			0.581795			0.194194			-0.141353			0.26466			-0.533855			-0.594102			-0.354394			0.202599			-0.590202			0.919966			-0.469607			0.802493			-0.758729			0.16518			-0.840401			0.0948841			0.091135			0.171843			-0.161766			-0.0721207			0.457681			0.608644			
-0.285649			0.0336641			-0.494469			-0.310752			-0.212057			0.484576			0.444819			-0.0127708			-0.293942			0.103589			0.744114			0.703608			-0.845664			0.281018			0.00151246			0.115294			-0.232373			-0.276462			-0.510013			0.411352			0.163861			-0.298669			-0.247944			0.509205			-0.00845254			0.0192421			0.544796			0.935846			-0.0298416			0.279136			0.812734			-0.911807			0.94948			-0.375647			0.462203			0.603613			0.0773927			-0.782297			0.591201			-0.404206			0.0698557			0.85675			-0.640479			0.58207			0.0222383			-0.274861			0.653038			0.00237094			0.562121			-0.192357			0.695677			0.284463			0.573758			0.380731			-0.275666			0.249325			0.23656			0.410092			0.13663			-0.143137			0.405536			-0.473623			0.0303619			0.102552			-0.274854			0.138077			0.392799			-0.0255181			-0.0141737			0.012912			0.0276769			-0.554169			-0.85381			-0.27019			0.56766			0.100982			-0.273722			0.142341			0.189572			0.498259			0.358781			0.116135			-0.330504			0.232944			0.0189104			0.566552			-0.0456413			-0.306437			-0.0946977			0.350765			-0.084654			-0.290179			0.409985			0.110152			0.403551			-0.281339			-0.507339			-0.39568			0.893096			0.415813			
-0.307299			0.549785			0.166115			0.45701			0.429088			0.378134			0.0253914			0.149947			-0.132461			0.531377			0.475474			0.768628			-0.105319			0.0436909			0.022893			-0.226486			0.284388			-0.212965			-0.790419			-0.447177			0.73118			0.142089			0.160807			-0.164196			-0.234905			0.21105			0.418591			-0.0728272			0.44185			0.226883			-0.201528			-0.418143			-0.227055			0.229232			0.12425			0.381717			-0.267473			0.080079			0.0419165			0.578644			0.117829			0.45117			-0.35086			-0.0829287			-0.163265			-0.079563			-0.257435			0.541068			-0.153022			-0.704942			0.076307			0.201213			0.118974			-0.259844			0.334797			0.412093			-0.0618781			0.820443			-0.695493			0.598737			-0.094468			0.555925			0.0868367			-0.102931			0.168365			-0.913929			0.0388252			-0.221719			-0.139233			0.193717			-0.0430377			0.306707			-0.265037			-0.15494			-0.736239			-0.3149			-0.817172			0.529055			-0.116344			0.299781			0.0307794			0.243157			-0.192541			0.397638			-0.640529			-0.444999			0.637308			-0.0840323			-0.0383762			0.171463			0.609416			-0.284668			-0.791361			0.43181			-0.817676			0.459302			0.379788			-0.379402			0.295532			0.128481			
-0.339091			-0.879932			-0.458936			-0.605144			-0.663444			-0.56535			-0.26247			-0.221469			-0.362977			0.173488			-0.381181			-0.4943			-0.180756			-0.0767861			0.382124			-0.270762			0.316735			-0.0691271			0.38345			-0.0512061			0.587915			-0.135098			0.391182			0.293439			0.51706			-0.270982			-0.0677194			0.731024			0.149702			0.224445			0.628868			0.551201			-0.0633732			0.0863206			-0.362161			0.581404			0.11323			0.0492652			0.387257			-0.264891			-0.25896			0.331761			-0.763336			-0.777717			0.251727			-0.249048			-0.0438605			0.665307			0.547486			-0.946867			0.158333			0.0749881			-0.39485			-0.0582089			0.325904			-0.239915			-0.176482			-0.0853448			-0.54371			-0.0563919			-0.00598532			-0.485153			0.206305			-0.549353			0.739946			-0.244438			0.996681			0.346611			-0.605839			0.141443			-0.363533			-0.519867			0.807484			-0.0503398			0.364712			0.2909			0.797484			-0.715166			-0.258245			0.60718			-0.877483			-0.564591			0.729063			0.740527			-0.694337			0.289271			-0.00964283			-0.0783922			0.423455			0.446531			-0.357966			0.679547			0.0506272			0.188928			-0.128252			-0.406175			-0.409212			-0.325106			0.0923703			-0.223199			
-0.903989			0.179972			0.502369			0.279112			0.0610659			0.904146			-0.0185192			-0.0247831			-0.397271			0.391317			0.39665			-0.326304			0.102443			0.648496			-0.869943			0.340413			-0.59957			-0.351782			-0.763546			-0.124199			-0.573988			-0.084461			-0.888148			-0.440903			0.0871575			0.0237976			0.195036			0.4126			0.205006			-0.148687			-0.268878			-0.122089			-0.0425256			0.343385			0.78047			-0.0702329			0.173383			-0.250455			0.610403			-0.203898			0.0745751			0.626177			0.205438			-0.290821			-0.0498671			0.859204			0.371103			0.801405			-0.243453			-0.395945			0.338269			0.485841			-0.378975			0.612029			-0.104916			0.720994			-0.638746			0.0179511			-0.344804			0.422331			0.231892			-0.284556			-0.401202			-0.267846			0.439722			0.815484			-0.122328			-0.654172			-0.129487			-0.101044			-0.166656			-0.316624			-0.342706			0.253357			-0.834448			-0.22991			-0.609845			0.89454			-0.967255			-0.63955			0.55745			-0.27687			-0.119387			-0.411423			-0.01001			0.720119			0.12585			0.119316			0.315451			0.214649			-0.354342			0.0478137			0.633958			-0.555902			-0.343918			-0.370878			0.482658			0.566081			0.872692			-0.482972			
0.0603084			0.0835717			-0.330836			-0.474341			-0.607818			0.113822			-0.359856			0.235776			0.0289914			-0.255923			0.966139			0.750631			0.921778			-0.211543			-0.218089			-0.783439			-0.897578			-0.238574			0.504758			0.343187			0.430639			-0.124125			0.0232076			0.417972			0.532049			0.202414			-0.161051			0.138835			-0.213029			-0.0646767			-0.265794			-0.380004			-0.343734			-0.0209156			-0.867778			-0.750235			0.169315			0.332471			0.374286			0.327629			0.0454654			0.0483066			-0.0445844			-0.0613825			-0.350144			0.424529			-0.0370631			0.271122			-0.453164			-0.480996			-0.093514			0.16709			-0.105687			-0.472639			-0.286855			-0.675295			-0.508919			-0.224934			-0.228683			0.10659			0.781078			0.0875487			-0.728843			0.587105			-0.0894088			0.303178			-0.243008			0.374269			0.402697			0.692428			-0.828747			-0.463202			-0.0129107			0.46773			0.445255			-0.582205			-0.258478			0.0935538			-0.667996			0.267928			0.00139439			-0.0494808			-0.271481			0.098704			0.107182			-0.847407			0.0498604			0.438553			0.106663			-0.801518			-0.0460795			0.591103			-0.355932			0.56			0.0223511			0.103202			0.279445			0.109308			0.078966			0.48019			
0.0444188			0.136925			-0.40899			-0.272831			0.499552			0.199095			-0.269957			-0.876409			-0.453083			-0.0622173			0.416841			-0.018422			0.783872			0.028181			-0.866654			-0.233037			0.552493			-0.443918			-0.183624			0.398414			-0.562838			0.187705			-0.721039			0.0646954			-0.448379			0.281584			-0.0910268			0.921565			0.177487			0.0506647			-0.0560089			0.456328			0.0293473			0.128864			-0.316813			-0.210897			-0.434193			-0.591892			0.33785			-0.150278			-0.722589			-0.40668			0.653126			0.40474			-0.701636			-0.186772			-0.985807			-0.335044			0.452668			-0.141831			-0.0280935			0.72349			0.19332			0.0842964			0.330655			0.874044			0.189793			0.200813			-0.47728			-0.383959			-0.0835716			0.112451			-0.488114			-0.399794			0.964987			-0.148897			0.182366			-0.138059			-0.101321			-0.146996			-0.787893			-0.351014			0.271043			0.736927			-0.746629			0.557697			0.687903			0.201473			0.476806			-0.648191			-0.254051			0.148038			0.816225			-0.00352452			0.467897			0.136117			0.0333311			-0.134272			0.125405			0.423161			-0.179536			0.0861909			0.323147			0.21942			0.112967			-0.468329			0.273			0.220723			0.0555633			0.200982			
0.47138			-0.521896			0.314846			0.0593573			0.421827			-0.703742			0.266435			-0.45485			0.525783			-0.135608			-0.84231			0.386356			0.283771			-0.586867			0.257091			-0.240818			-0.357816			-0.168289			-0.179561			0.1931			0.657105			0.0831012			0.902344			-0.414687			-0.100592			-0.679944			-0.344582			0.0363793			0.35097			-0.0779531			0.612607			0.548505			-0.483886			0.000314959			-0.880228			-0.271244			0.534896			0.352753			-0.293631			-0.519468			-0.131001			-0.743942			0.155616			0.154726			-0.345112			-0.14598			-0.988503			0.414479			0.566051			0.194137			-0.320227			-0.262357			0.407202			0.424516			0.0608096			0.221745			-0.672263			-0.226641			0.110442			-0.781048			0.181965			-0.487408			0.269586			-0.124029			-0.0797277			-0.046047			0.111409			-0.703434			-0.226423			-0.397368			0.375938			0.240555			0.371839			0.308977			0.659115			-0.204611			-0.660312			-0.0334571			0.152			-0.604214			-0.699117			-0.0357124			0.057813			0.0890807			0.439014			0.239012			-0.187237			0.334259			-0.32416			-0.320664			-0.0964815			0.560979			-0.428443			-0.855988			-0.513369			0.0731739			0.441249			0.163253			0.066851			0.656165			
-0.244805			0.356028			0.982801			-0.183084			-0.0996911			-0.344817			-0.330816			-0.487879			-0.233216			-0.515338			-0.818407			0.659977			-0.835431			-0.411208			-0.476667			-0.317477			-0.403744			0.501417			-0.367922			-0.0629934			0.264743			-0.115324			0.114685			0.389533			0.0201612			-0.0618358			0.360429			0.136088			-0.330786			-0.272081			-0.632737			0.0597413			-0.77843			-0.121661			0.0342672			0.0254281			-0.675976			0.163298			0.224189			0.20693			-0.428893			0.130529			0.548395			-0.616998			0.0219692			-0.704637			0.26552			0.150603			-0.0140925			-0.34098			-0.486022			0.0295024			0.274142			-0.217353			0.699113			-0.0968694			-0.251789			0.300496			-0.313026			-0.42074			-0.0295417			0.739608			-0.333893			-0.989195			-0.103172			-0.0574944			0.164319			0.122766			0.762175			-0.61408			-0.23048			0.693237			-0.0101269			0.18928			-0.0561002			0.274009			-0.505266			-0.449929			-0.572838			0.132808			-0.263331			0.796412			-0.477307			-0.0723381			-0.0942984			0.56507			0.712819			-0.0610427			0.788729			-0.434649			-0.157313			-0.0751509			-0.126438			-0.0958952			-0.150926			-0.704851			-0.488935			-0.00962465			-0.0228742			0.529174			
-0.146313			0.41523			-0.124717			-0.594122			-0.292542			0.0331775			0.10118			0.639098			-0.603574			0.0426813			-0.83841			0.17637			-0.540894			-0.471948			-0.0773801			-0.392746			-0.650258			-0.837671			-0.397671			0.0324169			0.219988			0.588225			-0.467942			-0.165732			0.343312			0.247116			-0.407042			0.639509			0.249595			-0.141806			0.747901			-0.149557			0.221596			0.225563			-0.931789			0.430848			0.0961175			-0.338125			0.149176			-0.538777			0.392599			0.494557			-0.0438736			-0.573058			-0.681573			-0.371227			0.352453			0.124956			-0.421102			-0.209589			0.328699			0.539498			0.275109			-0.0390318			-0.19656			-0.328823			-0.764601			0.0245147			0.0845733			-0.00624793			0.275782			-0.0680441			0.1187			0.661666			-0.242389			0.121615			-0.4248			0.336467			0.516727			-0.181827			0.0592561			-0.76926			-0.554571			-0.46994			0.559904			-0.241213			-0.498136			-0.566287			0.871822			-0.211341			0.71251			0.167864			-0.0926711			0.263589			-0.480774			0.396585			0.175373			0.213415			-0.54059			-0.147406			0.364156			-0.482796			-0.947117			-0.0325525			0.152522			0.410455			-0.540785			0.602147			-0.485624			-0.044899			
0.164825			0.0442794			0.121318			-0.766614			-0.521268			-0.132169			0.995075			0.208521			-0.149695			0.976999			0.652186			-0.25415			0.203003			-0.051963			0.313948			0.00305083			0.638268			-0.608624			0.110571			0.201869			0.0755623			0.889848			0.377674			-0.213041			0.152817			-0.169802			-0.45573			0.282649			0.0340118			0.784862			0.73812			-0.813398			-0.438951			0.109166			0.456747			0.398814			0.0955246			0.196868			0.186839			-0.306782			0.0770677			-0.0261387			0.313308			0.264445			0.416865			0.863592			-0.728386			-0.242243			0.312267			-0.449732			-0.0757942			0.189136			0.475865			0.163134			-0.00174607			-0.616389			0.493127			0.652244			-0.39256			-0.452573			0.739987			-0.319154			0.0964406			-0.380917			0.227298			0.0320017			0.960704			0.770102			-0.0266274			-0.0227176			-0.171494			0.431905			0.45005			0.0345472			0.107007			-0.458242			-0.320871			-0.0269634			0.894397			-0.108973			0.0326305			0.58008			-0.437044			0.299269			0.798456			-0.230179			-0.295946			-0.43876			0.0177408			-0.469094			-0.0246114			-0.279706			-0.420443			0.217122			0.0091337			-0.159544			-0.425458			-0.3864			0.322816			-0.259668			
-0.151062			-0.663342			0.300074			-0.0937451			0.98204			0.517898			0.148344			-0.552226			-0.0448889			-0.914799			0.298233			0.256078			-0.116965			0.866725			-0.255922			-0.26199			0.187817			0.532042			0.827478			0.395153			0.306139			0.282391			-0.261948			-0.680551			-0.171342			-0.0803181			0.623466			0.139794			-0.690548			-0.219105			-0.455452			-0.193136			0.3509			-0.08564			-0.018273			0.27835			-0.335555			0.481261			-0.1593			0.526264			-0.0417598			0.808126			-0.891171			-0.208151			0.483318			-0.107487			0.98814			-0.461109			-0.532969			-0.413659			-0.908545			0.352094			-0.170926			-0.237032			-0.869044			0.710849			-0.107852			-0.187816			-0.241699			-0.235184			0.684927			0.292261			0.173322			-0.0770618			-0.163982			-0.200066			-0.0632065			-0.251927			-0.121378			0.570992			-0.343278			0.0225652			0.762462			-0.195587			-0.07603			0.152917			0.307042			0.572241			0.179655			0.263874			-0.455279			0.275055			0.0148472			-0.433239			-0.691611			-0.74544			-0.246416			0.0497128			-0.451757			0.464467			-0.170411			0.108846			-0.0948405			0.797804			-0.416348			-0.589289			-0.068061			0.0213589			-0.121902			-0.363981			
