Matrix_3
0.0244103			-0.726646			-0.0167284			0.537098			-0.433614			0.469009			-0.0568381			0.89229			-0.995849			0.135264			0.292104			0.884288			0.563277			0.146495			-0.259367			0.796503			0.050193			-0.286861			-0.718261			-0.485026			0.280519			-0.3665			0.0391639			-0.367469			0.147358			0.529647			0.115796			0.205729			0.297344			0.225238			0.568974			-0.0931702			0.0196898			-0.680246			-0.110382			-0.313398			-0.465541			-0.0416144			-0.313211			0.367883			0.220478			0.735999			0.806505			-0.043575			0.0472759			-0.239687			-0.0205599			0.184922			0.44535			-0.534192			0.0409358			-0.18916			-0.304243			0.445541			-0.607293			-0.0728233			0.0947565			-0.149218			-0.0874968			-0.366921			0.612995			-0.336976			-0.127844			-0.197975			-0.104582			-0.334638			-0.285			0.0938303			0.129198			-0.0949125			0.275129			0.272416			-0.295105			0.23272			0.857289			0.0726016			-0.132383			-0.894577			-0.659671			0.0164081			0.0169808			-0.571868			0.382455			0.858521			0.0136385			-0.25802			0.133713			0.522358			0.767535			-0.520226			0.194793			0.0383561			0.0702218			0.232971			-0.270641			0.0305658			-0.0151764			-0.243422			-0.0499193			-0.288679			
0.262497			-0.337471			0.398821			-0.132016			0.170339			0.523988			-0.943481			-0.178073			-0.59634			-0.477963			-0.490884			0.218872			0.424179			0.0301248			-0.0864531			0.133999			0.323311			-0.182048			0.270383			-0.193841			-0.148084			-0.21848			-0.0863398			0.00593509			-0.185541			0.0138749			-0.0666906			-0.970695			0.761775			-0.0258623			0.28462			0.392947			-0.361772			0.444508			0.516248			-0.127118			0.457022			0.151271			0.174109			-0.718509			-0.401482			-0.32889			-0.477496			-0.329686			-0.121083			-0.507552			0.260388			0.55541			0.152509			-0.412849			0.633225			-0.457846			0.266639			0.387443			0.199237			-0.789845			-0.29301			0.188557			-0.239815			0.720364			0.577162			0.537569			0.477403			-0.334467			0.65404			0.337689			-0.162944			-0.684599			-0.67288			-0.276751			0.489121			0.219365			0.80105			0.0931394			0.0167221			0.0264427			0.293678			0.323999			-0.121763			-0.441216			0.351292			-0.03211			0.032732			0.376139			0.429034			-0.222579			-0.591787			0.57758			0.0916165			0.00662441			-0.5458			0.658409			-0.211456			-0.177181			-0.443745			0.426978			-0.542335			-0.703658			0.25737			-0.0800188			
