Matrix_2
0.0605727			0.148448			-0.897893			-0.323101			0.337549			-0.440227			0.520355			0.084319			0.53022			0.271968			0.54031			-0.504704			0.176481			-0.515428			0.283864			0.122464			-0.963607			0.628482			0.385381			0.126202			0.0634316			-0.0503412			-0.612954			0.105102			0.846415			-0.206104			-0.459783			0.617034			0.0248297			-0.100411			0.482217			-0.294925			-0.251608			0.1923			-0.288875			0.322976			0.532811			0.389576			0.73023			0.393492			0.385146			-0.244577			-0.590021			0.00652545			-0.368389			0.0399033			0.608075			-0.285547			0.341941			0.124084			-0.155751			0.309349			0.337912			-0.0450286			0.162787			0.459896			-0.263472			-0.294536			-0.207126			0.554909			0.928672			-0.141902			0.211215			0.253631			-0.931696			0.578603			0.0128952			0.490825			0.392142			-0.157828			-0.247149			-0.756656			0.120605			-0.429632			0.354665			-0.157848			0.0598235			0.813624			-0.617599			-0.176779			0.0201947			0.579412			-0.0315845			0.981386			-0.485101			0.271258			-0.807672			-0.191317			-0.336619			-0.793455			-0.265968			-0.0973396			0.289721			0.0243461			0.740774			-0.156471			-0.0418211			-0.0732498			0.20773			-0.764509			0.242993			0.286273			-0.033879			-0.603574			-0.176228			0.258755			-0.271675			-0.405664			0.230942			0.397408			-0.341045			-0.890151			0.345314			0.0697942			0.377496			0.293801			-0.053007			0.130402			0.492631			-0.926387			0.732028			-0.0533135			0.166638			0.731013			-0.0410109			0.56209			-0.35725			0.299481			0.263115			-0.692319			-0.65196			0.263364			0.871746			-0.719802			-0.343502			-0.87434			0.492608			-0.374235			0.363568			0.701261			0.661171			-0.556746			0.150223			0.321442			-0.172098			-0.165623			0.495463			0.196392			-0.0372309			0.578707			-0.617412			0.67894			0.171004			0.0592814			-0.10452			0.715904			0.328797			0.200965			0.187924			0.112284			0.0710391			0.472694			0.804564			-0.62175			-0.174105			-0.503638			-0.524914			0.109621			0.372715			-0.961251			-0.291792			0.141694			-0.426658			0.183047			-0.714289			0.31495			0.589684			0.186131			0.342547			0.289917			-0.335796			-0.750659			-0.216192			0.296358			-0.022094			-0.256807			-0.0610355			-0.25038			-0.0229112			-0.222486			0.151614			0.753729			-0.310295			0.156309			-0.652877			-0.267014			0.029013			0.420301			0.723793			0.666676			0.399028			0.143889			-0.0423581			-0.00303653			-0.28107			-0.105459			0.0979763			0.241562			0.565658			0.356788			-0.244072			-0.109358			0.676653			0.42299			-0.143987			-0.159529			0.439783			-0.351988			-0.616841			-0.353885			-0.790889			-0.273098			-0.201067			-0.296863			-0.0137371			0.225723			-0.977817			0.0725882			-0.555596			-0.641362			-0.527434			-0.105296			-0.483183			-0.661854			0.0504057			-0.338231			0.599191			0.18077			0.402746			0.0113549			0.422221			-0.692178			0.52003			0.228368			-0.117052			0.551497			0.284811			-0.222117			0.59387			-0.0329765			
0.277407			0.768509			-0.498942			0.101944			0.648882			-0.288963			-0.306964			0.406608			-0.160256			-0.265518			0.251846			0.142121			0.422078			0.00942421			-0.4744			-0.290947			0.372056			0.320169			0.233648			-0.028514			-0.391933			0.173225			0.0150543			-0.585364			-0.337558			0.585435			0.345646			-0.244033			-0.326375			-0.456789			0.376605			0.0443335			0.126775			0.0200065			0.300334			0.538563			-0.422981			-0.422427			-0.0214586			0.150382			0.978309			-0.155705			0.0514969			0.23547			-0.466142			0.228218			0.587582			0.392983			0.16802			-0.307959			-0.592938			-0.4416			0.725262			-0.321079			-0.205647			-0.241892			-0.266843			-0.133846			0.128518			0.880677			0.372787			-0.0384838			0.14225			-0.00917413			-0.248526			0.16207			-0.457164			-0.613548			-0.577438			-0.0884091			0.334545			0.290349			0.519651			-0.132523			-0.237652			-0.194665			0.0359739			0.31723			0.454152			-0.406098			0.470573			0.171863			-0.333142			0.500607			-0.308714			0.0703265			0.591338			0.471157			0.487419			0.168666			0.523065			-0.219233			0.369557			0.27185			-0.150741			-0.733411			-0.819062			0.759026			0.295173			0.232585			-0.330165			0.151172			0.280452			0.263621			0.354945			0.354828			0.37617			-0.549344			0.324399			-0.239194			0.396425			0.100531			0.615362			-0.243243			-0.0946859			0.343635			-0.213433			0.941026			0.179779			-0.0260428			-0.498374			0.0757853			-0.960016			-0.0985089			-0.890821			-0.229206			-0.452332			-0.212764			-0.23585			0.608465			0.0313727			-0.266647			0.137855			-0.913993			-0.057872			0.801005			-0.555454			0.0857498			-0.394054			0.858414			0.0249638			0.859282			-0.935939			0.737762			0.387627			-0.693597			0.023137			0.0738967			-0.117149			-0.58095			0.724919			-0.280827			0.650775			0.495948			0.459195			-0.933619			-0.423897			-0.0223702			-0.174017			-0.117856			-0.111361			-0.269871			0.451689			0.363067			0.275205			-0.772583			0.481199			-0.594329			0.827571			0.260376			-0.141827			-0.0823374			-0.0298928			-0.010389			0.221526			-0.664357			0.897028			0.0399486			-0.228349			-0.787596			-0.134982			0.76865			-0.314505			-0.51057			-0.0178352			-0.727347			-0.286141			-0.618031			-0.0306137			-0.288686			-0.172699			0.246371			-0.36779			-0.616278			0.705926			0.290726			-0.561089			0.226915			0.0910448			0.0454055			-0.116027			-0.571132			0.156919			-0.247741			0.295686			-0.437979			0.845929			0.365933			-0.0585208			0.734793			0.130275			0.196058			0.0691421			0.294003			-0.823944			-0.234929			0.760352			0.169141			0.0565377			-0.624749			0.101657			-0.203396			0.317671			0.212446			0.149519			0.43157			-0.0120089			-0.330253			0.570269			-0.700722			0.446731			-0.78415			0.458805			-0.698576			-0.388793			-0.324249			-0.5492			0.684625			-0.174911			0.37363			0.769867			0.0888247			0.234368			0.25496			-0.837128			-0.135184			0.20148			-0.457051			0.5176			0.0708086			
0.44238			0.108001			-0.736218			-0.560079			0.1232			0.267782			0.887121			0.424551			-0.111334			0.396074			-0.00487054			-0.401103			0.239241			-0.217996			0.234514			-0.787276			0.456927			-0.432504			0.563306			-0.0752234			0.0214684			0.302492			-0.4974			0.294301			-0.519207			0.284003			-0.702004			-0.0962825			-0.4831			0.0755914			-0.60459			0.45226			0.0537315			-0.650222			0.200641			0.0559455			0.199495			0.226833			0.890744			-0.0181711			-0.142776			0.568403			0.811834			-0.082196			-0.516686			0.319118			0.608256			0.156407			0.0707019			-0.106921			0.246142			0.369778			-0.0451095			-0.299274			-0.944878			-0.366606			-0.0705226			-0.181511			0.225776			0.329542			-0.0703624			-0.226466			0.614154			0.224447			0.14527			0.622662			0.581484			-0.255456			-0.334413			-0.844203			-0.343762			0.483599			0.125534			-0.647391			0.278041			-0.152032			-0.597137			0.320228			0.627086			0.469299			0.965573			-0.968698			0.167566			0.137392			0.255039			0.259472			0.475153			-0.227949			-0.242593			0.736792			-0.0912896			0.66079			0.830448			-0.054261			0.347016			0.691046			-0.980125			0.233217			-0.586359			-0.320274			-0.0112371			-0.618771			-0.300963			-0.0403454			-0.409943			-0.856917			0.179534			0.041239			0.574794			0.310887			-0.536845			0.967406			-0.447859			0.32194			0.117027			0.498131			0.0551909			-0.269838			0.496473			0.479464			-0.28548			-0.105038			-0.190644			-0.0630304			0.768498			0.346366			-0.192291			0.243146			0.434513			0.614575			0.247903			-0.00167397			-0.0471137			0.0947417			0.219393			-0.129713			0.0392502			0.345812			-0.539321			-0.00417752			0.289181			-0.798189			-0.201777			-0.284289			-0.725114			-0.297212			0.508105			-0.235727			0.0830361			0.275897			-0.0413396			0.722816			-0.0585154			-0.173783			0.159874			0.709678			-0.783133			0.573764			0.311289			0.103819			-0.570813			-0.277124			0.186702			-0.381986			-0.167901			0.0672096			0.263319			-0.411894			0.431715			0.614719			0.691575			0.295749			0.356673			-0.712049			0.653195			0.345415			0.713262			-0.31415			-0.987452			0.386751			0.23643			-0.382208			-0.712005			0.637696			0.198299			0.295614			0.418706			0.347279			-0.190644			-0.705275			-0.542926			0.324202			0.162918			-0.488605			-0.0588568			0.187707			0.460143			0.250922			0.756719			-0.078743			0.228353			0.0402521			0.346775			0.0734196			-0.153694			-0.42837			0.0280287			0.0419401			0.889739			0.575191			0.159011			-0.544307			-0.138564			-0.730467			0.314578			0.74179			0.0655261			0.154159			-0.396261			0.184421			-0.178451			-0.420304			0.23598			-0.465942			-0.0105629			0.620176			0.0774457			0.232656			-0.0864035			0.213171			-0.177062			-0.530533			0.422873			0.895154			0.651056			-0.372851			0.253636			0.492897			-0.668836			0.315253			-0.548395			-0.183727			-0.390161			0.479323			0.110499			0.107474			-0.0965427			-0.109281			-0.242162			0.136669			
0.0507575			-0.243409			0.578711			0.823415			-0.563495			-0.782033			-0.26112			-0.118559			-0.744065			0.102916			0.61021			-0.217921			0.699131			-0.304255			-0.506083			0.74539			-0.796645			-0.19514			0.451508			0.118945			0.116503			-0.0174401			-0.38504			-0.197512			0.319144			0.724332			-0.308325			0.704184			0.612743			-0.357866			0.147156			0.362623			0.291213			0.0212626			0.149293			-0.524912			-0.510375			-0.40187			-0.0612244			0.564556			0.703595			0.957315			-0.332564			0.548195			-0.438659			-0.353113			0.37443			-0.649633			-0.243697			0.911186			0.0211121			0.477825			0.39295			-0.899049			0.18329			-0.672585			0.316713			-0.279587			-0.346521			0.892982			0.123062			-0.172208			0.88369			-0.750397			0.054225			-0.346272			0.615958			-0.39469			-0.631032			-0.520888			-0.186414			0.318526			-0.219068			-0.153883			0.691646			0.0705539			-0.440136			-0.0075125			0.528433			-0.669093			0.54943			-0.900942			0.132848			0.13692			0.115499			-0.796975			0.0287086			0.314345			-0.906492			-0.206201			0.829881			-0.209113			0.645421			0.127502			-0.191081			-0.956304			0.259183			-0.401156			0.532087			-0.146558			0.379313			0.107543			0.00999597			-0.00425619			-0.376061			-0.0316754			0.0495114			-0.156855			0.761176			-0.0531769			0.263051			0.368507			0.584427			0.173254			-0.08173			-0.799539			-0.0876432			0.13333			-0.172653			-0.00195231			0.643421			0.479281			-0.444272			0.0936402			-0.48422			-0.098177			0.181622			0.569798			0.285533			-0.139786			0.412607			-0.216412			-0.0511167			0.309483			-0.444039			-0.0837842			-0.562292			-0.409135			-0.18727			-0.60854			0.416965			0.208674			0.520962			0.243474			-0.429315			0.127328			0.726655			0.936343			0.525007			-0.733581			0.361073			-0.521095			0.624218			0.0664603			0.793508			-0.198655			0.29157			-0.462831			-0.386351			-0.469167			0.809777			-0.250645			-0.0672184			0.206694			-0.333993			0.0517707			0.0816843			-0.193597			0.543277			-0.0826252			0.349498			0.251254			-0.537293			0.419237			-0.040271			-0.0189395			-0.445402			0.291391			0.534818			-0.522076			0.36017			0.0743545			0.477903			0.442247			0.783672			-0.0821838			-0.495957			-0.440272			-0.377566			-0.224976			0.271787			-0.220747			-0.151657			-0.0399004			-0.542217			-0.615033			-0.800277			0.94742			-0.8431			0.136203			-0.345974			0.209881			-0.825552			-0.284181			0.0770196			0.877179			-0.0824984			0.4336			-0.258001			0.773149			0.593469			-0.401088			0.273428			-0.591467			0.580862			-0.870777			0.316667			0.231768			-0.0197308			-0.195501			-0.184327			0.20705			0.494275			-0.556094			0.336732			0.0669537			0.131788			-0.407617			-0.173432			0.369418			-0.562278			-0.726084			0.602402			-0.656788			0.98315			0.754593			-0.210175			0.133375			-0.178726			0.37251			0.244647			-0.0762594			0.618576			0.209834			0.325348			0.0663766			0.492671			0.20731			-0.275443			0.0135546			
-0.140352			-0.30964			-0.756375			-0.0541676			-0.730688			0.43432			-0.310341			-0.31395			-0.252007			0.00041121			0.0625524			-0.820138			0.154074			0.0260018			0.494148			-0.599074			0.377718			0.29393			0.238894			-0.627001			0.414865			0.956999			0.0580628			0.415872			-0.683037			-0.173283			0.62415			0.607781			-0.639238			-0.539626			-0.10465			-0.644001			-0.231661			-0.233012			-0.180765			-0.0266747			0.0355036			-0.187548			-0.220396			-0.40613			0.186604			-0.037101			-0.571809			0.23954			-0.122936			-0.346936			0.128876			0.0858886			0.485402			-0.300882			-0.0993186			0.293964			0.291562			0.141192			-0.313366			-0.681857			-0.0134873			-0.512353			-0.4846			0.867161			0.00166909			0.358432			0.848731			-0.05897			0.406093			-0.920347			-0.0914601			0.361708			0.204805			-0.00244518			0.392698			-0.0718709			0.793138			-0.783628			0.287368			-0.00105814			0.744909			-0.841743			0.22635			0.171247			-0.499197			-0.325132			-0.384536			0.363771			0.691335			-0.104002			0.222529			-0.989553			0.157582			-0.204215			0.137966			-0.237063			-0.00530589			0.89485			-0.284362			-0.723747			0.223057			0.224459			0.130955			-0.0817621			0.179258			-0.212262			0.155683			-0.377775			0.846011			0.247357			-0.512795			0.620619			-0.147918			-0.0232301			-0.345111			0.148771			-0.65381			0.164205			0.604234			-0.414558			-0.632211			-0.264446			0.311864			-0.659077			0.383249			-0.764412			-0.327476			-0.590757			0.384816			0.415091			0.0575175			-0.0290196			-0.0512706			-0.503893			-0.439608			-0.345812			0.649018			0.988191			-0.163211			-0.283767			-0.437049			0.281963			0.207982			-0.0484152			0.256983			-0.735807			0.0729659			0.105351			0.476382			-0.13657			0.344048			-0.662675			-0.351312			-0.28773			-0.354392			-0.405791			0.444667			-0.0126334			0.281307			-0.81961			-0.862412			-0.175539			-0.355049			0.441676			0.275619			-0.990296			0.235031			-0.118665			0.0565361			0.636299			0.511541			-0.412246			-0.446431			0.19772			0.316221			0.795844			0.270316			-0.327777			-0.635941			-0.618671			0.132005			0.183095			0.498315			0.831639			0.0349022			0.0697708			0.430786			-0.812891			-0.337668			-0.415356			0.423555			-0.622477			0.115149			-0.212294			0.315416			-0.140099			-0.00798424			0.587733			-0.26818			0.835792			0.364569			-0.0597749			-0.42578			-0.159503			-0.208519			0.336818			0.676494			-0.480688			0.491374			-0.340176			-0.832534			-0.756129			-0.468229			0.230298			-0.471691			-0.775168			-0.606887			-0.937127			-0.743085			0.241177			0.332836			0.155604			0.0668238			-0.198742			-0.0194054			-0.297135			-0.518281			0.492327			0.169823			-0.22827			0.270531			0.244769			-0.325378			0.105972			-0.066358			0.35936			0.783442			0.521348			-0.00569021			0.887043			0.118967			-0.143496			-0.687316			-0.725344			0.977308			0.500601			0.255163			-0.275273			-0.0817846			-0.618369			0.822985			0.117828			0.475423			0.0329511			
-0.0469707			-0.26746			-0.00504151			-0.0824228			-0.544367			0.235737			-0.299037			-0.0685827			-0.0653			-0.542663			0.331814			-0.861089			0.0384763			-0.257325			-0.166047			0.471524			0.795419			-0.15001			0.336751			-0.509792			0.526354			-0.162922			0.0794956			-0.119839			0.74045			0.169354			-0.297494			-0.0275072			0.0389569			0.539781			0.266016			-0.237898			0.00221307			0.528273			0.440531			0.742701			0.511993			0.106083			0.376701			0.0140296			-0.589113			0.635383			-0.144376			0.18842			0.633714			0.213251			-0.643439			0.499527			0.270449			0.996347			0.020572			0.293924			0.19475			-0.250609			-0.297101			0.17678			0.333743			-0.598321			0.334764			-0.120508			0.430431			-0.274241			0.150451			-0.815195			0.0447156			-0.533021			0.71652			-0.193395			-0.255658			-0.700175			-0.773564			-0.255889			0.841479			-0.53654			0.774864			0.326712			0.0813131			-0.495223			-0.103101			-0.510204			0.343989			0.0593091			-0.420018			0.876529			0.235905			-0.347319			0.188156			0.435403			0.097355			-0.436571			-0.631847			-0.727302			0.0184322			-0.943901			0.464141			0.368651			-0.326407			0.599973			-0.540878			-0.130944			-0.077296			-0.32556			0.18853			-0.356812			0.370159			-0.782011			-0.212645			0.522173			-0.417024			-0.261616			0.780751			0.0941279			0.223364			0.812863			-0.508331			-0.0832827			0.608177			0.632594			0.668344			0.492166			-0.234426			0.201191			-0.19678			0.262029			-0.358719			-0.188193			-0.572124			-0.288225			0.571959			-0.106017			-0.444444			0.147716			-0.001774			0.341382			-0.104671			0.392561			0.552052			0.0862707			-0.15583			0.925966			0.294318			-0.861271			0.436355			-0.455447			-0.809612			-0.05989			-0.263046			0.577166			-0.343565			0.604626			0.744918			0.086235			0.339112			-0.8845			-0.0582681			0.7872			0.388146			0.103389			0.444453			0.828167			-0.276609			0.512915			-0.304888			-0.243354			0.601376			0.302197			0.694346			-0.232744			-0.0571752			-0.0504369			0.327629			-0.520346			-0.158745			0.796358			0.553996			0.162477			0.108126			0.410361			0.479148			0.367505			0.0867554			0.310579			-0.446315			-0.0233646			0.231281			-0.329869			0.0832163			-0.580755			0.592136			-0.135253			0.28173			0.249057			-0.115169			0.317094			0.0171085			-0.416289			0.374973			0.157902			0.061347			-0.0496609			-0.862593			0.992476			-0.156286			0.217159			0.381042			0.98805			-0.391377			-0.101678			-0.573367			0.645338			-0.0578581			-0.278341			-0.0180426			0.307996			-0.758408			-0.0228559			0.741023			-0.623901			-0.0910704			0.846486			0.397041			-0.102829			0.24864			-0.677565			0.468844			0.0552408			-0.307578			0.566215			-0.0451933			-0.17243			-0.983247			0.120291			-0.521445			0.625247			-0.164025			-0.0429366			0.185352			-0.497957			0.815782			0.250437			-0.231979			-0.0880744			0.00678279			-0.296038			0.0366941			0.670242			-0.0600568			-0.0995859			-0.26875			0.923132			
0.108293			0.651623			0.33459			0.472076			-0.288262			0.286687			-0.438957			0.750266			0.113919			0.0398455			0.0495665			0.590087			-0.0938598			0.408951			0.751645			0.142914			-0.348535			0.713725			0.275272			0.0292006			-0.430403			-0.138895			-0.362483			0.0347913			0.874614			0.581031			-0.269268			0.550314			0.437167			-0.64597			0.300123			0.272413			-0.372818			0.320962			-0.845579			0.198593			0.152502			0.953948			0.153578			-0.784878			0.254053			0.186756			-0.488689			0.881183			-0.59347			0.0359199			0.222884			-0.84019			0.283248			0.860524			0.131909			-0.231878			0.0323499			-0.18139			0.933563			0.67669			-0.449379			0.573751			-0.595965			-0.0704383			0.135707			0.363183			-0.334224			0.82514			0.968819			-0.577828			-0.126592			0.678744			0.181517			-0.559144			0.632774			0.346285			0.958708			-0.356202			-0.564201			0.187225			-0.088553			0.722461			-0.294506			0.0673627			-0.522487			0.0360703			-0.0294479			0.0872047			0.865824			-0.0618675			-0.981285			-0.493715			-0.0493735			-0.201726			0.0953515			0.166761			-0.433331			0.0597319			-0.701201			-0.141956			-0.102047			-0.721245			0.865399			0.400872			0.611238			0.526834			0.744989			0.537274			-0.373191			-0.0681269			-0.0152244			-0.028069			-0.0416249			-0.285448			-0.517263			-0.636966			0.29941			-0.505726			0.688726			-0.498217			-0.184414			0.16646			-0.172697			0.36287			0.420684			0.151107			-0.14703			-0.284835			-0.170186			0.797932			-0.00693327			-0.0555232			0.505505			-0.612679			0.277535			0.0813783			-0.542441			-0.799259			0.899339			-0.136897			0.0587115			-0.451869			-0.603354			-0.597365			0.0183268			-0.292408			0.155591			0.797162			-0.134061			-0.685862			-0.393176			0.145754			-0.4791			-0.381289			0.826785			-0.180127			0.626484			0.510381			0.800427			0.00870733			-0.0796752			-0.377658			-0.409721			0.0951147			0.401189			0.385734			-0.1916			-0.862499			0.459552			-0.157799			-0.685617			-0.728993			0.489154			-0.355432			0.994598			0.214986			0.571425			0.431519			-0.242707			-0.36563			0.917435			0.230193			-0.506879			-0.714491			-0.23806			0.525839			0.69349			-0.559844			0.596175			0.851251			-0.10245			-0.168983			-0.0207171			0.177847			0.287386			-0.25972			-0.33089			-0.556515			-0.576821			-0.338098			-0.301079			-0.428197			0.0911366			-0.243969			-0.0251767			-0.26542			0.156608			-0.282627			0.376968			-0.303867			-0.0187676			0.322222			0.774774			-0.861061			0.0717939			0.731103			0.322289			0.163886			0.210397			0.145316			-0.702325			-0.302222			0.553743			-0.708704			-0.876927			-0.19192			0.114959			-0.0861777			-0.421042			0.595561			0.0408246			0.517041			-0.086857			0.0812836			-0.00852874			0.0154511			-0.425372			0.245553			-0.475762			-0.392342			0.127048			0.393732			0.579684			-0.0481485			-0.171602			-0.539022			-0.131932			-0.879377			-0.233706			0.227692			0.732122			-0.00188205			0.200463			0.456223			
0.486869			-0.896253			0.283702			-0.316925			-0.666359			0.532592			0.767623			-0.325025			0.341448			0.282939			0.133656			-0.354565			-0.106677			0.993888			-0.138843			0.444737			0.28488			0.297124			0.0904467			0.0674495			0.0400253			0.289839			-0.168939			-0.701075			0.934307			-0.282174			-0.429265			-0.429671			-0.373339			0.54703			0.54801			-0.248137			0.011834			0.20676			-0.242498			0.0358141			0.154775			0.264261			0.638951			-0.545787			-0.461201			0.245327			0.361394			-0.137802			0.119116			0.558297			0.33935			-0.559177			-0.66986			0.146063			0.348597			0.452278			0.251486			0.171523			-0.137012			0.554684			-0.493603			0.148815			-0.271114			-0.130249			0.105221			0.689557			-0.982911			0.482467			-0.605807			-0.0192012			0.10396			-0.536244			0.246042			-0.686695			0.402446			0.036502			-0.181787			-0.136184			0.255528			-0.691215			-0.403276			-0.408717			0.324413			0.843187			0.357398			-0.315032			-0.144723			0.363651			-0.304902			0.082847			-0.629718			0.883033			-0.510177			0.79841			0.831525			0.805387			-0.703207			0.517288			-0.350845			-0.311722			0.616318			0.0463462			-0.675319			0.420027			0.229315			0.468734			-0.297139			0.282323			-0.258956			0.323847			0.0155535			0.239304			0.678595			0.09953			-0.0194905			-0.0621185			0.156275			0.743442			0.155409			-0.677154			0.173049			0.0297416			-0.495991			0.42437			-0.13538			-0.240486			-0.0140166			0.651245			0.282338			0.319318			0.491619			0.417327			-0.211879			0.635121			-0.0436579			0.0131189			0.0921843			0.534369			0.310986			-0.642613			-0.0374282			-0.110267			-0.435578			0.361757			0.139464			0.344307			0.701939			-0.476256			-0.516394			-0.361502			-0.761471			-0.252946			-0.677425			-0.665002			0.603891			-0.263673			-0.337913			-0.590588			-0.701466			-0.629152			0.25407			0.0158279			-0.246797			-0.23107			0.448184			-0.698376			-0.102383			-0.248765			-0.391462			0.0486759			-0.385811			0.30984			-0.601933			-0.364566			0.341379			0.142748			0.590545			-0.805506			-0.401372			-0.663273			0.130892			0.837019			-0.32668			-0.0790506			0.115482			-0.175438			-0.30575			0.211742			0.940854			-0.314402			0.403083			-0.00159653			-0.0975669			-0.462872			0.747678			0.217418			-0.320822			0.216236			-0.621013			0.0320416			0.972013			0.217484			-0.592066			-0.659467			-0.00151693			0.848413			-0.0543554			-0.170505			-0.588632			-0.0458417			0.0927885			0.170176			0.65468			0.0834222			0.410157			-0.0911891			0.280273			-0.0813369			-0.0341516			-0.851458			-0.190089			0.638712			-0.752576			-0.0771213			0.217318			0.595539			-0.0560986			0.443356			-0.290629			0.29006			-0.368238			-0.10473			0.123262			0.347502			-0.114749			0.835759			-0.290582			0.00298871			0.775722			-0.15458			0.809087			0.579407			-0.0509746			0.0350245			0.198057			-0.242854			-0.0315591			0.0116799			-0.032604			0.504689			-0.109222			-0.00713286			0.12322			0.0803384			
-0.499933			-0.409874			-0.945552			-0.34874			0.159508			0.228472			-0.1793			0.510651			-0.613289			-0.622671			-0.111917			0.166936			-0.374803			-0.448723			0.282923			-0.286304			0.89293			-0.4424			0.876118			-0.434083			0.00104899			-0.609674			-0.163169			0.268774			0.0486121			0.641885			0.874807			0.188559			-0.20518			0.433055			-0.734616			-0.529074			0.0911223			-0.212602			0.215663			0.238534			0.169967			0.12595			-0.805283			0.543561			-0.186324			-0.360642			0.0394609			0.0610532			-0.515787			-0.230159			0.170429			0.660884			0.2546			0.491165			-0.217979			-0.860208			-0.471751			-0.364164			-0.612597			-0.555039			0.201689			-0.507324			0.277933			-0.0673112			0.605462			0.272759			0.715827			0.0224514			-0.369021			0.134012			0.992327			-0.443005			0.00608112			0.863049			0.713487			0.759266			0.548246			-0.661238			-0.399344			-0.108067			-0.139181			0.24525			0.301971			-0.620974			0.190731			0.42896			-0.516001			-0.0604285			0.0389067			-0.31705			0.181268			0.123312			-0.651643			0.936085			0.614015			0.697908			0.503026			0.0501875			-0.0946667			0.0677844			-0.241151			-0.187844			-0.246091			0.0770629			0.64787			0.384789			0.016358			-0.137509			-0.18086			0.500221			-0.350572			-0.246204			0.0203414			-0.0159415			-0.198721			-0.684529			0.860484			-0.0639773			0.443771			0.0233403			-0.362765			-0.175092			-0.404349			-0.0601726			-0.275294			0.319546			0.100082			-0.436465			0.323435			-0.346368			0.0919496			-0.0683031			-0.324065			0.320379			-0.446164			0.624844			0.587918			-0.418297			0.175486			-0.233698			-0.070466			-0.570271			0.237033			-0.483825			-0.381928			-0.154546			-0.229644			-0.637225			0.291169			0.000360277			-0.825076			-0.418155			-0.533175			0.364961			0.165582			0.234977			-0.203305			-0.294805			0.263424			-0.658376			0.690319			-0.0736962			-0.645685			-0.138517			0.563349			-0.158098			-0.271389			-0.42634			-0.789799			-0.48009			0.214701			-0.97194			-0.214528			0.0379382			0.00989035			-0.934931			0.194666			0.137005			-0.215102			0.0639005			0.313752			-0.35811			-0.119781			-0.549334			0.439373			-0.0826795			-0.39774			0.0808931			-0.155926			-0.268865			-0.105679			-0.362632			-0.679035			-0.549934			0.682783			-0.246134			-0.177687			0.196353			0.575539			0.680301			0.477712			0.512666			0.30901			-0.116065			0.385421			0.342454			0.840412			-0.954953			0.197136			-0.208056			0.995412			-0.70833			0.311413			-0.747721			-0.168472			0.473301			-0.805212			0.244266			-0.318363			-0.47441			-0.717526			-0.0264045			0.407205			0.299807			-0.03854			0.37107			-0.0238078			0.619814			0.511185			-0.892945			0.536139			0.114081			0.00360889			0.392925			0.517519			0.128663			0.531206			-0.120942			0.00231705			0.21231			0.669734			-0.5439			0.380828			-0.0942059			0.180989			-0.585383			-0.130493			0.958461			-0.223665			0.113184			-0.627013			-0.389993			-0.630104			-0.187392			
0.0179637			0.0956119			-0.287666			0.204888			0.0445311			0.608094			0.798327			-0.283283			-0.820154			-0.412824			0.489048			-0.221098			0.321145			-0.678947			0.800893			-0.772343			0.158222			0.00374989			-0.490899			0.233371			0.756013			-0.290576			-0.0488804			-0.608597			0.106638			0.432504			-0.16378			-0.50289			0.129991			0.266485			0.313007			-0.382468			-0.282718			0.00413912			-0.914449			-0.146914			0.544048			0.242572			-0.202846			0.326746			-0.26472			0.803264			-0.0810554			0.498273			-0.01465			-0.09346			-0.526403			-0.0408661			0.121403			0.97295			0.123506			-0.443065			-0.126673			-0.672758			0.708192			0.475165			-0.374924			-0.388868			-0.681293			0.246513			0.0630337			-0.321856			-0.502604			0.263775			0.0217375			-0.345236			-0.0548544			-0.0530491			0.242817			-0.235466			0.296438			0.196834			-0.0307013			0.258257			-0.791734			0.30523			0.835203			0.0016353			0.0487463			-0.111375			-0.0766927			0.00393043			-0.415432			0.160076			0.446827			-0.0532794			-0.569418			-0.248295			0.0441664			-0.478715			-0.0986331			-0.0868374			-0.221121			-0.379081			0.610512			0.0817656			-0.597484			-0.367511			0.309071			-0.0530116			-0.15908			-0.250479			0.410436			-0.152183			-0.509142			-0.886988			0.00463221			-0.443722			-0.395472			0.271542			-0.0267841			-0.800381			0.238264			0.14364			-0.0217527			0.760642			0.256998			0.26317			-0.342466			0.182717			-0.345197			-0.101246			0.255405			-0.31444			-0.148559			0.715237			0.314665			-0.0833238			-0.487989			0.395333			-0.263972			0.275242			0.361244			-0.80244			0.342456			0.563669			-0.256666			-0.524387			0.707843			-0.397813			-0.49212			0.177907			0.302406			0.513844			0.0432541			-0.919667			-0.459287			-0.153577			0.813699			-0.395121			0.301013			-0.0616435			0.439074			-0.177548			-0.480648			0.385659			-0.480633			0.39996			0.068034			-0.211611			0.462852			-0.23865			0.0368776			-0.170921			0.110646			0.237086			-0.644829			0.721404			-0.568263			-0.026313			-0.440902			-0.155945			0.426196			0.166243			-0.395707			0.0353895			0.0132159			0.0966214			-0.316583			-0.0273			0.304353			-0.0954035			-0.345251			0.139197			-0.235016			-0.130059			0.064396			0.326231			0.443073			0.0281807			-0.263643			0.212697			0.374702			-0.274343			0.675014			-0.117954			-0.599135			-0.600909			0.154865			-0.440099			0.709291			-0.348208			-0.801381			-0.200069			-0.252862			-0.166039			-0.409995			-0.285575			-0.208649			-0.386884			0.532395			-0.437343			-0.134621			0.261899			0.759763			-0.959114			-0.0680397			0.351155			0.850231			0.253656			0.310794			0.88082			0.51135			0.130625			-0.830783			-0.913017			-0.790423			0.731754			0.391028			0.501659			0.065298			-0.246838			0.640574			-0.215608			0.115139			0.242328			-0.47834			0.824581			0.232953			0.336543			0.567315			-0.196601			0.570231			0.220385			-0.338437			-0.109273			-0.243629			0.606931			0.100599			-0.254765			
-0.382366			-0.504155			0.595536			0.201702			-0.992363			0.148822			0.0438813			0.950774			0.657721			-0.164268			-0.502616			0.277713			0.899985			0.458772			-0.668463			-0.077865			-0.380319			-0.173889			0.618209			0.217698			-0.152201			0.383635			-0.0816956			0.533671			-0.0472114			0.450815			0.857426			-0.449669			0.273561			0.137481			0.0684632			-0.163117			0.348264			-0.755149			0.843583			-0.981647			-0.230016			0.039809			-0.678889			0.785694			-0.451926			-0.370226			0.421066			0.503589			0.0270183			0.359737			0.290853			-0.646381			-0.12188			-0.16555			0.0424821			-0.16615			0.170618			0.218205			-0.457906			-0.213594			0.685725			-0.290922			0.599735			0.299735			0.00754539			-0.305306			0.362385			0.28002			0.498314			-0.146426			0.598913			0.655038			0.0264358			0.379086			0.101961			-0.892644			0.496737			-0.651613			0.0919739			0.047095			0.145085			0.29942			0.537777			-0.438397			0.377524			-0.26636			0.368633			0.346939			-0.17761			0.453494			-0.0290245			0.241704			-0.872824			0.0936765			0.493669			-0.749056			-0.0764706			-0.303559			0.241842			0.283263			0.315579			-0.243784			-0.214677			-0.320087			0.0207058			-0.133914			0.390631			-0.184148			-0.136422			0.207709			0.569551			0.644487			0.274945			0.297601			-0.871134			0.299608			-0.562688			0.143797			-0.364974			-0.719077			-0.459576			-0.0940344			0.489139			-0.0262706			0.202175			-0.114643			-0.597551			0.229182			-0.0682382			0.450017			-0.536485			0.285206			-0.0361367			0.110421			-0.696609			-0.173046			-0.0339654			0.687197			-0.742253			-0.0274857			0.0931046			0.284617			0.200754			0.0147353			0.065574			-0.203564			0.203338			0.0458964			-0.289458			0.252268			0.635815			-0.376951			-0.277312			-0.00412437			-0.788665			0.777137			-0.177938			-0.234967			0.166776			-0.34954			0.045421			0.52675			0.581168			0.127878			0.214485			0.29475			-0.295772			-0.271798			-0.385956			0.52396			0.0911038			-0.510483			0.381838			-0.771132			0.39869			-0.030791			0.362212			-0.230244			0.678018			-0.876173			-0.337391			-0.068324			0.0196301			0.178695			-0.362594			-0.147525			-0.882123			0.018515			-0.6896			-0.505175			0.439311			-0.144608			-0.405176			-0.274109			0.389587			0.142741			0.242302			0.113575			-0.0591872			-0.141448			-0.0524493			-0.740698			0.314781			-0.0633536			-0.0415138			-0.227745			-0.251849			-0.484065			-0.318493			0.795224			0.673378			-0.000172456			0.22529			0.127976			0.258485			0.116378			-0.146537			0.445719			0.256588			0.455106			0.547656			0.400235			0.0425704			0.0340974			-0.374647			-0.451626			0.18993			-0.866872			-0.20571			0.0140605			0.147885			0.504775			0.3925			0.178433			-0.00290641			-0.109628			0.269823			0.548724			-0.0598243			0.0384636			-0.0963123			0.132787			0.0720017			-0.13936			0.058033			-0.235275			0.148484			0.135973			-0.279271			-0.0845527			-0.549907			0.417736			-0.0847005			0.711198			
-0.0873428			0.025337			-0.176184			-0.422855			-0.788289			0.67875			-0.584011			-0.121772			-0.0399959			-0.780549			-0.612062			0.439147			0.194139			0.164975			-0.265642			0.302194			0.365605			0.119134			-0.438805			-0.232424			0.125293			0.0702254			-0.099192			0.348592			0.600432			0.366941			0.31551			-0.144329			-0.210201			0.0890089			0.209663			-0.89733			-0.997078			-0.144524			-0.135621			-0.201909			-0.64919			-0.461251			-0.193061			0.957404			-0.4668			0.0610599			0.30418			0.869434			-0.0587302			-0.0639817			-0.97232			-0.419434			-0.840569			-0.675466			0.661003			0.0137549			0.447755			-0.160451			-0.963475			-0.107877			-0.379311			0.273096			-0.199973			0.294739			-0.0765473			-0.294727			-0.570274			0.626213			0.193425			-0.400948			-0.257601			0.143011			-0.231144			0.347338			-0.421359			0.676291			-0.379793			0.0342876			0.437395			0.0734471			0.15441			0.191875			-0.531906			-0.623273			-0.263602			0.152253			-0.581052			0.465344			-0.202161			0.279108			0.180018			-0.668449			0.600971			0.361393			-0.05754			-0.18508			-0.654399			0.452907			0.237437			-0.870881			-0.322085			-0.294552			0.298178			0.246726			0.292259			-0.110663			0.0700699			0.0216762			-0.10033			-0.0519854			0.545501			-0.29667			-0.0783439			-0.351559			-0.0065263			0.253863			-0.695288			-0.302821			-0.329921			-0.0197336			0.0145539			0.016662			0.354081			0.388353			0.441221			-0.167896			-0.582648			-0.368751			-0.178406			0.219907			0.0750874			0.754168			0.3573			0.435017			0.0424567			0.445194			0.231349			-0.145859			0.572032			0.514015			0.115127			-0.444119			0.261929			0.744491			-0.493047			0.545058			0.368752			-0.431687			0.254572			0.673709			0.401132			0.34776			0.599131			0.320412			0.261468			0.0459596			0.427838			-0.287954			-0.570109			0.290756			-0.499082			0.778166			-0.378644			-0.401566			0.0788842			0.100195			-0.509873			0.627846			-0.123846			-0.436992			0.239961			0.357565			0.385224			0.636962			-0.787039			-0.16175			0.280276			-0.362835			0.257277			-0.40666			-0.505285			-0.101162			0.000917125			0.573509			0.656747			-0.158909			-0.760366			-0.197132			-0.0717896			-0.45429			-0.620856			0.47982			-0.19109			-0.500328			0.505916			-0.246108			-0.740699			0.872411			-0.33495			0.359646			0.328738			0.501027			-0.049981			0.278257			-0.501245			-0.264305			0.24229			-0.67542			0.267365			0.517134			0.00508262			-0.852997			-0.0175887			-0.153857			-0.0414455			-0.271754			-0.117791			0.0578746			0.204219			0.913226			0.445156			0.396526			-0.661538			-0.415022			-0.482644			0.228607			0.119516			-0.451725			0.256136			0.569791			0.932608			-0.0550547			-0.117339			0.0347787			-0.454031			0.148765			0.439927			-0.188606			0.542962			-0.0340318			0.143496			0.447217			0.386146			0.416603			0.292145			0.108762			-0.92048			0.0898651			0.50801			-0.497367			0.209989			-0.506727			0.00966938			0.981389			
0.439397			0.378442			0.456934			-0.798791			-0.0774417			-0.396293			-0.292862			-0.105315			0.577985			0.177988			-0.124202			0.0282566			0.407384			0.605722			0.388584			-0.521923			0.332755			0.555829			-0.0684824			-0.0722627			0.360905			-0.479523			0.943375			0.281835			0.302979			-0.130935			0.237378			0.111722			0.00866802			-0.285029			-0.370075			0.0489002			0.653974			-0.294994			0.821591			0.00518162			0.299239			-0.160559			-0.468575			-0.898518			0.330231			0.885507			0.402136			-0.173598			-0.0705919			-0.311603			-0.356074			-0.0351173			0.00739723			0.588946			0.278076			-0.0547678			0.124178			0.261158			0.286434			-0.17083			-0.148342			0.595367			-0.182946			-0.458616			-0.225175			-0.400208			-0.146857			0.435062			-0.202937			-0.167238			-0.564353			-0.361615			-0.434556			-0.58382			-0.0832641			-0.658767			-0.270637			-0.815354			-0.0955782			0.963099			0.33501			0.344774			-0.153032			0.0625551			0.111808			-0.263727			-0.273527			0.327619			-0.45356			-0.321704			-0.45081			-0.39969			-0.81033			0.809702			0.350589			-0.457			-0.0444703			0.195253			-0.0339236			0.135313			-0.249752			0.95311			0.0845306			0.155491			-0.637843			0.0144264			-0.132542			-0.376034			-0.135841			0.510226			-0.00475159			0.208051			0.505354			-0.0654695			0.137268			0.516155			-0.302233			-0.526455			-0.355233			-0.0468941			0.752653			-0.606431			0.223567			-0.473325			0.00556838			0.0740313			-0.0821872			-0.82254			-0.47438			0.0632199			-0.538263			0.0275366			-0.138011			0.126733			0.378248			0.287361			-0.625024			0.762999			0.277259			0.1856			-0.252537			0.567226			0.637333			0.0626673			-0.459142			-0.810963			0.605157			-0.491849			0.276749			0.0341675			-0.584499			-0.806588			0.965624			-0.0226988			0.192967			0.376093			0.245613			-0.019972			-0.664455			0.667314			0.715032			-0.45502			-0.963958			0.474124			-0.115948			0.140106			0.869294			-0.255992			-0.439013			0.213326			0.160663			-0.158094			0.16815			0.3341			0.298899			-0.527701			-0.0923105			-0.000920999			0.0921419			-0.178907			0.174997			0.0392983			-0.600042			-0.24913			0.454171			0.218765			0.0901769			-0.454583			-0.0385931			0.179452			-0.301889			0.586982			-0.000559735			-0.549108			-0.210348			0.246304			-0.288163			-0.25089			0.389665			-0.888167			-0.512837			-0.180195			-0.280933			0.316468			-0.611774			-0.84823			0.529349			-0.19808			0.0467269			-0.0183743			-0.625169			-0.0362686			0.433661			0.62787			-0.301663			0.20734			-0.370181			-0.982205			-0.383776			0.258291			-0.478397			0.077057			0.167023			0.214878			0.24409			0.0703124			0.475069			0.0418416			-0.538902			-0.221507			-0.205848			-0.0470788			0.955655			-0.214201			0.174001			-0.696005			-0.136638			0.545839			0.0332436			-0.13901			-0.277041			0.756088			-0.674433			0.805021			-0.714204			0.2223			0.218874			-0.0124605			0.254952			0.975365			0.940588			-0.299561			-0.195713			-0.236415			
0.349052			0.350018			-0.954976			0.303147			-0.514479			-0.743798			-0.511307			-0.797679			-0.296601			-0.0524641			0.7109			-0.292626			-0.454045			-0.923996			-0.129204			-0.159534			0.327047			-0.382576			0.0524999			0.908071			0.0217438			-0.18604			0.221284			0.341076			-0.501374			-0.198715			-0.906675			-0.609685			0.320269			-0.634686			0.123399			-0.125696			-0.605002			0.489778			0.942178			-0.500684			-0.434593			0.368652			0.886602			0.381398			0.00407507			0.0913148			0.92812			0.513676			-0.0187843			-0.138952			-0.354081			-0.695984			-0.0320797			-0.380451			-0.289844			-0.080498			-0.896838			0.279611			-0.360287			-0.00932712			-0.423115			-0.000618582			0.206082			-0.469943			0.399689			-0.0418304			0.559144			-0.212773			0.00865408			-0.011943			0.259206			0.90255			0.0529981			0.453399			0.694147			-0.646648			-0.19515			-0.921442			0.460928			-0.156199			-0.991144			0.374571			0.190712			-0.215569			-0.351232			0.264428			-0.47074			0.113602			0.790705			-0.585078			0.0288685			0.335362			-0.105545			0.162811			0.202543			0.600493			0.0332014			-0.325841			-0.313651			0.442241			0.173399			-0.105182			0.119839			-0.764943			0.935967			-0.148381			0.184292			0.298791			-0.279944			-0.114851			-0.16963			0.814109			0.119143			-0.487809			-0.310127			0.264478			0.02815			-0.129266			-0.406267			0.195534			-0.302941			-0.0557083			0.461392			0.212189			-0.144444			-0.279613			0.0146971			0.567576			-0.741868			0.250566			-0.0125728			-0.482158			-0.255182			0.373866			0.248495			-0.951948			-0.180001			0.338114			-0.732897			0.241479			0.107074			0.795588			-0.342017			-0.556149			-0.637272			-0.349662			0.484735			-0.71503			-0.608063			0.190597			-0.350456			0.449045			-0.690895			-0.095769			0.141283			-0.0318594			-0.958438			-0.0976367			0.224463			0.837083			-0.391769			-0.105118			0.357403			0.257044			-0.0658046			-0.780574			-0.146229			-0.961944			-0.105316			0.315036			0.049777			-0.65349			0.706679			-0.559525			0.64783			0.313536			0.461869			-0.891918			-0.350887			0.589957			0.281067			0.372598			-0.367289			-0.708089			0.524448			-0.250358			0.325538			-0.164531			-0.450493			-0.57468			0.787015			0.91483			-0.35177			0.790694			-0.519437			-0.412707			0.568124			-0.0771882			-0.829517			0.760133			0.732636			0.0759291			-0.745639			0.0057593			0.0855104			-0.538441			-0.555112			0.357817			-0.468074			-0.0887026			-0.477643			0.798648			0.22359			0.0200493			-0.959908			0.630631			0.27836			-0.108343			0.33197			-0.108646			0.0449195			-0.177397			-0.291695			-0.457712			-0.0352851			-0.542785			-0.219584			-0.530313			0.0455609			0.0950002			0.645715			0.413724			-0.0703736			-0.276475			-0.38066			-0.590442			0.0216739			0.573354			0.132726			0.00022448			0.408865			0.335682			-0.0479447			0.684436			-0.469232			-0.394396			-0.0782981			-0.263991			-0.0801355			-0.583152			0.226061			-0.119667			-0.432592			-0.0732877			
-0.619162			-0.450468			0.14382			0.622719			-0.09652			0.502585			0.0807831			-0.441915			0.183031			0.15307			0.0391804			-0.587198			0.126019			0.341708			0.0459636			-0.6241			0.733011			0.123814			0.0273004			0.356645			-0.697301			-0.202633			-0.862727			-0.340155			0.335357			0.0229495			-0.523386			-0.51612			-0.774675			0.229105			-0.336955			-0.30623			-0.979961			-0.258681			0.367732			0.708035			-0.0944207			0.488696			0.0130231			-0.0632239			-0.100325			0.437336			0.260482			0.184846			-0.587393			-0.644978			-0.681075			0.439608			-0.123388			0.352991			0.259727			-0.411305			-0.857862			0.506641			0.59692			0.0569966			0.0576629			-0.100575			-0.391572			-0.0321851			0.0245104			0.440843			-0.0469558			0.414167			-0.290726			0.303821			-0.291626			-0.0673485			0.249373			-0.552083			0.00545941			-0.778114			-0.809828			0.778575			-0.674709			0.359419			0.09299			-0.491168			-0.261776			-0.25887			-0.686992			0.61783			0.728549			-0.293854			0.451021			-0.978378			-0.119224			0.396432			-0.390637			0.0848768			-0.190032			-0.160976			0.278725			0.0441466			0.348589			-0.262075			-0.614801			0.417643			0.167601			0.10552			-0.131254			-0.430256			0.201235			-0.319486			0.0360579			0.178217			0.553047			-0.298094			0.535427			0.369265			-0.370366			0.90206			-0.0238872			-0.593099			0.9221			-0.00041302			0.153615			-0.319796			0.0899378			-0.0449529			-0.215567			-0.215946			-0.791413			0.486478			0.384275			0.175866			0.917596			0.0804895			0.238418			0.0230309			0.813376			0.228117			0.134907			-0.0968937			-0.126961			-0.241744			-0.386212			-0.45947			0.107185			-0.171174			-0.157962			0.512352			0.481094			0.785366			-0.913401			-0.330063			0.0290735			0.10856			0.648367			-0.267128			0.662355			-0.742583			-0.544426			-0.451558			0.546338			-0.773266			0.237334			-0.128714			-0.050507			0.159942			0.449878			-0.108274			0.00535127			0.517843			-0.0557069			-0.768034			0.233452			0.683874			-0.46653			0.0581737			0.0548544			-0.329071			0.0721298			-0.633264			0.123034			0.248322			-0.574644			-0.793321			0.451135			0.100406			0.0962022			0.0633097			0.404815			0.512626			-0.0260477			-0.12624			0.32189			0.0203758			-0.220898			0.184803			0.198761			-0.475456			-0.327019			-0.264961			-0.736614			-0.383229			0.170457			-0.750177			-0.205844			0.248856			0.315893			0.496149			0.325748			0.129568			-0.844536			0.542189			0.107774			0.582608			0.1197			0.595204			-0.023234			-0.356155			0.0227566			-0.125609			-0.418514			-0.30958			0.677388			0.306456			-0.182187			-0.331221			-0.45149			-0.813717			-0.164514			-0.547979			0.253329			-0.152807			0.463972			0.364784			-0.967428			-0.131719			-0.557993			0.554842			-0.283491			0.273437			0.209925			0.173622			0.340971			0.39196			-0.73674			-0.0459518			-0.600093			0.492847			0.492304			0.106439			-0.576181			0.837502			0.509759			0.37985			0.130186			-0.480459			
-0.224699			0.0128878			0.0815945			0.733141			-0.744593			-0.304501			0.353514			0.618889			0.152857			-0.118074			0.559888			-0.278085			-0.596155			0.758698			-0.394611			0.172601			-0.61377			-0.834691			-0.476151			0.0918652			0.599695			-0.780978			0.129365			0.146544			0.392856			0.50947			0.135646			-0.154168			0.597744			-0.855413			0.932574			0.782263			-0.447968			-0.119055			-0.110104			-0.0384332			0.306981			0.205867			0.164733			0.204751			-0.736002			0.689638			0.195082			0.153364			-0.194204			0.688704			-0.557149			-0.348045			-0.051878			0.197766			0.194946			0.118891			0.303564			0.852546			-0.138967			-0.782092			-0.154709			0.118408			0.722095			-0.627112			-0.247316			0.613884			-0.582327			-0.703629			0.550109			-0.257992			-0.638282			0.211803			-0.460497			-0.391654			0.133958			0.163328			-0.24223			0.165678			0.398061			0.560415			-0.39336			0.537575			-0.0861285			-0.366686			-0.176816			-0.114741			-0.615818			-0.152811			-0.595798			0.472095			-0.569735			0.092353			0.519157			-0.0587707			0.734152			-0.267131			-0.468525			0.166746			0.270786			-0.276404			0.0866076			-0.340172			0.353674			0.577474			0.681122			0.363936			0.663193			-0.900884			-0.959161			-0.426469			0.254811			0.311906			0.00556246			0.33514			0.100173			0.0439358			0.498114			-0.294185			0.584752			0.273443			-0.00425663			0.224967			0.801981			-0.513922			0.22468			-0.336503			-0.231491			0.0301638			0.12254			0.278102			-0.213355			0.0834598			0.349421			-0.542708			0.718318			-0.129344			0.249741			0.137278			0.306079			-0.104821			-0.308707			0.240415			0.676423			-0.476492			-0.0807444			-0.470998			-0.247478			0.209371			0.585313			-0.451408			0.383965			-0.58659			-0.091463			0.239561			0.195203			-0.725645			-0.500792			-0.589464			-0.0316533			-0.250764			-0.263542			0.587811			0.356127			0.00839599			0.872706			0.63464			0.989639			-0.0399226			-0.877014			-0.303366			0.520523			0.700495			0.226449			-0.0204888			0.0681658			0.389325			0.681013			0.436459			-0.127904			0.470693			-0.465694			0.103742			0.590872			0.753889			-0.185456			0.304707			-0.425914			0.609864			-0.665435			0.224465			0.2672			0.460583			-0.401487			-0.416122			0.0102846			0.12931			-0.168133			-0.0413084			-0.299958			-0.692672			0.193144			0.385826			-0.129474			0.220329			0.273017			0.0391535			0.0116428			-0.954631			0.219163			0.458815			0.0199137			0.373316			-0.156601			0.324956			-0.271928			-0.0270437			0.431846			-0.24453			-0.428614			-0.552309			0.879044			-0.0846819			0.779342			-0.268745			0.553306			0.0715558			-0.156609			-0.991684			0.216951			-0.281998			-0.248493			0.515			-0.814797			0.397236			-0.341465			0.769663			-0.078239			-0.0628581			-0.499757			-0.58726			-0.501731			-0.0700624			0.656553			0.0426163			0.235821			-0.988198			0.034344			-0.386371			-0.208343			-0.131777			0.098593			0.640753			-0.447672			-0.127413			
-0.182804			0.199182			-0.0492381			0.570801			-0.15592			0.0169461			-0.534562			-0.0784009			-0.0995403			0.585816			0.73869			-0.10466			-0.627475			0.712404			-0.158044			0.205466			-0.731846			-0.109451			-0.366491			-0.385911			-0.297937			0.573612			-0.0536834			-0.103625			-0.496939			0.480411			-0.0836755			0.609695			0.0235428			-0.0754775			-0.121208			0.189902			-0.632005			-0.582773			-0.455979			-0.503434			-0.449158			-0.627491			-0.511026			0.727931			0.112799			-0.540441			-0.392555			0.0658634			-0.181521			-0.115922			0.565621			-0.0598536			0.41172			0.296779			-0.602432			0.188945			0.0668849			-0.484828			0.469769			-0.752763			-0.12089			0.431113			-0.233555			-0.535208			-0.279638			0.00213672			0.787575			0.911691			-0.102964			0.262431			0.287993			0.380309			0.522767			0.182153			-0.441863			-0.070611			-0.0640156			0.460172			0.0528889			-0.157959			-0.366072			-0.43276			-0.479206			-0.444792			0.30558			0.502343			0.304957			0.104895			0.285558			-0.702539			-0.26842			0.0169668			0.0268839			-0.900916			-0.29119			-0.53627			-0.874817			-0.000461352			0.319796			-0.234567			-0.135092			-0.158135			-0.0406489			0.307265			0.0514585			0.122001			-0.121358			-0.165158			0.221302			-0.243822			0.636408			-0.495042			0.0647769			0.119429			-0.580696			0.447163			0.719794			-0.874113			-0.771697			0.230366			0.0546193			-0.157273			0.429976			-0.415329			0.601344			-0.204746			-0.00267083			0.0404524			0.215869			-0.411905			-0.589933			-0.347151			0.455468			-0.652031			0.858467			-0.143102			0.0524359			-0.209263			0.626987			0.0861322			0.40477			0.13058			0.479194			-0.0611842			0.487763			-0.872887			0.557784			0.209127			-0.24901			-0.175816			0.634867			0.06038			-0.0742448			-0.886379			0.331878			-0.522049			-0.297675			-0.18233			0.188741			-0.0454483			-0.13206			-0.111598			-0.79487			-0.910494			-0.357569			0.516358			-0.746018			0.428555			-0.0676068			-0.03182			-0.180231			0.44607			0.118458			-0.245791			0.281444			0.373606			-0.932205			-0.106235			0.485445			0.0206347			-0.0277917			0.154228			-0.0363446			-0.0811996			-0.562376			0.534579			0.307856			0.207649			-0.455045			0.332431			-0.321813			0.451148			-0.0477085			-0.615055			0.0719558			0.238197			-0.785058			-0.346738			0.0479546			0.0282887			-0.145198			-0.719369			-0.00786759			-0.178611			0.0826714			-0.0452488			0.0984122			0.746343			-0.188583			0.0792272			-0.580885			0.0284538			0.600783			-0.291573			-0.0774117			-0.35048			0.338849			0.50376			0.0827987			-0.735379			-0.160725			0.923047			0.489014			0.736005			0.12062			-0.605294			-0.333935			0.0790173			-0.349977			-0.416741			0.0522053			-0.273604			-0.353648			-0.304452			0.411882			0.0707113			-0.568599			0.128486			0.551631			0.141267			0.200881			0.105096			-0.328836			0.0432837			0.74724			0.686216			0.72284			-0.997656			-0.469099			-0.54938			0.201838			0.293146			-0.477345			0.138492			
-0.530154			0.0924971			0.0964293			-0.730693			0.28819			0.248541			0.45246			0.513219			-0.889687			-0.109788			0.108299			-0.153913			-0.0221863			-0.54231			-0.724752			0.348146			-0.40928			0.238657			0.754044			-0.40186			-0.0203858			0.183835			0.359542			-0.711548			0.0962628			-0.6968			-0.637773			0.18352			0.22764			-0.35031			0.118338			0.508022			-0.328841			-0.0252725			-0.226027			-0.485471			0.00770296			-0.0668013			0.586617			0.468094			-0.611235			0.595604			-0.0260751			0.507143			-0.490671			-0.892921			-0.292648			0.860052			0.263391			0.485766			0.00570919			0.0670642			-0.589636			0.470009			0.241039			0.317432			0.211163			-0.686466			0.469895			-0.605389			0.771792			0.148226			0.192231			0.00578874			-0.324583			-0.108733			-0.248928			-0.734193			-0.0479881			-0.0707645			-0.329003			0.442237			0.16918			0.150103			-0.524051			-0.235899			0.447655			0.32492			-0.168957			-0.372246			0.319258			-0.883262			-0.664023			-0.241514			-0.540828			-0.210504			-0.0838837			0.430291			0.0583191			-0.0448589			0.737746			0.106149			-0.674038			0.671604			-0.275773			0.210939			0.0581798			0.44756			-0.50015			0.153176			-0.0306711			0.427485			0.717146			0.200576			0.549066			0.453573			0.212771			-0.508667			0.460994			0.121862			0.301496			-0.0952159			-0.255633			-0.118877			-0.0494613			0.11477			0.468104			-0.189551			-0.0110036			-0.127089			-0.157366			0.195369			-0.260927			0.146991			-0.318587			0.170695			0.351631			0.0190613			-0.0664293			0.522765			-0.96199			-0.481129			0.779776			0.456862			-0.522275			-0.123274			-0.309033			-0.170143			-0.128687			-0.358646			-0.871827			-0.694883			-0.0362833			0.192721			0.708772			-0.243847			-0.69657			-0.384375			-0.815104			-0.284609			-0.405717			0.886367			0.122573			-0.332179			-0.554996			-0.685697			0.192004			0.00633268			-0.831802			0.0604799			0.467815			0.324829			-0.402292			-0.452496			-0.354129			-0.160416			0.394709			-0.0017097			0.0300383			0.141483			0.249126			0.523699			0.0296366			0.240432			-0.60057			-0.416712			0.576851			0.322056			-0.10601			-0.943025			-0.204272			-0.0627843			-0.919972			0.036188			-0.45776			-0.415732			-0.508694			0.0832763			-0.917654			0.0425981			-0.244107			0.615954			0.240141			0.0519904			-0.652885			-0.298614			0.227534			0.788045			-0.314979			0.366787			-0.295843			-0.215346			0.390995			0.155206			-0.199967			0.152808			-0.262706			-0.489269			-0.160803			-0.395818			0.227169			-0.0140099			-0.777075			0.0201384			0.621776			-0.0282798			-0.203373			0.49963			-0.413161			0.263125			-0.696377			-0.427892			0.383999			0.292006			0.0334239			-0.503047			-0.441656			0.279042			0.00656957			-0.251542			-0.488992			-0.0899151			-0.849934			-0.149212			-0.160039			-0.653511			0.0596042			0.0679279			0.547304			-0.142758			-0.106159			-0.258684			-0.794161			0.540339			-0.667507			-0.653031			0.0604878			0.449826			0.185919			0.145004			
0.699129			0.020833			0.480733			-0.083058			0.741768			-0.422899			-0.420708			0.781482			-0.0961231			-0.837072			-0.311946			-0.748465			-0.695462			-0.412569			0.0771148			-0.735837			-0.273028			0.259444			-0.137698			-0.560118			-0.790044			0.0011509			-0.000719848			0.264817			0.133586			0.582412			0.00924527			0.430297			-0.550519			0.268607			0.361375			0.19755			-0.13666			0.172861			-0.610884			0.148462			0.0416289			0.146961			-0.730879			-0.677217			-0.549612			-0.139608			-0.0416266			0.293348			0.139589			-0.385225			-0.283611			0.0962583			-0.130673			-0.370922			-0.599076			0.13946			-0.752487			-0.00528576			0.711244			0.229008			0.86718			0.368272			-0.074172			0.304283			-0.31074			0.63323			0.971408			0.474028			-0.189023			-0.15219			-0.418393			0.790169			-0.668387			-0.906636			-0.457782			0.143653			-0.462077			0.433174			-0.451792			-0.219393			-0.5202			-0.197135			0.0167109			0.285432			-0.051977			0.210571			0.343367			0.0487842			-0.08847			0.217032			-0.453217			-0.944063			-0.629751			0.200482			0.573188			-0.446566			-0.377043			-0.288899			-0.259461			-0.95462			0.596151			0.555559			0.250325			-0.208959			0.454733			0.639656			-0.290607			0.112226			-0.218332			-0.290925			-0.01291			0.0851301			0.545044			0.319005			0.136007			-0.441358			-0.162931			-0.94788			-0.433716			-0.542493			0.207466			-0.211041			0.15218			-0.469998			0.954586			-0.927074			-0.32477			0.00681076			-0.309903			0.608527			-0.556301			0.333836			0.0873406			-0.581936			-0.483184			0.714384			0.225762			-0.279757			-0.570725			-0.72262			-0.45661			-0.511402			-0.190139			0.255272			0.281059			0.551321			0.0456834			-0.429044			-0.905244			0.596653			-0.0852603			0.553272			-0.89622			0.27464			-0.323451			-0.0495991			0.211749			0.233334			-0.236507			-0.235361			0.319854			-0.0869563			-0.272649			-0.0854034			-0.095008			0.174809			-0.0803139			0.108153			-0.85332			-0.640655			0.366205			-0.531341			-0.680339			0.244594			-0.121145			-0.129163			0.209647			0.0791378			-0.527013			0.378159			-0.260874			0.300112			-0.281346			-0.727487			0.731381			-0.639506			-0.344832			0.198396			0.10047			-0.0125097			-0.237634			-0.62475			0.0472806			-0.770926			0.0148362			-0.180166			0.648852			-0.228617			-0.0414946			-0.0271034			0.176438			-0.115715			0.325838			0.328205			-0.0969578			0.153398			0.816728			0.351578			-0.357736			0.0222457			0.0556382			0.0951665			-0.135187			0.621681			-0.0847297			-0.443541			-0.214021			0.35253			0.458838			0.0774518			-0.106472			-0.4258			0.313758			-0.240768			-0.7081			-0.22892			0.448497			-0.468973			-0.689912			0.0465577			0.546665			-0.217997			0.327448			-0.508591			-0.19225			-0.237546			0.328743			-0.33586			0.54013			0.464864			0.243454			0.0208906			-0.871245			0.274369			0.663849			0.596757			0.433403			0.179311			-0.650504			-0.0783123			-0.185318			0.0558356			-0.208356			-0.390065			
0.199462			-0.643495			0.284545			0.222298			-0.189578			-0.696924			0.227235			0.323791			-0.0742793			-0.333235			0.610162			-0.324187			0.413995			0.237			0.172515			0.32871			0.0458141			0.536699			0.149121			0.146981			0.385309			0.588736			0.584374			-0.155147			-0.139832			0.594722			0.0503387			-0.0285599			-0.527187			0.894551			-0.292406			-0.693719			-0.145699			-0.262386			-0.148268			-0.350835			-0.188513			0.210767			-0.594463			-0.0280455			0.924337			-0.452312			0.246996			-0.650339			0.714962			0.223152			-0.064533			0.0103214			-0.587263			-0.0219381			-0.575909			0.536649			0.0595237			0.274516			0.718236			0.351967			0.294289			0.026862			0.721982			-0.280359			0.950026			0.178824			0.185685			0.101229			-0.0730323			-0.680848			0.25735			0.291584			-0.228786			0.177299			0.20213			0.848869			-0.000835316			0.0111708			-0.31832			0.398022			0.567342			0.236822			-0.00679856			0.638768			-0.243449			0.204033			0.176922			-0.617131			-0.124004			-0.326452			0.217882			0.0127671			-0.0502911			0.296691			-0.654317			0.00986378			0.128468			-0.172077			0.222916			0.35246			-0.181617			-0.156628			-0.158605			0.662576			-0.879358			-0.246929			-0.24692			-0.0510595			0.503557			0.145599			-0.00943247			-0.551646			0.124723			-0.102919			0.156735			0.454166			-0.168736			-0.447476			-0.643506			0.156699			-0.40904			0.701924			-0.12391			-0.579868			-0.535806			-0.0373535			0.369046			0.867947			-0.21023			0.087573			0.0193147			0.90065			0.232458			0.462226			0.0077446			-0.27564			-0.450825			-0.339887			0.299289			-0.163129			0.367849			0.631873			-0.563716			0.200635			0.0717783			-0.410851			0.136102			0.358286			0.191471			-0.287872			-0.132003			0.259726			-0.288832			-0.235396			-0.588776			0.479688			-0.697455			0.424538			-0.298182			-0.14106			0.641887			0.384414			0.761172			0.135769			-0.352855			0.909663			0.512399			-0.445635			-0.145332			-0.0600984			0.723824			-0.948882			-0.208283			0.310824			0.169411			-0.372209			0.515603			-0.156644			0.483555			0.685292			-0.446965			-0.221823			-0.477215			0.121755			0.265603			-0.00175866			-0.552461			0.0163703			-0.177502			0.385316			-0.199109			-0.534058			0.247442			0.673078			0.433373			-0.311218			-0.659335			-0.253517			0.174378			-0.81936			-0.263674			-0.22559			0.328905			-0.0496673			-0.562929			-0.897799			-0.087871			-0.0505075			-0.313967			0.0940932			0.272902			-0.0135238			-0.241412			0.666675			0.79906			0.787101			-0.56201			-0.749021			-0.824429			-0.268755			-0.102369			-0.311137			0.581008			0.00489335			-0.549842			-0.34856			-0.0862665			0.212718			-0.121112			0.25516			-0.143412			0.33983			-0.172584			0.0443228			-0.335727			-0.0652654			-0.261794			-0.098502			0.736661			0.40131			0.343057			-0.0270906			0.321009			0.296138			-0.0792373			0.319159			-0.407322			-0.68977			-0.460816			-0.424192			-0.679068			0.260608			0.23845			-0.325021			
0.686905			0.595118			0.907442			0.0367027			-0.355657			0.325159			-0.190626			0.586549			0.591743			0.523671			-0.186399			-0.901596			-0.258062			-0.0936972			-0.313249			0.610618			0.265744			0.138457			-0.572785			0.358479			-0.506995			-0.671978			0.233941			-0.119065			-0.0863335			-0.241665			-0.182008			-0.0171878			-0.835022			0.843922			-0.253064			0.834736			0.140022			-0.65267			-0.582315			-0.230215			-0.422317			-0.157525			0.848525			-0.286831			0.00887263			0.19113			-0.3764			0.923938			-0.667002			0.947377			-0.733446			-0.266622			0.160386			0.858544			-0.0227924			-0.465339			0.362389			0.462485			-0.170644			0.185156			-0.19821			-0.585994			-0.125476			0.308137			0.0739934			0.818592			0.288762			0.323056			0.626686			0.460291			0.37856			-0.35362			-0.256091			0.340149			-0.171881			0.0279453			-0.454367			-0.895131			0.635207			0.160391			-0.16631			-0.226422			0.20202			0.475789			0.332394			-0.0918508			-0.386725			-0.261765			0.290358			0.206646			0.494626			-0.0911828			0.984827			0.378166			-0.421728			-0.697591			0.519306			0.3301			-0.549085			-0.284061			0.601914			0.674685			-0.0882246			0.438755			-0.013661			-0.0558794			-0.839492			0.360821			-0.74314			-0.515721			-0.306268			-0.408953			-0.112549			0.118704			-0.645756			0.480534			0.497914			0.57472			-0.139987			-0.719043			0.876161			-0.428507			-0.0705228			-0.451498			0.249216			0.18583			-0.576933			0.0912258			0.734123			0.689497			-0.0945848			-0.215499			-0.891787			0.939031			0.744633			-0.421885			-0.559503			-0.944139			0.449684			-0.637209			0.261053			-0.778768			0.329201			0.494303			-0.51594			0.267083			0.785063			0.122841			-0.0792166			-0.699874			0.5321			-0.0773954			0.0504994			-0.187423			-0.306217			0.826934			0.188715			-0.0514783			0.0303728			0.071198			-0.114373			0.0025514			0.105429			0.429649			-0.343052			0.556685			0.557263			0.194413			0.387672			0.0906054			0.418427			-0.0315142			0.00795866			-0.217519			-0.103385			-0.0146854			-0.301816			-0.373153			0.186699			0.927339			0.194791			0.0868599			-0.892274			0.437609			-0.100416			0.320856			0.415714			-0.161123			-0.317675			0.0688185			0.311718			-0.238045			-0.330834			-0.369432			0.0770884			0.490824			-0.354285			-0.475568			-0.501144			0.202191			-0.731266			-0.971109			0.28823			0.0201195			0.807106			-0.540301			-0.547955			0.606954			-0.671073			0.143551			0.0124558			-0.202178			-0.265867			0.736936			0.44048			0.226278			0.33116			-0.523134			0.508573			-0.951685			-0.201507			0.18951			-0.462503			-0.194227			-0.388371			-0.718329			-0.098941			0.421975			0.591616			0.182743			0.230139			0.592826			0.224668			-0.100406			-0.249583			0.643539			0.481413			-0.293438			0.725939			0.629242			0.344564			-0.437322			0.643367			0.434552			-0.0877222			-0.0134197			-0.38197			0.434871			-0.615906			-0.527204			-0.387307			-0.406196			0.586982			-0.62873			
0.385294			0.53307			0.110424			0.764557			-0.184702			-0.0510151			-0.0643263			-0.732783			-0.0854384			-0.198533			0.345444			0.0807484			0.431181			-0.704239			0.449945			0.538208			0.0418466			-0.53683			-0.0257753			-0.335034			0.297386			0.0714701			0.363901			-0.488196			0.250758			0.0530017			0.295888			-0.098313			0.0647459			-0.262279			0.21577			-0.845223			0.910781			0.249112			-0.397411			0.24049			-0.196318			0.192385			0.16007			0.196599			0.335677			-0.684229			-0.76974			-0.246864			0.109602			0.360744			0.57397			-0.320997			0.513291			0.41673			0.661072			0.609826			0.207459			0.316808			-0.894954			0.779069			0.238272			0.131896			0.117652			0.0552449			0.124313			0.420016			0.000699206			0.514043			-0.361333			0.451126			-0.158166			0.282205			0.607799			-0.48306			-0.139997			-0.039107			0.20476			-0.00566195			-0.44082			-0.0235877			0.425281			-0.0372448			-0.594243			0.640274			-0.218087			-0.142572			0.0986758			-0.288986			0.0443615			0.366795			0.767147			-0.637522			0.305626			0.435685			-0.460856			-0.222414			0.086495			-0.0401845			0.473711			-0.385778			0.320547			0.265866			0.132659			0.394348			-0.232427			-0.149837			0.111956			-0.107058			0.76414			-0.0715378			0.135491			-0.458863			0.628054			0.102778			0.106631			0.000255979			0.74385			0.340018			-0.656272			-0.711168			-0.117892			0.43414			-0.13919			-0.268302			0.17766			-0.468746			-0.557035			0.0386557			0.355944			0.46404			-0.361115			0.5446			-0.107768			-0.0367001			-0.229632			0.366574			-0.113546			-0.401825			0.862645			-0.90901			0.589553			0.0688687			0.2218			0.139758			-0.164368			-0.0560029			0.502536			-0.392523			-0.693271			0.0999814			-0.716331			0.153353			-0.238859			-0.414998			-0.873964			0.387438			0.0747033			0.700856			0.666055			-0.12225			-0.426018			0.400768			-0.339006			-0.0853742			-0.107597			-0.0628576			0.204876			-0.728475			0.827624			-0.136199			0.129728			-0.377992			0.62875			0.184257			-0.12825			-0.163168			0.0106071			-0.14065			-0.304078			0.502078			-0.230265			0.237641			0.377633			0.555454			-0.188897			-0.209432			-0.260807			0.167929			-0.0241574			-0.0298846			0.00880699			-0.196473			0.286844			-0.0166678			0.084154			-0.451157			-0.395217			-0.219867			-0.658807			-0.780844			-0.594641			0.449874			0.70918			0.591035			0.244563			0.239911			-0.698721			-0.0865936			0.0908741			-0.0166328			-0.777876			-0.0203062			0.26739			0.319972			-0.471205			0.156145			0.255451			-0.0917554			-0.808052			0.558089			-0.294744			-0.39233			-0.184953			-0.165202			0.393956			0.084487			-0.104817			-0.0226073			0.196906			-0.189574			0.375315			0.0133344			-0.855407			0.224599			0.566239			0.134626			0.472965			-0.136982			0.0833589			0.495604			0.235377			-0.100339			0.0274293			0.00975478			0.716609			-0.10656			0.341874			-0.218398			0.0665813			-0.451033			-0.285427			0.050375			-0.166912			-0.185515			
-0.173043			0.514543			0.117504			-0.672391			-0.511476			0.765211			0.114772			0.484106			0.0919591			-0.673728			0.803146			-0.526537			-0.210559			0.531689			-0.655352			-0.426588			0.121178			0.170622			-0.0061545			-0.419862			-0.346881			-0.21205			-0.352624			-0.647908			-0.0733084			0.138843			0.296692			-0.547859			-0.591277			-0.386726			0.177605			-0.487148			0.837664			0.0129083			0.177185			0.704038			-0.157108			-0.446634			-0.438109			-0.410068			-0.183024			-0.334298			-0.0611274			-0.152025			0.424645			-0.463376			-0.118056			-0.207127			-0.782547			0.36188			0.0298043			0.883466			-0.66141			0.580998			0.247198			-0.0791041			0.75703			0.17217			-0.0643223			-0.163982			-0.107708			0.237685			0.301373			-0.387846			-0.19759			-0.329512			-0.231692			0.476395			0.154107			-0.0380224			0.916686			-0.0913687			0.73753			-0.170004			-0.0219142			0.767199			-0.137626			-0.689976			0.944095			-0.43808			-0.53782			-0.516648			0.00910104			0.116379			-0.942615			0.116185			-0.269128			-0.800632			-0.678706			-0.140936			0.371106			0.505154			-0.761434			0.437132			0.244			0.322214			-0.297146			-0.641237			0.611125			-0.283399			0.453814			-0.485335			0.785934			-0.875901			-0.0688187			0.916428			0.491644			-0.729783			-0.362454			-0.265052			0.482459			-0.368735			0.300657			-0.336336			0.690295			0.0876303			-0.190595			0.202547			-0.205761			0.671132			-0.062439			-0.242427			0.247443			0.0157246			0.139457			0.448016			0.373975			0.569131			-0.640862			0.0655476			-0.62697			0.00113039			0.158243			-0.606329			-0.306526			-0.0177227			-0.524379			-0.0916731			0.133969			0.838739			0.0297794			-0.160069			-0.36211			-0.323247			0.110549			-0.553505			-0.124998			-0.456377			0.0878202			0.544397			0.11176			0.289352			0.615497			-0.0505009			0.106663			0.315738			0.100291			0.459594			0.580683			0.577694			0.474105			-0.382319			-0.416286			-0.149347			0.205724			-0.0525544			-0.751232			-0.770168			-0.353444			0.994513			0.185728			-0.719392			0.395031			0.118832			0.177403			-0.443984			0.170352			0.357891			0.613056			-0.139471			0.53629			0.966			-0.269288			-0.716637			-0.131159			-0.715003			-0.234348			-0.198118			-0.155093			0.408219			0.704668			0.175543			-0.00946032			0.881786			-0.533695			0.604655			-0.712654			-0.187189			0.10579			-0.555968			0.256436			0.40742			0.0773738			0.140992			-0.125028			0.635967			0.172089			-0.0149444			-0.558307			0.867834			-0.639954			0.0394247			-0.186222			-0.343253			-0.156213			0.170022			0.633416			0.745487			-0.246275			-0.43106			0.593707			0.516945			-0.600304			0.0310701			-0.146226			0.501589			0.168439			-0.870651			0.284977			0.57738			0.810804			-0.537107			0.676006			0.555943			0.285245			0.559078			0.273863			-0.645394			-0.596868			-0.471928			0.594063			-0.355354			-0.020646			0.438052			0.663557			0.3645			0.611737			-0.115559			-0.508296			-0.176463			
0.360839			0.376166			-0.56754			0.207967			-0.398722			0.348876			-0.259232			0.306135			0.375562			-0.0229269			-0.678241			-0.544818			-0.149932			-0.205881			-0.735778			0.224235			0.368828			-0.637736			0.0470431			-0.438041			-0.849641			-0.0882736			-0.0163751			-0.0970997			0.634271			0.511714			0.491092			-0.0938633			0.502783			0.0932334			-0.148302			-0.160793			-0.289123			0.150982			0.366374			0.639076			0.722068			-0.698003			0.552182			0.0895958			-0.482828			-0.0378486			0.112652			-0.502424			-0.757092			-0.476165			-0.107764			-0.68302			0.499091			-0.620678			-0.54108			0.568621			-0.0537247			0.0969083			-0.21639			0.15549			-0.381861			0.0502536			0.480587			0.3137			-0.562995			0.0992962			0.0106458			-0.23434			0.0332885			0.59774			-0.273021			-0.627921			-0.433406			0.507527			-0.18043			0.995885			0.0132743			0.849477			0.675591			0.613474			-0.0607186			-0.0686061			-0.489363			0.147454			-0.0743964			-0.231079			0.62101			-0.278627			-0.109047			-0.140012			-0.658584			-0.279411			0.0523354			-0.00889271			0.440688			0.82089			-0.597658			-0.205172			0.204836			0.482559			0.293399			-0.589451			-0.205656			0.168266			-0.210294			0.115331			-0.405857			-0.47025			-0.026016			-0.0214371			0.0467462			0.286645			0.113709			0.338133			-0.262388			-0.414602			-0.101729			-0.109269			-0.75987			0.13266			-0.046113			0.0583542			-0.0230983			-0.815457			0.960429			-0.173672			-0.172666			0.101775			-0.149855			-0.558022			-0.360085			-0.601043			0.486911			0.506254			0.0492141			-0.0200547			-0.46123			-0.439939			0.105746			-0.250768			-0.791818			-0.666261			0.184481			0.697661			-0.439587			0.255028			-0.326964			-0.773758			0.488222			0.0415639			0.710714			-0.025682			-0.793423			0.151659			-0.708159			-0.0829045			-0.333683			0.603037			-0.325523			0.36525			0.151526			-0.879705			-0.214149			-0.572282			0.0362115			-0.330473			-0.290241			0.0742432			-0.758158			-0.106551			-0.34258			-0.458544			-0.190104			0.443446			-0.640121			-0.176288			0.741724			0.142705			-0.404172			-0.107333			-0.640552			0.368853			-0.587591			-0.67174			0.253825			-0.307079			-0.0684996			0.272342			0.024888			0.96425			-0.158589			-0.200572			0.0676707			0.415509			-0.00923057			0.691396			0.0990083			0.390677			-0.513945			0.559051			-0.35504			-0.61395			-0.271911			-0.554565			0.067189			0.208624			0.305741			-0.164774			0.730049			-0.419879			0.315171			0.108108			-0.25103			-0.0712672			-0.982329			-0.147335			0.355223			-0.0709102			-0.459514			-0.530818			-0.177518			-0.75666			-0.425807			-0.785805			-0.641289			-0.663988			-0.0372724			0.328075			0.612729			0.413466			-0.101805			-0.826686			-0.413591			-0.0275757			-0.600569			0.370953			0.0140301			0.237945			-0.308549			0.609509			-0.517378			0.265582			-0.231328			-0.0268229			0.815883			-0.713319			0.441124			-0.358757			0.903931			0.521714			-0.188144			-0.535791			-0.422276			0.781165			
0.235467			-0.182042			-0.0958425			0.169521			-0.442247			0.0838927			-0.189732			-0.409108			-0.448336			-0.164918			-0.93617			-0.234908			-0.310622			-0.809234			0.37116			-0.32981			-0.363552			0.0283518			-0.924907			0.159866			0.69542			0.0479645			-0.079799			0.0671488			0.495913			0.019953			-0.623532			0.0971215			0.285833			0.828692			0.178135			0.0824318			0.20402			-0.978059			0.560293			0.0202259			-0.625183			0.152962			-0.575786			-0.687298			-0.268858			-0.786739			-0.032415			-0.487797			0.177569			0.310659			0.429275			-0.909351			0.148884			0.0433517			-0.128357			-0.475874			0.15547			0.481474			-0.196258			0.374685			0.142984			0.95102			-0.402401			0.136962			-0.0707282			-0.0703808			0.42097			-0.722312			0.80261			0.681839			-0.839286			-0.0356154			0.150572			-0.67226			0.960196			-0.062441			0.0828649			0.140216			0.0500957			-0.712001			0.225532			0.091342			0.00522882			-0.660812			0.304329			0.638227			0.586432			-0.415666			0.307707			0.0626288			0.203706			-0.495401			0.284125			0.0366169			-0.0500022			0.371813			-0.36607			0.516879			0.711027			0.409458			-0.393247			0.127669			0.348778			-0.128109			-0.216908			-0.379713			0.0846243			-0.378398			0.282292			0.11469			0.684337			-0.545973			0.408119			-0.269597			0.12607			-0.506487			-0.76643			0.139887			-0.198568			-0.112168			0.141094			0.0981099			0.852345			0.0157656			-0.338302			-0.112388			-0.449072			-0.178725			0.276933			0.0119138			-0.716034			0.628783			0.310483			-0.361999			0.376789			-0.370457			0.0625883			-0.302906			0.280981			0.93047			-0.756471			0.257866			-0.575115			-0.309705			0.32495			-0.0901653			-0.407396			-0.245225			0.516857			0.530698			-0.786862			0.129483			0.415668			0.458463			-0.21775			-0.257291			-0.0130962			0.6145			0.0439206			0.727028			0.751645			-0.121477			0.0957091			0.848952			0.283831			-0.42958			-0.557727			0.191831			0.0570212			-0.667922			0.368368			-0.435756			-0.46788			0.22138			-0.163284			-0.739662			-0.0186051			0.337577			0.447543			0.286351			0.698845			-0.113957			0.329784			-0.245434			-0.479787			-0.0701061			-0.720383			0.422919			0.0350257			0.733766			0.732594			0.259846			0.72009			-0.255862			0.252846			-0.557649			-0.159488			-0.593768			0.214984			0.368816			0.201467			-0.847717			0.789434			-0.009968			-0.690427			0.587652			0.214649			-0.606631			0.361223			-0.536155			0.0982176			-0.159262			-0.470949			0.0416992			0.956075			-0.633155			-0.268028			-0.237408			-0.170681			0.611919			0.0590027			-0.407049			0.165063			0.659588			0.434299			-0.0967364			-0.102328			0.412713			-0.541065			0.606806			-0.88515			0.49029			-0.418984			-0.361727			-0.144243			-0.145476			-0.111169			-0.0624261			0.0204379			-0.207186			-0.777303			0.703896			-0.536985			-0.708908			-0.205122			0.0854875			0.298494			0.177262			0.373469			-0.653735			0.0326907			0.161675			-0.365975			-0.339927			
-0.137022			-0.408502			0.465575			0.559446			0.180046			-0.671751			0.265227			0.127441			-0.569498			0.895757			-0.128712			0.703157			0.161997			0.465504			0.768462			0.430947			0.093915			-0.371091			0.433004			0.142255			0.680821			0.642899			-0.216608			0.388791			0.657432			0.618228			0.449083			0.233915			-0.278255			-0.502239			-0.780524			-0.340885			0.21626			-0.00505978			-0.661153			0.145343			-0.232419			-0.487873			-0.0534956			-0.0460133			0.29486			0.040126			-0.40904			0.515885			-0.037622			0.125996			-0.575212			0.630352			-0.47332			0.453037			0.659858			-0.466158			-0.719048			-0.156502			0.906823			0.314012			0.967999			0.738041			-0.187227			0.53166			0.543642			0.916235			-0.153972			0.714906			0.463437			-0.301521			0.990901			-0.266955			0.607889			-0.0662411			-0.507884			0.397312			-0.332822			-0.492972			0.100164			0.17094			-0.56359			-0.526446			-0.0212036			0.215805			0.0288295			-0.431199			-0.279632			0.159662			-0.986455			0.153398			0.64507			-0.306875			0.780897			-0.675034			0.476306			-0.253405			-0.260292			0.00468257			0.151006			0.102681			-0.309317			0.149867			-0.736296			-0.791084			0.120062			-0.00829872			0.498894			-0.112195			0.0325536			-0.261534			-0.97367			-0.411508			-0.705317			0.104283			0.614256			-0.475399			-0.320158			-0.666109			0.192792			0.750854			0.167307			0.709356			0.561123			-0.300283			-0.69319			0.660392			0.289742			0.218296			-0.225211			0.064967			0.248447			0.245335			0.264725			0.0738713			0.359316			-0.0578163			0.134613			-0.426817			-0.0873795			-0.430044			-0.238915			-0.244968			0.768215			-0.0506125			0.517051			0.47398			0.11069			-0.417899			-0.303082			0.074776			-0.304539			0.0258717			-0.19415			0.254232			0.917641			0.0245199			-0.552389			-0.280405			-0.505983			0.63365			0.00972191			0.0614047			0.44781			-0.16073			0.188872			0.0326569			0.316321			0.529623			-0.0731639			0.55178			-0.644636			-0.37959			-0.312197			0.231217			0.565768			0.720414			-0.172451			-0.291928			0.207882			0.154898			-0.271417			0.496628			-0.557772			-0.23521			-0.213143			0.994297			-0.00395092			0.744263			-0.254209			-0.126035			-0.347561			-0.0241411			0.747333			-0.274906			0.0922038			-0.185829			-0.0081009			-0.0559437			0.157248			0.702131			-0.249643			-0.520456			-0.715589			0.378234			0.330299			-0.0127144			0.360027			-0.0349853			0.238307			-0.28513			0.549934			0.223247			0.109983			-0.142181			-0.540999			-0.37626			0.270581			0.609635			0.133238			-0.392069			-0.574551			0.156199			-0.153846			-0.075845			0.000642755			-0.461104			-0.564588			0.389262			-0.371219			0.441727			0.883792			-0.0288378			0.0439995			0.40035			-0.32449			-0.344468			-0.212846			-0.530183			0.163741			0.620216			-0.116945			0.0141512			-0.28223			0.371518			0.783387			0.0133719			-0.294246			-0.087802			-0.600678			-0.458048			-0.278051			0.325572			-0.609572			-0.00801966			
0.608634			0.535046			0.218468			0.40045			-0.393349			-0.164714			0.231263			0.344914			0.287801			0.978446			-0.111062			-0.699698			-0.0539551			0.0248189			0.192395			-0.206629			-0.153659			-0.0247169			0.103271			-0.429871			-0.463858			-0.295504			0.21424			0.741038			0.313264			0.680186			-0.514685			-0.0403955			0.0404488			-0.102407			-0.378151			-0.135607			0.172266			0.254987			-0.532782			-0.370132			0.53769			0.0843052			-0.205321			0.234954			-0.161693			0.430594			-0.254168			-0.896338			0.266334			-0.0739006			0.436533			-0.356144			-0.323562			0.935799			-0.0292046			-0.892491			-0.36713			0.343944			0.142056			0.126722			-0.40793			-0.0053939			-0.298109			-0.0930085			0.743049			0.47167			-0.135499			0.110853			0.531351			-0.517391			-0.406598			-0.955836			0.788741			-0.192505			0.0073561			0.22419			-0.707249			0.327641			0.0274355			-0.781745			-0.169061			0.820739			-0.529067			-0.479598			0.297511			0.611981			-0.153864			0.367313			0.0660135			-0.08886			0.457864			-0.629089			0.367882			0.355513			0.431751			0.585415			-0.135286			-0.407603			-0.185241			0.987724			0.223087			-0.323676			0.150587			0.14541			0.169457			0.314321			-0.502558			0.156718			-0.109038			0.540259			0.713201			-0.694142			0.43371			-0.755315			0.699945			0.330465			-0.200186			-0.329185			0.806512			-0.0728783			-0.230338			-0.061694			0.615587			0.0559262			0.352413			0.785503			0.282289			-0.0389878			-0.161845			-0.331931			0.672563			-0.93666			-0.516666			0.502195			-0.929667			0.103079			-0.601152			-0.418197			-0.0262482			0.336483			-0.455144			0.240846			0.527527			0.308161			0.85622			-0.271763			-0.788243			-0.976798			-0.492528			-0.0605617			0.137573			0.524337			0.311543			-0.19141			-0.0918792			-0.152116			-0.792156			0.770714			-0.67679			0.267473			-0.328866			-0.0133281			0.246126			-0.181633			-0.0661367			-0.185169			-0.167591			-0.163982			0.483957			-0.243708			-0.302878			-0.150176			-0.120346			-0.307933			-0.29842			-0.150559			-0.206677			-0.628727			-0.18826			-0.271737			-0.249262			0.765215			0.238946			0.233335			0.228062			0.422491			0.281773			-0.100536			-0.696594			0.441786			0.142822			-0.133026			0.480939			-0.270501			-0.449352			-0.0494788			0.478644			0.235714			-0.679018			0.488421			-0.138061			-0.570422			0.126686			0.453998			0.341567			0.501584			0.383323			-0.597261			0.545718			-0.336501			0.286517			-0.390155			0.504809			-0.147225			-0.193411			-0.192667			0.897638			0.178717			0.386635			0.120451			0.0201766			-0.275029			-0.899484			0.460419			-0.339964			-0.242221			0.23237			0.150933			-0.603584			0.375456			-0.0644608			0.133998			-0.746878			0.294813			0.269942			0.248482			0.420174			0.574571			-0.592216			0.500613			-0.724354			-0.102363			-0.17552			-0.191325			-0.151853			0.540665			0.950171			-0.0426639			0.617556			0.0564959			0.0442608			-0.0763743			-0.788206			-0.227227			
0.96866			0.264336			-0.62738			-0.0243553			0.0360808			-0.0531157			-0.215712			0.559627			0.121398			0.367042			-0.208257			0.538683			0.0435667			-0.280386			0.93299			0.432086			-0.648322			-0.0609448			-0.0853538			-0.207244			0.589144			0.00128137			0.278573			0.466339			0.180204			-0.335448			-0.411897			0.436083			-0.167062			0.0769007			0.332111			0.473527			0.229702			-0.189291			-0.304817			0.316211			0.274009			0.0665964			-0.737603			0.0979592			-0.28162			-0.0887043			-0.0772834			0.303233			-0.574295			-0.00864308			0.564524			-0.303102			-0.0611207			-0.493848			-0.396841			0.567601			0.483702			0.309289			-0.837376			-0.0535361			0.548115			-0.193804			0.239749			-0.197686			-0.095944			0.158141			-0.062585			-0.537837			0.78444			0.104379			0.652731			0.0743886			0.249428			-0.687487			0.769441			-0.612124			-0.354825			0.0757376			0.282433			0.21357			-0.090404			0.0454667			-0.0907851			-0.350099			-0.393572			-0.549815			0.903431			0.192556			0.219224			0.640004			-0.299631			0.0280454			0.942803			-0.356209			0.331452			0.977148			0.995706			0.10801			-0.698368			0.569396			-0.850435			-0.204245			0.121826			-0.715909			-0.506281			-0.674589			0.960869			-0.418284			0.17266			0.399101			-0.401917			0.14474			0.274972			-0.384173			-0.65445			-0.79064			0.123161			0.750612			-0.791438			0.00942419			-0.453473			0.260803			0.151377			0.418257			0.64207			0.711263			-0.0247383			0.847185			0.784962			-0.0514896			-0.73197			0.161696			0.829865			0.410503			-0.512418			-0.388423			-0.14528			0.0558908			-0.70865			-0.061531			0.239929			-0.338444			-0.021544			0.0250249			0.404017			0.0165514			-0.167723			0.186517			-0.575342			0.200938			0.933278			0.0134113			0.309009			-0.292535			-0.802616			-0.0537074			0.493282			0.469971			-0.387399			0.798796			0.328751			-0.0235748			-0.480809			-0.121535			0.615165			-0.258422			-0.0367736			0.281177			-0.750312			0.171507			-0.0856731			0.227457			0.0759643			-0.475937			0.0451202			-0.60298			0.43203			0.00284412			-0.487529			0.111233			-0.545434			0.487501			0.283312			-0.254091			-0.790667			-0.140486			0.298904			-0.236579			0.501975			-0.550033			-0.451647			-0.407933			-0.0364156			-0.652764			0.0826422			-0.181549			-0.168048			-0.276732			-0.0846722			0.329561			-0.289908			0.398468			-0.315686			-0.231461			-0.389665			-0.0418545			-0.290138			-0.146918			0.000132648			0.0750093			0.498087			0.221404			-0.236336			0.400082			-0.582707			0.167755			0.967479			-0.666294			-0.679981			-0.176707			0.184681			0.432791			0.402717			0.576172			0.76724			-0.268896			-0.199965			0.197793			-0.493947			0.0370071			-0.820009			-0.735585			-0.476533			0.259074			-0.162991			0.41819			-0.25121			0.548905			-0.459903			0.588462			0.487861			0.554509			0.289066			-0.87881			0.0666741			0.739529			0.550469			-0.861858			-0.1866			-0.15254			-0.794119			-0.24364			0.0613893			-0.512093			
0.221702			-0.258582			0.329841			-0.650924			0.659546			-0.31003			-0.0791216			-0.425626			0.301545			-0.570803			-0.212378			0.265997			-0.0799727			-0.581383			-0.465734			-0.12232			-0.401282			0.922043			0.0947622			0.376225			-0.0596729			-0.532395			0.30299			0.110937			0.304294			0.445464			0.0911828			-0.200903			-0.832092			-0.160876			0.225749			-0.0179032			0.501134			-0.55454			0.684992			0.767833			-0.312157			-0.698457			0.56896			-0.693683			0.673002			-0.172363			0.150761			-0.592987			-0.415564			0.916288			-0.206677			-0.339573			0.137733			0.225908			-0.0660933			0.520402			0.444207			0.645889			0.260135			0.271364			0.948654			-0.1879			0.0942536			-0.633969			0.443204			-0.0217666			-0.307281			0.67695			-0.718943			0.963064			0.12346			0.0872646			-0.0918045			0.382403			0.133004			0.185364			-0.17921			0.0724852			-0.267654			-0.580342			0.766802			0.162885			0.337303			-0.0862476			-0.246384			-0.162414			0.318254			-0.261726			0.368304			0.0598211			-0.714145			0.767381			0.064204			0.497652			-0.0338084			-0.073759			-0.00666076			-0.019371			-0.27401			-0.388018			0.458378			-0.733254			0.946495			-0.191652			-0.161039			-0.961661			-0.535346			-0.386418			-0.288665			-0.296936			0.31328			-0.319993			0.559907			-0.384343			0.0943534			0.0645188			-0.798283			-0.362687			0.0377139			-0.265542			-0.585708			0.296598			0.034184			-0.504888			0.234482			0.192952			0.0350562			-0.174834			0.29868			-0.204478			0.507698			-0.0919218			-0.188289			0.382917			0.0995838			0.104991			-0.447927			-0.723904			0.64996			-0.297556			-0.715337			-0.143			-0.836775			-0.73869			-0.819981			-0.698794			-0.201797			-0.67796			0.9834			-0.173677			0.52006			0.354491			0.308548			0.448735			-0.0600917			-0.219718			0.800465			-0.137928			0.314986			-0.220669			-0.00252522			0.463013			0.43521			0.566233			-0.351238			0.73231			-0.829147			-0.00255622			0.135065			-0.316999			-0.266866			-0.28224			-0.530232			-0.405042			-0.0580956			-0.441139			0.607711			-0.0551854			0.22169			-0.310554			-0.396495			-0.709123			0.033919			-0.535226			-0.0145938			0.126013			0.129786			-0.300276			-0.360236			-0.184305			0.683359			0.876174			-0.450754			-0.287616			-0.475215			-0.651781			0.351647			-0.615549			-0.430989			0.411975			0.133668			0.295643			-0.428542			0.00601856			-0.159406			0.247983			0.12951			-0.587149			-0.212695			0.0457789			0.0731592			0.387051			0.624631			-0.136263			0.0287628			0.479136			0.517437			0.402776			0.18689			-0.432295			-0.186236			0.232359			-0.211917			0.589025			-0.612156			-0.317766			-0.650209			-0.292023			-0.440173			-0.129821			-0.492056			0.709939			-0.675079			0.682466			0.504949			0.53557			0.864994			-0.182063			-0.714254			0.253269			-0.572924			-0.261908			0.354368			-0.40238			-0.665386			-0.281717			0.0430436			-0.0617267			-0.238097			0.294639			-0.19319			-0.272469			-0.42211			-0.407799			
0.307662			-0.201098			0.0162235			0.497235			0.2588			-0.199878			0.155835			0.595206			0.554682			-0.0833586			0.356184			0.860242			0.672488			0.348968			-0.305051			0.0166769			-0.223023			0.171315			-0.123956			-0.541029			0.0232374			-0.152239			-0.686475			0.108078			-0.268917			-0.717532			-0.0046641			-0.0579423			-0.150037			0.467912			-0.142282			0.0433968			0.259963			0.118875			0.317674			0.0552187			-0.277675			-0.892681			0.237914			-0.0848416			0.48502			-0.663754			0.0496256			-0.627917			0.0249544			-0.0382823			-0.146633			0.150321			-0.869818			-0.0651204			0.128651			-0.41655			-0.346775			-0.81786			0.824296			0.436939			-0.519267			0.292183			0.303613			0.126338			0.444708			0.301362			-0.848603			0.0314181			0.902052			0.448502			-0.212298			0.582056			0.234213			-0.0404864			-0.269525			-0.0440087			0.096269			-0.431351			0.0196192			-0.0426924			0.223346			-0.525321			0.524353			0.345457			-0.751372			-0.628563			0.566735			0.10364			0.0459705			0.506588			-0.236388			0.613894			-0.737903			-0.441407			-0.378478			0.158731			0.172187			0.328639			0.0656855			-0.0963901			0.122036			-0.439695			0.367948			-0.451789			0.0763508			0.795796			0.13771			-0.208688			-0.899517			-0.301668			-0.434419			0.962744			-0.252365			-0.350949			0.20297			-0.952001			0.666004			-0.45309			0.309428			0.322195			-0.304243			-0.599762			-0.28153			-0.0903183			-0.260024			-0.375127			0.0346369			0.292833			-0.585021			-0.390951			0.0406907			0.121936			0.293458			0.440799			-0.500425			-0.758455			-0.554201			-0.951177			0.0837419			0.279764			-0.408511			0.213618			-0.20562			0.806615			-0.349298			-0.285463			0.114936			-0.266398			-0.289409			0.144866			0.221812			-0.0550609			-0.706029			0.791158			0.134756			-0.873957			-0.345867			-0.203679			-0.94243			-0.393905			0.0132686			-0.00611664			-0.460851			0.956661			0.300244			-0.162925			0.374168			-0.61524			0.709591			-0.475582			-0.656545			0.106824			-0.164331			-0.518578			0.0247221			0.28825			-0.139557			-0.126374			-0.20442			0.144152			0.241249			-0.0570432			0.946842			-0.728792			0.142046			-0.478548			-0.00711597			0.268594			-0.749766			-0.876883			-0.927794			-0.807724			0.0306011			0.23783			0.812518			-0.729439			0.908504			-0.16225			0.846968			0.150477			0.0301745			-0.611553			-0.585193			0.0464665			0.645776			-0.374481			-0.432592			0.21284			-0.817593			-0.390117			-0.696414			0.825774			-0.583034			0.132494			-0.463372			0.395527			-0.167228			0.011034			-0.387141			-0.493215			0.843798			0.120301			-0.395001			0.164427			-0.383498			-0.323729			-0.885862			0.525913			-0.436386			-0.629867			0.258325			-0.140598			-0.527855			-0.151377			-0.137064			-0.402351			-0.243537			0.49773			0.549521			0.688402			0.299498			0.421909			-0.793499			-0.281953			-0.620432			-0.666			-0.0553831			-0.434871			-0.915876			0.71584			-0.218979			-0.675855			0.409885			0.234144			
0.10695			0.793051			-0.852704			-0.179881			-0.783835			-0.372274			-0.353685			0.443913			-0.572892			-0.773486			0.375472			0.459218			0.859276			0.753305			0.41371			0.418594			0.249766			-0.881921			-0.338879			0.268249			-0.210813			-0.185973			0.12984			-0.0563335			0.721523			0.0963692			0.129353			-0.310024			0.82236			0.0131623			-0.113314			-0.0490867			0.171115			-0.361674			-0.595501			-0.0570146			0.0618417			0.205889			0.617431			-0.492853			0.183078			-0.237484			-0.143053			0.635031			-0.97027			0.230509			-0.240914			0.795005			-0.142185			0.293715			0.454624			-0.311514			-0.323624			-0.89645			-0.0338974			-0.180181			0.057891			0.693593			0.172369			-0.8463			-0.317201			-0.315424			-0.879185			0.369112			0.543324			-0.582524			-0.162814			0.615548			0.421453			0.238518			0.219652			0.743568			0.200478			0.213155			0.163048			0.0583995			0.0939121			0.460219			-0.373423			0.108824			0.559878			0.455564			-0.0122372			0.0140779			0.858918			-0.697812			0.976002			-0.221959			0.225444			0.425871			-0.152297			0.288293			-0.10739			0.220569			0.423727			0.112363			-0.346137			0.474554			0.306533			-0.835306			0.179078			0.932501			0.0616479			-0.307679			0.101794			0.416056			-0.102975			0.107747			-0.199032			-0.349246			-0.264662			0.09849			0.948114			-0.573749			0.347642			-0.546844			-0.460096			-0.0477323			-0.293253			0.702753			0.385612			0.0986646			-0.167238			-0.221765			-0.688614			-0.592377			0.517722			-0.83045			-0.527582			0.849073			-0.68168			-0.230852			0.347406			0.273797			-0.479058			0.165496			-0.737836			0.372572			0.4989			-0.321575			-0.106027			0.201321			-0.461339			0.522855			0.648302			0.123662			-0.134028			0.147266			-0.659235			0.687698			0.183981			0.829522			-0.0153447			-0.349136			-0.192225			0.339116			-0.440314			-0.240493			-0.206871			0.178756			0.307307			0.664944			-0.380227			-0.0035256			-0.25564			-0.177327			-0.392295			0.40084			-0.964613			0.312998			0.0650132			0.105606			-0.54554			0.109381			0.388709			0.198915			0.533654			0.495296			-0.215827			-0.42121			0.0604555			0.0625394			0.247331			0.773827			-0.0375067			0.488515			-0.131497			0.483025			0.744814			-0.321718			-0.256021			0.489829			-0.0488897			-0.313872			-0.185477			-0.406241			0.123918			0.0371311			0.99635			-0.456124			-0.169366			0.893324			0.522435			-0.3503			-0.388608			-0.373661			0.157414			-0.318231			-0.145879			-0.518595			-0.379779			0.498402			-0.324438			-0.294201			-0.881157			-0.34478			0.117796			-0.542502			-0.143203			0.984716			-0.36303			-0.333099			-0.795452			-0.622086			0.178079			0.502973			0.105643			0.2907			0.109548			-0.199441			0.335523			0.238695			-0.444995			0.102666			0.429176			0.613882			0.733221			-0.413765			0.0734433			-0.0216598			-0.35762			0.00978316			0.580333			-0.763657			-0.737506			-0.513032			0.35796			0.252811			0.36328			0.0686963			
0.230418			-0.616434			0.16071			0.0409578			0.130034			0.0346361			-0.0939586			-0.101408			0.310261			-0.646387			0.565605			0.735494			0.374681			-0.0156695			-0.0442838			0.158225			-0.398129			0.225954			-0.192208			-0.380777			-0.581827			0.0590215			-0.00408139			-0.15607			-0.380278			0.320558			0.675029			0.299053			-0.0362061			0.435603			0.0552659			-0.131078			0.835126			0.365387			-0.439308			0.967868			0.0125177			-0.52391			0.350823			-0.291484			0.196432			-0.199898			0.582699			0.374743			-0.385258			0.759288			-0.607839			0.923728			0.272935			-0.35596			0.0711732			-0.494165			-0.618362			0.504895			-0.338323			-0.250349			0.349425			-0.301086			0.0561843			-0.609989			0.231522			-0.224698			-0.29508			-0.297798			0.463569			-0.713933			0.516531			0.422747			0.776192			0.669296			-0.351555			0.622339			0.324477			-0.420884			-0.559059			0.319969			0.572505			-0.509913			-0.0385622			-0.188424			-0.0771298			-0.428372			-0.260101			-0.268371			-0.486069			-0.0599532			0.483915			0.214583			0.1127			0.414002			0.195685			0.00109945			0.295497			-0.815525			0.479845			0.177389			-0.161477			0.046243			-0.396788			0.636381			0.453865			-0.810901			0.337265			-0.433181			0.789396			0.0762658			-0.0697446			0.437856			0.550936			-0.0655693			0.0771002			-0.357351			-0.3949			-0.135436			0.185899			0.637942			0.72654			0.251027			0.470175			0.0743323			0.528564			-0.5446			0.0313002			0.321444			-0.310274			0.725208			-0.344675			0.0778728			0.19356			-0.082999			-0.733048			-0.526006			-0.151587			0.858338			0.878335			0.645192			-0.112476			-0.89592			-0.343776			0.543243			-0.0731672			-0.173929			-0.461774			-0.0743483			0.462927			-0.797251			-0.856141			0.0500729			0.475245			-0.263585			0.497981			0.428115			0.988478			-0.961855			-0.120398			-0.0955491			0.303431			-0.881313			-0.573297			-0.560401			-0.757252			-0.171048			-0.0359426			-0.485482			-0.24856			0.77788			0.336866			0.216709			0.434809			-0.0664873			0.0257123			-0.403534			-0.823693			-0.251213			0.275633			-0.305691			0.457737			-0.633709			-0.208337			0.288132			-0.187645			0.559021			-0.580156			-0.703291			0.228257			0.276467			0.675971			0.366405			0.142192			-0.28243			-0.176517			-0.366829			0.285191			0.672235			0.237401			0.01986			0.646679			-0.522316			-0.207615			-0.0571668			0.522238			0.1411			0.68242			0.362442			-0.0451656			-0.339818			-0.134935			0.68807			0.497806			0.206739			0.26158			-0.245582			-0.248737			-0.0629742			0.206308			0.631315			0.151464			0.0455232			-0.195568			-0.364124			0.0145866			-0.035771			0.147946			-0.0271272			-0.798961			-0.581984			-0.620576			-0.26744			-0.540029			-0.934971			0.276895			0.492183			0.312609			-0.253851			0.30812			0.0692609			-0.278955			0.967852			0.121515			0.203574			0.496924			0.114259			-0.122037			0.433634			-0.594574			0.530627			-0.053118			-0.276735			0.493667			-0.0567523			
0.0715568			-0.182501			-0.388656			0.834273			0.11168			-0.00420087			-0.188586			0.986945			-0.9589			-0.549073			0.243435			0.386445			-0.352155			-0.134315			-0.11516			-0.492373			-0.279379			0.528577			-0.0750231			0.221744			-0.40255			-0.420567			0.727053			-0.344361			-0.200114			-0.34187			-0.254992			-0.220552			0.161144			0.257509			-0.516517			-0.142658			-0.0508363			-0.17562			-0.00671507			0.374668			0.590978			-0.412864			-0.345832			-0.0394204			-0.582669			0.654037			0.186894			-0.0962577			0.7077			0.144854			-0.0770757			-0.52026			0.520499			-0.567002			-0.0302443			-0.618179			-0.791324			0.393727			-0.925396			0.174265			-0.515901			0.227362			0.35221			0.0896183			0.0342892			0.218837			0.370033			0.228677			-0.805615			-0.227288			-0.1705			0.132045			-0.27041			0.287087			-0.610323			-0.477542			-0.727472			0.844871			-0.408729			-0.231456			0.115227			-0.135128			-0.471557			-0.413749			0.093033			-0.0687939			0.036832			-0.757395			-0.430038			0.112654			-0.262428			0.689184			0.0864101			0.270392			0.0166747			0.106324			0.583838			0.75354			-0.256335			0.0598923			-0.44036			0.438952			-0.209672			0.259317			0.110185			0.0419796			0.130087			-0.303407			-0.463104			0.0561234			-0.0219681			-0.173325			0.526967			-0.170271			0.170559			-0.346888			0.478589			0.342468			-0.774256			0.397427			-0.0271219			-0.976129			0.387832			0.282154			0.0162706			-0.565537			0.233971			-0.0285205			0.050273			-0.117289			0.082967			0.489134			-0.16899			0.363458			0.413886			-0.748426			-0.531907			-0.242079			0.221729			0.0202292			-0.599805			0.527956			-0.808453			-0.294519			-0.381399			0.79692			-0.115812			0.12142			0.864696			0.0542648			0.0889265			-0.0225882			-0.852248			-0.508823			0.631879			-0.597053			0.980821			-0.201787			0.857927			-0.0909742			-0.605698			0.622731			-0.128384			0.207245			-0.763875			-0.265251			-0.409896			0.502412			0.0622507			0.774289			-0.672271			0.141298			-0.0760863			0.0907565			0.0351373			-0.156377			0.302644			0.990729			-0.726332			-0.627262			-0.0792614			0.563051			-0.506456			0.514867			0.906077			-0.351907			-0.359898			-0.540606			-0.0903025			0.239561			-0.240273			-0.466449			-0.273506			0.299713			-0.731099			-0.437381			-0.245993			0.779298			0.303628			0.780151			0.604743			0.145485			-0.630992			-0.016136			-0.14836			0.0136087			0.449639			-0.711867			-0.220629			-0.253831			-0.193525			-0.0620526			-0.205309			-0.215398			-0.207757			-0.212692			0.430947			-0.867328			-0.100099			-0.386041			-0.251572			-0.179414			0.649055			-0.0367451			-0.141563			0.405727			-0.176273			-0.710642			-0.297228			0.827056			-0.14416			-0.164413			0.573812			-0.311709			0.42692			-0.516209			-0.0821174			-0.826793			0.104248			-0.95158			-0.228362			-0.623681			0.415544			0.836986			-0.536781			-0.477915			-0.211905			0.348745			0.662354			-0.860292			-0.574138			-0.977657			0.375156			0.4862			
-0.321049			-0.527682			-0.0696586			0.0510686			0.516816			-0.69013			-0.072747			-0.489599			0.188914			0.0701236			-0.0940013			-0.468837			-0.361543			0.31939			-0.707823			0.684493			0.0371769			-0.379861			-0.390141			0.42715			-0.272823			-0.441555			0.0126055			0.246783			0.541884			-0.475723			0.0106612			-0.14096			-0.225988			0.169542			0.158237			-0.647746			0.111529			-0.0966032			0.271697			0.305555			-0.21083			-0.20733			-0.584998			-0.304207			0.0941175			0.383894			-0.774567			-0.05737			0.627449			-0.681041			-0.576075			0.744817			0.275165			0.499672			-0.553139			-0.026355			-0.218381			0.14303			0.166388			0.0816624			-0.0384332			0.835283			0.626159			0.199197			0.144262			0.118736			-0.235883			-0.333177			-0.402589			0.482636			0.457651			-0.26239			-0.547641			0.189632			0.731007			-0.42346			0.262			0.657029			-0.385201			0.757729			0.811304			-0.227209			-0.136252			-0.0596649			0.326987			-0.136653			0.685281			-0.309734			-0.182244			0.569627			0.0725751			0.220717			0.303159			0.00300811			-0.169717			-0.115966			-0.324124			-0.0608151			0.766887			-0.586357			0.253563			-0.195419			-0.192885			0.138299			-0.502827			-0.069062			-0.125693			-0.422027			0.227423			0.411102			0.19349			-0.276779			-0.497597			0.458905			-0.397093			-0.508858			0.821767			-0.12932			-0.166761			0.0476302			-0.11279			-0.071992			-0.708314			0.0821042			0.789623			0.743117			0.0760523			0.130178			0.50453			-0.431958			-0.47646			-0.023218			-0.0468163			-0.816748			-0.352064			0.0412266			-0.128218			-0.493692			-0.34662			0.19426			-0.011039			-0.391667			0.219418			0.488764			0.409417			-0.789107			-0.215615			0.113668			0.103903			-0.294625			-0.425007			-0.917631			0.114965			-0.00756987			-0.291834			0.676507			0.195284			-0.0572719			0.141213			-0.419981			0.149729			-0.329912			0.392394			-0.432015			0.491692			-0.478291			-0.190805			-0.109924			0.146704			0.208831			-0.476992			-0.59468			0.3255			0.142219			-0.788144			0.257458			-0.32496			-0.260007			-0.0212146			0.609237			-0.221358			0.0560051			-0.0514534			-0.741516			0.0950981			0.0823606			0.316194			0.199687			0.0851297			-0.278612			-0.518294			0.0398722			-0.361333			0.823212			-0.35678			-0.790339			0.108104			-0.505855			-0.15334			-0.249811			-0.262948			-0.435696			0.113572			-0.74894			-0.462047			-0.481403			-0.155808			-0.505275			0.525647			-0.336886			0.497187			-0.778654			0.129957			0.766006			-0.7867			0.550005			0.948431			0.00442647			-0.0407009			0.963318			0.612302			0.267591			0.580547			0.000776611			0.706519			-0.42648			-0.31166			-0.32785			-0.0378734			0.199008			-0.94976			0.514962			-0.339457			-0.28019			0.397014			-0.0286529			0.848355			0.543772			-0.188032			-0.461869			0.850912			-0.892828			0.0918465			0.37731			-0.232252			-0.167202			0.453547			-0.0343828			0.727723			-0.536597			0.141995			0.481336			0.014289			-0.502834			
