Matrix_5
0.248134			0.365806			-0.774018			-0.1978			-0.720958			-0.194894			-0.508825			-0.831012			-0.320271			-0.261436			0.329737			0.399103			0.520049			0.33312			0.443945			0.029348			0.416353			0.38047			-0.415058			-0.971242			0.450314			-0.835351			0.05281			-0.240477			-0.948284			-0.0347006			-0.253364			-0.569885			0.116129			-0.66127			-0.249672			-0.223537			0.417421			-0.0220579			-0.154321			-0.445876			0.630992			-0.409678			-0.079416			0.504688			-0.382255			0.184592			-0.0700595			-0.330714			-0.0254577			-0.24949			-0.239804			0.533707			-0.955381			0.541501			0.0387039			-0.538149			0.61807			0.71175			0.045771			0.397874			-0.260004			-0.378358			-0.322296			0.437938			0.0609094			-0.613977			0.264272			0.51048			0.0875096			0.0208177			-0.369308			-0.900987			0.190588			0.206732			-0.405342			-0.501543			0.396433			-0.176471			0.24534			0.00333901			0.115084			-0.240403			-0.155674			0.461776			-0.152456			0.0549316			-0.729966			0.702558			0.0230764			0.377649			0.391534			-0.842138			-0.088946			-0.0324779			-0.0368093			0.104617			-0.338151			0.497091			0.156738			-0.0468459			0.557994			0.193802			0.194033			-0.0807229			
0.313623			-0.878096			0.350541			-0.609822			-0.504801			-0.690505			-0.852854			0.148772			0.49879			-0.0168532			0.247622			-0.201958			0.25142			-0.387574			0.0504365			0.0406308			-0.598415			-0.683649			0.201789			0.288721			0.0730529			-0.2896			0.857257			-0.517107			0.689914			-0.0573727			0.16574			-0.161996			0.0749187			-0.422135			0.378986			0.230255			0.42688			0.160961			0.0352956			0.199091			0.457509			0.332576			-0.0551342			0.0370832			-0.510651			-0.163759			0.511022			0.437304			-0.0525889			0.156701			0.89041			-0.0415151			0.480029			-0.308359			-0.269285			0.691407			0.602534			-0.111022			-0.0610811			0.204033			-0.628659			-0.0912383			-0.738158			-0.756587			0.0761093			0.296191			0.127485			0.636202			-0.327341			-0.913915			0.187825			0.441027			-0.812033			-0.063698			0.710962			-0.420171			-0.383411			-0.225094			0.307013			0.222436			-0.0661713			0.396508			0.106914			0.820862			-0.103534			0.141277			0.329093			0.373445			-0.69077			-0.409126			-0.185578			0.117867			-0.237069			-0.0245057			0.500567			-0.765021			-0.374697			-0.305183			-0.0811939			-0.489281			-0.0735133			-0.157821			-0.0947825			-0.0615159			
0.229582			0.291812			0.0459467			-0.314273			-0.568313			0.927364			-0.0419655			0.474243			-0.307173			-0.539444			-0.141291			-0.445506			-0.733377			0.515005			0.0708734			0.0317222			0.212822			-0.356351			0.698553			-0.0521339			0.187049			0.716046			0.206502			0.508913			0.34412			0.267127			-0.214212			-0.510385			-0.398883			0.505203			-0.229386			0.132345			0.40991			-0.545863			0.110571			-0.26482			0.189377			-0.304577			-0.263605			-0.143935			0.0861291			-0.295422			-0.252857			0.416452			0.30969			-0.33909			0.233599			-0.557663			-0.333438			-0.0273874			0.472324			-0.789671			0.229044			0.533486			-0.667066			-0.285929			-0.100685			-0.364622			-0.161415			-0.132523			0.393165			0.25537			-0.571963			-0.263483			-0.15659			0.201979			-0.0687493			-0.11377			-0.446978			-0.335129			-0.0540784			-0.230443			-0.355083			-0.406038			0.155254			0.519377			-0.155498			-0.531405			-0.187936			0.526848			-0.61332			-0.0142913			-0.20464			0.15582			-0.194495			-0.0842847			0.44728			-0.385366			0.423285			-0.294194			-0.449025			-0.0997662			-0.217746			-0.51693			0.925545			0.325941			0.915163			0.374966			-0.285158			0.459465			
0.313668			-0.746556			-0.267329			-0.241017			0.208945			0.066131			-0.172021			0.848633			-0.0317331			0.277407			-0.719353			0.0838774			0.428145			0.393731			-0.0429226			-0.560011			0.282579			-0.0295633			-0.433218			0.363078			-0.0921349			0.114493			-0.821519			-0.372561			0.414074			0.974801			0.204791			0.759632			-0.123674			-0.727844			-0.562167			-0.236194			-0.160867			-0.161342			-0.301778			-0.726884			0.490536			-0.0551763			0.441283			0.0708597			-0.226352			0.937386			-0.0207516			-0.875776			-0.00301631			0.393828			-0.136798			-0.900368			0.116585			-0.75601			-0.00883164			0.0990797			-0.476709			-0.072284			0.253648			-0.820436			0.457737			0.419335			-0.0820586			0.29951			-0.0944196			0.437912			0.657041			-0.00636103			0.645256			-0.8047			-0.557244			0.613627			-0.14147			0.0422302			0.846329			0.321956			-0.321837			-0.166053			-0.754128			0.268466			0.359927			-0.0497571			-0.131458			-0.329358			-0.480273			0.900918			0.378808			0.907401			0.113115			-0.0990261			-0.57169			-0.760858			-0.257457			0.266866			-0.314672			-0.92575			-0.306393			0.044304			0.125193			-0.786802			-0.0569824			0.52526			0.604072			0.116513			
-0.639747			0.385273			0.323922			-0.261807			-0.0809728			-0.347243			-0.674588			0.207713			-0.00617842			-0.428613			0.0879804			-0.174303			0.0625861			-0.306168			-0.0581995			-0.455226			-0.00467481			0.0856292			-0.273295			0.923979			-0.448608			-0.502352			-0.730959			-0.381891			-0.8243			-0.018172			0.171715			0.601627			-0.280661			-0.575168			-0.236004			-0.0715064			-0.670357			0.575807			0.0379486			-0.324438			-0.11072			0.317565			-0.166228			0.0504442			0.0409014			-0.193665			0.404119			0.18924			-0.491022			-0.249644			0.585832			-0.115478			0.223581			-0.523722			-0.172824			-0.837226			0.36961			-0.38271			-0.116792			-0.0369544			0.0606561			-0.561466			0.0802836			0.00915821			-0.196387			-0.275297			0.199327			-0.152873			-0.521747			-0.392476			-0.776552			0.223275			-0.731848			0.305904			-0.0417618			0.0995942			-0.582558			0.407067			0.0727372			-0.0169383			0.140141			-0.35068			0.0147332			-0.721393			0.89633			0.50373			0.143358			-0.121378			-0.0550354			0.198626			-0.906789			-0.475179			-0.943537			0.913358			0.166156			-0.406727			0.0271257			0.802106			-0.864093			-0.0467605			-0.918944			-0.140661			-0.25448			0.276386			
0.350093			-0.883041			0.28213			-0.224913			0.382602			0.0412883			-0.00290747			0.200179			0.0628531			0.168679			-0.0313943			0.704757			-0.0515435			-0.43647			-0.569964			0.641744			-0.417417			0.533435			0.137037			0.167529			0.666602			-0.314431			0.842548			0.744832			-0.0204031			-0.503198			0.347609			0.0535923			0.548023			0.134744			0.197662			-0.417297			-0.569193			0.550686			0.384619			-0.326544			0.626033			0.0177454			-0.142959			0.00127096			0.349585			0.277826			-0.427954			0.873487			-0.156288			0.0134154			-0.0387557			-0.284805			-0.0820725			0.364657			-0.268002			0.535872			0.192741			-0.317972			0.526575			0.321883			-0.0103126			0.411962			0.0244299			0.664018			0.789442			0.642983			-0.203465			0.0865679			0.228211			-0.380183			-0.884702			0.180582			0.0472585			-0.626224			-0.420724			0.225958			0.0467768			0.546369			0.708602			0.0353818			-0.227794			0.33892			0.361504			0.178341			0.218485			-0.00850641			-0.734888			0.128061			-0.201686			-0.441194			-0.953722			-0.172809			-0.208456			-0.294502			-0.0677375			0.548965			-0.615695			-0.780047			0.646542			-0.630646			0.421916			0.177336			-0.772357			-0.671486			
0.0779164			0.185699			-0.463038			-0.686737			-0.0670261			-0.839869			0.462328			-0.399063			-0.184225			-0.0282445			-0.382804			-0.963025			0.430796			0.0146353			-0.439023			-0.518362			-0.666105			-0.191334			0.317365			-0.571984			-0.452956			-0.0741654			0.684944			0.379364			-0.668811			-0.197607			-0.29162			0.0184748			-0.173822			0.442042			-0.290622			0.372901			-0.308377			-0.161829			-0.09548			0.975035			-0.0568936			0.798342			0.359496			0.399249			0.406298			-0.0315509			-0.67218			0.376924			-0.342172			-0.26008			0.232621			0.318314			0.355573			-0.068385			-0.663274			0.205053			-0.508908			-0.28118			0.444657			0.0147947			-0.354958			-0.0818098			0.591074			-0.244163			0.253124			-0.0857972			-0.609848			0.417899			0.0432905			0.422735			0.474234			0.252991			0.307006			0.96988			0.842835			0.538674			-0.147108			0.398221			-0.452281			-0.974337			-0.534863			0.0417316			-0.390298			0.598237			0.743111			0.064991			0.057471			0.208471			0.0685627			-0.184457			-0.0197776			-0.286374			-0.196686			-0.589946			-0.53825			0.26627			0.0856866			-0.125263			-0.235841			-0.451965			-0.376343			0.387049			0.175779			-0.285209			
0.810905			-0.439215			0.546261			-0.0407224			0.276672			-0.133107			0.412546			0.00201315			0.0631398			0.960003			-0.317187			-0.307932			-0.89226			-0.0599475			0.220276			-0.201991			0.619407			0.137114			-0.855153			0.318848			0.168583			-0.476276			0.25055			-0.773262			0.342656			-0.635001			-0.598381			-0.102778			0.142948			-0.167152			0.325349			-0.172338			0.055482			-0.288452			-0.126959			-0.273254			-0.488059			-0.137921			0.502016			0.283391			-0.335367			-0.222577			-0.109808			-0.275938			-0.119659			-0.247206			-0.728029			-0.0683746			0.630766			-0.180549			0.233834			-0.370401			0.243051			-0.0237892			-0.555992			0.611949			-0.0138713			0.332165			-0.413639			-0.202738			0.771846			0.0653022			0.231564			0.0801363			-0.390975			-0.147448			-0.10835			0.24581			0.175356			-0.70972			-0.0660442			0.00117009			-0.262826			-0.249217			0.228531			-0.0495513			0.409085			0.461273			-0.970038			0.600947			-0.439859			-0.691167			-0.750522			0.663284			-0.183805			0.538634			0.173896			-0.424586			0.0731099			0.928111			-0.527973			0.112611			-0.0925827			-0.374198			0.508482			-0.543727			-0.0706406			0.762432			0.212441			-0.14026			
-0.00035121			0.88779			0.436639			0.553176			-0.351423			0.521352			0.45914			-0.28034			0.902412			-0.573891			0.00126864			0.113639			0.657297			0.0885011			-0.404952			-0.261643			0.216485			-0.734041			0.402946			-0.0939972			0.347847			-0.813429			0.480433			0.172016			-0.177942			-0.0618489			0.535739			0.313171			-0.285459			0.775524			-0.261676			-0.60398			-0.510786			0.00424027			-0.404628			0.274089			-0.395663			-0.372367			0.0495426			-0.586743			-0.0368194			-0.698474			0.0530284			-0.385412			0.292758			0.297335			0.932934			0.62567			-0.0614909			0.416948			0.678247			-0.0772086			-0.428229			0.451164			0.154384			0.384561			-0.74036			0.173448			0.977425			-0.331788			0.238197			0.255658			-0.0650685			-0.42698			-0.39681			-0.762567			0.191758			0.0673332			-0.571623			0.45605			0.755072			-0.190649			-0.479705			-0.572825			0.500856			-0.341952			0.352506			-0.0956779			-0.792747			-0.656732			-0.750729			0.172588			-0.255717			-0.21042			0.480761			0.834			0.0424765			-0.103256			0.0904616			0.108837			0.941678			0.203335			0.630067			-0.495898			0.438701			0.520667			0.10857			0.508816			-0.0394575			0.256494			
-0.996593			-0.0611327			-0.40671			0.168351			-0.305988			0.581208			-0.166217			-0.280811			-0.0457623			0.463725			0.213454			0.316703			-0.0575616			-0.1353			0.301246			0.524384			0.233479			-0.0237047			0.0148782			-0.747137			0.108399			-0.689708			0.542694			-0.222339			0.183667			0.824439			0.97257			-0.346977			0.324121			-0.157797			0.370658			-0.29996			0.520792			0.650458			0.608256			-0.808902			-0.273654			0.126078			-0.0472508			0.368743			0.47374			-0.505802			-0.144583			-0.303763			0.575538			-0.317287			0.337164			0.117734			-0.0735802			0.736216			-0.305446			0.264466			0.00782377			0.4729			-0.700931			0.319182			0.110776			-0.670109			0.457158			-0.143471			0.0335999			-0.0175161			-0.366658			-0.67016			0.255695			0.515758			0.498477			0.174275			-0.325596			-0.156246			0.71058			0.0422938			0.0230759			-0.011009			-0.241064			-0.0894679			0.349063			-0.764826			-0.231115			0.638646			0.385089			0.633744			-0.123094			0.0475376			-0.30707			-0.0266891			0.55183			-0.257756			-0.17157			0.213534			-0.333047			0.2075			0.686507			0.148917			-0.426749			-0.0350627			-0.753093			-0.7372			-0.53751			0.299177			
0.150579			0.363348			-0.0432985			0.98949			0.916321			-0.668045			-0.0337168			-0.302896			0.530122			0.318872			0.840088			-0.644742			-0.695225			0.208491			-0.653501			0.521043			-0.213647			0.288966			-0.208476			0.0272546			0.115369			0.724734			0.527456			0.050198			0.0386443			-0.10532			0.54744			0.194234			0.511887			-0.136314			-0.483118			-0.123979			-0.350237			0.738439			0.591377			0.599284			-0.247666			0.127976			0.959887			0.464117			-0.170025			-0.375965			-0.779365			0.589247			0.478527			-0.717274			0.0273388			-0.524979			0.681306			-0.839205			-0.607715			-0.813903			-0.776081			-0.551195			-0.834619			-0.369795			-0.12865			0.0259528			-0.615328			0.130406			0.168078			0.171309			-0.400113			-0.453898			-0.636705			0.249594			0.0288748			-0.846749			0.232622			-0.282284			0.465858			0.129612			-0.258333			0.142785			0.221928			0.61998			-0.511329			0.948214			0.0301368			0.559067			-0.538581			0.467436			-0.382938			-0.0189206			-0.272684			-0.646646			0.187963			0.313342			0.197244			0.349102			0.23491			-0.0627477			-0.73033			-0.517164			-0.0552249			-0.501625			0.11922			0.756089			0.0906094			0.0768183			
-0.134312			0.00361468			-0.434357			-0.487267			0.573931			-0.0362536			-0.085822			-0.0316995			-0.207495			-0.504821			0.0253523			0.329239			0.675967			-0.585832			-0.168711			0.453755			0.774016			-0.439217			-0.189177			0.448693			-0.241885			-0.573424			0.0119478			-0.339335			-0.339342			-0.575901			-0.0886436			0.665273			-0.177797			0.220463			-0.843338			-0.191989			-0.494774			0.27225			0.452225			0.27647			0.534641			0.410192			-0.0368887			-0.417175			0.47815			-0.184618			0.512611			-0.308623			-0.0949917			-0.242019			-0.0941397			-0.674691			-0.0637969			-0.303531			0.798298			0.78852			-0.108393			0.206701			0.081107			-0.556351			-0.0427629			0.44021			-0.805604			-0.426391			0.305942			-0.00838962			-0.0482808			0.443997			0.234779			-0.0565259			-0.145249			0.183128			-0.869059			-0.667823			-0.738973			-0.81802			0.161616			0.130987			-0.480118			-0.802612			-0.322976			-0.520582			0.00230636			-0.702375			-0.117966			-0.575184			-0.205034			-0.150548			0.265947			0.0191582			0.0429943			0.00869759			-0.130482			0.244414			0.24796			0.766166			0.52227			-0.16112			-0.282788			-0.0755447			0.954832			-0.131168			0.633853			0.0486346			
-0.240667			-0.35257			-0.441113			0.245927			0.630452			0.698551			-0.779279			-0.0762967			-0.0266707			-0.106755			-0.0180739			0.886521			0.20315			-0.221003			0.123936			-0.42473			0.774879			-0.191405			0.239567			-0.372057			0.169805			-0.158953			-0.0617504			-0.193844			0.38698			0.171336			-0.432285			-0.206116			-0.148462			-0.600165			0.568625			0.485504			-0.0670611			0.336039			-0.344556			0.208154			-0.382269			-0.349714			0.497229			-0.747476			0.213666			-0.390289			-0.248078			-0.3064			-0.666896			0.0140498			0.172037			0.0955111			-0.658918			-0.242082			-0.235351			-0.0696824			-0.0736756			0.802994			-0.341973			0.109515			-0.350944			-0.728673			0.119286			0.331211			0.530701			-0.32285			0.310047			0.181681			-0.418085			-0.416678			0.548051			0.38665			-0.663019			-0.178276			-0.951178			0.483556			0.294328			-0.0334572			-0.173677			-0.0613013			0.0495934			-0.247342			0.222175			0.274683			-0.448111			-0.510992			-0.628671			-0.466579			-0.773347			-0.232867			0.432689			0.251287			0.0941296			0.441236			-0.341476			-0.285589			0.542354			0.564652			0.876003			0.718486			0.503145			-0.840769			-0.850726			0.604984			
0.36612			0.936937			-0.138232			-0.681386			-0.0626089			-0.227663			0.283469			0.186548			-0.175895			0.899022			0.087773			-0.331984			-0.209622			0.729545			-0.0900334			0.0313205			-0.0937922			-0.85205			0.726045			-0.332182			-0.095682			0.502281			-0.341142			-0.430158			-0.453891			-0.124755			0.367442			0.953169			0.753334			0.10833			0.26608			0.165326			-0.14339			0.501884			-0.0409738			-0.611489			-0.867956			-0.0156656			0.608755			0.415235			-0.30848			0.814784			0.129383			0.427867			-0.100783			-0.450417			0.1513			-0.443785			-0.362001			0.00447512			-0.611825			-0.688505			0.322533			-0.533603			0.143737			0.15764			-0.0776962			0.137452			-0.205748			0.0882675			0.168107			-0.357643			-0.242118			-0.10344			-0.222774			-0.247623			0.589292			-0.0466463			0.0552343			-0.610156			0.467137			-0.938593			0.277512			-0.304635			-0.0623302			-0.418884			0.414673			-0.463238			-0.32571			0.0799563			0.272929			0.203166			0.465595			-0.939798			-0.125387			-0.458593			0.030303			-0.522826			0.418796			0.460041			0.563782			0.149944			-0.163554			-0.0150669			0.115322			0.69687			0.861623			-0.0733378			0.410033			0.6864			
-0.562295			-0.412173			0.681673			0.424941			-0.402376			0.388833			0.0764844			-0.268691			0.16514			-0.260046			0.0683475			0.996929			0.381908			-0.604364			-0.0400924			-0.471883			0.220263			-0.695749			0.461651			-0.0840108			-0.0521456			0.380084			0.432607			0.142906			0.249666			0.870262			-0.191956			-0.499791			-0.329819			-0.443522			0.389614			-0.910525			0.0540462			0.698483			-0.769548			0.300087			0.244152			-0.376212			0.779865			-0.46441			-0.368171			0.00940755			0.0461889			-0.219347			0.163719			-0.119813			0.164999			-0.259457			-0.542205			0.784861			-0.186063			0.517529			0.025826			0.329031			-0.000393711			0.409025			0.305635			0.108881			-0.199633			0.175212			0.411515			0.308479			0.845963			0.0676011			-0.372636			0.303864			-0.669184			-0.043568			0.606662			0.132551			0.198051			-0.37223			-0.377444			-0.404733			-0.0366031			0.263155			0.127991			-0.0612936			-0.634445			0.0214558			0.523435			0.55396			0.434677			-0.274643			0.957534			-0.541449			-0.698368			0.0855306			0.232357			0.461416			-0.123589			0.233185			-0.899407			-0.840229			-0.290304			-0.691868			-0.245921			-0.429514			-0.222195			-0.514817			
-0.799036			0.873829			-0.397408			-0.001895			-0.0513077			-0.356243			-0.197243			-0.506429			0.0166083			0.430348			0.549334			0.123364			0.0811029			0.312173			0.17332			0.259406			0.417333			-0.445448			0.479115			-0.180445			-0.0542236			0.556341			-0.238343			0.158723			0.712741			-0.739726			0.391329			-0.407124			0.217032			-0.0227711			0.536767			-0.3462			-0.860675			0.0533984			-0.126843			0.0862331			0.686901			0.0774324			-0.0607704			0.599144			0.102808			0.0165099			-0.390443			-0.555243			-0.34791			0.846054			-0.0271845			0.00495657			0.0941574			-0.347882			0.245959			-0.0966706			-0.334173			-0.436485			-0.0772115			0.252021			-0.173717			-0.541829			-0.653862			-0.697027			0.658014			-0.52814			0.0443779			0.206724			-0.309684			0.360026			-0.00755503			-0.146835			-0.606376			-0.00427157			-0.495343			0.967032			-0.0808538			-0.116913			0.225458			0.594759			0.187229			0.319766			0.0148313			-0.517006			-0.134963			-0.32983			-0.205542			0.201824			0.73651			-0.131754			-0.0576398			0.0474858			0.0267277			0.0192201			-0.0241423			-0.603083			0.266685			0.279037			-0.0941599			-0.147521			0.50206			-0.0366327			0.0323303			-0.604859			
-0.12042			0.00767808			-0.907455			-0.16601			0.377193			-0.328643			-0.60905			-0.555532			-0.587024			-0.812518			-0.311181			0.113469			0.740909			-0.0495872			-0.660371			0.221215			0.246665			0.0500489			0.510223			0.592285			0.162897			-0.840862			0.970636			-0.214832			-0.0495534			-0.162628			-0.94264			0.125234			-0.593086			0.704766			-0.754061			0.779749			-0.47766			-0.188453			0.035705			0.313251			-0.323022			-0.368882			0.091062			0.168283			0.251635			0.0871418			0.436			-0.418969			0.484416			0.468365			-0.0643207			0.672103			0.366538			0.155695			-0.695895			-0.570884			-0.0662536			0.148506			0.112955			0.780588			0.33422			0.725404			0.131505			-0.518986			0.0388571			0.252314			0.296239			-0.29393			-0.434442			0.285283			0.353415			-0.215708			0.388568			-0.264028			0.283286			-0.594895			0.225845			-0.189772			-0.0949269			0.792876			0.0651748			-0.42457			-0.28725			0.193268			-0.687414			0.0322084			0.66072			0.319586			-0.765294			0.245246			-0.141151			0.428086			0.513831			-0.303725			-0.382371			-0.512035			-0.353143			-0.584955			-0.649573			-0.865144			0.765722			0.31047			-0.667702			0.573609			
-0.544674			0.546579			0.298714			0.600812			0.0769837			-0.351322			0.570242			-0.242654			-0.136569			-0.116756			0.44114			-0.0107441			-0.306755			0.0787426			-0.331837			-0.87957			0.0290639			-0.154645			0.710654			0.154362			0.267622			-0.22313			0.228355			0.120403			0.997554			0.456309			0.105373			0.693567			0.286715			-0.186893			0.315008			0.17853			0.124858			-0.577029			-0.131968			-0.35112			0.549061			0.275047			0.95499			-0.335182			0.457409			-0.422223			0.450847			-0.577523			0.199288			0.329834			0.59855			-0.562505			-0.355618			-0.600198			0.418282			0.230926			-0.207407			-0.491172			0.95277			-0.282046			-0.224486			-0.492122			0.339642			0.694873			0.281649			0.520194			-0.105672			-0.168643			-0.310191			0.449297			0.559062			0.316656			-0.242087			0.0492429			0.0192457			0.446206			0.468277			-0.548598			0.29669			0.0525014			0.474468			-0.669289			0.434563			0.0706963			-0.0304737			0.636623			-0.161211			0.806243			0.0573865			-0.260681			0.554523			0.0378593			-0.208102			0.513283			0.290733			-0.220205			0.301699			0.0251507			-0.359405			-0.444347			-0.113075			-0.659016			-0.539519			0.526293			
0.233916			0.348151			0.348956			0.212591			0.0565142			-0.728698			-0.396903			0.049664			0.403414			-0.0279174			0.485202			0.141283			0.469851			-0.275108			0.351701			0.626273			0.938258			-0.286496			-0.312286			-0.451126			-0.474063			0.0354735			-0.200982			0.0416557			-0.250314			-0.135915			0.581505			-0.18314			-0.626859			0.141953			0.125381			0.0467672			0.394713			-0.34618			-0.530078			0.358899			-0.0393591			-0.0855097			0.183671			0.151657			-0.278465			-0.585179			0.701472			0.0869717			-0.342197			0.603176			-0.579849			0.514052			-0.166548			0.157369			-0.0943313			0.171234			0.363144			-0.187857			-0.155627			-0.0881661			0.199905			-0.445002			0.137427			-0.127602			-0.146766			0.204214			0.0110661			0.0800945			0.388909			0.445202			-0.157893			-0.0221234			-0.651109			0.00438302			-0.363001			-0.411684			0.631555			0.393671			0.161377			-0.0230329			0.677276			0.0150772			-0.79657			0.347872			0.559047			0.0345114			-0.802932			-0.0362028			0.222322			-0.0944282			0.879238			-0.104322			0.900798			-0.57891			-0.462254			-0.0581735			0.698171			-0.152074			-0.529764			0.303258			-0.062454			-0.431746			0.505322			0.699222			
0.408155			-0.627404			-0.153534			-0.462272			-0.163968			0.331023			0.074136			0.153003			-0.0137635			-0.338383			-0.337068			0.811603			-0.473354			-0.64346			0.379607			0.393244			0.101794			-0.0302542			-0.862125			-0.0875096			0.515197			0.312388			-0.375996			0.285338			0.227367			-0.0427077			-0.599604			0.828339			0.146973			0.239073			-0.382434			-0.669705			-0.990971			-0.897305			-0.65184			-0.798154			-0.819592			0.95697			0.614163			-0.114374			0.0438654			0.457333			0.559428			-0.0805495			0.457131			-0.586081			-0.234604			0.170495			0.108045			0.062451			-0.463234			0.543142			-0.667993			0.676186			-0.441102			0.147088			-0.472687			-0.0816739			0.133464			0.593726			0.370954			0.163717			-0.179326			-0.521407			-0.80182			0.0314201			0.461059			-0.614738			-0.516761			0.298152			0.348029			-0.330044			0.551038			0.210798			0.268877			0.568703			-0.0442526			0.278439			-0.131883			0.346833			0.527711			0.339831			-0.19384			0.566255			0.185644			0.258547			0.223442			0.379019			-0.322237			-0.0765815			-0.744152			-0.515761			0.219358			-0.231561			0.783623			0.238043			-0.0217712			0.167621			-0.368604			0.248597			
0.432025			-0.049796			0.344295			-0.803293			-0.693149			-0.575319			-0.248703			0.930198			0.337064			0.795419			0.354818			-0.097398			0.579948			0.570316			0.0699983			0.698375			-0.0767333			0.178588			0.620538			0.509703			-0.31327			-0.387893			-0.188618			0.0460706			0.354715			-0.326594			-0.477152			-0.136596			-0.0285231			-0.0323731			0.609304			-0.382828			0.308693			-0.0338948			0.0846924			0.32671			0.549569			0.37046			0.170278			0.323031			0.390335			0.248192			0.271267			-0.0844704			-0.376607			0.511023			0.677492			0.477976			0.45066			-0.224974			-0.318435			0.400333			0.208459			-0.597652			0.594703			0.617034			0.540082			-0.394432			-0.0403774			0.412578			0.181666			0.215964			0.149525			0.0915405			0.330391			0.528549			-0.177526			0.643512			-0.755114			0.289817			-0.633501			-0.365451			0.177635			0.390776			0.594061			0.0232962			-0.275237			-0.294022			0.14873			-0.329078			0.194642			-0.0600873			-0.0881179			-0.0849023			-0.618676			0.780611			-0.483804			-0.779289			-0.000439903			0.40809			-0.114529			0.296843			0.494795			-0.471985			-0.724896			0.0751128			-0.0896615			-0.636506			0.474704			-0.156115			
0.165278			0.268307			-0.0444135			0.850915			-0.0213377			-0.737017			-0.656921			0.60516			0.0796542			0.0981476			0.828612			-0.831775			0.113407			-0.371421			0.244218			0.349668			0.0666915			0.412677			0.0263774			0.156517			0.671912			-0.378676			-0.65106			-0.190189			0.0496153			-0.0443163			0.513959			0.0888528			-0.28931			-0.150428			-0.140029			-0.1816			0.00253581			-0.424082			0.612976			0.705241			-0.0714785			-0.24172			0.781447			0.112273			-0.626546			0.0792055			-0.204618			0.94531			-0.512219			-0.586275			0.109774			-0.165747			0.416696			-0.357701			0.894647			0.142077			0.174769			-0.711752			-0.205651			-0.292964			-0.525191			-0.37123			-0.115402			-0.499113			-0.313183			0.519033			0.212552			-0.342444			-0.565137			-0.538018			0.0578599			0.618208			0.241116			0.17878			-0.236484			0.570953			0.0863768			-0.0077338			-0.491079			0.808553			0.658472			0.32978			-0.14857			0.617893			-0.787724			-0.223015			-0.0857018			0.738948			0.820933			0.128415			0.875239			-0.155034			0.0639386			-0.752455			-0.239124			0.142791			-0.30274			-0.283046			-0.519995			-0.147162			0.380477			-0.293803			0.103066			-0.16753			
0.18076			0.0876716			-0.244199			-0.205466			-0.0909466			-0.446287			-0.543174			-0.137001			-0.00197234			0.0838244			0.0677269			0.115302			0.0904605			-0.559427			-0.600814			0.375598			0.373527			-0.133379			-0.0607943			-0.122769			-0.135977			-0.653202			-0.0989303			0.104785			0.140073			0.387754			-0.79106			-0.322708			0.711819			0.157545			-0.45667			0.0484777			0.156319			-0.234003			0.951814			-0.150068			0.138476			0.245825			0.52581			-0.145114			0.232835			0.146072			-0.196108			0.120571			0.5828			0.168499			0.808415			0.25248			0.153434			-0.216027			0.0403617			-0.66596			-0.165616			0.491104			-0.274346			-0.226869			-0.350746			-0.290698			-0.384292			-0.00712922			-0.243093			0.392854			0.649737			-0.296984			0.515012			0.490496			0.285662			-0.198587			-0.0310105			-0.280764			-0.126345			0.577126			-0.762629			0.140277			0.822086			0.032728			-0.672289			-0.646376			0.185822			-0.736609			-0.70432			0.0714405			0.424858			0.630118			-0.394072			0.175777			-0.1993			-0.405504			-0.279663			0.867368			-0.207799			0.293793			-0.10814			-0.104106			0.0939234			0.350515			-0.0234249			-0.129371			-0.500323			0.39171			
0.231572			0.585477			-0.39821			0.221677			-0.0583457			0.175786			-0.356696			0.655899			0.354682			0.202986			0.469725			0.0542396			0.281242			-0.278693			0.203324			0.782794			-0.224592			0.181252			-0.176213			-0.16485			-0.121693			-0.624804			0.0649551			-0.610354			0.0790493			0.537117			0.24624			-0.313556			0.989745			0.153535			-0.089271			-0.451565			0.513196			-0.62019			0.159014			0.556296			-0.237339			-0.625994			-0.297678			-0.0642657			0.127919			0.352313			0.2997			-0.376615			0.416665			0.469539			-0.232192			-0.60955			-0.710135			0.965342			0.908512			-0.66617			-0.742161			0.398533			-0.124305			0.646638			0.426829			-0.0776244			-0.305546			-0.784929			-0.918442			0.893003			0.728074			0.178083			0.405617			0.419948			-0.0846548			-0.30254			0.365872			-0.304264			0.519192			0.133284			0.16554			0.1581			0.699474			0.457118			0.203571			0.504664			-0.334269			0.155875			0.124025			-0.362961			-0.674726			0.139719			-0.736672			-0.543877			0.987828			0.547382			0.226576			-0.472894			0.057016			0.0947869			0.856546			0.0288428			0.0145502			0.795694			0.634999			-0.0441918			0.591877			0.207775			
-0.116239			-0.650045			0.191448			0.339598			-0.0501414			-0.240454			-0.11173			-0.0913203			0.362916			0.116066			-0.157782			0.515996			-0.296139			-0.625953			0.291649			0.436842			-0.283976			0.756615			-0.371416			-0.467892			-0.860804			-0.262577			-0.347995			0.167287			0.181431			0.976969			0.890515			0.0896542			-0.943241			-0.158309			0.447103			-0.142093			0.0402072			-0.273986			0.348249			-0.438749			-0.697417			-0.246793			0.572044			0.135285			0.415971			0.589454			0.128592			-0.224807			-0.108701			0.240711			-0.173607			0.6883			0.15841			0.253169			0.544536			-0.648951			-0.452719			0.215396			-0.191674			-0.243967			-0.331607			-0.258033			-0.392011			-0.890131			0.236996			-0.19926			0.74883			0.0524987			0.0216451			0.154408			0.601937			0.135033			-0.362395			0.145203			-0.566982			0.188612			0.610078			-0.113001			0.505448			0.467349			0.0295828			0.51447			0.732525			0.589287			-0.592914			0.506921			-0.507701			0.175625			0.36582			0.506384			0.421256			-0.807299			-0.0286976			-0.138853			-0.369513			0.678682			0.293502			0.741178			0.408581			0.530858			0.286876			-0.0483322			-0.0984584			-0.954658			
0.393965			0.124491			0.252399			0.290925			-0.454626			-0.469548			-0.0899275			-0.218669			-0.128191			0.948464			0.910446			0.0433008			0.280678			0.07857			0.559454			0.200463			0.740602			-0.0317273			0.0821839			-0.0953299			-0.0561347			-0.169473			0.392257			0.587531			0.834101			0.983575			0.695212			0.0876316			-0.190502			-0.31182			0.493607			-0.180503			0.028131			0.815061			0.682215			-0.606952			-0.16824			-0.410768			0.644467			0.0783963			-0.84878			0.103386			0.0716991			-0.266735			0.401831			0.0245206			0.071382			0.00365122			0.00472088			-0.0353943			0.344165			-0.459123			-0.431983			-0.343868			0.0444382			0.263963			-0.655406			-0.338166			-0.0437766			-0.422608			-0.464115			0.309021			-0.585158			0.219465			0.452641			-0.134868			-0.590882			-0.0550448			-0.00968955			-0.533971			0.538471			-0.46074			-0.513354			0.637071			0.153512			0.0532081			-0.938546			0.135177			-0.150154			-0.124285			0.507785			-0.652927			-0.0428534			-0.525225			0.483201			-0.15762			0.322759			-0.492594			0.288245			-0.293365			0.921674			0.498534			0.0944769			-0.0730565			0.538821			0.129269			0.0240972			0.111043			0.0963026			0.204081			
0.631967			0.459782			0.117146			0.185306			-0.204417			-0.612494			0.950723			-0.0189566			-0.870783			0.250815			0.0689161			-0.825027			0.377029			0.618158			0.0911154			-0.684638			0.301728			-0.311114			0.261806			0.468617			-0.206555			-0.299186			0.372249			-0.40701			-0.173882			-0.123636			-0.559275			0.622765			-0.587404			-0.0623956			-0.0824308			0.414224			-0.148769			0.548644			-0.373626			-0.136015			0.516272			0.276884			0.583729			0.238543			0.790569			-0.0537768			-0.047574			-0.340784			-0.572975			-0.588833			0.745127			0.831871			0.0478961			0.212915			-0.468959			0.322564			-0.311813			-0.242316			-0.171633			-0.124966			-0.543002			-0.17159			0.331928			-0.461816			-0.210214			-0.202628			0.707558			-0.0562137			-0.0892034			0.341304			0.604423			0.254197			-0.389184			0.491164			-0.942242			-0.121393			-0.290502			0.329584			0.180327			0.325182			-0.0328695			-0.73444			0.299823			-0.0125121			0.765525			0.702007			0.356207			0.405557			0.398497			-0.334569			0.845838			-0.692931			0.0484494			-0.236017			-0.28073			-0.0684569			-0.514484			-0.248727			-0.0689119			-2.92772e-05			0.440492			-0.545602			-0.0860257			-0.0264427			
-0.714627			0.871343			-0.136748			-0.0231934			0.287868			-0.711714			0.779339			0.323544			-0.296384			0.479246			-0.77155			0.298737			-0.44227			-0.181781			0.451431			0.0980494			0.185029			-0.182704			-0.345112			0.113175			-0.112652			-0.44787			-0.197081			0.0823496			-0.513978			-0.741625			0.498729			0.560945			0.368347			-0.529442			-0.536525			-0.517806			-0.320863			0.229279			0.601864			0.405451			-0.138688			-0.0587507			0.690516			0.0394441			-0.218164			0.416041			-0.461253			0.543487			-0.766987			-0.282255			-0.790532			0.201055			-0.0130106			-0.127032			-0.276167			0.17045			0.529598			0.165339			0.700691			0.576613			-0.326552			-0.159512			-0.0194378			0.242412			0.00810691			0.295786			0.50413			0.101422			-0.448053			-0.350756			0.15114			-0.0440454			0.128327			0.0205289			-0.413739			-0.453325			-0.918358			-0.563669			-0.280326			0.118495			-0.104024			0.170599			-0.474859			0.317038			0.392329			-0.0458657			-0.268542			-0.2019			-0.411968			0.6257			0.175557			0.333199			-0.289772			0.944587			-0.47132			-0.423633			-0.172976			0.0830147			-0.227052			-0.474667			-0.575482			0.4169			0.625959			0.24682			
-0.205939			-0.0611302			0.482551			0.0251876			0.0323791			-0.398843			0.441791			0.189269			0.544697			-0.498573			0.0286257			-0.366708			0.737185			0.972492			-0.770436			-0.54416			0.925518			-0.61944			0.329022			-0.378527			-0.179716			0.234196			-0.000507424			-0.352111			0.671871			-0.183356			-0.693836			-0.51728			-0.0962332			0.310265			-0.805413			-0.515306			-0.0026284			-0.127249			-0.108263			0.0446242			-0.160946			-0.104999			-0.760523			0.27015			0.316931			-0.586493			0.85207			-0.187566			0.321921			-0.729443			0.00613493			-0.470918			0.622624			-0.305096			-0.193983			0.289348			-0.343421			0.238745			-0.431144			0.191519			-0.0322091			-0.0847424			-0.551883			-0.14342			-0.241319			0.127544			-0.857894			0.538297			0.311469			0.482981			0.00898694			0.961302			0.0590849			-0.289113			0.164441			-0.297492			0.597128			0.20377			-0.752453			-0.755833			-0.760415			0.250253			-0.900098			0.154547			-0.187289			-0.541627			-0.355186			0.669594			-0.440375			0.0564964			0.412389			-0.335872			0.285742			-0.108454			0.725096			0.264548			0.20752			0.225309			-0.157771			0.190719			-0.256469			0.0224589			-0.299756			-0.0603854			
0.601695			0.0324586			-0.124461			0.0885612			0.167266			0.107182			0.27169			0.838104			0.280646			0.627036			-0.0440589			-0.227673			-0.0138397			-0.200222			0.44987			-0.241941			-0.434418			0.256327			0.381929			0.704899			-0.131214			0.253561			-0.331015			-0.214753			-0.24992			0.228048			0.955312			-0.387895			-0.73016			-0.189527			-0.149519			0.273957			-0.209137			0.0454437			-0.285335			-0.066039			0.193226			-0.112978			0.159226			-0.646385			-0.60851			0.311825			-0.190967			-0.383581			-0.0876054			0.565637			-0.369633			0.455909			-0.024757			0.943639			0.450745			0.212594			0.480358			-0.0365799			0.0237534			-0.375623			-0.646905			0.207135			0.181189			-0.0979151			-0.306545			0.0472384			0.155102			-0.45039			-0.640698			-0.37827			-0.873068			-0.122391			0.262273			-0.608742			-0.292468			-0.208675			-0.282431			-0.383225			0.752184			-0.125864			-0.177639			-0.203005			0.0738002			-0.0461597			0.230124			0.373446			0.209772			0.95427			-0.643313			-0.227216			-0.709348			0.661108			0.780701			0.509662			0.333323			-0.126178			0.195945			-0.770591			-0.494252			0.0299677			0.604196			0.533342			0.248684			0.174489			
-0.521498			-0.760499			-0.635852			0.12561			0.108131			0.169784			-0.180146			-0.73009			0.472876			-0.243243			-0.771614			-0.702423			-0.238432			0.360445			0.323897			0.568669			-0.682633			0.992712			0.508832			-0.375394			-0.180825			-0.154182			0.0320254			0.494047			-0.620788			-0.245546			-0.292058			0.141789			0.62629			-0.817139			0.0340224			0.0905557			-0.0639579			0.82593			0.24456			0.962596			-0.415135			-0.288358			-0.447754			0.103146			0.635591			0.462734			-0.477111			0.373669			0.406842			-0.219587			0.185497			0.786275			0.124167			0.267506			0.167397			0.0808157			0.841387			-0.536334			-0.527581			-0.100255			-0.595928			0.00321475			0.712146			-0.478283			-0.0482285			-0.238624			0.333807			-0.106871			0.157714			-0.0460373			-0.641097			-0.560132			0.405921			-0.229211			0.134398			0.530143			0.199157			0.109758			-0.334115			-0.53571			0.568572			-0.41686			0.193408			-0.382681			-0.100905			-0.627283			0.645387			-0.101807			0.511699			0.00440735			-0.271802			0.180268			-0.130521			-0.0732787			-0.0330776			0.251682			0.0102878			-0.654247			-0.458847			-0.0141806			0.212763			-0.20668			0.363136			0.0592603			
-0.271743			-0.0783367			-0.724916			-0.433957			-0.239318			-0.134888			-0.104385			0.650948			0.261098			0.57851			-0.169013			0.206297			0.100793			-0.228347			-0.0637617			0.116965			0.0724201			-0.739662			0.656986			-0.210573			-0.718702			0.223501			-0.0739439			0.236285			-0.457771			-0.326434			-0.891943			-0.206636			0.236495			0.870776			0.424314			0.156829			-0.259886			0.133171			0.13076			0.351639			-0.310697			-0.0234021			-0.84792			-0.928832			0.487873			-0.0448632			-0.89437			0.355145			-0.13262			-0.105312			-0.375973			0.284498			0.00485272			0.247138			0.462217			0.151548			-0.610062			0.571871			0.0869154			-0.522084			0.204508			0.255652			0.0215465			0.108686			0.0957864			-0.173863			0.129756			-0.0303972			0.634275			0.939613			-0.780975			-0.139377			0.988019			-0.937609			0.58627			-0.866694			-0.654983			-0.160541			-0.137689			0.972661			0.380455			-0.664195			-0.64889			0.310166			0.623916			0.596226			-0.72776			-0.137058			0.0385179			0.188499			0.373495			0.920457			0.349884			0.114964			0.25064			0.154274			0.146667			-0.0839492			0.197852			-0.510693			0.779541			0.434725			-0.0940655			-0.686971			
0.536461			-0.532033			0.265531			-0.801985			0.128033			0.920294			-0.410314			-0.195564			0.792533			0.0486898			0.447818			0.57447			-0.92768			-0.474177			0.179927			-0.0180002			0.717608			-0.887793			0.200694			0.148672			0.0718826			0.329996			0.455032			-0.508808			0.157822			0.275133			0.476986			-0.106353			-0.634174			-0.088455			-0.329271			0.514209			0.18604			0.895852			0.705489			-0.210067			-0.658094			-0.63342			-0.626729			-0.082451			-0.41933			0.578171			0.219485			0.112798			-0.704263			-0.222689			0.168689			0.885773			0.309999			-0.527184			-0.656885			0.0390543			0.750096			-0.753267			0.165617			-0.517661			-0.339029			0.469369			-0.0592216			0.489585			0.312952			-0.311825			-0.339715			0.945426			-0.220191			0.899092			0.0298743			0.546723			0.150882			-0.642701			-0.590802			-0.428216			-0.0684216			0.198703			-0.331122			-0.0952842			0.102271			0.102737			0.351131			0.326112			0.0131699			-0.185531			-0.368119			0.401619			-0.131423			0.715042			-0.485547			-0.251519			-0.516631			-0.255609			0.0682234			-0.143955			0.810407			0.384118			0.841618			-0.538345			-0.612662			-0.247629			0.61389			-0.341694			
0.0598047			0.38731			0.17233			0.0234236			0.50244			0.610175			0.360854			-0.0286706			0.512203			0.00497647			0.217407			-0.0388319			0.57266			-0.85535			-0.100598			-0.560793			-0.451117			-0.034783			0.528365			-0.683254			0.602571			-0.337048			0.0429276			-0.600537			-0.327315			0.315563			-0.517703			-0.386284			-0.0138028			0.493566			0.530124			-0.289923			0.55074			-0.14193			0.826432			-0.437884			-0.318319			0.00271902			-0.247985			0.145666			0.0845583			0.381296			0.182125			0.00953492			-0.0996209			-0.386522			-0.0782366			0.140484			-0.507149			-0.582991			0.663565			0.415757			-0.260436			-0.269633			-0.387554			-0.474144			-0.682548			0.685908			0.0851305			0.970345			0.256593			-0.1273			-0.565356			0.376242			0.217115			-0.197556			-0.0388982			0.0398612			0.0300666			-0.371088			-0.480465			0.160417			0.69247			-0.331155			0.495547			0.800778			-0.154029			-0.776378			0.41933			-0.47183			0.12137			-0.0673949			-0.18494			0.235125			-0.241005			-0.633267			0.030542			-0.395632			-0.254392			-0.828265			-0.174239			0.131659			-0.57054			-0.0456126			-0.0430928			0.254881			0.381614			-0.224719			0.643824			0.274397			
-0.238249			0.792375			-0.00493644			0.232706			0.0259291			-0.497495			-0.972392			-0.200768			0.33455			-0.320451			-0.129676			0.699288			-0.15653			0.493261			0.2947			0.705474			0.0731985			-0.780184			0.496066			-0.193556			0.10113			-0.508039			-0.519218			-0.0364031			0.598215			0.135633			-0.667419			0.0303243			-0.266436			-0.146486			0.742719			-0.355956			-0.120992			-0.391175			-0.318392			0.300761			-0.157113			0.476659			-0.0613176			-0.400052			-0.352676			-0.662087			0.640377			-0.201244			0.591023			0.797544			0.555572			-0.861238			-0.302771			-0.58847			-0.278805			-0.527456			0.332369			-0.395917			0.142082			0.205828			0.484183			0.0147833			0.89215			-0.468417			0.433809			0.373894			-0.25536			-0.337693			-0.159281			0.0206797			-0.0501452			-0.520865			0.397846			0.706691			-0.267514			0.834612			0.289888			0.0912684			-0.403332			0.162863			-0.500814			-0.15571			-0.0103683			-0.564365			-0.888803			-0.262851			-0.893068			0.185539			0.137532			0.202891			0.0589099			0.113587			-0.0250185			-0.0604486			-0.564564			-0.270095			-0.210011			0.604433			-0.402761			-0.184355			-0.278885			0.0660288			0.970317			-0.74417			
0.421022			-0.242664			0.191359			-0.0318289			-0.4417			0.0640314			-0.0218579			-0.279403			-0.829423			-0.0256017			-0.58467			-0.3055			0.302822			-0.241509			-0.204347			-0.221048			-0.434312			-0.353444			0.845482			-0.363194			-0.278809			-0.12675			0.721202			0.073851			0.517486			-0.230546			0.41661			0.590847			-0.244757			-0.781424			0.263052			-0.0294073			0.252893			0.243696			-0.258328			-0.557389			-0.468199			-0.13041			-0.133214			0.52019			0.855653			0.260055			-0.15104			-0.0580437			-0.669467			0.648823			0.100084			-0.691234			-0.590962			0.832794			0.441991			0.014251			-0.0367067			-0.358348			-0.751656			0.198833			-0.250846			-0.737274			-0.545109			0.119856			-0.101835			-0.605392			0.707804			0.247726			-0.300642			-0.0659167			-0.0699159			-0.870798			0.00829767			0.61792			-0.472492			0.63243			0.344341			0.866417			-0.17569			0.04825			-0.199698			-0.0401115			-0.0426315			-0.161708			0.260589			-0.173544			0.491333			-0.306374			0.673156			-0.0433795			-0.00906333			0.0347435			-0.121836			0.235206			0.499023			-0.00471793			0.130843			-0.715023			0.618711			-0.135022			0.758843			-0.109631			-0.106473			-0.703193			
-0.474508			0.240329			0.242414			-0.432662			0.0265261			0.360793			-0.176707			-0.106905			-0.0671442			0.299193			-0.116214			-0.549619			0.160536			-0.0334739			-0.0573377			0.584783			-0.420165			0.271434			-0.15715			0.129212			-0.140626			0.918502			-0.752823			0.153948			0.218184			0.373648			0.748976			-0.306875			-0.399132			0.442537			0.579595			0.901756			0.318348			-0.219747			0.448094			0.086181			-0.0189016			0.125609			-0.296892			0.809958			-0.350016			0.77314			-0.969427			0.272823			0.296343			0.176904			-0.336639			-0.711613			0.237403			0.643786			0.734314			-0.204308			-0.268154			-0.253773			0.193314			0.122634			-0.730106			-0.197698			-0.0402178			0.750881			0.13194			0.701776			-0.0114154			0.306003			-0.459359			-0.691431			0.169972			0.561337			0.417877			-0.163357			0.621923			0.332449			-0.325436			0.501492			-0.606256			-0.163213			0.466418			0.194917			0.795014			0.32184			-0.584071			0.0501341			-0.0575277			0.0855175			0.397827			-0.0566062			0.797485			-0.592358			-0.0131552			0.108319			0.77747			0.888021			0.625241			-0.24261			0.786347			-0.212952			0.333111			0.00785885			-0.393704			-0.325163			
0.740973			-0.106468			-0.45477			-0.0843418			0.815901			0.166603			-0.688962			0.902925			0.084953			0.0675521			-0.851995			-0.051749			-0.104328			-0.0131192			0.184606			0.43062			0.593081			-0.775802			0.583357			-0.129416			-0.327043			0.119112			0.0705767			0.777648			0.0945803			0.474164			-0.576602			0.752877			0.157532			-0.976318			0.0940352			0.542351			-0.186271			0.0944683			-0.672815			-0.865195			-0.358346			-0.151081			-0.10428			-0.341342			0.535204			0.673426			0.0489329			0.787479			-0.145542			-0.126655			0.271743			0.258			-0.159699			-0.482174			0.143272			0.569881			0.473642			0.902724			-0.532111			0.756453			-0.712462			-0.565831			0.424974			-0.093391			-0.137418			-0.653128			-0.14784			-0.206381			0.385374			-0.662982			0.0870426			-0.372526			0.395805			0.305972			0.601733			0.4557			-0.472574			0.0452453			0.139556			0.380727			-0.0577779			0.107867			0.478399			-0.876257			0.733138			-0.293031			-0.578078			-0.103855			0.610987			0.34228			0.267174			0.24095			-0.0402896			-0.18226			0.0971521			0.225535			0.025657			0.336655			-0.102706			0.0377483			0.77953			0.134719			-0.857286			-0.565317			
0.829457			-0.69529			0.210537			-0.00496848			-0.980418			-0.390062			0.107057			0.127202			0.439594			0.311001			-0.24937			0.785491			-0.246908			0.0930287			-0.0536475			-0.249701			-0.451771			0.215823			-0.329436			0.262718			0.0470319			-0.285119			-0.032664			-0.140888			0.46427			0.233244			0.0876954			0.299016			0.0714409			0.0184018			0.164828			-0.359988			-0.184558			-0.548305			-0.29349			-0.207827			0.700206			0.798563			0.611167			-0.042871			-0.216574			0.0177051			0.51867			0.389902			-0.647182			0.411013			-0.248216			0.0481859			0.0538857			0.334522			0.00106668			0.119871			0.311065			-0.192807			-0.187442			-0.541691			0.105769			-0.0299696			-0.145064			-0.50853			0.179251			-0.472649			0.474077			-0.556824			0.363154			0.11611			0.744923			0.144779			-0.169955			-0.686137			-0.0886741			-0.210652			-0.16126			-0.00076372			0.133677			0.351717			0.457987			0.296246			-0.478148			0.424747			-0.935485			-0.163043			-0.0959306			0.0896121			-0.789944			-0.176946			0.549366			0.279601			0.161972			-0.264166			0.189271			0.345087			0.550296			0.586243			0.0688012			-0.193595			-0.124503			-0.476707			-0.716287			0.541406			
0.225928			0.391854			0.307811			0.704996			-0.00974823			0.413255			-0.220488			-0.0265626			0.646507			-0.160061			-0.301746			-0.485277			0.415143			0.685346			-0.622118			-0.330294			0.288519			-0.233361			-0.606441			0.73919			-0.376472			-0.427091			-0.212855			0.195511			0.641132			-0.795801			0.515499			0.00715711			-0.0861254			-0.527966			0.0361076			0.370878			-0.248678			-0.356614			0.439071			0.0277904			0.386792			0.0171263			0.298071			-0.817184			0.52949			-0.305848			-0.731023			0.674435			-0.0960682			0.313891			0.613641			0.700582			0.0742307			0.408188			-0.569867			-0.525205			0.0991634			-0.261615			0.179707			0.01817			0.155155			-0.995025			0.375283			-0.443712			0.217142			0.713287			-0.777966			0.0765063			0.404237			-0.941712			0.547491			0.14832			0.122803			0.229771			0.0370147			-0.281131			-0.500248			-0.591017			0.299172			-0.532915			0.306647			-0.848409			-0.915333			-0.610083			-0.0437547			-0.110749			-0.728798			-0.343984			-0.268367			0.00632238			0.032897			-0.630523			-0.392188			0.292537			-0.701282			-0.682277			0.276051			0.0678806			0.302947			-0.521027			0.252734			-0.18052			-0.838455			0.321322			
0.0379032			0.531209			0.762676			-0.320831			0.0187906			-0.251247			0.378277			-0.221886			-0.0627659			-0.255632			-0.0566306			-0.642416			-0.916407			-0.542561			0.575997			-0.844369			-0.216482			-0.158474			-0.51607			0.127507			-0.794112			-0.409505			-0.550555			0.486545			0.414843			-0.655842			-0.176086			0.299997			0.117664			-0.48784			-0.243858			-0.120258			0.0443905			0.108083			-0.506266			-0.176934			-0.766957			-0.208786			-0.934208			-0.281773			0.139477			-0.94757			-0.53996			-0.867221			-0.000867996			0.391076			-0.554665			0.907173			0.0985907			-0.189006			0.741285			-0.00517981			0.467041			0.498242			0.0371374			0.397185			0.193199			0.175382			0.340464			0.021787			-0.619161			-0.670063			-0.014303			-0.162165			-0.287237			-0.416097			0.926544			-0.612523			-0.391909			0.371408			-0.0239777			0.14731			-0.00882316			-0.23653			-0.595245			-0.163918			0.516472			-0.326291			-0.12841			-0.415105			-0.634186			-0.786441			0.285468			0.690989			0.16047			0.190896			0.46879			0.269114			0.347742			0.0219272			0.751867			-0.872213			-0.258043			-0.450532			0.666084			-0.470038			-0.595378			0.0151583			0.982462			-0.199697			
0.361343			0.49001			-0.115458			-0.395847			-0.0569054			0.455962			0.451396			-0.818762			0.500199			0.675341			0.404675			0.0314489			-0.667527			-0.172904			0.0824479			0.806259			0.552631			-0.498181			0.983131			-0.299429			0.231687			0.68971			0.468094			0.799965			-0.036207			-0.518833			0.70413			-0.207753			0.336005			-0.219302			0.0836761			0.0282119			-0.452257			-0.163486			0.225124			0.558999			-0.362826			-0.0338917			0.0707818			0.212227			0.609357			-0.593447			-0.336358			-0.597133			-0.21256			0.0333801			0.183912			-0.160484			0.140452			0.138344			-0.176044			0.398977			0.780503			-0.0447018			-0.0205807			-0.246797			0.367449			-0.100071			0.922603			0.754013			-0.889978			-0.214954			-0.317412			-0.3631			-0.406016			-0.221798			-0.371101			-0.30083			0.599802			0.0212621			-0.847406			-0.0578249			-0.552274			-0.225065			0.527577			0.373899			-0.272374			0.115657			-0.181449			-0.254752			0.240766			-0.0735563			0.446515			-0.240077			-0.219638			-0.331981			0.425663			-0.076923			-0.183228			-0.28343			0.49288			-0.851596			-0.434671			-0.270914			0.818876			-0.422262			-0.666072			-0.0813251			-0.256838			-0.657799			
-0.461327			0.210108			0.0318687			-0.166459			-0.332263			0.120785			0.713539			-0.980014			-0.331397			-0.641769			0.566182			-0.166927			-0.236749			-0.303782			-0.29984			0.503395			0.20346			0.127771			-0.363864			0.323755			0.340817			0.0479467			-0.105766			-0.376952			0.171303			-0.496097			0.0997014			-0.28102			0.109044			-0.238333			-0.337748			-0.283435			-0.624937			-0.0467877			0.123977			0.126662			-0.374389			-0.900509			0.51434			0.192862			-0.0966389			-0.152827			0.389437			0.514908			-0.219868			0.46906			-0.589445			0.157835			0.366792			0.75232			-0.00179034			-0.292567			-0.509211			-0.0959017			-0.131318			-0.634107			-0.360763			0.465788			-0.223544			-0.552867			-0.660478			-0.137097			-0.605826			0.432636			-0.832509			-0.514655			0.815774			0.37851			-0.0194332			0.390805			0.669538			0.12328			0.406437			0.561136			-0.583718			0.591791			0.12315			0.156605			0.00431069			0.366928			-0.0955545			-0.798899			0.363492			0.0934655			0.451958			-0.221381			-0.33914			0.832404			0.130334			-0.267441			-0.430061			-0.420317			0.563727			0.130055			0.16496			0.059499			-0.199321			0.356369			0.345322			0.0923058			
0.344174			0.31325			0.258325			-0.0911359			-0.0419697			-0.732235			-0.207177			-0.975905			0.236251			-0.0974104			-0.338599			-0.214616			-0.328924			-0.261561			0.341104			0.504883			-0.0217058			-0.541366			-0.22704			0.28294			-0.506625			-0.619329			-0.653662			-0.599251			0.131855			0.422141			-0.0808014			0.171527			0.635526			0.747956			0.87671			0.0543885			-0.427677			0.30924			0.0845274			-0.164687			-0.225707			-0.448582			0.0246805			-0.0831131			0.634254			0.842684			0.996236			0.948083			-0.146499			-0.0576968			-0.0989053			0.212146			-0.72901			0.0156261			0.692109			-0.408947			-0.569158			0.120743			0.202483			0.397505			-0.460397			-0.600257			-0.497382			-0.320229			0.452646			-0.291544			0.905274			-0.639455			0.0816643			-0.609007			-0.281976			0.113654			0.582498			0.37544			0.59169			-0.0052975			-0.252449			0.26091			-0.00364168			-0.0297788			-0.830889			-0.626994			0.0467716			0.421389			0.515225			0.278764			0.687217			0.331893			0.0449903			0.085952			-0.686031			0.712699			0.0488487			-0.556928			0.00125724			0.250637			-0.436525			-0.197336			-0.299218			-0.427218			0.0140242			-0.0568296			0.828736			0.630517			
0.503397			-0.72046			0.718799			-0.0359065			0.0285704			0.748048			0.445073			-0.673754			-0.348805			-0.11757			0.144075			-0.418705			-0.0321754			0.740053			0.198751			-0.0499651			0.933596			-0.0928628			-0.283208			-0.765248			-0.436442			-0.116781			-0.777537			-0.0745936			0.411636			-0.405651			-0.58772			0.5724			-0.449114			0.0920021			-0.331258			0.746267			-0.177176			-0.680829			-0.543145			-0.498489			0.110419			0.639745			-0.573588			0.381724			-0.0818873			-0.654074			-0.446807			-0.141208			0.162695			0.0893458			-0.26438			0.384954			0.651213			0.221166			-0.291097			0.559668			0.0929795			0.553789			-0.75137			-0.285032			-0.870104			0.550795			-0.432165			-0.1903			-0.25983			0.28943			-0.51171			0.567291			-0.375561			0.717173			0.181575			0.281998			-0.451934			0.215881			0.152803			-0.455132			-0.189057			0.181146			-0.710811			0.0993859			-0.101936			-0.360686			-0.671936			0.106319			0.0367079			-0.454735			0.249458			0.660891			0.349279			-0.266032			0.111646			0.454788			-0.121667			-0.117521			0.856306			0.0265374			-0.0364307			0.0214566			-0.1246			-0.418172			0.268986			0.208703			0.0369468			-0.398297			
-0.426722			0.149771			-0.368433			-0.271753			-0.0448814			0.55516			-0.633559			-0.859424			-0.931073			-0.855674			-0.194767			0.483338			0.459393			-0.299419			-0.440677			0.456089			-0.592481			-0.0276848			0.990889			0.349027			-0.0629692			-0.612143			0.376118			0.429601			-0.312206			0.125562			-0.0721908			0.400253			0.241531			-0.29155			0.393021			0.087108			0.219545			0.301229			0.484134			0.410075			0.353729			0.233494			0.892833			-0.201938			-0.623361			-0.411334			0.582572			-0.112571			-0.325837			0.16157			0.156829			-0.715649			0.0994181			-0.379941			0.655615			-0.525597			0.452108			0.32669			-0.298066			0.40788			0.803961			0.177688			0.36234			0.140112			0.92586			-0.243289			-0.111799			-0.051377			0.983805			-0.162345			0.975006			-0.32642			0.948212			-0.110507			0.596964			0.12436			-0.365457			0.141585			0.292562			-0.580778			0.504517			-0.0140793			0.771571			0.800485			-0.232958			0.243985			0.120137			0.504488			-0.0582144			-0.227952			0.0957273			-0.133598			-0.856093			-0.48315			-0.358267			0.074847			-0.944674			0.451217			-0.120357			-0.0393682			-0.0704845			-0.242778			0.734558			-0.349467			
0.0934743			-0.100311			0.48541			-0.349403			0.354768			0.333501			-0.775369			-0.274872			0.204651			0.0477766			0.104502			-0.409361			0.551983			0.311782			0.256417			-0.542077			-0.5236			0.781903			0.281875			0.16725			-0.692353			0.49235			-0.388865			-0.226256			0.718867			-0.0906991			0.529564			-0.514508			0.681419			-0.492985			-0.427535			-0.225308			-0.546729			-0.00658926			0.0859302			0.102093			0.0608427			0.835426			0.455548			0.905253			0.641882			-0.169008			0.151994			-0.475416			0.472663			0.621434			-0.32524			-0.698845			0.79823			-0.0701216			0.754762			-0.354622			-0.451346			0.0303015			0.429715			0.112527			0.256971			-0.34627			-0.522535			-0.759697			-0.195888			0.323676			-0.151721			0.318395			0.275608			0.296467			-0.324715			0.523602			-0.229482			0.90608			0.443119			-0.685108			0.292347			-0.647005			-0.051075			0.0873913			0.915528			-0.251899			-0.336518			-0.0673299			0.0507134			-0.10886			0.245146			0.613719			-0.0980787			-0.164988			0.26808			-0.592145			0.4681			0.0779575			-0.028531			-0.662255			-0.254271			0.155794			0.787697			-0.0933022			-0.678011			-0.3087			0.945662			-0.804461			
-0.173621			0.266503			0.364794			0.166067			0.216068			0.719158			0.0689664			0.0792386			0.03645			-0.110596			-0.0705315			-0.05899			0.129712			0.432694			-0.778118			-0.13954			-0.191342			-0.474018			0.381119			0.683046			0.185849			-0.433394			-0.893426			-0.0664862			-0.278314			-0.188826			-0.151528			-0.653881			-0.122016			-0.0306877			0.221598			-0.972804			0.789652			-0.124398			-0.66145			-0.237393			0.0497079			0.00387312			-0.13597			-0.0581741			-0.177037			0.0605864			-0.251589			0.761546			-0.719385			-0.23387			0.121122			0.145712			0.272073			-0.191754			-0.0610357			-0.229648			0.578218			-0.0973118			0.0202193			-0.339938			-0.517696			0.383653			-0.225007			0.00320385			0.143289			-0.284272			0.314452			-0.0724132			0.302913			-0.509007			0.847506			0.485448			-0.112771			0.748926			0.234753			-0.837372			0.205044			0.159832			0.499306			-0.214476			0.00742927			0.439755			-0.358648			0.156126			0.844742			-0.0943252			-0.419811			-0.181303			0.151495			-0.817336			0.213588			-0.431948			0.182792			-0.0362794			0.587444			0.0264242			0.286105			0.67817			-0.406168			0.227398			-0.129244			0.747246			0.316765			-0.0598835			
-0.329111			0.419752			0.307776			-0.261487			-0.567398			-0.635016			-0.782915			-0.682485			-0.476084			-0.605147			-0.171656			0.87009			0.129365			0.158853			-0.517386			0.729746			0.0627532			-0.197705			-0.394817			0.131722			0.215303			0.275239			0.443392			0.697052			-0.385933			-0.1916			0.0198521			0.12656			-0.209163			0.436221			-0.185676			-0.904536			0.188696			-0.859325			0.483606			0.99162			0.47918			-0.177818			-0.013295			-0.399221			0.0678416			0.606503			0.107813			0.966964			0.214257			-0.215631			-0.739985			-0.146315			-0.680664			0.113358			0.111106			-0.461723			-0.566736			-0.00736879			-0.104727			-0.850906			0.50356			0.57082			-0.296562			0.286494			0.66961			-0.0719359			-0.0608874			-0.371609			0.470459			-0.419238			0.273339			0.179065			-0.238622			0.822352			0.0449662			-0.150877			0.318334			-0.132608			-0.171178			0.274778			-0.580224			0.837286			-0.501951			-0.314875			-0.422135			-0.550145			0.18287			-0.895532			0.0933881			-0.139076			0.780856			0.125867			0.378707			-0.141147			-0.44497			-0.0504063			-0.470182			0.112087			-0.295075			-0.0162843			-0.341388			0.546977			-0.671885			0.356398			
-0.480323			0.493085			-0.185931			0.427593			0.591124			-0.733313			0.343347			-0.174792			0.881806			-0.167072			0.666968			-0.391972			0.548593			0.0493858			0.389427			0.364322			-0.414434			0.0401992			0.240254			0.337815			-0.19827			-0.464986			0.215012			-0.0781571			-0.593404			0.686134			0.740778			-0.195838			0.428046			-0.0455451			-0.829027			-0.204067			-0.432222			0.434615			-0.246863			-0.468837			-0.156301			-0.432753			0.85631			0.610197			0.884914			0.888468			0.186737			-0.24499			0.0874605			0.555508			0.620464			0.0920633			0.290143			-0.559925			-0.449062			-0.0667519			-0.383997			0.0787645			0.334937			-0.30065			0.854647			0.436336			0.576212			-0.0164112			-0.533893			-0.767287			0.350569			0.863413			-0.119494			-0.284972			0.286458			0.936			-0.0299184			-0.131461			0.561385			0.251797			0.266464			-0.760657			-0.0266863			0.683494			0.381756			-0.546179			-0.281434			0.340131			-0.204609			0.754432			0.218823			0.219193			0.151939			0.263894			-0.801434			-0.0371156			-0.899818			-0.665949			0.34935			0.309739			0.0918139			-0.391138			0.168091			0.482449			-0.156284			0.353474			-0.7441			0.666221			
0.459816			-0.0138325			-0.0536162			-0.458322			-0.227005			0.283109			-0.224119			-0.725267			-0.471496			-0.0748568			0.597688			0.519675			0.132502			0.195304			0.417158			-0.510122			0.155153			-0.327956			0.277954			0.605408			0.302105			0.491567			0.658785			0.563986			-0.437488			0.615097			0.0701915			0.195782			0.508889			-0.187166			0.407426			0.0415058			-0.124			-0.155828			0.796053			0.294019			0.36845			0.105793			-0.295054			-0.00402856			-0.845133			-0.294264			-0.0106565			0.116594			-0.675434			-0.652894			0.0839843			0.215014			-0.723789			0.211091			-0.0449189			0.0333269			-0.0900977			0.502892			0.493163			-0.60114			0.120537			-0.516318			-0.0861569			-0.187246			0.39403			0.271349			-0.0541121			0.716445			-0.0554875			0.436542			0.517484			-0.219312			-0.372266			0.0425562			0.6523			0.229266			-0.763435			0.250437			-0.264897			-0.783063			0.976817			-0.0471944			-0.617036			0.412999			0.32187			0.380183			0.208808			-0.627647			-0.120317			0.270845			0.464135			0.234326			0.531236			-0.0317642			-0.124697			-0.368198			-0.53584			0.425869			0.508648			-0.33434			0.390392			-0.219956			-0.408231			0.638709			
-0.51715			0.380588			-0.227409			-0.117765			-0.882302			-0.432887			0.0193154			-0.132205			-0.831207			-0.502053			0.577847			-0.297691			0.311194			0.402801			0.474272			-0.263277			-0.0422307			-0.152916			0.984743			-0.881245			0.187912			0.199062			-0.494971			0.161845			0.33464			-0.158048			-0.36592			-0.581688			0.761555			-0.458297			0.506813			0.300978			0.655275			-0.145749			-0.072242			-0.20794			-0.0501669			-0.483249			-0.349914			0.00751951			-0.0669407			0.809812			-0.691966			-0.888506			-0.0780214			0.671734			-0.57912			-0.0501518			0.538081			-0.72416			-0.86484			-0.15562			0.0167293			-0.0331788			-0.610393			-0.962452			-0.201625			-0.482631			-0.393758			-0.00966565			0.11361			0.410388			-0.15541			-0.233392			0.664376			-0.429619			0.105234			-0.367954			-0.0503856			-0.0247547			-0.332495			-0.160965			-0.655257			-0.60045			0.463353			0.422403			0.544294			-0.0894723			0.331033			-0.419003			0.293907			0.639398			0.27056			0.494326			0.472375			0.913871			-0.649101			0.0514364			0.011744			0.270563			0.38058			-0.0997898			0.00260295			0.419499			-0.547784			-0.516097			0.635469			0.389255			-0.457029			-0.0896475			
-0.140543			0.500783			0.0411189			0.264607			0.00930888			-0.285499			0.506063			-0.600278			-0.531725			-0.500318			-0.555476			-0.0484777			-0.225746			0.420078			0.599624			0.4318			0.423761			0.95675			0.363761			0.501022			-0.775676			-0.537004			0.512443			-0.763145			-0.600523			-0.255728			-0.790961			0.416277			0.0233909			0.228969			0.0795857			-0.134359			-0.709777			0.660772			0.400801			0.306638			-0.0146928			-0.148821			0.0219993			0.267051			0.404996			0.209276			0.094019			-0.425606			0.14794			0.358677			-0.103645			0.340359			0.254661			-0.46502			0.236645			-0.644958			-0.283652			-0.0177462			0.633842			0.812363			-0.0996894			0.568303			-0.8211			-0.750502			0.0561512			0.0732			0.237806			-0.2751			0.130233			0.25656			0.0696141			-0.404453			0.62102			-0.355126			0.47569			0.727179			-0.142569			-0.247194			-0.441517			-0.385474			-0.00474855			0.412055			0.393832			0.750481			0.153408			0.452929			0.113743			-0.27584			-0.1121			0.803275			0.117727			-0.336409			0.294888			0.0784871			0.0657513			-0.179688			-0.369532			-0.0315543			0.983948			0.134445			0.710178			0.207735			-0.0959136			-0.90586			
0.495796			-0.294045			0.00906581			-0.157301			0.256784			-0.0150541			0.483692			-0.00684525			-0.487016			0.153332			-0.0171947			-0.741344			0.881567			0.813994			-0.0247092			-0.187433			0.147623			0.240472			0.353734			-0.493292			-0.364994			0.584948			-0.523977			-0.539802			0.0916381			-0.000320895			-0.473859			-0.226515			0.530079			-0.0563741			-0.118264			0.128456			0.0143302			0.146468			0.214775			-0.00944544			-0.503802			0.642683			-0.270538			-0.0239095			0.238137			-0.88392			-0.489646			-0.533569			0.479997			-0.414632			0.173008			0.526902			0.512335			0.382044			-0.419202			0.204389			-0.427958			-0.0647004			-0.40812			-0.220911			-0.169954			0.904785			0.670718			0.157796			0.0879104			0.959228			0.962035			-0.00508803			-0.510174			-0.0966822			0.819631			0.0834289			0.648757			0.775228			0.587612			-0.958043			-0.172674			-0.658061			0.148093			-0.28777			0.623715			-0.204517			0.127578			0.929807			0.489422			-0.0662856			-0.314932			0.552073			0.123477			0.879698			-0.358061			-0.17765			-0.57877			0.674468			-0.942654			0.808381			0.179198			-0.633638			-0.074777			-0.0973867			0.272145			-0.831337			0.0616029			0.202558			
0.862645			-0.230342			0.106556			0.169012			0.216481			-0.736914			-0.689727			-0.594349			-0.0694225			0.206554			-0.168759			-0.330251			0.0918815			0.464653			0.292931			0.0774681			-0.588444			0.38803			-0.641058			-0.569881			-0.0334219			-0.264641			0.507315			0.575512			-0.429159			0.0642942			0.169511			-0.152507			0.0761156			-0.694135			0.554736			-0.162453			-0.512098			-0.254551			-0.517854			-0.880036			0.485385			-0.378942			0.0105189			-0.152394			-0.0750667			-0.547702			-0.839256			0.430065			0.47877			-0.570778			0.478858			-0.134709			0.431023			0.0367848			0.451785			0.184303			0.884375			-0.129474			0.147888			-0.268874			-0.0659251			0.673599			0.306377			0.638898			0.034982			-0.427945			-0.21639			-0.149934			0.479051			-0.578026			-0.0498705			-0.620704			0.341479			0.0281384			0.200084			-0.581713			-0.831535			0.693578			-0.116081			0.302524			0.175023			0.773863			-0.0513619			0.628115			0.255351			-0.1598			0.635515			-0.0454214			0.230889			0.614649			-0.509551			0.688065			0.0815962			0.539541			-0.397692			0.357412			-0.112622			-0.483125			0.493195			-0.847584			-0.885479			0.404476			-0.488042			0.262094			
-0.328611			0.276751			-0.116873			0.620098			0.0815084			-0.276196			0.0550187			0.107613			-0.920195			-0.685481			-0.415109			-0.318927			0.960343			-0.573139			0.0659224			-0.0291906			-0.869778			-0.794322			-0.0527127			-0.164445			0.967548			-0.846221			-0.195597			0.874241			0.086626			-0.0664956			0.23322			0.321638			0.294771			0.126848			-0.377431			0.184576			0.365941			0.117183			0.452452			-0.848686			0.191947			-0.97191			0.265474			0.73758			0.296402			0.191624			0.243927			0.102117			-0.818986			-0.144602			-0.296552			-0.32827			0.221197			-0.774125			0.345967			0.634659			0.227055			-0.768954			0.845988			0.37729			-0.132823			0.716428			-0.650793			0.0654874			0.372207			-0.296907			-0.385254			0.121495			-0.657045			-0.863192			0.10314			-0.645312			-0.147475			0.466861			0.635501			-0.265626			0.162444			0.439655			-0.441676			0.480441			0.0869633			0.378839			-0.648284			0.402864			-0.159612			0.646056			0.359104			-0.336898			-0.0829514			-0.153038			0.370159			-0.28786			0.162006			-0.105357			-0.429783			0.373958			0.505726			0.104095			-0.276451			-0.373874			-0.493346			0.420694			-0.689218			0.829759			
0.513755			-0.300075			0.588204			-0.144737			0.38992			-0.573302			0.462521			0.580362			-0.242142			-0.169336			0.184573			-0.660792			-0.288078			0.34494			0.556014			-0.111137			-0.304524			0.0995666			-0.122784			0.541478			0.313963			-0.577176			-0.188978			0.535882			-0.185147			0.220867			-0.0935986			0.152284			-0.0718146			0.694743			-0.125733			-0.620989			-0.427272			-0.288853			-0.295038			0.0175417			0.438065			-0.161817			-0.32034			-0.583991			-0.0715461			0.426399			-0.815248			0.711125			-0.54295			0.881702			-0.166469			0.583059			0.0410793			-0.254345			-0.0389942			-0.315816			0.21148			0.97719			-0.403926			-0.137876			0.106365			-0.23836			0.157378			-0.447438			-0.48731			-0.218257			-0.058545			0.322394			0.180014			0.192015			0.717478			-0.573336			-0.547873			0.196228			-0.548275			0.178622			0.0936518			-0.64334			0.207029			0.574956			0.551171			0.198537			0.894781			0.356628			-0.632215			0.125551			-0.306428			0.0145884			-0.0671395			0.0442778			0.219053			-0.0749384			-0.0345775			0.203196			-0.104349			-0.796474			0.277983			-0.209245			0.436572			-0.424461			0.250205			-0.495958			0.216135			0.82685			
-0.418686			0.371616			0.319506			0.445134			0.203823			0.918124			-0.139503			0.42712			0.749542			-0.257692			-0.279048			-0.172912			-0.00203957			-0.689142			0.590914			-0.168022			0.851045			0.72304			-0.791759			0.280993			0.31822			0.904972			0.262538			-0.151494			0.298265			0.0158252			0.288579			-0.501497			0.588316			0.734105			-0.025597			-0.908283			-0.799089			0.839973			-0.152248			-0.411752			-0.794079			-0.512204			-0.66363			-0.525317			-0.716156			-0.591115			-0.702571			0.397734			0.0126214			-0.667988			-0.018638			0.136675			-0.145899			0.073759			0.250935			0.895107			0.463172			-0.0270375			0.341699			0.775422			-0.147513			-0.596923			-0.226229			0.129316			-0.20134			-0.0530231			-0.349859			0.0966842			-0.685099			0.345212			-0.278897			0.413986			0.344281			-0.273132			-0.253554			-0.910403			0.710764			0.460799			0.253059			0.199143			0.40168			-0.344198			0.849471			-0.358701			-0.358395			0.799116			0.287458			-0.710285			0.33214			-0.473906			0.393551			0.379984			-0.894417			-0.841604			0.18008			-0.0882259			-0.940258			-0.797181			-0.190692			-0.655856			0.578877			0.117499			-0.294268			-0.144289			
0.149451			0.305908			-0.0476841			-0.422047			0.421194			-0.59647			0.497195			-0.92825			0.180706			-0.559313			0.119219			0.498889			-0.12292			0.121379			0.143699			-0.240118			0.0326269			0.244361			0.686757			-0.697092			-0.0822239			-0.139608			0.0538779			0.202292			-0.636552			0.452086			-0.580049			0.589701			-0.546161			-0.284739			-0.654878			-0.262069			-0.137779			0.536639			0.436515			0.120023			0.184828			0.715208			-0.344539			0.426348			0.530083			0.371752			0.839919			0.412134			0.102994			-0.586706			-0.506367			-0.0829147			-0.260936			-0.110165			-0.122844			0.069067			0.939904			-0.534609			0.576652			-0.831064			0.67428			0.0982389			0.519005			-0.803395			0.203252			-0.639779			0.142483			-0.263106			-0.511815			0.831307			-0.171445			0.0257826			-0.502753			0.416126			-0.0886232			-0.110694			-0.0393046			0.259108			-0.377384			-0.86498			-0.329399			0.0495667			-0.292409			0.779777			0.888732			0.974628			-0.0436426			-0.498998			0.0377477			-0.0239933			0.400515			-0.083249			0.172622			-0.375343			-0.506996			0.238569			-0.0519148			0.736372			0.483452			-0.413097			0.370631			0.448821			-0.128071			-0.630519			
0.324316			-0.152061			-0.0759382			-0.453729			-0.555717			0.142332			-0.0465753			0.245585			0.57787			0.879556			-0.282386			-0.0547699			-0.456538			0.0857728			0.0156837			0.0721197			0.0989619			0.290672			0.13384			0.264005			0.574149			0.303446			0.00656003			0.75735			-0.466485			-0.210372			-0.380944			0.240869			0.17714			0.582595			-0.0391683			-0.241024			-0.256626			-0.368369			0.756986			0.0532432			0.0449823			0.499716			-0.257259			-0.232393			-0.0963679			0.435232			0.351714			-0.343256			-0.368343			0.0910797			-0.879455			0.451811			0.0282862			0.411225			-0.0104994			-0.664627			-0.236864			0.948653			0.677884			0.490185			0.0619587			0.806674			-0.39834			0.0710309			0.138729			-0.202207			-0.536884			0.214724			0.482563			-0.191616			-0.256391			0.311141			0.885043			-0.338177			-0.378265			0.735385			0.431808			-0.725891			-0.187479			-0.165869			-0.931511			0.1996			-0.204212			0.0438249			-0.0609528			-0.252596			-0.775578			0.0992177			-0.710576			-0.177903			-0.756754			-0.222986			0.277765			0.55329			0.69528			0.485768			0.504888			-0.837776			0.583399			-0.586135			0.770503			0.237749			0.269842			-0.410338			
0.144721			0.0688742			-0.0487683			-0.316306			0.425455			-0.661191			0.44453			0.919541			-0.383572			-0.194207			-0.491382			0.0258468			0.192387			0.531611			-0.253697			-0.28666			0.228635			-0.489022			-0.618647			-0.730459			0.323963			0.0198629			-0.287496			0.00346577			0.834555			-0.00714684			0.460544			-0.710154			-0.00137694			-0.132959			0.136384			0.553162			-0.196361			0.042255			0.976574			0.489253			0.77122			0.148086			-0.121718			-0.631266			0.354538			0.180664			-0.47564			-0.288652			0.137849			-0.54135			-0.152687			-0.383202			0.63465			0.939757			-0.243235			0.0424253			-0.236662			-0.624513			-0.568875			0.22826			0.0728653			-0.0397622			-0.439691			0.389431			0.305399			-0.856515			-0.431588			-0.129465			0.796104			-0.396094			-0.893483			0.120767			-0.388631			0.248221			-0.00024559			-0.0150885			-0.301429			-0.443718			0.566113			0.334671			0.0074042			-0.165558			-0.271998			0.170072			-0.390939			0.0509308			-0.00611855			-0.453368			0.0422709			0.336239			-0.289271			-0.205511			0.0194608			0.459371			-0.56063			-0.208538			-0.135514			-0.172959			0.192963			-0.254118			0.300497			-0.0835361			0.549851			-0.164207			
-0.527542			0.540455			0.362454			-0.0807335			0.707916			0.517125			0.155785			-0.437631			-0.429075			-0.326664			0.382029			0.736096			0.928668			0.335385			0.682606			0.00842836			-0.36185			-0.520412			0.625787			0.520277			-0.517095			-0.159257			0.380228			0.366713			0.243156			0.0402872			0.117852			0.269794			-0.278225			-0.261524			0.023643			-0.0425372			0.035689			0.467212			0.534997			-0.337893			0.0168928			-0.305473			-0.480498			-0.0582384			0.00915209			-0.230119			0.0828225			0.208927			-0.0865801			-0.0632343			-0.287691			-0.833111			0.0821086			0.139314			0.325117			0.657447			-0.818334			0.594762			-0.240467			-0.524335			0.201046			0.122602			-0.920401			-0.259582			0.915412			-0.0152991			0.448503			0.126525			-0.030854			-0.0777289			-0.159846			0.271115			0.240933			-0.584959			0.235694			0.0431328			-0.612327			0.153082			-0.609174			-0.0596129			0.868695			-0.758274			0.846915			-0.0128365			0.810318			-0.322726			-0.665681			-0.204466			-0.288259			-0.481892			0.0808624			0.245444			-0.149765			0.607814			0.550461			-0.530971			-0.308666			0.471899			0.570206			0.280783			-0.0621176			-0.3459			0.448491			-0.399559			
0.379525			-0.72367			-0.415275			-0.971817			0.350602			-0.361616			0.19969			-0.196684			-0.0463566			-0.221751			-0.0506953			0.0867035			0.0769122			-0.0013862			-0.0376533			0.240875			-0.235224			-0.0523072			-0.238851			0.097823			0.391204			0.0286091			-0.017954			-0.190124			0.262852			-0.237173			0.218773			0.631631			0.0521165			0.234154			0.337039			-0.548914			-0.0121689			0.256634			-0.0715744			0.457303			0.231186			0.542541			0.0203836			0.109219			-0.0254275			-0.508706			-0.706263			-0.305157			-0.773064			0.181695			0.449376			0.164832			-0.272298			-0.0977902			-0.00478926			0.288791			0.345517			0.270846			-0.452181			-0.0430607			-0.114983			0.573622			0.53728			-0.434458			0.344454			-0.760209			-0.350865			-0.116567			-0.420734			-0.331418			-0.526525			0.197725			0.236028			0.111514			-0.144825			0.169312			0.230016			0.470357			0.578034			0.895555			-0.187337			-0.0136418			0.158352			-0.285539			0.310126			0.429042			-0.647732			-0.0876001			0.682396			-0.331147			0.268687			-0.45829			0.0902462			-0.658774			0.36808			0.118934			-0.892512			-0.0688558			-0.673935			0.604445			-0.261144			-0.769497			0.679645			0.425161			
-0.254325			-0.00892062			0.108385			0.225369			0.780996			0.0104518			0.155444			0.318767			-0.779266			-0.195517			-0.227885			-0.376308			-0.184488			-0.161954			0.231094			0.00748469			-0.466			0.144124			0.0707672			0.293622			-0.42734			-0.704933			0.218814			-0.474866			0.296232			-0.760714			-0.0706556			0.133857			0.156182			0.0339061			-0.736338			0.178047			0.114342			-0.100389			0.222916			0.664517			0.103338			-0.499709			0.202617			-0.410539			-0.200649			-0.543984			0.545523			0.778947			-0.0901807			-0.817423			-0.332785			-0.263474			-0.0807268			-0.169568			-0.765735			-0.224374			0.870961			-0.0523386			-0.430833			-0.337026			-0.0540291			-0.909836			-0.958145			-0.0661581			-0.317037			0.67587			0.584804			0.215818			-0.021645			-0.812301			-0.382166			-0.0443562			0.487865			-0.276312			-0.0265858			0.443043			-0.0597097			0.434488			-0.0610932			0.848247			-0.0963287			0.525758			-0.459328			0.231246			0.495852			0.223866			-0.327924			-0.0838276			0.758063			-0.252536			0.185948			-0.502551			-0.133494			0.519144			-0.0441437			0.140105			-0.380748			0.330819			0.781753			-0.53701			0.471097			-0.264579			0.756052			0.158436			
0.303614			0.345807			0.184275			-0.0404961			0.376953			0.419465			-0.028361			-0.393391			-0.364728			-0.0499585			-0.610933			-0.108645			0.86974			-0.0853153			-0.265441			0.228913			-0.508553			-0.632852			-0.594967			0.026158			-0.0566077			-0.199866			0.107431			0.0879876			0.153025			0.461889			-0.402956			-0.304823			-0.379538			-0.116877			0.365532			0.0831459			-0.0680469			-0.0666427			-0.322454			-0.000464653			0.71935			-0.403459			0.350071			0.0764928			0.235779			-0.0278144			0.604934			0.409574			-0.452306			-0.399342			-0.757446			0.226965			0.153227			-0.304859			0.428946			-0.151706			-0.324617			-0.664567			-0.777367			0.68448			0.591428			-0.491802			-0.661715			0.331472			0.611684			0.365241			0.429556			0.0685795			-0.21292			0.190791			-0.858782			-0.716882			0.319008			0.453832			-0.349122			0.241595			-0.0193179			0.153291			0.489383			0.627859			-0.636121			-0.171431			-0.905625			0.780587			-0.586038			0.381305			-0.648764			0.660179			0.183838			-0.158122			-0.915896			0.482427			-0.162229			-0.237105			0.247235			-0.0746326			0.0124884			-0.0429766			0.258804			-0.551728			0.0430066			0.709227			-0.241554			0.295383			
0.0735948			0.359717			0.138077			-0.073559			-0.45824			-0.304209			-0.0516645			-0.230724			-0.288069			0.423637			-0.796413			0.682879			0.509032			-0.91975			-0.0218598			-0.834778			-0.461301			-0.577319			0.638142			0.143355			-0.375068			-0.260404			-0.128785			-0.854659			-0.399995			-0.154313			-0.793057			-0.284325			0.333856			-0.589334			0.330113			0.40323			0.123168			-0.131488			0.169739			-0.440481			0.638788			-0.360561			0.806272			0.133944			0.0278327			0.00621867			-0.240075			0.871283			0.0271478			0.203196			0.103263			-0.601203			-0.179447			0.255672			-0.0248032			0.169237			-0.157801			-0.369667			-0.184028			-0.346073			-0.592622			-0.496213			-0.732907			-0.770906			0.517499			-0.175085			-0.332655			0.105847			-0.488811			0.27961			0.0690925			0.34397			-0.27505			0.255745			-0.181453			0.152705			-0.168247			0.404724			0.146557			-0.418282			0.168412			0.559636			-0.21603			0.0518298			0.698504			0.0419315			-0.539731			0.0325643			-0.517686			-0.38125			0.203527			0.397397			-0.566841			-0.37919			0.318974			0.0768533			0.109957			0.0891228			-0.597728			-0.426849			-0.273357			0.280143			0.0785728			0.250468			
0.442125			0.685111			0.226856			-0.0577538			0.355053			0.366618			0.0556247			-0.0830695			-0.23708			-0.536294			0.34513			-0.474257			0.361747			-0.310886			0.615011			-0.107487			-0.670604			-0.0420062			0.0497079			0.187129			0.190236			0.109547			0.716023			-0.304742			0.115226			-0.00959897			0.141309			-0.185728			0.666308			0.141181			0.0672483			-0.661573			-0.876724			-0.652279			-0.306464			0.0135658			-0.201615			0.336683			0.174789			-0.52167			-0.104599			0.226343			0.952913			-0.790404			0.374102			0.0577683			0.214906			-0.687011			0.174247			0.0015337			0.10964			0.372845			0.831517			-0.489904			0.343843			-0.301407			-0.292067			-0.633301			0.2803			-0.297836			0.437348			-0.0833933			-0.17703			-0.851734			0.226283			0.058126			0.348239			-0.417188			0.135806			0.276855			0.263746			-0.954084			-0.538843			0.0775596			-0.578028			-0.197471			0.285111			0.110898			-0.84481			0.17299			0.229352			-0.368454			-0.287442			-0.7627			0.627509			-0.0858359			0.258405			-0.379444			0.224357			-0.8467			0.470943			-0.711671			0.738556			-0.189544			0.26899			0.482145			0.116234			-0.0676933			-0.0732786			-0.172309			
-0.22678			0.79871			-0.0150978			-0.356263			0.285154			0.0715589			0.376597			-0.252949			-0.387093			-0.280219			0.685719			-0.101133			0.504927			-0.743078			-0.691426			0.980439			0.00285876			-0.152546			-0.788417			0.478034			-0.219013			0.0593312			-0.459885			0.10097			0.568191			-0.384044			0.0158874			-0.267713			0.322916			0.481976			0.0407744			0.258168			0.148369			0.960751			-0.405521			-0.515464			-0.931434			-0.0904803			0.656958			0.0161639			0.277497			-0.471998			-0.767492			-0.822271			-0.234527			0.208261			0.277883			-0.5389			0.256985			0.428607			-0.0615238			0.470811			0.357911			-0.145154			-0.689364			-0.236797			-0.162714			-0.0760943			-0.922349			0.491052			0.113739			-0.865929			-0.169973			0.372758			-0.352619			-0.991527			-0.884907			0.207216			0.329112			0.755373			-0.00360607			0.337845			-0.0451239			-0.736789			0.16524			-0.619461			-0.200498			0.428318			0.187969			0.71594			-0.467869			-0.197893			0.023794			0.535204			0.25529			-0.282614			-0.0289354			0.112999			-0.114127			0.725524			-0.600377			0.186612			0.361334			0.0519561			-0.847402			0.244958			-0.266227			0.0608169			-0.385055			-0.463247			
-0.424902			-0.775485			0.291742			0.0688937			0.260925			0.297949			-0.283394			0.91315			-0.42724			0.0191742			0.433846			0.0366381			0.187209			-0.513125			0.628564			0.476273			0.0205055			0.704859			0.349058			0.0533677			0.0630024			0.00728053			0.137195			-0.0157913			-0.415847			0.0994452			-0.211559			0.2675			0.320159			0.947634			-0.578295			-0.328041			0.196359			-0.155952			0.119236			0.871903			0.270886			-0.549714			-0.406393			-0.23843			-0.0432786			0.0406088			-0.0381798			0.12393			-0.540351			0.591084			0.355227			0.405989			0.658395			0.445354			-0.893847			0.173063			-0.923069			-0.464042			0.159233			-0.254655			0.164288			-0.134441			0.461411			-0.224769			0.342874			-0.0125689			-0.464634			-0.57729			-0.351325			0.0866208			0.871519			-0.155702			0.483292			0.561437			-0.0105764			-0.434015			0.589526			-0.154666			0.165118			-0.307211			0.177542			-0.301367			-0.224446			0.168863			0.147636			-0.0439199			0.351339			0.329498			-0.154131			-0.837297			0.769853			-0.279308			-0.0119179			-0.905493			-0.303054			-0.267344			0.0259198			0.15755			0.237692			0.702201			-0.721024			-0.564476			0.966084			-0.551373			
0.313451			0.569129			0.230042			0.426521			0.691636			0.340027			0.34537			0.717781			0.623181			0.0179327			0.00215078			-0.154904			0.424447			-0.0070393			-0.29249			-0.0803196			-0.923032			-0.122814			0.0505079			-0.548263			-0.00945383			0.0637825			0.243388			0.151831			-0.176376			-0.0463986			0.0262561			-0.583884			-0.232699			-0.470959			-0.355353			0.545099			0.746171			-0.30326			0.326407			0.226397			-0.204988			-0.647239			-0.408143			0.256306			-0.300286			-0.38562			0.39223			0.535079			0.354262			0.0245853			-0.819552			0.583107			0.119726			0.544481			0.00758638			0.122457			-0.133378			0.0777839			-0.553156			-0.578037			-0.724688			0.100882			0.132897			0.351946			0.294354			-0.604509			0.8828			0.604899			0.77974			0.0932008			-0.458655			-0.706503			-0.0282275			-0.911212			0.0556902			0.419475			0.392522			-0.298032			-0.241304			0.264461			0.632549			0.373355			0.121161			-0.251692			-0.238913			-0.360352			0.161134			0.0757225			-0.73291			0.0968409			0.740857			0.147565			0.655698			-0.562217			0.126116			-0.750602			-0.0482204			0.0855793			0.871196			-0.495979			0.186844			0.520533			0.859256			0.458304			
0.522542			-0.598529			-0.464445			0.238097			0.416541			0.183787			-0.673295			0.0992993			-0.405832			-0.266696			-0.286492			0.468908			0.0841329			-0.736874			0.235542			0.447189			0.0556794			-0.440669			-0.521624			0.377924			0.83551			0.560944			0.212786			0.286798			-0.549215			-0.0656957			0.076693			0.457767			0.463805			0.581669			0.216116			0.139873			-0.0637026			0.0697723			0.780218			-0.28332			0.807769			0.108165			-0.394623			-0.428425			-0.0313881			0.650947			0.276018			0.461132			0.126655			-0.565025			0.627988			-0.190526			0.218556			-0.438345			-0.620892			-0.257942			0.167341			0.534499			-0.375786			0.0321989			0.0769483			-0.0326767			0.151057			-0.153165			-0.677593			-0.86424			-0.235181			0.283074			0.364577			-0.216408			0.587577			0.0464915			-0.238182			0.185654			-0.546637			-0.0351112			-0.26516			0.332401			-0.211611			-0.201436			0.165187			0.495319			0.454771			0.371841			-0.253116			0.365972			0.699574			-0.665701			-0.0923604			0.174424			-0.117214			0.080612			0.124482			-0.239688			-0.752816			-0.276299			-0.0599473			0.725207			-0.115509			-0.961826			-0.505696			0.678468			-0.266835			0.496675			
-0.0079593			0.245009			-0.355082			0.546487			-0.0369029			0.722263			-0.132136			-0.202463			-0.229695			0.229614			0.515303			0.595977			-0.251726			-0.133782			0.459925			-0.395137			0.749382			0.571008			0.704494			0.214656			-0.279125			0.762379			-0.149085			-0.324938			0.205306			-0.160582			0.170247			-0.657361			0.671651			-0.216286			-0.202428			-0.185218			0.843858			0.0668935			-0.0687856			-0.000891901			0.27897			-0.579183			-0.410813			0.0367585			-0.341146			0.230922			-0.251477			0.428307			-0.094757			0.319257			-0.19214			-0.736361			-0.540442			0.224673			0.830757			0.250995			-0.332018			-0.17998			-0.217985			0.979937			-0.282058			-0.0355974			-0.324696			-0.164241			-0.466266			0.368797			0.396997			-0.358153			-0.230187			0.666921			0.586472			-0.520898			-0.258902			0.572922			0.00115098			0.250227			0.269731			0.203807			-0.109172			-0.100963			-0.107696			-0.16343			-0.500154			-0.675918			-0.0662946			0.653046			-0.138075			0.501329			0.551089			0.169787			0.193093			-0.6038			-0.528326			-0.44707			-0.19178			0.0588437			-0.62576			-0.758285			-0.139012			0.469845			0.0671258			0.2486			-0.00316801			0.386605			
0.131636			0.39078			-0.812572			-0.379095			0.169249			-0.963201			-0.241197			-0.329286			0.916577			-0.960536			0.387718			0.453727			-0.335233			0.286145			-0.307251			-0.599886			0.250015			0.197838			0.375155			-0.232966			0.207077			0.0445765			-0.266294			0.326188			0.23606			0.941498			0.009329			-0.2557			-0.204789			-0.431668			-0.0335124			0.357664			0.118915			-0.222636			0.559998			-0.124663			-0.858576			-0.698607			-0.318747			0.122002			-0.058425			-0.456			-0.201016			-0.435689			-0.870587			0.0375791			-0.513036			-0.361478			0.108601			-0.298408			0.0621918			0.222976			-0.165984			-0.703069			0.34246			0.333746			-0.2702			0.341429			-0.0848711			0.924269			-0.272784			-0.204019			0.523183			0.141542			0.042093			0.636541			0.266259			0.175474			0.37272			0.142744			-0.0536913			-0.190599			-0.52572			-0.908812			-0.65485			-0.177217			-0.00634113			0.552332			-0.493232			-0.0306988			0.221952			-0.0200662			-0.235329			0.019477			0.125191			-0.709441			-0.156437			0.314954			0.537852			-0.149201			0.347114			0.0521925			0.258072			0.826732			-0.716959			0.518792			0.243103			0.271915			-0.000412443			0.342199			
-0.251			-0.0928505			0.871406			0.0629703			0.461866			0.358113			-0.215643			-0.319822			0.0878373			-0.0487705			-0.546989			0.428636			-0.443967			-0.357098			-0.0539152			-0.311563			-0.876549			-0.240359			0.210319			0.115572			-0.290283			-0.0079261			-0.050561			0.870937			-0.556466			-0.117521			-0.594796			-0.0272554			0.194801			-0.593969			-0.058694			-0.400284			0.0914161			-0.101737			-0.5153			-0.145596			-0.59672			0.284215			0.756305			-0.267135			-0.937033			0.13794			-0.572881			0.449065			0.761496			-0.248593			0.020456			-0.464006			-0.907985			-0.07439			0.094038			-0.640769			-0.400717			-0.282748			-0.350973			0.0754806			-0.520972			0.61954			0.376742			-0.277849			0.245495			-0.640464			-0.170524			-0.19288			-0.313518			0.155487			0.0990812			-0.0358866			0.0427577			-0.168411			-0.885638			-0.432953			-0.0542272			-0.147474			0.0711013			-0.366687			0.0168311			-0.977497			0.468536			-0.181247			0.540343			0.173931			0.0623428			0.246766			0.743504			0.368084			0.313381			0.265508			-0.479259			0.00679004			-0.543108			-0.0566074			0.165923			0.0142741			0.830763			0.200377			-0.602833			-0.419798			-0.067042			0.925601			
0.659477			-0.276244			-0.394433			-0.378499			-0.0070878			-0.262384			0.198525			0.161848			-0.601587			0.498534			0.0274548			0.3471			-0.0618912			-0.430257			0.00477621			-0.1473			0.738385			-0.0838415			0.146463			0.135814			0.289045			-0.182882			0.152799			0.346179			0.871741			-0.292571			0.191519			0.085864			-0.184467			-0.99789			0.204211			0.434358			0.757076			0.926559			0.594412			-0.539052			0.114964			-0.56982			-0.073686			-0.594589			-0.396543			-0.631921			-0.549324			-0.942208			-0.231963			0.0722481			0.690794			0.153228			-0.217635			-0.18618			0.259376			-0.892605			-0.521162			0.428679			-0.0769676			0.375932			0.25529			-0.432731			-0.233384			-0.485545			-0.344172			0.612822			0.342824			0.201516			-0.303753			0.0111418			0.285963			-0.357646			0.227775			0.742485			-0.117097			0.220325			-0.875681			-0.135154			-0.318935			-0.494347			-0.155354			-0.542874			-0.132396			0.5444			0.358635			0.17473			0.0372067			0.252214			0.43587			0.616142			-0.302148			0.199674			0.629077			-0.0869097			0.396363			0.333148			-0.660492			-0.288655			0.213617			0.125193			-0.111116			0.195595			-0.267232			0.839611			
-0.597295			0.455839			0.518173			0.326822			0.42085			-0.138167			0.80775			0.228086			0.35408			-0.413758			-0.532004			-0.471872			0.282575			0.417144			0.498987			-0.472362			0.502327			0.136965			-0.0997305			0.44791			-0.833246			-0.0215293			-0.132379			0.993073			0.398142			-0.662902			-0.305708			0.573596			-0.145234			-0.0659322			0.283462			0.00579283			-0.75514			-0.0772427			-0.760773			0.243878			0.380129			-0.382155			0.322387			-0.226639			-0.709895			-0.45702			-0.491796			0.98666			-0.0503112			-0.962894			0.301433			0.106578			0.804036			-0.512677			-0.155828			0.388035			-0.405323			0.369526			0.117564			0.468931			0.0620315			0.127842			0.564481			0.481625			-0.511548			0.366877			-0.209952			0.18579			-0.0495301			0.749254			-0.31626			0.687611			0.56304			-0.510397			0.402187			0.140989			-0.0706956			0.354677			0.50707			-0.825212			0.00537133			-0.677801			-0.0291761			0.11259			-0.890627			0.365508			-0.0962953			-0.220359			0.313296			0.431627			-0.496111			-0.43195			0.253323			-0.249241			0.953779			0.924436			0.738952			0.310316			0.52776			0.0285994			0.181106			0.162056			-0.362743			0.937439			
0.0136563			0.309705			0.720509			-0.196039			0.415744			-0.112335			-0.56948			0.477544			-0.356974			-0.201573			0.350407			-0.27012			-0.705515			-0.262436			-0.175362			-0.171653			-0.415314			0.0534858			0.425932			-0.896034			0.657164			0.253716			-0.0880876			-0.398238			0.092475			0.515977			-0.0232612			-0.144106			0.189372			-0.222961			0.315754			0.466494			-0.651206			-0.184384			-0.713371			-0.225923			0.181673			0.0385269			0.101535			0.438291			-0.416377			-0.0344286			0.767731			0.355997			0.601547			0.129081			-0.407966			-0.274784			-0.258255			-0.0716753			0.505345			0.136971			0.123081			-0.553079			0.0898856			-0.45581			-0.236253			-0.223239			-0.557354			-0.236622			0.213725			-0.424658			0.398962			0.49322			0.346824			-0.590608			-0.481349			-0.419146			-0.207627			0.206958			-0.165778			0.333193			-0.292895			0.296897			-0.925057			-0.237246			0.0103343			0.000852951			0.875222			-0.127455			-0.379573			0.716261			-0.790653			-0.320234			-0.0771138			-0.311352			0.0410646			-0.0545306			0.102754			-0.0914866			-0.630597			0.0379944			0.288781			-0.221928			-0.0375644			-0.646167			-0.332065			-0.257072			-0.48634			0.731273			
-0.0140572			0.830354			-0.472193			-0.293397			0.0120754			0.0954832			-0.084837			-0.00216354			0.0109828			-0.201539			0.417503			-0.527877			-0.154483			0.160816			0.0146867			0.280577			0.470022			0.533367			0.779143			0.410298			-0.257052			0.322857			-0.374452			-0.308813			0.224299			-0.145649			0.538524			0.585456			-0.24082			-0.697405			0.0919809			-0.576308			-0.0727332			0.148909			-0.138997			-0.049602			0.259725			-0.112365			-0.419165			-0.0360036			-0.00288193			0.77034			0.0709304			-0.278607			-0.400043			0.125164			0.192523			0.231696			0.0724734			-0.182435			0.345644			-0.31306			0.814835			-0.120062			0.42949			-0.165739			-0.806283			-0.383643			-0.0260746			-0.527892			0.823093			0.0579374			0.558419			0.00679212			0.0383095			0.53217			-0.575895			0.260531			0.712032			0.263403			0.315255			0.485954			0.0480616			-0.808066			0.587509			-0.636414			0.172793			-0.170653			-0.0949025			-0.00324908			0.237857			0.202956			0.688991			-0.205555			-0.152238			0.905452			0.0564692			-0.337829			0.101214			0.230865			-0.27708			0.285516			-0.409895			0.171757			0.403915			-0.448741			-0.279769			-0.0432521			-0.273809			0.800345			
-0.650728			-0.359629			-0.0338519			0.318629			-0.781939			-0.115969			0.298877			-0.211067			0.0414655			-0.175168			-0.189777			0.138966			-0.028769			-0.208301			-0.545036			0.368199			0.391713			-0.499226			0.375473			0.0446072			0.266402			0.321301			0.331324			-0.901452			-0.349064			0.393375			-0.174492			-0.226837			0.0284043			-0.10134			-0.530461			0.253863			-0.0754927			-0.177636			-0.035387			0.51236			0.400021			-0.269653			-0.143317			-0.204426			0.627587			-0.300281			-0.03634			-0.206805			0.65506			0.181791			0.403459			-0.274819			-0.672639			0.400502			-0.499331			0.0285124			0.0648286			-0.479226			-0.471265			0.249721			0.0928091			0.630371			-0.545337			0.503669			-0.23064			0.241552			0.057945			-0.6466			-0.213295			-0.0296014			0.22598			0.694304			-0.188084			-0.130843			0.344375			0.708002			-0.34152			0.138606			0.988936			-0.104689			0.373452			0.192706			-0.158005			0.683995			0.944595			0.302809			0.113877			-0.22785			-0.31968			-0.771896			0.906783			-0.106268			0.331835			0.254324			0.539797			-0.215838			0.228798			-0.0515449			-0.14859			0.555282			0.254712			-0.897627			-0.187015			0.104075			
-0.174569			0.210812			0.764306			0.409795			-0.47489			0.112221			0.226251			-0.0264095			-0.17604			0.598115			-0.455161			-0.338537			0.438824			-0.299984			0.648629			-0.281127			0.60413			-0.149401			0.759394			-0.661661			0.195074			0.130368			0.00841741			-0.388555			0.424243			0.265585			0.38192			-0.348036			0.163045			0.00405054			-0.0584042			-0.320609			-0.239571			-0.0178138			0.13093			-0.171338			0.0160884			-0.989514			-0.693768			0.287971			0.685768			0.63242			-0.765804			-0.842657			0.310196			0.334804			-0.287736			0.196928			0.0611187			-0.285087			0.143146			0.548275			-0.407672			0.135206			0.178543			-0.178518			-0.507918			0.0326162			0.127755			-0.732614			0.74396			0.289633			0.2519			0.1899			-0.677808			-0.920692			-0.729191			-0.341718			0.637354			0.388471			-0.505358			-0.197725			-0.039977			0.459466			0.0825322			0.212711			0.469634			-0.731321			0.0573645			-0.248142			-0.481966			0.898704			-0.0367463			-0.0363815			0.24049			-0.372629			-0.588181			-0.121366			0.102181			0.250571			0.307199			0.95552			0.0954183			-0.483984			-0.489216			0.00439761			0.186611			-0.222214			-0.250237			0.515587			
0.941479			-0.203961			-0.0898848			0.39963			-0.284966			0.0320949			-0.224193			0.539014			0.126417			-0.101192			-0.536147			0.234108			0.0395573			-0.341215			-0.0148924			0.0133539			0.786481			0.19223			-0.176231			-0.442603			-0.0419024			0.434566			0.816319			0.995086			-0.35284			0.175055			0.0429806			-0.44111			0.0496279			-0.553502			0.00563636			0.705303			-0.946138			-0.16104			-0.243222			-0.0396038			0.538682			-0.314433			0.707832			0.426109			0.832073			-0.457731			0.616987			0.0300554			0.119849			-0.752541			-0.442956			-0.941966			-0.578697			0.288241			0.886182			-0.753948			0.112257			0.586553			0.655448			-0.000831156			0.150159			0.0514504			0.665694			-0.697163			0.807459			-0.0504883			0.407104			0.579195			0.175175			0.263602			-0.637999			-0.0950912			0.414223			-0.213182			0.776169			0.707633			0.199537			-0.580297			-0.563825			0.282031			-0.0170191			0.108707			-0.398112			0.500399			-0.11777			0.628647			0.750941			-0.0205425			0.919047			0.618048			0.609034			0.234425			-0.188067			0.124315			0.010377			0.133438			0.810017			-0.790818			0.85409			0.225965			0.104288			-0.175658			-0.571534			0.720277			
-0.06769			-0.718313			-0.401152			-0.579288			-0.224009			-0.36638			-0.0605464			0.27721			-0.354758			0.475986			0.0748156			-0.384189			-0.577444			-0.0805342			0.682796			0.662565			0.0893592			0.345417			-0.0810547			0.685528			-0.865369			-0.116915			-0.0672689			0.123722			0.228747			-0.173762			0.166076			0.124154			0.399748			-0.616157			-0.935704			-0.468818			0.0144144			0.152897			-0.905488			-0.85917			-0.203966			0.414365			0.584418			-0.901324			-0.0743931			0.043895			0.507682			-0.125098			-0.121347			0.0280724			-0.161851			0.215464			0.179262			0.132097			-0.398986			-0.0185175			0.529848			0.614513			-0.0539578			-0.127071			-0.0866528			-0.255523			0.286195			0.266818			-0.298968			-0.447778			0.385713			0.0860323			-0.536604			-0.176559			-0.446259			-0.319645			0.440982			-0.182718			-0.0781901			-0.116662			-0.222376			-0.252054			0.382311			0.618634			0.865581			0.150106			0.967737			0.987128			0.103694			0.332466			0.480891			-0.379093			0.106628			-0.0513426			0.171498			0.392654			0.76256			0.166699			0.183354			0.407373			0.861188			0.525655			0.259072			0.634903			0.664426			0.0465198			0.0141584			-0.0939511			
0.338969			0.463258			0.217432			0.0307192			-0.0923341			-0.0442168			0.0127741			0.784878			0.0323922			-0.704047			0.735383			0.704697			-0.197796			-0.0366712			0.558144			0.119042			0.391527			0.0047572			0.55571			0.080349			-0.450191			0.189117			-0.472			-0.0064121			0.835659			-0.194163			-0.24404			-0.395486			0.796361			0.104128			0.0635232			-0.246201			0.392226			0.761284			-0.448044			-0.25806			0.115392			-0.193851			0.783662			-0.0567052			0.455192			-0.126069			0.332849			-0.638896			-0.0357776			0.130638			0.0432205			0.527564			0.395779			-0.275427			0.51654			0.165171			-0.0530027			-0.0672375			-0.186593			-0.283945			0.085004			-0.104842			0.40314			-0.506271			-0.528223			0.291534			0.74648			0.0843138			-0.128072			-0.369324			0.308874			0.131697			-0.196508			0.140864			-0.321538			-0.108309			0.143218			-0.604554			-0.561315			0.350442			0.498787			-0.418446			-0.527974			0.306771			-0.669058			0.541063			-0.176223			0.157291			-0.0570651			-0.541838			-0.510728			-0.0278814			-0.672988			0.684624			0.56038			-0.0737744			-0.102123			0.109418			0.322356			-0.239763			-0.47483			0.163663			0.0554162			0.0965671			
0.557001			0.0496137			-0.273244			-0.676738			0.369735			-0.0622544			-0.129861			0.897528			-0.299108			-0.224659			-0.183849			0.0171452			0.33099			0.814117			0.378389			-0.805579			0.413426			-0.367604			-0.386674			-0.171449			-0.161782			0.447144			0.230382			-0.154332			-0.935628			-0.162938			0.0262491			0.686496			0.0720164			-0.112736			-0.33226			0.819996			-0.00711119			-0.711463			-0.203077			-0.48678			-0.259024			0.0912135			-0.878611			-0.134527			0.0828998			-0.205368			0.441041			0.465465			0.18768			-0.0292968			-0.296645			0.0672484			-0.752566			-0.226401			0.00614762			0.696236			0.982921			-0.674068			0.316132			-0.42491			0.599934			-0.162339			-0.648826			0.476438			0.796624			-0.0233926			-0.203826			-0.214901			-0.579744			-0.604839			-0.214582			-0.0448693			0.114839			0.196701			0.542576			0.395798			0.0971454			0.686211			0.21007			-0.38285			0.469662			0.460701			-0.100326			0.533992			-0.675111			-0.583845			-0.340626			-0.141205			0.661009			0.0217841			-0.696586			0.0534311			0.28604			-0.467979			0.537902			0.543317			-0.0558745			0.29244			-0.215016			-0.238512			-0.407627			-0.838261			0.162121			-0.694169			
0.535303			-0.561856			0.512992			0.136755			0.164389			-0.755621			-0.0987384			-0.0178624			0.25368			0.669924			0.429654			0.256201			-0.323469			-0.085833			-0.195331			-0.475236			-0.124857			0.213759			0.0500155			-0.437386			-0.0872414			-0.170181			-0.492043			0.865445			0.0237032			0.150248			0.746247			-0.110435			-0.0501597			0.100835			0.494192			0.299918			-0.858605			0.474238			-0.131786			0.231241			-0.775513			0.447912			0.115299			-0.306334			-0.129745			-0.603537			0.850313			-0.265122			-0.46202			0.243579			0.18202			-0.592453			-0.406786			0.708961			0.247783			0.20736			-0.368366			0.682892			0.0674726			-0.223487			-0.191326			0.852579			-0.401042			-0.474605			0.587157			0.254893			0.997275			0.151007			0.791364			0.296553			-0.556564			-0.097381			-0.200389			0.0944346			-0.502694			0.915481			-0.424635			-0.00605441			-0.0628699			-0.491504			0.963491			-0.527022			0.4733			-0.55884			0.416098			-0.0782582			0.303846			-0.606777			-0.502626			-0.219941			0.0114171			0.128612			-0.810391			0.405302			0.330507			-0.0789299			-0.473089			-0.243249			0.352203			-0.670257			-0.281043			-0.242614			-0.303426			0.520554			
0.685469			-0.594412			0.671773			0.28476			-0.0447705			0.445811			-0.714124			-0.109665			0.707413			-0.65438			-0.471455			-0.0247753			-0.125172			0.38653			0.174963			-0.556171			0.890624			-0.444987			0.0880161			0.813615			0.219568			-0.198352			0.0130674			0.0996908			0.840154			0.0645093			-0.141219			0.101039			-0.574981			-0.511113			-0.0734696			0.769707			0.288943			-0.0564327			0.438639			0.307573			-0.0909097			-0.643007			0.126431			0.315604			0.15389			-0.479836			-0.632314			-0.460652			-0.721203			0.761199			-0.250689			-0.153713			-0.219684			0.956121			0.298152			-0.0245957			0.40338			0.973935			-0.195395			0.151855			0.448749			-0.621328			-0.0875905			-0.606933			-0.352606			-0.118536			0.0885754			-0.992732			0.115196			0.609106			-0.0525545			-0.0950528			0.721947			-0.139847			0.301991			0.346032			0.495845			-0.272313			0.00422719			0.158548			-0.570048			0.199508			-0.286346			-0.0333897			0.171257			0.6658			-0.657336			-0.315432			-0.654823			0.0859599			0.195191			-0.62273			-0.376798			0.433965			0.00711666			-0.264849			0.287006			0.148599			-0.527001			0.575415			-0.488482			-0.354284			0.358817			-0.0253706			
