Matrix_3
0.433528			0.138201			0.40986			-0.269734			-0.0307101			0.505699			-0.188133			0.259764			-0.260762			-0.639407			0.21061			0.61953			-0.137232			-0.557325			0.874415			-0.305593			0.213053			0.475897			-0.202237			-0.0222836			0.032636			-0.150187			-0.853525			-0.717016			-0.0648823			-0.342755			0.226001			0.357074			-0.141308			-0.703952			-0.584804			-0.382372			-0.19901			0.72894			-0.906462			-0.374952			-0.665422			0.149467			-0.543147			0.540016			0.403187			-0.116761			-0.710565			-0.186091			-0.40705			-0.298295			0.332913			-0.131213			-0.263872			0.599049			0.183524			-0.53792			0.0686088			0.135628			0.451448			-0.0587204			0.461572			0.0858714			-0.663428			-0.177409			-0.452723			0.894603			0.745959			-0.211067			0.0246977			-0.154784			0.147367			-0.780458			0.670195			0.0116166			0.326772			-0.971547			-0.562042			0.652389			-0.472723			0.526624			-0.689459			0.793477			-0.248806			-0.753148			0.0525473			0.90181			0.132257			-0.713677			0.22464			0.19287			-0.387093			-0.319309			-0.593941			-0.463758			0.13744			0.172832			0.51281			0.676049			0.877743			0.798975			-0.0327654			0.602976			-0.0646083			0.262848			
-0.79864			0.114519			-0.309288			0.504828			-0.448005			0.0223005			-0.228972			-0.449171			0.0648524			0.313381			0.126382			0.05523			0.291832			0.251077			0.13786			-0.737612			-0.336025			0.436049			0.0602229			-0.498224			0.242208			-0.0787871			0.628688			0.313716			0.223095			0.422046			0.200183			-0.454578			-0.128281			0.00429881			-0.242792			0.288719			0.375942			-0.0572761			0.523202			0.0678307			0.748294			-0.765667			-0.180112			-0.0810024			0.211573			0.0346908			-0.615522			0.0800766			-0.744159			-0.0263201			0.493164			0.829824			0.142671			0.136729			0.351206			-0.169575			0.61634			0.40827			0.684941			0.0586698			0.221747			-0.0825868			0.318454			0.170841			-0.0552966			-0.80805			-0.281997			0.600061			-0.0243031			-0.0446981			-0.213127			0.799269			0.0327741			0.363379			-0.239098			0.0886209			0.184702			-0.323308			0.929429			0.527505			0.481761			0.331668			0.240834			0.714569			-0.253859			0.496459			-0.616223			0.502546			-0.0514631			0.0844222			-0.160919			0.484068			0.224246			-0.174858			0.455274			-0.0998886			-0.0411818			0.230246			0.64647			0.202261			0.0817167			-0.189141			-0.474185			-0.159374			
